<?xml version="1.0"?>
<opencv_storage>
<my_svm type_id="opencv-ml-svm">
  <svm_type>C_SVC</svm_type>
  <kernel><type>LINEAR</type></kernel>
  <C>1.</C>
  <term_criteria><epsilon>2.2204460492503131e-016</epsilon>
    <iterations>100000</iterations></term_criteria>
  <var_all>8208</var_all>
  <var_count>8208</var_count>
  <class_count>2</class_count>
  <class_labels type_id="opencv-matrix">
    <rows>1</rows>
    <cols>2</cols>
    <dt>i</dt>
    <data>
      -1 1</data></class_labels>
  <sv_total>1</sv_total>
  <support_vectors>
    <_>
      -3.19248527e-001 4.32038866e-002 -4.67806235e-002 -1.63090944e-001
      -5.40068507e-001 -8.96814689e-002 7.96845779e-002 -1.53543144e-001
      -3.69316101e-001 -1.44498408e-001 3.21716405e-002 1.42654208e-002
      3.32159936e-001 -2.87758321e-001 -4.08502668e-002 -1.22376963e-001
      -1.54693261e-001 -9.35783312e-002 -2.82994926e-001 3.25837508e-002
      -1.96666762e-001 -2.33272258e-002 1.39381334e-001 1.11663334e-001
      -1.26593918e-001 3.31571558e-004 -3.26984525e-001 9.09597129e-002
      -1.83843225e-001 -3.05577248e-001 -6.13820888e-002
      -5.79166077e-002 -2.79007167e-001 1.44261882e-001 -3.40151221e-001
      3.32032531e-001 -1.86962672e-002 3.64021242e-001 -6.06118515e-002
      -2.60374993e-001 -4.45596963e-001 2.45496437e-001 2.61395257e-002
      2.46998385e-001 7.17220530e-002 -2.52377450e-001 6.82645664e-002
      1.62471819e-003 6.27995282e-002 -2.07198085e-003 2.20323354e-001
      3.58364135e-001 -3.90924932e-003 -2.76555628e-001 -1.77266262e-002
      -8.93699154e-002 -2.00841591e-001 -3.75178695e-001
      -1.32010907e-001 3.38207215e-001 -7.12526450e-003 -6.45818189e-002
      -1.10813215e-001 -9.24783573e-002 -2.46783003e-001
      -1.44557506e-001 4.45825718e-002 1.82487771e-001 -1.75341889e-001
      -1.65983245e-001 1.68057740e-001 -1.31528005e-001 -1.56370685e-001
      -3.49939577e-002 1.88985974e-001 3.41313004e-001 -4.40360308e-001
      -6.45307004e-002 3.00580207e-002 2.50377518e-004 -2.15323493e-001
      -2.03157235e-002 -1.27513260e-001 2.78754115e-001 -9.30314735e-002
      -1.06580973e-001 -1.38039827e-001 1.18310049e-001 -3.88276160e-001
      -2.70666271e-001 -1.97524324e-001 1.10431418e-001 -1.12397395e-001
      -3.88269089e-002 1.30207688e-001 1.10416032e-001 1.79888368e-001
      -1.50547549e-001 -9.76293720e-003 -2.35127419e-001 4.48400676e-002
      -1.02918498e-001 -5.05144417e-001 3.81935894e-001 -4.18460846e-001
      -1.32729888e-001 -2.25672066e-001 -5.83866015e-002
      -1.20680377e-001 -1.37060776e-001 9.77099463e-002 2.10995063e-001
      -2.58341402e-001 1.51682779e-001 2.51604974e-001 6.94774985e-002
      9.45816785e-002 7.59123266e-002 1.41832680e-001 -1.97820559e-001
      -1.33567661e-001 -7.64567927e-002 4.73127626e-002 2.25375921e-001
      -6.35801777e-002 -4.64922078e-002 -1.62182733e-001 1.62837729e-001
      5.10163829e-002 1.76317468e-001 4.14522320e-001 1.73529416e-001
      3.22891206e-001 -3.30280066e-002 2.29976803e-001 -1.59554482e-001
      1.14018269e-001 2.02877074e-001 -2.22569346e-001 8.09954181e-002
      -4.45988536e-001 1.36980280e-001 -5.01782149e-002 -1.02962414e-002
      -6.07018098e-002 1.15098268e-001 2.57062852e-001 1.98002651e-001
      -3.92302364e-001 3.20732087e-001 3.22528273e-001 2.97650725e-001
      -4.54198048e-002 3.90944071e-002 2.86135282e-002 -1.82387661e-002
      2.03118145e-001 -3.24597061e-001 4.65151519e-002 3.53926510e-001
      -3.23469937e-002 5.14648901e-003 2.88872600e-001 2.91970819e-001
      1.52280601e-002 -1.02640972e-001 2.88080692e-001 1.78531215e-001
      -1.95221864e-002 -3.70552205e-002 8.05969164e-002 -4.05743457e-002
      1.99630614e-002 -2.75191307e-001 -3.69621783e-001 2.02753589e-001
      -5.07407784e-001 2.71633476e-001 -7.48642012e-002 -3.85108329e-002
      -5.71216233e-002 -7.87299946e-002 1.46159798e-001 7.02848017e-001
      -4.07800585e-001 3.23707849e-001 2.78390110e-001 -1.30578369e-001
      8.95792842e-002 -2.13935569e-001 -2.19777212e-001 9.22618583e-002
      1.03162125e-001 -4.78746504e-001 1.33661970e-001 -1.01949885e-001
      -1.88740700e-001 7.83512816e-002 1.35207891e-001 1.09239437e-001
      2.65871614e-001 1.54295221e-001 4.52875376e-001 3.23431134e-001
      1.80688113e-001 -7.19521791e-002 -1.02504984e-001 -2.46445224e-001
      4.07290906e-001 -7.02510849e-002 -2.29619771e-001 2.29417980e-001
      -7.07306787e-002 -4.65468280e-002 2.42320180e-001 9.64799616e-003
      8.16338509e-002 1.19956456e-001 -1.17281824e-001 4.51001167e-001
      -2.89166451e-001 2.87959099e-001 2.24338681e-001 2.18562767e-001
      -6.63046092e-002 1.23049140e-001 4.36551541e-001 6.25485927e-002
      1.00149035e-001 -3.61128867e-001 -3.60089749e-001 1.58489376e-001
      -6.57889396e-002 -5.54289203e-003 -1.32401749e-001 2.98405021e-001
      -1.45914450e-001 4.68015298e-002 -1.36617780e-001 2.63194740e-001
      -5.53619713e-002 7.63396919e-002 -6.43779337e-002 -1.99603498e-001
      -9.18899029e-002 -3.72682288e-002 6.47412315e-002 2.12287217e-001
      -3.02478701e-001 1.95540860e-001 -2.71635354e-001 -1.74017131e-001
      2.29304135e-001 2.65396059e-001 2.42917873e-002 1.03105167e-002
      -3.79825264e-001 5.43530345e-001 3.26980948e-001 4.25998792e-002
      1.80413038e-001 -1.95301965e-001 4.74675357e-001 -1.20966226e-001
      8.28150809e-002 -2.29855597e-001 1.17130958e-001 -5.45333810e-002
      3.73038203e-001 6.08758368e-002 2.42718682e-001 8.11904892e-002
      1.93867624e-001 6.94629475e-002 3.32070231e-001 4.54533517e-001
      2.88928449e-001 2.35565469e-001 2.49248669e-001 2.08577905e-002
      1.52520299e-001 -1.26114329e-002 -4.25832905e-002 3.30100775e-001
      -1.93410702e-002 -7.57182911e-002 4.29251529e-002 -2.32680216e-001
      -8.56102705e-002 1.09418727e-001 -3.24522145e-002 1.32988349e-001
      -5.40497936e-002 3.61359268e-001 6.92320317e-002 -4.06607660e-003
      2.63275087e-001 -5.76747879e-002 2.18792651e-002 -6.24745488e-002
      6.09478056e-001 5.43433018e-002 -4.39721420e-002 2.83343613e-001
      -2.69989073e-001 3.25228035e-001 3.68562639e-002 2.95056075e-001
      2.51598898e-002 -2.42367566e-001 4.58182007e-001 3.06671888e-001
      2.91247070e-001 1.75525710e-001 2.00352713e-001 -2.65285838e-002
      2.39634424e-001 -8.71668682e-002 -1.06474616e-001 2.64585465e-002
      -4.28813368e-001 1.39455065e-001 -7.13657439e-002 1.35416433e-001
      -1.89124882e-001 3.40360664e-002 -6.19991980e-002 2.10611820e-001
      -3.87246341e-001 -1.16326950e-001 -1.73872516e-001
      -3.85026962e-001 -1.91937480e-002 1.64188340e-001 -3.89886796e-002
      1.73249796e-001 1.58966869e-001 -9.65042412e-002 1.48516878e-001
      1.83789462e-001 -7.30509013e-002 1.64825618e-001 -1.24523647e-001
      1.60326809e-001 -7.59544000e-002 -1.06150873e-001 1.69939131e-001
      2.86072075e-001 1.98695630e-001 1.36178061e-001 1.40793934e-001
      -7.99824856e-003 4.08774287e-001 1.27371237e-001 -5.49384803e-002
      1.59714341e-001 -3.09217721e-001 -8.15328211e-002 -7.18447715e-002
      2.44485661e-001 -3.25674340e-002 9.92111955e-003 4.23567861e-001
      1.53470188e-001 -3.46864432e-001 5.34496546e-001 2.94216186e-001
      2.89171748e-002 -2.65752494e-001 2.11888164e-001 -6.62921369e-002
      2.11878672e-001 -1.25056412e-002 -3.17350239e-001 9.91868079e-002
      -1.35404453e-001 -5.82468361e-002 2.23743349e-001 -5.30279689e-002
      5.65267317e-002 -1.03765242e-001 1.75884087e-003 4.91264313e-001
      2.57813334e-001 1.74831942e-001 1.33297592e-001 2.38714069e-002
      7.18782842e-002 3.18437994e-001 2.34753951e-001 1.00145727e-001
      2.02167794e-001 -2.38652587e-001 -6.64899573e-002 1.73002528e-003
      2.90663213e-001 4.67211336e-001 -9.00643393e-002 -9.84114315e-003
      -1.08439788e-001 -3.27186324e-002 -2.39673540e-001 6.74850270e-002
      -1.97013259e-001 9.75423604e-002 1.37843907e-001 8.08179751e-002
      2.84672707e-001 2.05614626e-001 -7.49936402e-001 -1.01691574e-001
      8.55479091e-002 -2.68381625e-001 -2.82924145e-001 4.91039276e-001
      5.36543354e-002 -1.11757584e-001 4.89364006e-002 5.14620006e-001
      4.96555306e-003 3.73540282e-001 -2.97555272e-002 5.12365997e-001
      2.75275186e-002 5.18186510e-001 1.33358136e-001 -2.60973573e-002
      2.19382823e-001 -2.31162403e-002 2.24880248e-001 -1.57817081e-001
      -1.92786872e-001 -5.74576622e-003 2.80900776e-001 -1.55110613e-001
      -2.97878720e-002 4.28562760e-002 -1.27735823e-001 -1.94040090e-001
      -1.06158182e-001 -3.96371216e-001 6.44701049e-002 1.49151802e-001
      1.89395815e-001 3.19830328e-001 2.13370085e-001 -2.30348468e-001
      2.15207919e-001 -1.51815787e-001 3.85965973e-001 -1.46579310e-001
      -5.40121570e-002 -2.64723003e-001 6.56377375e-002 1.27416596e-001
      3.83598298e-001 1.64384216e-001 1.21583179e-001 -3.13219607e-001
      1.10553615e-001 -5.14988117e-002 -1.31218106e-001 -3.48381221e-001
      -9.50990152e-003 -2.32320294e-001 7.12379906e-003 2.00281516e-001
      1.82232559e-001 1.52066514e-001 1.62224099e-001 -1.79475278e-001
      9.66234505e-002 -2.66479611e-001 8.86433497e-002 -1.82441071e-001
      4.77866605e-002 9.09027532e-002 4.83268611e-002 1.67036921e-001
      2.05489501e-001 1.52297691e-001 3.28176990e-002 -1.26291648e-001
      5.37763350e-002 1.65798068e-001 -3.11660737e-001 -9.24146771e-002
      -3.03755879e-001 -2.06134692e-001 1.31718606e-001 5.76784313e-002
      3.77847493e-001 2.68260911e-002 1.41814232e-001 -3.89147885e-002
      3.75989750e-002 -6.36096345e-003 -2.08308801e-001 -7.57027119e-002
      7.42286965e-002 -1.95538521e-001 2.49544494e-002 -6.90804503e-004
      -7.79006854e-002 2.78971672e-001 6.52421266e-002 1.58449516e-001
      -3.02254818e-002 -8.05246755e-002 -2.56794393e-001 2.32005250e-002
      -2.99777370e-002 7.66268075e-002 -3.21277417e-002 -1.17421634e-001
      -5.18012866e-002 -3.72477531e-001 2.54109532e-001 -2.57172640e-002
      -1.59149975e-001 -1.00746229e-001 -2.68272698e-001
      -1.01913609e-001 1.83335826e-001 1.43334538e-001 -2.11005062e-001
      3.08402508e-001 2.17610106e-001 3.68051201e-001 -8.23050365e-002
      -1.83583364e-001 1.08237870e-001 2.07894847e-001 2.23340318e-001
      -2.66745269e-001 -8.25500023e-003 1.17720605e-003 -2.05164924e-001
      -1.85078323e-001 -1.73693430e-002 -4.96797673e-002
      -4.61613126e-002 1.17177121e-001 -2.00099811e-001 -2.25502580e-001
      -1.96068436e-001 1.59931466e-001 1.77564383e-001 -9.30184349e-002
      -1.01764619e-001 5.75984642e-002 3.10066283e-001 3.68852057e-002
      2.50295490e-001 1.63509101e-002 2.95789957e-001 1.60362184e-001
      1.55442491e-001 -5.22892252e-002 -9.61626843e-002 5.60091529e-003
      -7.40560815e-002 8.21743235e-002 3.64392251e-001 4.70784791e-002
      -1.68372408e-001 -2.93349564e-001 4.87072580e-002 -2.24035069e-001
      8.97640362e-002 -1.19070694e-001 1.87485311e-002 -3.88301641e-001
      -6.45143613e-002 -2.11572483e-001 -1.12471087e-002 2.59013325e-001
      -1.06272914e-001 7.19369724e-002 -1.85947381e-002 9.42533687e-002
      3.11180413e-001 4.39831689e-002 -1.22220002e-001 1.43637015e-002
      -6.26944825e-002 -2.28678405e-001 -2.08640963e-001 1.36625141e-001
      -3.30955237e-002 -2.01574638e-001 3.78836095e-001 -1.14072308e-001
      -4.20876116e-001 4.19613868e-001 -3.89554501e-001 1.66129112e-001
      3.39906901e-001 3.08546215e-001 4.27648008e-001 3.34531218e-001
      2.70586703e-002 4.79173474e-002 -7.59124905e-002 -5.71939461e-002
      1.40704336e-002 -3.93108875e-002 4.15263772e-002 2.77621318e-002
      -9.01912972e-002 -6.17369311e-003 3.55580717e-001 1.60620689e-001
      1.66327938e-001 3.62565406e-002 -1.98763788e-001 -4.31458056e-002
      2.26687491e-002 2.01287851e-001 1.12718567e-001 -7.18641281e-003
      8.67739692e-002 1.93296432e-001 -2.76180387e-001 -3.02318901e-001
      1.35192797e-001 -2.58914024e-001 -8.54410082e-002 -1.38104886e-001
      -1.06142424e-001 -2.80672312e-001 1.59253869e-002 1.68718994e-001
      6.97499514e-002 9.33841616e-002 2.40646884e-001 -2.20240459e-001
      1.21626921e-001 4.65122275e-002 -2.22408161e-001 -6.70150518e-002
      -3.52176309e-001 -6.50444031e-002 -2.87643168e-002
      -2.44253978e-001 -1.19819336e-001 6.95955679e-002 7.02171624e-002
      -8.22890997e-002 1.73053533e-001 4.78805136e-003 -2.17447616e-002
      -2.50564635e-001 2.32610181e-001 -7.48120621e-003 1.21377848e-001
      -1.13024265e-001 2.32721746e-001 -8.07778165e-002 -1.45391300e-001
      3.64355929e-002 -2.03143820e-001 -1.93337888e-001 1.55197727e-002
      -9.23952553e-003 2.10753709e-001 -5.04843593e-002 1.13851810e-002
      2.48529568e-001 1.86377570e-001 -2.83505052e-001 1.50922030e-001
      -9.05677080e-002 -3.97564583e-002 1.36289641e-001 -6.22676536e-002
      5.83759546e-002 -7.16035888e-002 -1.27574369e-001 5.47035113e-002
      -1.54542610e-001 4.37245369e-001 3.60989451e-001 1.24431197e-002
      9.64586437e-002 -2.42945656e-001 1.30164891e-001 3.53828281e-001
      -2.46078849e-001 2.07284555e-001 -1.97306782e-001 1.42314941e-001
      4.94252533e-001 -9.01824608e-002 4.30638269e-002 -1.06372222e-001
      -2.22398579e-001 1.45450875e-001 1.82496965e-001 -1.92562565e-001
      -7.37089440e-002 -1.29791111e-001 -9.99673158e-002 3.59994322e-001
      2.90785339e-002 6.69586882e-002 -5.05763926e-002 4.91531372e-001
      1.46789372e-001 5.13680726e-002 -1.49847254e-001 1.24383206e-002
      4.92991149e-001 3.17900360e-001 7.46347159e-002 -3.35171558e-002
      -7.79390708e-002 2.98997015e-001 1.24305412e-001 -4.04657098e-003
      -7.02325255e-002 -1.15302071e-001 2.96322018e-001 -1.60932094e-001
      -1.73494965e-001 3.26787829e-001 -1.88361675e-001 -1.49124622e-001
      1.58779770e-001 1.21941544e-001 1.74452841e-001 -1.14811942e-001
      8.22710097e-002 2.44028628e-001 6.79285750e-002 -2.13619187e-001
      -7.22480193e-002 3.03021789e-001 2.41426975e-002 -1.47453442e-001
      6.97545707e-002 2.64748842e-001 2.58025646e-001 3.55690032e-001
      2.58980870e-001 1.29965425e-001 3.17218304e-001 -2.03185856e-001
      -6.75894022e-002 9.54699069e-002 7.16781840e-002 3.84213030e-002
      -1.34340167e-001 -2.12210398e-002 5.63113280e-002 -7.25273555e-003
      2.73641478e-002 -1.90545935e-002 -2.14901567e-001 -1.72292784e-001
      3.38170886e-001 3.71444434e-001 -1.60846964e-001 -3.33226085e-001
      -1.14091188e-001 -1.29441828e-001 -3.55395898e-002
      -2.91177034e-001 1.31916702e-002 -2.48242527e-001 2.34308038e-002
      -6.53220117e-002 2.03185854e-003 -5.59997093e-003 1.46762311e-001
      -3.67874056e-002 -1.11535229e-001 -3.22922975e-001 8.23774710e-002
      2.27096960e-001 2.75657922e-001 -1.84734970e-001 -1.26984701e-001
      -9.52991024e-002 1.56808421e-001 2.29584724e-001 3.55507992e-002
      -1.52425900e-001 -1.72360986e-001 1.63359344e-001 -5.24411257e-003
      1.48173660e-001 1.14803952e-004 1.16797395e-001 2.21551899e-002
      5.87405898e-002 -1.21566847e-001 -2.08183423e-001 -5.29859811e-002
      -3.39812309e-001 -1.58982843e-001 -2.79626772e-002 8.62258300e-002
      1.39168248e-001 -1.97663724e-001 2.07856193e-001 1.11155167e-001
      -2.19482318e-001 -1.13411859e-001 9.25831646e-002 -1.80830896e-001
      -1.44688129e-001 2.80313522e-001 8.26879293e-002 -7.02022538e-002
      3.36919427e-002 4.37290668e-001 6.77892342e-002 1.49232745e-001
      -1.11466661e-001 -3.92654181e-001 4.47179735e-001 -1.25419021e-001
      2.75771946e-001 2.80012876e-001 5.84313214e-001 1.75558046e-001
      1.78234667e-001 2.30422139e-001 1.26850411e-001 -1.63291156e-001
      1.12828925e-001 1.34850100e-001 -1.38667941e-001 -5.14187142e-002
      -2.87801474e-001 2.96460837e-001 -8.01377520e-002 2.63106465e-001
      -3.29768032e-001 -3.84583995e-002 2.18035191e-001 3.43852073e-001
      1.62049904e-001 -9.97215603e-003 -2.49492779e-001 2.06891581e-001
      -1.29896924e-001 -1.31662264e-001 -1.02075726e-001 1.79824039e-001
      5.72855733e-002 4.61976267e-002 -2.28228793e-001 1.34923473e-001
      9.57406163e-002 1.97795704e-001 5.64846769e-002 -2.61927098e-001
      1.52739808e-001 -1.67705685e-001 2.14478195e-001 2.60245472e-001
      -3.10217887e-001 2.51098514e-001 3.86358798e-001 2.16348693e-001
      1.00813918e-001 -3.35355490e-001 -2.40565166e-001 -1.91746186e-002
      -2.28880756e-002 -6.61469102e-002 -2.67980788e-002 2.85957791e-002
      -8.02930519e-002 2.56982267e-001 -1.70673639e-001 -4.22098860e-002
      -3.77494507e-002 4.03751805e-003 1.42578334e-001 3.45474601e-001
      -5.75009659e-002 -4.33732212e-001 -2.12591067e-001 2.26615399e-001
      1.52484357e-001 -2.86042076e-002 -3.91666070e-002 -3.21831584e-001
      -1.38426796e-001 -1.19435355e-001 6.55287057e-002 -2.37342432e-001
      -1.23962618e-001 -9.78762433e-002 -3.53358537e-002 5.67185022e-002
      -2.88228780e-001 9.99498591e-002 -1.70631930e-001 1.01024263e-001
      -5.06887697e-002 1.77010536e-001 -6.33054823e-002 2.68183351e-002
      2.48039171e-001 -4.56412509e-003 1.87586844e-001 -2.12396935e-001
      1.29646808e-001 1.34881809e-001 -6.87609939e-003 9.82314199e-002
      3.85003686e-001 1.32719293e-001 -2.03704536e-001 1.30932733e-001
      2.07346246e-001 9.24627185e-002 -5.40673882e-002 4.79900062e-001
      3.38521034e-001 -2.90368628e-002 1.27058506e-001 9.45259258e-002
      2.30125058e-002 2.16596588e-001 -3.40760946e-002 6.69204369e-002
      -1.11682490e-001 -2.62028217e-001 -7.90876225e-002
      -1.44225493e-001 -1.39222845e-001 2.41143107e-001 -1.00554802e-001
      1.39033705e-001 -4.21370327e-001 8.93565416e-002 2.88052652e-002
      2.54760236e-001 1.96946889e-001 -1.62773222e-001 -6.64568767e-002
      -4.24059806e-004 2.65023112e-001 -4.98688295e-002 -1.95625983e-002
      1.69813693e-001 1.68783039e-001 -4.18353081e-002 -2.44927108e-001
      -1.84332058e-002 2.72733182e-001 2.73876578e-001 -2.16164365e-001
      1.30175903e-001 8.33260361e-003 2.59399235e-001 3.45909856e-002
      3.75070482e-001 -4.72246110e-002 -1.76173970e-001 7.70327300e-002
      -3.33206058e-002 1.76153835e-002 -1.16042882e-001 -1.37112990e-001
      -1.53644979e-001 8.75437725e-003 2.89032340e-001 -3.89371812e-002
      1.96489692e-001 -9.80799273e-002 -5.46758622e-002 3.77573036e-002
      1.83234274e-001 2.42791221e-001 2.11180355e-002 9.48426798e-002
      -6.60017803e-002 1.81672961e-001 -9.27950721e-003 3.67805399e-002
      1.45725040e-002 1.08397096e-001 -1.25089282e-004 4.40444946e-002
      -1.15708902e-001 4.22692187e-002 9.31629017e-002 3.68534446e-001
      5.92993163e-002 -1.60106450e-001 1.82349235e-001 2.23527730e-001
      1.57733142e-001 3.35221738e-002 -2.66345799e-001 -8.65723863e-002
      9.32621732e-002 3.54519993e-001 -1.88562363e-001 -3.33003444e-003
      -7.82002062e-002 -8.57327655e-002 4.06883806e-001 2.94386148e-001
      2.28378639e-001 -9.49899107e-002 1.93657607e-001 -6.12151362e-002
      1.78755507e-001 1.45520404e-001 -6.78935200e-002 8.30408186e-002
      -6.79861661e-003 5.66272996e-002 -2.35276446e-001 -1.96833402e-001
      6.72348812e-002 3.94432217e-001 -5.39058261e-002 -1.06783651e-001
      -7.02267606e-003 -5.25195748e-002 7.45653585e-002 -3.11342627e-001
      3.26200277e-001 7.88253322e-002 3.68263274e-001 1.04303621e-002
      6.73601478e-002 2.64572203e-002 -1.97311386e-001 2.91428655e-001
      -1.52706075e-002 9.32189599e-002 1.06654793e-001 1.97368518e-001
      -1.05467595e-001 -6.14912026e-002 1.52961522e-001 -8.92604813e-002
      1.97867557e-001 6.02428010e-003 -1.26657933e-001 2.38898606e-003
      -7.37677962e-002 -7.18924105e-002 -9.34236720e-002
      -2.55964845e-002 7.00109527e-002 -1.60869136e-002 1.08725101e-001
      3.55809107e-002 -2.03929901e-001 4.40981723e-002 7.27410847e-003
      -4.29462373e-001 2.68153131e-001 -1.63846463e-002 7.17434362e-002
      2.84130305e-001 -1.37296274e-001 1.45261526e-001 2.36461326e-001
      2.36023977e-001 1.67719163e-002 -1.35275260e-001 -1.28123403e-001
      1.39746964e-001 -1.44917816e-001 1.98490277e-001 -8.12984444e-003
      -5.60657457e-002 -2.78739911e-002 -2.71647811e-001
      -1.00672260e-001 -2.50808567e-001 7.87031054e-002 -1.49391025e-001
      -6.38237447e-002 2.67824411e-001 1.18157312e-001 -1.27201602e-001
      -2.09133029e-002 1.28602847e-001 -1.98507886e-002 -1.22199235e-002
      5.20217838e-003 -5.46403453e-002 -2.16766551e-001 2.18368128e-001
      8.71692039e-003 3.80402058e-002 1.85492471e-001 7.85832852e-002
      1.41937822e-001 6.68915957e-002 2.31916308e-001 -4.20893691e-002
      2.37553924e-001 -1.01287186e-001 -1.29036754e-001 -7.93334842e-002
      -1.86974362e-001 -2.35152338e-002 9.24188197e-002 1.68659881e-001
      -1.40802234e-001 -8.14590156e-002 -8.94306973e-002 7.19928294e-002
      -4.69038114e-002 1.28929809e-001 -1.31681720e-002 -1.36540338e-001
      3.82438637e-002 1.39741972e-001 -2.35378727e-001 -2.85851330e-001
      -5.84765943e-003 2.79766861e-002 -2.40486581e-002 1.07061371e-001
      1.54102266e-001 1.46364778e-001 -9.70331505e-002 -1.06019869e-001
      -1.58240542e-001 2.99888104e-001 2.14160625e-002 1.91712201e-001
      1.52925044e-001 6.24935329e-002 1.99387595e-001 1.41366631e-001
      -3.02982628e-001 1.76473036e-001 2.66974717e-001 -1.17431879e-001
      9.28872600e-002 -2.10015252e-001 1.10316426e-002 3.56717467e-001
      -1.37074217e-001 4.29511704e-002 9.52217877e-002 2.35422105e-001
      3.90488878e-002 -2.05822840e-001 1.67392015e-001 2.07607090e-001
      3.16834360e-001 1.01674706e-001 -2.10712656e-001 -1.56504288e-001
      4.27468121e-001 -1.83268532e-001 -4.21565063e-002 2.02740654e-001
      -2.23142207e-001 -6.89991713e-002 1.12728417e-001 -1.45933017e-001
      -7.10842684e-002 1.04282074e-001 8.60979334e-002 1.57304451e-001
      1.25358880e-001 1.81801423e-001 -2.11193770e-001 1.74076974e-001
      1.35900572e-001 3.58606756e-001 2.12874010e-001 -1.83956668e-001
      -1.57980084e-001 3.23330879e-001 -1.29457831e-001 3.90327215e-001
      1.05794389e-002 2.63968170e-001 3.17584068e-001 1.06327139e-001
      1.28795102e-001 1.12949982e-002 -1.70859605e-001 -2.51573980e-001
      4.14014721e-005 2.08883405e-001 -1.24970920e-001 -3.73772979e-001
      -1.34123266e-001 -9.82217118e-002 4.64316979e-002 -1.81940421e-001
      -6.23260327e-002 4.90177460e-002 -2.70574987e-001 -1.68266535e-001
      1.12925448e-001 1.28499150e-001 -1.19519003e-001 5.60748903e-003
      -1.54019460e-001 -1.61278978e-001 6.22475035e-002 3.67168151e-002
      -1.37629256e-001 -1.82533652e-001 -2.10669324e-001 3.59973572e-002
      -2.13306993e-001 -2.91545391e-001 -1.15168104e-002 9.70617635e-004
      -2.41013736e-001 6.24984980e-001 1.86520845e-001 -9.38507766e-002
      -3.46557423e-003 4.67133783e-002 -5.25625274e-002 -1.47873098e-002
      -1.68566242e-001 -1.25268415e-001 -2.25836620e-001
      -5.96319847e-002 2.81700611e-001 -5.02962968e-004 -1.57519475e-001
      1.68993548e-001 2.55566612e-002 1.92229465e-001 4.74319719e-002
      -9.04521644e-002 -2.04553887e-001 2.90455073e-001 -5.77623770e-002
      8.15803185e-002 2.41751209e-001 1.23045385e-001 4.19266939e-001
      2.66921580e-001 2.84652084e-001 1.62657738e-001 2.95135915e-001
      -6.83348253e-002 -3.68112862e-001 1.13535352e-001 7.14606568e-002
      2.95456517e-002 -7.26389810e-002 -6.48561269e-002 -1.00575715e-001
      8.46137255e-002 3.29703867e-001 1.02909774e-001 -1.17289824e-002
      1.18956760e-001 -2.88098335e-001 8.82304907e-002 -4.19079103e-002
      -3.90123218e-001 2.52035648e-001 -3.15503813e-002 1.68913677e-001
      1.25834748e-001 1.40111819e-001 -1.43418869e-003 -1.86723351e-001
      -8.65919366e-002 -1.24830075e-001 -1.05577528e-001 2.95512527e-001
      -2.37583652e-001 -1.44473836e-001 1.76148996e-001 -2.59882063e-002
      5.05160280e-002 3.96605253e-001 -3.78641188e-001 3.85565758e-001
      -7.45352730e-002 -2.45120022e-002 -1.90384034e-002
      -1.91816747e-001 2.59069562e-001 -2.45305747e-001 1.86021358e-001
      7.58191049e-002 -1.60008743e-001 -2.18748879e-002 2.39257991e-001
      5.74287549e-002 9.23433825e-002 -3.68910842e-002 -7.74354339e-002
      3.34272049e-002 1.78049490e-001 -2.09333882e-001 7.75307044e-002
      6.55299518e-003 3.00408155e-002 1.38168544e-001 2.23303318e-001
      1.22704566e-001 1.73736304e-001 6.47384152e-002 8.92107859e-002
      6.69341385e-002 -5.01941517e-002 1.01430736e-001 6.92438111e-002
      -3.68880332e-002 -5.14619648e-002 4.79877591e-002 -9.17899534e-002
      -1.82135135e-001 1.38995707e-001 -1.49946511e-001 -2.04300597e-001
      -2.51417756e-002 -2.41739020e-001 3.01884152e-002 7.79996440e-002
      3.98594923e-002 -5.78141473e-002 3.31511348e-001 1.53338045e-001
      9.26213637e-002 5.06633781e-002 3.54579720e-003 -2.52526253e-002
      -2.19899416e-002 8.69803727e-002 8.30476061e-002 2.76713371e-001
      -1.86846167e-001 -1.60408411e-002 3.43480170e-001 2.43582100e-001
      1.34870946e-001 2.21338291e-002 1.56486616e-001 -2.12662160e-001
      1.66351303e-001 2.49490857e-001 4.37182859e-002 -3.54800490e-004
      6.35597110e-002 1.38319358e-001 8.29492062e-002 1.20806456e-001
      -1.62339851e-001 9.34234262e-002 -8.25153887e-002 -3.67633700e-002
      9.07000303e-002 1.50362521e-001 1.55236691e-001 2.38362089e-001
      1.27126485e-001 -1.25912935e-001 1.03314333e-001 1.35380343e-001
      1.76008061e-001 -3.03425610e-001 1.06785737e-001 2.51081437e-002
      8.79295543e-002 4.09278899e-001 1.27348706e-001 1.21926889e-001
      -1.57116339e-001 -9.57859084e-002 9.41755809e-003 7.61464834e-002
      -4.83171567e-002 7.56545290e-002 -1.07062630e-001 -1.76919669e-001
      -1.83551013e-001 1.67620286e-001 1.50723636e-001 1.31620869e-001
      -7.83748925e-002 -1.65925190e-001 -4.89175618e-002 1.17213286e-001
      -6.56287000e-002 -6.56960383e-002 -1.28452465e-001
      -1.12760462e-001 -2.34628960e-001 -1.13163345e-001 6.46304637e-002
      1.27648458e-001 3.15209627e-002 2.71337122e-001 2.59359956e-001
      7.92655945e-002 -1.76080048e-001 3.42978507e-001 -1.12533003e-001
      6.98734168e-003 -6.43567815e-002 2.57354453e-002 -2.29412645e-001
      2.65401244e-001 1.33946657e-001 5.79398684e-002 -4.27106284e-002
      4.12318297e-002 1.56960100e-001 -2.30895162e-001 -2.40407109e-001
      -4.01141435e-001 -1.26007982e-002 -2.11601287e-001
      -8.26338585e-003 -4.21990640e-002 1.36798099e-001 -7.46381134e-002
      3.70116651e-001 5.16884588e-002 7.86900073e-002 5.13425171e-001
      7.30317160e-002 6.97791984e-004 -1.38622642e-001 1.95202574e-001
      -5.24083013e-003 -4.88521084e-002 1.57916248e-001 7.58314952e-002
      2.80992091e-001 -5.34358397e-002 1.95680097e-001 3.98316868e-002
      -2.86578417e-001 -1.96866572e-001 -3.08456011e-002 3.66090722e-002
      8.73232931e-002 1.55932769e-001 -1.33074522e-002 -1.07296342e-002
      8.58724937e-002 4.57612127e-002 -3.72507244e-001 3.68420221e-002
      4.43523042e-002 -3.34867567e-001 4.45477990e-003 6.25734851e-002
      3.21040183e-001 2.18798712e-001 2.27524579e-001 -2.51678139e-001
      4.20002118e-002 -3.53425354e-001 7.88032338e-002 -1.94120109e-002
      1.54445961e-001 1.47499777e-002 -1.85399443e-001 7.17572719e-002
      -1.11621127e-001 2.57698476e-001 1.09097801e-001 -4.97952364e-002
      2.27594897e-001 2.44591415e-001 -1.78164363e-001 -6.56740442e-002
      -5.10367863e-002 -4.03804928e-001 -1.15236551e-001 1.25331581e-001
      1.23784477e-002 -9.21381935e-002 5.45834042e-002 1.52046874e-001
      -2.25872114e-001 -1.66763533e-002 -5.96524850e-002
      -6.78030699e-002 1.03785448e-001 1.90258890e-001 -3.10384661e-001
      1.20129816e-001 1.74848840e-001 3.20840240e-001 2.39786670e-001
      2.44701177e-001 2.24866599e-001 -9.23449248e-002 -2.34508097e-001
      -9.44106430e-002 1.37216195e-001 1.56097084e-001 -4.46429700e-001
      1.44985080e-001 -1.17229059e-001 1.65296823e-001 -1.72137663e-001
      5.06325215e-002 -6.27203509e-002 -4.21013325e-001 5.04325442e-002
      4.00629640e-002 -1.85090482e-001 2.25338917e-002 1.25916526e-001
      -2.24061474e-001 1.69178054e-001 -9.87152532e-002 -3.91689777e-001
      -2.21725449e-001 1.50022492e-001 -1.45507291e-001 -7.33312741e-002
      -7.20246360e-002 -1.77661050e-002 2.71876663e-001 -7.41781741e-002
      2.65280128e-001 2.68884778e-001 4.30905260e-002 1.10131770e-001
      -2.76929677e-001 1.91352889e-001 -2.50220299e-001 1.38909906e-001
      6.41255006e-002 2.48092115e-001 -2.19285563e-002 -2.69202411e-001
      4.02183644e-003 -4.24360514e-001 -1.33756086e-001 9.17265713e-002
      1.13070957e-001 1.47964200e-002 -1.14318132e-001 -3.94557491e-002
      9.77954865e-002 -1.10081900e-002 2.72224605e-001 -2.65394896e-001
      -2.47566581e-001 1.38936892e-001 -1.12148777e-001 5.58089558e-003
      4.39534746e-002 1.59858122e-001 -1.70645058e-001 -1.74363643e-001
      3.76709960e-002 1.17879696e-002 -1.10843331e-001 -8.15862045e-002
      9.24909189e-002 2.03842059e-001 1.60951167e-002 3.04782633e-002
      3.81955057e-001 3.64347816e-001 -4.46502529e-002 5.56601807e-002
      -4.22430150e-002 -1.81859881e-001 7.02392533e-002 -6.65442145e-004
      9.86565575e-002 -1.09656267e-001 3.60540561e-002 5.64382449e-002
      3.86319645e-002 -9.20291245e-002 -8.74482617e-002 -1.62424818e-001
      -2.26536140e-001 -4.51084495e-001 -9.06446204e-002
      -2.21184850e-001 -2.89970100e-001 -2.10005865e-001
      -9.51060578e-002 -1.29168332e-001 1.82202198e-002 8.67396742e-002
      -5.08007072e-002 -5.50899170e-002 4.17428203e-002 1.59903228e-001
      -1.03272945e-001 1.44483939e-001 1.66221306e-001 -1.54008549e-002
      3.28339934e-001 1.74137518e-001 -2.00128928e-002 9.48974267e-002
      -1.55413188e-002 1.73885465e-001 -1.19479217e-001 5.49928434e-002
      -1.58868909e-001 -2.36565635e-001 3.45069095e-002 -7.54339546e-002
      2.09991127e-001 2.90187746e-001 2.56577104e-001 2.12297425e-001
      -1.75055429e-001 8.83695856e-002 1.40490502e-001 -6.71855807e-002
      3.05475835e-002 -6.77323699e-001 -4.30968046e-001 -1.58389026e-004
      1.94433220e-002 -1.39889449e-001 -1.72965527e-001 -2.20707744e-001
      -5.44185817e-001 -1.30156890e-001 -2.27230966e-001
      -4.59494330e-002 -1.57153293e-001 -3.03611010e-001
      -2.40968987e-001 3.64881217e-001 -1.05105445e-001 -9.94335711e-002
      1.09577470e-001 -4.46488820e-002 1.44225374e-001 -2.02131763e-001
      1.07286729e-001 -2.63026152e-002 2.64648497e-001 1.62533168e-002
      1.89113822e-002 4.90753679e-003 2.30506927e-001 1.51938155e-001
      -2.06553236e-001 -8.24544281e-002 6.38355827e-003 -1.21817082e-001
      1.43308342e-002 1.64072052e-001 -2.23876163e-002 -2.34176457e-001
      -2.82444656e-001 5.68725727e-002 -1.61051363e-001 9.29429308e-002
      2.36665338e-001 -2.19072085e-002 -1.20238759e-001 -1.14629313e-001
      -8.82795379e-002 -2.33265072e-001 4.01114076e-001 -2.44968385e-002
      -5.59013151e-002 3.21110249e-001 -2.33164936e-001 -3.13329846e-002
      -1.24840088e-001 6.71345219e-002 -1.88322872e-001 -1.53839946e-001
      -1.62339613e-001 -2.28445962e-001 2.07360268e-001 -1.27345279e-001
      -3.16578776e-001 -1.72314763e-001 1.25186965e-001 -3.28255929e-002
      -1.04590215e-001 -9.49372202e-002 -1.31902978e-001
      -2.43293755e-002 1.24159250e-002 2.78164774e-001 1.00839205e-001
      -1.09034022e-002 -4.09421206e-001 -7.04945996e-002 5.14729694e-002
      -1.32998144e-002 -2.37218797e-001 -1.11670598e-001 1.14500746e-001
      -1.93785071e-001 -3.66836265e-002 -5.68161085e-002
      -1.76509306e-001 4.55425084e-001 -1.36111110e-001 1.18310310e-001
      1.64028436e-001 -1.12866713e-002 -2.83015668e-002 4.15938139e-001
      -1.94992751e-001 1.32496491e-001 -2.63377756e-001 -9.98328477e-002
      8.86442363e-002 9.26621705e-002 6.77385032e-002 -3.20313364e-001
      -2.67452281e-002 2.39251018e-001 -2.74114877e-001 1.98461697e-001
      3.72987762e-002 3.74468684e-001 1.23558022e-001 1.27052271e-003
      -8.09583217e-002 5.35902716e-002 1.33877238e-002 -1.75515100e-001
      1.11774907e-001 -1.00555159e-001 -5.09718768e-002 2.30905607e-001
      1.21536374e-001 -4.22044210e-002 -8.89911726e-002 -1.24635592e-001
      1.26147017e-001 -1.58859298e-001 -7.12077739e-003 8.97841081e-002
      8.17748979e-002 9.21590105e-002 -3.47895809e-002 7.94432908e-002
      9.19894651e-002 -3.32321316e-001 5.34276329e-002 4.13498506e-002
      5.31793423e-002 -2.18168110e-001 -2.45605633e-001 -1.15481857e-002
      -2.09122390e-001 1.87383458e-001 -3.42328660e-002 1.63058430e-001
      2.72648782e-001 8.41697827e-002 3.29217315e-002 -3.48223209e-001
      -1.13955989e-001 -1.34634793e-001 -7.94982612e-002
      -1.51128590e-001 -5.15148714e-002 -8.20518509e-002
      -1.70616463e-001 1.16130030e-002 1.76953003e-001 1.57631218e-001
      3.53930563e-001 4.23402227e-002 -1.34643599e-001 1.51291892e-001
      -1.19215667e-001 -3.74003462e-002 -1.32679656e-001 2.15868667e-001
      2.06230581e-001 2.53179014e-001 2.67426461e-001 4.10814025e-002
      2.21941352e-001 -1.33654118e-001 -1.11230880e-001 1.40091836e-001
      -8.31093863e-002 3.26190167e-003 -2.96094805e-001 -8.12002048e-002
      1.50546759e-001 -6.46550208e-002 3.72120500e-001 8.51062983e-002
      2.22920373e-001 -4.85754944e-002 -4.29842114e-001 7.27113932e-002
      2.22326860e-001 -1.02423303e-001 -4.85298783e-002 -3.63938995e-002
      3.23184580e-001 -1.90039188e-001 -1.60113890e-002 -2.06020877e-001
      2.16918722e-001 -3.60473573e-001 -8.68813992e-002 3.56113136e-001
      -9.46995988e-003 -1.61243796e-001 3.84395495e-002 9.45942923e-002
      -1.01575196e-001 1.56337008e-001 1.05803102e-001 1.78353935e-001
      -9.31151211e-002 1.83047876e-002 8.42792094e-002 -1.35902599e-001
      1.42362133e-001 3.47958095e-002 5.50268292e-002 -4.94878173e-001
      -2.33153060e-001 -1.51965261e-001 -3.73310670e-002 2.09314108e-001
      -3.28154862e-001 1.43451421e-002 -7.89770335e-002 3.09287399e-001
      3.68959516e-001 1.33255348e-001 7.44983181e-002 1.89491734e-003
      -1.51956975e-001 5.67560866e-002 1.74376383e-001 -9.05034468e-002
      -1.49144441e-001 -3.09112787e-001 -7.44073540e-002
      -9.19405594e-002 1.48640200e-001 9.18079838e-002 -1.09525219e-001
      2.49715984e-001 1.84157431e-001 2.52581745e-001 2.87776161e-002
      -6.46035001e-002 3.36176127e-001 -1.14423200e-001 2.34196689e-002
      -2.17618570e-001 -1.71381347e-002 -1.48431286e-001 1.24081550e-002
      -9.28160921e-002 -1.39341906e-001 1.75717667e-001 -2.38952652e-001
      -2.43508630e-002 -5.67704551e-002 1.69199899e-001 1.80471018e-001
      7.08540455e-002 -1.33991510e-001 1.15629658e-001 -4.91715372e-002
      3.97608690e-002 -1.28515363e-001 1.92452610e-001 2.16749683e-001
      -4.29986477e-001 2.12429062e-001 9.30215940e-002 -1.50414035e-001
      2.49002337e-001 -3.73102069e-001 2.65197933e-001 -3.61449532e-002
      7.57075325e-002 1.29492491e-001 1.44872546e-001 -2.10327372e-001
      -2.51383204e-002 2.91772008e-001 -9.30366516e-002 -1.40884379e-002
      -2.17522740e-001 3.22986037e-001 -1.28377125e-001 2.43245885e-002
      -8.55353549e-002 2.18369961e-001 1.84416503e-001 -2.41933495e-001
      -1.46567412e-002 4.21817303e-002 -1.38148353e-001 -9.29998681e-002
      8.03133771e-002 -1.25055537e-001 -1.18470713e-001 1.56833380e-002
      -5.72709255e-002 -6.51968867e-002 -1.85458794e-001
      -2.37498701e-001 -1.90738186e-001 2.77364939e-001 7.13700727e-002
      -1.12982988e-001 3.42289954e-001 -1.30191445e-001 1.62862346e-001
      1.77923217e-001 -1.21449739e-001 -2.13310316e-001 2.77277559e-001
      -4.13321972e-001 1.57512248e-001 -4.09799889e-002 -2.21447244e-001
      1.17261782e-001 -2.14923799e-001 1.72283262e-001 -2.30350748e-001
      1.52824491e-001 4.88382690e-002 2.10336417e-001 3.27047519e-002
      -2.72226751e-001 1.73546389e-001 -8.82847682e-002 -1.24946959e-001
      -2.34693170e-001 -6.50729015e-002 -2.43424699e-001 7.21553266e-002
      -9.65643898e-002 -1.16244376e-001 -1.64081588e-001 1.14996314e-001
      -1.22328900e-001 -1.48161739e-001 -4.01566178e-002
      -9.25263837e-002 1.52284041e-001 2.09941849e-001 -1.52403191e-001
      3.46070051e-001 3.61693650e-001 3.37211102e-001 3.62998277e-001
      5.54190092e-002 -3.99737090e-001 -5.20670563e-002 1.23571679e-002
      -8.85028318e-002 4.02460359e-002 -4.40875441e-001 1.62249412e-002
      7.65357912e-003 -1.40297905e-001 -1.26696289e-001 1.11865841e-001
      -5.13970554e-001 -1.46129519e-001 8.10608715e-002 -5.37650771e-002
      -9.94314253e-003 2.64613003e-001 6.02344684e-002 -1.66933030e-001
      -2.48332173e-001 -8.89680535e-002 -8.69641304e-002 6.75603002e-002
      -3.23684990e-001 -1.29849777e-001 -8.03295001e-002 1.86988905e-001
      1.06197529e-001 -4.74247709e-002 1.62635610e-001 7.91770369e-002
      1.74258769e-001 3.44825424e-002 3.50685678e-002 1.62272424e-001
      -6.63016587e-002 -1.89677760e-001 -3.10882516e-002
      -2.40886912e-001 -7.24273250e-002 9.10595134e-002 -5.92346452e-002
      -1.69976890e-001 2.04045558e-003 3.68812323e-001 1.04264133e-001
      -1.24869913e-001 -1.11495806e-002 5.77128939e-002 -5.84959751e-004
      -1.44806504e-001 3.05692498e-002 -7.22412113e-003 1.17648222e-001
      -3.68315101e-001 -1.69683367e-001 -3.88904005e-001 5.33327907e-002
      -2.43178681e-001 -3.77366878e-002 -1.20488428e-001 9.62847024e-002
      -2.60813862e-001 -1.90325588e-001 -7.30487108e-002 2.75396109e-001
      1.85921744e-001 2.93001503e-001 1.24165356e-001 3.16942453e-001
      5.72024845e-002 1.76944703e-001 1.43503442e-001 -1.55141950e-001
      -1.89958066e-001 -1.32567376e-001 -1.76192969e-001
      -1.56770408e-001 3.89067143e-001 1.86545461e-001 4.80747908e-001
      2.31282085e-001 1.80967018e-001 -2.65720874e-001 -3.21413159e-001
      -1.64564416e-001 -1.91738248e-001 1.02614500e-001 -1.83835045e-001
      -2.21156597e-001 -2.84364134e-001 1.04613550e-001 1.50371976e-002
      -2.94170737e-001 -1.02496579e-001 -1.30808130e-001
      -1.81314312e-002 1.14399875e-002 -8.26031789e-002 4.97405119e-002
      3.09611171e-001 4.19640481e-001 1.47785768e-001 1.52873263e-001
      4.02305461e-002 1.88152939e-002 -1.23690508e-001 1.08961612e-002
      -1.64028872e-002 1.50976315e-001 -3.65033299e-001 1.96846083e-001
      6.86810240e-002 -5.27552485e-001 -4.67275023e-001 7.34602883e-002
      3.41896445e-001 -1.27841411e-002 1.14577644e-001 -1.56010792e-001
      -2.43997455e-001 6.62681013e-002 4.13763970e-001 1.66291986e-002
      7.99130052e-002 -2.34917834e-001 -7.43970513e-001 9.55853090e-002
      4.34493704e-004 -2.24558055e-001 2.41060436e-001 -2.37578347e-001
      3.81328911e-002 -2.16195703e-001 9.69682634e-002 9.83253866e-003
      1.78057030e-001 1.17427874e-002 1.51206842e-002 1.74472362e-001
      4.07696784e-001 1.89971954e-001 9.95129421e-002 -4.56561185e-002
      -4.64310914e-001 7.22118467e-002 -2.18357489e-001 -1.74126685e-001
      1.92282304e-001 -1.75992966e-001 -9.62166488e-002 -2.84916520e-001
      3.55383046e-002 1.18186817e-001 -8.01105723e-002 2.21750557e-001
      -3.37312490e-001 -1.57982096e-001 -5.55705242e-002
      -2.47815907e-001 9.81352776e-002 -8.42681155e-002 -2.58028597e-001
      5.48298955e-002 -6.78175241e-002 -2.59271204e-001 -2.25820150e-002
      1.66106671e-001 1.88674018e-001 -6.23037107e-002 -1.41106695e-001
      -9.93915722e-002 3.42131332e-002 1.84392542e-001 -8.67694765e-002
      1.48121789e-001 4.90432590e-001 -2.29503900e-001 -6.58853352e-002
      1.05602838e-001 -1.50379866e-001 1.51439011e-001 -4.36783761e-001
      6.89579546e-003 -1.59187429e-002 -1.96731523e-001 7.80774355e-002
      -1.48625478e-001 1.70400545e-001 -1.25323832e-001 -3.75065386e-001
      2.73036748e-001 2.76040137e-001 1.72602966e-001 1.36163563e-001
      -2.48335630e-001 -2.03835685e-002 9.91944745e-002 1.41651660e-001
      -2.16151834e-001 2.47820884e-001 -4.61118519e-002 -2.04132348e-002
      2.03315616e-001 2.76775509e-001 2.46050060e-001 -1.29759088e-001
      -2.08610088e-001 -3.06523234e-001 8.16086009e-002 1.56842977e-001
      -9.86520872e-002 -1.22498542e-001 1.38216630e-001 -2.08930954e-001
      -1.39307886e-001 8.04951712e-002 -1.87610924e-001 2.66554981e-001
      -2.78191924e-001 -4.60515261e-001 -2.53728509e-001
      -1.07117653e-001 1.84683874e-001 2.16817841e-001 1.14878260e-001
      1.97372019e-001 6.18513636e-002 -2.10022833e-002 5.28815296e-003
      -4.05514389e-002 6.47506565e-002 4.86516953e-002 -1.36925861e-001
      -1.81239203e-001 -1.54144645e-001 3.71352211e-002 9.79420394e-002
      2.21337438e-001 1.29904628e-001 9.26929642e-004 2.21096098e-001
      -1.62033960e-001 -2.29485095e-001 -1.40485898e-001 1.69636011e-001
      -1.62213035e-002 4.24812026e-002 -1.01148970e-002 -7.92375505e-002
      -2.24550933e-001 2.51310706e-001 -4.96064760e-002 1.29176185e-001
      6.03040382e-002 -7.68635888e-003 3.34749162e-001 1.64490700e-001
      -3.56530726e-001 4.64439169e-002 -9.50436518e-002 -2.88427770e-001
      3.00987177e-002 1.35149807e-001 4.68109325e-002 -4.93594594e-002
      -9.14391950e-002 1.44221678e-001 -2.34942120e-002 5.32324240e-002
      4.69702184e-002 2.40729123e-001 -1.30916744e-001 -2.41003558e-001
      1.48940161e-001 3.02088559e-001 2.29153097e-001 1.93745971e-001
      3.50676551e-002 -4.16994929e-001 -6.77991509e-002 -5.96862622e-002
      1.00010514e-001 -2.99488097e-001 1.02600284e-001 -3.16834062e-001
      -4.61103439e-001 1.88144669e-001 -1.70612395e-001 1.23694085e-001
      7.72085115e-002 -2.36399129e-001 -1.07312530e-001 -3.13157618e-001
      -9.24308300e-002 -3.16937640e-002 -3.57544601e-001
      -1.99994110e-002 -1.34338811e-001 4.55201864e-002 4.73169759e-002
      -4.00582664e-002 2.06227414e-002 -3.09510201e-001 7.34573603e-003
      1.80208310e-001 6.17687590e-003 1.76004767e-001 1.25569299e-001
      1.49936020e-001 2.77295033e-003 5.23416936e-001 3.15727770e-001
      -3.26759875e-001 9.45356563e-002 -3.84279311e-001 -1.73476249e-001
      1.00858502e-001 7.12425262e-002 1.76488072e-001 9.52055398e-003
      -9.68742520e-002 -1.08099207e-001 1.58659145e-001 -2.94905696e-002
      1.89519256e-001 -2.57154644e-001 -1.40727758e-001 3.16003454e-003
      5.89199550e-002 1.44975990e-001 -6.87137060e-003 3.45374674e-001
      -5.25365733e-002 -8.82510245e-002 -6.89508691e-002
      -1.02089882e-001 3.61423075e-001 2.23453104e-001 -1.61010921e-001
      -1.94454297e-001 -1.96939811e-001 1.31165504e-001 -7.19024763e-002
      6.59401864e-002 -4.23752926e-002 -2.79890835e-001 -1.17793605e-002
      5.13539612e-001 1.53213412e-001 1.37155399e-001 -6.67485297e-002
      -1.38134748e-001 3.95522043e-002 2.49980465e-002 2.22369567e-001
      3.64953205e-002 -3.91820483e-002 -1.20913282e-001 3.17572132e-002
      3.89264934e-002 1.14602476e-001 5.62325299e-001 -1.51886240e-001
      -5.29529108e-003 1.04174271e-001 -1.07257858e-001 -9.54106376e-002
      2.36896157e-001 -1.17826618e-001 -1.72373757e-001 2.27729425e-001
      -2.54412830e-001 -2.96650201e-001 -1.47405118e-001 1.25880256e-001
      -2.09551111e-001 -1.89049914e-001 -2.90829778e-001
      -1.47630954e-002 -2.81039570e-002 1.07215140e-002 2.64794499e-001
      -3.57421190e-002 -1.08691096e-001 -2.97890902e-001 2.92025894e-001
      1.40148148e-001 -9.55538601e-002 2.28731871e-001 -7.77906179e-002
      8.26878101e-002 1.03353530e-001 -7.56893009e-002 -9.80178714e-002
      1.12418354e-001 -6.37922585e-001 -3.90865728e-002 -4.34927270e-002
      -2.26605728e-001 2.26472631e-001 6.81739822e-002 -1.44647270e-001
      -1.11119546e-001 -1.06698170e-001 2.00535029e-001 -4.62898910e-002
      4.39803768e-003 -2.18125582e-001 1.14015318e-001 -1.14870451e-001
      -2.35258281e-001 -2.79740572e-001 -1.03129044e-001
      -3.31401825e-001 -1.32071987e-001 -1.91852257e-001
      -3.60275596e-001 -1.74116552e-001 6.65751919e-002 -4.78467438e-003
      -2.88931906e-001 3.77478674e-002 1.65468708e-001 4.17934358e-001
      -5.41187311e-003 2.05043256e-001 2.15455055e-001 -1.68980341e-002
      3.62328112e-001 3.08719963e-001 1.25727698e-001 -3.87246422e-002
      3.03172339e-002 4.28536348e-002 -1.74451426e-001 7.24090338e-002
      -2.45647386e-001 -1.12028502e-001 1.50409732e-002 1.02572687e-001
      3.81361693e-001 5.39179206e-001 -5.52146435e-002 4.31149863e-002
      2.01381519e-001 -4.44592871e-002 7.91854337e-002 1.51020661e-001
      -3.20075542e-001 -4.89126921e-001 5.92035837e-002 7.15591293e-003
      -2.59882808e-002 -2.31236055e-001 -1.17734626e-001
      -1.94478139e-001 -1.77406117e-001 3.46165746e-001 -1.83216080e-001
      -4.24573235e-002 -2.29260996e-001 2.84386992e-001 5.17476946e-002
      1.91242665e-001 3.96553308e-001 -1.00979738e-001 -1.65659264e-001
      -2.00110510e-001 1.38293996e-001 -4.27056313e-001 -4.02069166e-002
      -2.38827586e-001 -8.14046413e-002 4.81628068e-003 -2.11532563e-001
      2.40338266e-001 3.95878881e-001 4.16233344e-003 4.01114225e-001
      5.86814620e-002 -6.99966252e-002 -8.24179053e-002 1.93744272e-001
      -1.25206545e-001 -2.00259179e-001 -3.39657366e-001
      -8.71251002e-002 -2.64199525e-001 -4.53147918e-001 2.14426711e-001
      -1.87990978e-001 -4.82828878e-002 6.96853176e-002 -8.15974474e-002
      -7.98137765e-003 1.35159716e-001 -2.11954743e-001 -1.98333827e-003
      1.91006750e-001 -2.16323473e-002 2.16295362e-001 3.16454619e-002
      6.59344532e-003 -2.37295385e-002 -7.33113009e-003 -2.19932482e-001
      -7.77620599e-002 1.22069091e-001 8.23248411e-005 3.62802409e-002
      2.50557326e-002 1.94059044e-001 2.61806361e-002 1.80892378e-001
      -1.63770065e-001 -1.89238399e-001 1.04821913e-001 -3.69673334e-002
      -1.23930447e-001 -1.73232667e-002 -1.72936812e-001
      -4.55819577e-001 -2.18800262e-001 -1.06944636e-001
      -2.65598983e-001 3.43047194e-002 -4.59188372e-001 -1.62615716e-001
      -1.34074837e-001 2.33167216e-001 -2.67533064e-001 -1.20513149e-001
      8.66712704e-002 -3.27929445e-002 3.65719721e-002 1.86298862e-001
      2.08986968e-001 -6.39321432e-002 1.55029103e-001 -2.02891424e-001
      2.45635360e-001 -2.68720329e-001 -1.56118020e-001 -2.07796544e-001
      1.92689672e-001 1.92666113e-001 -4.48095888e-001 2.33242214e-001
      3.11575383e-001 3.57360281e-002 5.27521297e-002 -1.43508971e-001
      -2.40358323e-001 -3.53902578e-001 8.73615295e-002 3.68511416e-002
      -5.62351383e-002 -6.02728069e-001 1.36549518e-001 2.08226264e-001
      3.69477756e-002 1.04705468e-001 -3.77517968e-001 1.20429955e-001
      1.81363672e-001 1.86191484e-001 1.73213169e-001 2.48852149e-001
      2.69565672e-001 8.62933323e-003 3.75408739e-001 1.44211069e-001
      3.23147416e-001 1.09777048e-001 -6.34655505e-002 -6.92717433e-002
      8.64993781e-003 5.94178177e-002 2.46980283e-002 1.96951091e-001
      1.94228753e-001 8.07082206e-002 -1.75478831e-001 2.19512656e-001
      -1.18370261e-002 1.70110092e-001 2.23508820e-001 -2.10801974e-001
      -1.93004489e-001 -7.24655241e-002 8.88976753e-002 -1.23788424e-001
      -8.07891339e-002 -3.54587495e-001 2.99680263e-001 -6.60263002e-002
      2.51860637e-002 6.43089414e-002 -9.76731852e-002 2.51228124e-001
      2.19382122e-001 2.70773292e-001 -7.30719566e-002 -1.56915292e-001
      3.46289188e-001 1.11414805e-001 -1.05034560e-001 3.02197427e-001
      -1.14287764e-001 -2.08603576e-001 -9.74107825e-004
      -1.79863080e-001 5.42474091e-001 -2.57379919e-001 -6.15779348e-002
      -1.80083379e-001 2.00409025e-001 1.55080363e-001 -2.34747127e-001
      -1.87510684e-001 2.42934838e-001 6.67270087e-003 -2.39969213e-002
      -3.00937276e-002 3.88872512e-002 -7.92012513e-002 -2.59150863e-001
      -1.41253680e-001 -1.18917733e-001 3.59546170e-002 -2.02000022e-001
      9.51457471e-002 -2.05792025e-001 -9.18336436e-002 3.67631882e-001
      2.71939367e-001 2.66254246e-001 -1.10375687e-001 -3.47393602e-001
      -2.17732310e-001 -6.74893707e-002 1.91455573e-001 8.44725594e-002
      -6.84504211e-002 -1.54294027e-002 2.82594025e-001 3.44236672e-001
      5.08288294e-002 3.34207043e-002 8.01671520e-002 1.44089073e-001
      -1.76328912e-001 1.48963705e-001 -2.23190799e-001 2.29040042e-001
      -6.53552637e-003 -1.59840807e-001 -4.64611407e-003 1.46296516e-001
      -1.16825931e-001 -1.55882478e-001 1.54900193e-001 -3.94842401e-002
      -1.25251323e-001 1.34323910e-001 -4.93027121e-002 -6.13613054e-002
      -2.02700153e-001 5.86915091e-002 9.15358067e-002 5.61492816e-002
      1.51414843e-003 8.05217028e-002 -1.23784363e-001 -1.81471273e-001
      -1.44892007e-001 1.55466303e-001 -5.83859049e-002 -2.36558184e-001
      1.82290282e-002 2.59451240e-001 -1.18932426e-001 1.07624941e-001
      -1.12548478e-001 -2.46019781e-001 -1.29805207e-001
      -6.10058345e-002 3.58167626e-002 -8.26054588e-002 1.45774752e-001
      -4.53934669e-001 -2.09213957e-001 5.75210601e-002 -9.32787582e-002
      -1.91296130e-001 -1.20615579e-001 -3.55536550e-001 1.71527535e-001
      -1.78769633e-001 -2.45586917e-001 -2.34353751e-001
      -1.43896207e-001 -8.06263182e-003 -3.58187646e-001
      -9.32587683e-002 -8.83831382e-002 -7.06954673e-002 1.89090192e-001
      1.09316036e-002 -2.05567196e-001 -6.97444081e-002 -9.80669707e-002
      3.66607308e-001 9.08652991e-002 -1.01673920e-002 3.75681698e-001
      2.15727817e-002 -3.23286891e-001 1.22020617e-001 -2.47592598e-001
      1.19640581e-001 1.26361400e-001 -2.67492265e-001 -1.82003662e-001
      1.61589891e-001 -1.33491531e-001 -3.07758719e-001 -9.82195511e-002
      1.08827472e-001 -1.25153556e-001 -1.41348660e-001 6.89184889e-002
      -1.53962001e-001 1.20467804e-001 -6.85709342e-002 1.93000495e-001
      -2.01546684e-001 -2.51578122e-001 3.88197839e-001 -5.18779516e-001
      -1.57599431e-002 -3.58472049e-001 -4.16941335e-003 2.66115814e-001
      2.81763133e-002 3.58144194e-001 1.12308949e-001 -2.15545390e-002
      2.89584458e-001 2.31402621e-001 -6.90861419e-002 2.47879773e-001
      -1.57065779e-001 4.85468172e-002 -2.97417164e-001 -2.10688740e-001
      3.13091457e-001 1.46153048e-001 4.68202569e-002 -4.89484631e-002
      4.43704426e-001 -8.02797452e-002 -7.01003103e-003 -5.76176420e-002
      -1.75828859e-001 2.60775276e-002 8.19183961e-002 3.15890282e-001
      -1.04111210e-001 7.43052959e-002 2.98133880e-001 -1.91099986e-001
      -2.72955030e-001 -8.25710446e-002 1.24125004e-001 8.00414085e-002
      6.51981607e-002 -4.66593988e-002 -1.14649564e-001 2.13024363e-001
      -2.86329865e-001 3.70494336e-001 3.63047659e-001 -2.72060841e-001
      3.86736929e-001 1.13185816e-001 -2.00083762e-001 4.27265853e-001
      2.87639946e-001 -6.33629858e-002 -1.87235735e-002 -8.40059146e-002
      -6.84585795e-002 1.51713312e-001 -2.44808286e-001 -8.14887583e-002
      2.89680332e-001 1.31663024e-001 2.49171592e-002 3.37613881e-001
      7.69453868e-002 -8.51916075e-002 -2.12099612e-001 -1.31006479e-001
      -9.67605710e-002 -5.42717129e-002 -3.03189903e-002
      -5.22035658e-001 5.68896811e-003 -2.49849722e-001 -2.77180355e-002
      -3.50125395e-002 1.50545955e-001 -1.48443475e-001 -3.37696970e-001
      7.32423216e-002 -2.73282915e-001 1.65234193e-001 2.37688944e-001
      -8.75606462e-002 8.38045329e-002 -3.80523980e-001 2.98994849e-003
      4.18002978e-002 1.12232745e-001 -2.47595385e-001 1.76137872e-002
      -3.17892432e-001 -1.79889500e-002 2.88967729e-001 -7.75474012e-002
      -4.73899432e-002 -3.45327295e-002 -1.61192000e-001
      -4.21628714e-001 7.00936420e-003 4.33768407e-002 1.48178950e-001
      -8.59385952e-002 -2.05493942e-001 5.73537573e-002 2.22614765e-001
      1.52775362e-001 -9.86904502e-002 -1.74715534e-001 -3.27446818e-001
      -1.28692493e-001 -1.60086937e-002 -2.33526886e-001
      -1.14839248e-001 3.62553969e-002 4.14908975e-002 -3.54415119e-001
      1.60218328e-001 2.04483047e-001 9.69311818e-002 4.13916782e-002
      -1.12432361e-001 -3.42941731e-002 2.54672617e-001 1.12139560e-001
      -1.09388776e-001 -7.78416470e-002 -4.40235794e-001
      -1.35101825e-001 6.95478171e-002 -2.51797676e-001 6.36956543e-002
      -1.82446465e-001 -2.00810730e-001 -2.66323417e-001
      -4.78330329e-002 1.75144047e-001 9.43271890e-002 -1.63318247e-001
      -2.20399007e-001 -2.45185420e-001 1.21697553e-001 2.14449629e-001
      2.85532624e-002 -6.62851810e-001 -4.45054591e-001 -9.75003839e-002
      -6.92671463e-002 -4.88746874e-002 -7.85305873e-002
      -4.30819482e-001 1.76775470e-001 -2.37381026e-001 -3.77258919e-002
      5.05604371e-002 -1.83216602e-001 -5.90338856e-002 -1.61459565e-001
      2.12265462e-001 3.76987994e-001 2.94511437e-001 -1.54340252e-001
      1.37353614e-001 -1.54497519e-001 -9.19758752e-002 2.16301054e-001
      -1.95438251e-001 -7.01933727e-002 -9.90912765e-002
      -2.75300205e-001 -5.55878639e-001 4.29835558e-001 6.88808486e-002
      -3.90871130e-002 -3.02219912e-002 -2.05804378e-001
      -1.58975586e-001 1.94784105e-001 1.81024104e-001 -5.53623773e-002
      -3.73854518e-001 -2.47826919e-001 -2.98123240e-001 1.81835406e-002
      -1.44961968e-001 2.08383933e-001 -4.10270393e-001 -1.09413769e-002
      -5.95752150e-002 -5.70829771e-002 -1.45240963e-001
      -7.78208598e-002 2.98170388e-001 -1.27885178e-001 1.68233350e-001
      1.26887619e-001 3.29898223e-002 1.45024896e-001 1.09915234e-001
      1.58206373e-001 -5.15458696e-002 -2.33498454e-001 -1.63071111e-001
      -8.76073316e-002 2.24567242e-002 -3.13098356e-002 -1.96471319e-001
      1.82479724e-001 2.28520215e-001 -3.93439531e-001 2.18312860e-001
      -1.67848468e-001 -2.20744208e-001 -3.51649851e-001
      -2.03495309e-001 -1.01138353e-001 -4.30046231e-001
      -3.33269566e-001 -2.67732024e-001 -2.45933700e-002
      -1.96875617e-001 -1.23071879e-001 -1.54061511e-001
      -2.98460633e-001 -2.76401453e-003 -1.51098564e-001 9.05331597e-002
      -2.43872926e-001 -1.12854810e-002 1.06829301e-001 1.33243427e-001
      -9.71162468e-002 -9.08682570e-002 -9.63068455e-002
      -9.66630802e-002 -1.03564642e-001 -1.54373556e-001
      -6.92969486e-002 -2.89907813e-001 -7.71491379e-002
      -1.73205420e-001 -4.39235680e-002 -1.69392988e-001 1.58803761e-001
      1.88988104e-001 9.71536860e-002 3.35227758e-001 -4.05263752e-002
      -7.03287357e-003 5.63605763e-002 8.37419108e-002 2.04687282e-001
      -1.83820531e-001 -2.67096490e-001 -3.14258426e-001 1.01385145e-002
      -7.64715225e-002 -7.31318370e-002 -2.10473970e-001
      -7.68661648e-002 2.02939823e-001 7.00554671e-003 -4.68663089e-002
      -3.79413702e-002 3.39118332e-001 -3.37297440e-001 -1.42999530e-001
      -2.08573937e-002 -5.13691176e-003 -4.58595574e-001 1.16469441e-002
      6.08699489e-003 -2.86562711e-001 3.17200273e-001 -4.07062501e-001
      3.08688164e-001 7.38461837e-002 1.89923778e-001 -7.15198144e-002
      3.18129569e-001 3.21072005e-002 5.52143976e-002 3.78124379e-002
      -1.24079578e-001 -2.79960066e-001 -1.72112644e-001 6.19745851e-002
      6.72587976e-002 -1.68300152e-001 -4.35214192e-001 -1.02305263e-002
      -3.88522714e-001 4.00888957e-002 8.40319619e-002 -1.17879018e-001
      1.19663678e-001 -1.35544445e-002 -5.80295697e-002 5.08411713e-002
      -1.77443057e-001 2.98381060e-001 -2.48843729e-001 -6.11594059e-002
      -2.20508710e-001 -8.80736392e-003 -2.50840843e-001
      -2.19428271e-001 -2.31413454e-001 2.12458730e-001 -1.79594919e-001
      -1.81949675e-001 7.88604841e-002 -1.21516116e-001 -1.64661914e-001
      7.76669756e-002 -2.02560142e-001 9.28398594e-002 -2.55502701e-001
      2.61733860e-001 -1.58162475e-001 -1.50953531e-001 1.71308577e-001
      1.33457094e-001 -3.47273618e-001 -1.90113753e-001 1.77986383e-001
      2.46638566e-001 1.95110985e-003 -3.15523177e-001 -5.64402640e-002
      -5.30872717e-002 1.37682870e-001 -2.82799173e-002 -3.66972312e-002
      1.21502681e-002 -4.61326055e-002 7.76119679e-002 8.61499310e-002
      -2.29941666e-001 -4.46508192e-002 -1.52158275e-001 5.13640381e-002
      -1.16576008e-001 1.40590101e-001 -4.04295146e-001 -3.59597541e-002
      2.58350801e-002 -2.21500210e-002 1.97455194e-002 2.44331867e-001
      -3.29010397e-001 3.75042140e-001 -1.37604594e-001 1.31640404e-001
      -9.67782107e-004 -9.07224789e-002 -1.30509391e-001
      -1.27995297e-001 6.73293136e-003 -9.95026976e-002 -7.35568721e-003
      2.89105654e-001 -3.48440081e-001 -5.31980488e-003 2.00001135e-001
      7.96072534e-004 -2.37238452e-001 7.62743875e-002 -4.89825010e-003
      4.80196550e-002 4.27195370e-001 -3.47075671e-001 1.42443657e-001
      8.90159234e-002 7.49446899e-002 2.45342180e-001 -7.89442584e-002
      -1.14840738e-001 2.38424152e-001 -3.65406573e-002 1.81595400e-001
      1.78735718e-001 9.47783217e-002 1.68571044e-002 -1.38049886e-001
      -8.88723284e-002 8.69968981e-002 5.49882837e-002 -3.78799513e-002
      3.73861417e-002 3.91621031e-002 1.88466042e-001 1.51894078e-001
      5.57134636e-002 5.94188273e-002 4.05114032e-002 6.90629035e-002
      2.71184772e-001 -3.56348455e-001 -9.71243158e-003 -1.40495360e-001
      -1.39002219e-001 7.12031573e-002 5.45302555e-002 -3.10839653e-001
      1.53605402e-001 2.24500179e-001 -1.12660397e-002 -5.47577105e-002
      5.99330030e-002 1.04823202e-001 1.68207839e-001 4.41754013e-001
      9.77171510e-002 3.93519457e-003 -3.30249816e-002 -2.77523190e-001
      1.32494181e-001 -2.44664550e-001 -1.42195061e-001 -1.22613065e-001
      -8.64533857e-002 -4.92877841e-001 -1.68587361e-002
      -1.88881364e-002 -3.54858227e-002 -2.57961303e-001 4.70873602e-002
      -1.92629844e-001 2.94248819e-001 -9.31675807e-002 1.10722341e-001
      -3.23262811e-001 -6.11661486e-002 4.29223627e-002 -2.51957446e-001
      1.72618911e-001 8.40839893e-002 -6.30461872e-002 -8.29826947e-003
      -3.09204847e-001 2.74690956e-001 -3.88631970e-002 -1.34471089e-001
      -2.54556015e-002 -2.23635212e-001 -3.62377129e-002 3.15563381e-001
      -2.47866213e-001 -3.14990699e-001 2.65578121e-001 -2.51653224e-001
      -3.72786745e-002 9.03550461e-002 -1.42308667e-001 -4.14847471e-002
      2.12014362e-001 -2.78908554e-002 -5.72055615e-002 1.22363403e-001
      1.22073159e-001 2.08350327e-002 3.44476625e-002 4.49294806e-001
      -3.18546325e-001 -8.20551068e-002 1.06106997e-001 -1.16070226e-001
      -1.70611039e-001 2.61535972e-001 -1.98458448e-001 -3.16173702e-001
      8.44128653e-002 2.88674474e-001 1.74259588e-001 1.37138693e-003
      -1.08742371e-001 2.63232946e-001 2.53378656e-002 -1.52473345e-001
      3.32724929e-001 -7.73054510e-002 7.96009600e-002 1.68355525e-001
      7.00242370e-002 2.15870693e-001 -3.96045297e-001 -4.71554697e-001
      1.38684243e-001 2.51750350e-001 9.84979719e-002 -1.05960257e-001
      4.97856215e-002 2.81366128e-002 1.16854526e-001 -7.21669197e-002
      1.03491984e-001 2.17370301e-001 -1.63398281e-001 -2.04490498e-001
      2.66697586e-001 7.39065930e-002 2.54284054e-001 -1.51949883e-001
      1.01930261e-001 -3.30464542e-001 -1.16166450e-001 1.57571863e-002
      -3.37078259e-003 -1.00546353e-001 -1.27389863e-001 3.53779271e-002
      -2.52209932e-001 3.83771241e-001 2.74250627e-001 7.83282444e-002
      1.55414164e-001 -3.68693867e-003 3.39077681e-001 -3.92084531e-002
      2.17273906e-001 -2.89000213e-001 -2.21599668e-001 -1.93895727e-001
      -2.49271065e-001 -3.28541622e-002 -8.64401460e-002
      -1.55943036e-002 2.96370052e-002 2.43105348e-002 -1.17277138e-001
      1.58596650e-001 2.06546068e-001 2.86128633e-002 1.18924402e-001
      -4.66073565e-002 -4.37238179e-002 7.31059015e-002 -2.21287057e-001
      7.12689757e-002 -4.21450287e-002 -2.67433554e-001 -1.62057221e-001
      1.41190946e-001 -2.39604861e-001 -1.15385249e-001 -3.37346233e-002
      1.40352780e-002 -1.72630906e-001 2.49937102e-001 2.26109535e-001
      -6.12483509e-002 4.37213592e-002 -2.01862380e-001 -3.38415913e-002
      -5.05113043e-002 -5.62963150e-002 4.70674522e-002 -2.59794950e-001
      -9.36395600e-002 1.65727332e-001 3.91118452e-002 6.08185604e-002
      1.62530735e-001 6.27057999e-002 3.56344469e-002 -1.25149906e-001
      -2.05285121e-002 1.47715628e-001 2.71616369e-001 1.50867373e-001
      -3.08917493e-001 -9.56211388e-002 1.74566239e-001 4.63565486e-003
      2.69074328e-002 -9.70943496e-002 2.68064924e-002 1.01941161e-001
      5.61208352e-002 -6.76609576e-003 3.28471035e-001 -1.77479386e-001
      -2.33921468e-001 -2.34564096e-001 4.06979710e-001 1.54587775e-001
      3.47713381e-002 -3.06721199e-002 -2.39450991e-001 -4.45517190e-002
      5.02539463e-002 1.92893326e-001 1.07835367e-001 -3.02540123e-001
      -1.46983325e-001 -2.34133318e-001 7.42987543e-002 -2.79570594e-002
      2.24459767e-001 -3.77256453e-001 9.62324366e-002 5.23585156e-002
      -6.10017218e-003 -5.30679300e-002 1.86859548e-001 2.75538117e-001
      -2.31241524e-001 -4.59666885e-002 -1.55203745e-001 2.13033736e-001
      3.11945975e-001 4.60379571e-002 -2.92442948e-001 -6.57760724e-002
      6.21398278e-002 5.37094586e-002 3.05733290e-002 -3.44467252e-001
      -1.92323253e-001 -3.48099232e-001 -1.65776268e-001
      -2.67163813e-001 6.89672828e-002 1.38478592e-001 -1.80536464e-001
      3.85278285e-001 1.69296309e-001 3.98150682e-001 2.72400022e-001
      1.14812650e-001 -6.09394051e-002 -8.06623474e-002 -3.82504947e-002
      -9.57569629e-002 -3.01360965e-001 -5.83602607e-001
      -2.51241654e-001 -1.12582438e-001 -9.37218964e-002 6.89824969e-002
      9.79263932e-002 -4.12201621e-002 1.96496658e-002 4.63342816e-002
      1.45817474e-001 8.19150805e-002 -8.64018574e-002 2.95398738e-002
      -2.48122111e-001 -3.55324179e-001 -2.74064958e-001
      -1.68748453e-001 1.56637669e-001 -3.34749967e-001 1.14938147e-001
      -2.30091363e-002 -2.46306192e-002 6.38264269e-002 -1.15420811e-001
      -8.48737583e-002 -6.91007450e-002 -5.98632880e-002
      -3.36615406e-002 -9.47204083e-002 -1.38304189e-001
      -1.87990323e-001 -2.13022962e-001 -8.35893005e-002 6.16571940e-002
      9.06347409e-002 -3.65110673e-002 1.21335514e-001 -3.92433196e-001
      -8.36084113e-002 5.75841628e-002 1.15198202e-001 1.16164878e-001
      1.62516832e-001 -6.20499738e-002 -4.81590241e-001 -1.19324297e-001
      1.12516068e-001 -1.62306532e-001 -2.73945071e-002 5.53223714e-002
      6.45325184e-002 5.67601062e-002 -3.04900974e-001 6.15611970e-002
      1.11024477e-001 4.50630821e-002 1.49369895e-001 2.44783044e-001
      -3.46026532e-002 1.13976523e-001 1.32060006e-001 1.27832383e-001
      1.74758747e-001 1.03182457e-001 -3.50265689e-002 1.76402405e-002
      -2.17188552e-001 -3.59695405e-003 -1.64548635e-001
      -2.37261832e-001 -5.00841513e-002 -5.32818995e-002
      -3.22273850e-001 8.15812405e-003 5.86387590e-002 2.21098140e-001
      -1.41015306e-001 2.85771769e-002 3.19702238e-001 -3.70661557e-001
      -4.66667771e-001 -2.87389547e-001 -7.86669105e-002
      -1.37851626e-001 -8.86089727e-002 -4.08468813e-001 1.65977776e-001
      -1.22066423e-001 -3.41773331e-002 3.66279185e-001 -3.49918783e-001
      -1.23308852e-001 1.85738310e-001 -2.60134693e-002 2.97172427e-001
      5.20024216e-003 2.41226092e-001 1.41928941e-001 -1.85411826e-001
      4.53620069e-002 -1.73043415e-001 -2.51838177e-001 -1.93545774e-001
      -1.58729985e-001 2.98332423e-002 -1.07171007e-001 1.30661681e-001
      2.97929823e-001 -9.49410051e-002 1.19864412e-001 -1.31095037e-001
      -3.67204729e-003 2.08483879e-002 -2.78799683e-001 -5.03698215e-002
      2.79014051e-001 4.82936688e-002 -7.91267306e-002 2.19417676e-001
      1.31460875e-001 -1.11992091e-001 -2.73426697e-002 -4.44059134e-001
      -9.71256718e-002 -7.26617798e-002 3.01009089e-001 2.21865416e-001
      1.33836791e-001 8.98425840e-003 3.05293828e-001 7.17683434e-002
      2.24622384e-001 -4.04753499e-002 8.68926048e-002 -9.67985857e-003
      2.63702497e-003 1.12173200e-001 6.86026141e-002 9.71327573e-002
      -6.92852512e-002 -1.88793883e-001 -3.27942707e-002 4.93179671e-002
      1.56949870e-002 -1.27871530e-002 1.97561368e-001 -2.51863271e-001
      3.18861231e-002 1.83162794e-001 2.55346328e-001 -2.23603949e-001
      -8.56397673e-002 -8.34262222e-002 4.85889465e-002 -7.96568543e-002
      1.61755756e-001 7.73066357e-002 1.48040056e-001 1.23812102e-001
      -2.50324249e-001 7.82577991e-002 -9.82637778e-002 -8.17608014e-002
      -1.77719310e-001 -5.54628558e-002 2.66048368e-002 -1.94613546e-001
      -1.02994174e-001 7.82307535e-002 2.90604323e-001 -8.96654800e-002
      1.46261379e-001 5.22975288e-002 1.01087261e-002 2.68757135e-001
      4.43855941e-001 -2.17182543e-002 1.98975697e-001 7.62248114e-002
      -3.58549982e-001 3.98398459e-001 -1.83290150e-002 -2.30912313e-001
      1.45011358e-002 1.16284214e-001 2.09660903e-002 -1.05832100e-001
      6.58952519e-002 -6.30351575e-003 -1.32208809e-001 2.38204710e-002
      -1.22293711e-001 -3.00912768e-001 -3.07054669e-001
      -3.47706914e-001 7.28693306e-002 -1.31371021e-001 6.33131862e-002
      -2.84189701e-001 -9.37487371e-003 -1.90751776e-001 1.10349372e-001
      -8.87885876e-003 -1.32211670e-001 -9.19486135e-002 2.03560531e-001
      7.71414191e-002 1.35007516e-001 8.57781842e-002 1.33679166e-001
      -2.38341212e-001 -1.77576602e-001 -4.95340638e-002
      -5.45152240e-002 -1.91246066e-002 -2.93397248e-001 4.52292889e-001
      -2.69000549e-002 -5.10041714e-001 1.39907360e-001 2.88985282e-001
      8.10477510e-002 1.16646625e-001 -1.83365270e-001 -2.21213832e-001
      -7.40544870e-002 4.00506370e-002 -9.68821719e-002 -4.54970114e-002
      5.89500442e-002 -1.92846760e-001 2.32584506e-001 -5.66376708e-002
      2.23451242e-001 4.11377810e-002 4.65575559e-003 -5.46861254e-002
      1.11162044e-001 -1.34825230e-001 -4.30579931e-002 -6.06663600e-002
      -2.62029350e-001 -1.26275510e-001 1.57529905e-001 2.11351737e-001
      -1.09840766e-001 5.77972382e-002 -8.07531700e-002 2.02404931e-001
      4.60511632e-002 2.02308178e-001 7.23221386e-003 1.20769806e-001
      4.00300682e-001 -7.94947669e-002 -1.02887630e-001 4.29140776e-003
      9.44073275e-002 -1.12753902e-002 -1.64576814e-001 -2.60341674e-001
      -2.13472992e-001 -2.33171489e-002 3.88758257e-002 5.95266074e-002
      -2.99391747e-001 -1.43024251e-001 2.89138675e-001 2.40883768e-001
      3.65978330e-002 -4.39048978e-003 2.85439730e-001 -5.27646504e-002
      3.28610212e-001 1.93865225e-001 1.85909376e-001 3.04310411e-001
      8.91858414e-002 1.18674882e-001 2.48382874e-002 1.42414551e-002
      -3.46651584e-001 3.19659740e-001 -6.08416647e-002 -4.34885733e-002
      1.72006384e-001 -7.86246136e-002 1.18806250e-001 -8.84213671e-002
      2.32094392e-001 -3.88911098e-001 -6.26256168e-002 2.32359380e-001
      -1.22908734e-001 -6.21292405e-002 -1.14169545e-001
      -1.75209686e-001 -1.90677658e-001 4.80978526e-002 -2.19272837e-001
      1.01668999e-001 9.20789316e-002 -1.17133640e-001 -2.09398121e-001
      -1.84227347e-001 -1.84079602e-001 -2.38619283e-001
      -9.93150547e-002 -2.46135309e-001 2.12052584e-001 1.47562772e-001
      -2.48210326e-001 -4.03402895e-002 -2.27374509e-001 1.79586321e-001
      3.80095869e-001 1.40875384e-001 2.79643890e-002 -2.70424038e-001
      -1.06762543e-001 -4.12262380e-002 3.09075683e-001 1.46341585e-002
      -1.98295414e-001 9.11001936e-002 -1.81309864e-001 -2.43452266e-001
      -1.95201948e-001 -1.17410116e-001 -1.33279026e-001
      -2.84017045e-002 -1.84945494e-001 -1.59302741e-001 9.88513976e-003
      9.30648968e-002 3.25514115e-002 -6.63316175e-002 -2.50493079e-001
      2.95583811e-003 2.42602322e-002 -1.19242720e-001 7.89847448e-002
      -8.88212398e-002 6.36590794e-002 -5.55303395e-002 1.87056698e-002
      -7.04487041e-002 1.73521668e-001 2.85038352e-001 -1.48511812e-001
      -1.16833106e-001 8.50328524e-003 1.34691864e-001 -6.67502508e-002
      1.86948944e-002 -4.53659624e-001 -2.68211961e-001 3.80814552e-001
      -2.87931740e-001 -3.79118621e-001 -2.21238673e-001
      -1.96763083e-001 -1.82789057e-001 -1.06268361e-001 3.61171424e-001
      3.65345716e-001 -6.33703219e-003 -1.25171036e-001 2.52761066e-001
      4.65220064e-002 1.64440885e-001 -2.37108752e-001 -1.96509473e-002
      7.46750683e-002 6.22345470e-002 7.90017471e-003 -6.13844953e-002
      7.34988824e-002 -2.21575111e-001 6.31547645e-002 -2.20395662e-002
      3.57210264e-003 -1.90729033e-002 2.65100356e-002 1.55705869e-001
      -6.68914011e-003 2.26494506e-001 -1.82057068e-001 8.52844119e-002
      -3.32802981e-001 -2.94407457e-001 -1.38183549e-001
      -2.08432585e-001 -2.85564035e-001 -1.30596966e-001
      -4.09097187e-002 -2.08929673e-001 -9.13187861e-003
      -2.31525242e-001 1.73062295e-001 2.54551500e-001 -2.58707106e-001
      1.27659321e-001 -2.25200325e-001 -7.24856555e-002 1.36769339e-001
      1.38404727e-001 -3.20263505e-002 -1.34238213e-001 -3.44185650e-001
      -1.69134855e-001 1.32123545e-001 -7.69543722e-002 -1.04753934e-002
      -2.73975655e-002 -1.87860444e-001 -1.47589162e-001 1.04660034e-001
      -7.88643807e-002 2.76610274e-002 3.07118535e-001 1.13161422e-001
      2.33001992e-001 1.43581435e-001 -6.01373687e-002 -1.09827124e-001
      -2.56900609e-001 -3.77190799e-001 -3.69435200e-003
      -4.01435830e-002 -1.00025512e-001 4.97454144e-002 -1.01867758e-001
      -3.69359732e-001 -2.21888259e-001 2.39721257e-002 1.62613228e-001
      6.98919147e-002 6.13519736e-002 -9.20497775e-002 -2.85011046e-002
      -2.20842436e-001 1.97994113e-001 -2.17193253e-002 8.80214479e-003
      -1.38490587e-001 7.47781992e-002 -1.51344121e-001 -2.19234139e-001
      -1.75951213e-001 -2.48158738e-001 -3.21431980e-002 5.96225597e-002
      -4.71160114e-002 1.60230756e-001 1.85031459e-001 -1.71476156e-001
      -1.89692229e-001 -1.47172928e-001 1.38198286e-001 2.43369877e-001
      -3.00213750e-002 2.36764941e-002 1.08596133e-002 -1.13487236e-001
      -1.36431739e-001 -6.05273023e-002 -5.32746911e-001
      -4.65246826e-001 -9.22013819e-002 -1.98512360e-001
      -1.98454738e-001 1.74085334e-001 2.49310195e-001 -4.05315727e-001
      -1.37023196e-001 -1.90892309e-001 -4.83636372e-002
      -3.11859041e-001 -2.43913740e-001 -2.29070053e-001
      -1.03821553e-001 -3.37616056e-002 -7.45750219e-002
      -5.09184971e-002 -5.93845285e-002 -1.58402488e-001
      -3.92961279e-002 7.81125017e-003 -2.35822439e-001 1.29192963e-001
      5.60265332e-002 1.14066727e-001 1.89832479e-001 -3.80901471e-002
      5.44256330e-001 3.31961095e-001 1.99691296e-001 1.69949025e-001
      2.51434326e-001 2.83831626e-001 -1.59984380e-001 -1.64854601e-001
      -5.60096651e-002 -1.89929843e-001 -2.04597730e-002
      -6.62016049e-002 3.40510439e-003 -2.54376739e-001 1.45248204e-001
      4.70863163e-001 -7.14370087e-002 -3.06515574e-001 4.52565448e-003
      2.63826162e-001 -6.32643793e-003 -2.78622270e-001 -2.32498020e-001
      2.51057804e-001 -1.03676394e-001 -2.11059168e-001 -2.69195288e-001
      -2.13255674e-001 1.58816636e-001 1.45557567e-001 1.81052327e-001
      1.76948264e-001 -2.09501311e-002 1.68032229e-001 1.35244444e-001
      -2.39195496e-001 6.21511042e-002 9.63211134e-002 1.30738273e-001
      -1.56127382e-002 -5.31202793e-001 8.10418651e-002 6.21027388e-002
      1.08789206e-001 -1.22640859e-002 2.57471204e-001 -2.18261883e-001
      2.52162218e-001 -6.87395260e-002 1.10327065e-001 -4.98052686e-001
      -7.42562637e-002 1.07693776e-001 -2.17758551e-001 -2.73913294e-001
      1.68118786e-004 2.26455018e-001 1.70394555e-001 1.35939211e-001
      9.28764269e-002 3.18417586e-002 -1.04792200e-001 2.89238960e-001
      9.81551223e-003 8.26048627e-002 -1.00617945e-001 -5.32129128e-003
      -4.58912253e-002 1.56800404e-001 -1.27107456e-001 3.40258420e-001
      -2.25941394e-003 2.01654375e-001 2.63774037e-001 1.61532685e-001
      9.50966254e-002 2.29555398e-001 -2.63528347e-001 2.45058671e-001
      -2.93740571e-001 1.95420478e-002 -7.62266219e-002 -1.52920067e-001
      -3.12954262e-002 -7.61816353e-002 -1.19550943e-001 2.88089481e-003
      -1.58213094e-001 -1.62098870e-001 -6.90275198e-003
      -2.78997123e-001 6.48762137e-002 7.52288848e-002 1.74791470e-001
      1.32740423e-001 -8.26271251e-002 -3.71073559e-002 9.67371166e-002
      -2.83912458e-002 2.41471827e-001 1.53494507e-001 -2.73304105e-001
      -1.13994265e-002 -4.04678620e-002 -1.87193841e-001 1.81495875e-001
      1.44664630e-001 -8.03890731e-003 -2.14814961e-001 -2.65561819e-001
      8.88829120e-003 -1.10017240e-001 -2.83683557e-002 -1.61073998e-001
      -6.74578249e-002 -1.13837704e-001 -5.86810708e-003 6.37103978e-004
      -3.17151278e-001 -6.89923465e-002 2.35560033e-002 2.71879464e-001
      3.85925353e-001 -1.05757840e-001 2.57989913e-001 -3.93190905e-002
      -7.94177577e-002 -7.92958140e-002 8.31653923e-003 -2.21277386e-001
      -2.30712239e-002 2.16232613e-002 -2.62929082e-001 1.00834064e-001
      1.58275709e-001 -5.32641299e-002 -9.90003645e-002 -1.17706500e-001
      7.02601150e-002 1.87679917e-001 7.33153298e-002 2.76338369e-001
      8.59058928e-003 1.21592477e-001 6.48100227e-002 1.43648729e-001
      4.90636714e-002 5.93676418e-002 -5.81918694e-002 -2.29070317e-002
      2.18436792e-001 3.56971957e-002 1.69460669e-001 2.20419541e-001
      -2.14802418e-002 -1.31767886e-002 -9.89022627e-002 8.09702501e-002
      -2.54170626e-001 -6.39237463e-002 1.18952364e-001 -3.40008557e-001
      -5.31777851e-002 1.17063142e-001 2.43280642e-002 -3.19445610e-001
      1.03065506e-001 6.79838210e-002 -7.03769177e-002 2.36183137e-001
      -5.18244272e-003 1.10384218e-001 1.67300493e-001 1.07288569e-001
      -4.19913024e-001 -6.72421530e-002 -6.42984957e-002 2.37170756e-001
      1.41982734e-001 -1.70880288e-001 2.23654658e-001 1.10434350e-002
      3.95314470e-002 -4.37966473e-002 3.38790156e-002 1.11367553e-003
      -4.31482978e-002 5.85492440e-002 -2.00262159e-001 -2.81731069e-001
      9.81413722e-002 -1.43435180e-001 3.02898020e-001 -3.87205668e-002
      -1.02646947e-001 -2.55411174e-002 -2.15785038e-002
      -1.92156121e-001 6.31924272e-002 1.15004644e-001 1.60549864e-001
      -6.02130406e-002 2.03130960e-001 3.30992877e-001 -3.14951576e-002
      1.99542404e-003 2.67251078e-002 8.51971656e-003 3.54198277e-001
      -1.39704868e-002 5.41281700e-001 1.46291539e-001 -1.73499674e-001
      5.87782040e-002 2.33145729e-002 1.66209042e-001 1.19137175e-001
      -2.79266108e-003 -9.76582691e-002 1.59569934e-001 -1.78806126e-001
      -1.78342208e-001 -5.40442951e-002 1.43206447e-001 3.67774189e-001
      2.41876468e-001 7.95239508e-002 -1.24978155e-001 3.33491452e-002
      1.07336223e-001 2.54716843e-001 8.38488862e-002 -1.41367674e-001
      -1.06018797e-001 -2.85724431e-001 -1.61254793e-001
      -9.07790810e-002 -9.83105600e-002 -1.38346210e-001 4.86203358e-002
      -3.25379111e-002 -2.38923386e-001 8.13133717e-002 6.03282116e-002
      6.63887486e-002 -4.41411696e-002 -3.02991290e-002 2.66919643e-001
      -1.96107924e-001 1.78454202e-002 2.41580114e-001 2.18394160e-001
      -6.24332540e-002 1.18449956e-001 8.74487758e-002 -2.15446919e-001
      -2.93366879e-001 -3.42549682e-001 3.44975561e-001 1.86682194e-002
      -2.92987796e-003 2.94121839e-002 -1.76072747e-001 -1.45428330e-001
      -1.16415307e-001 1.67089894e-001 -6.53895438e-002 8.59381035e-002
      -2.42297966e-002 9.16662663e-002 -3.30527462e-002 8.40623304e-002
      -5.58887124e-002 1.03548840e-002 -1.39123559e-001 -2.82721460e-001
      2.17771709e-001 -1.56106874e-001 -1.83423795e-002 6.39254088e-003
      -1.96485650e-002 -1.19335540e-001 -1.02250665e-001 8.63612741e-002
      1.16995864e-001 7.54888430e-002 -2.07729340e-001 1.93778366e-001
      1.79737970e-001 1.11946322e-001 -2.43424818e-001 6.53688312e-002
      -2.48988137e-001 -2.40108714e-001 -2.38431603e-001
      -2.35060796e-001 -1.23472527e-001 1.00458875e-001 -1.93165451e-001
      1.05623096e-001 -3.23170871e-001 -1.01053461e-001 7.08398642e-003
      -2.01502427e-001 -3.08395267e-001 -1.40807271e-001
      -1.02246888e-002 4.89536822e-001 -2.93708026e-001 -7.97981918e-002
      -1.56321689e-001 6.64880574e-002 9.61057320e-002 -2.24658549e-001
      -2.23453522e-001 -3.15406680e-001 2.73004770e-001 2.07330137e-002
      -1.20866537e-001 1.99790254e-001 2.91040950e-002 -1.11561000e-001
      -5.48511334e-002 -8.61301646e-002 2.11105883e-001 -5.43762110e-002
      7.33762309e-002 -8.98414180e-002 -4.08438183e-002 -1.95373461e-001
      3.84548664e-001 9.91419554e-002 -2.97655854e-002 -2.53091082e-002
      -1.83331847e-001 -3.29355538e-001 -3.66135776e-001 3.47860962e-001
      -4.94366847e-002 1.81584895e-001 2.46135563e-001 -2.04762816e-001
      1.20807804e-001 1.45963430e-001 -1.23851389e-001 -1.95674151e-001
      -2.33189613e-001 -7.85787329e-002 8.94263852e-003 3.65200127e-003
      -2.07541436e-001 8.08638781e-002 -2.12118458e-002 2.86912560e-001
      6.82929680e-002 1.55691385e-001 6.81879884e-003 -2.07620472e-001
      1.08030707e-001 -2.72901297e-001 8.84520113e-002 -2.53572743e-002
      -6.40609413e-002 -1.59695104e-001 -1.65520579e-001
      -2.10406691e-001 -1.31617159e-001 -3.51628242e-003
      -2.30149910e-001 -1.24932103e-001 -2.74975836e-001 5.81519566e-002
      -3.03324699e-001 -1.01290561e-001 -2.54102856e-001 1.44415557e-001
      1.47864759e-001 3.93184982e-002 5.17973378e-002 8.22753981e-002
      -2.26562321e-001 -4.39149499e-001 8.38889927e-002 -2.69207358e-002
      -1.53728768e-001 1.38199180e-001 -1.37164341e-002 -7.82935470e-002
      2.22861335e-001 -4.31997567e-001 -3.88947606e-001 4.02255684e-001
      1.67876989e-001 2.17105255e-001 1.63583100e-001 -5.46065755e-002
      -3.77837755e-002 1.93255931e-001 -2.92444915e-001 -2.62883544e-001
      1.52889946e-002 -5.21626770e-002 7.53921410e-003 -1.52183428e-001
      6.63134083e-002 8.09628293e-002 -2.35544607e-001 -2.15861961e-001
      8.50513354e-002 2.38398105e-001 -1.88913599e-001 -6.38567470e-003
      1.83397997e-002 1.75640166e-001 1.11981474e-001 7.70475194e-002
      -8.82986635e-002 -4.34142917e-001 6.99646920e-002 1.34534970e-001
      -5.09178489e-002 -7.94687588e-003 -1.17357820e-001
      -8.78537893e-002 3.14146608e-001 1.94996417e-001 -3.63713279e-002
      1.54285461e-001 4.95119363e-001 6.49580061e-002 5.23686521e-002
      3.11841667e-001 5.93194850e-002 -3.05553019e-001 -2.54716873e-002
      -2.12137997e-001 -1.85678661e-001 -3.74687910e-002 1.75874114e-001
      6.10530265e-002 -2.60371715e-001 -1.05566822e-001 -1.38041764e-001
      1.96561784e-001 2.07416281e-001 -9.79823768e-002 2.48355478e-001
      2.23935172e-001 -5.28980717e-002 -1.61194280e-001 -2.55730212e-001
      1.37286410e-001 -2.60097772e-001 -4.27975029e-001 1.01600876e-002
      3.87685858e-002 -9.92520228e-002 7.59619474e-001 -3.60780619e-002
      -7.41773844e-002 -1.65697724e-001 6.89389603e-003 -1.67064026e-001
      3.54794592e-001 -1.56689182e-001 7.79095367e-002 -1.23903856e-001
      -3.44169326e-002 1.89192832e-001 -1.63984776e-001 1.89007968e-001
      8.98970962e-002 1.04378760e-002 2.14384533e-002 -2.08083615e-001
      3.26841712e-001 1.83527499e-001 1.13232043e-002 -1.89258322e-001
      2.64418423e-001 8.45183879e-002 3.36673856e-001 -3.56468081e-001
      -3.34259421e-002 2.59683907e-001 -8.62594396e-002 -2.02840999e-001
      2.82935530e-001 1.24171935e-001 6.27988279e-002 2.25556627e-001
      -2.87409313e-002 -3.38173881e-002 -1.56669915e-001 4.08052392e-002
      7.16309398e-002 4.03051898e-002 -1.62334040e-001 6.37426088e-003
      -2.76716471e-001 -1.15262121e-002 -1.89849362e-001 2.10973285e-002
      -5.63149117e-002 -2.78691918e-001 7.89737776e-002 -1.51328966e-001
      3.02919686e-001 5.20274751e-002 2.51508728e-002 -1.61018997e-001
      4.33995053e-002 -1.29975870e-001 3.47626388e-001 -8.69426131e-002
      -6.99641630e-002 1.82421356e-001 -1.88531891e-001 -2.20289394e-001
      -1.14480503e-001 2.77244270e-001 -6.57993108e-002 5.90466708e-002
      1.91343024e-001 4.31795791e-002 -3.56425382e-002 2.50366271e-001
      -2.37102196e-001 -3.27904612e-001 -3.09106000e-002 1.17974333e-001
      4.35042590e-001 1.38479322e-001 -3.04091364e-001 -8.07698444e-002
      4.99721058e-002 -1.57145679e-001 1.80616990e-001 1.11120127e-001
      8.26350413e-003 9.37357731e-003 2.21537232e-001 5.25331311e-002
      4.42226939e-002 -4.85866994e-001 1.77595630e-001 2.20944315e-001
      -3.78617823e-001 -1.47837639e-001 -3.86260688e-001
      -1.97406799e-001 1.28969206e-002 8.14949572e-002 -7.16132075e-002
      8.41697901e-002 2.45992531e-004 1.91342697e-001 -2.05394223e-001
      -5.95909879e-002 1.27699271e-001 1.99026540e-002 -1.50209695e-001
      1.41479582e-001 2.31492579e-001 4.01492529e-002 5.12978956e-002
      -2.62098551e-001 1.84258774e-001 2.64745623e-001 -2.43196532e-001
      -5.17850369e-002 6.07708320e-002 -2.28242055e-001 9.46864933e-002
      9.28111151e-002 2.16508329e-001 -1.15927689e-001 -3.03309411e-002
      -1.61892548e-001 -3.64263415e-001 2.76095510e-001 -2.22800393e-002
      -2.14110151e-001 -1.84565604e-001 -1.25196829e-001
      -1.67817220e-001 1.91003963e-001 4.97358926e-002 -9.04165655e-002
      3.80079359e-001 1.12026371e-002 3.45338345e-001 2.55144924e-001
      -8.17194954e-002 -1.87994033e-001 2.08612725e-001 5.64554296e-002
      -2.98187703e-001 4.31050211e-002 -2.54806802e-002 -1.32336482e-001
      1.27506450e-001 1.26809075e-001 1.84497193e-001 -1.17677441e-002
      -1.27580956e-001 4.14850503e-001 3.02866340e-001 -1.59902588e-001
      1.96000651e-001 1.66984126e-001 4.37141955e-001 -8.84036124e-002
      -1.33674040e-001 -1.35225147e-001 -1.19041935e-001
      -8.95846337e-002 -3.93495888e-001 2.15190113e-001 -1.26675397e-001
      1.59052983e-001 1.09122820e-001 -5.88028356e-002 5.14151938e-002
      1.41861916e-001 1.00256845e-001 4.85933796e-002 1.88591659e-001
      -9.74167977e-003 -1.75185829e-001 -3.95755395e-002
      -1.75654575e-001 1.46131903e-001 -1.31255537e-001 -9.05729309e-002
      -6.27160817e-002 -1.92484073e-002 -4.41379435e-002
      -3.69517095e-002 -9.71828252e-002 4.86954480e-001 1.19678035e-001
      1.47946253e-002 2.17987448e-002 7.66664967e-002 -2.07135782e-001
      -7.62162209e-002 -1.56784326e-001 -2.84841582e-002 4.57810424e-002
      2.33942822e-001 -3.92883085e-002 -2.28049636e-001 -1.55635774e-001
      2.59508401e-001 4.82171541e-003 -1.68457985e-001 -7.20462129e-002
      -3.31709057e-001 4.64908779e-003 -2.81529486e-001 -2.11890623e-001
      3.09186429e-001 6.21399209e-002 -1.95201859e-001 -1.49288908e-001
      -1.93060964e-001 8.84321183e-002 -3.70961358e-003 5.70897795e-002
      1.76906571e-001 -1.73392043e-001 1.02367230e-001 -1.09815765e-002
      -2.03457847e-001 -2.30029047e-001 1.60904109e-001 -1.41012356e-001
      4.44090605e-001 -3.15085873e-002 -1.42430335e-001 -1.77113459e-001
      5.49847633e-002 1.25077963e-001 2.06107851e-002 5.89548536e-002
      -1.85706327e-003 1.49497792e-001 1.38057917e-001 1.53687447e-002
      4.80069071e-002 2.76756268e-002 3.31943363e-001 4.83947657e-002
      -3.96868914e-001 1.24625698e-001 1.45698741e-001 5.01075573e-002
      1.17826320e-001 3.16063374e-001 -7.88137130e-003 -1.05963506e-001
      7.61980936e-002 2.41519287e-001 -1.25543520e-001 1.27219753e-002
      -4.12788272e-001 2.53628939e-002 1.90982237e-001 -4.50440682e-002
      -3.94650437e-002 -2.90038675e-001 6.08276203e-002 2.73557514e-001
      -1.59441918e-001 2.38982867e-002 4.81579639e-002 7.51362443e-002
      -1.10573582e-001 -7.74682537e-002 -1.33702904e-001
      -1.28076687e-001 -5.10823540e-002 -1.57794237e-001
      -1.85448363e-001 -3.03819567e-001 1.61137894e-001 3.73535939e-002
      2.54831575e-002 1.86954498e-001 -2.80032195e-002 1.02170082e-002
      9.87444893e-002 1.40676379e-001 2.26664960e-001 -5.37159666e-002
      -1.29200667e-001 -1.24248199e-001 6.70934990e-002 2.35790581e-001
      1.52826263e-002 -8.50850530e-003 -1.14497341e-001 1.11373976e-001
      -7.88961276e-002 -4.88256440e-002 2.61888862e-001 1.70677632e-001
      -2.97344122e-002 -1.12099834e-001 -1.40121907e-001 2.31314301e-001
      1.73307434e-002 -2.05667559e-002 -5.07167161e-001 -2.24120602e-001
      -4.61925231e-002 9.48499441e-002 -1.63177073e-001 -8.45625475e-002
      -8.76497999e-002 -1.71469167e-001 2.22509742e-001 -2.11812004e-001
      -5.16273901e-002 2.25728028e-003 -1.71025664e-001 4.76278849e-002
      8.27975795e-002 2.75554173e-002 2.57214397e-001 3.31553863e-003
      7.78588057e-002 -9.68351215e-002 5.53060882e-003 6.65537864e-002
      -2.41450533e-001 -1.05441511e-001 -1.76324293e-001
      -8.06297064e-002 -2.29251221e-001 -1.91704467e-001 1.12933457e-001
      -4.42784354e-002 -1.46529511e-001 -2.13407397e-001 5.22994399e-002
      -9.47100073e-002 -4.35176879e-001 1.19142979e-001 8.84423628e-002
      -8.51833224e-002 -4.88975607e-002 -1.25565127e-001
      -1.27213582e-001 2.25799948e-001 -5.83431944e-002 -1.75178483e-001
      6.93741143e-002 2.13877916e-001 -1.49559483e-001 2.06731502e-002
      -4.01681423e-001 -2.81159788e-001 -4.64342274e-002 8.33121091e-002
      -1.82730243e-001 1.89210121e-002 1.79690659e-001 -1.54493883e-001
      -2.87580162e-001 1.49360195e-001 -3.28149736e-001 -2.79295832e-001
      -1.94650888e-002 -1.71344385e-001 -2.01856941e-001
      -3.47207278e-001 -2.68525481e-001 -4.71005410e-001
      -1.02727957e-001 1.31122291e-001 -7.57411197e-002 4.32956040e-001
      -9.91720892e-003 -3.00226063e-001 -3.61847803e-002
      -4.26304609e-001 5.34395641e-003 -2.31790289e-001 -1.88243464e-002
      -3.25895071e-001 -1.10534534e-001 -7.42335469e-002
      -1.20471217e-001 5.29404804e-002 -2.93066591e-001 -2.29356915e-001
      -1.52045310e-001 -6.84308633e-002 1.91155933e-002 -2.10903846e-002
      -7.92533346e-003 -4.71409932e-002 7.91907683e-002 3.36521059e-001
      -4.07134518e-002 2.48734832e-001 6.50829375e-002 -1.91517308e-001
      4.03061695e-002 2.56820470e-001 -2.81842619e-001 1.93687707e-001
      5.06605655e-002 -1.60685316e-001 4.22010124e-002 3.00281912e-001
      -2.53417820e-001 2.90076584e-002 2.97150090e-002 -2.09514692e-001
      1.48727149e-001 1.17096804e-001 5.31965852e-001 -3.45651954e-001
      -3.04231554e-001 -2.35630870e-001 -2.38380179e-001 3.31424433e-003
      -9.98280868e-002 1.77670702e-001 -5.93186915e-002 1.71578541e-001
      -3.30890417e-001 -3.29554565e-002 -1.17835298e-001
      -7.52072111e-002 1.09875485e-001 2.54909378e-002 -6.57087862e-002
      -1.06579222e-001 -2.19007194e-001 -3.31305355e-001
      -1.30463898e-001 -4.29656506e-001 -6.34363294e-002 2.14560106e-001
      -4.57906485e-001 -1.05188780e-001 -6.77804425e-002
      -2.25408196e-001 -2.34152958e-001 9.78788137e-002 -2.80560642e-001
      4.48592335e-001 -1.15597345e-001 1.00202866e-001 1.86200485e-001
      1.03442028e-001 -5.05698137e-002 2.50049442e-001 3.52713577e-002
      4.05845866e-002 -2.20436767e-001 5.70450425e-002 -8.10452327e-002
      4.56224293e-001 -1.82434484e-001 3.86178792e-002 -1.58181697e-001
      1.73741683e-001 1.75632872e-002 1.68825388e-001 -1.63489744e-001
      -2.29838103e-001 9.32075903e-002 -6.15109950e-002 -2.42441729e-001
      1.69866160e-001 -2.58139312e-001 -5.73715009e-002 -7.89962038e-002
      -2.11771205e-001 1.53227095e-002 -1.66876584e-001 1.78981230e-001
      -5.20727746e-002 1.76521018e-001 -1.54813096e-001 1.64792582e-001
      -8.38599280e-002 5.06928526e-002 -7.68123940e-002 5.65406345e-002
      3.42812017e-002 -3.16291928e-001 3.31282198e-001 -3.05482112e-002
      -7.10678548e-002 1.41444877e-001 -2.71413058e-001 1.72605872e-001
      -2.17812940e-001 -2.43561223e-001 -1.91773757e-001
      -2.03495458e-001 2.01824650e-001 -1.14753738e-001 1.12621203e-001
      2.70773500e-001 1.69643685e-001 -1.25939324e-001 1.72225446e-001
      -1.65813163e-001 -1.06233001e-001 -7.81381130e-002
      -1.47185460e-001 -1.81751668e-001 -8.57394487e-002 3.09659392e-001
      -1.03848912e-001 2.51089305e-001 1.93599269e-001 2.53389925e-001
      3.13988887e-002 1.87950671e-001 -2.70910382e-001 -7.59768998e-003
      -1.98402956e-001 1.20452933e-001 -4.25960356e-003 -1.21125989e-002
      7.57542476e-002 1.20807998e-001 2.01211646e-002 5.65425120e-002
      9.45098512e-003 -1.83858812e-001 -2.00141087e-001 2.74393916e-001
      1.88322797e-001 3.84096980e-001 1.68937445e-001 1.31013289e-001
      -3.72434855e-001 -7.50711486e-002 2.12073196e-002 1.53355330e-001
      1.68061092e-001 -3.17196399e-001 9.60344672e-002 2.48174984e-002
      -1.08423270e-001 1.12099484e-001 -2.83005595e-001 -2.63974249e-001
      4.97406907e-002 8.04490522e-002 2.11661041e-001 2.30335668e-001
      3.05881482e-002 1.57039016e-001 -9.58073065e-002 -1.59160465e-001
      -1.01139463e-001 8.69913865e-003 -2.44682673e-002 -6.12073660e-001
      2.07710564e-001 -8.52326453e-002 -4.52540219e-002 -1.36129022e-001
      -2.82269925e-001 1.03723640e-002 9.56326872e-002 -1.92478802e-002
      5.04512340e-002 -3.55993181e-001 -1.03337549e-001 -1.23036079e-001
      6.52166530e-002 9.41915587e-002 -2.05483690e-001 1.97947875e-001
      4.69436869e-002 3.07659991e-002 1.44973978e-001 -2.20650375e-001
      -1.28256083e-001 -3.57519314e-002 -1.97036833e-001 4.55047823e-002
      9.73944515e-002 -1.47588506e-001 -2.78853625e-001 1.28417403e-001
      -1.25658393e-001 2.46979877e-001 2.91515794e-002 1.18159361e-001
      -7.61660468e-003 2.66295701e-001 -3.16265486e-002 -1.15590215e-001
      8.86992291e-002 -7.35055469e-003 -2.54709691e-001 1.75610408e-001
      2.06876397e-001 1.32293388e-001 -2.04495728e-001 1.13261230e-001
      -8.10741633e-002 -1.45346103e-002 2.23597392e-001 1.19856142e-001
      2.72744685e-001 -1.13929860e-001 -3.16137224e-002 -5.60131110e-002
      -2.14465693e-001 7.18252435e-002 3.53514701e-001 -1.25424350e-002
      -3.25222760e-002 -5.65942638e-002 -9.40420404e-002 2.35717133e-001
      5.16086631e-002 1.05440438e-001 -7.74617270e-002 1.45261794e-001
      -1.70091186e-002 9.96040851e-002 -1.84224434e-002 5.65104149e-002
      1.10562138e-001 -8.43209177e-002 -2.10719302e-001 -7.37050399e-002
      2.63696611e-001 -6.06536157e-002 -2.13754281e-001 -9.48369950e-002
      -1.13087334e-001 1.30575567e-001 -1.08998410e-001 2.30385572e-001
      -2.50992060e-001 1.39314801e-001 2.89815605e-001 -4.92912494e-002
      1.01387799e-001 1.69542626e-001 -1.21112704e-001 -1.33057505e-001
      2.29362380e-002 8.66074190e-002 3.96364629e-002 -1.27003849e-001
      -1.91715792e-001 2.51814723e-001 -1.23206332e-001 -1.80412665e-001
      1.63601711e-001 -1.32027138e-002 -5.63523732e-002 3.27272527e-002
      2.78452728e-002 -1.20670937e-001 6.27845228e-002 3.38678390e-001
      1.16911560e-001 7.75037631e-002 2.93191373e-001 8.21802318e-002
      -5.88371083e-002 -1.99089691e-001 -2.59660512e-001
      -1.61755711e-001 -1.73290849e-001 1.91076010e-001 2.04620454e-002
      -1.89180002e-002 -1.62487313e-001 1.98878527e-001 -1.64780140e-001
      -2.69985020e-001 -4.07061838e-002 2.22585231e-001 -5.95501773e-002
      -9.27157253e-002 2.13011242e-002 -3.31302643e-001 4.38686600e-003
      1.22925490e-002 -2.08558723e-001 -9.40562859e-002 8.65502574e-004
      7.59811625e-002 8.18867236e-002 -1.66249931e-001 -1.43782124e-001
      2.19303772e-001 2.62737554e-002 8.41335282e-002 1.16296113e-001
      1.29161760e-001 2.12697443e-002 -2.40581170e-001 8.60324204e-002
      -2.65451819e-001 -2.04946116e-001 1.12145998e-001 1.54702380e-001
      -3.73683162e-002 -1.38134122e-001 1.21039525e-001 3.52945738e-003
      2.65048295e-001 2.18571294e-002 -3.26637864e-001 -6.42330348e-002
      2.65944004e-002 -1.91283971e-001 -1.78233713e-001 -2.96629161e-001
      1.05374575e-001 -1.54649839e-001 2.47139394e-001 5.02173126e-001
      2.74163395e-001 9.85859558e-002 -2.03790590e-001 1.10431068e-001
      2.72861958e-001 -1.48062631e-001 -1.14475951e-001 -2.95613818e-002
      3.35619301e-001 1.55260950e-001 -1.01186387e-001 -1.31809916e-002
      1.22026339e-001 -5.22938110e-002 1.30233616e-001 -8.05732757e-002
      -2.56152302e-001 -8.05013329e-002 -5.89986145e-002 7.56915659e-002
      6.89545423e-002 -1.28468692e-001 2.66788989e-001 6.94161206e-002
      -1.62247103e-002 -8.55849124e-003 -2.73789495e-001
      -3.42379510e-002 9.16444436e-002 1.03740513e-001 -6.49516806e-002
      1.43340737e-001 4.85887565e-003 -2.17665564e-002 -6.70154998e-003
      4.07220311e-002 -1.08204633e-001 -5.37820626e-003 -3.21719825e-001
      -2.45098025e-002 -1.26133844e-001 7.58031458e-002 -1.72822744e-001
      -1.33469794e-003 -2.22660795e-001 -3.71280223e-001 1.38563007e-001
      8.55186954e-002 -2.88864952e-002 2.55734921e-001 8.42184946e-002
      -3.10082406e-001 5.77351041e-002 2.38530219e-001 2.12193295e-001
      1.70857906e-001 -2.57231236e-001 -2.05208361e-001 3.16376537e-001
      -3.50631714e-001 -1.04195341e-001 1.10406972e-001 -3.28582436e-001
      1.58477332e-002 6.46722093e-002 6.94852695e-002 3.01177558e-002
      -2.30252296e-001 -4.35119085e-002 -1.27565503e-001 1.09734945e-001
      2.67158505e-002 -2.18892187e-001 -1.86167881e-001 -1.99008316e-001
      -3.62993255e-002 1.52127966e-002 1.30488023e-001 -3.08683902e-001
      -2.59880394e-001 1.12904742e-001 1.33318722e-001 -1.47289693e-001
      2.57325500e-001 -9.97493938e-002 2.12113839e-002 1.44391030e-001
      -1.82488889e-001 -1.29382819e-001 -4.18553680e-001 1.39538065e-001
      3.04612443e-002 -1.56484455e-001 -6.96580335e-002 1.95417985e-001
      1.59038275e-001 -1.26244828e-001 -2.39684001e-001 -4.33950186e-001
      -1.38420254e-001 -7.31871054e-002 -4.92311455e-002 2.29532830e-002
      -1.42306834e-001 -1.46544307e-001 -3.50891441e-001
      -1.36757135e-001 3.93204503e-002 -2.25323051e-001 -2.51773506e-001
      -2.32376773e-002 1.24886766e-001 -2.08852515e-001 -1.48589313e-001
      -1.62379608e-001 -1.69438384e-002 2.86904871e-002 1.68448821e-001
      -3.39952081e-001 2.51596183e-001 7.46826753e-002 3.85076995e-003
      -1.69938371e-001 -9.29263905e-002 2.51691550e-001 1.82780400e-001
      1.20576270e-001 1.62292346e-001 -2.67178625e-001 3.07780900e-003
      -1.09637968e-001 -1.91639870e-001 -1.22780822e-001 2.06083030e-001
      -1.17005624e-001 5.50433956e-002 -2.61552036e-002 5.97452670e-002
      -1.33799985e-001 1.76935375e-001 -1.72039494e-001 -2.91061074e-001
      -1.29350394e-001 -1.36546984e-001 -2.20404983e-001
      -3.51681620e-001 4.88359742e-002 2.59515673e-001 -2.21386611e-001
      2.12788060e-002 -1.15974121e-001 -1.88757122e-001 -4.56757620e-002
      8.75929669e-002 -3.67269635e-001 4.87674735e-002 -4.80243005e-003
      -1.62376817e-002 7.57863792e-003 -1.70879111e-001 -1.79382868e-003
      -2.79484838e-001 3.88324469e-001 2.66552623e-002 -2.48949230e-001
      3.09504867e-001 4.99617122e-002 3.15488815e-001 2.06010103e-001
      8.59684870e-003 1.42027304e-001 4.24560010e-001 -2.51613826e-001
      3.67490351e-002 -9.82029065e-002 -8.93508457e-003 3.56723666e-001
      -1.61141127e-001 -5.20466268e-001 -3.02017152e-001
      -7.17020035e-002 -4.10616487e-001 2.99164355e-001 -1.26781791e-001
      8.63721371e-002 6.19573938e-003 6.46531284e-002 1.80791974e-001
      1.66606531e-002 4.11955900e-002 3.16879638e-002 6.20568916e-002
      -1.10027649e-001 4.55999672e-002 3.31720322e-001 1.76916033e-001
      -3.37238640e-001 3.58137697e-001 3.08867931e-001 -2.35015824e-001
      1.06204890e-001 -1.02968200e-003 1.57770917e-001 -1.31801534e-002
      -9.42362763e-004 -8.90861526e-002 1.27016932e-001 2.83457696e-001
      -3.69972177e-002 1.77457824e-001 -2.39757255e-001 -4.41858560e-001
      1.26603350e-001 5.43169528e-002 -1.08654380e-001 -5.74830621e-002
      -1.47762671e-001 -3.93073350e-001 -3.87908779e-002 2.73229331e-001
      1.55555621e-001 -1.22152545e-001 4.11842987e-002 6.94141090e-002
      1.49105228e-002 -3.87354732e-001 -1.98185414e-001 2.10274339e-001
      1.50430053e-001 1.51003256e-001 3.43657732e-001 4.38724846e-001
      -2.65215456e-001 -1.94793046e-002 2.38076337e-002 -2.23814026e-001
      8.77589583e-002 -1.31405160e-001 9.08342376e-002 -1.75037488e-001
      1.49248973e-001 5.47493219e-005 1.53408170e-001 1.41564712e-001
      1.43100724e-001 5.02704270e-003 1.76738590e-001 -1.05184741e-001
      -1.97787248e-002 1.03911765e-001 -3.33035290e-001 1.63059443e-001
      6.15832023e-002 -2.08050281e-001 5.80297559e-002 -2.57345557e-001
      -1.98911324e-001 -3.37231189e-001 9.58635136e-002 9.02407765e-002
      1.17348045e-001 1.59133941e-001 2.16000043e-002 1.35699198e-001
      5.96440807e-002 -2.35711545e-001 -3.23651552e-001 4.02747504e-002
      -5.07071555e-001 3.04009855e-001 3.08021516e-001 -4.35081124e-001
      8.06481093e-002 -4.03114222e-002 9.04821083e-002 4.66718413e-002
      3.02550733e-001 -4.30875570e-002 -1.36568993e-001 1.27737314e-001
      -1.30112246e-001 3.23604017e-001 1.97666466e-001 -3.54486257e-001
      -9.50635225e-002 -2.09500089e-001 2.82411110e-002 2.92883795e-002
      1.07917385e-002 -1.25790685e-001 -4.54650670e-002 -1.15392711e-002
      -1.21657871e-001 8.73242617e-002 -3.05992328e-002 -1.43854037e-001
      3.69323790e-001 1.54821739e-001 -9.58711579e-002 8.06553364e-002
      1.85413882e-001 -2.78441966e-001 1.06463976e-001 -6.61521181e-002
      -4.33571696e-001 -1.92078561e-001 1.51661247e-001 -3.58351022e-001
      -8.28569457e-002 -2.49501571e-001 -2.89013445e-001
      -1.41642526e-001 5.68658337e-002 -1.67933218e-002 -3.77837494e-002
      4.15831596e-001 4.57779855e-001 2.37431645e-001 2.66043186e-001
      4.20147739e-002 2.72703916e-001 2.01402456e-001 2.14864686e-001
      2.21727744e-001 7.41331428e-002 -2.52768379e-002 -2.06055492e-001
      8.81851688e-002 2.23570522e-002 6.74908385e-002 -1.24924295e-001
      1.34042159e-001 4.04518507e-002 1.83827758e-001 6.85080662e-002
      -7.11486265e-002 3.05165172e-001 -7.42451921e-002 -7.68575817e-002
      4.30637561e-002 -9.11750272e-003 1.85588062e-001 2.39243418e-001
      2.27074195e-002 -1.10567592e-001 9.22980085e-002 2.03858569e-001
      -5.70659488e-002 2.32193649e-001 -5.59572160e-001 7.83294812e-002
      2.93893635e-001 4.49125499e-001 -2.38990374e-002 5.00309616e-002
      1.97131515e-001 -5.69897629e-002 -2.52023160e-001 7.47022927e-002
      2.33644396e-002 3.33442390e-001 -2.06082702e-001 -1.25931343e-002
      1.56982809e-001 1.50909066e-001 -2.96954513e-001 -8.57545584e-002
      -5.01015447e-002 1.67251110e-001 7.51133412e-002 -3.98042910e-002
      2.11425513e-001 -1.64809555e-001 -3.98446433e-002 1.09334163e-001
      1.66231856e-001 -1.53041229e-001 -1.79570138e-001 5.71113043e-002
      1.14693604e-001 -4.30661440e-002 -3.45940329e-002 -1.22600056e-001
      -1.36157304e-001 4.11983669e-001 4.16896353e-003 -3.83074999e-001
      -1.65523484e-001 -1.65344387e-001 -1.95883766e-001
      -1.65127471e-001 1.30761221e-001 -1.51141495e-001 1.63723305e-001
      6.01032898e-002 2.66825128e-002 2.01373789e-002 -2.14581892e-001
      -9.82536823e-002 -5.31589007e-003 2.00971752e-001 -5.71673065e-002
      -1.12856910e-001 1.38205618e-001 2.04549283e-001 1.36108026e-001
      -9.36636031e-002 -7.18090609e-002 2.04720616e-001 -7.26211071e-002
      -9.77997109e-002 -7.25321993e-002 -2.76421197e-002
      -2.79635042e-001 1.98982865e-001 -1.22669756e-001 1.83641732e-001
      -4.68783267e-003 1.08684197e-001 -1.12914361e-001 8.54536612e-003
      1.67952672e-001 1.08131357e-001 -4.96606901e-002 -5.00598066e-002
      -1.96310729e-001 1.54551446e-001 1.35571674e-001 -1.19851723e-001
      4.07280438e-002 1.22434638e-001 -4.81653959e-002 -6.90543801e-002
      9.36059840e-003 -1.87191479e-002 -8.09629932e-002 2.39876539e-001
      2.31316000e-001 5.11355363e-002 -1.02071919e-001 9.67895612e-002
      -8.16741958e-002 3.21655780e-001 1.18020952e-001 3.34227055e-001
      -3.07720006e-001 -3.37705612e-002 2.34545812e-001 1.65366217e-001
      5.17753474e-002 3.52506116e-002 6.60513043e-002 1.66185781e-001
      7.16852210e-003 -1.54299438e-002 -2.36660719e-001 4.01407659e-001
      -3.71912532e-002 -2.16562524e-001 -1.48527190e-001 1.21169403e-001
      -8.26766640e-002 1.43009156e-001 -1.98598832e-001 1.71809584e-001
      -4.38282520e-001 1.75969675e-001 -9.71706770e-003 -1.36870012e-001
      -3.23922210e-003 -2.87284344e-001 -6.32209051e-003
      -1.54431626e-001 -2.64840126e-001 3.38850031e-003 -7.14030638e-002
      3.05039227e-001 1.47981584e-001 -2.93588862e-002 2.15966910e-001
      2.93329824e-002 1.22938864e-001 -1.56993926e-001 -4.08662250e-003
      -2.10144222e-002 5.39999306e-002 -7.08270222e-002 1.95317790e-001
      -5.68737984e-002 -1.37564138e-001 1.78823546e-002 -7.30797499e-002
      2.03526780e-001 -2.12955907e-001 -6.63311481e-002 -2.74299145e-001
      -1.06238693e-001 -3.54891598e-001 -1.64708421e-001 1.70547277e-001
