<?xml version="1.0"?>
<opencv_storage>
<my_svm type_id="opencv-ml-svm">
  <svm_type>C_SVC</svm_type>
  <kernel><type>LINEAR</type></kernel>
  <C>1.</C>
  <term_criteria><epsilon>2.2204460492503131e-016</epsilon>
    <iterations>100000</iterations></term_criteria>
  <var_all>16416</var_all>
  <var_count>16416</var_count>
  <class_count>2</class_count>
  <class_labels type_id="opencv-matrix">
    <rows>1</rows>
    <cols>2</cols>
    <dt>i</dt>
    <data>
      -1 1</data></class_labels>
  <sv_total>1</sv_total>
  <support_vectors>
    <_>
      -1.11016765e-001 -3.12473662e-002 2.11084764e-002 8.51420127e-003
      -6.09741434e-002 -1.77150536e-002 4.61794995e-003 -1.53813474e-002
      -7.02452064e-002 -4.90939878e-002 -1.03492208e-003 3.04396432e-002
      1.60067659e-002 -4.51628640e-002 1.28063653e-002 7.72486106e-002
      2.68442798e-002 -8.23958777e-003 -4.38799337e-002 -3.55222002e-002
      -1.20089557e-002 -2.34094262e-002 -2.79340334e-003 4.74689901e-003
      4.45851451e-003 -6.61565959e-002 -4.88002002e-002 1.29405754e-002
      -4.17545019e-003 1.13419921e-003 -3.58627848e-002 1.47843165e-002
      -9.49259102e-003 2.65609585e-002 -6.34803325e-002 8.84581357e-003
      -5.77505212e-003 3.08484165e-003 8.67364649e-003 -6.67819381e-002
      -7.04055354e-002 5.79560660e-002 8.44884738e-002 5.92077477e-003
      -1.36266565e-002 -5.19037470e-002 -3.84566113e-002 1.81334894e-002
      4.22083177e-002 -2.14676764e-002 3.75473984e-002 6.68876246e-002
      -2.31984798e-002 -7.77522996e-002 -1.79293361e-002
      -4.21217531e-002 -4.10749167e-002 -7.01386780e-002
      -2.95098498e-002 2.33198013e-002 -4.72644344e-003 -3.71553972e-002
      -1.88283380e-002 -6.21842369e-002 -7.08590075e-002
      -1.71195883e-002 1.47617366e-002 2.78874487e-002 -2.37087384e-002
      -2.38206182e-002 -8.01436156e-002 -6.16259128e-002
      -2.81651989e-002 1.33877667e-002 4.72500958e-002 3.94899212e-002
      2.22835485e-002 3.52109596e-002 1.30722793e-002 -1.55072799e-002
      -6.54201657e-002 2.11880542e-003 8.52683745e-003 9.18170065e-002
      1.71627160e-002 5.27488813e-003 -3.61222327e-002 1.23798326e-002
      -1.39470901e-002 -5.10255806e-002 -1.55882817e-002
      -7.36107444e-003 1.96350496e-002 -8.29723850e-003 5.79246953e-002
      -3.26945186e-002 -1.41183035e-002 -5.60849980e-002 6.09713374e-003
      -3.84157449e-002 1.70631278e-002 3.55774499e-002 -4.50835750e-002
      1.77769605e-002 -6.17021546e-002 -1.57858320e-002 -1.51528995e-002
      -1.24456091e-002 -3.52095030e-002 1.55032054e-002 2.09435970e-002
      3.92573439e-002 -2.34253816e-002 1.68989189e-002 5.62372468e-002
      5.69946058e-002 -2.16429122e-002 -4.79803607e-002 -4.68084414e-004
      -1.13604795e-002 -1.70338191e-002 -1.07527085e-001 9.43587348e-003
      8.07475373e-002 7.69738778e-002 -6.59473240e-002 -2.61902995e-002
      5.50487302e-002 4.76004928e-002 4.57757041e-002 3.46814990e-002
      6.63909223e-003 6.06904514e-002 4.45488840e-002 -7.19041098e-003
      -5.12441695e-002 6.45992383e-002 6.94082752e-002 -1.55281257e-002
      -3.88104431e-002 5.06883627e-003 5.82296401e-002 1.56552922e-002
      -4.16414924e-002 -4.04598191e-003 5.02528995e-002 3.84109048e-003
      3.35319228e-002 -8.56563225e-002 2.00901236e-002 8.60581398e-002
      1.01779476e-001 -2.29801778e-002 -4.83448710e-003 4.57594171e-002
      2.32788809e-002 6.20305948e-002 -7.85284266e-002 -7.38244429e-002
      6.38066381e-002 2.98131071e-002 -1.49761904e-002 -2.35053189e-002
      4.79713939e-002 1.64843053e-002 2.75786500e-002 -1.84478275e-002
      3.78680825e-002 8.02443400e-002 5.11455797e-002 -2.68778168e-002
      -1.97989829e-002 -1.15350271e-002 -2.18673926e-002
      -1.84067804e-002 -2.13971026e-002 -6.32628128e-002 6.76466972e-002
      2.98191085e-002 -3.25609446e-002 -1.03040189e-002 1.55606112e-002
      5.93541376e-002 8.94936696e-002 -1.68292839e-002 2.50425655e-002
      7.59353116e-002 3.48365656e-003 2.43672766e-002 -2.12401059e-002
      2.27660816e-002 2.49454882e-002 3.05516906e-002 -4.55274209e-002
      -9.96500533e-003 6.92666918e-002 2.75757648e-002 -2.60424130e-002
      -1.56991184e-002 -1.18105905e-003 4.16196287e-002 1.77639090e-002
      7.71293938e-002 3.04149762e-002 7.26291463e-002 1.30527932e-002
      -1.05663901e-002 -4.19339091e-002 6.97339699e-003 -3.55326175e-003
      -1.60292797e-002 -1.14573836e-002 -4.12744433e-002 4.77574915e-002
      4.70608771e-002 -7.90259056e-003 3.00025195e-002 5.96758612e-002
      1.01366147e-001 1.02646016e-001 -3.65718342e-002 2.45247204e-002
      8.42449293e-002 4.60661165e-002 1.20064011e-002 2.06815470e-002
      2.46084519e-002 8.90448391e-002 3.30270901e-002 -1.04607619e-001
      -4.40494418e-002 3.63432206e-002 7.98628107e-003 3.90066206e-002
      2.01858915e-002 1.42480424e-002 9.05608311e-002 7.41050094e-002
      -1.65155958e-002 -2.92088762e-002 6.26559556e-002 1.06432466e-002
      2.82682683e-002 2.30390653e-002 -1.89128183e-002 4.71130461e-002
      -3.59650627e-002 -4.20011468e-002 -1.98765285e-002 4.44089882e-002
      1.04664210e-002 6.65528700e-002 -1.21495444e-002 4.07902487e-002
      4.29400057e-002 7.28520527e-002 -1.11122448e-002 6.94660321e-002
      2.42287666e-002 3.47923972e-002 1.33826640e-002 -3.30257379e-002
      2.79731136e-002 2.02392787e-002 6.10242411e-002 2.34820582e-002
      -3.98356244e-002 1.06510343e-002 -1.56994108e-002 -5.94216911e-003
      1.55105190e-002 -2.46458268e-003 3.26994322e-002 4.67173494e-002
      2.92353388e-002 9.21070278e-002 2.54370291e-002 6.05479768e-003
      4.74423133e-002 -6.40725717e-003 3.11183315e-002 1.82856191e-002
      -1.00625493e-002 4.39473316e-002 3.47598270e-003 3.44607979e-002
      -2.22520772e-002 3.47491074e-003 -2.28682198e-002 1.10568954e-002
      4.97757792e-002 5.34587950e-002 3.46645759e-003 -3.78068723e-002
      3.47777382e-002 -2.87814885e-002 2.03579813e-002 -7.23650167e-003
      -4.74332925e-003 1.89668797e-002 8.02347511e-002 -1.40008572e-002
      -2.45198384e-002 2.50937548e-002 -3.33198458e-002 5.91266342e-002
      1.36352656e-002 2.22690441e-002 3.34589407e-002 2.22583767e-002
      9.50097963e-002 5.00125438e-002 5.77843972e-002 -1.30939325e-002
      4.15706150e-002 2.23702379e-002 7.04859209e-004 2.26642862e-002
      4.62833866e-002 4.83136140e-002 -1.82616431e-002 3.55227627e-002
      8.80418252e-003 3.01918350e-002 1.45998579e-002 -9.99732781e-003
      9.16007813e-003 4.78823716e-003 -3.76142822e-002 -4.18922044e-002
      -1.33417519e-002 -5.81644401e-002 3.97546664e-002 1.66947357e-002
      4.55784984e-002 4.21401858e-002 7.03198016e-002 3.48681435e-002
      3.19365896e-002 4.00497094e-002 -6.65211305e-003 2.91723721e-002
      3.12224105e-002 1.70379058e-002 8.90748017e-003 4.13817214e-003
      5.67185432e-002 -2.45530568e-002 4.53405380e-002 -1.48051279e-002
      1.16998572e-002 4.39477488e-002 2.50132214e-002 -8.49874166e-004
      3.31200771e-002 4.71897461e-002 -1.04978988e-002 4.95132208e-002
      7.57946260e-003 2.74217105e-003 7.33694946e-003 3.67546082e-002
      -1.14685753e-002 -9.29790363e-003 -6.93037137e-002
      -7.84423426e-002 2.08126158e-002 -1.52830593e-002 1.43185386e-003
      3.95331942e-002 6.61785156e-002 5.68223894e-002 2.98243333e-002
      -5.50174788e-002 -2.13232124e-003 2.87121981e-002 -3.01684085e-002
      -2.92503694e-003 5.89434877e-002 4.33807969e-002 7.20863603e-003
      7.40694301e-003 3.53131108e-002 -7.81374797e-002 1.57459602e-002
      5.19887870e-003 2.37940270e-002 2.74127722e-002 5.72965592e-002
      6.26677424e-002 2.96982769e-002 6.49411306e-002 -1.07149100e-002
      6.35100380e-002 3.87634221e-003 3.98155414e-002 1.37244547e-002
      4.49043140e-002 1.15108537e-002 8.51851702e-003 -1.12353601e-001
      -3.42567861e-002 3.97874340e-002 -7.69817457e-002 -7.72078102e-003
      5.45460433e-002 6.99050874e-002 1.51094561e-002 4.01191711e-002
      -8.98178387e-003 2.18149908e-002 5.00333831e-002 -3.37639302e-002
      -5.99277392e-003 1.38500044e-002 4.43514995e-002 -1.29927732e-002
      9.32138320e-003 8.90019722e-003 -5.16858064e-002 5.02894707e-002
      -4.97940667e-002 1.00335516e-002 -5.63981058e-003 9.95422434e-003
      1.78034119e-002 4.99190949e-002 7.28724301e-002 9.85599495e-003
      2.98890695e-002 -5.44617549e-002 7.23884115e-003 7.58930817e-002
      6.51814044e-002 2.84412690e-002 -1.29930750e-002 -4.96781245e-002
      -3.60319689e-002 5.87890372e-002 -9.85246245e-003 3.77727635e-002
      5.73748611e-002 6.03282228e-002 4.32762392e-002 3.92691419e-002
      -3.99627388e-002 -4.11968455e-002 3.03976964e-002 -5.38147381e-003
      7.34603554e-002 5.08461483e-002 1.80291571e-002 -1.88371297e-002
      2.43484043e-002 5.76447099e-002 -2.70296801e-002 1.87229905e-002
      -4.53389883e-002 2.64348704e-002 3.48634534e-002 7.26587791e-003
      -9.42477491e-004 4.46835384e-002 9.10588168e-003 -2.29549743e-002
      2.42189281e-002 -1.89712457e-002 5.35668209e-002 2.23806091e-002
      9.99488868e-003 6.94469037e-003 2.84767151e-002 -6.42469004e-002
      -1.67693589e-002 2.23948378e-002 -1.36415735e-002 -1.30526780e-003
      6.61706701e-002 5.81199042e-002 6.84513077e-002 9.37771052e-002
      -4.49177949e-003 4.74540330e-002 4.24520336e-002 -1.43956253e-002
      -1.95660349e-002 1.72719348e-003 -2.40700152e-002 -2.68730838e-002
      -2.15074606e-002 -7.73877697e-003 -4.56523485e-002
      -2.38029473e-003 5.40311821e-003 1.68011114e-002 2.14073826e-002
      -1.68343948e-004 3.01330741e-002 3.36011797e-002 -1.77823119e-002
      5.21070957e-002 2.79505197e-002 -1.49540016e-002 -4.43067960e-003
      5.43342419e-002 4.20074426e-002 4.45303768e-002 3.82306017e-002
      -8.20489526e-002 1.27455182e-002 1.26120476e-002 1.60573795e-002
      -1.53790712e-002 8.48857984e-002 1.45358564e-002 7.98687246e-003
      8.86438116e-002 -3.41677628e-002 1.47654861e-002 4.69278581e-002
      3.44267711e-002 5.82910776e-002 4.09364188e-003 -1.43135563e-002
      1.45680336e-002 5.33698360e-003 -2.44215975e-004 -2.14497149e-002
      4.77487929e-002 -2.44731158e-002 -4.16888893e-002 9.83384252e-003
      1.87123697e-002 4.40760562e-003 5.60124293e-002 -8.15219432e-003
      1.05165388e-003 3.05452179e-002 2.44459175e-002 -4.30556340e-003
      4.34652455e-002 2.41160151e-002 -1.48728294e-002 3.96332294e-002
      -7.63279870e-002 1.80216006e-003 1.17996428e-002 6.43357486e-002
      1.86393503e-002 4.84425277e-002 3.72866653e-002 -7.05376640e-003
      9.55737829e-002 -3.87473479e-002 5.31599671e-002 2.36933846e-002
      5.02765551e-002 1.88752282e-002 -2.22281050e-002 3.02265622e-002
      -2.14313492e-002 1.17879380e-002 -3.93494070e-002 -4.73594628e-002
      -3.43976319e-002 1.77918598e-002 -3.85095403e-002 2.57535651e-003
      1.89247094e-002 -4.65102606e-002 5.25528705e-003 -1.34802973e-002
      4.98056458e-003 1.79617049e-003 5.21268137e-003 -1.93105312e-003
      2.70514712e-002 1.87547579e-002 -1.94409061e-002 9.18185562e-002
      -2.59160064e-002 7.08460510e-002 -3.39789167e-002 4.34142873e-002
      1.59534104e-002 3.77960540e-002 1.61848739e-002 -6.82193972e-003
      1.19185925e-001 -7.86560588e-003 1.03765622e-001 1.53531879e-003
      6.54547587e-002 4.46183309e-002 2.55333353e-003 -4.71872464e-003
      -2.37741843e-002 7.91717321e-003 4.01551239e-002 1.20907212e-002
      -1.32168144e-001 -2.57642567e-002 -5.10625392e-002
      -2.88624652e-002 3.34508950e-003 -2.80853696e-002 9.44719762e-002
      1.53284229e-003 5.10603748e-002 -4.21899706e-002 -3.36514525e-002
      -6.10422865e-002 2.32582651e-002 -4.47250977e-002 -1.73720606e-002
      7.15117902e-002 -9.04506296e-002 7.32042342e-002 -6.02728082e-003
      2.16890574e-002 4.02912796e-002 1.82935670e-002 -4.16301154e-002
      -2.15996616e-002 6.11202307e-002 -4.38918099e-002 9.32100415e-002
      9.22707934e-003 4.07894002e-003 2.14439388e-002 8.27991497e-003
      -7.49536697e-003 -5.19980565e-002 3.05422656e-002 -7.47671872e-002
      4.05904315e-002 -5.44089526e-002 -2.06262562e-002 2.70083081e-003
      3.01350169e-002 -3.79417352e-002 -5.22875488e-002 2.23566908e-002
      -6.45717839e-003 3.32646817e-002 -7.08851963e-002 -1.57268271e-002
      -1.25386948e-002 4.77491878e-002 -6.10291436e-002 -4.71665710e-002
      -7.40815513e-003 -1.18787557e-001 9.51621607e-002 -3.00617889e-002
      -3.94775420e-002 4.67379205e-002 6.16105497e-002 -9.37619433e-002
      -5.27427606e-002 5.35819679e-002 -7.90365785e-002 8.97876769e-002
      2.50046011e-002 -2.31676660e-002 6.85495585e-002 4.39469554e-002
      -5.92666417e-002 -4.19315808e-002 -8.21531110e-004
      -8.61755833e-002 3.86965610e-002 -1.02351978e-001 -7.04022869e-002
      -5.81682473e-003 1.44519825e-002 -8.49828348e-002 -1.83619168e-002
      3.57390866e-002 -5.37166186e-002 3.73119377e-002 -5.79553246e-002
      -7.99592510e-002 -1.23086451e-002 4.53693755e-002 -5.53543754e-002
      -3.31080072e-002 1.03530906e-001 -9.14914012e-002 6.20917045e-002
      -2.14803051e-002 2.39861966e-003 7.10597187e-002 2.25493051e-002
      -4.46938239e-002 -3.15137617e-002 7.63961375e-002 -4.60819416e-002
      7.48192519e-002 -1.57702342e-002 3.24174538e-002 5.01450263e-002
      3.46974432e-002 -6.51927590e-002 -2.59340629e-002 1.13469109e-001
      -1.63224731e-002 2.75829379e-002 -6.12344556e-002 -3.98581699e-002
      2.42218692e-002 -4.03967034e-003 -3.72310430e-002 -3.79970782e-002
      5.81461824e-002 -1.09291058e-002 2.70671695e-002 -3.09447553e-002
      -2.21231449e-002 4.82628308e-003 1.41811641e-002 9.14946198e-003
      1.09342095e-002 -1.22450655e-002 -5.38122803e-002 6.81772679e-002
      -1.84100610e-003 5.60360553e-004 3.47835980e-002 -1.91078540e-002
      1.62282009e-002 3.66565734e-002 3.66385989e-002 -5.96796721e-003
      1.24236271e-001 6.21869089e-003 -5.26122376e-002 -1.18299806e-002
      1.62354056e-002 -3.62229906e-002 2.37433240e-002 -3.17306221e-002
      -6.18479364e-002 1.15962233e-003 -4.31116447e-002 6.86056819e-003
      5.12787737e-002 2.40493715e-002 -8.48720782e-004 3.54293138e-002
      5.43042757e-002 1.89992134e-002 3.40617634e-002 -1.52143566e-002
      -2.67469399e-002 2.25148071e-003 -9.38451383e-003 7.04387261e-004
      2.70395894e-002 -1.98004153e-002 -6.63501024e-002 2.21759044e-002
      -3.08116954e-002 -9.60822701e-002 -2.48817652e-002
      -1.62119567e-002 1.59994587e-002 4.90266979e-002 7.76328519e-002
      -3.89433987e-002 8.89919698e-002 4.61235177e-003 -2.39366181e-002
      -1.16114123e-002 1.95195843e-002 -3.32845114e-002 3.69439572e-002
      -5.47210686e-002 -3.24412994e-002 -4.14266177e-002
      -6.24280088e-002 -7.76126385e-002 -1.13196978e-002 8.92417040e-003
      3.40073183e-003 -1.23299519e-002 1.57229844e-002 -2.80411467e-002
      4.98923585e-002 -3.87350805e-002 -3.03504728e-002 -8.14236607e-003
      -3.00856028e-002 -4.01309729e-002 -9.31611937e-003
      -9.78513248e-003 -5.34109585e-002 6.38471097e-002 -3.02712619e-002
      -7.09858164e-002 5.01670875e-003 -6.59660716e-003 1.44439423e-002
      7.05176443e-002 3.92900519e-002 -1.78828463e-003 1.30187333e-001
      4.33421787e-003 -5.96373789e-002 1.34315537e-002 -1.81536023e-002
      -1.52052185e-002 2.19194964e-002 -1.05893854e-002 1.34063233e-002
      1.26185184e-002 -7.86004737e-002 -6.88095465e-002 -1.38574727e-002
      -8.09792522e-003 2.78381668e-002 5.98345362e-002 2.63749827e-002
      2.52129193e-002 3.14372256e-002 -8.78041238e-002 -1.02234289e-001
      -1.24091618e-002 2.28286516e-002 2.59971339e-003 1.54134994e-002
      -2.44916175e-002 -3.41413193e-003 3.93541679e-002 -4.11258191e-002
      -8.83044899e-002 -7.34990649e-003 -2.58054002e-003
      -1.19641842e-003 -2.34163529e-003 5.44892959e-002 3.47923934e-002
      1.37908146e-001 3.45600806e-002 6.33746162e-002 -7.76658114e-003
      7.54762295e-005 -1.01028904e-002 1.03676394e-002 -9.44623500e-002
      3.22115701e-003 -3.33459824e-002 -9.02462378e-002 -9.47515070e-002
      -1.49761532e-002 -3.97899933e-002 -9.28555522e-003 3.34943496e-002
      -1.08823937e-003 9.84583329e-003 3.84805202e-002 -4.88647893e-002
      -3.89392041e-002 -8.33879039e-002 -1.50796506e-004
      -1.58109553e-002 -2.69386303e-002 -8.77697300e-003 1.63021851e-002
      -1.76932625e-002 9.16360226e-003 -2.56187934e-002 -1.60926953e-002
      1.46368602e-002 -1.64353009e-002 -1.12522440e-002 -2.02845335e-002
      1.68524645e-002 -4.19624969e-002 1.54027957e-002 -2.56780181e-002
      4.32609655e-002 1.24763176e-002 -2.14796830e-002 -1.09417262e-002
      1.77089199e-002 1.69409011e-002 1.81122706e-003 3.12477928e-002
      2.11404581e-002 -2.30879989e-002 -6.88205333e-003 -1.54486569e-002
      -1.86257884e-002 -2.78600529e-002 2.69450285e-002 -2.58592237e-002
      8.71112105e-003 -1.84300523e-002 -5.80159388e-003 3.00979912e-002
      3.18422131e-002 -1.09960968e-002 -3.44032026e-003 -4.41363677e-002
      -7.79222557e-003 4.90495982e-003 1.31596588e-002 2.27330867e-002
      -1.30558689e-003 -3.39181651e-003 3.06646824e-002 2.03569364e-002
      3.45924608e-002 -2.99579687e-002 4.96639730e-003 -1.01542249e-002
      -1.84743702e-002 -7.92878307e-003 -4.04379070e-002
      -1.91872790e-002 2.15856768e-002 -9.36210621e-003 1.89179257e-002
      -3.11438023e-004 -1.80544592e-002 -2.72921994e-002
      -2.28025280e-002 -2.96802353e-002 -9.18060727e-003
      -5.77365886e-003 2.30380576e-002 -2.26233993e-002 3.96237411e-002
      3.27257323e-003 -2.61119418e-002 6.02920679e-003 7.90385471e-004
      3.95100601e-002 -2.54509542e-002 2.01773439e-002 -3.40531431e-002
      2.74723172e-002 1.43069653e-002 2.47678235e-002 4.43014223e-003
      3.77700068e-002 8.65054224e-003 -3.15585546e-002 2.13782638e-002
      -2.96220481e-002 1.60980634e-002 2.97676194e-002 4.41397261e-003
      -2.53900364e-002 -1.90500822e-002 -8.09275080e-003
      -6.27456009e-002 2.20189318e-002 1.47294411e-002 6.06508180e-002
      9.92674753e-003 -3.16803791e-002 3.07041816e-002 1.55878784e-002
      1.94833875e-002 -4.61002924e-002 2.27299575e-002 -9.95719820e-005
      3.28905284e-002 3.65858339e-002 1.80175006e-002 2.11471319e-003
      6.49804398e-002 5.42699844e-002 5.99375553e-002 1.12418542e-002
      -2.38039866e-002 2.03073602e-002 1.08549846e-002 6.81405002e-003
      -1.65767223e-002 6.04806952e-002 3.17008644e-002 4.45641465e-002
      1.44638121e-002 1.16772531e-002 5.45732453e-002 -1.95303876e-002
      -3.69859971e-002 -2.39763223e-002 5.54645201e-003 3.72846238e-002
      3.53896469e-002 3.61838415e-002 -8.74817430e-004 3.49433087e-002
      5.39697532e-004 -1.31198736e-002 -1.50911156e-002 -7.30743923e-004
      -3.36989760e-002 -4.13921252e-002 -3.72137147e-004
      -2.91204918e-002 4.28712852e-002 -2.69187074e-002 -1.30945602e-002
      -6.78194314e-003 4.27288413e-002 2.46619731e-002 3.84279639e-002
      2.78928857e-002 8.43910575e-002 8.29036757e-002 3.07160318e-002
      -1.25233904e-002 9.80490539e-003 5.91012416e-004 -1.23903779e-002
      -8.51737894e-003 -3.76829393e-002 -3.19864266e-002 7.66194165e-002
      2.99074519e-002 -1.05478149e-002 -1.07825047e-003 -3.09391483e-003
      9.65310540e-003 5.12536522e-003 -8.08109343e-003 5.17739356e-002
      9.40764993e-002 2.52598841e-002 1.44137060e-002 -3.54817323e-003
      -4.39594453e-003 2.16294043e-002 -2.16358248e-002 -2.12983135e-003
      -3.50935161e-002 3.55494954e-002 3.61736189e-003 3.10499929e-002
      1.67718846e-002 2.18980317e-003 -2.27309503e-002 -7.88807310e-003
      5.03683835e-002 1.85229946e-002 3.97762917e-002 9.45166871e-003
      3.10841482e-002 9.34846606e-003 -5.57505898e-003 -1.59285758e-002
      -2.83171181e-002 3.25293792e-003 -4.28133830e-002 2.46942453e-002
      3.89528321e-003 2.06065774e-002 -8.29646830e-004 -2.85949428e-002
      3.71815003e-002 1.68447159e-002 1.83602851e-002 3.76934325e-003
      3.28568555e-002 -2.42939666e-002 -2.31033638e-002 -1.57699280e-003
      -2.25448813e-002 -3.35972919e-003 -1.16203539e-002
      -1.24527300e-002 -2.25532576e-002 2.01109927e-002 -1.97177883e-002
      -4.02795747e-002 4.00021896e-002 9.00858268e-003 3.99571806e-002
      4.18359116e-002 2.41971761e-002 -3.74383852e-002 6.22927696e-002
      1.42616853e-002 7.70280957e-002 1.82158519e-002 -5.06241024e-002
      -1.09788552e-002 -5.94205456e-003 -2.01108437e-002
      -1.36070689e-002 1.50079625e-002 1.61641892e-002 8.04277956e-002
      3.12585762e-005 1.74049400e-002 4.63783778e-002 3.25982496e-002
      3.72215509e-002 7.61213712e-003 6.42617419e-002 3.20691578e-002
      6.88711368e-003 -3.99920046e-002 -5.61125483e-003 2.02417132e-002
      -4.95664449e-003 9.54227522e-003 2.14689020e-002 7.57220984e-002
      2.65539680e-002 1.21805794e-003 6.00922480e-003 -2.75215022e-002
      2.20418237e-002 2.58239694e-002 3.98988165e-002 6.90286905e-002
      6.04692567e-003 -5.57537843e-003 4.41908948e-002 2.64428323e-003
      -1.80847291e-002 1.91050451e-002 -1.19128563e-002 -2.20786277e-002
      -1.81752238e-002 2.46140137e-002 -1.22196032e-002 -4.77390084e-003
      -3.89672909e-003 4.09001224e-002 3.86824012e-002 2.59314347e-002
      5.68504483e-002 7.15322047e-002 6.41221553e-002 2.50282455e-002
      1.88420545e-002 6.07399596e-003 7.72333192e-003 4.18799818e-002
      2.27294099e-002 3.54420282e-002 -6.48906380e-002 3.99274975e-002
      4.65758853e-002 5.51917106e-002 -1.05530545e-002 -1.08189760e-002
      2.07750201e-002 -1.50137756e-003 3.41648310e-002 2.24978290e-002
      -1.09071499e-002 -6.13521338e-002 -2.54141353e-002 1.60958022e-002
      -1.93776619e-002 -1.30483024e-002 4.92560789e-002 7.87995011e-002
      1.93916429e-002 -1.51267997e-003 -9.23719257e-003 6.03927206e-003
      -5.34564548e-004 -1.19909840e-002 1.42196659e-002 3.69622819e-002
      6.36826605e-002 1.41153513e-002 3.48978564e-002 -3.74401398e-002
      5.38630085e-003 5.72755411e-002 -5.97316632e-003 -5.95538225e-003
      2.85441801e-002 4.37650047e-002 -8.90610623e-004 3.24239954e-002
      -8.81125103e-004 5.85031062e-002 4.75441135e-004 -2.66996231e-002
      -3.90057601e-002 -4.20964025e-002 3.12712267e-002 -3.04422267e-002
      -1.91311575e-002 -3.40921134e-002 -3.63922939e-002 3.11783776e-002
      7.76720233e-003 -3.37165892e-002 2.01754142e-002 6.63152616e-003
      -2.41557751e-002 -3.35391122e-003 -1.59962550e-002 1.71411056e-002
      1.01355445e-002 -2.82169171e-002 -4.55413479e-003 -7.10582966e-003
      3.49980518e-002 3.39066144e-003 5.79834245e-002 1.27309319e-002
      4.92507629e-002 3.96257527e-002 3.66552360e-003 2.28200648e-002
      -4.99317516e-003 9.38830338e-003 -1.64424758e-002 4.50447090e-002
      9.64266481e-004 5.86985312e-002 3.39373946e-002 7.31868763e-003
      -2.38733254e-002 -3.47398967e-002 1.90033969e-002 -8.99585634e-002
      -1.23011479e-002 -6.83505759e-002 8.21962859e-003 3.63472402e-002
      3.97923067e-002 -8.88724905e-003 3.28107588e-002 8.39203522e-002
      -5.18197985e-003 1.91845454e-003 -5.99915609e-002 1.47814704e-002
      -2.73035616e-002 -4.61239666e-002 -5.50403707e-002
      -4.80337143e-002 3.85403037e-002 -4.17291448e-002 5.11956774e-002
      -2.51047853e-002 -2.44042128e-002 3.03359032e-002 -1.66001432e-002
      -9.57078952e-003 9.94742569e-003 6.93050772e-002 1.01274550e-002
      3.45880017e-002 8.94071441e-003 -9.94994491e-003 -1.48913451e-002
      2.94877738e-002 -3.65527570e-002 2.71535590e-002 3.35449502e-002
      -1.50889233e-002 5.50040156e-002 -5.59118725e-002 -2.43480038e-002
      -2.62164790e-003 3.24538462e-002 2.25932375e-002 9.10873264e-002
      1.79079063e-002 -9.75336414e-003 1.98523644e-002 -5.01342416e-002
      -1.26726748e-002 2.61552483e-002 -1.17742978e-002 -4.00123857e-002
      -3.01348977e-003 8.60714074e-003 1.70761812e-002 1.91189516e-002
      -3.94199528e-002 1.89115398e-003 4.15257439e-002 -3.51256784e-003
      6.21267315e-003 4.07311916e-002 1.36330212e-002 -6.76122122e-003
      6.65936694e-002 -1.84503011e-002 1.00102695e-002 1.09980758e-002
      1.58350281e-002 -2.26491112e-002 2.41432618e-002 2.04605758e-002
      -3.47812995e-002 1.44371828e-002 -3.12791541e-002 2.77420208e-002
      3.05460840e-002 -2.54769046e-002 -1.18989358e-002 1.67154055e-002
      5.06772213e-002 1.98071729e-002 -1.73172951e-002 -6.77585183e-003
      2.94174086e-002 4.96305451e-002 -4.47869254e-003 -4.57231365e-002
      3.17102894e-002 3.08252629e-002 -7.16893747e-002 4.02715281e-002
      4.53852266e-002 4.89024185e-002 3.40022147e-002 -3.08335316e-003
      -1.39055727e-003 6.97558373e-003 5.76448813e-002 -2.83551384e-002
      1.26656694e-002 4.62952964e-002 8.75026286e-002 -2.42989138e-003
      -2.11247876e-002 -3.10884137e-003 1.35522559e-002 3.48617919e-002
      1.04962708e-002 -3.72456126e-002 -1.54807782e-002 1.02629783e-002
      3.03182453e-002 -1.12488447e-003 2.02132538e-002 8.26703310e-002
      1.29613914e-002 9.31001902e-002 -4.09578625e-003 -1.52046923e-002
      4.05305997e-002 -3.04691703e-003 -1.50896003e-002 -2.07158551e-002
      -1.41805317e-002 4.32584770e-002 -6.35497719e-002 -4.25570682e-002
      -2.22598910e-002 3.27660069e-002 7.19948951e-003 -1.15421899e-002
      1.19866310e-002 3.58920731e-002 -6.58336701e-003 2.01871209e-002
      2.00664042e-003 -5.69124706e-003 8.88866745e-003 4.21540923e-002
      5.18018045e-002 4.04255800e-002 1.77784301e-002 2.24287249e-002
      2.55846959e-002 2.39335634e-002 -3.64706926e-002 2.61824876e-002
      5.46937285e-004 3.63385230e-002 3.06972899e-002 7.07768500e-002
      7.03750774e-002 3.05539370e-002 1.74519513e-002 -1.05580324e-002
      1.10147167e-002 3.07659172e-002 6.43900875e-003 -1.15979258e-002
      -3.77040580e-002 6.26759557e-003 -4.63742614e-002 -1.71379466e-002
      -4.92270961e-002 6.75752107e-003 2.96789338e-003 -1.78076103e-002
      -1.60606718e-003 1.44934217e-002 6.92870514e-003 2.37610918e-002
      4.16532680e-002 -2.72634700e-002 -4.08888198e-002 3.86535674e-002
      5.95133416e-002 2.31753709e-003 3.08031011e-002 -4.17329278e-003
      1.39277801e-003 -3.34067643e-003 4.69878549e-003 1.84951946e-002
      6.72135204e-002 4.86773625e-002 -4.89221923e-002 1.00513678e-002
      3.69801670e-002 1.61855109e-002 2.98809391e-002 -1.89915579e-002
      4.41945121e-002 3.68344486e-002 -2.31234785e-002 -2.44041979e-002
      2.37311493e-003 1.66812651e-002 1.06180448e-003 2.51089502e-002
      -2.31434740e-002 -2.39728261e-002 7.84410089e-002 -1.33481417e-002
      -3.56370769e-002 -3.58507573e-003 2.69776257e-003 3.78040113e-002
      3.86289172e-002 -5.20537570e-002 -9.44594573e-003 4.85728644e-002
      4.24251854e-002 -2.13347394e-002 -4.96204570e-002 6.53348193e-002
      -1.34970425e-002 -3.12078763e-002 -1.01584895e-002 9.07574664e-004
      4.10190150e-002 3.56646813e-002 1.47940805e-002 4.31746282e-002
      1.86933000e-002 3.41513269e-002 -4.12404677e-003 9.35967080e-003
      1.61061678e-002 5.13004251e-002 -1.80709213e-002 -1.09646078e-002
      -4.14950140e-002 1.26929143e-002 9.27838124e-003 2.28400226e-004
      -3.34667228e-002 2.18337867e-002 3.72636765e-002 8.66264477e-003
      7.24002272e-002 1.92902330e-002 -5.05604967e-002 4.11598645e-002
      3.07038892e-002 -7.98116345e-003 -6.48647081e-003 6.34228215e-002
      2.31953077e-002 -4.59847040e-002 -4.15118188e-002 -5.26246279e-002
      -1.30443592e-002 -2.29089260e-002 -2.87298951e-003
      -3.96346301e-003 7.84428865e-002 -2.72518024e-002 -2.82521155e-002
      -2.38385387e-002 3.02145295e-002 2.41455939e-002 -4.13561687e-002
      5.78917284e-003 3.80878113e-002 3.93972695e-002 2.47762585e-003
      2.25990396e-002 -7.76912551e-003 -8.73364210e-002 -1.46831786e-002
      -3.21319662e-002 1.09123606e-002 -4.16369690e-003 3.39373611e-002
      -1.30502898e-002 -1.80920810e-002 -2.72341445e-002
      -8.39194003e-003 2.62933094e-002 -5.29764779e-002 -7.81359337e-003
      -2.69555058e-002 4.49230075e-002 -6.62746057e-002 -3.56035158e-002
      -3.61759588e-002 -7.54219852e-003 2.76126228e-002 -5.03184907e-002
      -1.32796625e-002 2.26221308e-002 3.96302454e-002 -5.43846376e-002
      -3.23321894e-002 2.99216695e-002 2.91864462e-002 3.23755182e-002
      -6.32721698e-003 7.56428763e-003 2.72542257e-002 7.73585122e-003
      -4.39220443e-002 -2.73455624e-002 -4.06280011e-002
      -2.31420877e-003 2.58231238e-002 -4.09521684e-002 -3.35206129e-002
      -2.76931114e-002 4.44420753e-003 -3.73118445e-002 -2.93299876e-004
      4.77248356e-002 2.70376503e-002 5.73297925e-002 -1.72618423e-002
      -4.74561155e-002 -1.99815631e-003 2.67108046e-002 -1.18185496e-002
      -1.93028862e-003 7.45830387e-002 2.02863310e-002 2.56678648e-002
      -3.17565165e-002 -4.29988559e-003 3.80446599e-003 -3.91080219e-004
      -2.25283913e-002 1.39192240e-002 5.06646372e-002 6.25734776e-002
      7.58466497e-002 3.17102559e-002 -3.11692548e-003 5.83439991e-002
      2.00232156e-002 -6.01280332e-002 -2.20356155e-002 7.05721602e-003
      2.18030401e-002 2.41354592e-002 -4.30499315e-002 -6.90464526e-002
      1.56711079e-002 2.69989520e-002 -5.21203652e-002 -2.66594794e-002
      9.09099530e-004 2.49693333e-003 4.62665819e-002 4.21220921e-002
      -1.07388413e-002 2.47243997e-002 -1.57499202e-002 -6.71504810e-002
      3.05205639e-002 -2.22342629e-002 -4.81687784e-002 -1.64794493e-002
      -5.17981080e-003 -1.21936342e-002 3.53315584e-002 1.13547286e-002
      -4.22906168e-002 5.70818856e-002 4.41742092e-002 -2.86933575e-002
      6.44934699e-002 3.51029150e-002 4.11103964e-002 3.50318775e-002
      4.40676212e-002 -5.09492755e-002 3.32131162e-002 -1.58081204e-002
      1.23613712e-003 -5.42698847e-003 1.14206998e-002 -3.05485222e-002
      4.19908874e-002 4.16395515e-002 1.67231556e-004 7.13500008e-002
      4.60302792e-002 -5.45607926e-003 6.13074228e-002 1.99855920e-002
      -1.60933230e-002 2.67554596e-002 3.66611518e-002 -2.48143561e-002
      4.70657907e-002 -3.06261964e-002 -2.53575183e-002 -1.18186483e-002
      -1.59631774e-004 -1.31647121e-002 3.18785422e-002 2.49195155e-002
      -3.75412889e-002 4.46552597e-003 3.81269865e-002 -1.42548205e-002
      1.04202062e-001 7.72156287e-003 -1.44917499e-002 -1.04897395e-002
      1.81900132e-002 -2.67406218e-002 5.68882078e-002 -7.18791969e-003
      2.78693382e-002 1.96152367e-002 -9.01989732e-003 -1.87787972e-002
      2.85462029e-002 4.92274761e-003 -5.13408780e-002 -3.12066488e-002
      6.17828732e-003 -2.57625314e-003 6.76507950e-002 1.23401070e-002
      -4.71515395e-002 -2.81114113e-002 4.35517468e-002 -4.70241159e-003
      9.14838165e-003 -5.94285643e-003 1.28689753e-002 3.29802632e-002
      -2.69003976e-002 -3.20446528e-002 -1.92374550e-002 7.34697282e-002
      4.59386036e-002 5.43953478e-002 2.43419334e-002 4.27904353e-002
      5.20326011e-002 -2.56046709e-002 -2.86010522e-002 3.62646021e-002
      1.82548892e-002 -5.37122078e-002 -2.38156486e-002 -3.75865251e-002
      2.07358804e-002 4.64808103e-003 -3.85337435e-002 -5.00268899e-002
      -2.04985626e-002 6.59968704e-002 -1.11883581e-002 1.77317709e-002
      2.08452940e-002 1.03460215e-002 4.14057150e-002 -3.24155092e-002
      -5.35736755e-002 5.65094640e-003 6.49370775e-002 -8.51624086e-003
      2.43998207e-002 -5.84974699e-002 4.52286787e-002 -3.16052558e-003
      -5.15578948e-002 -5.21239191e-002 2.39925552e-002 9.13843140e-003
      -8.73278361e-003 8.27156454e-002 6.03105426e-002 2.73773577e-002
      4.71327789e-002 -1.52882803e-002 -1.28676118e-002 7.30011100e-003
      7.92114213e-002 -4.62557450e-002 3.63260284e-002 -3.28837633e-002
      1.91961881e-002 -1.03185419e-002 -7.38357157e-002 -6.12900704e-002
      5.82795329e-002 1.14081018e-002 -9.39488038e-003 5.45537546e-002
      7.80658564e-003 1.05032939e-002 3.67017575e-002 -2.95388959e-002
      -6.69149980e-002 -4.63969121e-003 1.14483889e-002 1.15273464e-002
      2.78976206e-002 4.58794646e-003 -2.69132573e-002 -2.65553202e-002
      3.32699046e-002 2.09662467e-002 -1.70770939e-002 2.20053364e-002
      -3.12466128e-003 1.37122597e-005 -2.90691666e-002 -2.52270866e-002
      -4.46466506e-002 3.16596143e-002 2.29360745e-003 4.31934558e-003
      6.22165948e-003 2.70825834e-003 -5.11913234e-003 -1.52581995e-002
      -1.32922763e-002 2.61214399e-003 4.89806533e-002 9.54608899e-003
      -3.77807133e-002 -1.19478162e-002 1.33638701e-003 1.29498644e-002
      -4.75003906e-002 -2.93764640e-002 -5.27978241e-002 5.49519546e-002
      1.58687402e-002 -3.00565958e-002 -5.50846616e-003 -1.72728244e-002
      9.82643571e-003 1.54614253e-002 -1.33354655e-002 -1.14980210e-002
      2.24705189e-002 4.51031839e-003 -1.46448361e-002 2.16001272e-002
      -5.94339184e-002 6.28675381e-003 -1.46578741e-003 -8.50777514e-003
      -1.24534527e-002 6.88357279e-002 6.44315779e-003 -3.12210191e-002
      -2.14526076e-002 -2.47819759e-002 2.24514734e-002 3.15132476e-002
      -2.42410079e-002 -1.25817442e-002 5.38489521e-002 -1.40550900e-002
      -5.83710941e-003 -2.98804417e-002 -6.61552399e-002
      -2.85783224e-002 -3.66350934e-002 -9.84357763e-003
      -1.08583840e-002 6.93075582e-002 -2.21718121e-002 -2.91996375e-002
      3.04507576e-002 -4.50254511e-003 1.01004709e-002 -9.12026986e-002
      7.67099997e-003 5.29367663e-003 5.97364977e-002 2.98103057e-002
      -7.94969685e-003 -3.07677477e-003 1.44505370e-002 3.21261026e-002
      -1.29036289e-002 1.04685547e-004 -1.44697167e-002 5.02788350e-002
      3.69842127e-002 -1.61248483e-002 2.15949658e-002 -4.99959290e-003
      -7.46962801e-003 -6.10597543e-002 4.21795845e-002 3.10037136e-002
      8.13009292e-002 2.26395074e-002 2.53741853e-002 -5.48233911e-002
      -5.51710613e-002 2.30418947e-002 -3.86994588e-003 2.15833951e-002
      -1.17023652e-002 4.31182906e-002 8.11109785e-003 -2.63045151e-002
      2.82803215e-002 2.24175248e-002 4.60733436e-002 5.96116297e-003
      4.12577093e-002 -1.00837722e-002 5.36171719e-002 5.31985946e-002
      4.36280295e-002 2.42992640e-002 3.15236971e-002 5.20449989e-002
      -3.52534242e-002 4.73270565e-003 -2.42523886e-002 2.15143040e-002
      2.26034299e-002 4.65416908e-002 -5.77078946e-002 -3.28893960e-003
      5.42704239e-002 2.46079620e-002 2.66021695e-002 -2.45521963e-003
      3.79049964e-002 1.52580244e-002 -2.39868928e-002 -2.63889413e-002
      -1.04376255e-002 1.20171504e-002 -5.44779450e-002 -1.04425335e-002
      -2.85474323e-002 2.02264320e-002 2.47703283e-003 -1.25388131e-002
      3.54887992e-002 1.40099935e-002 2.23724786e-002 -3.37059163e-002
      -3.72471772e-002 -1.67587809e-002 3.47964168e-002 3.11236344e-002
      4.10067365e-002 1.26706511e-002 -2.67508831e-002 2.34900583e-002
      -3.79969478e-002 -2.63551567e-002 -3.64563577e-002 8.15200806e-003
      7.20313343e-004 3.34827788e-002 -1.80811603e-002 -2.33509745e-002
      3.17419395e-002 -2.05693543e-002 -2.31818855e-002 -3.32369022e-002
      7.28380233e-002 2.75567118e-002 -3.40660242e-003 -6.75382279e-003
      -1.18584912e-002 2.13972572e-002 -1.29351951e-003 -4.21683639e-002
      4.61568730e-003 4.12088484e-002 1.63041484e-002 9.70111601e-003
      -1.07048289e-003 -1.25188576e-002 6.85837045e-002 -1.04227534e-003
      1.23039642e-002 -2.07325667e-002 6.98743435e-003 5.96106146e-003
      -1.28684873e-002 -2.43503600e-002 -4.50336048e-003 4.33591865e-002
      -1.05521865e-002 -3.73294801e-002 5.04222140e-003 5.54743893e-002
      -6.86345715e-003 -4.37546670e-002 -3.68186436e-003 3.31538962e-003
      6.71341568e-002 -8.76136764e-004 -1.37230447e-002 1.36925140e-004
      5.06828800e-002 2.58801281e-002 2.70705135e-003 -2.44945958e-002
      -1.23155182e-002 2.18898673e-002 -1.22715682e-002 -1.92413270e-003
      1.19328639e-002 5.18682115e-002 1.39214760e-002 -1.85999833e-002
      7.76229287e-003 -2.60888562e-002 1.75780561e-002 2.34180799e-004
      2.02221274e-002 -1.49182491e-002 3.77607569e-002 1.36181405e-002
      1.87467523e-002 -3.79219763e-002 -2.67443173e-002 -1.62501000e-002
      1.09141702e-002 2.72737741e-002 -4.17753421e-002 1.33103058e-002
      -2.65937522e-002 1.30050024e-002 -2.46863887e-002 -2.59339046e-002
      8.20526667e-003 4.21021506e-002 4.38195728e-002 -8.90290923e-003
      1.27255609e-002 -6.67963922e-003 1.55301543e-003 -3.56885530e-002
      -4.05133411e-004 2.64783809e-003 -2.01636963e-002 7.48809129e-002
      -5.89599311e-002 -5.77999884e-003 9.43301246e-003 7.33142346e-003
      2.84040030e-002 1.00413123e-002 1.61370530e-003 1.57469139e-002
      5.33450395e-002 1.00755943e-002 1.06807081e-002 2.59393826e-003
      6.15881234e-002 -1.21409697e-002 -4.48532104e-002 -2.79700812e-002
      1.57000031e-003 3.00288647e-002 -9.26028937e-002 2.82496517e-003
      4.20326926e-002 6.53645396e-002 2.37318389e-002 3.72711979e-002
      2.51786001e-002 1.53057557e-002 3.66904289e-002 -2.68004555e-002
      3.18383574e-002 3.53619568e-002 3.76253799e-002 4.81460150e-003
      7.98441749e-003 -3.46029899e-003 -3.12521160e-002 -1.81912333e-002
      -8.04506615e-002 2.34175101e-002 7.63689876e-002 4.85107228e-002
      -1.81856304e-002 -2.43055150e-002 -3.57333408e-003 8.39430653e-003
      5.40939644e-002 8.03051982e-003 -9.16176848e-003 -2.81597804e-002
      3.46922241e-002 3.62426527e-002 9.76657774e-003 -5.93018671e-003
      2.59011872e-002 6.41346201e-002 3.10768513e-003 1.32054603e-002
      -1.15801003e-002 6.37468472e-002 -1.73569415e-002 -2.64938991e-003
      1.71555113e-002 -4.61643934e-003 3.27174067e-002 9.79801989e-004
      2.63464916e-002 1.01324059e-002 1.61511786e-002 -1.76302679e-002
      -1.75075922e-002 -2.46790126e-002 2.82786600e-002 3.93701755e-002
      2.87344474e-002 8.87202006e-003 3.97730991e-002 -4.86738700e-003
      2.21001804e-002 -1.49405804e-002 -1.68000180e-002 8.60423502e-003
      3.91276460e-003 -3.40703428e-002 1.60182808e-002 -8.64945538e-003
      5.57539165e-002 1.92097202e-002 -2.67659593e-003 -1.16317216e-002
      2.08226256e-002 -5.03923837e-003 -2.93466263e-002 -1.07908426e-002
      -1.93347372e-002 6.14247732e-002 -3.93337337e-003 -3.72398533e-002
      -5.87046817e-002 1.30729761e-003 2.70198286e-002 2.28286139e-004
      1.93723552e-002 -1.89613812e-002 -6.01303251e-003 2.59346571e-002
      -2.75911540e-002 -1.88951809e-002 2.07880264e-004 1.06770005e-002
      -5.30534703e-003 2.26365216e-002 4.07465734e-002 4.95940298e-002
      -4.99513596e-002 -2.62296479e-002 -1.48055395e-002
      -2.63964925e-002 1.13054719e-002 -4.27860469e-002 -2.10804190e-003
      -6.80355430e-002 -2.85567138e-002 2.17101499e-002 -1.30665267e-003
      -2.49599162e-002 -3.17075774e-002 3.46754529e-002 -2.26465613e-003
      1.67681873e-002 -3.69280949e-002 -1.81530267e-002 5.57837309e-003
      -2.75430605e-002 -3.07659265e-002 -5.05285710e-002 4.46343562e-003
      -5.44515401e-002 -3.04967184e-002 -7.83478189e-003 2.52099559e-002
      2.06869543e-002 -5.01494221e-002 6.34245621e-003 -4.76591848e-002
      -7.06383400e-003 1.28965685e-002 2.10367274e-002 -5.49972616e-003
      2.82572526e-002 1.49035528e-002 -2.73012798e-002 -1.03081996e-002
      8.03120993e-003 1.05728360e-003 -6.57816231e-002 -1.21334044e-003
      -7.91161135e-002 -3.69449779e-002 3.44852582e-002 -3.13865067e-003
      -1.72107350e-002 7.90268704e-002 5.12378775e-002 -4.39019734e-003
      5.90281561e-002 -3.95137779e-002 2.02209619e-003 2.19304077e-002
      -3.41220237e-002 2.20891088e-002 1.20981364e-002 2.36305464e-002
      -2.38578450e-002 1.15613323e-002 -1.47587722e-002 6.85607316e-003
      4.86067049e-002 -2.25396715e-002 1.84967313e-002 4.00670394e-002
      2.23872550e-002 -2.67745908e-002 2.57389788e-002 -4.79029724e-003
      2.75262948e-002 2.12927833e-002 -2.39831600e-002 -3.83869037e-002
      4.97291163e-002 3.93834971e-002 1.18713011e-003 5.98772168e-002
      -1.79122277e-002 -1.96296889e-002 3.07349954e-002 -1.94384810e-002
      -2.54852828e-002 1.90285295e-002 1.20993480e-002 -1.74478460e-002
      -1.50575880e-002 -1.43374121e-002 1.81686878e-002 4.68737371e-002
      -9.60446335e-003 -2.25353874e-002 4.82895263e-002 2.40040030e-002
      -3.91600048e-003 4.35532220e-002 -1.45900110e-002 -1.39754303e-002
      3.25905345e-002 -5.23872823e-002 -3.93781587e-002 1.06222956e-002
      2.30720155e-002 1.98767278e-002 1.95381101e-002 2.14460250e-002
      7.69096427e-003 3.71349379e-002 2.83070337e-002 -1.62053127e-002
      3.20046092e-003 6.37020096e-002 -2.25083949e-003 -1.85762998e-002
      -3.94041389e-002 2.43251026e-002 2.50847582e-002 2.06246488e-002
      -8.73116497e-003 5.30505739e-002 6.18456155e-002 4.33927290e-002
      -3.70805301e-002 -3.62706035e-002 -1.19068974e-003 5.57218716e-002
      1.06389895e-002 -5.65637015e-002 -2.66141631e-002 1.08290948e-001
      -2.45950166e-002 5.37943654e-003 3.55575280e-003 4.71971296e-002
      6.97737485e-002 9.49637557e-004 -1.28196459e-002 5.31200640e-005
      3.03428527e-002 1.83714107e-002 2.68481020e-002 3.89336124e-002
      4.34678532e-002 4.34913822e-002 1.15647139e-002 -2.79442966e-002
      -2.52274927e-002 1.77011043e-002 1.72127075e-002 -4.80500199e-002
      -5.25863543e-002 -2.21778937e-002 5.90945408e-002 3.11141759e-002
      -9.80231212e-004 4.35427204e-002 5.21962978e-002 2.84138024e-002
      8.42744485e-003 -4.13572555e-003 8.24478269e-003 7.08493218e-002
      -6.47446187e-003 -5.90373538e-002 -4.46132459e-002 6.81795354e-004
      -1.98734533e-002 -3.17333080e-002 2.94938404e-002 1.90035701e-002
      6.96169585e-002 -2.00338848e-003 -1.24487616e-002 4.59536677e-003
      -1.63320024e-002 -1.17152538e-002 4.69005220e-002 4.38136980e-002
      2.09287088e-002 2.17421241e-002 6.17921399e-003 -1.31223677e-003
      5.50957248e-002 1.57836601e-002 -4.00632806e-003 -9.90052894e-003
      -1.49801187e-002 -4.31686863e-002 4.08538952e-002 6.07427116e-003
      8.25105817e-004 5.76534867e-002 6.65138289e-002 2.83668991e-002
      -9.93757509e-003 -9.48234461e-003 -1.04142819e-002 2.15939041e-002
      -2.06544325e-002 -2.15665307e-002 4.36330214e-002 2.54624314e-003
      -7.07284063e-002 -4.96613327e-003 9.97361494e-004 -2.89761578e-003
      5.72170801e-002 -1.54867060e-002 -1.95995476e-002 8.33328739e-002
      5.15129678e-002 -1.41523906e-003 2.27086004e-002 1.67430788e-002
      9.65648144e-003 2.43290011e-002 -3.07440311e-002 -4.67951968e-002
      -4.53916825e-002 -1.63004530e-004 -6.66445401e-003
      -1.30952522e-002 -1.22322999e-002 -1.58411022e-002
      -7.51651218e-003 -1.43657941e-002 7.87276868e-003 4.12641838e-002
      8.37100856e-003 4.45157960e-002 4.68196440e-003 -3.85114327e-002
      -1.49242030e-002 5.35323918e-002 -1.26967682e-002 -5.47200553e-002
      6.01848238e-004 2.12488957e-002 -2.42630821e-002 -2.81034410e-002
      1.71802903e-003 3.32069919e-002 1.88892316e-002 -1.53765799e-002
      -2.21291985e-002 9.47018936e-002 1.00142248e-001 7.24322125e-002
      -1.30520379e-002 -2.84270234e-002 -1.04027260e-002 5.71795180e-002
      2.65152771e-002 3.77409020e-003 2.13185363e-002 -3.61488275e-002
      -1.98330581e-002 -3.25733684e-002 -8.36754404e-003
      -1.46245863e-002 2.48016436e-002 -1.10735130e-002 -2.70655286e-002
      -2.81677302e-003 1.74236204e-002 3.33944820e-002 -6.21151831e-003
      4.30188067e-002 1.01251611e-002 4.94402135e-003 -1.94462668e-002
      -6.58358410e-002 -1.77836679e-002 6.50835931e-002 -1.80983748e-002
      -7.48587996e-002 -2.53028255e-002 1.45602338e-002 2.39991844e-002
      -1.33722164e-002 -6.18358962e-002 5.61559899e-003 2.28965227e-002
      3.53151821e-002 -4.63781245e-002 -1.88317597e-002 3.15699615e-002
      2.86714770e-002 -1.58370137e-002 6.13278383e-003 -4.25693616e-002
      1.07886530e-002 -3.92443128e-002 -2.52582990e-002 8.61037802e-003
      7.53817800e-003 8.05979222e-003 -3.06805596e-002 2.32499558e-002
      2.24215593e-002 4.94530834e-002 -8.56846757e-003 1.52070243e-002
      1.16990022e-002 4.74226549e-002 1.94400996e-002 -3.48436981e-002
      -4.02140096e-002 -5.28750904e-002 1.30213769e-002 1.60160586e-002
      -6.82616308e-002 -3.27885263e-002 4.10867184e-002 1.67698544e-002
      -6.55722693e-002 3.99650037e-002 3.14145982e-002 -6.71086134e-003
      1.02656307e-002 -2.71464009e-002 -5.42822853e-003 2.04892009e-002
      4.62787785e-002 9.71866772e-003 1.88645497e-002 1.39019396e-002
      5.86075410e-002 -2.43367366e-002 -1.07079055e-002 -1.27140349e-002
      3.75070907e-002 8.03217515e-002 -5.75793092e-004 3.01516335e-002
      1.79547276e-002 7.05691800e-002 1.78516190e-002 2.02670712e-002
      -4.23994008e-003 4.98085245e-002 3.39575149e-002 -4.65597883e-002
      4.02995795e-002 -1.48825068e-002 3.81983904e-004 3.78153869e-003
      -3.04720942e-002 -2.92289946e-002 1.44966543e-002 4.57173027e-002
      -3.49266380e-002 1.42205227e-003 1.62021304e-003 3.32181081e-002
      -5.34528354e-003 -1.85644198e-002 -1.60123650e-002 3.68161686e-002
      4.60475534e-002 8.99707712e-003 4.93301637e-003 -4.85736914e-002
      4.87964638e-002 -8.93635582e-003 2.97327265e-002 -1.17690573e-002
      1.30439382e-002 8.63173697e-003 7.92097952e-003 7.12424070e-002
      2.78132949e-002 5.01528010e-002 9.39185172e-002 4.00579125e-002
      1.83528177e-002 1.77595373e-002 3.18203890e-003 -6.20281473e-002
      -1.05110249e-002 -5.08446172e-002 2.00517382e-002 -9.73759405e-003
      -3.29008400e-002 4.52375673e-002 5.09072728e-002 -2.75557581e-002
      -6.01772480e-002 -7.12404121e-003 6.20423816e-002 4.78655472e-003
      3.42978798e-002 5.15436847e-003 5.41704111e-002 5.20011783e-003
      -1.85377318e-002 -1.91739742e-002 3.25392559e-002 -2.95259617e-002
      5.06120548e-002 1.03130592e-002 -1.54735371e-002 -3.15413140e-002
      -5.71118575e-003 -1.60308462e-002 -3.43780145e-002 2.56240293e-002
      6.18313439e-002 1.61193125e-002 4.85767536e-002 8.53344053e-003
      -3.84917147e-002 -1.32088568e-002 -2.44334247e-002
      -8.39594007e-002 -1.99985150e-002 -2.10946649e-002 4.18438092e-002
      1.70175321e-002 -3.92928943e-002 -2.08588894e-002 1.99878458e-002
      -1.23550165e-002 -7.19146207e-002 1.62005424e-002 4.82192002e-002
      1.05950264e-002 2.23535709e-002 -1.41578959e-002 -3.61347571e-002
      -1.46974679e-002 1.30178351e-002 -3.93373743e-002 5.41428523e-003
      -2.53154524e-002 3.42391385e-003 -2.29318384e-002 -3.40915807e-002
      -9.53544825e-002 -3.77433226e-002 3.47940624e-002 -3.73990200e-002
      1.44188302e-002 2.29095966e-002 -4.23961170e-002 3.44949178e-002
      -5.56387790e-002 -6.68125004e-002 -2.37076096e-002 4.67906669e-002
      -3.54233570e-002 4.80055287e-002 -5.03411964e-002 8.69976247e-006
      -2.02119239e-002 -4.43293601e-002 -7.36149326e-002 3.14380452e-002
      1.91839729e-002 -1.96727626e-002 5.06065693e-003 1.68064944e-002
      1.84248779e-002 -9.60924011e-003 -4.33506630e-003 -8.17675591e-002
      5.06355874e-002 4.37324569e-002 -4.50565293e-002 -2.37090735e-005
      -4.17763330e-002 -1.09710190e-002 1.34925020e-003 -7.52518550e-002
      -9.70467180e-002 5.15820517e-004 1.90461762e-002 -7.27143977e-003
      6.17037676e-002 -1.88512281e-002 1.83944330e-002 3.95321287e-002
      -1.37343202e-002 -2.53376365e-002 1.88102592e-002 -9.23131220e-003
      -3.82917821e-002 7.52404099e-003 -5.49288876e-002 1.63777247e-002
      -3.80395614e-002 -5.88125624e-002 -7.62405694e-002 3.73793244e-002
      -2.37084925e-002 4.46234783e-003 3.64969037e-002 1.05592469e-002
      -9.70611535e-003 1.50431115e-002 -2.90965894e-003 -2.31953133e-002
      -3.57462615e-002 1.83098428e-002 2.78345756e-002 5.07603511e-002
      1.73865035e-002 5.71375713e-004 -1.92545750e-003 5.17526455e-002
      1.82303935e-002 -3.34253237e-002 4.78902720e-002 2.89392727e-003
      3.73347960e-002 4.02663760e-002 -1.03706168e-002 -2.88285296e-002
      6.74846396e-002 1.96104832e-002 1.80682987e-002 -1.26629891e-002
      -2.18733046e-002 4.48003449e-002 -3.49429511e-002 1.34072208e-004
      -1.28648505e-002 2.52101980e-002 -1.25035588e-002 -8.85116607e-002
      9.12447646e-003 -4.18599769e-002 2.07982754e-004 -1.61108915e-002
      -3.12319286e-002 -1.16909556e-002 3.79416831e-002 -1.32021075e-002
      -4.46656980e-002 6.78524598e-002 4.06665727e-002 3.90488692e-002
      5.88057190e-002 8.87595490e-003 2.03207005e-002 4.33138646e-002
      1.33257275e-002 1.59281772e-003 3.79663557e-002 -2.57319715e-002
      4.18214686e-003 2.01963298e-002 1.25604114e-004 -1.41073279e-002
      9.27678794e-002 1.02987494e-002 -1.74131654e-002 2.97640581e-002
      -1.09009128e-002 -8.50841403e-003 3.80103895e-003 6.73057791e-003
      1.97015796e-002 3.29539105e-002 -1.02328602e-002 -4.56401445e-002
      -1.71191264e-002 -3.74391973e-002 -4.54737991e-002
      -1.52833257e-002 3.23438160e-002 2.20829044e-002 6.97528571e-002
      3.54803875e-002 -9.38796718e-003 4.11819108e-002 4.98773158e-002
      1.60776526e-002 -3.90562415e-002 2.56203879e-002 3.12878191e-002
      5.54160066e-002 3.11777182e-002 1.01020653e-002 -2.55877804e-002
      2.27438305e-002 4.56328988e-002 2.19470300e-002 1.93035491e-002
      6.06781710e-003 4.87891026e-002 -2.21541012e-003 -3.43099758e-002
      2.13131569e-002 4.11551669e-002 -6.23980770e-004 9.84889362e-003
      2.31330488e-002 2.06123292e-002 6.61068782e-002 3.31640728e-002
      1.75044909e-002 -4.15905453e-002 -1.38434228e-002 -3.78561043e-003
      -4.60546166e-002 1.63487047e-002 -2.75088046e-002 3.71767022e-002
      4.06163223e-002 -7.89199583e-003 2.87764892e-002 5.48195913e-002
      6.59663528e-002 2.29815878e-002 4.20480445e-002 5.61880087e-003
      -2.97250855e-003 1.05933910e-002 1.32910516e-002 1.40858162e-002
      4.16158549e-002 9.99218691e-003 -1.18251750e-002 2.55031679e-002
      -2.18822770e-002 2.08774712e-002 -9.08752717e-003 -4.71320748e-003
      4.34027007e-003 -1.82243865e-002 2.51367465e-002 -9.67521407e-003
      4.66745980e-002 -3.04990485e-002 2.40142997e-002 3.61001566e-002
      -3.23522533e-003 6.64715692e-002 6.32972866e-002 3.10467184e-002
      2.49266066e-003 6.13830648e-002 -4.95974272e-002 -1.16115343e-002
      1.51870213e-002 2.38482319e-002 -1.71387196e-002 -2.07879376e-002
      -5.43584162e-003 -1.19992392e-003 -6.31555635e-003
      -7.58068487e-002 4.07257862e-002 -5.76395541e-003 1.16866184e-002
      1.86218787e-002 -2.61590462e-002 2.42382847e-003 -9.81051289e-003
      -2.03346163e-002 -2.56455243e-002 4.73537855e-002 9.94186662e-003
      1.65920635e-003 3.38340327e-002 3.63258049e-002 4.56775241e-002
      2.91848872e-002 1.48808369e-002 -8.71559009e-002 -9.19519243e-006
      -2.99533848e-002 1.25596812e-002 1.15849553e-002 -1.32968640e-002
      -2.99501349e-003 -5.15469583e-003 1.74575225e-002 -4.51392755e-002
      3.34630869e-002 2.71545220e-002 2.10794527e-002 2.35774778e-002
      2.79666651e-002 5.84132373e-002 -6.18373463e-003 2.22338587e-002
      -3.00513469e-002 5.02600241e-003 -4.64143464e-003 3.17300274e-003
      -2.85930503e-002 -1.13392835e-002 4.84776311e-002 -4.76599857e-002
      -1.90961715e-002 4.68683476e-003 2.27096491e-002 -1.25015574e-002
      -1.60660185e-002 9.01903724e-004 2.86559518e-002 5.69716431e-002
      3.62504087e-002 7.78409652e-003 1.62750352e-002 4.02613506e-002
      2.59074569e-002 -2.20315205e-003 -1.46476808e-003 2.78719869e-002
      7.59068653e-002 -3.64370979e-002 1.40786916e-003 -3.92782614e-002
      3.88421281e-003 -2.15440542e-002 1.17292360e-003 -1.97151415e-002
      -7.83234239e-002 1.36995306e-002 -1.42981941e-002 -1.27264140e-002
      3.13138543e-003 1.02352435e-002 -2.80633736e-002 -1.47567373e-002
      1.54260988e-003 -5.52464053e-002 -2.51655690e-002 -2.62457579e-002
      4.24079644e-003 -6.09963052e-002 -9.86564253e-003 -1.45107647e-002
      -3.56718861e-002 4.00868244e-002 6.67798333e-003 6.41932935e-002
      8.27355217e-003 1.75476596e-002 -3.24852727e-002 1.91139951e-002
      -1.20938420e-002 4.52594198e-002 1.97684951e-003 2.63286922e-002
      9.63170379e-002 -5.37759904e-003 2.38451678e-002 -4.93702777e-002
      5.66564389e-002 1.85577571e-002 3.95882912e-002 -1.03457142e-002
      -2.06959285e-002 1.56221474e-002 -3.69488867e-003 4.72546853e-002
      8.60313792e-003 -1.22913597e-002 -4.62224260e-002 -2.12586634e-002
      -2.58031506e-002 -3.22770812e-002 -4.89140898e-002
      -3.33412625e-002 -3.10987849e-002 -7.75954947e-002
      -2.10762098e-002 -5.83209768e-002 -3.20968544e-003 3.34656425e-002
      5.23525961e-002 5.63719682e-002 -3.95835796e-003 4.88490909e-002
      1.28258010e-002 5.08730114e-002 -2.03142781e-002 -6.20723888e-003
      2.77147721e-002 1.23663777e-002 1.98030826e-002 1.57600492e-002
      2.69824290e-003 -5.49124144e-002 3.56738195e-002 -4.39879373e-002
      1.42923417e-002 -2.50760484e-002 -4.11777161e-002 -1.72516908e-002
      -2.13720221e-002 -7.48321041e-003 1.45258801e-002 -4.00683115e-004
      -6.99853599e-002 -3.02207228e-002 9.87840630e-003 1.09829996e-002
      1.58493668e-002 4.66147438e-002 2.77080350e-002 3.97917554e-002
      -3.82748358e-002 -3.54137085e-002 -1.42819183e-002 1.50610674e-002
      -3.90248112e-002 -3.33238114e-003 3.43084172e-003 4.18279730e-002
      1.27713159e-002 5.33989333e-002 -2.37997212e-002 2.22402997e-003
      1.87779143e-002 -7.42452918e-004 2.83615161e-002 3.61509100e-002
      3.08950748e-002 5.05397469e-002 1.27998302e-002 -1.49642047e-003
      2.19693780e-002 -1.02027701e-002 -3.31567489e-002 9.59059398e-004
      -7.87759945e-003 5.56674378e-004 3.91055102e-004 -6.83835670e-002
      -7.61340037e-002 -5.85013293e-002 2.46568229e-002 8.89794994e-003
      8.60023964e-003 4.35932465e-002 3.94837782e-002 -1.93904676e-002
      -2.62339320e-002 -1.76286362e-002 -3.41350515e-003
      -6.55619660e-003 -1.39065245e-002 1.04243020e-002 -1.86406693e-003
      4.91626412e-002 1.43754072e-002 1.66003294e-002 -2.06840131e-002
      -2.68895403e-002 4.12449203e-002 4.13621552e-002 5.96288405e-002
      5.79786636e-002 2.11432744e-002 -6.61053881e-003 2.84428317e-002
      6.30778261e-003 1.62422173e-002 1.63794551e-002 -2.93976814e-002
      7.81088835e-004 1.49542093e-002 2.66690906e-002 -6.92437440e-002
      -5.58298007e-002 -5.66534176e-002 1.11680403e-002 8.64551216e-003
      -5.08603901e-002 -3.39414775e-002 1.90853141e-002 3.88444774e-002
      -1.52871255e-002 -1.97843909e-002 -9.50752385e-003 1.85558777e-002
      -8.19266122e-003 -2.47094431e-003 5.53077692e-003 -1.82460633e-003
      -7.87430350e-003 -6.99405149e-002 -1.92937106e-002
      -2.72178296e-002 -1.57701247e-003 1.81561727e-002 -2.77058668e-002
      -2.56772004e-002 -1.99108701e-002 1.85093042e-002 -2.32476164e-002
      1.14970170e-002 3.23001705e-002 3.73570621e-002 -1.77521482e-002
      -5.14712259e-002 7.47004477e-003 9.60473530e-003 6.47171680e-003
      -8.84980187e-002 -2.05553081e-002 -2.39217840e-002
      -2.88522691e-002 6.77486369e-003 -3.37114222e-002 1.15318189e-003
      4.32908460e-002 1.76965892e-002 -5.20063527e-002 2.02581137e-002
      2.50871480e-003 2.87316032e-002 1.65344793e-002 -1.47939101e-002
      -2.65468191e-002 2.17831545e-002 3.46071385e-002 -5.07946163e-002
      -1.54779237e-002 7.23157171e-003 1.79502368e-002 4.27274704e-002
      4.45109140e-003 3.48526128e-002 4.78312187e-002 4.92353551e-002
      -4.07018252e-002 3.86773907e-002 3.59576158e-002 6.95576845e-003
      -2.13933885e-002 -2.98515875e-002 -1.65493451e-002 1.31805111e-002
      -2.59885956e-002 -2.36846879e-002 4.56669442e-002 -3.98097709e-002
      -1.79420598e-002 -3.22047845e-002 -3.18059623e-002
      -2.45711170e-002 2.47528739e-002 2.05423241e-003 1.80271138e-002
      -4.72516641e-002 -4.77713011e-002 5.22008631e-003 5.36923259e-002
      2.15470716e-002 8.35413765e-003 1.73153132e-002 5.09599485e-002
      -5.09488732e-002 2.13812124e-002 -1.79305635e-002 1.18179014e-003
      2.34718379e-002 2.15337612e-002 1.68555435e-002 4.88052629e-002
      1.58266444e-002 4.64395434e-002 1.71839595e-002 -1.73095614e-002
      -3.56896687e-003 -1.43981893e-002 -1.55584572e-003
      -4.88701761e-002 -3.54837626e-002 6.66755587e-002 -6.04727771e-003
      -3.42992097e-002 -2.62676794e-002 -1.99481249e-002 1.15344871e-003
      3.38696758e-003 -3.64165604e-002 2.05607340e-002 1.45941256e-002
      6.17789626e-002 9.36577469e-003 -1.43111544e-003 -9.33024380e-003
      4.18007039e-002 1.31412121e-002 -6.50422350e-002 1.32195558e-002
      6.95192814e-002 2.41984576e-002 -7.58379407e-004 2.73590256e-002
      1.14172362e-002 3.60783637e-002 3.55134942e-002 3.04237753e-003
      3.92429344e-002 4.85966774e-003 3.96087244e-002 5.61653227e-002
      3.64967585e-002 -7.28092017e-003 -1.38362460e-002 -5.70396632e-002
      -3.11582293e-002 -1.51097886e-002 3.38720274e-003 1.03255436e-002
      -6.18162192e-003 1.14062093e-002 -4.74256277e-002 1.29951285e-002
      2.95850206e-002 -2.52047330e-002 5.15462458e-003 -2.44240966e-002
      -3.41360942e-002 2.55629476e-002 7.28886528e-003 1.33625716e-002
      4.39841412e-002 -4.91732359e-003 -9.08310618e-003 4.17671092e-002
      6.16126992e-002 -1.71686150e-002 5.01114503e-002 1.62180588e-002
      5.93159208e-003 6.68956488e-002 -1.01652713e-002 -1.28065317e-003
      1.52917402e-002 4.22600098e-003 3.43786180e-002 5.88799343e-002
      2.09744032e-002 1.67745855e-002 8.36776849e-003 1.56778693e-002
      -3.49555984e-002 2.07418445e-002 -3.24214362e-002 -3.57456170e-002
      2.23885775e-002 -8.55194777e-003 -3.02635916e-002 1.84005406e-003
      -2.13965289e-002 -2.47498564e-002 7.53183439e-002 7.54016265e-002
      9.32599418e-003 4.22914661e-002 1.22235622e-002 -5.32562053e-003
      6.26501814e-002 -3.19016799e-002 -4.44463716e-004 1.51175875e-002
      9.69528873e-003 -4.54486050e-002 1.29868556e-002 3.71527076e-002
      1.79240704e-002 5.30447215e-002 -3.81902009e-002 1.22029660e-002
      7.50000924e-002 7.82926604e-002 1.63363367e-002 5.37764542e-002
      4.57888581e-002 1.47635676e-002 -1.99354254e-002 -2.62625311e-002
      -4.89349738e-002 7.51636177e-003 3.52970026e-002 -2.02751476e-002
      -7.51785934e-003 -1.07133808e-002 -1.45556545e-002
      -3.52051742e-002 5.90868108e-003 -1.10062016e-002 5.51331602e-002
      1.20089509e-001 5.47356205e-003 -5.24732471e-002 -4.22195196e-002
      -4.08876203e-002 2.90958658e-002 -4.83468547e-002 -2.20611133e-002
      8.26351345e-003 4.21244577e-002 -4.42426130e-002 5.23733310e-002
      1.17003778e-002 -6.64323661e-003 -1.20484773e-002 -2.84800939e-002
      -1.16665000e-002 1.49694514e-002 6.22310266e-002 3.32543664e-002
      3.84221338e-002 9.34420805e-003 -3.97879779e-002 -3.97401536e-003
      1.00032073e-002 -2.16195099e-002 -2.17351690e-002 7.66719505e-002
      -6.37046760e-003 -6.40148520e-002 -1.67930927e-002
      -8.51598941e-003 -1.05596362e-002 -2.80197058e-002
      -8.19092710e-003 4.15779985e-002 9.53500941e-002 1.65171698e-002
      -4.11218442e-002 -6.30791159e-003 6.91726618e-003 -1.34366732e-002
      1.81123111e-002 -2.52340995e-002 -3.79914157e-002 3.18432748e-002
      9.80874430e-003 7.48669263e-003 1.70733985e-002 -1.20179830e-002
      -2.54194401e-002 8.53680423e-004 -2.42718812e-002 -1.50482543e-002
      1.94183756e-002 1.17877936e-002 -5.70589164e-003 -3.87414335e-003
      -8.52806587e-003 3.93657535e-002 -4.95651215e-002 -3.84634547e-002
      -2.92578246e-002 6.53802678e-002 3.41457757e-003 -6.88928738e-002
      -8.24402925e-003 2.08545327e-002 3.76559943e-002 -1.33818854e-002
      3.57096083e-002 2.06734575e-002 8.15872401e-002 1.13743730e-002
      -3.92588750e-002 1.70734227e-002 4.70077842e-002 4.13601734e-002
      -3.27733085e-002 -4.19941358e-002 -5.60770482e-002 2.73568816e-002
      2.10818532e-003 -4.19713743e-002 -3.29715619e-003 3.07369865e-002
      -1.98901575e-002 1.32186397e-003 6.18683815e-004 -1.74830761e-002
      -2.84079723e-002 1.35915168e-002 -3.88369001e-002 1.69746764e-002
      1.71157550e-002 3.84471864e-002 -1.80030651e-002 1.73718680e-003
      -4.05145548e-002 4.32777815e-002 -3.20312940e-002 -5.33511601e-002
      3.04487515e-002 3.96599025e-002 1.52383400e-002 -7.65661662e-003
      5.23610264e-002 3.40221412e-002 7.31657222e-002 4.41717057e-005
      -3.78115103e-002 -2.86851563e-002 7.07051754e-002 1.94276180e-002
      -2.93724947e-002 -5.73314074e-003 -8.63630027e-002 5.16727529e-002
      4.21797559e-002 -2.46031955e-002 2.60169040e-002 6.17739521e-002
      4.21384908e-002 -3.07586361e-002 1.20083271e-002 -1.71764549e-002
      6.82641864e-002 2.27193553e-002 -2.60949088e-003 -3.94366384e-002
      4.97986563e-002 1.59028862e-002 -2.05695853e-002 2.27422696e-002
      -4.07905206e-002 3.39081623e-002 -1.77712459e-002 -3.54647562e-002
      -1.30412756e-002 1.52717093e-002 -1.59642864e-002 -3.95695604e-002
      3.45906094e-002 7.98450597e-003 3.03899404e-003 1.36626065e-002
      6.97192084e-003 3.23087089e-002 2.98115727e-003 4.69429083e-002
      9.71803162e-003 3.96195166e-002 -5.71302734e-002 3.91042344e-002
      2.23728362e-002 -5.18420823e-002 -3.54754813e-002 2.43897960e-002
      4.42227647e-002 5.16277589e-002 5.13047129e-002 1.69834644e-002
      6.30343519e-003 3.49867567e-002 2.64655221e-002 1.59148201e-002
      5.10739116e-003 1.54286735e-002 -4.22898866e-002 -1.20227775e-002
      -7.19209313e-002 3.05271652e-002 -3.67203951e-002 -3.48127820e-002
      -4.18767184e-002 -2.35081278e-002 1.35493577e-002 -4.47042584e-002
      1.04776239e-002 7.72215379e-003 1.17694475e-002 3.56052220e-002
      2.71242764e-002 -1.96833313e-002 1.09059736e-002 6.78787529e-002
      1.16204694e-002 3.49053070e-002 -7.32188895e-002 -1.01708792e-004
      -4.25991081e-002 7.55542470e-003 1.52003411e-002 2.49585286e-002
      -8.30733217e-003 -2.64256522e-002 2.69031953e-002 -3.92793193e-002
      -3.38627445e-003 -1.25097362e-002 4.73565273e-002 1.74423829e-002
      -1.40025727e-002 4.90675531e-002 -2.07445957e-003 4.15692069e-002
      -6.74610808e-002 -3.40853333e-002 -6.79034963e-002 2.71018147e-002
      -1.37764513e-002 -8.58271727e-004 1.97411533e-002 -1.87072922e-002
      1.59114599e-002 -2.20172933e-006 3.27400826e-002 -1.82797369e-002
      5.06543107e-002 -1.80774871e-002 3.72416340e-002 3.38533074e-002
      -2.34019496e-002 4.70420569e-002 -6.27226233e-002 -4.66532679e-003
      -5.53392544e-002 -1.99939450e-003 2.93443333e-002 2.07221005e-002
      -7.96138123e-003 -1.25708170e-002 3.79646868e-002 1.45406751e-002
      3.65853086e-002 -1.70990936e-002 7.19991401e-002 3.51680554e-002
      -6.55250810e-003 2.58017462e-002 1.67160798e-002 3.28310616e-002
      -3.79411355e-002 2.65944265e-002 -3.39766778e-002 -5.74863609e-003
      -6.77405968e-002 2.34349556e-002 -2.54863277e-002 2.06411034e-002
      4.75572348e-002 5.20851314e-002 2.07031593e-002 -1.10622123e-002
      1.57812703e-002 -1.55328857e-002 -2.49523781e-002 2.07635351e-002
      -6.07336797e-002 3.35157104e-002 -4.87924963e-002 4.16308939e-002
      -3.49794514e-002 1.64643377e-002 -1.83447525e-002 3.26420814e-002
      -3.19199897e-002 -1.69057457e-003 6.07868508e-002 3.43866386e-002
      3.25968005e-002 1.38572957e-002 3.25197466e-002 5.43567725e-003
      -4.60126325e-002 -1.51335690e-002 -2.20767111e-002
      -5.66352392e-003 3.44709872e-004 7.03459978e-003 9.35393572e-003
      6.08349033e-002 3.28172673e-003 -3.09165977e-002 2.60147266e-002
      -3.66298296e-002 6.69461256e-003 2.67162379e-002 1.52730206e-002
      3.15275206e-003 6.64630532e-002 4.24942700e-003 -4.08645300e-003
      -3.05499621e-002 -1.50472736e-002 -4.15381417e-003
      -2.38553016e-003 2.79501430e-003 3.16542946e-003 7.08530694e-002
      -2.23549791e-002 -1.41570903e-003 5.83603941e-002 -8.57779570e-003
      1.83182221e-003 -2.20771204e-003 1.10004172e-002 6.65338151e-003
      5.05460910e-002 -1.24490475e-002 -1.03012193e-002 5.34215458e-002
      2.84268279e-002 1.56684369e-002 1.97107401e-002 1.04460930e-002
      -9.06584202e-004 4.50409129e-002 -3.45635577e-003 -1.71611775e-002
      3.73636074e-002 1.37510290e-002 -9.45145730e-003 1.83553863e-002
      9.93896509e-004 1.08508002e-002 7.03605339e-002 5.21366186e-002
      2.48432811e-002 6.68832138e-002 -4.55036573e-003 -3.11308037e-002
      2.77990215e-002 2.73008831e-002 -3.44073661e-002 2.25879624e-002
      -6.46588532e-003 -9.32852086e-003 1.98634099e-002 1.53271935e-003
      -3.49273421e-002 2.06945781e-002 1.17980791e-002 -6.44907774e-003
      3.60228643e-002 -2.68829800e-003 2.40205303e-002 5.06413318e-002
      7.86351487e-002 3.97471003e-002 2.59250477e-002 -9.29036178e-003
      8.45641736e-003 3.28872278e-002 5.07054664e-002 2.96694078e-002
      -2.12315004e-002 -1.43575314e-002 2.53530126e-002 -1.92628130e-002
      -1.34901032e-002 1.75185762e-002 6.40866458e-002 1.56909656e-002
      -8.57616216e-003 3.58550474e-002 2.83565018e-002 2.75782067e-002
      3.18026431e-002 4.02761474e-002 1.72644872e-002 5.51088667e-003
      -5.58857387e-003 3.05893086e-002 8.84929858e-003 -1.16388733e-003
      3.96530144e-002 9.26666614e-003 6.27972111e-002 8.18545371e-002
      8.00237730e-002 -1.22769391e-002 -8.81356769e-004 1.78216211e-002
      9.99939349e-003 2.58973171e-003 -3.46835926e-002 -2.39843559e-002
      -4.32801843e-002 2.55128257e-002 4.54303026e-002 4.30685356e-002
      5.10604866e-002 1.04654748e-002 -5.33088762e-003 1.00503089e-002
      4.68633845e-002 -2.78680641e-002 9.48024541e-003 1.26286941e-002
      2.92824414e-002 4.58054431e-002 -1.39773439e-003 9.92032583e-004
      4.78902599e-003 4.66851853e-002 9.07578599e-003 5.25126159e-002
      4.38841321e-002 4.10764851e-002 3.55347246e-002 2.12230589e-002
      2.98024807e-002 1.64932311e-002 3.85739543e-002 1.01809681e-004
      1.92161109e-002 8.88679456e-003 3.35084647e-002 2.07035150e-002
      1.57143008e-002 1.62505992e-002 9.39571857e-003 3.03247944e-002
      -4.18181084e-002 1.60209611e-002 -3.10175158e-002 -1.10055308e-003
      5.11614084e-002 6.10243948e-003 -2.06048936e-002 -4.29000780e-002
      3.50858737e-003 -3.96240763e-002 4.58904542e-002 3.11986320e-002
      -6.01007463e-003 2.99390927e-002 -1.23261418e-002 7.25027500e-003
      4.14810851e-002 2.86745261e-002 5.66520682e-003 7.96074513e-003
      -4.13821265e-002 -1.58917636e-003 4.59631458e-002 -2.54302053e-003
      -4.23165224e-002 -4.10201959e-002 7.78496563e-002 1.42730186e-002
      3.85028012e-002 3.46635804e-002 6.50743991e-002 -7.18755508e-003
      -3.11547276e-002 -5.73248835e-003 -4.17497158e-002
      -4.40452844e-002 -2.71013230e-002 2.06527077e-002 9.67196655e-003
      -4.24637832e-002 -6.65161898e-003 -1.89512577e-002 2.32302882e-002
      -2.43424103e-002 -1.67972092e-002 -2.32005473e-002 1.97752789e-002
      -3.11467685e-002 -3.32546830e-002 2.13726889e-002 -4.04144116e-002
      -4.75106575e-003 -2.57102698e-002 8.13653041e-003 2.94272583e-002
      5.64446338e-002 1.56051023e-002 4.53849398e-002 2.34783925e-002
      -4.65938225e-002 3.02866437e-002 -4.47087102e-002 4.31452766e-002
      1.83877535e-002 4.41894755e-002 8.99389200e-003 4.77121286e-002
      -9.44727939e-003 -4.44859564e-002 1.14935292e-002 -4.26113158e-002
      -4.47974866e-003 -3.16285267e-002 -4.95342463e-002
      -5.47219925e-002 -1.38974963e-002 -2.43174620e-002
      -5.32741025e-002 6.88336045e-003 -2.09797192e-002 7.20357290e-003
      -6.97289109e-002 3.68444771e-002 -1.66017059e-002 2.52559725e-002
      2.20351722e-002 -3.27403806e-002 2.72432994e-002 -2.23107431e-002
      1.51538020e-002 -4.40335646e-003 -4.66245972e-002 -4.64347713e-002
      1.25428028e-002 2.06581131e-002 -5.35268486e-002 2.86895875e-002
      -4.65220436e-002 7.80499773e-003 -4.02231589e-002 2.33862009e-002
      1.71178896e-002 4.72862720e-002 -4.16379981e-002 -2.21094564e-002
      8.56853463e-003 -9.87365469e-003 -7.81666487e-003 -5.19959070e-003
      1.35202492e-002 -6.95120990e-002 -7.63211399e-002 -3.17654721e-002
      -3.97672504e-002 -5.97648090e-003 2.28619818e-002 -4.00445759e-002
      -1.02592625e-001 -1.95814651e-002 -6.09603412e-002
      -5.27570434e-002 1.49333570e-003 -2.64243837e-002 4.84506488e-002
      1.25425560e-002 8.12795386e-003 2.32092403e-002 4.68061417e-002
      -3.50437313e-002 -1.66582726e-002 3.25074308e-002 1.47849508e-002
      3.22688594e-002 8.48378334e-003 -2.08840128e-002 -6.03185743e-002
      1.21190520e-002 -1.38961468e-002 5.20853419e-003 -3.57713588e-002
      -2.72671208e-002 1.57309491e-002 2.02565789e-002 4.54886295e-002
      -4.75881957e-002 -2.94013135e-002 -8.67806673e-002
      -7.37357605e-003 -1.61893163e-002 -4.33068834e-002
      -3.61436233e-002 -5.47529869e-002 -3.11043914e-002 4.29067295e-003
      -1.03418287e-002 -3.89106013e-002 1.42187998e-002 4.73975837e-002
      4.72859778e-002 5.65818101e-002 3.74236964e-002 5.76681793e-002
      9.47625190e-003 2.91341450e-002 -1.15726441e-002 1.77778918e-002
      2.80238967e-002 2.64409184e-002 1.04311332e-002 -4.55095544e-002
      5.56719210e-003 1.11254109e-002 4.61035268e-003 -5.21772727e-002
      3.82960960e-002 -8.51036143e-003 -5.65990731e-002 -5.06274141e-002
      -4.62170392e-002 1.01551199e-002 -5.02188131e-003 3.46332043e-003
      -5.20253368e-002 1.87906399e-002 2.00027898e-002 -2.68527549e-002
      -2.50508692e-002 2.52202787e-002 2.83264834e-002 6.38047466e-003
      1.57877635e-002 -4.79266681e-002 1.83290858e-002 1.08634001e-002
      7.56153371e-003 -1.92575902e-002 -5.64697161e-002 1.82227101e-002
      -3.75382439e-003 1.98418554e-002 -7.23068640e-002 1.17567629e-002
      4.82753702e-002 1.73350088e-002 6.93116337e-003 -5.67539223e-003
      2.96575576e-003 5.15040495e-002 3.82223390e-002 -2.55094711e-002
      3.33014242e-002 -2.14145388e-002 -4.12456952e-002 -1.07397353e-002
      -2.86400244e-002 -3.82133760e-002 -5.44594042e-002
      -4.01106402e-002 -5.72317615e-002 -1.78951211e-002 1.83120016e-002
      -6.71410328e-003 3.95460017e-002 5.63357631e-003 -6.77522197e-002
      -1.21988850e-002 -1.68275237e-002 8.95218085e-003 2.46620607e-002
      3.93316196e-003 -1.83116389e-003 4.28469665e-002 1.95360146e-002
      1.47230299e-002 -3.87337878e-002 -1.35932658e-002 -4.88554016e-002
      -1.60585232e-002 3.94143024e-003 -1.02983397e-002 6.10455833e-002
      2.12471019e-002 -1.22951241e-002 -2.22507846e-002 2.78108511e-002
      8.09560809e-003 1.25604244e-002 2.75193015e-003 -3.52388620e-002
      4.67164256e-003 -6.26287516e-003 -1.06185479e-002 -2.25060526e-002
      -1.72569677e-002 -4.03883457e-002 -2.51318347e-002 4.82167490e-003
      -7.31836818e-003 2.90568396e-002 6.98134601e-002 2.66084298e-002
      -1.91804338e-002 -7.17177708e-003 -3.65620293e-002
      -3.48524041e-002 -2.18158979e-002 -1.66165940e-002 2.39174739e-002
      2.16156468e-002 4.11892757e-002 3.35434778e-003 5.24745439e-004
      -7.30492249e-002 -3.77076380e-002 -1.63480230e-002
      -2.12821942e-002 2.81116534e-002 2.06304528e-002 4.92114667e-003
      1.18414415e-002 1.45119913e-002 -1.90705899e-002 -1.76862385e-002
      2.22419035e-002 -3.77481803e-002 -2.13142093e-002 3.51182036e-002
      -1.18569341e-002 -4.97236140e-002 -4.27694693e-002
      -6.77182078e-002 -9.93834808e-003 1.11718914e-002 -1.29085267e-002
      -9.70370043e-003 9.50770173e-003 -9.15582664e-003 2.87270825e-002
      -2.48009022e-002 -6.61254674e-002 -4.25484143e-002 1.16774943e-002
      -7.75988176e-002 -8.83301441e-003 1.39168848e-003 3.64119932e-003
      -2.42572110e-002 -3.25624906e-002 -1.21821265e-003 3.08442619e-002
      2.82919910e-002 -1.78706944e-002 1.65882986e-002 5.26578277e-002
      -2.57690307e-002 9.31157358e-003 3.35154073e-006 -2.36314405e-002
      1.21014193e-003 1.36736976e-002 -4.14706059e-002 -5.92076555e-002
      -3.69344205e-002 9.47418995e-003 -3.58864255e-002 -3.73464376e-002
      -3.95168215e-002 -2.56766658e-002 2.88606305e-002 -1.97761301e-002
      -1.57918110e-002 4.72616963e-003 -1.12064853e-002 -3.44219096e-002
      -4.30118851e-002 -2.46352516e-002 -1.87537482e-003 1.00768590e-003
      -2.03871746e-002 -3.16278860e-002 3.37001421e-002 1.06792245e-002
      6.49870746e-003 -8.92762467e-003 -3.00327502e-002 9.89386532e-003
      6.03689849e-002 -2.85732169e-002 -8.20319634e-003 5.30241653e-002
      8.08600616e-003 4.18449529e-002 1.37771666e-002 -2.38733981e-002
      3.23971324e-002 3.04276664e-002 -1.29100149e-002 -1.56991091e-002
      -1.24660181e-003 5.67263216e-002 -5.69425039e-002 3.70394886e-002
      -2.79758126e-002 -8.27130768e-003 3.84635776e-002 -1.70925297e-002
      -5.25709242e-002 1.17492145e-002 3.19476277e-002 -8.16819444e-003
      -9.08885337e-003 -6.91368431e-002 -2.13306695e-002 5.20664863e-002
      -3.60923074e-002 -3.81217562e-002 5.14900265e-003 4.96315025e-002
      -1.75088663e-002 3.75621766e-002 -8.93211924e-003 3.56495902e-002
      2.34341435e-002 -2.65996847e-002 -2.22711056e-003 3.75757553e-002
      4.10731733e-002 8.85886997e-002 1.49674127e-002 -3.28088216e-002
      -4.73401099e-002 1.85098615e-003 -6.58964589e-002 -5.42151965e-002
      -8.02808627e-003 3.56091633e-002 -5.32862656e-002 -2.70269625e-002
      -5.76097472e-003 -4.21138331e-002 4.54912148e-002 -5.58631383e-002
      2.04940811e-002 7.80699849e-002 6.69399649e-002 -7.42877796e-002
      -1.96381807e-002 2.38310713e-002 -1.45843467e-002 2.15981174e-002
      3.56837700e-004 5.21824462e-003 1.20512359e-002 4.52193953e-002
      -3.10515035e-002 -5.65314591e-002 -4.14885841e-002
      -4.93227839e-002 6.34995401e-002 1.55691151e-002 2.39194836e-002
      4.97120470e-002 3.85099240e-002 -1.17750037e-002 5.28159086e-003
      -1.04962662e-002 -5.75132715e-003 9.84930666e-004 -2.05329470e-002
      -2.10322123e-002 7.02205347e-003 6.70039747e-003 -4.14511673e-002
      2.51717158e-002 3.67062613e-002 -3.03971022e-002 3.19834687e-002
      2.36097071e-002 -3.73785235e-002 1.75937768e-002 5.84025532e-002
      -8.51954985e-003 3.99013124e-002 3.14344056e-002 3.11358012e-002
      2.01972127e-002 2.22222166e-004 -2.00351533e-002 4.82659508e-003
      3.08088381e-002 1.07580319e-003 -2.04139464e-002 8.71899538e-003
      -4.17843051e-002 -9.71358828e-003 -1.93507019e-002
      -2.63550375e-002 3.36476974e-002 1.74995568e-002 3.75540741e-002
      2.79359426e-002 3.92586775e-002 -8.23609252e-003 5.05208559e-002
      3.42803411e-002 -1.55874323e-002 -3.83388661e-002 -2.65528215e-005
      -3.67490500e-002 1.06932595e-003 3.30817848e-002 4.08839015e-003
      1.86627768e-002 7.04937708e-003 -5.41033829e-003 -5.14607504e-002
      1.27678132e-002 -3.34623344e-002 -3.26088369e-002 -2.59029884e-002
      -3.12384386e-002 5.11909202e-002 1.15797147e-002 -3.93478051e-002
      -5.57759963e-003 -2.94405059e-003 9.72332899e-003 5.75732738e-005
      3.90424281e-002 1.48289567e-002 1.57156326e-002 9.93938092e-003
      -1.44890295e-002 4.55989689e-002 1.83807369e-002 3.69128175e-002
      1.40095027e-002 3.33991018e-003 -1.47877978e-002 6.30868822e-002
      2.82287039e-002 3.53634022e-002 -5.56770228e-002 2.53537223e-002
      -4.31039855e-002 -6.47018179e-002 -2.98723318e-002 1.95534565e-002
      -1.59079731e-002 3.50293666e-002 2.06029750e-002 -2.47149747e-002
      -1.77400820e-002 -9.05143470e-003 -1.66665874e-002 1.84697732e-002
      2.85593346e-002 6.00319244e-002 7.46275038e-002 3.23888361e-002
      2.06594411e-002 4.72608879e-002 1.30508561e-002 -3.79620194e-002
      -1.57353394e-002 2.64521074e-002 -6.03501685e-003 1.95970647e-002
      1.56804454e-002 8.96477327e-003 3.47559666e-003 -1.01171667e-002
      -1.38163762e-002 2.22861432e-002 1.66764613e-002 -1.36397481e-002
      -1.12201171e-002 -6.40405901e-003 -9.71099585e-002 4.85385284e-002
      -7.81275984e-003 -6.54593855e-002 4.36915504e-003 8.59310105e-003
      -9.72475042e-004 -5.08161560e-002 -3.89846216e-004
      -4.81983274e-002 9.05669183e-002 1.33162374e-002 -2.74948664e-002
      -2.92508993e-002 9.67408251e-003 9.01383231e-004 2.12601982e-002
      2.79909037e-002 -3.34273838e-002 3.10596246e-002 1.79919880e-002
      -5.56260832e-002 -1.07055027e-002 1.79612881e-003 -7.81210279e-003
      5.86523849e-004 2.82109268e-002 9.63165704e-003 8.42398629e-002
      2.26232540e-002 1.86519930e-003 1.31518617e-002 -1.51400398e-002
      2.94079669e-002 1.31441960e-002 8.12820252e-003 -8.79538506e-002
      4.58652079e-002 4.25333204e-003 -3.53428908e-002 -1.16288960e-002
      -7.11031072e-003 2.28348523e-002 4.15796638e-002 2.25034412e-002
      2.21772883e-002 5.66293374e-002 4.81367148e-002 5.21181487e-002
      3.89290042e-002 -1.34790326e-002 7.29600154e-003 1.90031752e-002
      -2.38151047e-002 -7.89778456e-002 6.04347661e-002 5.67813553e-002
      -4.85907495e-002 -4.22415411e-004 2.19707936e-002 2.59577408e-002
      1.81409786e-003 -6.69712350e-002 -4.53458093e-002 3.35425846e-002
      7.03767911e-002 -2.56739138e-003 7.68282590e-003 1.36073334e-002
      4.65348810e-002 3.22866216e-002 5.41999238e-003 -8.83222148e-002
      2.50682551e-002 -5.55556193e-002 1.77973285e-002 -1.04720274e-003
      -1.38040558e-002 -6.78649452e-003 -5.68830334e-002
      -1.33104175e-002 -3.01421490e-002 2.72577964e-002 -3.18071269e-003
      3.15617695e-002 1.91312693e-002 -1.35105150e-002 2.86226422e-002
      -3.93283330e-002 -4.45696935e-002 -5.10842390e-002 4.05357294e-002
      -1.07608037e-002 -8.36882591e-002 -3.84721570e-002
      -8.00017267e-003 -4.55512013e-003 -1.40582565e-002
      -1.00161126e-002 7.21609103e-004 7.36313965e-003 5.25359362e-002
      3.41777988e-002 5.60025088e-002 -4.39913623e-004 9.04465374e-003
      -4.87304926e-002 1.74914040e-002 -9.08667296e-002 3.42065915e-002
      -4.24783006e-002 2.00361274e-002 -3.12628015e-003 -9.34392493e-003
      -8.93999729e-003 -1.34447115e-002 5.00976816e-002 4.24296968e-002
      2.00367179e-002 -6.70237094e-003 3.07994336e-002 2.35964768e-002
      1.50463730e-002 3.31808031e-002 1.09349296e-003 6.30348697e-002
      -2.96218563e-002 -2.20144521e-002 -2.21398473e-002 2.25668103e-002
      6.38610050e-002 4.89781611e-002 1.03052650e-002 3.22642624e-002
      7.44509324e-002 4.70805541e-002 1.91421229e-002 1.76959131e-002
      3.19736823e-002 4.69460106e-003 3.07301208e-002 3.51409940e-003
      -2.77519841e-002 4.33787405e-002 -6.43440336e-002 1.26389721e-002
      -1.55137740e-002 5.31030186e-002 6.95403712e-003 2.31593717e-002
      -5.54763786e-002 -4.02488597e-002 4.94087711e-002 1.34787178e-002
      1.55525822e-002 4.11498286e-002 6.87314570e-002 2.32015885e-002
      -4.00520712e-002 6.85716933e-003 -1.05445841e-002 5.12199514e-002
      -3.33007835e-002 2.08379794e-002 4.94212918e-002 3.69475759e-003
      -3.40204500e-002 1.80052817e-002 -2.97993347e-002 -3.45863611e-003
      5.47790490e-002 1.57675203e-002 -4.49430337e-003 3.14555652e-002
      3.83522436e-002 2.01745871e-002 -5.02106063e-002 1.26395198e-002
      9.70695168e-003 2.66038794e-002 1.83860529e-002 -2.01828927e-002
      -1.69694647e-002 7.48201162e-002 8.63423292e-003 -6.00767182e-003
      7.05956146e-002 -1.55283473e-002 2.52294894e-002 5.08996658e-002
      2.39870120e-002 2.82993037e-002 3.60806063e-002 -1.18805878e-002
      -2.35767849e-002 1.50509095e-002 -2.10174359e-002 -7.70271244e-003
      -5.66040240e-002 -3.39895226e-002 -3.73489000e-002 6.00015596e-002
      1.45960748e-002 8.91975127e-003 2.35057641e-002 -3.75033729e-002
      -8.82808398e-003 -1.82910617e-002 -1.52531657e-002 4.41790074e-002
      6.39511272e-002 2.91584600e-002 -1.27742887e-002 4.24449258e-002
      1.98743809e-002 -1.75548438e-002 1.99740920e-002 1.41782919e-002
      5.98503626e-004 3.62887941e-002 -3.22727300e-002 -4.40959632e-003
      1.43664926e-002 9.13101994e-003 -3.01528932e-003 6.02005683e-002
      -3.41834538e-002 -4.55960669e-002 4.13158676e-003 -3.68434004e-002
      3.52587514e-002 4.43635136e-002 -8.07794649e-003 -2.58661956e-002
      1.32084992e-002 6.89751329e-003 -5.72979860e-002 -7.70901050e-003
      -3.27246711e-002 -6.69799931e-003 3.72905135e-002 -1.06192725e-002
      1.26428930e-002 1.40707158e-002 -4.15417664e-002 -4.98747565e-002
      -9.93683841e-003 -4.22496125e-002 2.69123856e-002 1.84321515e-002
      2.14207489e-002 3.75479348e-002 5.82764484e-002 -4.41152230e-003
      -4.71757986e-002 -1.41191296e-002 -4.64130454e-002 3.52159664e-002
      -1.08221266e-002 -1.52144721e-002 5.28213531e-002 4.49295528e-002
      4.27686982e-002 2.31017210e-002 4.21633990e-003 -6.45836070e-002
      -3.18825082e-003 -1.33513073e-002 -7.26701645e-003
      -1.94925405e-002 4.91971299e-002 -3.79433483e-002 -7.27992877e-002
      -4.92543653e-002 -4.84739244e-002 1.26735847e-002 4.40812334e-002
      -3.02127637e-002 1.70794707e-002 2.01448947e-002 -3.29251430e-004
      3.83217782e-002 1.51336836e-002 -4.58742166e-003 4.69779260e-002
      1.09014530e-002 -5.58982091e-003 5.37334941e-002 1.65298097e-002
      3.14470306e-002 -1.34214191e-002 -9.66488296e-005 -2.00725403e-002
      2.18907688e-002 -1.48216588e-002 -1.66111644e-002 2.77034827e-002
      6.26126453e-002 2.67603975e-002 -2.60459408e-002 -3.97474971e-003
      -1.03303511e-002 -1.78206563e-002 6.81315176e-003 -5.84250800e-002
      2.03981437e-002 1.08131636e-002 3.33032617e-003 -3.40629113e-003
      6.45040674e-003 -6.02980284e-003 4.49483842e-002 -3.51315849e-002
      -7.39160329e-002 1.16090374e-002 1.51209282e-002 3.45595032e-002
      9.62683233e-004 4.80622845e-003 -1.30122937e-002 3.14911385e-003
      1.02891549e-002 -2.02325210e-002 -1.74048974e-003 1.30696669e-002
      5.01037808e-003 -1.06423078e-002 -4.96423505e-002 -1.40242372e-002
      4.86724777e-003 1.45998942e-002 4.29902179e-003 -3.68746333e-002
      -1.45985587e-002 5.78490980e-002 2.20907177e-003 7.15805637e-003
      1.05569512e-002 3.54714841e-002 -6.19248394e-003 -6.10066876e-002
      -8.82051792e-003 3.20628099e-002 1.55203342e-002 -2.53329594e-002
      -1.41085899e-002 -5.02909943e-002 -2.40049697e-002 3.90972905e-002
      -1.72806275e-003 1.09269964e-002 1.17018656e-003 1.92784872e-002
      -1.93897095e-002 -2.07220316e-002 -2.50305142e-002 3.08300671e-003
      -5.57670789e-003 -4.83729951e-002 -1.33199971e-002
      -5.64463027e-002 -1.40126776e-002 -4.90818620e-002
      -2.65418626e-002 -3.84622067e-002 3.63849476e-003 -1.33744965e-003
      -3.50920372e-002 8.36976897e-003 -3.03117670e-002 2.19709449e-003
      -6.98135421e-003 1.85794365e-002 -1.55853899e-002 -1.02019478e-002
      -1.12552261e-002 -5.89247607e-002 6.31939527e-003 -1.12979989e-002
      -3.50064524e-002 -3.41261178e-002 -3.05595212e-002
      -5.32926694e-002 9.08571854e-003 -1.18891923e-002 -3.38487625e-002
      7.82534927e-002 3.57500762e-002 3.14490385e-002 4.33109403e-002
      3.05700991e-002 7.70544284e-005 4.17826464e-003 -3.44988820e-003
      -4.80155088e-002 2.14373437e-003 -3.54555845e-002 -2.24185064e-002
      -2.13470850e-002 -2.43407562e-002 -2.68686432e-002
      -6.90804888e-003 -3.79112805e-003 -5.24677373e-002 9.48238373e-003
      -2.20898651e-002 -2.26620100e-002 -6.48994222e-002
      -2.68570203e-002 -1.38235120e-002 1.19559169e-002 -1.85441542e-002
      -1.46849081e-002 8.56261849e-002 2.77252235e-002 6.81049079e-002
      3.08473203e-002 -4.86876117e-003 1.65886488e-002 1.53396642e-002
      -3.59450094e-002 -2.17905734e-002 2.95033380e-002 1.98849551e-002
      2.87563670e-002 -4.44833711e-002 -7.27895321e-003 2.48091593e-002
      3.84790520e-003 3.17497761e-004 -1.28953839e-002 1.14499656e-002
      -1.06427958e-002 -9.32804681e-003 -3.68092284e-002
      -1.82196498e-002 -3.45161147e-002 -1.72124989e-002 1.80346835e-002
      -6.71580853e-003 -1.87796354e-002 -2.85857711e-002
      -3.17579173e-002 -1.03509985e-001 -2.35478338e-002 2.16756715e-003
      -1.75412316e-002 -3.93010043e-002 -2.77673900e-002
      -1.81817263e-002 3.27924974e-002 3.42798233e-002 -2.16600895e-002
      -4.73105200e-002 -3.43843959e-002 -6.21219464e-002
      -4.13751118e-002 -3.54192704e-002 7.92908575e-003 1.28258411e-002
      2.28585266e-002 -1.95158366e-002 -9.11867805e-003 1.91595983e-002
      -1.37812579e-002 3.30429128e-003 -3.63159329e-002 -7.57600740e-003
      -3.43803205e-002 2.34462693e-002 -7.24313930e-002 -3.05780731e-002
      -4.82329801e-002 -2.05673296e-002 -5.56756966e-002
      -6.24583587e-002 -9.95852426e-003 -5.86866140e-002
      -1.16175385e-002 -8.39875732e-003 -3.29891443e-002
      -7.11161196e-002 -4.39168885e-002 -2.09562704e-002
      -2.73028351e-002 2.26228815e-002 1.39544886e-002 5.92058375e-002
      2.04993002e-002 3.40887755e-002 2.08115876e-002 2.02431288e-002
      -4.84700017e-002 -6.08752705e-002 2.09711939e-002 6.52410788e-003
      5.72343878e-002 2.56704725e-002 2.93172672e-002 -1.12345992e-002
      -1.23997023e-002 -4.03016247e-002 -6.64221570e-002
      -4.81232740e-002 -8.92268568e-002 1.62693951e-002 1.88553927e-003
      1.84771512e-002 -9.42384005e-002 -7.78250843e-002 5.35957627e-002
      -2.19861139e-002 -4.31402884e-002 -2.97534801e-002
      -9.65685103e-005 -1.68796442e-003 2.23587994e-002 -6.69264719e-002
      6.56309817e-003 -3.35083855e-003 -4.01310548e-002 1.62315299e-003
      -3.06357606e-003 6.24220148e-002 1.83772035e-002 3.66284102e-002
      -1.41289216e-002 -5.88559210e-002 8.04696083e-002 3.90519165e-002
      2.79537328e-002 4.83914800e-002 7.05018565e-002 4.81788954e-003
      7.62675749e-003 -1.55311795e-002 3.05097830e-002 -2.56921491e-003
      -6.55270442e-002 -1.54249379e-002 -4.58290093e-002
      -4.43006828e-002 -2.96189263e-002 -1.19400471e-002
      -5.70279025e-002 -2.47011781e-002 2.71226792e-003 -3.30038518e-002
      -2.64103077e-002 -7.10519403e-003 -2.98723597e-002 5.31682521e-002
      1.61592290e-002 9.65615176e-003 2.62128096e-002 6.83480874e-002
      -9.86421388e-003 -6.38846122e-003 4.91784746e-003 1.13161085e-002
      -2.79085170e-002 -1.89409289e-003 -3.91502045e-002 1.14883529e-002
      8.27956945e-002 1.84263065e-002 -1.10044526e-002 1.73316058e-002
      -2.06317101e-002 -1.92299951e-002 2.67174258e-003 3.94157507e-002
      5.70390970e-002 -7.21856253e-003 -4.25445735e-002 -7.63947293e-002
      -5.75484987e-003 -1.24485595e-002 3.35706994e-002 -3.16141546e-002
      -7.23227188e-002 -4.83677611e-002 1.73865794e-003 -5.59826102e-003
      -9.07313544e-003 -1.17121628e-002 -2.92942263e-002 9.88523709e-004
      -1.92277413e-002 -3.99971418e-002 -4.46755737e-002 4.21999283e-002
      2.26692762e-004 -4.16831747e-002 4.67251576e-002 -8.65842588e-003
      7.24291010e-003 -3.75705659e-002 -4.54797363e-003 6.90892665e-003
      1.71979982e-002 -6.93195616e-004 6.13957178e-003 2.02062372e-002
      -2.57530324e-002 2.59328610e-003 -2.65917759e-002 2.91069038e-002
      -6.35592267e-003 4.27363850e-002 -1.86616797e-002 -4.35205512e-002
      -6.98743910e-002 -8.76260698e-002 -5.10007963e-002
      -5.55771105e-002 -2.46726386e-002 3.86585221e-002 -8.04483498e-005
      -3.22478004e-002 -2.74284203e-002 -2.03830469e-002
      -8.75856802e-002 2.65524909e-002 -1.68090332e-002 -2.76229884e-002
      2.82941498e-002 2.11081877e-002 -7.58801866e-003 3.78396623e-002
      2.13920474e-002 -4.58926298e-002 1.46753164e-002 4.39497002e-004
      -6.89056329e-003 -2.13295072e-002 7.25977914e-003 -2.08910536e-002
      4.00840007e-002 -6.17191056e-003 -6.56472519e-002 4.57451418e-002
      2.56901477e-002 -2.60723550e-002 -2.92254500e-002 -2.44395025e-002
      -7.16203302e-002 -6.21342622e-002 1.15565909e-002 -4.74397130e-002
      3.64856236e-003 -5.23747355e-002 -8.25318545e-002 3.80754168e-003
      1.15047581e-002 -3.02871820e-002 -2.92924661e-002 3.41265164e-002
      -7.13580325e-002 -1.49839427e-002 -4.88379933e-002
      -7.11463615e-002 1.70961265e-002 -9.61039029e-003 -4.29983921e-002
      1.10515133e-002 1.43579384e-002 9.61326004e-004 3.02997045e-002
      3.30457054e-002 -1.52930468e-002 -6.10475196e-003 5.52023388e-003
      -3.86016816e-002 7.52449734e-003 3.82491387e-002 -1.51714236e-002
      -3.04741599e-003 -2.24726251e-003 -1.18873490e-003 4.62579215e-003
      2.69403439e-002 -6.79752678e-002 -4.94523272e-002 -3.52711277e-003
      -1.83420330e-002 -7.50847757e-002 -8.03849194e-003
      -3.19150053e-002 2.12626718e-002 -3.71212482e-005 -7.22444877e-002
      -3.01043354e-002 1.25761451e-002 3.60410009e-003 -8.30863137e-003
      -7.61230215e-002 -3.49910073e-002 -2.26636212e-002 3.39839235e-002
      -2.19233464e-002 3.53155565e-003 2.74729021e-002 5.20893633e-002
      -6.11429997e-002 -2.18701176e-002 5.16997278e-003 1.89125612e-002
      -6.52884413e-003 -1.41727822e-002 -8.32382939e-004 5.27268089e-002
      -1.50585994e-002 1.46703152e-002 -6.18369784e-003 5.74641600e-002
      7.85161927e-003 -3.69456634e-002 -1.55796614e-002 -1.14559811e-002
      -2.67064832e-002 9.84958559e-003 -2.19062362e-002 -5.65569736e-002
      -8.86789560e-002 -1.14363067e-001 -1.35998777e-003
      -5.02263010e-003 -3.89333591e-002 3.87196965e-003 2.46659033e-002
      -3.81365903e-002 -3.94823439e-002 -5.89282364e-002
      -2.20623389e-002 1.30713955e-002 7.11810589e-003 3.16273160e-002
      1.05398716e-002 -8.68793391e-003 1.32522648e-002 -8.05376936e-003
      3.96518335e-002 -3.02076079e-002 3.12566124e-002 5.89490822e-003
      3.03263292e-002 5.05737551e-002 1.57103017e-002 -1.88187361e-002
      1.90635100e-002 3.36024649e-002 -1.05502913e-002 5.60583174e-003
      -5.56461094e-003 -4.33052853e-002 8.08408391e-003 3.81375104e-002
      -2.63664387e-002 -3.37285548e-002 -4.70685363e-002
      -4.15788852e-002 1.84412226e-002 -1.51124420e-002 -5.22105023e-002
      1.13095744e-002 3.26216519e-002 -1.20042972e-002 -3.43562216e-002
      -2.32081953e-002 -4.21384117e-003 6.86042383e-002 5.25970757e-003
      -6.96259644e-003 9.15004499e-003 3.57583910e-002 -1.30002052e-002
      2.24169083e-002 2.27076048e-003 -1.33187734e-002 3.54523063e-002
      -2.10293159e-002 -2.64633056e-002 3.25370170e-002 4.35764715e-002
      -1.61067955e-003 -2.23220605e-002 -4.04753303e-003
      -2.63952166e-002 9.25782509e-003 -1.19547574e-002 -6.36853650e-002
      -1.04229618e-003 5.80581091e-002 -1.62498169e-002 -1.75419059e-002
      -1.99877191e-002 -3.41707096e-002 2.57238206e-002 2.63832398e-002
      -3.68745551e-002 3.89128225e-003 4.32099961e-002 -3.55314091e-002
      -2.11142786e-002 -1.50493514e-002 1.39885098e-002 1.42830526e-002
      5.86935086e-003 -1.89924706e-002 3.83715592e-002 1.00005075e-001
      3.20835076e-002 2.87867412e-002 2.13515814e-002 -2.53338795e-002
      5.58525976e-003 -2.53208913e-002 -1.52618075e-002 4.98537673e-003
      5.46929426e-002 4.54680324e-002 -1.81962345e-002 9.36742779e-003
      5.89447375e-003 4.19755094e-002 2.27051377e-002 -1.59911029e-002
      -4.05730419e-002 4.50088568e-002 8.89695436e-003 -4.15047482e-002
      -1.00319134e-003 4.69848234e-003 6.81396748e-004 -1.46836340e-002
      -1.13075105e-002 -7.38025177e-003 5.09389713e-002 -1.98452901e-002
      -2.01247334e-002 -1.19839679e-003 6.72184350e-003 1.69177316e-002
      1.22185452e-002 -2.33516116e-002 -6.04131855e-002 3.78608517e-002
      1.64741911e-002 -1.50215989e-002 -1.67129803e-002 1.55302156e-002
      -4.35330532e-003 -3.03978771e-002 -1.48426304e-002 1.15251692e-003
      5.13819419e-002 -2.61442438e-002 9.31728818e-003 -1.45870075e-003
      -1.97607409e-002 -7.18572235e-004 4.65213470e-002 -1.05917463e-002
      -7.37318210e-003 2.46528126e-002 -5.86944073e-002 -4.43586782e-002
      -5.67204086e-003 -2.48120595e-002 -5.19468673e-002
      -2.64770649e-002 6.84689498e-003 -2.35737693e-002 2.59422995e-002
      -2.72929724e-002 -1.68879610e-002 -2.55432650e-002
      -1.53596411e-002 -6.53575524e-004 4.52267332e-003 1.97010040e-002
      -1.27499159e-002 1.55669441e-002 -4.93683442e-002 -2.67704446e-002
      4.78828372e-003 -2.46417578e-002 -8.73885024e-003 -1.49067873e-002
      2.54623983e-002 9.22941044e-003 -1.15854375e-004 -6.16128147e-002
      -1.52377225e-002 3.86952981e-002 1.52447808e-003 -1.12152845e-002
      7.04349764e-003 -3.00085242e-003 -7.72375315e-002 4.12018187e-002
      3.50283310e-002 -2.63688918e-002 -9.90166888e-003 3.00434488e-003
      -2.22235098e-002 -4.63412888e-003 -1.33046278e-005
      -1.91837506e-004 5.91708198e-002 4.02258858e-002 3.36544886e-002
      -1.10015587e-003 -1.00395745e-002 -2.51082121e-003
      -2.92634368e-002 2.30438989e-002 -3.35003957e-002 4.36418690e-002
      1.29051844e-003 -3.46325897e-002 3.29836458e-002 2.91097220e-002
      -5.62936999e-002 -2.13123318e-002 2.05687657e-002 1.02168098e-002
      3.30857784e-002 -1.46125369e-002 2.05686502e-002 1.00173168e-002
      -5.91651886e-004 9.65690985e-003 -5.91994356e-003 -5.06459586e-002
      -8.47329274e-002 5.59803024e-002 -4.01636399e-002 -3.53494436e-002
      -3.24388891e-002 -3.12892869e-002 1.98595859e-002 -1.28403595e-002
      -2.76327971e-002 2.23848019e-002 2.63718758e-002 1.52489226e-002
      5.09012267e-002 3.90079543e-002 2.00398490e-002 8.39169137e-004
      -4.13728058e-002 -2.95965821e-002 -5.14046550e-002 3.42468470e-002
      -6.68454915e-002 -3.29877399e-002 1.62504092e-002 8.50292668e-003
      4.59302450e-003 -2.11475268e-002 -1.26582594e-003 3.27202827e-002
      2.20400002e-002 -2.37291194e-002 2.14749090e-002 8.23445469e-002
      2.52667349e-002 3.56011428e-002 -1.07521396e-002 2.12292485e-002
      -1.94069929e-002 2.01918930e-002 -5.24570793e-002 1.18535161e-002
      -4.36781347e-003 3.39841433e-002 1.01465406e-002 -3.30694802e-002
      3.56791764e-002 4.43896651e-002 1.22207562e-002 -2.23745331e-002
      2.49506179e-002 -1.84111297e-002 1.45602673e-002 1.29237566e-002
      2.06474438e-002 3.29233892e-002 -1.61903724e-002 6.31964356e-002
      -3.14783156e-002 -5.86778559e-002 1.49415098e-002 2.82504614e-002
      -9.42613115e-004 -1.73134226e-002 1.28813023e-002 5.36489040e-002
      2.78707892e-002 -7.06472946e-003 -2.38996334e-002 9.66867153e-003
      -1.61600579e-002 4.65166681e-002 9.68976598e-003 4.11542840e-002
      -1.34278219e-002 4.14588004e-002 -4.47633024e-003 2.58444920e-002
      -6.24259817e-004 3.65600623e-002 -4.58499417e-003 6.47159433e-003
      4.26982809e-003 2.28703618e-002 5.73453354e-003 3.76834907e-002
      5.68911880e-002 1.43875172e-002 2.88407638e-004 3.49978134e-002
      7.51302391e-003 1.89365111e-002 -1.69642400e-002 5.51420040e-002
      -2.35812888e-002 5.86766191e-003 -1.36987269e-002 7.69381458e-003
      -2.89962701e-002 3.57847363e-002 -7.21057528e-004 4.54302039e-003
      3.08329668e-002 -3.05503141e-003 7.48715363e-003 -3.58322933e-002
      -4.18902226e-002 8.50555301e-003 -5.33093289e-002 -1.27619728e-002
      -6.87389076e-002 -1.33622987e-002 -2.37295553e-002 3.33614871e-002
      -1.55265145e-002 -8.00853781e-003 -3.30444127e-002
      -8.60859007e-002 -3.92082185e-002 -2.99020368e-003 4.63397540e-002
      7.71497469e-003 3.37310545e-002 -2.18092594e-002 -6.22632690e-002
      5.32889478e-002 -2.43098084e-002 -2.94306464e-002 -4.98370081e-002
      7.10734213e-003 -3.63400057e-002 1.91804450e-002 1.58736855e-002
      2.32217927e-002 5.85774845e-003 -6.73689246e-002 -5.50461784e-002
      -5.99199012e-002 -1.06603848e-002 -9.39700473e-003 5.21444455e-002
      -5.95727935e-002 -4.08747196e-002 1.06826695e-002 -6.18439447e-003
      -2.66910275e-003 -1.62267368e-002 -3.13438801e-003
      -4.60081436e-002 6.61154464e-003 -7.05283806e-002 -2.39298139e-002
      -1.99435931e-002 -3.60000581e-002 -1.45192137e-002 4.48507480e-002
      1.07604708e-003 -6.28128648e-002 -2.40482204e-002 -8.30290318e-002
      -4.18532565e-002 2.05232017e-002 -3.25973630e-002 -2.64050066e-002
      -2.36004796e-002 2.23597158e-002 -3.57005633e-002 1.75168868e-002
      -5.41067384e-002 -1.33836772e-002 6.04250049e-003 -4.51795422e-002
      -2.16587652e-002 -1.56240547e-002 -1.90511066e-002
      -9.30665955e-002 -6.11057738e-003 -7.47844949e-002
      -1.83025915e-002 -2.61576157e-002 -1.73972063e-002
      -1.04489448e-002 7.88608715e-002 7.17412261e-003 -1.60928555e-002
      -3.00646899e-003 -3.74042913e-002 -1.70601830e-002
      -3.69987870e-003 -1.24006653e-002 9.46896523e-003 2.72651743e-002
      1.68176033e-002 1.23998281e-002 5.85646427e-004 -2.90210992e-002
      2.22104248e-002 4.19835523e-002 -1.19537218e-002 1.04376231e-003
      3.21605168e-002 -3.53373890e-003 -8.24373364e-002 2.18913369e-002
      -7.33123720e-002 -2.19895691e-003 5.38343787e-002 -1.19329309e-002
      -1.61150955e-002 -4.87319753e-003 -2.07585357e-002
      -4.96609323e-002 1.62063055e-002 -2.18631178e-002 1.43302390e-002
      1.75182596e-002 2.80354973e-002 3.73830274e-002 3.13531607e-002
      5.32878039e-004 -1.80328898e-002 -2.95004193e-002 -2.01424714e-002
      5.08292168e-002 -5.73198916e-003 -2.01744400e-002 5.96470945e-003
      3.92055977e-003 7.91084841e-002 -3.92521825e-003 4.88779210e-002
      -3.25149409e-002 1.94701832e-002 6.14146069e-002 3.45622562e-002
      1.79931447e-002 3.92039306e-002 -3.33747305e-002 -5.32429591e-002
      -1.06539540e-001 -6.02240115e-002 4.30181324e-002 4.90099564e-002
      -2.22758241e-002 1.39703462e-002 7.41544589e-002 3.16490978e-002
      -7.67260939e-002 -1.54528171e-002 -3.94239277e-002
      -1.55776851e-002 6.69298135e-003 -3.92330848e-002 2.22481368e-003
      4.56921235e-002 5.90377301e-002 -5.63856065e-002 -5.24501055e-002
      -3.61288190e-002 -2.72882823e-002 2.71462649e-002 1.34201453e-003
      -2.34506745e-003 3.41590494e-002 3.02241649e-002 -4.24461290e-002
      3.63264307e-002 -8.54222663e-003 -2.00530794e-002 1.30979838e-002
      -5.70129640e-002 -2.35383362e-002 6.91066235e-002 5.47522269e-002
      -6.66880235e-002 -5.11179678e-002 -6.27689362e-002
      -3.27603295e-002 2.48940401e-002 -3.70848998e-002 -1.05452421e-003
      7.81943277e-002 8.07344019e-002 -5.77409975e-002 1.70173310e-002
      -3.48892882e-002 1.11769279e-002 1.69417243e-002 -1.10707358e-002
      3.00434977e-003 1.50561484e-003 -5.18667623e-002 -1.09897472e-001
      -3.73321809e-002 -6.88741654e-002 -2.52908636e-002 3.68422158e-002
      -2.21759360e-002 2.18414124e-002 3.61278355e-002 3.51815671e-002
      -4.44674073e-003 2.10760627e-002 9.02911089e-003 2.91585480e-003
      4.18196246e-002 -6.57953992e-002 -1.20973168e-003 -1.32879557e-003
      -9.51806176e-003 -8.27077255e-002 -2.43956316e-002
      -4.10420448e-002 1.08941803e-002 1.93033665e-002 -4.08841819e-002
      -8.14721268e-003 4.45606261e-002 -3.35456841e-002 -5.76099865e-002
      2.77269799e-002 1.90518256e-002 2.68740188e-002 -2.32638177e-002
      -1.79422870e-002 3.38817984e-002 2.59133261e-002 2.05915906e-002
      -7.28947595e-002 -2.93415487e-002 9.99097712e-004 -3.75924334e-002
      -1.80438142e-002 -1.77821945e-002 -4.58327420e-002 3.43576036e-002
      -1.61952041e-002 -9.06115323e-002 -3.11988164e-002 2.75214072e-002
      -2.19358541e-002 -1.68204699e-002 -3.86771280e-003
      -9.54687782e-003 2.69354004e-002 -8.97304155e-003 -4.46721576e-002
      -6.12712977e-003 6.21350715e-003 -6.78130751e-003 6.89968001e-003
      -1.82986483e-002 -9.27263498e-003 8.20794776e-002 3.17045785e-002
      -3.97382453e-002 1.83863323e-002 6.05513491e-002 2.13347431e-002
      -4.07236330e-002 -4.47431393e-002 -5.51086254e-002 5.47580421e-003
      6.27295626e-003 -6.22767471e-002 -7.38405064e-002 -4.46264222e-002
      -5.33306077e-002 -6.57397062e-002 -4.61391956e-002
      -6.98906109e-002 -2.39429995e-002 -2.75433846e-002
      -2.79890597e-002 -4.37612608e-002 -2.25420557e-002
      -2.92272866e-002 1.75311919e-002 -2.11884417e-002 -1.18515668e-002
      2.84028240e-002 1.03717148e-002 -2.64487173e-002 -2.52080690e-002
      1.43180471e-002 1.44110871e-002 -2.09435751e-003 7.76718510e-003
      -2.05090083e-002 -3.69642638e-002 9.92697570e-003 1.57114435e-002
      1.83093846e-002 1.90596171e-002 2.38649417e-002 -3.58650684e-002
      -6.09968379e-002 -3.60490754e-002 -1.23049738e-002
      -8.13486148e-003 -5.45946248e-002 -5.65708876e-002
      -1.72939952e-002 -3.26430686e-002 -1.23338439e-002
      -7.25432187e-002 -2.43125595e-002 -6.76530376e-002
      -3.15372385e-002 8.39354063e-004 -2.34899763e-002 -9.38439462e-003
      -1.78516358e-002 -2.06120983e-002 -1.64934583e-002
      -1.75804142e-002 -2.91046482e-002 3.29669769e-004 -4.18690033e-002
      -3.35004963e-002 -2.04427261e-002 -4.74361777e-002
      -2.17586979e-002 -1.61144673e-003 1.99518800e-002 -5.42228818e-002
      -1.49589805e-002 2.57405732e-002 3.39707322e-002 -4.82879318e-002
      -8.05626512e-002 2.88455114e-002 -2.99056969e-003 -2.87036002e-002
      -1.87423322e-002 -1.71286927e-003 -2.68381424e-002
      -3.32000516e-002 -2.32525729e-002 -2.55456790e-002 3.66757996e-002
      -4.85737482e-003 -1.07646026e-002 3.76460492e-003 -2.92220972e-002
