<?xml version="1.0"?>
<opencv_storage>
<my_svm type_id="opencv-ml-svm">
  <svm_type>C_SVC</svm_type>
  <kernel><type>LINEAR</type></kernel>
  <C>1.</C>
  <term_criteria><epsilon>2.2204460492503131e-016</epsilon>
    <iterations>100000</iterations></term_criteria>
  <var_all>4752</var_all>
  <var_count>4752</var_count>
  <class_count>2</class_count>
  <class_labels type_id="opencv-matrix">
    <rows>1</rows>
    <cols>2</cols>
    <dt>i</dt>
    <data>
      -1 1</data></class_labels>
  <sv_total>1</sv_total>
  <support_vectors>
    <_>
      1.59479529e-001 3.32441926e-001 6.49843514e-002 -2.60774363e-002
      2.24162385e-001 3.97363931e-001 6.28967404e-001 2.95115411e-001
      -2.52345894e-002 -2.73662835e-001 -8.58555436e-002 1.52149439e-001
      6.87913537e-001 -2.53407210e-001 1.45907700e-001 1.74789995e-001
      6.76851124e-002 -2.07948983e-001 1.26204938e-001 2.16457471e-001
      -2.50878092e-002 -2.08206251e-002 5.05030215e-001 1.22788921e-001
      4.10363525e-001 -6.70655668e-002 -1.61905751e-001 -8.00331384e-002
      -2.59689361e-001 -2.88629025e-001 1.43701777e-001 5.93471862e-002
      -1.66401178e-001 1.17474653e-001 -3.63958538e-001 2.02903241e-001
      -3.99259888e-002 -4.91525512e-003 4.46053982e-001 8.95983353e-003
      -2.79839247e-001 2.23067284e-001 6.20544732e-001 1.41528264e-001
      1.94640651e-001 1.54985979e-001 2.73584485e-001 1.36603579e-001
      1.13866441e-001 -1.89037491e-002 3.82238001e-001 4.30053055e-001
      -1.71897858e-001 -1.07876971e-001 2.54064620e-001 2.09145442e-001
      1.76139459e-001 -8.29005316e-002 1.73954129e-001 4.12844978e-002
      2.77861029e-001 2.16345429e-001 2.10911512e-001 -3.63456428e-001
      -5.07047102e-002 1.76307887e-001 -3.02445311e-002 3.78247686e-002
      -3.81721146e-002 1.02698259e-001 -1.34815857e-001 -2.73290366e-001
      1.33348331e-001 -2.72211224e-001 -3.78155336e-002 2.35530898e-001
      -4.17429328e-001 -7.42390454e-002 4.84472841e-001 1.45101324e-001
      -2.65282840e-001 4.84836437e-002 -4.06812318e-002 8.17259848e-002
      7.35138953e-002 -3.13768834e-001 -3.77703100e-001 1.22711599e-001
      1.69896469e-001 -4.22174454e-001 3.67897213e-001 -3.37049016e-003
      5.48047572e-002 1.13262236e-001 4.64735210e-001 8.91618729e-002
      4.64992858e-002 -2.08380684e-001 -1.14103198e-001 1.02573566e-001
      8.09131712e-002 2.08781194e-002 -4.60563824e-002 5.89238666e-002
      1.46513775e-001 4.69272166e-001 8.99912119e-002 -1.07943090e-002
      1.92768842e-001 2.95245409e-001 1.27458259e-001 1.99926749e-001
      -4.52340364e-001 2.79643126e-002 3.21897537e-001 3.63703847e-001
      8.08743164e-002 2.27201376e-002 -3.74544382e-001 -7.84477666e-002
      1.14818197e-002 -4.10865515e-001 -1.67928264e-002 1.63717195e-001
      3.34209591e-001 1.50545046e-001 2.92069495e-001 -1.54556274e-001
      -4.62579951e-002 9.26725194e-002 1.84453875e-002 -1.01730086e-001
      2.42686644e-002 2.63150223e-002 -4.63786237e-002 -1.60314851e-002
      -3.28014106e-001 5.53369150e-002 2.26474702e-001 3.49361062e-001
      9.15508941e-002 6.16641566e-002 2.05001518e-001 1.59209400e-001
      -5.29326573e-002 -2.47212380e-001 4.16710436e-001 5.10015339e-002
      -3.18164438e-001 -5.91461919e-002 -2.91596413e-001
      -7.62934089e-002 -1.33280709e-001 -5.58747305e-003 9.94199216e-002
      2.99179733e-001 2.47172430e-001 -2.49968275e-001 1.35803655e-001
      -4.34827685e-001 -6.60895079e-004 1.57058388e-001 -1.46395847e-001
      -5.40640503e-002 3.70407552e-001 1.01227291e-001 8.12596902e-002
      6.21943362e-003 -1.47504630e-002 -2.57076640e-002 -1.74080059e-001
      -5.48256449e-002 -2.60927439e-001 3.42219286e-002 6.39627948e-002
      5.67741990e-001 -7.11061293e-003 1.04468232e-002 5.33051372e-001
      1.65922627e-001 -8.39930400e-002 -1.24821782e-001 -9.24428254e-002
      -9.61524025e-002 -7.46346474e-001 -1.02692693e-001
      -1.30294874e-001 -3.72942716e-001 1.15836300e-001 -2.50141680e-001
      -1.97773889e-001 5.35043404e-002 5.24362683e-001 -7.51823127e-001
      3.32658321e-001 2.80396372e-001 -1.03942826e-001 -9.70218405e-002
      1.39400601e-001 -3.72205168e-001 1.40402809e-001 -8.77670478e-003
      3.37691844e-001 -7.33821467e-002 3.30154784e-002 2.98772454e-001
      2.61081576e-001 -5.58057249e-001 2.69142892e-002 -2.59920180e-001
      1.04628846e-001 -2.81451531e-002 -5.69649972e-002 1.07262954e-001
      -3.90587419e-001 7.13948607e-002 -1.82596609e-001 -2.19262674e-001
      -2.24879950e-001 -2.21250117e-001 -6.32203758e-001 1.06347896e-001
      -1.68164119e-001 7.30970595e-003 3.41606021e-001 2.60682970e-001
      -2.37824902e-001 -1.80693582e-001 6.88355565e-001 -3.47501129e-001
      4.72735465e-001 7.10121095e-002 -3.37383658e-001 5.78315742e-002
      -4.76768970e-001 3.71869355e-001 1.43080935e-004 -1.23117059e-001
      9.53620672e-002 -4.89251494e-001 3.64078693e-002 -3.78890902e-001
      4.98052776e-001 5.70233278e-002 -4.98168886e-001 -2.41367385e-001
      2.10876122e-001 -4.39554490e-002 6.38355687e-002 4.95427065e-002
      -1.65096354e-002 1.10556357e-001 4.25112158e-001 1.11737065e-001
      -3.92580405e-002 5.94765902e-001 -4.25922245e-001 -1.68392345e-001
      1.95743203e-001 2.21164599e-001 -7.19597787e-002 3.55787992e-001
      2.73081306e-002 1.38382435e-001 6.92040920e-001 -4.49535698e-001
      3.37918490e-001 -8.66831988e-002 4.23866034e-001 1.53695330e-001
      1.66797683e-001 1.06866166e-001 -4.08744872e-001 -3.13170940e-001
      3.38922739e-001 -4.25231278e-001 1.25717998e-001 1.50435716e-001
      -1.86042801e-001 3.16640615e-001 -8.10697079e-002 -1.83893234e-001
      -3.14035378e-002 1.28726825e-001 1.83921680e-001 1.62742704e-001
      -1.24319844e-001 -3.08800250e-001 3.88926119e-001 -2.23816589e-001
      -1.97026640e-001 2.93921053e-001 -4.30252433e-001 -1.58057243e-001
      -4.04586703e-001 4.11149472e-001 -2.19999719e-002 5.56660235e-001
      5.87100200e-002 -3.32810283e-002 4.19209421e-001 -3.65469098e-001
      6.91598952e-001 6.27877116e-002 -1.10585719e-001 -1.11269094e-001
      8.04695189e-002 -5.01335859e-001 -4.70827878e-001 -1.53582737e-001
      2.38022562e-002 1.38578922e-001 -4.24954109e-002 1.01383492e-001
      -1.39668226e-001 6.52892366e-002 -2.37200484e-001 1.65360183e-001
      9.32772681e-002 -2.00405598e-001 -2.05443665e-001 -1.69722602e-001
      1.77087650e-001 -2.90018290e-001 3.85578454e-001 -1.61237657e-001
      -4.52095360e-001 -2.92406350e-001 -6.35393262e-001 3.27739000e-001
      -8.48808214e-002 -1.46835446e-001 5.00441611e-001 2.67561674e-001
      -3.07550371e-001 -3.77321720e-001 3.76759738e-001 -3.23482990e-001
      6.57330394e-001 -2.43880823e-002 1.45862609e-001 2.32767314e-001
      5.16434550e-001 -1.25040531e-001 -6.10112429e-001 -3.98910463e-001
      1.63397104e-001 -5.59979416e-002 -4.92510617e-001 -3.93356718e-002
      -4.36810777e-002 -2.40027830e-002 -1.31976157e-002
      -4.14621979e-002 5.08648232e-002 4.14511234e-001 -1.02797702e-001
      -3.56342554e-001 -2.24998128e-002 -4.76554990e-001 7.44020864e-002
      -3.02672923e-001 9.81998444e-003 -2.96556443e-001 -2.46809095e-001
      -1.90160736e-001 -1.83281556e-001 -3.05551648e-001 4.48514484e-002
      2.59115994e-001 -2.81921029e-001 3.03872466e-001 5.14681935e-001
      -1.38295833e-002 7.58258164e-001 1.84238449e-001 -2.58317471e-001
      -4.16408740e-002 3.15586746e-001 -1.76192671e-001 7.52838850e-002
      -2.41998687e-001 1.75599843e-001 -5.73363543e-001 -5.53919852e-001
      2.76340485e-001 1.70731004e-002 -8.15929174e-002 1.31123379e-001
      2.35779345e-001 -2.06739932e-001 1.13750108e-001 -2.74542831e-002
      3.93349200e-001 1.32463634e-001 -1.10907480e-001 6.05187595e-001
      -3.58217478e-001 -9.16989669e-002 -8.17529783e-002
      -2.94923156e-001 1.69262946e-001 -7.08984062e-002 -4.75880653e-001
      5.42886615e-001 -2.22381800e-001 -6.87307864e-002 1.06556809e+000
      9.56832319e-002 2.01897383e-001 2.43654281e-001 7.72397891e-002
      9.21005011e-003 2.00689197e-001 -1.30051956e-001 7.61272684e-002
      1.14551239e-001 -5.12273669e-001 4.28988665e-001 7.87811279e-002
      -2.48093933e-001 -1.50974140e-001 1.11847334e-001 -1.16320476e-001
      8.72233231e-003 4.81484458e-003 6.01214415e-004 1.19373485e-001
      -2.48831622e-002 9.70664173e-002 -5.11890054e-001 -1.83407038e-001
      3.81070167e-001 3.33223820e-001 1.08449087e-001 -6.00878000e-001
      8.80545676e-002 -1.19839974e-001 3.86509866e-001 3.29765677e-001
      2.26188134e-002 2.39214465e-001 2.51773506e-001 2.72645392e-002
      2.05083594e-001 1.28966346e-001 2.04855427e-001 4.36253190e-001
      -2.24388480e-001 -4.22897667e-001 -1.71178848e-001
      -1.60863057e-001 5.15327416e-002 1.86723664e-001 2.17143178e-001
      1.16421849e-001 1.98499843e-001 2.68064160e-002 1.15002632e-001
      -1.46018356e-001 1.86603308e-001 -1.80571020e-001 2.37110704e-001
      5.56337275e-002 -1.16744049e-001 -6.42975885e-003 -4.58494991e-001
      -4.17154515e-003 2.79849768e-001 2.98009664e-001 -2.33830996e-002
      -1.04026593e-001 2.79285461e-002 1.04256980e-001 3.30144942e-001
      6.66716695e-002 -9.40031335e-002 -2.92533606e-001 -2.48871744e-002
      1.79874450e-001 -2.15144098e-001 -2.07367055e-002 -1.54610619e-001
      5.88234067e-002 1.45500585e-001 -1.42886430e-001 4.17870998e-001
      2.32879877e-001 2.43225127e-001 9.41213369e-002 3.81458372e-001
      4.17770669e-002 7.87317529e-002 1.75671101e-001 1.62542850e-001
      -5.37074804e-001 7.56588876e-002 2.83961575e-002 -1.59899652e-001
      -1.69118986e-001 -1.50197878e-001 -1.12980135e-001
      -8.94589499e-002 -3.62562090e-001 1.38785079e-001 -1.40835136e-001
      8.22823942e-002 -1.65012330e-001 -2.76440263e-001 2.08567027e-002
      -1.12577669e-001 2.27927521e-001 1.45688623e-001 -2.82768339e-001
      9.02768821e-002 -2.38498509e-001 -1.89756006e-001 -4.07219678e-001
      -2.21354693e-001 -2.04493642e-001 -6.60776719e-002
      -2.40092412e-001 5.67579746e-001 2.45270714e-001 1.18719816e-001
      -1.86246768e-001 1.73873410e-001 1.84648544e-001 1.32425696e-001
      1.13612674e-001 3.27545822e-001 -4.07532491e-002 -1.83838382e-001
      1.22524872e-002 -2.25805968e-001 -2.48233140e-001 4.27370518e-002
      4.60234210e-002 1.50791243e-001 -1.06890842e-001 3.57094519e-002
      4.24094386e-002 1.19027287e-001 -6.92357719e-002 -4.66341935e-002
      2.90792435e-001 -2.32062653e-001 1.78040564e-002 1.55667409e-001
      -5.98717146e-002 1.10655330e-001 -4.29024585e-002 -1.33199811e-001
      2.51786336e-002 -3.68710428e-001 -6.80176973e-001 -2.48055886e-002
      -5.25978319e-002 2.59241015e-001 -1.34348065e-001 -7.43001327e-002
      2.77545899e-001 1.83740407e-001 -7.09463134e-002 2.50465646e-002
      2.52840668e-001 1.77993864e-001 2.50783741e-001 -2.72716880e-001
      -6.75992668e-002 -2.17117727e-001 1.57777905e-001 -5.47540262e-002
      3.10131162e-001 2.18514860e-001 1.35189295e-001 1.94011480e-001
      1.24725461e-001 -2.06477344e-001 -4.06590670e-001 7.61954114e-002
      1.77642837e-001 -2.14462474e-001 -2.48207480e-001 -1.19082354e-001
      -4.79982138e-001 3.06142688e-001 -2.19823271e-001 1.31762281e-001
      -2.42758486e-002 9.63587128e-003 -3.14517081e-001 9.36985612e-002
      8.58515948e-002 -1.27195999e-001 -1.41183399e-002 1.71006933e-001
      -3.96485552e-002 1.08677968e-001 -2.57983118e-001 2.01698706e-001
      -1.29051402e-001 9.49914306e-002 -2.95262218e-001 -7.85901919e-002
      -2.22682655e-001 -2.54974305e-003 -1.84805706e-001
      -4.02583063e-001 -1.41552746e-001 1.83493093e-001 6.08821660e-002
      -3.04659098e-001 -3.74911143e-003 -2.93610483e-001
      -2.99723089e-001 7.94824287e-002 6.85286745e-002 -2.77477413e-001
      -3.62638742e-001 -1.99459955e-001 -9.51688066e-002
      -2.04667538e-001 -2.62061775e-001 1.77761063e-001 -3.49185735e-001
      -2.63400346e-001 -2.32899025e-001 -3.78263056e-001 6.52717710e-001
      -3.28493237e-001 -7.42178932e-002 -2.23842084e-001 5.23059350e-003
      -2.46701628e-001 -1.63334891e-001 -1.84078157e-001 1.82195559e-001
      4.61058378e-001 7.23854303e-002 -3.35496336e-001 -3.37499559e-001
      2.81180084e-001 -3.34908187e-001 -9.12910998e-002 9.73187834e-002
      1.65437058e-001 5.13910353e-001 -1.83017105e-001 1.80573404e-001
      -2.05235377e-001 -1.74973235e-001 1.89844564e-001 3.41521688e-002
      2.87668377e-001 -4.39558357e-001 7.68368244e-002 1.89514384e-001
      -2.22433895e-001 -1.95020005e-001 -1.76395729e-001
      -1.17573880e-001 5.60768358e-002 -3.34637791e-001 -2.48054832e-001
      -9.60700959e-002 2.93899029e-001 1.55462036e-002 -2.59327859e-001
      3.27317625e-001 7.18121082e-002 -4.17797059e-001 -6.30887896e-002
      -1.13331132e-001 1.43939719e-001 3.94103855e-001 -2.36291841e-001
      -1.05953068e-001 9.77919623e-002 -4.68635589e-001 3.57766569e-001
      3.36842269e-001 4.54456091e-001 -2.46283993e-001 3.36135685e-001
      6.24968708e-002 -1.44941613e-001 2.07148522e-001 4.01478916e-001
      -9.49073210e-002 -3.29448372e-001 -4.25817937e-001
      -1.79022104e-001 3.55331451e-001 4.41069514e-001 2.12507188e-001
      2.97156662e-001 3.24026346e-001 -7.56451115e-002 -1.15986459e-001
      1.23076729e-001 -1.10974357e-001 2.34877795e-001 -1.02831677e-001
      -6.26660407e-001 1.70671195e-002 4.37462986e-001 -2.47084513e-001
      5.01073822e-002 4.82070625e-001 3.41928422e-001 -1.39233887e-001
      -1.97811529e-001 1.34210557e-001 1.03790745e-001 -2.52038181e-001
      -9.56466049e-002 7.32629955e-001 5.07719278e-001 -1.39446944e-001
      2.20783621e-001 1.04761355e-001 7.02657998e-002 -3.72227980e-003
      -2.39771083e-002 -3.19855809e-002 -4.04287040e-001
      -2.31353834e-001 -2.61629134e-001 9.79765728e-002 2.44352385e-001
      1.83471426e-001 4.28137556e-002 2.01936234e-002 2.02032715e-001
      -2.19205499e-001 7.92026520e-002 1.54685870e-001 2.04978898e-001
      -5.36614358e-001 -1.92872614e-001 -3.44155282e-001 1.89596847e-001
      -5.69482855e-002 -1.39559120e-001 2.30687037e-001 -1.11693203e-001
      -2.91134894e-001 1.00806311e-001 1.86988682e-001 2.19449848e-002
      1.27132624e-001 -5.06173037e-002 6.07601367e-002 -1.60625666e-001
      5.25001474e-002 3.06336582e-001 -1.29691437e-001 -7.17424154e-002
      -3.84470105e-001 5.36853671e-001 2.39716128e-001 1.00620806e-001
      -9.18918699e-002 -1.58217981e-001 5.23209453e-001 -1.68454975e-001
      -1.31880134e-001 2.57880926e-001 4.74485159e-001 -3.46861929e-002
      1.06360734e-001 -2.34651297e-001 -5.51222637e-002 1.60805851e-001
      -2.51756638e-001 -2.39607468e-001 -3.38252068e-001
      -9.51549634e-002 -7.72444904e-002 -1.21650249e-001 1.75872594e-001
      1.62893921e-001 4.69373763e-001 -6.00184977e-001 1.38624638e-001
      2.51304030e-001 2.56436557e-001 3.72318387e-001 1.01713212e-002
      -1.14256628e-001 -3.38037685e-002 4.20738637e-001 -1.56478196e-001
      1.80160552e-001 -3.04261863e-001 3.90096307e-001 -4.57194634e-002
      5.02648316e-002 -1.01148464e-001 1.91819280e-001 -3.84082586e-001
      -6.17733955e-001 1.10209681e-001 3.70948881e-001 4.35115546e-001
      2.49957711e-001 2.91633550e-002 -3.38715203e-002 -3.63390386e-001
      4.01542038e-001 1.18180431e-001 -1.41355559e-001 -4.19426173e-001
      1.97080761e-001 9.63546336e-002 -3.24426174e-001 8.67306143e-002
      2.17309043e-001 -2.35466212e-001 -3.06643337e-001 9.95640010e-002
      1.30186304e-001 1.07060216e-001 -2.34681815e-002 3.20688486e-001
      -7.26338401e-002 -3.46802294e-001 1.70393407e-001 -2.89199740e-001
      -4.56796885e-002 -6.09679580e-001 1.24675021e-001 -5.73111594e-001
      -4.24379259e-002 -1.44471690e-001 1.94289476e-001 1.29804835e-001
      2.00231418e-001 1.73825771e-001 8.79691914e-002 -2.31453598e-001
      -4.83878553e-002 -4.17841673e-002 -8.37363154e-002 2.23678965e-002
      1.99527025e-001 -1.87392145e-001 3.77131701e-001 -4.87996221e-001
      7.04937458e-001 -1.47099808e-001 -2.32705906e-001 -2.46839989e-002
      1.40035450e-001 -1.12538934e-001 -9.72763225e-002 2.75243223e-001
      3.05054992e-001 1.59832180e-001 5.68890423e-002 8.23575482e-002
      -1.15556479e-001 3.01769376e-001 1.30567014e-001 5.78581631e-001
      -5.22856489e-002 2.56758090e-002 2.88704842e-001 -3.26608419e-001
      -1.34998724e-001 1.19969673e-001 -8.26477930e-002 -2.85641760e-001
      3.01854722e-002 -2.03514919e-001 1.91114724e-001 1.70061156e-001
      -2.26674020e-001 -2.65006442e-002 1.24510638e-001 -6.24796785e-002
      7.51741529e-002 2.20002204e-001 -1.40446037e-001 1.57172754e-001
      1.36082307e-001 1.81440368e-001 1.15826368e-001 6.39088750e-002
      -3.79210055e-001 -5.03448658e-002 -2.26003885e-001 1.10751539e-001
      -2.82452136e-001 -2.63907522e-001 -4.62231506e-003 2.75369495e-001
      -1.73635140e-001 8.17583278e-002 2.83829093e-001 3.03115785e-001
      -3.47247213e-001 -1.05381869e-001 1.47247896e-001 2.75923640e-001
      9.32067931e-002 3.67047131e-001 2.91100800e-001 -2.32241124e-001
      3.44982356e-001 -1.98840246e-001 1.13812245e-001 2.88277417e-001
      -8.74809027e-002 -1.46076337e-001 -1.74331293e-001
      -2.96118140e-001 2.41564721e-001 -9.63884220e-002 -2.78978385e-002
      -1.96003243e-002 1.45613819e-001 -4.22293693e-002 -4.37932312e-002
      2.57435814e-002 7.83913434e-002 -1.23173863e-001 -3.54867101e-001
      -1.65238395e-001 9.30664763e-002 -1.67143032e-001 2.47442901e-001
      2.27561429e-001 2.26069301e-001 -2.58353621e-001 3.53547484e-001
      7.81302080e-002 1.95227742e-001 -1.52384073e-001 6.06154874e-002
      -9.74580869e-002 -1.93962991e-001 1.07325695e-001 -1.06253959e-001
      1.10946335e-001 -1.29146529e-002 1.32209376e-001 3.10601294e-001
      4.28620391e-002 -1.72559753e-001 -2.88981527e-001 9.20524225e-002
      -2.47227788e-001 1.03800207e-001 1.37154967e-001 -2.85953693e-002
      2.16405783e-002 -1.66849807e-001 -1.11480892e-001 2.06461444e-001
      -7.84765631e-002 3.40576796e-003 2.22702459e-001 -1.69648930e-001
      -8.83305445e-002 -9.66020972e-002 4.45992453e-004 4.21208799e-001
      4.37201083e-001 5.31676829e-001 1.61551759e-001 -1.73480004e-001
      -1.79599985e-001 -1.95002586e-001 1.48357913e-001 -2.03374907e-001
      1.22668825e-001 -3.52445185e-001 -3.19578350e-001 -1.25690103e-001
      -7.09793493e-002 -9.56766598e-004 -1.02848068e-001 1.19305113e-002
      3.05428617e-002 3.57139409e-002 6.37644529e-002 2.38564283e-001
      -1.28222048e-001 -1.06530055e-001 3.23997028e-002 1.88240841e-001
      3.70584548e-001 7.20731765e-002 2.51722597e-002 5.32033965e-002
      -1.80979267e-001 7.29938820e-002 3.65977943e-001 1.36299446e-001
      4.31325972e-001 1.39777154e-001 2.07794011e-002 -1.76525041e-002
      -1.59027278e-002 2.08906636e-001 1.59484940e-003 -1.45747691e-001
      -1.34739175e-001 -1.12617038e-001 -2.05724910e-001 5.69851361e-002
      1.04594631e-002 -2.85882235e-001 -6.55869186e-001 -3.84163409e-001
      2.62374859e-002 -2.19536364e-001 -4.22861248e-001 -1.48350924e-001
      -7.50424415e-002 5.88558950e-002 -3.46014947e-001 -1.04983836e-001
      2.84492761e-001 -2.11919788e-002 -4.02664334e-001 6.24221936e-002
      3.13172519e-001 -4.81048584e-001 -2.02288598e-001 -4.82925475e-002
      7.31254742e-002 -2.88406640e-001 7.44271427e-002 -1.60946324e-001
      -5.71500957e-002 -1.60171445e-002 -6.52099699e-002
      -1.46298021e-001 2.83266306e-001 -1.37351438e-001 -4.22611907e-002
      -4.75500375e-001 -1.42084256e-001 -4.67864454e-001
      -6.95365146e-002 -1.66457161e-001 -1.95807368e-001 1.41815007e-001
      -4.51916873e-001 3.55393738e-001 -1.98936425e-002 -2.21305519e-001
      -3.47438365e-001 1.76323190e-001 -1.67746380e-001 4.05310720e-001
      4.86909039e-002 -3.94284576e-001 1.91558763e-001 -4.63313200e-002
      2.18255982e-001 1.99016440e-003 2.00237513e-001 -5.77737838e-002
      -4.44337994e-001 -2.33560607e-001 -1.92707345e-001 8.21284056e-002
      2.00519651e-001 1.64632760e-002 -5.16947657e-002 -1.24292918e-001
      -1.44839987e-001 2.71418512e-001 2.65420407e-001 -5.01270592e-002
      1.17542863e-001 6.43934384e-002 -1.95773169e-002 -2.67481863e-001
      -1.26137972e-001 -3.04012656e-001 -1.30913481e-001
      -3.53234172e-001 -4.41129476e-001 -1.59303084e-001
      -3.92080210e-002 -3.22056025e-001 -1.79144993e-001 1.30950689e-001
      -3.36827010e-001 6.68178424e-002 -3.85913588e-002 9.24445987e-002
      -1.66066810e-001 1.49041107e-002 5.07702194e-002 -8.02803710e-002
      2.20264450e-001 -1.54234782e-001 -4.25630718e-001 -1.01224951e-001
      -2.16558948e-001 3.32905143e-001 5.67344427e-001 -3.13410573e-002
      1.87085494e-002 3.69453251e-001 -3.39283980e-002 2.65303105e-001
      -2.60589391e-001 -1.44243121e-001 1.90416053e-001 -8.21696818e-002
      -1.67682469e-002 8.27227347e-003 -2.66813219e-001 4.71049339e-001
      -3.16046923e-001 -1.48415551e-001 -3.00168306e-001
      -5.33915795e-002 3.08465540e-001 -6.55890703e-002 4.81793702e-001
      2.81867802e-001 1.29040509e-001 3.03962477e-003 -2.43104786e-001
      1.23320827e-002 1.74068972e-001 6.75227493e-002 -4.50150609e-001
      -2.51154974e-002 -1.74391747e-001 3.44629198e-001 8.52777809e-003
      9.95446518e-002 -8.29482228e-002 1.81248859e-002 2.29717985e-001
      -1.39572069e-001 3.45922530e-001 4.75966573e-001 3.31758380e-001
      2.39516139e-001 -7.68398792e-002 3.92923176e-001 1.47246122e-001
      2.03170061e-001 -4.20773804e-001 -4.35372218e-002 -3.15394312e-001
      8.04974064e-002 -1.64833233e-001 -5.15608907e-001 1.13938905e-001
      -4.46670562e-001 1.29632980e-001 1.04720451e-001 3.60375613e-001
      1.14361957e-001 -3.75718833e-003 3.77171487e-001 -1.12531386e-001
      9.67065841e-002 -1.80955939e-002 1.06489226e-001 -4.63864416e-001
      -1.22797735e-001 5.74774370e-002 5.25350451e-001 1.86073914e-001
      2.68312842e-002 3.92968029e-001 -2.82481611e-001 4.01166946e-001
      -3.00272018e-001 3.03103387e-001 2.98982710e-001 1.05583720e-001
      2.50134945e-001 -1.90787837e-001 -1.10110007e-002 3.68901677e-002
      -8.45357329e-002 -1.65739164e-001 1.35127380e-001 -2.53299236e-001
      -3.12017482e-002 -3.17510933e-001 -2.10816756e-001
      -1.65884316e-001 7.43861124e-002 3.03585142e-001 -3.86785924e-001
      4.97289002e-001 -3.56715848e-003 -3.13203394e-001 1.46255538e-001
      -1.33641122e-004 2.17007436e-002 1.26758531e-001 1.52992368e-001
      -4.03763771e-001 -6.08142540e-002 -2.62449652e-001 3.09668094e-001
      -5.70000224e-002 -5.46241403e-001 4.64422584e-001 1.94989339e-001
      -1.25432745e-001 -2.51325816e-001 4.55156267e-001 1.88442573e-001
      2.19620571e-001 -1.31269887e-001 -2.01398566e-001 -2.94571638e-001
      -3.99058402e-001 4.10771459e-001 7.79039115e-002 -7.16416538e-002
      -5.08335173e-001 -1.43287912e-001 -5.24016798e-001
      -3.16006392e-001 2.64761508e-001 1.36331543e-001 -1.57969426e-002
      -7.54874796e-002 4.59534861e-002 3.25698912e-001 1.72527879e-001
      4.08411503e-001 6.71270713e-002 9.48682874e-002 -4.18196432e-003
      2.51282007e-001 2.91403960e-002 2.90229082e-001 -2.77196378e-001
      3.43069024e-002 -1.62279800e-001 -1.10093221e-001 -2.17779689e-002
      2.53120124e-001 -3.34998161e-001 -8.52624923e-002 1.14985108e-001
      1.46768093e-001 2.65537994e-003 3.73593092e-001 3.72725129e-001
      1.72266662e-001 -3.21030021e-001 2.76100963e-001 -2.60383695e-001
      -3.62076938e-001 -3.29274595e-001 -5.57850860e-002
      -2.87668556e-001 1.59579813e-001 -2.20514864e-001 -1.12119719e-001
      -2.50247419e-001 -1.73036739e-001 2.96312254e-002 3.04188758e-001
      -1.13287173e-001 -1.59860626e-001 6.62504956e-002 2.60711201e-002
      9.19806510e-002 3.44598264e-001 2.46238366e-001 -1.80112571e-001
      -4.42338824e-001 1.11388592e-002 -4.99608694e-004 -1.43381521e-001
      2.70893201e-002 4.43982519e-002 2.52296805e-001 -1.14449851e-001
      3.93647075e-001 -9.62076783e-002 -5.38643897e-002 -3.09909821e-001
      6.24766052e-001 2.93853641e-001 7.01930150e-002 -6.40737042e-002
      2.14244530e-001 -3.95453662e-001 -2.39781775e-002 1.02012731e-001
      -4.77592349e-002 -6.80545345e-002 3.35343450e-001 -2.14634553e-001
      -8.47268552e-002 1.01788804e-001 3.93376201e-001 5.25974691e-001
      -1.67085566e-002 -4.40209121e-001 5.49942441e-002 -3.15861069e-002
      2.19698638e-001 1.74691007e-001 -8.26261193e-002 5.34052141e-002
      -9.24084485e-002 -1.25831217e-001 6.54858574e-002 4.62180562e-003
      4.07305807e-001 -1.19457684e-001 -4.44132060e-001 1.28693255e-002
      2.73343801e-001 4.33961630e-001 -2.26273552e-001 -2.08817661e-001
      -5.91956219e-003 1.15815409e-001 -1.44983500e-001 1.76169813e-001
      9.19282585e-002 -3.87613922e-002 3.01193118e-001 1.09209917e-001
      1.65532827e-001 -3.60920221e-001 6.66479766e-002 -1.75938103e-002
      2.62592912e-001 1.58618197e-001 -1.03904903e-001 2.81419694e-001
      -6.07228838e-002 2.61979550e-001 1.01884445e-002 2.37891868e-001
      -4.07692313e-001 1.47274882e-001 3.79165560e-001 -9.28740427e-002
      5.81611581e-002 -2.15491399e-001 1.96713716e-001 -2.78978109e-001
      -3.49936187e-001 -2.00843096e-001 -7.18764588e-002 5.33294082e-002
      -1.48792937e-001 -5.47178742e-003 2.13638484e-001 -4.38820153e-001
      -3.87830846e-002 1.30268022e-001 -3.64982873e-001 1.37537122e-001
      3.03388894e-001 -4.81034145e-002 -2.23564506e-001 1.62263766e-001
      -2.49880493e-001 -6.90554738e-001 -2.28761569e-001
      -2.98951387e-001 7.53119960e-002 -1.84248507e-001 -1.75570339e-001
      1.42506152e-001 1.52333930e-001 -7.90366903e-002 1.39574662e-001
      1.32381409e-001 2.61839837e-001 -2.18996406e-003 1.47269040e-001
      3.60700674e-002 4.71879840e-002 1.27545949e-002 5.13975620e-002
      -1.52889490e-001 8.93144519e-004 -1.07108332e-001 1.87478364e-001
      -4.58000720e-001 -1.26703396e-001 9.73461494e-002 -2.75804698e-002
      -1.03753649e-001 4.94328469e-001 2.64114052e-001 -1.02476366e-001
      -3.53862017e-001 -1.99870348e-001 5.85864298e-003 -1.92916706e-001
      -9.12860930e-002 -3.67189556e-001 -2.43941247e-001
      -5.68081476e-002 -3.67637910e-002 -1.35802895e-001
      -4.11170237e-002 -4.54539508e-001 -2.23329246e-001 4.13300283e-003
      -1.18742399e-001 -2.00547099e-001 -2.34695211e-001
      -5.16313463e-002 -2.37168029e-001 3.59156691e-002 4.37129065e-002
      7.95643684e-003 -5.54910600e-001 -1.67791575e-001 -3.59906614e-001
      2.40827724e-002 -7.04294220e-002 1.08196355e-001 2.95265436e-001
      -2.60631770e-001 -3.53229702e-001 -1.31157085e-001
      -1.75783128e-001 -1.79276288e-001 4.62524772e-001 -1.88297406e-001
      -3.76471817e-001 -5.49665511e-001 -3.52419525e-001
      -1.37589067e-001 -5.55533886e-001 -9.11026895e-002
      -4.08681244e-001 -4.10817653e-001 -5.83848394e-002
      -6.02276213e-002 -2.29804173e-001 -1.52510375e-001
      -4.14191127e-001 -1.49092693e-002 -1.82588845e-001
      -1.42928392e-001 -5.45933992e-002 -4.20974582e-001 1.09356113e-001
      -6.74035922e-002 -1.73333824e-001 -3.02802753e-002 8.01468492e-002
      -9.91286710e-002 -6.27319813e-002 1.54326379e-001 -6.27484992e-002
      3.98793891e-002 -3.08523010e-002 -2.19296515e-001 -4.38691884e-001
      -2.81936139e-001 3.55612114e-002 -2.85408884e-001 1.02232121e-001
      -6.26852065e-002 -9.81747210e-002 -8.59479606e-002
      -6.34230793e-001 -1.05710991e-001 -3.47923696e-001
      -4.34948474e-001 -5.35009980e-001 -6.75694704e-001
      -6.77501261e-002 7.11627901e-002 8.84679705e-002 -2.79398024e-001
      -3.69341999e-001 -3.58674467e-001 1.82482228e-001 -3.51937190e-002
      9.88398045e-002 2.82372594e-001 -4.70263183e-001 -6.90522939e-002
      -3.66892308e-001 -1.20968275e-001 -3.04495782e-001
      -1.67813942e-001 -3.07646573e-001 -1.06115006e-001
      -2.89424270e-001 1.91569626e-001 9.72934067e-002 -3.03047448e-001
      -3.63013968e-002 -5.10067046e-001 3.58711220e-002 -1.56959593e-001
      3.06271650e-002 -1.64033115e-001 -3.25625598e-001 -2.49647588e-001
      -2.25065306e-001 -2.50077397e-001 -2.51553237e-001
      -3.74392331e-001 -2.08106220e-001 -2.58300006e-001
      -2.40901217e-001 2.44450748e-001 -3.02184761e-001 -4.69063744e-002
      1.08904406e-001 -1.37202650e-001 5.17816236e-003 -1.05155438e-001
      1.41769662e-001 -1.27358204e-002 1.89384446e-001 1.28788382e-001
      -2.94973880e-001 3.18959206e-001 -2.58482128e-001 2.15182886e-001
      -2.95235336e-001 -6.43127263e-002 -2.93417752e-001 1.89035580e-001
      3.23229462e-001 2.63271391e-001 1.08205006e-001 -3.41086686e-001
      4.01679337e-001 2.20674232e-001 9.02491733e-002 9.84726176e-002
      1.97004408e-001 -1.68142676e-001 -1.54319152e-001 -1.04939878e-001
      2.40345255e-001 -4.70175505e-001 -9.13770422e-002 -6.01592660e-002
      -3.64355654e-001 -1.29249707e-001 6.19563740e-004 1.94661900e-001
      -6.41360879e-002 -3.65242735e-002 -6.93969876e-002 2.25733202e-002
      2.84915268e-001 -1.60697594e-001 7.16613159e-002 -1.72830746e-002
      -6.00553043e-002 -9.62154865e-002 5.12438715e-001 -4.21277672e-001
      2.01221891e-002 -9.04589798e-003 4.17967048e-003 7.00516701e-002
      1.40956745e-001 4.94494438e-001 5.90730235e-002 6.24233447e-002
      -1.44190202e-002 6.32676005e-001 -4.35893387e-002 -2.87067324e-001
      4.28041995e-001 1.31778210e-001 -2.31695816e-001 -2.03524724e-001
      3.10865402e-001 -2.63036609e-001 -1.90767825e-001 -6.85491338e-002
      -3.31988156e-001 6.01157188e-001 2.02357188e-001 4.26426679e-002
      1.45527363e-001 4.31040198e-001 5.03775001e-001 -2.02930182e-001
      2.79733747e-001 -1.38226807e-001 7.21013471e-002 1.32471219e-001
      3.12514096e-001 -1.33281559e-001 1.55702442e-001 -1.59386292e-001
      6.45595044e-002 5.53321578e-002 -1.98348492e-001 1.18309304e-001
      1.56402588e-001 5.35313599e-002 2.55900145e-001 3.02941769e-001
      2.87324220e-001 3.09517741e-001 5.04813679e-002 -1.14367850e-001
      2.97286540e-001 -2.43877321e-001 -5.85771620e-001 -5.78443646e-001
      1.65067047e-001 3.82968895e-002 -4.53607291e-001 -1.35302499e-001
      -1.55760825e-001 1.67048305e-001 -1.61974072e-001 -5.65819964e-002
      2.42292017e-001 1.30220443e-001 3.33828419e-001 -3.17428261e-002
      1.40005171e-001 -4.75719243e-001 -1.29662752e-001 3.18305008e-002
      2.37289578e-001 -4.62844312e-001 1.89942211e-001 4.24275361e-002
      -6.00075424e-002 1.77706674e-001 1.84049338e-001 2.09397346e-001
      -1.40769288e-001 4.90147084e-001 1.42939866e-001 -3.03195804e-001
      -1.73340052e-001 -3.00088048e-001 9.41169355e-003 -2.14831635e-001
      9.29173976e-002 -2.53353864e-001 -1.51739120e-002 -4.56770323e-002
      3.53467137e-001 -2.22283214e-001 1.39133289e-001 1.94234382e-002
      -5.05775549e-002 -2.40649119e-001 -2.93925971e-001 9.05202776e-002
      1.48769245e-001 6.07536510e-002 -1.53018504e-001 5.22873402e-001
      7.11898506e-002 3.90932597e-002 2.14547142e-001 2.08054900e-001
      1.87891766e-001 -1.51798785e-001 2.48283744e-001 -1.48827076e-001
      -5.43080688e-001 4.77645487e-001 1.52715415e-001 -1.32444441e-001
      1.49695486e-001 1.76991940e-001 3.39682810e-002 1.48992121e-001
      1.26406670e-001 4.14813668e-001 1.69203863e-001 -1.28444463e-001
      3.34008127e-001 9.51110274e-002 -2.42798030e-001 -1.05125114e-001
      2.31419802e-001 -2.41167054e-001 1.61289573e-002 -3.34319621e-001
      2.52505928e-001 9.34308581e-003 3.05144358e-002 4.98936653e-001
      4.87587959e-001 -2.96219915e-001 5.44403717e-002 2.44469747e-001
      4.37793523e-001 -5.99521957e-002 9.78230014e-002 -6.57599233e-003
      -1.39184251e-001 -4.56281960e-001 2.44177077e-002 -4.02853787e-001
      -1.51715413e-001 -1.54726148e-001 9.18883383e-002 9.86563563e-002
      1.78784624e-001 -5.94264828e-002 2.08546117e-001 4.01089996e-001
      -2.64366776e-001 2.96224296e-001 5.80526888e-001 -3.08127850e-001
      -7.76269985e-003 1.74601197e-001 -8.97825733e-002 6.02019671e-003
      -9.20350701e-002 -3.09159964e-001 1.98304877e-002 1.75611287e-001
      -1.53299227e-001 -3.42426240e-001 -3.04948360e-001 3.33035588e-001
      -4.35608625e-001 1.82544902e-001 -2.08380997e-001 4.23265755e-001
      1.22393645e-001 -6.91171661e-002 6.20837091e-003 1.07347287e-001
      -3.40116918e-002 -6.03351668e-002 -6.87992293e-003
      -1.43488526e-001 2.79432714e-001 7.35156313e-002 -1.44247442e-001
      -2.70275652e-001 -1.33536175e-001 -2.29431197e-001
      -1.28282785e-001 -2.04220675e-002 -1.58833355e-001 9.90666226e-002
      9.73027423e-002 -1.45157114e-001 -1.31683707e-001 5.36487475e-002
      -1.91164240e-001 -1.74453959e-001 -2.88850039e-001
      -2.55123258e-001 -2.53434815e-002 -2.14971036e-001 2.38157198e-001
      2.47864109e-002 4.38857637e-002 2.14038581e-001 8.37474540e-002
      1.28195405e-001 -2.93194860e-001 -1.32424727e-001 7.48374388e-002
      3.95526350e-001 -3.00731454e-002 -7.81426951e-002 -1.26713485e-001
      1.26642421e-001 7.64503404e-002 -2.19136223e-001 -1.56362474e-001
      -1.19531691e-001 -9.05114636e-002 1.19911179e-001 -1.69357955e-001
      9.74485502e-002 3.92174453e-001 4.34420398e-003 -2.22446665e-001
      -1.10909142e-001 2.67766595e-001 -3.36467683e-001 -1.28243074e-001
      -5.05701937e-002 -2.79286467e-002 -2.94195652e-001 4.36917186e-001
      -2.01653227e-001 -5.34932971e-001 -1.67035773e-001
      -2.86295209e-002 -2.38037035e-001 -4.34079841e-002 1.40772566e-001
      7.55730569e-002 2.64901463e-002 1.73478559e-001 3.61018211e-001
      6.14895582e-001 -2.33899951e-001 -1.01570478e-002 -3.80605996e-001
      -9.62365121e-002 -1.92177325e-001 -1.22582652e-001 3.56769338e-002
      -1.92750752e-001 -2.73105651e-001 1.80730537e-001 2.46108964e-001
      -6.25535399e-002 -3.42477947e-001 4.60004449e-001 3.12855572e-001
      -1.95329875e-001 7.52338246e-002 2.34043762e-001 1.28514454e-001
      -2.30593663e-002 -1.47789538e-001 -1.14236102e-001
      -1.44196525e-001 -1.35482982e-001 -2.94344425e-001
      -3.02145004e-001 1.98842198e-001 -3.94453807e-003 1.25641942e-001
      -7.19174594e-002 6.24452233e-002 -1.88739151e-001 3.29573154e-001
      6.30077198e-002 2.01659724e-001 6.17069602e-001 -2.77278811e-001
      2.08745345e-001 -2.92035341e-001 -1.36542931e-001 -1.93268731e-001
      -6.57795727e-001 -4.03691888e-001 -5.19768596e-001
      -4.97500211e-001 2.57910103e-001 2.78886616e-001 -1.12250566e-001
      2.86952764e-001 -3.81242298e-002 -1.13122158e-001 1.95004586e-002
      -1.50494039e-001 4.67501581e-001 1.45680368e-001 -2.44388655e-001
      -2.54952967e-001 -1.20585524e-001 -1.52593672e-001 2.50630617e-001
      -2.68209457e-001 -3.04041266e-001 -1.52120411e-001
      -1.82131335e-001 1.22248776e-001 -2.61253834e-001 4.39898036e-002
      -4.24495161e-001 -1.55699849e-001 -2.64376909e-001
      -3.08934033e-001 -1.05919562e-001 1.71086028e-001 -1.50058612e-001
      -4.69780341e-002 1.94813401e-001 -6.67108178e-001 2.62275916e-002
      -1.68476567e-001 1.71214625e-001 -3.11419338e-001 -2.88651586e-001
      2.48129532e-001 -1.90742627e-001 -3.41532707e-001 -3.77580971e-001
      -4.08685476e-001 2.64176093e-002 1.92922339e-001 1.85580894e-001
      -4.26096171e-002 -2.76134431e-001 -7.45631456e-002
      -4.90770757e-001 -2.31270790e-001 -7.92966932e-002
      -4.81882185e-001 -2.18878374e-001 5.26489355e-002 -5.56306876e-002
      2.15071186e-001 4.09272105e-001 -1.80718571e-001 -2.66598880e-001
      -1.65144011e-001 7.37019777e-002 2.01330245e-001 2.26624846e-001
      -1.09388091e-001 1.02064766e-001 9.27733853e-002 -3.20213050e-001
      -3.43068451e-001 -3.66066962e-001 -1.67978019e-003
      -2.37594187e-001 -3.11257392e-001 -1.08571887e-001 2.51197636e-001
      -1.61959946e-001 -5.70061445e-001 -4.98089641e-001
      -2.89799184e-001 1.97711706e-001 -7.28774071e-002 -1.84347808e-001
      -2.06254587e-001 8.11362490e-002 1.70161396e-001 6.34472445e-002
      1.92435220e-001 1.53907314e-001 -3.18187445e-001 -4.69578922e-001
      5.04454374e-002 -3.25293154e-001 -1.09784380e-001 -9.17528495e-002
      -1.39905006e-001 -1.33659532e-002 -3.30970824e-001 1.82901338e-001
      9.88790542e-002 1.22901484e-001 -3.89283672e-002 -1.48442462e-001
      9.18018743e-002 -2.08797250e-002 -1.58451751e-001 5.10554574e-002
      -2.27403328e-001 -3.02623093e-001 -1.66985869e-001
      -4.63279665e-001 1.18920408e-001 2.28443965e-001 2.42667459e-002
      1.90270022e-002 -1.46591470e-001 3.17713469e-001 1.13543153e-001
      -2.66035367e-003 -2.39562154e-001 2.19566271e-001 -4.82699275e-002
      -9.08196047e-002 -1.69200882e-001 4.87377673e-001 -5.99005036e-002
      -4.42839622e-001 -5.15860692e-002 -8.95693824e-002 2.05013096e-001
      -8.18909779e-002 -1.23608686e-001 -1.26025409e-001 4.06230658e-001
      3.97854373e-002 3.57935816e-001 2.28050426e-001 9.16839838e-002
      2.90216833e-001 1.98132604e-001 9.54076722e-002 1.98268205e-001
      8.59596282e-002 -7.31821433e-002 5.47386892e-002 2.67601818e-001
      -1.79768372e-002 1.95004925e-001 7.23753944e-002 4.10336882e-001
      5.50163269e-001 -1.04140632e-001 6.69587180e-002 1.58472449e-001
      1.29065411e-002 -1.87659636e-001 3.34234118e-001 -2.14551941e-001
      -3.21342885e-001 6.50716051e-002 5.70105433e-001 -2.59403765e-001
      -8.12419578e-002 1.17304221e-001 -6.47296980e-002 -3.27866934e-002
      -1.13657741e-002 -1.03185587e-001 1.80671349e-001 1.99698552e-001
      -8.64042155e-003 -3.13918777e-002 9.00615826e-002 -2.55463332e-001
      7.03750029e-002 -3.02221119e-001 1.39240280e-001 -2.68638064e-003
      2.19161958e-001 -9.77247804e-002 -6.26831921e-003 4.15375352e-001
      -4.10310090e-001 8.19458161e-003 -1.44863322e-001 1.76194668e-001
      -1.35851707e-002 -1.81218356e-001 3.51937294e-001 -4.79676016e-002
      2.97334313e-001 -3.29058856e-001 -1.57292672e-002 2.46093012e-002
      -2.91078627e-001 -1.49568766e-001 3.24421048e-001 -3.75959724e-001
      4.76452522e-002 -4.49138470e-002 -3.03327769e-001 -1.73485205e-001
      -3.09612244e-001 -2.21327376e-002 -1.05959177e-003 1.28568709e-001
      2.79350519e-001 3.22662383e-001 -2.88823023e-002 -1.64657131e-001
      -1.54897466e-001 -2.30053410e-001 5.15325606e-001 -7.37728253e-002
      5.84436487e-003 -1.27587110e-001 1.88874956e-002 1.42617643e-001
      -1.45769715e-001 -1.85078129e-001 -2.58029431e-001 8.68779570e-002
      4.28805470e-001 -9.17694420e-002 2.51919366e-002 -2.36259520e-001
      -2.01225989e-002 -3.63366932e-001 3.54945362e-001 -6.51686778e-003
      -2.52972301e-002 -4.66521800e-001 -1.99667905e-002
      -2.46941552e-001 -2.31192887e-001 8.44157115e-002 -3.89240496e-002
      -1.83058053e-001 -3.03393006e-001 -1.03204302e-001 1.99437365e-001
      -2.54875571e-002 -6.52459310e-003 2.93777913e-001 -2.92670757e-001
      -1.00707591e-001 2.17471719e-001 7.89970383e-002 1.64242223e-001
      -2.79688060e-001 3.59539628e-001 -5.24866045e-001 -1.88375905e-001
      3.53144616e-001 -1.75668314e-001 9.63696539e-002 -2.47768283e-001
      -1.06168039e-001 5.24935961e-001 2.33700842e-001 -8.80069807e-002
      5.55196881e-001 -3.32374871e-001 6.45877123e-002 2.05716789e-001
      9.40020755e-002 -1.33663835e-002 -5.79001866e-002 -1.03039987e-001
      -3.25262487e-001 4.35889184e-001 -4.98314917e-001 3.09162498e-001
      2.06564039e-001 3.95760775e-001 -7.31100515e-002 -1.29319459e-001
      -8.04124167e-004 -8.98436606e-002 3.56486380e-001 3.80956024e-001
      -1.53257832e-001 2.61012316e-001 5.48678227e-002 1.73311740e-001
      -8.04750994e-002 4.07590747e-001 -3.61682326e-001 3.38958889e-001
      -1.22624062e-001 -1.50048137e-001 6.15635104e-002 5.00846565e-001
      3.63660663e-001 -4.33698334e-002 -2.24448442e-001 7.64157325e-002
      6.21284485e-001 4.24159430e-002 -4.33749527e-001 4.59910333e-002
      2.20813170e-001 9.38653871e-002 -2.48917863e-001 -1.93167463e-001
      -4.21553195e-001 1.49886772e-001 8.89243409e-002 -2.35919416e-001
      -3.47417742e-001 -1.53939933e-001 -3.95381153e-001
      -9.62091088e-002 7.41112679e-002 -4.10203606e-001 -1.98072642e-001
      3.41731533e-002 -1.55496389e-001 -2.35108688e-001 1.93579212e-001
      1.90379079e-002 -3.63759935e-001 -1.63526699e-001 -4.24043894e-001
      -5.43519817e-002 5.69219366e-002 -3.48147638e-002 6.56732321e-002
      -2.92161226e-001 1.80349872e-001 -6.46653920e-002 1.72478184e-001
      5.31406701e-002 -1.74667746e-001 1.23576626e-001 5.58530539e-002
      -3.66488695e-002 4.48956192e-002 -1.30398020e-001 -5.69398962e-002
      3.69388580e-001 7.28731379e-002 -1.61377802e-001 -6.01301603e-002
      1.41644418e-001 2.85055280e-001 7.88433291e-003 -8.72150064e-002
      1.60468593e-001 4.32932973e-001 -2.55601764e-001 6.13885634e-002
      3.40830721e-002 -5.51599488e-002 -1.82358369e-001 -2.74311341e-002
      2.12672427e-001 -4.19448316e-001 -9.16485414e-002 9.17327255e-002
      -1.58705324e-001 1.07799239e-001 -7.18254745e-002 -8.06835666e-002
      -3.79543528e-002 -1.64448649e-001 -2.67161112e-002 1.12069607e-001
      -9.81751010e-002 -2.43440613e-001 4.34597693e-002 2.29589000e-001
      3.98355722e-002 -3.56768936e-001 -2.17209890e-001 -3.18981469e-001
      3.42977196e-001 1.64973095e-001 -2.77816623e-001 -2.30297163e-001
      3.13664883e-001 2.54581690e-001 -1.48468064e-002 -1.82509106e-002
      2.62110084e-001 4.40626979e-001 -4.90310881e-003 1.92447916e-001
      1.90657228e-001 -7.90411010e-002 -2.19514653e-001 -4.39149775e-002
      -5.19197024e-002 2.50223093e-003 -2.62065649e-001 1.54048979e-001
      1.16771422e-002 -4.66160506e-001 -9.13255140e-002 1.76703185e-001
      1.18130460e-001 1.78085059e-001 2.34710544e-001 2.45558739e-001
      -4.10744473e-002 1.67399690e-001 1.43395826e-001 -2.52516329e-001
      8.91925842e-002 -4.72760767e-001 -4.25235033e-001 -2.13982701e-001
      -1.14753701e-001 -3.25593323e-001 -1.22266710e-001
      -1.14905067e-001 1.70720622e-001 1.37867615e-001 -3.43750983e-001
      -3.19726586e-001 -3.80721204e-002 8.05061907e-002 -1.41434491e-001
      -5.13662100e-001 -4.02099006e-002 -1.00601651e-001 1.04501955e-001
      -1.81349725e-001 -4.99873757e-001 -2.19267726e-001
      -2.19450787e-001 -6.09843060e-002 -2.00066820e-001
      -4.02314752e-001 -3.38502795e-001 5.28193355e-001 -4.12354954e-002
      -1.10539742e-001 -3.70683260e-002 1.10938035e-001 1.39300823e-001
      -9.86219198e-003 1.75872684e-001 4.28104162e-001 -7.55002871e-002
      -6.52757660e-002 -1.00294784e-001 2.40347907e-001 -3.94506127e-001
      -1.47508979e-001 1.51667744e-001 -3.77027899e-001 -1.33271411e-001
      3.60401273e-001 -1.58678159e-001 1.47465721e-001 -4.79966700e-002
      -1.40187487e-001 7.84211382e-002 9.75423753e-002 3.66805762e-001
      1.90807611e-001 -2.42701992e-001 -4.49761391e-001 -8.20252076e-002
      -3.15901786e-001 -1.21031046e-001 -3.35731834e-001
      -1.29300788e-001 -4.17011201e-001 1.14284992e-001 2.02451438e-001
      -1.93483278e-001 -3.57537977e-002 -1.29936310e-002
      -1.84532925e-001 2.03655511e-001 1.28887206e-001 -1.23294294e-001
      2.48393446e-001 1.58336699e-001 -2.04937428e-001 -2.07833275e-001
      1.49012834e-001 -2.27309033e-001 -1.40360981e-001 -4.28667158e-001
      -3.51716459e-001 -9.62088853e-002 2.43161723e-001 -6.76385313e-002
      -4.61478859e-001 -3.11918091e-002 -3.31125498e-001
      -2.75901526e-001 2.75216132e-001 -2.64121860e-001 -3.85081381e-001
      -1.63295627e-001 -3.05746961e-002 -2.10004598e-001
      -2.64419802e-002 -2.84882545e-001 1.17337912e-001 4.87976074e-002
      -3.34115803e-001 -7.70904496e-002 -1.61088314e-002 1.42520353e-001
      2.28994146e-001 -2.64805615e-001 -5.71306348e-001 -1.46793738e-001
      3.39503676e-001 2.20821232e-001 -1.69206887e-001 1.95026740e-001
      -2.05323733e-002 -3.33590358e-001 1.38755694e-001 -5.39865866e-002
      -4.59875435e-001 -6.00904167e-001 -2.77020503e-002
      -2.27645487e-002 2.50908434e-001 -4.25181612e-002 -7.13745430e-002
      -1.69827774e-001 -2.29786739e-001 1.86190024e-001 -1.96471065e-002
      2.76435375e-001 -1.74245343e-001 -1.31785586e-001 2.29858816e-001
      3.67565453e-002 -4.49098162e-002 -1.25192283e-002 6.56658411e-002
      -3.35285276e-001 -1.59518644e-001 -1.60833612e-001
      -9.05670524e-002 3.48858774e-001 1.74864773e-002 -2.04438597e-001
      -1.50830090e-001 2.10214436e-001 -1.11672632e-001 -2.49258131e-002
      -1.91252634e-001 1.40116632e-001 2.14830458e-001 2.04909280e-001
      -2.70356864e-001 3.28149796e-001 -1.81786969e-001 -3.21630724e-002
      1.61724448e-001 -1.03162430e-001 3.18018347e-001 1.18362397e-001
      -2.03629225e-001 2.68009394e-001 -4.22322482e-001 2.47839838e-001
      1.69968039e-001 -2.05007508e-001 -2.31236026e-001 3.02043483e-002
      -1.04993425e-001 7.39545226e-002 3.29329297e-002 2.25427240e-001
      -1.23746291e-001 -8.65919366e-002 -2.14680076e-001
      -3.61769974e-001 -6.59896061e-002 -5.84979877e-002
      -3.84990871e-002 5.74643135e-001 1.32382840e-001 2.08874911e-001
      3.53413165e-001 4.40206230e-001 2.76180357e-002 1.56952128e-001
      1.71804056e-001 -3.02510530e-001 -1.18879557e-001 1.20353378e-001
      -6.05982393e-002 -2.56582201e-001 1.03251942e-001 -1.98578194e-001
      1.35926783e-001 1.74045160e-001 -1.80019617e-001 -1.58778459e-001
      -1.44924736e-002 1.21837735e-001 -6.49488196e-002 -2.77015734e-002
      -2.01244637e-001 1.23151034e-001 -1.62973806e-001 -5.56466542e-002
      1.82908028e-001 1.74619928e-001 -4.75915149e-002 1.06437139e-001
      -8.07235092e-002 7.59274736e-002 1.58114523e-001 -1.96214318e-001
      1.06935725e-001 2.35331252e-001 4.44529578e-002 4.76501524e-001
      1.10408850e-002 -1.17837913e-001 -6.83092326e-002 2.38623857e-001
      -3.06455433e-001 -2.95366436e-001 -1.96521133e-001
      -7.95563906e-002 -2.64153898e-001 -4.55514491e-002 1.05288833e-001
      1.75997317e-002 -2.42206524e-003 -1.58196852e-001 -9.58761498e-002
      -4.57540005e-002 3.29374485e-002 1.10546328e-001 7.56880566e-002
      -6.38023159e-003 -3.77736211e-001 1.74705356e-001 -4.06607032e-001
      -8.87966678e-002 1.81053713e-001 1.97657049e-001 -1.40066683e-001
      -3.27552050e-001 -1.40328199e-001 -1.60482287e-001 3.25154573e-001
      1.32752866e-001 5.57103679e-002 3.01033229e-001 1.50711536e-001
      -2.16947839e-001 2.85830557e-001 -2.63540447e-001 -1.23839609e-001
      -6.07585115e-003 5.49839623e-002 1.30464509e-001 -9.85474586e-002
      1.33388340e-001 -1.87941175e-002 6.61164299e-002 1.07455306e-001
      -9.76900533e-002 -2.20700443e-001 -1.87545359e-001
      -3.22975844e-001 1.83074489e-001 -1.29066974e-001 2.27128014e-001
      2.05439404e-001 1.14777967e-001 2.72264704e-002 1.84866592e-001
      1.87450409e-001 1.67450920e-001 -4.41009283e-001 -1.45639554e-002
      -3.54937553e-001 -4.15154845e-001 4.29026112e-002 2.31530026e-001
      -1.33142039e-001 1.77777767e-001 6.31089658e-002 4.48538251e-002
      9.95113403e-002 4.08697426e-001 -1.47031341e-002 -1.32182285e-001
      -9.21833664e-002 3.14678848e-001 1.49387628e-001 -3.29667807e-001
      -1.05413049e-001 2.39083678e-001 -1.58100143e-001 2.56415546e-001
      -1.48019955e-001 1.12707727e-002 1.27759933e-001 8.37860107e-002
      3.99072319e-002 1.70512006e-001 -3.69961321e-001 1.76410750e-002
      5.50199807e-001 1.85705915e-001 -2.42860705e-001 6.86224997e-002
      -7.21667483e-002 9.10007209e-003 -4.81808096e-001 3.11986715e-001
      -3.37108225e-001 1.06123596e-001 -2.05258146e-001 -2.72079278e-002
      7.46473297e-002 1.43020019e-001 3.36376727e-001 -1.53571963e-001
      -4.06519741e-001 -2.15528771e-001 4.64569449e-001 -8.37184023e-003
      -2.08322793e-001 -1.65603533e-001 -3.92344147e-002
      -5.68363525e-004 1.81908440e-002 -1.84984952e-001 -2.46873535e-002
      -4.56691056e-001 -6.43685237e-002 -2.50615627e-001
      -4.49430794e-001 9.09141153e-002 1.74458534e-001 1.67983286e-002
      -1.91896349e-001 3.95068526e-002 -2.58090477e-002 6.89213797e-002
      -4.52109694e-001 7.02897608e-002 -1.63102344e-001 3.20951611e-001
      8.67831260e-002 -1.64544672e-001 9.17593315e-002 -2.48175204e-001
      1.01005897e-001 1.85618594e-001 -1.42214864e-001 -2.87544608e-001
      2.36098945e-001 1.75638542e-001 -2.38360792e-001 1.67649269e-001
      -2.86523551e-001 -1.78071603e-001 -2.52575368e-001
      -2.25550309e-001 -5.68432026e-002 -7.09833577e-002
      -1.88461900e-001 1.88922822e-001 -2.38721192e-001 -9.75656956e-002
      2.62717634e-001 3.26954462e-002 1.96314473e-002 4.46676761e-001
      -1.33601621e-001 1.71691850e-002 3.74023557e-001 1.70901924e-001
      1.79755256e-001 5.06383702e-002 -1.49729356e-001 -1.29465878e-001
      -2.57681042e-001 -1.54124334e-001 1.60876960e-001 -1.10978715e-001
      -4.87371683e-002 -1.23601153e-001 -1.00259781e-001 6.73330054e-002
      2.02051103e-001 -1.60608813e-001 -8.02765414e-002 1.24736197e-001
      3.42728704e-001 1.55265480e-001 1.44632846e-001 4.12050821e-002
      2.46317372e-001 -9.64033231e-002 1.23233192e-001 -1.29530743e-001
      5.28965192e-003 -2.16844920e-002 3.28564085e-002 -4.50906068e-001
      -6.02579974e-002 2.03770220e-001 7.62549192e-002 -8.06269422e-002
      -3.40043694e-001 2.70295113e-001 1.99123561e-001 -2.10304543e-001
      6.65176362e-002 2.61116296e-001 -1.44873232e-001 -1.78337529e-001
      -1.56008437e-001 -2.03298211e-001 -1.91659242e-001 6.61289319e-002
      8.84240121e-002 -4.04823363e-001 -5.39367378e-001 2.37438977e-001
      -1.30804494e-001 1.56294033e-001 8.12301040e-002 1.39903463e-002
      -3.11464697e-001 -3.13236773e-001 5.49100935e-002 3.17790717e-001
      7.24401101e-002 -1.87058687e-001 -2.36788943e-001 -2.97520012e-001
      -3.46511528e-002 -1.45514444e-001 -3.52773458e-001
      -3.50545585e-001 4.15261656e-001 -4.89103287e-001 1.19520105e-001
      -1.49128020e-001 -1.49138749e-001 -2.78528919e-003 2.12844267e-001
      -3.83660138e-001 -1.62959963e-001 2.98420489e-001 6.51486889e-002
      -7.22984523e-002 -7.51348361e-002 -2.84043461e-001
      -3.15699309e-001 -6.35669157e-002 -2.21110955e-001
      -1.48263142e-001 -2.97835350e-001 -3.55967224e-001 2.75056832e-003
      -4.01070535e-001 -2.20789492e-001 -7.64842145e-003
      -1.10712670e-001 -1.13542210e-002 -4.60687071e-001
      -9.14628282e-002 7.82214850e-002 -3.73364419e-001 -4.93005604e-001
      -3.02332282e-001 -5.13317101e-002 -3.61155748e-001
      -5.51266551e-001 -7.11118244e-003 4.66086174e-004 -9.22474712e-002
      -2.58867759e-002 2.66571999e-001 -2.76057392e-001 -3.01794738e-001
      -3.29798996e-001 -3.12386006e-001 -3.13571811e-001 2.78391153e-001
      -4.64135669e-002 -4.15178359e-001 -5.49609721e-001 1.68242574e-001
      -6.18929863e-002 -7.09403872e-001 -3.64242166e-001 3.59935671e-001
      3.61356102e-002 -1.27568185e-001 -2.50950396e-001 -1.37797475e-001
      -2.39826456e-001 -2.61545032e-001 -2.47228861e-001
      -1.41803905e-001 -2.46214435e-001 5.68749830e-002 -2.55771518e-001
      -1.22502565e-001 1.27950206e-001 -8.09457362e-001 -2.04661638e-001
      1.60085887e-001 -4.09618407e-001 -6.26083434e-001 -3.36836353e-002
      1.63204670e-001 2.62368441e-001 -1.75761014e-001 1.17667340e-001
      -1.30396947e-001 -1.69376642e-001 -1.61424622e-001
      -4.73000199e-001 4.18173559e-002 2.49977596e-002 -3.88029963e-001
      -9.88682136e-002 -6.08188033e-001 -1.84523478e-001
      -1.27729759e-001 -1.13160551e-001 -1.97909594e-001
      -1.91632017e-001 -1.67103812e-001 -5.92043363e-002
      -1.43256038e-001 3.29097286e-002 -2.07250684e-001 -3.90563786e-001
      -1.61156043e-001 -6.58045262e-002 -3.07581991e-001
      -3.81373286e-001 4.61607911e-002 9.70525965e-002 -2.09044427e-001
      -1.96294919e-001 4.95636463e-002 -5.05190313e-001 -1.16693333e-001
      -1.33450180e-001 -2.63669230e-002 -1.47314385e-001 1.58829600e-001
      2.51057416e-001 2.24734932e-001 -3.20085287e-001 1.68200463e-001
      -1.15906306e-001 1.19668067e-001 1.25592411e-001 -3.08822840e-001
      -5.38976267e-002 1.63599983e-001 -2.74778217e-001 3.77609730e-002
      -2.65213307e-002 -2.55518779e-002 -2.14071140e-001
      -2.68617034e-001 7.27250651e-002 3.02596360e-001 7.27096871e-002
      2.51198947e-001 2.44738072e-001 5.20984735e-003 -1.89481936e-002
      1.55347437e-001 1.08822370e-002 1.74704731e-001 1.15297593e-001
      -4.26806867e-001 -4.60766792e-001 -1.22721260e-002
      -1.87826142e-001 -2.87130922e-001 3.45649123e-002 -6.28029108e-002
      -2.14042366e-001 2.67602563e-001 1.59296378e-001 -1.58654645e-001
      1.51183382e-001 -1.74081381e-002 -8.39156359e-002 -1.98067740e-001
      -2.75928408e-001 -4.18082327e-002 7.65930861e-002 2.42981285e-001
      -2.25681975e-001 4.32103947e-002 -3.41132581e-002 -3.87650073e-001
      1.91196188e-001 -4.37576696e-002 -2.11275741e-001 2.49234527e-001
      -2.12417126e-001 1.81289926e-001 -1.37472764e-001 2.09481761e-001
      1.92098975e-001 -6.05431311e-002 -3.06445003e-001 -1.25830770e-001
      -1.27779068e-002 7.24092498e-002 -6.08400553e-002 4.39932430e-003
      4.70062438e-003 -2.79706359e-001 1.54085949e-001 3.41416180e-001
      -1.56425834e-001 1.20387852e-001 7.20321089e-002 2.25031033e-001
      8.04485232e-002 2.52203852e-001 -1.31128177e-001 -3.67261410e-001
      1.46316633e-001 -1.38708457e-001 4.13449034e-002 1.06862970e-001
      4.53733861e-001 -3.85324210e-002 -2.79481173e-001 -6.26499252e-003
      2.12064192e-001 -8.55521299e-003 -9.52584378e-004 1.26725242e-001
      5.87095767e-002 5.95003605e-001 -8.80525038e-002 2.52679467e-001
      -5.71384281e-002 3.36001031e-002 -3.04284859e-002 1.06866106e-001
      -2.59879500e-001 -3.04575026e-001 -2.85845816e-001 2.18287334e-001
      -3.73064876e-001 1.53658241e-001 7.84774646e-002 1.15161076e-001
      -2.57961392e-001 -5.54758728e-001 4.29458916e-002 3.73026848e-001
      1.58185154e-001 -2.35718444e-001 1.96407065e-002 7.99346343e-002
      -1.85961649e-001 -2.80950487e-001 -2.54844457e-001 5.58414161e-002
      1.10246554e-001 -9.11335200e-002 -1.67284589e-002 -3.22551042e-001
      1.22122280e-001 2.70915776e-001 -1.08551070e-001 -1.94694579e-001
      1.56317621e-001 -3.20033699e-001 -5.55792093e-001 3.44433874e-001
      3.66840720e-001 -5.36925793e-002 -1.67998388e-001 4.10331748e-002
      -1.75282940e-001 1.19294636e-001 -3.66747797e-001 2.30146855e-001
      -4.63111520e-001 -1.31080672e-001 -1.41492158e-001 1.85982302e-001
      5.61140031e-002 -1.41860368e-002 -5.00996932e-002 2.33306229e-001
      -1.58001944e-001 5.57459742e-002 2.21081063e-001 2.84323215e-001
      -1.64283946e-001 2.28031546e-001 3.97653356e-002 -1.11236654e-001
      -8.34754780e-002 -9.56952348e-002 -4.14336503e-001
      -1.05694197e-001 2.85915975e-002 1.99541479e-001 -1.00401156e-001
      -1.16616182e-001 2.10092478e-002 9.26636718e-003 -3.36858362e-001
      2.44151086e-001 -1.16707467e-001 1.59926862e-001 6.21641520e-004
      3.07644606e-001 7.83642903e-002 1.38050124e-001 3.84221040e-002
      2.05151886e-001 -1.61103368e-001 1.45445988e-001 1.70907766e-001
      -1.24902435e-001 2.12128296e-001 -1.27725437e-001 1.94062158e-001
      -1.17782779e-001 -8.94449279e-002 -2.99393088e-001 2.52748817e-001
      3.10599595e-001 -1.68685406e-001 3.27810138e-001 -6.63864985e-002
      9.82266739e-002 -3.28000158e-001 -2.67253667e-001 -2.08278090e-001
      3.21757168e-001 9.70569700e-002 -2.03242153e-001 5.13791256e-002
      -1.18793584e-001 4.71183330e-001 -1.78289860e-001 1.45131752e-001
      -1.87771451e-002 9.51583833e-002 1.49660021e-001 -2.23701205e-002
      9.08606872e-002 1.96452498e-001 2.38941714e-001 -9.31391269e-002
      2.26134062e-001 -3.38020325e-001 -4.93333995e-001 2.42447659e-001
      2.30346695e-001 1.67547151e-001 2.04885423e-001 2.73968995e-001
      -3.76355238e-002 1.69314504e-001 8.88457969e-002 -1.30952016e-001
      1.24541037e-001 -1.85416281e-001 -1.01575375e-001 5.34721851e-001
      1.57351598e-001 1.38890579e-001 2.99648732e-001 2.29585171e-001
      -1.39491022e-001 2.39805609e-001 3.10265608e-002 3.03615838e-001
      3.07060093e-001 -1.31325275e-001 -7.51883388e-002 -6.82884008e-002
      1.69120684e-001 -6.58497959e-002 -2.24621609e-001 1.38926730e-001
      -1.05026536e-001 -1.13527253e-001 -3.59941721e-002 1.78496111e-002
      -6.68796524e-002 3.29704629e-003 -1.08662069e-001 3.10564265e-002
      -1.72967046e-001 -1.12257235e-001 -2.67416298e-001
      -1.88490078e-001 6.08622357e-002 2.50371754e-001 2.50782132e-001
      -7.70654529e-002 -1.37927309e-001 -1.34797573e-001
      -2.44079277e-001 -2.28387848e-001 -3.21295738e-001
      -1.69268340e-001 2.25130737e-001 1.09757170e-001 -5.29413559e-002
      3.01770031e-001 1.58772171e-001 3.21696222e-001 3.73145938e-001
      1.48203447e-002 -4.89744008e-001 -3.63160409e-002 4.50094640e-001
      -2.74535865e-001 9.54057425e-002 -2.72026984e-003 2.61718243e-001
      -2.41989747e-001 6.78784996e-002 -1.08734623e-001 -1.62108570e-001
      4.20180649e-001 -1.31633341e-001 -3.32773626e-001 1.76383674e-001
      -4.94838208e-002 3.42254430e-001 -2.99486458e-001 -1.40249208e-001
      1.81055188e-001 6.62438273e-002 -5.87225333e-003 -1.77422777e-001
      -1.88840240e-001 3.18189934e-002 -1.84676781e-001 2.51398593e-001
      5.18125489e-005 -9.47202742e-002 -5.74693792e-002 -2.33388752e-001
      -1.74015984e-001 -8.06446373e-002 1.11631796e-001 3.94393094e-002
      3.87154110e-002 -1.96288992e-002 -1.78628251e-001 1.10318158e-002
      2.31824387e-002 -2.18214512e-001 -1.36364624e-001 2.76143640e-001
      -1.40167266e-001 -4.32286471e-001 -3.34300250e-001
      -9.23956335e-002 -2.55132969e-002 -4.82963733e-002
      -3.26218754e-001 6.43108189e-002 1.39492899e-001 -2.15079680e-001
      8.12597573e-002 -3.18419307e-001 -1.99987993e-001 -4.02479358e-002
      5.15650783e-004 2.24847734e-001 1.52212605e-001 -2.97031581e-001
      1.43654212e-001 -1.76273972e-001 -9.72373560e-002 -2.31291205e-001
      1.85369760e-001 9.37253162e-002 -4.19547223e-002 -6.16121143e-002
      -3.09312820e-001 3.88516098e-001 -2.47738976e-003 -7.62349367e-002
      -3.65749374e-002 -3.80085230e-001 2.47950822e-001 -2.17486456e-001
      -3.75941396e-001 1.59366339e-001 -2.40001217e-001 -8.30849111e-002
      -3.41665804e-001 1.62441939e-001 -8.07135403e-002 -6.34372793e-003
      -2.19755359e-002 -1.35850385e-001 2.69117743e-001 1.12222888e-001
      -7.67566264e-002 1.51678964e-001 9.43980068e-002 -6.52263463e-001
      -1.37882248e-001 -9.66002271e-002 1.85423523e-001 -4.43583965e-001
      1.72503754e-001 4.98542897e-002 -1.52552472e-002 -2.97205091e-001
      -2.96150416e-001 4.46259171e-001 -3.65110934e-001 -4.31976765e-001
      -2.07963407e-001 -1.26389176e-001 -1.26039341e-001
      -7.85913095e-002 -3.33374381e-001 -2.82969177e-001 7.67540932e-002
      6.83017001e-002 -5.11279739e-002 1.93726838e-001 -1.24529138e-001
      -5.29056430e-001 -4.53257918e-001 -4.96282488e-001
      -4.70804572e-001 -2.26811349e-001 -7.17817321e-002
      -9.60812867e-002 3.26029032e-001 3.87077719e-001 3.03616017e-001
      -1.78927660e-001 2.96866819e-002 -2.06732661e-001 -3.85600656e-001
      -1.85800698e-002 3.14876080e-001 -2.18025342e-001 -1.41376108e-001
      2.06042696e-002 -1.12587787e-001 -4.40278649e-001 -4.87698726e-002
      1.19615935e-001 -1.21042185e-001 2.43493304e-001 -2.06396263e-002
      -8.44010562e-002 -6.97128028e-002 -4.14362513e-002
      -3.00431848e-002 -1.98656350e-001 -3.00334364e-001
      -1.44486114e-001 5.69647811e-002 4.70920838e-003 9.17376950e-002
      2.00031340e-001 -6.89800009e-002 3.56984228e-001 -1.07099131e-001
      -3.25475842e-001 -1.82454363e-001 -1.65166911e-002 1.88498348e-001
      2.49183372e-001 1.01467781e-001 2.06887498e-001 3.52194486e-003
      2.34790742e-001 -2.95265228e-001 3.15899462e-001 1.54988207e-002
      -2.67420530e-001 -8.23631287e-002 1.36026621e-001 -9.18446109e-002
      -5.14726937e-002 2.04115182e-001 1.85390830e-001 1.12963538e-003
      -1.73417941e-001 -7.36437067e-002 7.16372132e-002 -2.96791136e-001
      1.07026756e-001 -3.96398157e-001 2.01144308e-001 -3.58466548e-003
      3.45157444e-001 2.02011749e-001 2.04656824e-001 -9.21096206e-002
      9.70737711e-002 -2.60513872e-001 2.62064844e-001 -7.15770796e-002
      -1.00076787e-001 -1.26111463e-001 2.98013575e-002 -4.76026416e-001
      2.24926770e-001 9.29000378e-002 -2.13103592e-002 2.63405353e-001
      2.65798829e-002 4.47297245e-001 1.78435247e-003 -4.16134059e-001
      -9.85518619e-002 -3.96671593e-001 1.17710784e-001 1.05932042e-001
      3.45416337e-001 5.63517958e-002 5.71689606e-002 1.24594592e-001
      -1.93060279e-001 -1.93270847e-001 2.74756309e-002 -1.38452739e-001
      -1.23470262e-001 -1.01665221e-002 -5.80774285e-002
      -4.79252003e-002 5.75198419e-002 -7.27756247e-002 2.00781316e-001
      -4.91635278e-002 -2.31345043e-001 -3.10172796e-001
      -1.80388540e-001 1.28630521e-002 -1.07907414e-001 2.97360439e-002
      1.78320482e-001 2.99525838e-002 2.46785041e-002 -2.53976464e-001
      2.82141656e-001 1.61195308e-001 2.42094636e-001 2.08592802e-001
      -1.02554329e-001 7.45126456e-002 2.51865178e-001 -2.49784570e-002
      -1.61770165e-001 -1.54463440e-001 1.19321242e-001 -2.70155191e-001
      6.03802092e-002 2.51316071e-001 -5.24608195e-002 3.36761743e-001
      1.46582276e-001 -2.03617319e-001 1.20912194e-001 -2.05624372e-001
      2.47324467e-001 1.42738223e-001 1.49314282e-002 3.59806083e-002
      -4.35770042e-002 -2.25889742e-001 -9.45695937e-002
      -2.70118177e-001 3.14364463e-001 1.10764019e-001 -1.17667437e-001
      -1.87298194e-001 2.11544573e-001 -4.70557474e-002 9.69788933e-004
      -1.19212158e-002 2.09693834e-001 -1.54203951e-001 1.44944310e-001
      -7.90465698e-002 -4.83781904e-001 9.52170193e-002 -4.01878446e-001
      -5.77237122e-002 1.33623198e-001 -3.41362894e-001 -2.27778718e-001
      -2.76817828e-001 3.55562568e-001 2.71994352e-001 1.01995617e-001
      -4.98826325e-001 1.01411678e-001 2.53437638e-001 3.73652130e-001
      -9.90701392e-002 4.97688442e-001 -9.73285437e-002 2.70707279e-001
      -2.30144225e-002 -1.61346704e-001 1.50188893e-001 -1.68202460e-001
      6.49334630e-003 -1.40924230e-001 -7.05158636e-002 3.02370638e-002
      -2.37510040e-001 2.72403806e-001 -2.65433073e-001 -1.90660521e-001
      -5.36822438e-001 3.75252753e-001 1.79864258e-001 -3.11100651e-002
      2.31684640e-001 -1.30365014e-001 4.69865091e-002 -3.41578275e-002
      2.42256761e-001 -2.34373003e-001 -1.36991173e-001 1.34776104e-002
      -2.41873518e-001 -7.86523372e-002 -1.95808426e-001
      -8.13108012e-002 -1.87289625e-001 -1.61434069e-001
      -1.07918397e-001 1.04706362e-001 -4.62566584e-001 1.86764285e-001
      -1.12860329e-001 2.58694708e-001 -1.89769775e-001 -3.59500870e-002
      1.22495316e-001 -1.10701099e-001 -3.42512488e-001 -2.40396008e-001
      -5.39049745e-001 3.22140902e-001 -3.39740872e-001 1.62328053e-002
      7.10669905e-003 -1.30083621e-001 -2.83267528e-001 1.33871302e-001
      3.67292166e-001 -1.93092808e-001 9.37373862e-002 -3.75616620e-003
      -2.41881534e-001 -7.99507499e-002 3.41899991e-001 1.72676504e-001
      -2.21234426e-001 -1.38353884e-001 -9.12075639e-002 4.37467963e-001
      -2.98530847e-001 1.14603825e-001 -2.10632563e-001 -1.53406747e-002
      1.99527547e-001 -4.40963924e-001 -3.71094555e-001 -4.31457609e-002
      1.21507935e-001 1.30872250e-001 -8.07103962e-002 -3.15211713e-001
      3.49639148e-001 3.19194883e-001 7.82938898e-002 7.51643768e-003
      2.43448824e-001 -5.18470287e-001 1.99391749e-002 -1.21563889e-001
      5.46246022e-003 1.41510546e-001 1.79610938e-001 1.77243769e-001
      3.05360585e-001 -2.19844773e-001 -5.97599708e-002 2.56960075e-002
      1.78956121e-001 -9.45533346e-003 3.29423577e-001 -1.61831319e-001
      -1.04540937e-001 -1.83126088e-002 8.47027451e-002 -1.35262117e-001
      2.92835772e-001 -2.86932681e-002 -3.02882701e-001 2.92687386e-001
      1.82644110e-002 1.28365919e-001 -1.51416361e-001 -1.24607146e-001
      2.12240592e-001 2.12564662e-001 -4.31085154e-002 -5.99846989e-002
      -1.61915138e-001 -1.05075158e-001 1.06724374e-001 1.85228631e-001
      1.03140265e-001 -1.08690545e-001 3.06609452e-001 2.00409442e-001
      -1.67752713e-001 2.07304671e-001 -3.03377777e-001 6.87671006e-002
      5.21131933e-001 9.96970758e-002 2.27436155e-001 1.33020774e-001
      -3.19104910e-001 -3.99043821e-002 -4.61747758e-002
      -2.55892873e-001 -3.52434546e-001 -6.72003478e-002 3.09938937e-001
      1.44833207e-001 2.04809010e-001 1.76748678e-001 7.32455552e-002
      1.67878166e-001 2.65576988e-001 -2.24912286e-001 1.18267901e-001
      2.64514714e-001 -1.47725999e-001 4.49145973e-001 1.66687965e-001
      1.98380742e-002 -2.75912106e-001 4.85797646e-003 7.58582875e-002
      5.57976738e-002 -2.21305918e-002 5.39386645e-002 4.26861644e-002
      5.36822155e-003 3.42790455e-001 -9.91429761e-003 -4.32307646e-002
      1.22871414e-001 -1.46750733e-001 -1.61798820e-001 7.82318972e-003
      -1.67401880e-001 4.69867960e-002 2.45788112e-001 -8.97595484e-004
      -1.21792674e-001 3.65359560e-002 2.62659937e-001 6.26807809e-002
      2.57682130e-002 7.43498877e-002 -2.64647633e-001 7.15585575e-002
      -8.33946988e-002 -9.19725467e-003 1.14308581e-001 2.19650686e-001
      1.27345935e-001 1.66780755e-001 1.30993694e-001 9.43975449e-002
      -1.23844869e-001 -3.92847955e-001 -6.31168485e-001
      -2.61665583e-001 -2.49686375e-001 2.63488948e-001 -2.28261650e-001
      -8.18765461e-002 2.04224586e-001 -2.31961887e-002 1.77374319e-003
      -5.85198551e-002 -2.77981511e-003 1.96921259e-001 -2.88266778e-001
      -2.37589449e-001 3.04847002e-001 2.70967424e-001 -5.53161919e-001
      -3.86092067e-001 4.82924022e-002 1.15295462e-001 3.67083289e-002
      1.86923966e-001 -3.95592928e-001 1.50863323e-002 1.84433714e-001
      8.64463858e-003 1.17622107e-001 -2.22610354e-001 -8.00622478e-002
      -1.84400991e-001 -4.28314991e-002 -1.76228777e-001 2.70289481e-001
      2.18277887e-001 3.15350980e-001 -2.59191543e-003 -1.94295287e-001
      -3.65964562e-001 2.72825342e-002 -1.10541634e-001 3.67829829e-001
      -3.02615136e-001 -1.15192078e-001 1.15466051e-001 1.56856421e-002
      -2.00272128e-001 1.16418682e-001 1.07545115e-001 -4.87311572e-001
      1.40890747e-001 -2.68808633e-001 9.92125124e-002 4.81570475e-002
      -1.11675486e-001 -1.37738541e-001 1.24376910e-002 -2.39104152e-001
      -4.20066267e-002 -1.38849184e-001 -4.70263749e-001
      -3.65006268e-001 -2.55103689e-002 -1.69407368e-001
      -1.82433009e-001 -3.30425829e-001 -2.44921014e-001 1.68255419e-001
      -8.59057009e-002 -1.41347021e-001 -1.40863433e-001
      -2.40879849e-001 -2.83850729e-001 2.79716611e-001 -1.32215008e-001
      2.92781711e-001 -4.22858662e-004 -1.33411037e-002 -1.05935410e-001
      -6.24270737e-002 1.17807269e-001 1.77331880e-001 1.58204064e-001
      -1.24371909e-001 -3.83650884e-002 -6.43113181e-002 8.40838999e-002
      2.96370953e-001 4.10482794e-001 -3.39280397e-001 -3.01821172e-001
      4.20491397e-002 3.95542243e-003 -1.44897282e-001 -4.92240340e-001
      -2.53216863e-001 -2.31510829e-002 -1.77100316e-001 8.89912695e-002
      1.51667474e-002 -1.17113665e-001 -2.45127589e-001 2.97892597e-002
      -6.71175793e-002 3.48362565e-001 5.11352206e-003 4.10581231e-002
      -9.08004716e-002 2.15459168e-001 1.01430312e-001 -2.57295400e-001
      1.04398854e-001 -2.18556926e-001 -8.79253983e-001 -1.81545943e-001
      -1.02464445e-002 1.11996263e-001 3.36978257e-001 1.87658921e-001
      3.33612598e-002 1.99151412e-001 -3.69195975e-002 -2.38986433e-001
      2.77829766e-001 2.48561397e-001 -3.25704873e-001 -2.36842871e-001
      4.13550623e-002 -2.59104222e-001 2.23401874e-001 2.62566227e-002
      -4.34058517e-001 -2.72947580e-001 -3.89479071e-001
      -8.06186274e-002 4.66809049e-002 -1.68507680e-001 -2.07637459e-001
      1.80428818e-001 2.99961418e-001 -1.29639402e-001 -8.67939591e-002
      2.50750512e-001 6.50171265e-002 1.70704395e-001 3.09133735e-002
      -5.22501767e-001 2.46811509e-001 -1.69218510e-001 -3.86199296e-001
      4.14813310e-002 5.49528338e-002 -1.05126150e-001 1.67741090e-001
      4.40151423e-001 4.82997857e-002 3.56727913e-002 -1.63841978e-001
      -5.00066951e-002 -1.29005879e-001 1.44878579e-002 -2.89854914e-001
      -3.30228388e-001 -4.64570075e-001 -3.30231071e-001 8.91386792e-002
      -3.57251465e-001 5.47959134e-002 -3.14873457e-001 7.07302839e-002
      -3.44619364e-001 6.37479573e-002 -2.45467097e-001 5.47201112e-002
      -3.20725739e-001 -9.30245221e-002 -1.47714883e-001 3.75979513e-001
      1.56315252e-001 2.24060461e-001 -1.64830893e-001 2.07040994e-003
      -2.09624618e-001 5.40221691e-001 1.49020731e-001 -4.45175231e-001
      -3.48694950e-001 4.10698876e-002 -7.13760704e-002 2.15306595e-001
      1.57020345e-001 -2.54146717e-002 2.14794248e-001 -3.55151027e-001
      -2.19621569e-001 3.28023285e-002 1.71158746e-001 -1.31685302e-001
      -2.60325223e-001 -2.82145292e-001 -5.39966047e-001 3.30546230e-001
      3.55776280e-001 1.64889619e-001 -3.13559711e-001 1.76507741e-001
      -5.73021360e-002 8.79938230e-002 -1.32392436e-001 -1.96675569e-001
      -2.01403480e-002 -3.93179338e-003 2.34126095e-002 2.27787107e-001
      3.64344865e-001 -9.41296965e-002 -7.06215352e-002 -2.32424736e-001
      -9.09909680e-002 2.41860390e-001 -3.26930076e-001 1.60093457e-002
      -7.86065906e-002 1.68945014e-001 1.88782573e-001 2.64114201e-001
      2.36678034e-001 2.16578379e-001 3.42483670e-001 -2.08864778e-001
      -9.13636014e-002 1.21100463e-001 1.54420123e-001 -2.46321887e-001
      -3.40814790e-004 -5.73731422e-001 -2.76171118e-001 1.92814469e-001
      1.76208675e-001 -1.79726988e-001 -3.53537560e-001 -7.21032247e-002
      5.07580280e-001 -2.13526979e-001 1.88980803e-001 2.64466740e-002
      1.59734651e-001 1.68702587e-001 1.96244568e-002 2.92217672e-001
      9.30066630e-002 1.10318614e-002 -2.10011810e-001 -2.63218284e-001
      -4.56283301e-001 2.87450761e-001 -1.54145509e-001 5.92397153e-001
      -2.74505019e-001 5.01601174e-002 6.97942153e-002 7.33514726e-002
      3.62449251e-002 4.45516169e-001 3.93839270e-001 1.72976553e-001
      -6.57052770e-002 -1.52247539e-002 1.54850960e-001 2.66857177e-001
      -9.84656662e-002 1.74983799e-001 -3.68388951e-001 4.39278692e-001
      -1.68529347e-001 1.80343017e-001 -2.55816787e-001 -1.87688038e-001
      -8.34793970e-002 1.40250877e-001 1.68672457e-001 3.55478637e-002
      6.96028471e-002 2.13319898e-001 4.17044580e-001 4.49789256e-001
      5.68010248e-002 1.28020585e-001 9.71779078e-002 -1.07620172e-001
      -8.27494413e-002 3.20761204e-002 -3.92006338e-001 -4.08164084e-001
      -4.80428785e-001 -4.81174067e-002 -1.33077532e-001 1.28552452e-001
      -3.42409536e-002 -2.42586121e-001 1.76502213e-001 -2.40698531e-001
      -2.69148588e-001 1.84788048e-001 -1.27529919e-001 1.97019950e-001
      1.18084669e-001 -2.68049687e-001 -1.60214737e-001 3.63612950e-001
      -6.22281492e-001 -5.82897514e-002 1.10570583e-002 1.82433948e-001
      -2.07511142e-001 1.55706450e-001 -9.21685249e-002 -8.07724074e-002
      1.52998185e-002 -1.74233064e-001 3.99439484e-001 3.19779456e-001
      -2.52558529e-001 -1.88665446e-002 -2.79168766e-002 1.96295932e-001
      -1.17685921e-001 4.29198951e-001 -2.07629740e-001 -3.50166649e-001
      3.99596751e-001 -2.55990863e-001 1.04608595e-001 -2.77894557e-001
      3.49325329e-001 2.45574892e-001 1.75133958e-001 -1.50515467e-001
      1.93496317e-001 -9.03603137e-002 2.38023605e-002 3.96665066e-001
      7.70028820e-003 2.26530492e-001 -3.74457128e-002 2.92181134e-001
      2.21470997e-001 5.23519993e-001 2.52658784e-001 -2.61460423e-001
      2.84793168e-001 -1.88626304e-001 2.96206009e-002 3.54091227e-001
      -2.49092564e-001 -2.20291823e-001 2.49594942e-001 9.62974727e-002
      -2.26391945e-002 3.01346809e-001 -1.26354769e-001 2.24127397e-001
      -1.07445635e-001 8.38474333e-002 3.50587428e-001 8.90100226e-002
      2.80473679e-001 1.69469506e-001 -1.25944406e-001 -9.08168182e-002
      3.05248767e-001 4.55030054e-002 -1.20020851e-001 -4.07455355e-001
      -2.16259450e-001 -1.56018913e-001 1.03058096e-003 1.69385970e-001
      -1.17788665e-001 1.48490131e-001 2.04332575e-001 -8.83529857e-002
      2.89327562e-001 3.38171818e-003 3.56333047e-001 3.25381272e-002
      -1.08150348e-001 -3.36684287e-001 1.12467997e-001 -7.48641565e-002
      -3.38950604e-001 9.81287286e-002 2.92161345e-001 -1.03307880e-001
      5.62682003e-002 1.23208918e-001 -4.08234522e-002 -4.48449887e-002
      1.38854876e-001 9.68185514e-002 -2.74063379e-001 6.51189312e-002
      -3.07289422e-001 1.93179265e-001 2.26776004e-001 -1.11672714e-001
      -1.18702240e-002 7.38048553e-002 1.31963879e-001 6.12930581e-002
      2.14395896e-002 -2.48387530e-001 5.76303154e-002 -2.65174191e-002
      5.68578802e-002 9.71849449e-003 1.76806480e-001 3.90126556e-002
      8.14969838e-002 5.11189699e-001 -1.46196201e-001 -2.40996078e-001
      -6.02657860e-003 3.51782143e-001 1.54980958e-001 -4.88072075e-002
      -6.23291766e-004 4.98468578e-002 2.70888746e-001 -2.99099870e-002
      -2.15330854e-001 2.32802495e-001 4.29816432e-002 -2.25860626e-001
      -2.60932118e-001 -4.94270250e-002 2.56805986e-001 -1.30133137e-001
      -5.18087931e-002 2.00692743e-001 3.68028551e-001 -2.08659634e-001
      -3.22497100e-001 1.65499255e-001 1.15403527e-004 -4.23855960e-001
      2.01158479e-001 -9.24689919e-002 -1.07436471e-001 3.87868437e-004
      1.78592980e-001 -2.72687860e-002 -2.29293600e-001 -2.41271816e-002
      1.07233524e-002 1.85444467e-002 -6.44345060e-002 5.05815782e-002
      -1.09485229e-002 -4.43448305e-001 -4.22832407e-002
      -4.04164046e-001 -1.31148323e-001 -5.66927195e-001
      -1.05505072e-001 1.52029127e-001 -8.66162702e-002 2.54371285e-001
      1.64072409e-001 -2.54356027e-001 -2.05880869e-003 1.74953178e-001
      -2.25092635e-001 3.07248741e-001 -1.40365526e-001 5.03215641e-002
      1.00634508e-001 -4.11325209e-002 -9.28442255e-002 2.25835413e-001
      -2.47816265e-001 -1.59988493e-001 2.25610495e-001 4.00649682e-002
      3.22724879e-001 2.49575824e-001 -8.71124864e-002 6.68491423e-002
      1.63372636e-001 1.26542568e-001 2.24648803e-001 -2.64681932e-002
      -8.99163932e-002 -7.52996057e-002 -4.72747944e-002
      -2.82226559e-002 1.15721285e-001 8.69531333e-002 -1.47114173e-001
      5.71864843e-002 1.38342440e-001 6.66582286e-002 -1.65250406e-001
      -1.83407053e-001 -3.70346420e-002 -1.33464202e-001
      -1.24923661e-001 -3.32446247e-002 1.27078578e-001 -6.73554182e-001
      -1.11598859e-003 3.72732989e-002 -7.02791959e-002 7.55385607e-002
      -8.50626156e-002 -4.19910163e-001 -3.41093183e-001
      -2.07936242e-001 -2.25184485e-001 -2.63920516e-001 3.28467220e-001
      -2.86882848e-001 -9.51646864e-002 1.00961730e-001 -2.57241279e-001
      -8.86646435e-002 2.29699448e-001 -2.91631557e-002 -4.64355081e-001
      -3.79534602e-001 -3.00254703e-001 -1.60222366e-001
      -2.83150196e-001 -8.26621130e-002 -5.18949866e-001 1.48452044e-001
      -1.40200764e-001 -2.41077214e-001 8.04613307e-002 -1.33809552e-001
      -5.20094298e-002 1.86206952e-001 8.78172070e-002 1.74757883e-001
      1.37086153e-001 -4.28312600e-001 1.02888033e-001 -7.04229549e-002
      3.20589215e-001 1.04315586e-001 3.30159068e-001 5.08120656e-002
      -1.51192635e-001 -5.02921678e-002 -1.19670950e-001 2.11461678e-001
      3.53079826e-001 2.48465827e-003 -8.63269344e-002 -2.22566903e-001
      1.09901667e-001 -1.72706813e-001 -2.64047146e-001 -6.33943200e-001
      -7.34431343e-003 -1.46616265e-001 -7.58037642e-002 7.57097220e-003
      2.79185712e-001 -1.36099875e-001 -5.32165393e-002 6.58636466e-002
      -4.68141660e-002 -1.51239738e-001 5.73515184e-002 -1.22334398e-001
      -2.62075365e-001 -1.40114769e-001 -2.54330039e-001 2.91485816e-001
      1.00515656e-001 -2.98303459e-002 -4.46027130e-001 1.39582336e-001
      3.87029955e-003 5.99857092e-001 2.38063723e-001 3.09031934e-001
      2.87061304e-001 2.27233041e-002 2.47368291e-001 4.99580115e-001
      1.47606090e-001 -3.55724424e-001 -1.54941961e-001 -3.13613206e-001
      -2.11809665e-001 5.38108051e-002 2.00369790e-001 2.92669117e-001
      -4.43170547e-001 4.03291844e-002 -1.04784980e-001 1.88608408e-001
      1.59694888e-002 7.30553418e-002 -5.16770840e-001 -2.29285866e-001
      -1.17225058e-001 2.49748945e-001 3.01947892e-001 8.72895047e-002
      2.37181529e-001 -2.73567915e-001 -1.30360469e-001 3.11111897e-001
      -8.45545828e-002 2.24963911e-002 -4.10889596e-001 -2.40807340e-001
      2.63253927e-001 7.38904297e-001 3.65268499e-001 2.30550587e-001
      1.43072069e-001 1.88459143e-001 -1.15630537e-001 1.71958789e-001
      -1.76269293e-001 4.61945862e-001 -2.00723082e-001 -6.32181168e-001
      -3.67349774e-001 1.84808120e-001 -3.54403287e-001 1.71795666e-001
      -4.01566893e-001 2.14195311e-001 3.16857278e-001 2.87019700e-001
      -1.34009391e-001 -2.13287413e-001 4.06702273e-002 4.13252831e-001
      7.22850412e-002 -1.97979853e-001 -2.16704756e-002 7.30506703e-002
      1.72832251e-001 -4.85022426e-001 -1.04537256e-001 1.41500190e-001
      -8.26633871e-002 1.09753609e-001 -6.65982589e-002 -7.27575868e-002
      3.72983545e-001 5.49762286e-002 3.78861167e-002 2.90968984e-001
      5.13957560e-001 -7.85806924e-002 -7.72258341e-002 -1.02975003e-001
      -7.76295317e-003 2.67743558e-001 1.71717942e-001 -1.01987146e-001
      -3.50043416e-001 -2.57979799e-002 -3.09778571e-001 1.18992567e-001
      1.44167423e-001 4.01175469e-001 4.82460745e-002 -1.96342394e-001
      2.67532200e-001 -1.38488472e-001 8.61069411e-002 5.86930960e-002
      2.93522894e-001 -8.79597813e-002 -1.44475326e-001 2.50618637e-001
      -2.42028728e-001 -4.92813587e-001 -1.91888399e-002 2.18477771e-001
      -1.55676126e-001 7.12495372e-002 1.98712270e-003 -2.03878105e-001
      2.43796915e-001 -3.97542000e-001 3.92695963e-001 2.30675906e-001
      -1.77624136e-001 9.73011106e-002 2.52342075e-001 7.81810135e-002
      -1.33882836e-001 -3.86148058e-002 -1.36614263e-001
      -2.03129992e-001 -1.07246965e-001 5.73193058e-002 -1.70346826e-001
      -7.43040815e-002 -8.40274990e-002 -2.13419162e-002 2.65289783e-001
      -1.41099557e-001 2.21259043e-001 2.63930988e-002 3.29634875e-001
      -4.82036583e-002 4.31470990e-001 8.84216875e-002 1.79289550e-001
      3.37381810e-001 -3.04883748e-001 5.03322715e-003 -1.33320183e-001
      2.92722195e-001 -4.40790325e-001 -1.32363632e-001 -2.94331372e-001
      2.22696349e-001 1.89912021e-002 1.16083987e-001 -4.70855720e-002
      -1.86459646e-001 3.11575860e-001 -6.63915230e-003 1.66699618e-001
      6.11745976e-002 -2.68567502e-001 -1.57124802e-001 -2.75398493e-001
      2.33455554e-001 -2.25281700e-001 2.32741013e-001 -1.96735188e-001
      2.08539844e-001 -1.82541639e-001 4.79021966e-001 -7.42526650e-002
      -2.39312813e-001 4.46545511e-001 -3.19569081e-001 1.50586784e-001
      -1.96546018e-001 8.76987651e-002 8.15851241e-002 -1.16256736e-001
      -2.96983588e-002 2.49833733e-001 1.83341969e-002 -1.68346643e-001
      3.99026632e-001 -4.02642310e-001 -5.85250407e-002 2.27088675e-001
      1.33223673e-002 2.75446683e-001 2.36251459e-001 1.64618015e-001
      3.39773804e-001 3.98698568e-001 -2.15797052e-001 1.58863634e-001
      1.30403414e-001 -3.78524423e-001 1.43462256e-001 1.25636337e-002
      3.40556264e-001 1.38293073e-001 -3.88348192e-001 4.81583536e-001
      5.84654622e-002 2.09505990e-001 -1.24013804e-001 3.55664641e-002
      -2.65475184e-001 2.34621108e-001 2.00191196e-002 -2.54784822e-001
      9.09608781e-001 -1.91957235e-001 2.92491317e-001 2.79967159e-001
      -1.26508236e-001 1.65428817e-001 -3.92462611e-002 -2.58863300e-001
      4.09510493e-001 8.41929466e-002 -2.23597273e-001 5.09210110e-001
      -4.65893298e-001 1.29182220e-001 1.66669115e-002 2.77676135e-002
      -2.61485338e-001 -8.18198100e-002 -1.09457120e-001
      -1.67145863e-001 -2.22699821e-001 -1.32868607e-002 8.97011627e-003
      5.22274189e-002 -4.51882184e-002 2.20700085e-001 1.77041069e-002
      2.13355064e-001 7.17626512e-002 4.53754812e-001 -1.47152513e-001
      6.54255878e-003 -1.16997091e-002 5.50733626e-001 4.80219722e-002
      -2.38416344e-002 1.61282614e-001 -8.05514306e-002 -6.42368197e-002
      -1.80518061e-001 1.65556684e-001 -1.56374827e-001 -2.47397572e-001
      1.60236239e-001 1.46609128e-001 1.20292246e-001 3.04435581e-001
      1.28521234e-001 1.92097619e-001 -7.49421716e-002 -2.61010051e-001
      3.45991135e-001 1.87641960e-002 1.18615322e-001 -2.30311930e-001
      1.20150372e-001 -1.18243076e-001 -1.70805067e-001 2.94263829e-002
      -6.42878339e-002 1.91129565e-001 4.21350628e-001 -6.53775454e-001
      -4.06953925e-003 1.85378492e-002 -7.54730403e-002 -1.01833180e-001
      2.89844841e-001 -3.85365158e-001 1.77820534e-001 9.37967002e-002
      -2.09968120e-001 -7.88435107e-004 5.04779220e-001 3.60490382e-001
      -1.80964202e-001 1.79537255e-002 1.02606818e-001 1.92627177e-001
      -2.01013774e-001 1.70808196e-001 1.00028142e-001 9.23759788e-002
      -2.99950212e-001 4.21583205e-002 -3.63224447e-001 5.74805355e-003
      1.34145051e-001 -2.97275871e-001 4.70716804e-001 -1.05626946e-002
      -1.40693665e-001 1.74363911e-001 3.00726950e-001 6.64695621e-001
      7.20113069e-002 2.61021316e-001 3.18691760e-001 -7.19624758e-001
      7.88664743e-002 1.53997466e-001 -3.92361656e-002 -2.30929449e-001
      -2.30660230e-001 -5.15073538e-002 5.30980192e-002 2.84926575e-002
      -5.43962181e-001 2.36452848e-001 1.11321688e-001 -5.20964146e-001
      2.60125399e-001 -1.02304287e-001 -7.18323961e-002 -6.46173134e-002
      1.30699918e-001 4.98665243e-001 4.13868539e-002 -2.12917775e-001
      3.96092758e-002 2.08091810e-001 2.64690239e-002 -9.53070819e-002
      1.60751585e-002 1.01723075e-001 2.51346648e-001 2.58971870e-001
      -3.52407515e-001 -7.48188347e-002 5.96238226e-002 -2.51504004e-001
      -2.50112295e-001 4.78439182e-001 -1.39188528e-001 -6.39563918e-001
      1.91501498e-001 -4.90028672e-002 -1.96367130e-001 7.40979463e-002
      1.87369630e-001 -1.87366694e-001 1.51310330e-002 -2.54165798e-001
      -4.71866757e-001 3.04897219e-001 -1.43228648e-002 -6.10923655e-002
      3.40837017e-002 -5.14679663e-002 9.21472013e-002 -3.66807729e-001
      -2.51396269e-001 1.26216739e-001 2.81416267e-001 -9.96214375e-002
      -3.03106368e-001 -2.10489705e-001 1.44242465e-001 1.37963250e-001
      2.69617915e-001 -2.38944352e-001 -3.95037197e-002 -3.03611100e-001
      -9.68908519e-002 -9.49557051e-002 2.25037143e-001 -2.65549541e-001
      -2.95266658e-001 4.42482624e-003 6.82685152e-002 -1.11836076e+000
      1.53270140e-001 -1.26532212e-001 -1.96953818e-001 -2.82216132e-001
      -2.17591286e-001 -1.14609055e-001 -8.83712098e-002
      -2.66955961e-002 -6.92815781e-001 7.99861178e-002 6.22381875e-003
      1.45903617e-001 -5.15073948e-002 -2.37538338e-001 -1.85172305e-001
      -1.69473976e-001 -1.17541254e-001 2.14500502e-001 -2.14538440e-001
      -1.33776054e-001 2.91193072e-002 -2.42104128e-001 1.19637854e-001
      5.28070740e-002 3.27880800e-001 2.05762535e-001 4.64904964e-001
      -8.39881003e-002 1.91013739e-001 6.56075329e-002 3.22287738e-001
      -1.42549843e-001 -2.03458175e-001 2.58141279e-001 4.12409097e-001
      -6.05031908e-001 3.35600615e-001 -1.06033690e-001 2.33443901e-001
      1.35790288e-001 2.70382911e-001 -9.36314911e-002 5.52823059e-002
      2.37910375e-001 -8.83756995e-001 3.75721276e-001 -5.32317199e-002
      1.36741191e-001 4.22893733e-001 7.04116598e-002 -3.54159951e-001
      -3.25867794e-002 -1.27757072e-001 5.70350766e-001 -1.03882626e-001
      -3.98784056e-002 -1.79435790e-001 -4.56695147e-002
      -8.79787579e-002 4.36821222e-001 4.86974418e-001 4.31660026e-001
      4.74825919e-001 -1.19188882e-001 -2.85300344e-001 3.64589810e-001
      2.82246530e-001 -1.63198769e-001 -2.53616869e-001 -2.60487641e-003
      4.68152970e-001 -5.56932569e-001 -1.33489698e-001 2.08260059e-001
      -3.97899300e-001 1.23320848e-001 9.06335283e-003 2.45098993e-001
      9.48922485e-002 3.75883222e-001 -6.07406378e-001 4.06395853e-001
      7.43677542e-002 4.84638363e-002 2.60525376e-001 -2.81126440e-001
      1.24657014e-002 -2.31466129e-001 -4.38115835e-001 7.36015975e-001
      -4.48883176e-001 3.70805487e-002 3.71554524e-001 1.36784151e-001
      1.66523233e-002 2.09162846e-001 8.69673789e-002 3.45982105e-001
      3.41414809e-001 1.36915231e-002 -5.25094807e-001 2.76353568e-001
      1.24761738e-001 1.04764393e-002 -1.43823504e-001 -2.00964287e-001
      1.70047477e-001 -2.39717469e-001 1.54401228e-001 2.95422196e-001
      -2.52882391e-001 1.81078330e-001 2.35716954e-001 4.10558760e-001
      2.58921742e-001 6.83951497e-001 -1.09918344e+000 2.23271716e-002
      -3.54615338e-002 -8.89161602e-002 9.40248817e-002 7.11387694e-002
      -6.58515235e-003 -2.36205056e-001 2.50326723e-001 4.31999296e-001
      -1.10321157e-001 -1.16877377e-001 1.26301244e-001 1.08440049e-001
      -1.95433080e-001 -8.54107067e-002 2.70729244e-001 4.59965289e-001
      5.15299439e-001 3.22230518e-001 2.85255075e-001 -3.93623739e-001
      6.07630657e-003 4.13593620e-001 9.61106196e-002 -5.19986391e-001
      2.86395639e-001 -3.74213219e-001 4.50824767e-001 -2.01302096e-001
      -3.54464591e-001 -9.85741895e-003 3.63481641e-001 7.92039633e-002
      4.24883485e-001 5.05751550e-001 -6.58428133e-001 2.88816363e-001
      6.89418316e-001 -1.56669334e-001 3.69966209e-001 2.08697811e-001
      1.04723267e-001 -2.83514827e-001 -4.93840873e-002 2.60700256e-001
      1.43029960e-002 -3.34708877e-002 -5.09650409e-002 1.76146299e-001
      5.80716468e-002 -6.82454705e-002 -2.05717850e-002 -1.02238238e-001
      5.59160471e-001 -8.83985832e-002 -2.29059577e-001 -4.44565862e-002
      -1.93852037e-001 3.27370912e-001 -2.51776427e-001 1.16920330e-001
      4.83728319e-001 -3.20451856e-001 1.33949950e-001 -2.03988612e-001
      -3.06593299e-001 3.39732796e-001 3.69036525e-001 -2.24540696e-001
      4.41886693e-001 1.12820745e-001 2.59197261e-002 5.30707896e-001
      2.26958871e-001 -1.64651036e-001 8.68393481e-002 3.89661163e-001
      -3.24209154e-001 -4.49805528e-001 -1.62058875e-001 7.66145661e-002
      -9.78751555e-002 -2.07873270e-001 -2.61471480e-001 2.50904560e-001
      3.69355321e-001 -2.01022737e-002 1.82483673e-001 -1.68556824e-001
      5.53784311e-001 -2.21683666e-001 -1.29014656e-001 -1.21352188e-001
      -1.27955884e-001 5.57688355e-001 -5.14101684e-001 -4.98682745e-002
      2.91134149e-001 -4.44232881e-001 2.87970841e-001 -4.69501406e-001
      -1.98658168e-001 1.46024749e-001 4.82135743e-001 -1.19062243e-002
      1.75864488e-001 1.74802199e-001 -7.15505406e-002 7.61745453e-001
      -1.19139433e-001 -1.16732389e-001 -2.30925262e-001</_></support_vectors>
  <decision_functions>
    <_>
      <sv_count>1</sv_count>
      <rho>-1.1823892791788049e+001</rho>
      <alpha>
        1.</alpha>
      <index>
        0</index></_></decision_functions></my_svm>
</opencv_storage>
