<?xml version="1.0"?>
<opencv_storage>
<my_svm type_id="opencv-ml-svm">
  <svm_type>C_SVC</svm_type>
  <kernel><type>LINEAR</type></kernel>
  <C>1.</C>
  <term_criteria><epsilon>2.2204460492503131e-016</epsilon>
    <iterations>100000</iterations></term_criteria>
  <var_all>8208</var_all>
  <var_count>8208</var_count>
  <class_count>2</class_count>
  <class_labels type_id="opencv-matrix">
    <rows>1</rows>
    <cols>2</cols>
    <dt>i</dt>
    <data>
      -1 1</data></class_labels>
  <sv_total>1</sv_total>
  <support_vectors>
    <_>
      -7.17786700e-002 -3.32448892e-002 5.90765364e-002 -8.16752687e-002
      -3.82067040e-002 1.01279803e-001 1.38716120e-002 -6.90203980e-002
      -2.58540273e-001 1.17616672e-002 1.11588622e-002 1.60864741e-001
      7.47819096e-002 -1.13644846e-001 -2.22786088e-002 1.58161938e-001
      -5.64122349e-002 -7.45786205e-002 -2.18409132e-002
      -1.88839305e-002 4.99534979e-002 -1.37774289e-001 -5.73005863e-002
      1.81241557e-001 3.54350009e-003 -1.38892278e-001 -1.47069708e-001
      -1.62688881e-001 -1.46659225e-001 -8.39279443e-002
      -1.27547383e-001 -1.07246339e-001 -2.75131315e-001
      -1.74371693e-002 -2.10697114e-001 -2.05639988e-001 7.36917257e-002
      3.66804153e-002 2.50227749e-002 9.15913028e-004 4.30291407e-002
      1.43569544e-001 7.51367509e-002 -5.01397438e-003 6.04990683e-002
      -1.41527101e-001 -1.89427137e-001 -5.25161624e-002
      -1.62280411e-001 -4.75531742e-002 -7.72067085e-002 4.26592119e-002
      -1.05736479e-001 -2.14188635e-001 -2.89142206e-002
      -4.48386045e-003 1.89705148e-001 1.97126642e-001 -2.32835282e-002
      1.09037794e-002 4.91420515e-002 -9.65148769e-003 1.37930056e-002
      -5.63749531e-003 -2.71890014e-001 1.69087082e-001 -2.43102610e-001
      3.02443709e-002 -1.55023277e-001 7.43099255e-003 -1.63492948e-001
      5.11142984e-002 -5.59571832e-002 -3.90947163e-002 1.20463697e-002
      6.26349896e-002 -4.24541801e-001 4.14433330e-001 3.27340901e-001
      1.22025326e-001 3.49895172e-002 -6.65351376e-002 9.49885580e-004
      -8.25660229e-002 8.14349577e-002 -5.63843213e-002 1.03622422e-001
      2.41689563e-001 4.79879081e-002 -1.20155863e-001 8.31193253e-002
      6.94089457e-002 1.07710600e-001 5.73180392e-002 -2.36470014e-001
      3.57186228e-001 2.25524545e-001 9.45501700e-002 1.74942449e-001
      5.94704635e-002 -9.01049301e-002 8.42966884e-002 -1.92435175e-001
      1.62784323e-001 -1.23757236e-001 1.59651875e-001 -2.35340640e-001
      -4.53287661e-002 -1.34725571e-001 1.56943962e-001 3.47768813e-002
      3.19713444e-001 -1.77801877e-001 1.97118506e-001 1.81920812e-001
      5.51959835e-002 -1.07987178e-002 -1.92227781e-001 -5.38712852e-002
      1.57793880e-001 1.66591644e-001 -2.09029436e-001 -2.73932546e-001
      1.34834424e-001 9.28925648e-002 -4.88969721e-002 1.73360631e-001
      3.04188505e-002 1.87067196e-001 2.21193843e-002 -7.98759982e-002
      1.43778458e-001 8.34419504e-002 -1.68621056e-002 1.64461747e-001
      -1.71298742e-001 2.79887021e-002 7.85315526e-004 -2.34138906e-001
      -1.17641278e-001 7.09284618e-002 1.17362373e-001 9.07203928e-002
      2.43435707e-003 8.19940493e-002 9.29879621e-002 3.90566945e-001
      1.79320306e-001 -9.58237723e-002 -8.41262639e-002 2.09344521e-001
      5.76745979e-002 -6.33790791e-002 1.73578039e-002 2.33497955e-002
      -9.20326915e-003 -2.47478168e-002 -2.34297782e-001
      -1.59095064e-001 3.11107516e-001 6.99515641e-003 -7.10763037e-002
      4.01653871e-002 -1.72411010e-003 3.96449165e-003 1.59292415e-001
      -7.19284788e-002 -5.28341644e-002 2.19364285e-001 -6.93244562e-002
      -8.40239041e-003 -1.30772665e-002 3.41961198e-002 8.89231265e-003
      1.60471216e-001 -4.24709776e-003 4.13868502e-002 1.09959222e-001
      -1.25948533e-001 -9.91602615e-002 -5.28131984e-002 1.09609634e-001
      2.28745430e-005 2.30905876e-001 3.44936810e-002 1.15168847e-001
      2.07286417e-001 3.60070989e-002 -4.70104180e-002 -1.10042527e-001
      -6.88132346e-002 7.24223617e-004 -4.29201312e-002 -3.16709876e-001
      6.56247064e-002 -1.65557101e-001 -5.75506389e-002 -5.39402068e-002
      -1.35253862e-001 -2.78110914e-002 1.35796040e-001 7.91363195e-002
      6.34742975e-002 4.64880168e-002 1.47218749e-001 5.86351976e-002
      1.14171386e-001 -1.38510615e-001 -6.63251057e-002 4.71022204e-002
      -1.32299103e-002 2.64610738e-001 1.05776429e-001 8.51444751e-002
      5.16801290e-002 2.46146154e-002 4.48760539e-002 1.13230385e-001
      1.46460101e-001 1.05434053e-001 -1.47563562e-001 5.25425225e-002
      -2.79525518e-001 -1.00189056e-002 -8.22956711e-002
      -7.77321383e-002 7.35063478e-002 1.85850356e-002 1.57421425e-001
      -1.55660003e-001 9.42529514e-002 2.91343600e-001 2.09517375e-001
      -4.37871553e-002 1.32397518e-001 1.72632232e-001 1.33282781e-001
      2.15837985e-001 1.64246812e-001 6.28032461e-002 -7.91021716e-003
      -7.84127563e-002 -3.10970619e-002 -2.24986617e-002 1.25718132e-001
      -1.15171671e-001 2.42237896e-002 -9.35641024e-003 -1.81244537e-002
      1.79848239e-001 3.69445831e-002 4.07166928e-002 -1.12968527e-001
      -1.03222327e-002 -8.34620185e-003 4.42013815e-002 -2.68179834e-001
      -1.43004701e-001 -2.13672090e-002 -1.04469739e-001
      -2.34064162e-001 5.20131774e-002 1.58545315e-001 1.31185740e-001
      6.65833279e-002 -7.43710324e-002 1.43326700e-001 -4.02897857e-002
      -1.67622119e-001 -1.93205383e-002 1.72442064e-001 8.95474106e-002
      9.45823640e-003 1.50647676e-002 6.77050725e-002 -7.97344670e-002
      2.84467906e-001 4.67648804e-002 1.46183252e-001 -7.91728124e-002
      -3.18460986e-002 1.04758022e-002 -2.17229798e-002 -4.03324068e-002
      -1.01434134e-001 9.71670374e-002 6.87088221e-002 4.92040962e-002
      8.18905756e-002 3.70161533e-002 8.24578777e-002 1.06846929e-001
      -2.99541324e-001 5.01776114e-002 1.17633849e-001 -4.55994084e-002
      9.21542868e-002 2.10292384e-001 5.39919510e-002 -1.70658991e-001
      -7.63103142e-002 -1.56241477e-001 -3.13616693e-002 2.59307742e-001
      -5.58912084e-002 1.35125294e-001 -3.37647274e-004 1.67158842e-002
      -6.96911216e-002 1.41268075e-002 1.16723262e-001 -6.80205598e-002
      1.92864418e-001 -9.70274433e-002 1.34387970e-001 1.69595256e-001
      -4.62716892e-002 -1.45602778e-001 -7.28833303e-002 1.28039733e-001
      9.61092412e-002 1.44568548e-001 -1.46564603e-001 1.90438613e-001
      1.54134125e-001 5.13296016e-002 1.21132217e-001 7.09833279e-002
      2.47646347e-002 -2.34075226e-002 2.98939757e-002 -1.52377009e-001
      8.14013705e-002 1.90350845e-001 1.34803712e-001 6.43013641e-002
      1.96866408e-001 -2.43215054e-001 8.05189610e-002 -6.47115633e-002
      -1.11737490e-001 1.83305983e-002 1.50894806e-001 5.51438518e-002
      5.26150353e-002 5.64409494e-002 5.37252938e-003 -1.02373242e-001
      9.88259614e-002 -6.53485069e-003 1.58209428e-001 8.75624344e-002
      -2.00725585e-001 -1.81183025e-001 -1.18946053e-001 8.91187508e-003
      7.75538161e-002 1.55245647e-001 -1.80365980e-001 4.23692055e-002
      8.24950933e-002 -3.53014953e-002 2.79653966e-002 2.85038859e-001
      -3.05379003e-001 -1.43689588e-001 1.95243314e-001 7.53012672e-002
      3.63317132e-002 1.72505543e-001 -1.24764681e-001 1.11581795e-001
      2.65551656e-001 -6.81582093e-002 -1.68283075e-001 1.43005148e-001
      1.41533375e-001 5.99161722e-002 -1.68817490e-002 -8.41432344e-003
      -1.22076318e-001 -3.47533464e-001 -1.52680110e-002
      -2.94595867e-001 1.22889332e-001 6.99358657e-002 -2.71602292e-002
      -8.19300711e-002 -1.00596800e-001 -5.33262379e-002
      -1.09969318e-001 -1.03205629e-002 -2.73921005e-002 2.29162440e-001
      -1.79725364e-002 -2.01753899e-002 4.80687410e-001 -4.78957631e-002
      1.06331430e-001 3.29666913e-001 1.12764332e-002 -9.67822794e-004
      1.34241641e-001 1.77859068e-001 2.60581255e-001 2.60261387e-001
      5.17080873e-002 -5.00609204e-002 1.96036816e-001 1.11473791e-001
      1.47309989e-001 1.60161898e-001 2.17936084e-001 1.97203341e-003
      2.09072098e-001 -9.14086848e-002 -2.62383949e-002 9.40857604e-002
      2.99432687e-002 -2.93252975e-001 -1.04798444e-001 -5.13188392e-002
      -2.30434500e-002 9.55633372e-002 4.09264714e-002 -2.02825636e-001
      2.63523106e-002 -1.09983422e-002 -8.92769247e-002 -1.40168622e-001
      -2.61796713e-002 -2.29526371e-001 5.03183901e-002 3.18064392e-002
      -5.24698421e-002 -1.31166056e-001 2.00538352e-001 1.56235203e-001
      -1.79142337e-002 -5.54298982e-002 -1.77701619e-002 1.19082920e-001
      -7.77059048e-002 1.91930961e-002 6.52858242e-002 -5.01476368e-003
      -1.15777403e-001 3.81562449e-002 8.67769867e-003 -7.07250014e-002
      7.55787070e-004 3.29868011e-002 -4.75806009e-004 -3.04199964e-001
      2.81969439e-002 6.87638447e-002 1.90069854e-001 3.37894857e-002
      -1.77325569e-002 2.23756433e-001 -1.20146945e-001 -1.28151715e-001
      -1.39466926e-001 8.52563903e-002 -1.55397788e-001 6.39517233e-002
      4.26781811e-002 -1.08503118e-001 -7.76420757e-002 -9.41218284e-004
      6.03628196e-002 3.12607586e-002 -6.93409368e-002 1.35852069e-001
      1.27158418e-001 -9.53225326e-003 -1.13761269e-001 2.22602859e-002
      -5.84369525e-002 1.47462353e-001 -2.33611256e-001 -3.96822877e-002
      -1.69589579e-001 1.83005258e-001 -2.87801549e-002 -1.87465653e-001
      7.09118918e-002 -1.03762768e-001 2.18478546e-001 1.42305682e-004
      -5.58831804e-002 4.79740612e-002 2.59012103e-001 4.71066050e-002
      -1.21052332e-001 2.81130642e-001 3.11854482e-002 -1.03617450e-002
      -1.96778059e-001 2.43016660e-001 -5.79675399e-002 1.17904283e-001
      -8.37809816e-002 6.47577271e-003 1.40954882e-001 1.62392229e-001
      2.14439481e-001 2.25189820e-001 6.63215965e-002 2.92558610e-001
      1.85932070e-001 3.96685526e-002 -1.02269024e-001 -4.18207683e-002
      -4.39812206e-002 -6.67788163e-002 -3.34949717e-002 2.44531870e-001
      -2.89990474e-002 1.57084435e-001 -5.01696952e-002 -2.07347021e-001
      2.04965383e-001 1.21628128e-001 1.71933079e-003 2.16517553e-001
      1.96732238e-001 8.02668035e-002 1.64654732e-001 -7.45077282e-002
      9.21351388e-002 -5.14952354e-002 -4.07601669e-002 -2.27622807e-001
      -1.79708570e-001 1.36370957e-001 -2.07053274e-002 2.20183417e-001
      1.83781739e-002 -7.52056316e-002 1.97594939e-003 2.61150878e-002
      5.02616391e-002 -1.19352583e-002 -7.89338052e-002 1.32056028e-001
      1.63483232e-001 2.19942834e-002 6.31208941e-002 4.06930037e-002
      7.68859610e-002 3.69511545e-002 -1.53091252e-001 9.21412855e-002
      -1.05685741e-001 6.43603280e-002 -7.70049319e-002 -5.09891696e-002
      -1.10643674e-002 1.07730730e-002 -2.43306495e-002 1.71639860e-001
      1.86218228e-002 1.47511303e-001 2.88882125e-002 -6.03883192e-002
      3.49830985e-002 -7.78903142e-002 -2.26635393e-002 -2.27098644e-001
      -6.80848137e-002 6.61460087e-002 -9.43746567e-002 4.54118662e-002
      -2.48570964e-002 -2.27716267e-002 1.76197127e-001 -4.61466648e-002
      1.77432038e-003 -3.08524650e-002 8.71939361e-002 7.66776875e-002
      1.80154756e-001 -1.04450651e-001 1.17118545e-001 -8.54512751e-002
      -2.11104527e-001 -9.07204822e-002 1.88745148e-002 -1.17700964e-001
      2.20651645e-002 -4.54369523e-002 -1.04656234e-001 6.59397840e-002
      1.70340538e-001 1.05819032e-001 9.27756727e-002 4.23269942e-002
      6.77285194e-002 -3.77507359e-002 6.71940809e-003 -5.32575324e-002
      2.58754510e-002 -1.75956607e-001 5.99964149e-002 8.81198049e-002
      2.54029147e-002 -4.39495668e-002 1.71017230e-001 7.55192190e-002
      1.47320852e-002 -1.86570808e-001 2.04729312e-003 -8.66649374e-002
      2.96580866e-002 -5.11622019e-002 1.10903800e-001 3.99361402e-002
      -1.26355380e-001 -1.78971589e-002 1.52990878e-001 1.85331218e-002
      6.20707683e-002 -3.34368902e-003 -3.21178250e-002 5.74740134e-002
      1.33409902e-001 -2.41646156e-001 -5.88054657e-002 5.32766655e-002
      -2.16316637e-002 3.79445702e-002 9.60834250e-002 2.70029843e-001
      -3.15892138e-002 8.44920799e-002 8.69898349e-002 2.14747325e-001
      9.87468194e-003 1.29828840e-001 5.87373041e-002 8.19939598e-002
      2.50018798e-002 -6.37059752e-003 2.48058900e-001 3.98912393e-002
      1.25369430e-001 1.48767484e-002 5.95620833e-002 3.75283547e-002
      -4.58982699e-002 -1.81045130e-001 -1.21342354e-001
      -7.08534271e-002 -1.76944554e-001 -2.39660427e-001
      -6.25677407e-002 2.83167530e-002 -1.54791344e-002 -2.20197558e-001
      7.88375735e-002 -9.54838619e-002 -7.88025260e-002 1.08907484e-001
      -1.24382347e-001 -2.38486510e-002 2.44155806e-002 -6.17401116e-002
      1.88986406e-001 2.10083425e-001 -8.03966522e-002 1.04977459e-001
      8.74812379e-002 8.10299665e-002 1.02879994e-001 -5.88378832e-002
      -1.21908132e-002 -3.65461372e-002 2.22678691e-001 3.85469049e-002
      7.14110509e-002 3.32817107e-001 8.29855949e-002 1.06608950e-001
      -2.04838216e-002 -1.47201821e-001 -2.78470255e-002
      -5.54394014e-002 -6.43355101e-002 -2.45308205e-002 1.05500966e-001
      -2.00168788e-001 -3.59256007e-002 -1.47915408e-001 5.15010133e-002
      -2.19903290e-001 9.49748307e-002 -1.84667867e-003 -4.04066332e-002
      8.74330327e-002 -3.17103527e-002 -2.07124259e-002 -3.48938257e-002
      -1.22858949e-001 2.01941561e-002 1.06927983e-001 1.21269912e-001
      -8.56655538e-002 7.90565461e-002 -2.33958587e-001 -1.62444394e-002
      1.39806956e-001 3.02120578e-002 -1.50648177e-001 -9.25505683e-002
      7.90730566e-002 -3.90805155e-002 1.09214239e-001 1.98147651e-002
      8.71283635e-002 -1.07189842e-001 1.27987126e-002 -4.92698513e-003
      -1.20101720e-001 -2.40634801e-003 -1.05827786e-002 4.17256244e-002
      -2.15235487e-001 -7.17406869e-002 -6.15652837e-002
      -7.45816305e-002 -1.19217895e-001 3.31130028e-002 -2.35750414e-002
      -1.16749071e-002 -4.47673798e-002 -1.23944283e-001 1.20514371e-002
      5.10370247e-002 4.00011837e-002 7.36235157e-002 -6.74633542e-003
      -1.22993607e-002 4.30234782e-002 2.45958328e-001 4.18733098e-002
      9.26498100e-002 6.08274564e-002 8.03266689e-002 -7.96137825e-002
      7.21260086e-002 1.20411195e-001 -4.77034692e-003 1.09200895e-001
      1.37959033e-001 2.48966783e-001 1.47844210e-001 6.69284537e-002
      -7.18164593e-002 1.39245242e-001 9.65517089e-002 6.08593673e-002
      -4.96644946e-003 9.43726823e-002 8.14541504e-002 1.11320153e-001
      1.05769649e-001 1.69181526e-001 1.64777607e-001 2.25854799e-001
      1.61108434e-001 -5.20735122e-002 -1.53665587e-001 2.48422455e-002
      -4.16499935e-002 -2.32849550e-002 -1.99990749e-001
      -2.18479410e-002 -7.32424557e-002 -1.88980952e-001 1.49432600e-001
      1.34043038e-001 9.63039547e-002 7.62958154e-002 -6.58721104e-002
      -4.33195308e-002 8.84484798e-002 -1.26137435e-001 -8.01134855e-002
      -9.83673930e-002 -1.08080566e-001 1.08547257e-002 1.67776048e-001
      1.91538572e-001 -1.69822518e-002 -5.51250316e-002 1.52170688e-001
      1.95689034e-002 4.66176420e-002 -6.02519289e-002 -3.82449962e-002
      4.18901965e-002 8.19143355e-002 4.91549186e-002 4.41784486e-002
      2.64166534e-001 7.23522976e-002 -9.78755653e-002 4.10961807e-002
      5.82358614e-002 -9.32804719e-002 9.90231186e-002 9.54943616e-003
      -1.06204815e-001 5.07264957e-003 -8.83498415e-002 3.16619784e-001
      1.19779855e-001 1.03423605e-002 -2.26382297e-002 -4.31389622e-002
      -1.05956681e-001 -2.63643593e-001 1.63017551e-003 -2.33599693e-002
      6.49984702e-002 -1.13966174e-001 -1.14086876e-002 1.11408114e-001
      -1.14575386e-001 3.00569274e-002 1.31664285e-002 2.87411273e-001
      -1.07560251e-002 -5.19724414e-002 -2.48803515e-002 5.24541400e-002
      2.00201944e-001 1.72019109e-001 -7.03324899e-002 7.20928982e-002
      -4.38090190e-002 -2.06276208e-001 -1.50022969e-001 1.39953848e-002
      -1.05726354e-001 1.16933890e-001 -1.51812300e-001 2.75299214e-002
      -1.50815308e-001 -1.72131527e-002 -1.51450075e-002
      -2.83104125e-002 -5.32670468e-002 1.75651282e-001 1.38659239e-001
      -8.33264831e-003 -1.84791312e-002 -2.12791115e-001
      -4.52299193e-002 -2.17655629e-001 8.95622894e-002 3.25531550e-002
      -1.78094909e-001 -6.04449920e-002 2.64782850e-002 -6.67688623e-002
      -3.07196259e-001 -6.58940226e-002 -1.45671934e-001 9.67237204e-002
      -9.22272429e-002 -7.98927024e-002 3.87576297e-002 6.18542135e-002
      9.77453440e-002 7.50826970e-002 -9.89244282e-002 -4.71313894e-002
      7.43898377e-002 5.26955305e-003 -1.16341770e-001 1.83495646e-003
      5.28707094e-002 -1.12587800e-002 -2.04885870e-001 7.22652599e-002
      8.53409022e-002 2.88992990e-002 7.05838874e-002 -1.34196123e-002
      1.27300754e-001 -1.52676985e-001 -9.31517873e-003 -3.46456654e-002
      -1.30937338e-001 -5.63200302e-002 -4.85741012e-002
      -7.69642070e-002 6.06085956e-002 2.24889573e-002 1.76390782e-002
      8.30982551e-002 -1.47660911e-001 2.82914042e-002 4.63167354e-002
      1.83490187e-001 1.19410623e-002 -2.55017668e-001 -2.42002271e-002
      -8.16609897e-003 3.02170645e-002 1.30971804e-001 1.30650088e-001
      -1.28476964e-002 3.75346951e-002 -3.14051472e-002 -2.18803272e-001
      7.29112551e-002 1.55487815e-002 8.91197547e-002 -1.43090472e-001
      3.53774764e-002 1.18746050e-001 2.96266198e-001 6.85923547e-002
      2.38102168e-001 -1.91604748e-001 -5.78637235e-002 -4.48900163e-002
      -2.63390224e-002 2.21819095e-002 -5.92126697e-002 1.69425197e-002
      -5.97826615e-002 -1.93735640e-002 1.43226668e-001 4.06598710e-002
      -6.48246631e-002 1.35228872e-001 1.59237742e-001 -4.84210178e-002
      2.22799316e-001 7.96959102e-002 8.10904801e-002 1.52945355e-001
      1.06851317e-001 9.26629081e-002 4.07731539e-004 7.53770070e-003
      -7.26103708e-002 -5.13618030e-002 6.53052405e-002 1.15034971e-002
      -1.65751040e-001 -6.52936324e-002 1.28536373e-001 1.67241216e-001
      -1.20861657e-001 2.12864187e-002 2.09207624e-001 -1.43471342e-002
      -1.29026830e-001 8.13701153e-002 -1.72508880e-002 -1.67793468e-001
      -6.73452169e-002 5.80668040e-002 -8.41814280e-003 1.04143366e-001
      1.86881702e-002 -3.76465567e-003 4.91228849e-002 -4.12467010e-002
      -1.23211846e-001 2.42324024e-001 1.31452128e-001 1.77218989e-001
      -8.75017419e-002 5.59154376e-002 1.48178458e-001 9.94078815e-002
      -3.53640714e-003 -6.95106238e-002 1.38885796e-001 -8.36694390e-002
      -8.44742283e-002 -3.83165968e-003 2.47644670e-002 2.14544367e-002
      1.71536431e-001 7.20757842e-002 1.40350526e-002 2.93146819e-001
      1.51825890e-001 1.07367083e-001 -3.19206640e-002 1.23539820e-001
      4.30145562e-002 1.24581270e-001 -8.01014807e-003 -1.17812663e-001
      -9.89318341e-002 5.84417209e-002 4.16172221e-002 1.16579078e-001
      4.96019982e-002 -7.41150603e-002 -1.73790380e-002 1.06190681e-003
      4.24967073e-002 2.99755652e-002 2.91060805e-002 -2.28975601e-002
      2.65475903e-002 6.57913536e-002 1.61977202e-001 -1.16829500e-001
      -4.79676686e-002 -6.18054233e-002 -9.43791941e-002
      -2.61098184e-002 -4.74887490e-002 -1.93633176e-002
      -9.86785218e-002 -5.31988032e-002 1.37322128e-001 1.48189917e-001
      1.51487097e-001 1.12977192e-001 -1.40395537e-002 -1.25163987e-001
      4.71865498e-002 1.50174990e-001 2.00933814e-002 -1.07774355e-001
      3.38806305e-003 -8.59529187e-004 -4.09601368e-002 1.81137413e-001
      9.77162346e-002 1.64965391e-001 2.42440760e-001 -1.92401633e-002
      6.08645231e-002 -5.22360057e-002 -5.81282601e-002 3.71751115e-002
      3.11690965e-003 -1.93377271e-001 -1.63375691e-001 -4.23035435e-002
      8.33131000e-002 7.97940418e-003 1.31746922e-002 9.54003185e-002
      -4.03945670e-002 6.98193833e-002 1.04553483e-001 -8.89787227e-002
      -2.73508690e-002 2.76932474e-002 7.05880970e-002 1.28818855e-001
      8.18355903e-002 2.31788337e-001 -1.96595713e-002 -4.95886169e-002
      1.57919571e-001 1.80512592e-001 2.47142255e-001 -6.77105561e-002
      1.75077960e-001 3.06090480e-003 4.54253741e-002 6.29801899e-002
      8.10886249e-002 2.93228805e-001 2.05629379e-001 1.63376760e-002
      -7.92934820e-002 -1.81930661e-001 3.84144555e-003 -3.61670107e-002
      -4.85423356e-002 1.38023896e-002 -1.42691985e-001 -2.94141974e-002
      1.19171113e-001 -2.09856540e-001 5.18615451e-003 -1.07582502e-001
      -7.77656510e-002 -1.54962271e-001 2.93365624e-002 -6.28561601e-002
      -1.47975667e-003 2.13511050e-001 -1.68401405e-001 3.75711396e-002
      1.02076747e-001 1.37443811e-001 -4.96327505e-002 -5.50871529e-002
      -8.05767179e-002 2.54466441e-002 1.37895525e-001 -1.92616075e-001
      1.02450415e-001 -1.31974682e-001 -1.04598768e-001 -1.64095923e-001
      3.37721631e-002 -2.36517359e-002 -1.07746869e-002 2.70168334e-001
      -2.13267922e-001 -6.08442090e-002 -1.51153624e-001
      -3.41003910e-002 -9.18863639e-002 1.46583086e-002 5.96383121e-003
      -3.76908302e-001 6.69524819e-003 9.15282890e-002 -4.67398278e-002
      -3.19982171e-002 -1.44523025e-001 4.06227671e-002 -1.44151464e-001
      -9.92846563e-002 -1.41360417e-001 1.99082002e-001 -1.17779180e-001
      -1.23391718e-001 -9.64843035e-002 -3.81871127e-004
      -3.78249288e-002 6.56104833e-003 3.97129729e-002 -3.34238596e-002
      2.53318310e-001 5.44824935e-002 -1.45181790e-001 -1.65125638e-001
      -8.56294781e-002 -3.91698908e-003 -1.07019156e-001 6.68151230e-002
      1.68273121e-001 3.44824612e-001 -1.72633925e-004 -8.51601511e-002
      6.92346841e-002 -6.53829426e-002 2.93134212e-001 9.01296660e-002
      -3.09802704e-002 -1.26191765e-001 2.75429096e-002 -4.61753607e-002
      8.60786662e-002 -8.42430964e-002 -4.79713045e-002 1.72916442e-001
      -7.94806692e-004 -1.10857584e-001 -1.16674416e-001
      -6.49932399e-002 1.14044167e-001 1.83345512e-001 -4.95465361e-002
      8.22811052e-002 6.95658997e-002 -1.92416415e-001 -5.11733368e-002
      4.31301445e-002 1.37863144e-001 7.51757771e-002 7.88022205e-002
      -2.67269641e-001 1.87380873e-002 1.13364227e-001 1.18246958e-001
      1.66134331e-002 -7.15227239e-003 1.38664991e-001 -8.16827547e-003
      8.37813467e-002 -1.02100270e-002 3.38046327e-002 1.78417236e-001
      -1.16357207e-001 -3.77874039e-002 -9.85187218e-002
      -4.86408211e-002 1.29469544e-001 1.09019808e-001 5.12239300e-002
      2.68961102e-001 1.22145921e-001 4.54702377e-002 -7.91914240e-002
      -3.51283066e-002 8.54075477e-002 8.73172283e-002 2.15279926e-002
      -2.56765008e-001 -1.21414661e-001 -3.92921232e-002 3.15934643e-002
      9.63243768e-002 1.59748867e-001 9.36855823e-002 4.66722436e-002
      -3.20275277e-002 -1.49520352e-001 -1.90729629e-002 9.17712599e-002
      -1.15578532e-001 1.09514445e-001 1.07487410e-001 1.64517790e-001
      1.64469838e-001 1.31876260e-001 4.50592581e-003 8.36262703e-002
      2.17619821e-001 -4.00548466e-002 1.27528897e-002 1.18082175e-002
      -3.88754942e-002 1.26397200e-002 1.22369684e-001 1.42883629e-001
      7.81757161e-002 1.40138656e-001 -7.48115554e-002 -5.66302519e-003
      -5.48474304e-003 -6.62452802e-002 -5.24351709e-002
      -9.96778309e-002 -3.12772870e-001 -6.35645352e-003
      -8.84932429e-002 -9.38505903e-002 2.08324611e-001 7.72002265e-002
      -6.90019354e-002 -3.50608937e-002 -2.20168978e-002
      -1.35140210e-001 1.65252555e-002 3.31382677e-002 6.06444851e-002
      -1.15066310e-002 2.25437313e-001 1.86823718e-002 9.81149822e-002
      -7.46766105e-002 3.96747589e-002 -6.70647621e-002 1.10135466e-001
      -5.32090366e-002 -1.82427526e-001 -2.21528202e-001
      -1.75360352e-001 5.32663763e-002 -1.60758067e-002 2.16463149e-001
      1.05968945e-001 8.09894279e-002 -1.44465752e-002 -8.95773619e-002
      2.97089908e-002 -1.79142311e-001 1.94546118e-001 -2.00328641e-002
      -1.17229901e-001 -1.57471909e-003 1.70234039e-001 -1.54935606e-002
      -7.29132891e-002 1.33299576e-002 -1.34625733e-002 3.98913696e-002
      -3.86537090e-002 -1.91348508e-001 -8.13494027e-002 1.67006567e-001
      1.68602206e-002 1.80602018e-002 1.12460062e-001 -2.21667290e-001
      9.39955842e-003 2.12452158e-001 1.67797908e-001 -1.75679237e-001
      1.19872935e-001 -1.07830293e-001 1.64808482e-001 2.31809229e-001
      2.43504755e-002 2.71181185e-002 -1.75051361e-001 9.17937383e-002
      1.39998078e-001 -5.38930520e-002 -1.02868788e-001 -5.71618602e-002
      -1.30707799e-002 -8.37259218e-002 -1.58978570e-002 1.74427286e-001
      -5.59065156e-002 9.72320139e-002 -1.14891037e-001 1.11569889e-001
      9.62548405e-002 1.76927075e-001 1.02323242e-001 1.67690348e-002
      -1.33900777e-001 -1.05884232e-001 9.51670259e-002 -2.20346496e-001
      -4.76999879e-002 -7.27580413e-002 -2.32227147e-001
      -1.59273103e-001 5.10251746e-002 4.18026000e-002 -1.34369265e-002
      4.65681702e-002 1.29921600e-001 2.51125135e-002 2.07298696e-001
      1.19005673e-001 3.62423956e-002 -7.75494277e-002 1.12073138e-001
      -3.89918648e-002 1.38737842e-001 4.09955997e-003 -3.10759377e-002
      1.05198994e-001 -1.94903146e-002 -1.09782256e-001 -4.43348801e-003
      2.74621882e-002 -5.09487428e-002 1.38782457e-001 -1.76896855e-001
      3.19281314e-003 8.75773877e-002 1.82938874e-002 -2.15391088e-002
      -7.59152770e-002 -4.10625897e-002 7.31199607e-002 -4.85073552e-002
      9.74618718e-002 -6.86558262e-002 1.34597570e-001 4.99388054e-002
      3.92068289e-002 6.94233254e-002 6.67119399e-002 -3.59895304e-002
      7.01757520e-002 -4.53025481e-004 -1.19773008e-001 -7.47023374e-002
      -1.33831680e-001 1.35100177e-002 1.46611527e-001 1.04370497e-001
      -1.67564712e-002 2.34338846e-002 -3.80119272e-002 -5.46259061e-002
      4.52252179e-002 -8.74595046e-002 -2.33942270e-002 2.05539331e-001
      1.00984424e-001 1.00733284e-002 5.18648066e-002 2.00012303e-003
      -1.23723798e-001 -8.19737241e-002 -3.35067138e-002 7.35321967e-003
      3.13269650e-003 1.13641568e-001 -1.04560228e-002 -1.42101392e-001
      4.35693488e-002 -6.77902848e-002 -1.01234078e-001 3.14060301e-002
      -1.34365067e-001 1.54060990e-001 3.54794040e-002 -4.23573330e-002
      2.56537527e-001 9.93447099e-003 6.11878745e-002 -5.68943731e-002
      2.93377060e-002 6.84890747e-002 1.51622921e-001 -1.11574054e-001
      -8.05042386e-002 3.72972488e-002 1.87137369e-002 -2.49372851e-002
      -2.06935793e-001 -3.82549465e-002 -9.82260033e-002
      -4.29261774e-002 1.16350710e-001 4.33944054e-002 2.73441017e-001
      -6.96181804e-002 1.07185312e-001 4.54900637e-002 1.00177228e-001
      -3.91596109e-002 1.32609367e-001 8.23788196e-002 1.57716364e-001
      1.23966247e-001 -1.33948281e-001 9.96261388e-002 -8.60446878e-003
      1.29932657e-001 -1.04106031e-001 6.95940480e-002 -4.75705452e-002
      -1.23177737e-001 6.63205385e-002 1.49242729e-001 1.98431104e-001
      -2.37448886e-002 -3.97056639e-002 1.00535773e-001 -7.71523193e-002
      -1.18209422e-001 -1.80023953e-001 3.01724020e-002 -8.01472291e-002
      -1.37071744e-001 -4.35641780e-002 -9.68887061e-002
      -8.44293274e-004 2.76476324e-001 7.98214227e-002 6.36998639e-002
      1.76921651e-001 9.45801586e-002 1.15321688e-001 -4.36934754e-002
      -6.50050342e-002 1.86666682e-001 7.99243450e-002 -5.61603978e-002
      4.25645821e-002 3.63348983e-004 2.88382033e-003 -6.88608736e-002
      -1.75137613e-002 1.01527236e-002 8.10072720e-002 -1.03612535e-001
      -2.15732291e-001 -1.37690991e-001 -1.41758934e-001 1.92771200e-002
      -2.10824475e-001 -4.26250547e-002 -8.84322003e-002 2.11850554e-001
      2.61535179e-002 -1.05316080e-002 -1.21564671e-001 -9.51161608e-002
      -2.12250836e-002 -8.85685459e-002 -2.64609829e-002
      -1.21094413e-001 -5.93878003e-003 1.31307051e-001 -1.70027055e-002
      -1.19273709e-002 1.54266462e-001 1.53222650e-001 -2.28774622e-001
      5.96997030e-002 -5.43565070e-003 1.92227438e-001 -1.83727946e-002
      -1.57709199e-003 2.05488876e-001 7.21210614e-002 9.26308110e-002
      8.70555043e-002 2.79290497e-001 2.77911667e-002 8.86632055e-002
      -1.30859435e-001 -1.19515836e-001 -1.60604585e-002
      -8.55238661e-002 -1.96816791e-002 -8.89023487e-003
      -2.20838815e-001 -3.27600211e-001 -3.29345316e-002
      -9.85654891e-002 1.20941974e-001 5.65780289e-002 -5.94351478e-002
      -1.56529218e-001 -1.67186167e-002 6.09191246e-002 -6.14093281e-002
      1.29341140e-001 -9.30421576e-002 6.18211739e-002 2.51303852e-001
      1.76664144e-001 4.95272428e-002 1.44457759e-003 6.70154616e-002
      -6.55231103e-002 1.37013733e-001 -5.87947741e-002 7.10261315e-002
      2.43992880e-001 -2.25206204e-002 -9.51686427e-002 5.89688448e-003
      9.47433710e-002 2.79696174e-002 1.55577853e-001 -2.16636702e-001
      -1.02778472e-001 2.31771488e-002 -7.48338848e-002 -4.24523763e-002
      -1.99832898e-002 -4.58499603e-002 -1.47021905e-001
      -6.03406318e-002 -1.20071270e-001 -1.81272663e-002
      -9.13740769e-002 7.95884728e-002 -1.56631812e-001 -8.82751346e-002
      -2.36618239e-002 -8.37504864e-002 -1.17052957e-001
      -7.35412613e-002 1.11665584e-001 5.91870956e-002 -5.01635596e-002
      1.10561237e-001 -1.52667031e-001 1.42712265e-001 -2.15700157e-002
      4.02746499e-002 -4.93381694e-002 -1.97479084e-001 -2.00734034e-001
      -1.69696271e-001 -3.99306677e-002 2.40962151e-002 1.42698586e-001
      -3.36714163e-002 3.13554741e-002 -1.68330580e-001 -1.08212888e-001
      -4.05290946e-002 -5.03291711e-002 -8.41279253e-002
      -5.04604802e-002 4.13712598e-002 -1.72651067e-001 -2.26365551e-001
      1.87605489e-002 7.79978139e-003 -1.27497643e-001 1.73170000e-001
      -1.87167585e-001 5.24072424e-002 -7.73685947e-002 -1.42295018e-001
      5.21681877e-003 7.04975948e-002 -1.72927648e-001 -6.58898130e-002
      5.33647975e-003 1.08771212e-002 -1.78933129e-001 1.50844932e-001
      5.63495196e-002 7.95146972e-002 9.90070552e-002 9.67612490e-002
      -6.49787933e-002 1.57764852e-001 1.14433624e-001 -4.23850603e-002
      1.26801953e-001 4.02801996e-003 6.16952218e-002 1.42588153e-001
      8.12475234e-002 -1.40440151e-001 -1.09512419e-001 7.89831281e-002
      3.62882987e-002 1.72120422e-001 -1.57363668e-001 -5.22039980e-002
      8.26650858e-002 7.54164755e-002 -1.67375773e-001 1.24568038e-001
      6.10548146e-002 -2.38257553e-002 6.50048926e-002 -2.04463571e-001
      -1.68288928e-002 2.95729607e-001 2.35416025e-001 -1.47915035e-001
      1.09339111e-001 1.87212124e-001 7.11580692e-003 3.04251820e-001
      -2.29625888e-002 7.83188641e-002 1.55654341e-001 -2.94948779e-002
      1.44673763e-002 2.15953484e-001 9.62989125e-003 5.96946925e-002
      1.61562964e-001 -6.64015766e-003 2.26662066e-002 9.64480415e-002
      1.65263433e-002 -3.87086160e-002 -8.53605270e-002 1.25248149e-001
      -7.88062587e-002 1.85252458e-001 -2.36475259e-001 -1.33746579e-001
      -4.64569218e-002 2.34339401e-001 1.56646594e-001 -4.19135056e-002
      1.10161982e-001 -9.11164880e-002 -8.72765481e-002 -4.29765359e-002
      -7.83605967e-003 4.46981974e-002 -8.91744420e-002 9.27597582e-002
      2.60677114e-002 1.46643892e-001 3.07321120e-002 5.25738597e-002
      1.86759651e-001 1.20877430e-001 -9.53806043e-002 -8.96327868e-002
      8.56741369e-002 -1.40492737e-001 1.22066639e-001 6.09172732e-002
      1.79085910e-001 1.07950352e-001 9.85915810e-002 2.68267632e-001
      9.35755894e-002 -1.35521114e-001 -2.50796378e-001 2.23345309e-001
      -1.51431441e-001 -1.48294583e-001 -5.05150557e-002 1.10389799e-001
      2.02941205e-002 5.18713286e-003 -3.99570651e-002 -1.09273300e-001
      1.67164981e-001 -3.15983817e-002 -1.55148402e-001 2.10725993e-001
      1.48364687e-002 6.47467822e-002 -2.04867974e-001 3.40937264e-002
      -6.62726909e-002 1.34861141e-001 1.20263644e-001 1.14963368e-001
      1.31128123e-002 1.30140319e-001 -2.67783552e-001 -1.00745410e-001
      6.93754777e-002 2.86033954e-002 7.30766654e-002 7.00814351e-002
      1.05758078e-001 2.35874295e-001 -8.21186155e-002 -4.68182489e-002
      1.63549110e-001 -1.72096938e-001 4.63417843e-002 -2.46480629e-001
      1.34813175e-001 -8.38003829e-002 -1.89438146e-002 -7.21481740e-002
      -1.31558284e-001 -1.32327795e-001 -1.13187827e-001
      -2.17815712e-002 -3.20883654e-002 -5.18285446e-002 7.36154988e-002
      -5.38987927e-002 -2.80464720e-002 -9.48999450e-002 2.05459088e-001
      -4.24584001e-002 -6.36044443e-002 1.34328485e-001 -1.42914623e-001
      -9.86210927e-002 2.22827843e-003 -1.48062527e-001 -4.71796170e-002
      -1.67798832e-001 -2.60575175e-001 1.42876282e-001 1.14854705e-002
      2.50947122e-002 1.48340344e-001 -1.06414907e-001 -9.85077769e-002
      1.29894108e-001 1.43625423e-001 5.77031523e-002 -5.54956831e-002
      -8.22036434e-003 -3.71078439e-002 1.66606069e-001 7.24143237e-002
      5.90076931e-002 -7.08859265e-002 6.78120330e-002 -4.32931036e-002
      -6.71510920e-002 -7.71040767e-002 -1.52804524e-001 2.33668238e-001
      3.31032462e-002 -5.87434098e-002 2.48735398e-001 -4.27797027e-002
      -2.60957088e-002 2.53820550e-002 -7.51443505e-002 -3.18576358e-002
      1.38437105e-002 -1.01325363e-001 1.00823104e-001 4.24855873e-002
      4.65985276e-002 -3.35636623e-002 -1.44511133e-001 4.77723069e-002
      1.10808216e-001 2.15840325e-001 6.80210767e-003 -1.24421820e-001
      6.69773966e-002 -3.24071348e-002 8.45565572e-002 6.41731545e-002
      1.39220402e-001 -1.08999304e-001 1.04231715e-001 7.22769871e-002
      1.93634909e-002 1.19231641e-001 1.11818194e-001 1.20905079e-001
      1.50464028e-002 1.18729495e-001 -6.80682063e-002 9.81073231e-002
      2.83453567e-003 -1.93082541e-002 1.65799513e-001 -1.49416313e-001
      1.44870961e-002 4.41190898e-002 8.41961801e-002 9.91108268e-002
      6.19612858e-002 -4.48338240e-002 -3.94872315e-002 1.61811292e-001
      -4.71465513e-002 7.82612562e-002 -4.71946709e-002 1.14623889e-001
      7.74349347e-002 2.36731857e-001 -2.32221006e-004 -1.28253438e-002
      8.07480216e-002 -1.25397190e-001 -1.40924782e-001 1.53070450e-001
      -4.32603993e-002 5.29524945e-002 -3.19819078e-002 -6.47332985e-003
      -1.27999485e-001 5.84197417e-002 -6.60356656e-002 3.34027074e-002
      -1.98922977e-002 5.30138686e-002 -1.18282795e-001 -9.68427286e-002
      4.45352634e-003 -4.75122109e-002 2.00895995e-001 -1.73438787e-001
      -5.21221049e-002 9.97970328e-002 -1.04882620e-001 2.11424921e-002
      1.05997384e-001 -4.99693006e-002 -6.99373782e-002 1.26649633e-001
      -1.30026489e-001 4.79552969e-002 1.73989698e-001 -5.56787811e-002
      -2.46362556e-002 6.90021291e-002 1.18219309e-001 2.26598829e-002
      -8.70543793e-002 -1.71427503e-001 -2.87785921e-002
      -3.28960232e-002 -1.21461684e-002 -2.00942084e-002
      -1.95834771e-001 -1.27960235e-001 -4.51013492e-003 6.62802979e-002
      -9.87475365e-002 -2.67554279e-002 5.22029167e-003 -1.23050613e-002
      9.99809802e-002 1.49189457e-001 -6.58393279e-002 -6.43221801e-003
      -4.57538590e-002 -9.76345390e-002 -8.30152854e-002 1.26146227e-001
      -2.61565268e-001 1.08598564e-002 -1.35569433e-002 8.35430324e-002
      6.63598068e-003 3.39769274e-002 -4.02499735e-002 1.66047122e-002
      1.25019774e-001 2.25839198e-001 1.67790368e-001 9.45769250e-002
      1.01355858e-001 4.58188429e-002 5.29183298e-002 -1.13386169e-001
      -1.20989330e-001 -8.98676645e-003 6.04716614e-002 -5.43542840e-002
      7.76541233e-002 -1.14327587e-001 2.72806641e-002 -2.82197803e-001
      -1.84278741e-001 6.46486059e-002 -1.85474366e-001 4.09957804e-002
      -1.42307445e-001 -2.11352538e-002 -1.61907434e-001
      -2.27516025e-001 1.95799351e-001 1.02074198e-001 1.31046638e-001
      1.44426420e-001 1.20761804e-001 -1.16221514e-002 1.57304943e-001
      -2.50756778e-002 8.38850513e-002 8.68809596e-003 1.27573729e-001
      4.50417064e-002 -1.19574249e-001 -9.14086923e-002 -2.22742245e-001
      -1.90365203e-002 2.44481433e-002 2.08113715e-002 -1.36650234e-001
      -1.71064049e-001 -1.30677387e-001 -3.22624713e-001 2.56403945e-002
      -7.46799037e-002 -1.73256561e-001 -1.48650244e-001
      -1.32420778e-001 -1.90685515e-003 6.24721171e-003 6.35233447e-002
      -1.19564563e-001 8.09448808e-002 -1.05500914e-001 -8.91672298e-002
      -1.10874228e-001 1.56151414e-001 -5.31864092e-002 7.42284507e-002
      -9.39350426e-002 -2.84573901e-002 -7.98960449e-004
      -3.37709226e-002 1.47210792e-001 -1.09346151e-001 -5.01794852e-002
      8.04924816e-002 -4.09443444e-003 6.40714914e-002 -2.02076048e-001
      -1.24507910e-002 -1.41884804e-001 3.24017033e-002 -6.05131313e-002
      5.38400263e-002 -5.93240075e-002 -2.15666145e-002 -2.35615700e-001
      -2.52997041e-001 -1.07797354e-001 -1.06979862e-001
      -1.28578365e-001 -2.22340465e-001 6.05689548e-002 -3.06906588e-002
      8.00461695e-002 -2.63567362e-002 1.18242972e-001 -2.55461723e-001
      1.55589581e-002 3.54592837e-002 -2.65813440e-001 -3.82999480e-002
      -9.63111594e-002 4.22441438e-002 3.11184209e-002 -2.73630000e-003
      2.52066068e-002 -8.52937326e-002 3.72009240e-002 -1.53815180e-001
      -1.38110213e-003 -5.87957464e-002 5.92125617e-002 2.98464093e-002
      2.62950063e-002 -1.54332146e-002 2.20976353e-001 2.32970148e-001
      -1.48223341e-001 -3.46490555e-002 5.90570308e-002 -2.22045407e-002
      -2.46916544e-002 1.51493981e-001 -1.21299587e-001 -1.63628444e-001
      -1.31103039e-001 -1.63312972e-001 3.71761434e-002 1.19010001e-001
      -8.65139812e-002 -1.57724708e-001 3.11219115e-002 -6.45954609e-002
      -6.57026619e-002 -1.17673926e-001 -2.00357720e-001
      -1.41979516e-001 1.05736434e-001 -8.10287073e-002 -1.24031477e-001
      1.81572717e-002 1.81275502e-001 -1.22921273e-001 1.22546867e-001
      -1.51596069e-001 4.94665205e-002 1.31092817e-001 2.65517943e-002
      -3.42566636e-003 6.04646914e-002 5.56123182e-002 1.25797510e-001
      9.88560915e-002 -1.32582739e-001 -1.19204991e-001 2.75882124e-003
      -5.61110005e-002 -1.76337376e-001 -6.93293586e-002 8.10511112e-002
      -2.91375726e-001 -3.52757163e-002 -2.51655608e-001
      -1.10228837e-001 -2.27165949e-002 6.10676743e-002 1.18121561e-002
      3.32050771e-002 2.10936572e-002 -2.48494446e-001 -1.33757204e-001
      -4.15808186e-002 4.71137464e-002 1.81222022e-001 1.53055057e-001
      -3.58750783e-002 3.71000953e-002 1.58281758e-001 -1.28954083e-001
      3.27809632e-001 5.94338067e-002 3.28014381e-002 2.69364506e-001
      1.23887457e-001 -1.35586753e-001 5.74959721e-003 1.87932085e-002
      8.09415802e-002 2.25289121e-001 -4.88461868e-004 9.51909870e-002
      1.78347841e-001 -6.38470352e-002 -8.82905051e-002 -9.28650573e-002
      3.01825613e-001 -1.83752000e-001 -1.87482178e-001 2.42158677e-002
      6.27277866e-002 2.72117518e-002 -2.15761028e-002 1.33641914e-001
      -3.84888202e-002 6.88848868e-002 -1.99460223e-001 -1.53152898e-001
      8.66018310e-002 8.20770487e-002 1.79097444e-001 -6.45903498e-002
      -1.05416849e-002 -6.85190707e-002 2.91768581e-001 2.36965582e-001
      -1.56432635e-003 -1.50272876e-001 1.33239940e-001 2.47921348e-002
      -5.35971895e-002 1.47089094e-001 8.01385120e-002 9.88820195e-002
      2.08792463e-002 -6.22990951e-002 -7.84617588e-002 9.88675002e-003
      6.24723993e-002 -1.36133824e-002 1.38317838e-001 -1.29709229e-001
      7.39402175e-002 -1.60470486e-001 5.92429973e-002 -6.90669492e-002
      1.52958512e-001 -6.64281696e-002 1.66853711e-001 2.64984816e-001
      -2.93540210e-001 -1.23781055e-001 -2.62716502e-001
      -3.14953993e-003 2.32355222e-002 -4.23914976e-002 1.00364320e-001
      -6.52077943e-002 6.78022951e-002 1.50292173e-001 1.45579502e-001
      1.96830630e-001 9.35420394e-002 8.79421160e-002 1.72323838e-001
      -6.09133579e-002 1.20914295e-001 1.25814863e-002 -4.33103777e-002
      1.15615383e-001 2.23801628e-001 1.61721408e-001 2.27777272e-001
      -2.05704123e-001 1.23736598e-001 1.69043452e-001 5.92745934e-003
      -8.61390084e-002 4.70694974e-002 2.63376571e-002 1.36834279e-001
      1.18984573e-001 5.40912524e-002 6.27950625e-003 -1.20137230e-001
      -1.21795513e-001 1.41131312e-001 4.52349558e-002 -5.56736700e-002
      1.96318179e-001 -6.24925569e-002 -2.53961757e-002 -6.45407848e-003
      -1.19878091e-002 -7.88900629e-002 -8.10367391e-002
      -1.06298245e-001 6.40974268e-002 6.00635931e-002 1.01320922e-001
      3.86172086e-002 -1.14025451e-001 -3.66815515e-002 -5.54457195e-002
      2.55439401e-001 -7.46985897e-002 2.20075935e-001 1.01395346e-001
      -1.15366109e-001 -8.31779093e-002 1.77726686e-001 1.51416257e-001
      1.97840743e-002 3.95601057e-002 1.41111344e-001 -8.86828974e-002
      -1.08645931e-002 -7.13097006e-002 1.69851139e-001 2.37829193e-001
      6.23209327e-002 3.09801586e-002 1.83469713e-001 8.06228220e-002
      -8.38959739e-002 -1.14982150e-001 -6.54948577e-002
      -1.16205610e-001 3.87518220e-002 6.72120079e-002 1.11078098e-001
      8.23697075e-002 -6.82685003e-002 -5.74996844e-002 -7.01794922e-002
      -1.93766668e-001 1.17468484e-001 7.19003379e-003 -1.75670207e-001
      -1.81330949e-001 4.28556986e-002 7.41500407e-002 5.12681678e-002
      1.08216200e-002 1.15028709e-001 -7.66104385e-002 1.40338808e-001
      -3.36777940e-002 1.17872432e-002 1.37080953e-001 2.60769546e-001
      -1.06273517e-001 -5.40424660e-002 -5.36276288e-002
      -7.18281418e-002 4.10250686e-002 -7.93690607e-002 9.94560942e-002
      1.78458229e-001 8.92144814e-002 -5.32095879e-002 3.94051149e-002
      2.75725629e-002 2.91701593e-002 9.66376066e-002 -1.84834003e-001
      -4.73009199e-002 -4.60462384e-002 -2.55415123e-002
      -1.67716727e-001 -1.38908371e-001 6.73898086e-002 1.71576701e-002
      -4.77917260e-003 -2.16163874e-001 -2.03643255e-002
      -1.64056569e-001 -2.68507507e-002 9.24590528e-002 2.17092618e-001
      4.57348600e-002 -1.55722015e-002 9.49563757e-002 -1.25334606e-001
      -1.33805811e-001 -4.24612388e-002 -1.10772617e-001
      -2.05377877e-001 -1.86775953e-001 -3.22157964e-002 4.43672575e-002
      1.54447600e-001 -7.99602270e-003 5.28893210e-002 2.03784809e-001
      -1.25789702e-001 -6.51283339e-002 1.14390641e-001 -6.25522211e-002
      -5.41095994e-002 2.12884936e-002 7.81533569e-002 -1.67051673e-001
      -1.43469162e-002 -2.00689763e-001 -1.34670958e-001
      -8.69835988e-002 -1.13293484e-001 -1.46526337e-001
      -3.04596536e-002 -5.95771894e-002 -2.69526206e-002 5.72761148e-002
      -1.03585729e-002 -2.70260591e-002 9.48446915e-002 1.43841088e-001
      -5.27551025e-002 -1.52115356e-002 -1.19710706e-001 3.93695645e-002
      4.34631296e-002 2.37245914e-002 -1.17319800e-001 -1.43407777e-001
      -1.15078464e-001 -1.44550651e-001 3.66607867e-002 3.42320390e-002
      4.76069786e-002 -1.83421634e-002 2.74833053e-001 -1.51148796e-001
      1.16190761e-001 1.20354302e-001 6.87125027e-002 -2.44344864e-002
      -2.35324115e-001 6.43734559e-002 1.97962537e-001 1.35739259e-002
      7.93806389e-002 1.77254938e-002 2.83944234e-002 6.70290589e-002
      -2.43554339e-001 -6.00004904e-002 5.38817868e-002 1.03892103e-001
      3.52635235e-002 -1.54243156e-001 1.11619763e-001 1.87553838e-001
      -3.88820693e-002 7.28054345e-002 -1.72918260e-001 -1.76049888e-001
      -2.05392301e-001 4.93395105e-002 -2.37919629e-001 -1.27826318e-001
      -2.22270027e-001 -6.91714659e-002 2.52621472e-002 -7.80061334e-002
      -4.87410054e-002 -8.56527835e-002 -1.91310748e-001
      -2.45169159e-002 -6.15235697e-003 -5.83811328e-002 3.21741798e-003
      -4.68015149e-002 -1.26463294e-001 -6.02933438e-003 8.69761594e-003
      4.75423969e-002 -1.32326912e-002 -4.77179475e-002 -8.38270709e-002
      -2.27275826e-002 7.28305057e-002 -5.20033613e-002 -3.74878524e-003
      -1.33317979e-002 -1.04653575e-001 -7.88348764e-002 1.43766388e-001
      -1.30984811e-002 1.13154754e-001 -1.71953857e-001 -3.47200334e-002
      -1.76247329e-001 -2.36418694e-002 1.85074747e-001 7.61818737e-002
      -1.16147548e-001 -2.21012145e-001 -1.50697738e-001 3.87876555e-002
      1.37104198e-001 7.27537721e-002 -8.10121596e-002 -2.50560325e-002
      -3.52135599e-002 3.73467207e-002 -5.32345325e-002 5.98134957e-002
      4.74400334e-002 4.40592319e-002 -1.20205797e-001 -6.92017823e-002
      2.03668416e-001 1.73524410e-001 -4.06536600e-003 -1.74144417e-001
      -3.63113880e-002 2.01473609e-001 7.22530931e-002 1.30572051e-001
      -2.11301073e-002 -1.47983292e-002 -1.52292430e-001 1.48615846e-003
      1.70366485e-002 1.79742768e-001 -3.63451876e-002 -8.55308473e-002
      -1.36845440e-001 -2.45859865e-002 -2.89067291e-002 4.65700589e-002
      -2.28950441e-001 -7.16872737e-002 -1.16819202e-003
      -7.88729712e-002 -6.46666735e-002 -1.98984638e-001 4.49903905e-002
      -2.94012934e-001 1.16486154e-001 4.47083227e-002 -1.72667056e-001
      -1.71970084e-001 1.50145471e-001 1.25734627e-001 -7.80151645e-003
      2.93002976e-003 -9.68624800e-002 -5.91260530e-002 -1.57620654e-001
      9.57418084e-002 9.10841748e-002 -1.54935317e-002 -4.63136425e-003
      -9.28038061e-002 1.41739976e-002 1.93892717e-002 -4.10907157e-002
      1.20179802e-001 -2.96806246e-002 2.54919939e-002 1.45440117e-001
      -1.11413822e-001 -1.39038876e-001 -2.28337541e-001
      -1.41569838e-001 -2.55764902e-001 -6.52695308e-003
      -1.49848744e-001 6.12796135e-002 1.23285182e-001 -2.69867126e-002
      -6.62332168e-003 1.49132833e-001 -4.17610481e-002 7.85640851e-002
      -2.05992356e-001 -1.02783486e-001 -6.92061475e-003 3.38768363e-002
      8.61528679e-004 8.44271332e-002 -2.79799700e-002 -1.67990625e-001
      -2.72651613e-001 1.05286770e-001 -1.02076001e-001 6.03623092e-002
      1.71257406e-001 -3.35117541e-002 -3.60276662e-002 8.49427357e-002
      -1.00649737e-001 7.00599551e-002 9.02663544e-002 1.58934191e-001
      -4.76963818e-002 9.22246575e-002 1.95279699e-002 -1.97716802e-001
      -7.53302407e-003 7.07789734e-002 -2.24664927e-001 -1.22435510e-001
      -8.80195573e-002 -7.96271339e-002 1.88014433e-001 -4.32425663e-002
      -1.51055858e-001 3.23978579e-003 -4.55976054e-002 -9.55579057e-003
      -9.86734219e-003 1.67888738e-002 -6.94561675e-002 3.73082384e-002
      -6.84514409e-003 5.91885298e-004 6.47417605e-002 -1.02792485e-002
      1.20684179e-003 4.83159572e-002 -6.66017681e-002 -4.78035882e-002
      1.33683830e-001 -1.33769050e-001 -4.93240282e-002 2.86719471e-001
      -3.22997011e-002 -1.28048398e-002 1.43488199e-001 2.09300802e-003
      8.96423757e-002 2.12478966e-001 -6.47085086e-002 -1.49167306e-003
      -1.44819677e-001 1.13735922e-001 -6.61032498e-002 -2.58364767e-001
      -1.52928472e-001 -8.95401984e-002 1.16154261e-001 -5.03085852e-002
      1.49221405e-001 -1.02615096e-001 -5.43904155e-002 -5.31497225e-002
      -1.16938688e-001 -7.19475839e-003 -4.93142828e-002 3.22931521e-002
      -1.31717235e-001 1.18181124e-001 -6.92119077e-002 2.54949741e-002
      1.43716633e-001 8.81492719e-002 1.64705768e-001 7.87857026e-002
      6.47474602e-002 3.31791714e-002 1.52331203e-001 7.71429539e-002
      -6.94109648e-002 9.26120058e-002 2.95067638e-001 7.32840225e-002
      -4.91119139e-002 2.12256595e-001 3.12392879e-002 -1.75797507e-001
      -1.67423010e-001 6.55210167e-002 -1.63376182e-001 -1.83323741e-001
      -8.85673985e-002 2.07550973e-002 -8.92032683e-002 1.93985328e-001
      -2.91209109e-002 -7.20374286e-002 2.26109028e-001 -1.84704110e-001
      5.92549853e-002 6.14347868e-002 -3.80543433e-002 1.80035874e-001
      -1.94666889e-002 5.39651811e-002 -1.37492903e-002 1.45310849e-001
      -1.59713104e-002 7.15246946e-002 -1.15279937e-002 5.70914485e-002
      8.73934105e-002 1.55271679e-001 7.84254670e-002 -5.67518249e-002
      2.86741197e-001 6.22726008e-002 -9.64267328e-002 1.71966240e-001
      -2.28610381e-001 1.87356826e-002 1.71436608e-001 3.82852443e-002
      -8.17044377e-002 -4.76432517e-002 -1.18790664e-001
      -1.09943710e-001 6.58049658e-002 1.54946782e-002 -1.40025159e-002
      -3.99291888e-002 -6.61934093e-002 2.71324683e-002 -6.00424083e-003
      -2.13258460e-001 -4.43016589e-002 -1.33579850e-001
      -1.09653389e-002 2.61932928e-002 1.90745860e-001 2.06149712e-001
      8.02669749e-002 -4.38521337e-003 -1.48545112e-002 -1.12763889e-001
      2.43629441e-001 -1.76397115e-001 4.08654176e-002 8.70904103e-002
      -7.98610970e-002 4.74633835e-002 -1.59098759e-001 2.82186363e-003
      1.14824988e-001 1.06875479e-001 -1.91389441e-001 -7.53464410e-003
      -1.79717112e-002 -1.12955824e-001 1.34378195e-001 8.72768611e-002
      -1.03120111e-001 -7.27490848e-003 -1.52210459e-001
      -1.12148106e-001 5.87301180e-002 1.42194629e-002 -2.76923198e-002
      2.39614829e-001 -3.79656292e-002 -1.62502006e-002 2.46067420e-002
      8.80678520e-002 -1.00724861e-001 2.95566637e-002 1.19886570e-001
      -1.30429506e-001 9.94690433e-002 -7.33393431e-002 -2.25034401e-001
      -9.77125093e-002 6.41837269e-002 -1.60354644e-001 2.09991574e-001
      8.11399221e-002 5.25326841e-002 -1.19879983e-001 -7.44767487e-002
      -9.33828764e-004 -2.77228784e-002 3.24229933e-002 -7.05662221e-002
      7.80171230e-002 -5.92283979e-002 1.15272559e-001 1.10644609e-001
      3.74002941e-002 -2.31809616e-002 -1.46585017e-001 2.32184418e-002
      2.33237222e-002 -1.37219220e-001 -1.17214516e-001 5.28138177e-003
      7.41814598e-002 2.74400473e-001 -1.99851736e-001 9.39511731e-002
      -1.65186021e-002 -4.21120562e-002 2.89848834e-001 2.58540008e-002
      1.52346760e-001 1.09695405e-001 -6.26061857e-003 -1.84725881e-001
      -1.19472742e-001 -5.51087968e-002 9.93997902e-002 -1.98358670e-002
      -8.01819414e-002 7.32483342e-002 -9.78016108e-003 1.24264434e-001
      -5.33739012e-003 2.54730918e-002 1.69039175e-001 -1.83269560e-001
      -1.11311460e-002 -7.46951699e-002 -9.65613872e-002
      -1.43804727e-002 -3.27049685e-003 -4.00218397e-001
      -1.29690140e-001 -8.51276442e-002 -3.05621661e-002 8.87632966e-002
      -1.20278955e-001 3.55831645e-002 1.29696101e-001 1.33691669e-001
      -1.96340173e-001 1.86999105e-002 6.06969148e-002 1.74175411e-001
      1.42166009e-002 -2.18463451e-001 -6.24699984e-003 -6.75198063e-002
      1.06624112e-001 -1.72407493e-001 -1.81591362e-001 6.39401451e-002
      -4.32368070e-002 1.29908010e-001 -1.40296966e-001 7.10253865e-002
      -9.18197446e-003 8.27392638e-002 -6.83955327e-002 2.26139650e-001
      2.23260447e-001 2.87217069e-002 -4.71111154e-003 -2.78379738e-001
      -5.61239272e-002 7.97661021e-002 5.70969954e-002 -2.54064441e-001
      -3.43392074e-001 -4.70472611e-002 -4.56238836e-002
      -1.43104568e-002 -1.05624706e-001 5.49271681e-005 -1.27735242e-001
      2.99515836e-002 -8.32253546e-002 -8.72859955e-002 -6.20585084e-002
      -3.22706811e-002 9.61276889e-002 -1.61428869e-001 9.58309025e-002
      -1.04572393e-001 -6.22564927e-002 3.34263011e-003 -7.55307525e-002
      4.09921296e-002 5.54375201e-002 1.24024406e-001 -8.70599225e-002
      -1.13207027e-001 1.85275048e-001 6.36672452e-002 -6.26312867e-002
      1.72135323e-001 2.49475032e-001 9.81261507e-002 5.52344918e-002
      -1.79912627e-001 -7.23372996e-002 -2.76263148e-001 3.73915620e-002
      -8.37968811e-002 -3.52680862e-001 -2.94088751e-001
      -5.60908429e-002 1.07766740e-001 -1.10075608e-001 -3.85741517e-002
      -2.13300034e-001 -1.80877611e-001 -1.85993239e-001 1.16870143e-001
      -1.51649684e-001 1.13362083e-002 -8.25911686e-002 -1.43611193e-001
      4.15663421e-002 -2.15764612e-001 -8.99656713e-002 -9.24718976e-002
      -1.66640088e-001 -1.59995317e-001 -7.97116905e-002 3.53288688e-002
      -2.21733898e-001 -3.19546126e-002 -1.88536309e-002 3.50136049e-002
      -3.28507717e-003 1.34369358e-001 -1.36886075e-001 -6.78496286e-002
      1.09152213e-001 -3.88366655e-002 -8.65812227e-002 -1.71181172e-001
      -6.49650320e-002 1.94521006e-002 -2.19678715e-001 -3.00320059e-001
      2.97284182e-002 1.10840842e-001 -1.04384251e-001 -2.27628052e-002
      -1.58171684e-001 -1.77792683e-001 -1.55118614e-001
      -3.23317125e-002 -3.00424695e-001 -1.19847521e-001 6.71005547e-002
      -5.65236285e-002 -8.47104490e-002 -9.10131782e-002
      -7.48595409e-003 7.29561085e-003 1.85526870e-002 -1.91403151e-001
      3.64586413e-002 3.33242975e-002 -2.33313069e-001 -1.71882480e-001
      -5.04868887e-002 -1.62648156e-001 -9.20188874e-002 7.32932314e-002
      -6.23821653e-002 -3.75252962e-002 -8.16063061e-002
      -9.69023332e-002 -1.29040629e-001 -2.58886576e-001
      -3.36043835e-002 -1.86936483e-001 -2.76731223e-001
      -2.86882877e-001 -1.12652630e-001 -1.06266676e-003
      -5.39975725e-002 -1.17840506e-001 -2.43597776e-001
      -1.36502191e-001 1.93811990e-002 -1.22384978e-002 -2.23774642e-001
      -5.47792241e-002 -7.53825298e-003 -2.68137693e-001
      -1.19842120e-001 -6.66766241e-002 1.20952483e-002 -1.78505808e-001
      -1.31275445e-001 -6.08153567e-002 -1.08936615e-001 1.50536001e-003
      -1.75902136e-002 -9.53951254e-002 -7.16663450e-002
      -9.07657593e-002 -8.19270387e-002 -2.28095129e-002 4.04132716e-002
      1.14280861e-002 5.92880957e-002 -1.14203706e-001 -1.72203317e-001
      -1.08081609e-001 -5.10915220e-002 -2.86975875e-002
      -1.88955829e-001 -2.97992259e-001 -4.77500074e-003 9.08459648e-002
      -2.77110394e-002 -1.57100052e-001 -3.58382612e-002
      -2.22941026e-001 -1.37243820e-002 -1.17488407e-001
      -2.40421705e-002 -2.90911403e-002 -3.53761502e-002
      -1.56436767e-002 -2.39711374e-001 1.24926185e-002 -2.04306468e-002
      -4.00264747e-002 3.27698700e-002 2.51438003e-004 4.39322777e-002
      -4.23352793e-002 2.46515367e-002 -1.22323185e-001 1.56809743e-002
      -5.99257164e-002 -2.19208598e-001 4.02728654e-002 6.28420785e-002
      -3.61170918e-002 8.35344475e-003 1.38219699e-001 -6.34870157e-002
      -2.15932187e-002 1.66081965e-001 -1.53524041e-001 -1.75948903e-001
      -9.36844498e-002 -2.84284264e-001 -2.14462373e-002
      -1.05020829e-001 -1.37683481e-001 9.31110829e-002 -1.29721865e-001
      -2.37094104e-001 -1.07190078e-002 -2.32279748e-002
      -7.50463903e-002 -1.05034500e-001 1.70989484e-002 -7.92348757e-002
      -7.03114048e-002 5.74756078e-002 -2.11168483e-001 1.38756894e-002
      -1.67738497e-001 -1.91151485e-001 1.77779526e-001 1.32294632e-002
      -1.92674831e-001 6.52056411e-002 -1.02832809e-001 -9.63195041e-002
      -2.87775416e-002 5.23483120e-002 1.61039736e-002 1.36824548e-001
      7.21085966e-002 4.31255326e-002 5.56112733e-004 -2.15664618e-002
      -1.24232983e-002 -1.58599928e-001 1.16357440e-003 -1.00594535e-002
      -7.13559985e-003 1.34449219e-002 9.63725522e-002 7.43323565e-002
      1.97600331e-002 1.68165937e-002 1.91747561e-001 -2.02461202e-002
      3.82737890e-002 2.05618083e-001 -1.41047180e-001 -8.55888277e-002
      -1.01766959e-001 1.25776544e-001 -8.51628408e-002 -1.21721759e-001
      -1.98831391e-002 -4.07850370e-002 -3.36054042e-002 4.70134690e-002
      -1.80134326e-002 -2.49223672e-002 -1.02072254e-001 2.30082631e-001
      6.61897063e-002 3.52209657e-002 -1.45179674e-001 1.40990615e-001
      -5.59525657e-003 -2.44360883e-002 8.66329484e-003 1.01347677e-001
      -2.02693090e-001 2.68565007e-002 4.81087379e-002 7.46254176e-002
      8.18720981e-002 -6.43247217e-002 -9.84898657e-002 -1.88368306e-001
      2.04918310e-001 -3.08212563e-002 -4.82478179e-002 1.79001272e-001
      -1.64861485e-001 3.01431455e-002 -8.51126504e-004 9.55157876e-002
      -6.36235252e-002 1.13475367e-001 -8.60818774e-002 -4.43361811e-002
      -1.62446033e-002 -1.53958246e-001 -1.78589329e-001 1.22065686e-001
      2.17006467e-002 -5.54710813e-002 1.78511236e-002 1.09649852e-001
      1.03455342e-001 2.03141838e-001 -1.88725606e-001 -1.93187341e-001
      -4.29468490e-002 -1.61304355e-001 8.20290968e-002 -1.78110600e-001
      -2.95365125e-001 1.33092865e-001 7.11106211e-002 -8.39509442e-002
      -1.46660298e-001 -5.87154403e-002 -1.09428100e-001 9.72943380e-002
      -1.14016132e-002 -1.76737353e-001 1.22978128e-001 -8.07517990e-002
      -1.52622208e-001 1.38153300e-001 5.91589101e-002 -1.66822914e-002
      -1.82025611e-001 -6.52075782e-002 -1.99689060e-001 1.36286974e-001
      3.45895253e-002 2.77608819e-002 -9.93754789e-002 -2.12648846e-002
      3.78322676e-002 9.83940661e-002 -1.73657741e-002 8.95039141e-002
      1.70891836e-001 -9.99820605e-003 -1.75549723e-002 -4.36583161e-002
      -1.28053809e-002 3.13184895e-002 4.97942641e-002 -7.20068673e-003
      3.09441751e-003 1.44162014e-001 6.31362572e-002 -1.13470502e-001
      6.89400285e-002 -5.54663278e-002 -1.31399840e-001 2.11051293e-003
      -1.23583212e-001 1.05912112e-001 1.99552432e-001 2.82436982e-002
      8.32797773e-003 8.74580219e-002 1.32800266e-001 -3.71698365e-002
      -6.95254728e-002 -1.01088502e-001 -5.82213178e-002
      -7.29369745e-002 5.22896163e-002 1.01120472e-001 -4.18585390e-002
      -1.07052140e-001 -1.51102310e-002 -7.75319263e-002
      -4.55668941e-003 2.59834751e-002 6.16955906e-002 1.81846395e-002
      -1.39925424e-002 7.90559724e-002 3.26986425e-002 -3.36921364e-002
      4.06307727e-002 2.33074985e-002 -1.29836068e-001 2.05120184e-002
      -8.54078506e-004 -2.03161612e-002 4.66336869e-002 1.13017067e-001
      -6.41424267e-004 2.33083710e-001 2.74728686e-002 -2.68850923e-001
      8.65447428e-003 1.13683827e-001 -8.73162672e-002 -1.63948778e-002
      -4.27036323e-002 1.09357741e-002 1.95391953e-001 -8.54263678e-002
      2.28077564e-002 -8.68792385e-002 -2.54127502e-001 3.24091734e-003
      1.76797181e-001 -4.56570163e-002 7.19849691e-002 1.51145324e-001
      -1.08423516e-001 9.34339836e-002 -8.89100805e-002 1.16375402e-001
      1.69079483e-001 -4.80404384e-002 -2.14517877e-001 3.09951939e-002
      1.04482751e-002 2.99334288e-001 -2.48960629e-001 -2.14234572e-002
      -1.17444009e-001 -1.18337721e-002 4.09509018e-002 2.18905415e-002
      6.12752512e-002 5.32813594e-002 1.22845225e-001 -3.07890214e-002
      1.17957644e-001 1.73303604e-001 1.41254395e-001 -3.51376161e-002
      -6.40514269e-002 -9.46751144e-003 6.73923045e-002 6.91414773e-002
      -1.07750855e-001 -7.63660893e-002 -1.08211391e-001 1.58946455e-001
      -5.25613837e-002 3.12763713e-002 -3.62469964e-002 3.03043183e-002
      1.31873906e-001 -5.90465888e-002 2.91710585e-001 1.31685197e-001
      6.35351241e-003 4.67215031e-002 -1.76660761e-001 -9.81000066e-002
      -4.63006943e-002 -9.88010839e-002 -1.54443812e-002
      -2.33437940e-001 -1.52748423e-002 -3.35299373e-002 7.32954964e-002
      4.54321466e-002 -1.33914761e-002 3.04502305e-002 -3.48335616e-002
      -1.73671201e-001 6.50560930e-002 2.09013019e-002 1.56292617e-002
      -1.27946734e-001 -2.66042769e-001 5.38124517e-003 -7.53043741e-002
      -5.32285757e-002 5.52108027e-002 -2.53977031e-001 -1.97832674e-001
      -4.97229546e-002 3.27748135e-002 -1.18499370e-002 1.88638389e-001
      -6.76735025e-003 -5.18282168e-002 -4.65855226e-002 6.78155497e-002
      1.99200392e-001 9.64785293e-002 2.48309746e-002 -6.43233508e-002
      -1.28533706e-001 -1.87064677e-001 -2.16024108e-002
      -1.94425762e-001 -7.92437717e-002 -6.33338615e-002 1.04848668e-001
      3.44972387e-002 -1.42431960e-001 3.70596796e-002 -7.71857128e-002
      -8.31444934e-002 -1.57388449e-001 -1.91595718e-001
      -1.77237704e-001 6.45068998e-004 -8.64384994e-002 -1.09629266e-001
      9.50023532e-003 -8.94378275e-002 -3.70476246e-002 5.58438376e-002
      -2.04362988e-001 -2.10117605e-002 8.09044316e-002 3.23326401e-002
      -1.61533967e-001 -1.20021895e-001 -1.00318573e-001
      -1.85898453e-001 1.47812460e-002 -1.41878158e-001 -5.99771701e-002
      1.22316126e-002 1.29734859e-001 -4.57562618e-002 -2.04950228e-001
      -2.81928569e-001 5.55135831e-002 -6.57983795e-002 -1.57063112e-001
      -2.28400663e-001 -2.74716076e-002 1.39034390e-001 -2.92892486e-001
      -1.26696214e-001 -1.40018180e-001 -1.59889370e-001 5.89725785e-002
      -1.63885459e-001 -5.75993173e-002 -2.84652393e-002
      -1.06083630e-002 -8.34935624e-003 -8.13848004e-002
      -1.07859798e-001 4.64464687e-002 -7.28752241e-002 -1.99105009e-001
      -1.67136729e-001 -1.97130308e-001 1.24858588e-001 -1.64184044e-003
      -2.37982459e-002 -3.05635899e-001 -1.23617090e-001
      -5.04556969e-002 7.10994974e-002 1.87138170e-002 -1.33033050e-002
      8.11829492e-002 -2.07073376e-001 -2.29771152e-001 -1.41362920e-001
      -4.12105992e-002 -2.56014466e-001 -2.49606252e-001
      -4.50667320e-003 -3.39232832e-002 -2.16919789e-003
      -3.49376872e-002 1.28503228e-002 -1.34652955e-002 -2.63559788e-001
      6.25620484e-002 -2.43010204e-002 1.08225420e-002 3.16439732e-003
      -4.19081263e-002 7.68292323e-002 -9.22771320e-002 -4.84008789e-002
      -2.66848385e-001 -4.56715049e-003 -2.57935971e-001
      -1.70613974e-002 -1.48755074e-001 1.10293359e-001 -8.60588253e-002
      2.77564768e-002 -1.35157272e-001 1.21164154e-002 -3.02703232e-002
      2.01106854e-002 -4.12720405e-002 -5.26238158e-002 6.59776330e-002
      1.03263602e-001 -1.34329244e-001 -6.76037893e-002 1.16978332e-001
      -1.39057532e-001 -1.76674780e-002 -2.57460512e-002 5.13381697e-002
      2.63121612e-002 -3.67743298e-002 -2.32831746e-001 -7.25360075e-003
      -2.37389207e-001 -1.39692321e-001 1.24950521e-002 4.15232554e-002
      -5.20019718e-002 3.47416237e-004 -7.24827796e-002 5.29446565e-002
      -2.85525117e-002 2.19831802e-002 -8.19296762e-002 -7.41563737e-002
      -3.16563696e-002 -3.48497145e-002 3.44502144e-002 1.64096445e-001
      -1.78683504e-001 6.48570135e-002 -1.32117212e-001 -6.67317435e-002
      -1.06710725e-001 9.46488157e-002 -1.60767466e-001 -4.34605442e-002
      8.38251561e-002 1.68749336e-002 1.06146827e-001 3.65567386e-001
      -1.47312209e-001 8.82325694e-002 -1.20150112e-001 -2.24585071e-001
      9.92703289e-002 -8.86992440e-002 -4.78270575e-002 -1.19187366e-002
      3.56628448e-002 7.73936957e-002 -1.34552494e-001 2.64475159e-002
      -7.01295733e-002 2.25174222e-002 1.96524054e-001 -9.68400389e-002
      1.15318492e-001 -1.45118255e-002 -5.29449023e-002 1.27557054e-001
      8.52217781e-004 -1.77610651e-001 1.66748255e-001 2.41791874e-001
      4.88468930e-002 4.55275327e-002 -9.56384093e-002 1.24116346e-001
      7.16414377e-002 -1.12931663e-002 -8.90500098e-002 2.25781187e-001
      4.49610781e-003 -5.45218959e-002 1.26444986e-002 7.76696205e-002
      -4.04238515e-002 -8.24395344e-002 5.35237677e-002 8.18777680e-002
      7.84714222e-002 -9.64340046e-002 -1.47903875e-001 7.77878463e-002
      1.23402670e-001 2.59323157e-002 -1.04890047e-002 7.51141533e-002
      2.35394128e-002 1.50264680e-001 -7.34512210e-002 3.19854543e-002
      -9.78139602e-003 -1.16360441e-001 5.59099577e-003 1.11256257e-001
      -6.44464791e-002 6.72508776e-002 1.87564660e-002 -2.06548661e-001
      -3.76496203e-002 2.30340198e-001 -1.63235776e-002 1.49751440e-001
      1.30506083e-001 3.49259861e-002 -1.19367041e-001 2.15127677e-001
      -6.69744611e-002 3.15068439e-002 -2.50435062e-002 2.87311643e-001
      -2.57554471e-001 1.84572712e-002 1.16080679e-002 5.34886457e-002
      6.78175464e-002 4.29206155e-002 8.59531686e-002 -1.25326604e-001
      3.21509361e-001 -1.15501918e-001 -1.01961188e-001 3.40773650e-002
      -1.84056461e-001 2.41574988e-001 -1.84434295e-001 -2.24856436e-002
      3.86207514e-002 1.24274999e-001 -8.36753324e-002 1.27402291e-001
      1.38780745e-002 1.58566371e-001 2.52431333e-002 -5.57482876e-002
      5.12077175e-002 1.25529885e-001 1.16061211e-001 5.61969094e-002
      4.62909862e-002 1.85848102e-001 -1.55892357e-001 1.05648730e-002
      1.27452165e-001 -2.86118705e-002 -2.14778837e-002 -6.06312007e-002
      -2.48500630e-002 2.01718777e-001 9.80755240e-002 1.80471037e-002
      -2.26376429e-001 -4.38732728e-002 4.76262607e-002 -7.01591596e-002
      7.43350610e-002 -1.68075383e-001 7.86566064e-002 2.18561701e-002
      -1.08206630e-001 3.28465216e-002 1.97220072e-001 1.17396319e-003
      -2.14577854e-001 5.41798547e-002 -2.77369678e-001 -7.43461922e-002
      1.91432595e-001 -7.80740455e-002 -1.22910738e-001 -2.05331385e-001
      -8.27374533e-002 1.76121183e-002 -2.13588223e-001 -1.96835548e-002
      3.04538071e-001 7.72241727e-002 -1.07465461e-001 -1.38416529e-001
      1.44050300e-001 1.66751165e-002 -5.63534163e-003 4.20503505e-002
      -1.32205993e-001 9.01232939e-003 -7.35770315e-002 5.64969592e-002
      1.60227399e-002 -5.06186411e-002 -6.40351027e-002 -3.64189185e-002
      1.00677900e-001 -2.02685490e-001 1.54750019e-001 -1.19981892e-001
      1.14536405e-001 -1.10496163e-001 -1.05923489e-001 -1.07370131e-001
      8.31384882e-002 -2.02399999e-001 -8.73386636e-002 -8.35307017e-002
      4.04321030e-002 -4.98274118e-002 -2.10191440e-002 -1.21820986e-001
      -6.64321110e-002 7.61508644e-002 -2.62657888e-002 -1.08506151e-001
      1.21129431e-001 2.28071049e-001 -2.74725910e-002 -9.26521197e-002
      -1.94826573e-001 -9.79925543e-002 -1.91127341e-002 2.00032163e-002
      -1.39603078e-001 -8.92319232e-002 -1.96094856e-001
      -9.54184085e-002 2.22784802e-001 3.70633863e-002 -1.46522652e-002
      -9.83986780e-002 7.40977824e-002 8.73017907e-002 7.97558725e-002
      1.27031235e-002 9.05432701e-002 5.41549549e-002 -1.12226993e-001
      -1.05440924e-002 1.18428260e-001 4.59836610e-002 1.36512918e-002
      -1.82678755e-002 -4.83130198e-003 -2.40086541e-002 7.51812458e-002
      1.01022616e-001 -1.09402984e-001 -5.29613383e-002 1.92081675e-001
      3.56283002e-002 1.84014142e-001 9.76565182e-002 7.23931380e-003
      6.03249148e-002 9.47304666e-002 3.82575579e-002 -1.94974199e-001
      -1.26481820e-002 -5.92530891e-002 1.96162127e-002 -7.16863722e-002
      1.59096032e-001 -1.21575452e-001 -1.37417391e-001 4.14350778e-002
      -2.27659270e-002 5.87863056e-003 -1.21758744e-001 -1.11235362e-002
      -2.67272741e-002 7.84585103e-002 4.43204259e-003 1.29900686e-003
      -8.59795287e-002 -4.45006341e-002 1.73076451e-001 -1.46247044e-001
      -1.32882506e-001 -4.51114774e-003 3.14329006e-002 2.20340043e-001
      1.14007451e-001 -8.74761716e-002 5.58505505e-002 3.92977893e-002
      -6.45009354e-002 -1.72506541e-001 2.50197858e-001 1.08418107e-001
      -1.92274451e-001 -1.87420547e-001 -5.16071096e-002
      -1.05927251e-001 -4.06950414e-002 -2.75092218e-002
      -1.14151008e-001 -1.15517586e-001 1.40355542e-001 -1.14692383e-001
      -8.40050727e-002 6.30655140e-002 -8.83135572e-002 4.60549705e-002
      7.57794753e-002 -3.22299600e-002 2.05451082e-002 7.40870535e-002
      1.26070067e-001 -1.26366615e-001 -1.44611686e-001 -2.25655943e-001
      -8.75178128e-002 -5.12549989e-002 -1.94708437e-001 5.56575581e-002
      1.56765357e-001 2.05455571e-001 -9.61582661e-002 -1.16469607e-001
      -7.03529641e-002 -1.29101053e-001 -2.16602668e-001
      -7.18688518e-002 7.31974393e-002 1.28228098e-001 -1.30047873e-001
      -5.51915392e-002 1.57400314e-002 -1.00683056e-001 1.70936495e-001
      -9.65629965e-002 -2.33415648e-001 -2.37809807e-001
      -9.00624096e-002 3.25788669e-002 -9.96258110e-002 5.10959961e-002
      -1.78657457e-001 -1.23109922e-001 1.05628945e-001 -1.14672907e-001
      1.20601710e-002 7.21854344e-002 1.64401755e-001 -3.16977687e-002
      -1.15881301e-002 -9.72464159e-002 -8.66950769e-003
      -9.61868837e-002 -2.06972599e-001 -2.87964582e-001
      -8.52649007e-003 1.69880196e-001 -7.69223049e-002 -6.46946058e-002
      -7.28883222e-002 -2.48757556e-001 7.40593765e-003 -1.46139897e-002
      -1.21850803e-001 1.72269437e-002 -6.08468764e-002 -7.03253150e-002
      -1.96866199e-001 -2.94663757e-001 -5.23465946e-002
      -1.86582245e-002 -1.66577324e-001 -3.25728357e-002
      -1.34158820e-001 4.41050995e-003 -7.34714493e-002 -2.92856514e-001
      -9.53402817e-002 -1.35046855e-001 -9.27929729e-002
      -2.42673550e-002 5.14918752e-003 -9.88341719e-002 -1.77466318e-001
      -1.99244827e-001 -2.92277217e-001 -1.65245831e-001
      -1.58909708e-001 -1.41984010e-002 -8.10311735e-003 3.38003151e-002
      -1.76413700e-001 -6.87993914e-002 -2.54638135e-001
      -1.02859199e-001 -1.87446550e-001 -2.61351764e-001
      -1.54800713e-001 8.11213627e-002 8.00428912e-002 -1.20568099e-002
      6.85920194e-002 3.61259915e-002 -3.48230213e-001 2.08937451e-002
      1.33655146e-001 -4.65846658e-002 -2.11573273e-001 8.90879054e-003
      1.05287675e-002 1.85201406e-001 5.08737080e-002 -2.14974344e-001
      -2.43812278e-001 -8.47772956e-002 2.11505760e-002 -5.26900031e-003
      3.40865068e-002 1.36059895e-001 -7.51459748e-002 2.75320541e-002
      -3.00039798e-001 -6.82856366e-002 -2.81479597e-001
      -5.17491717e-003 -2.83270866e-001 -2.57173032e-002
      -1.40363231e-001 3.49914394e-002 -4.18816358e-002 -1.44089654e-001
      -6.79355934e-002 -1.04994871e-001 -1.45984188e-001
      -1.96736768e-001 -7.00680166e-002 -3.56484465e-002 2.03260910e-002
      -1.24929853e-001 -2.12967560e-001 -2.41381228e-001
      -4.54196185e-002 -8.97426158e-002 -1.76503062e-001
      -8.58278722e-002 -1.16724774e-001 3.04696802e-002 5.88436611e-002
      -2.13113323e-001 -7.36782374e-003 -1.80174664e-001
      -8.54492933e-002 3.35702859e-002 2.41283607e-002 -1.04901217e-001
      -7.37716034e-002 -1.03969045e-001 -1.91003650e-001 7.95908868e-002
      8.50121677e-002 -8.44777673e-002 -3.13287884e-001 -5.81779256e-002
      -5.94379492e-002 8.01438019e-002 1.15353130e-001 3.70907933e-002
      8.59251916e-002 1.74540039e-002 -1.45337552e-001 1.37581632e-001
      1.23035677e-001 2.49398388e-002 1.68790519e-002 7.00908378e-002
      -1.55892745e-001 -2.35249296e-001 -1.93161312e-002
      -1.16399862e-001 7.82357901e-002 -9.83552560e-002 -9.92192551e-002
      1.61422174e-002 5.56556992e-002 -8.65995977e-003 -5.55376932e-002
      -4.76679578e-002 1.67613953e-001 1.31370157e-001 1.45274810e-002
      -4.12997492e-002 -1.37576761e-004 5.78020476e-002 5.08569889e-002
      -1.41661331e-001 -4.71285880e-002 -7.86263049e-002
      -1.93636194e-002 4.29443829e-002 -1.94665268e-002 3.04982755e-002
      -5.87155931e-002 1.87047198e-001 8.25095773e-002 8.01636800e-002
      1.64653376e-001 -2.25867610e-002 -6.16682805e-002 -5.92368580e-002
      2.11461499e-001 -4.12301756e-002 1.83964074e-001 6.23279251e-002
      1.03311367e-001 -2.83834189e-001 5.00734150e-003 -5.36051877e-002
      -1.94340609e-002 1.17526218e-001 -1.09629370e-001 -6.29212409e-002
      9.10875946e-002 6.34300523e-003 -6.34192005e-002 -1.11679032e-001
      -3.47160511e-002 -1.77177973e-002 3.42292786e-002 -1.00174770e-001
      2.72787064e-001 1.37452804e-003 8.43840614e-002 -1.27953440e-001
      -2.90406018e-001 -1.02089927e-001 2.62620728e-002 2.06695423e-002
      -8.53504613e-002 -4.75910194e-002 9.98575985e-002 -1.26933143e-001
      1.72517881e-001 -5.47497049e-002 -6.56434000e-002 -1.90387145e-001
      1.67764366e-001 -2.49232538e-002 -5.99295497e-002 -9.99295968e-004
      2.08425298e-001 -2.09624812e-001 3.75978351e-002 6.30077496e-002
      4.83606309e-002 -8.89777988e-002 1.40690254e-002 -1.43791705e-001
      -3.42473462e-002 1.33708000e-001 -6.27954677e-002 1.15889661e-001
      8.02213475e-002 -4.17333007e-001 9.10994187e-002 -4.69521098e-002
      2.16812268e-002 -4.34278287e-002 1.12700425e-001 -4.95970584e-002
      4.28945236e-002 4.94983941e-002 4.37178612e-002 -7.50748673e-003
      8.59238654e-002 -9.36700478e-002 9.25196484e-002 4.81794998e-002
      1.30310357e-001 9.53314677e-002 -9.93563086e-002 -3.60775590e-001
      -7.26236403e-002 2.08398506e-001 -1.22333750e-001 -2.72989333e-001
      1.44651294e-001 -2.05521032e-001 -1.70350924e-001 3.01950067e-001
      -3.18811238e-002 5.53432778e-002 3.47595848e-002 -5.47862276e-002
      -2.53303107e-002 4.23578732e-003 -1.01943817e-002 -2.26751361e-002
      6.85053617e-002 3.50032113e-002 -4.13148105e-002 2.57898390e-001
      -1.47239715e-002 -2.13727683e-001 -4.98502962e-002
      -5.20369448e-002 -1.60409689e-001 -2.92806216e-002 2.44404958e-003
      4.28343229e-002 1.04208812e-002 -7.08031803e-002 -2.40861967e-001
      -1.15193635e-001 2.18743570e-002 7.16218865e-003 -6.79582823e-003
      -4.39183787e-002 -1.95414811e-001 8.42780173e-002 1.82700362e-002
      -3.76791391e-003 -5.50875999e-002 -3.20984066e-001
      -1.53121546e-001 2.38605142e-002 -1.33730873e-001 -1.44834695e-002
      -3.64731648e-003 -1.89886570e-001 -1.27313798e-002 1.43184155e-001
      -1.01142094e-001 -3.94922867e-002 -9.02264472e-003
      -1.02974720e-001 -6.49730191e-002 -1.51020875e-002
      -1.58211906e-002 -9.92652178e-002 4.70339209e-002 -1.25830561e-001
      6.10894933e-002 1.26857311e-001 -6.23793863e-002 -3.35682221e-002
      3.01118195e-002 -9.08182114e-002 2.01571137e-002 2.72671748e-002
      -3.65457907e-002 5.68116717e-002 8.66770297e-002 -1.29938588e-001
      -5.65670654e-002 8.75170529e-002 -1.73718587e-001 -1.80758774e-001
      1.24119908e-001 -1.96950227e-001 -2.31247425e-001 1.59487855e-002
      2.67259013e-002 5.31606190e-002 1.53980926e-001 1.56690888e-002
      -4.02889885e-002 3.19804192e-001 -2.20449828e-002 1.03261553e-001
      -5.50964940e-003 2.80028414e-002 -2.97424607e-002 1.43313587e-001
      -1.24357052e-001 -8.72388780e-002 -3.83968838e-002 8.95207748e-003
      -6.79036304e-002 5.66874295e-002 -6.59199432e-002 -4.46718894e-002
      1.03104241e-001 -7.48644071e-003 4.94665504e-002 1.97552115e-001
      -1.70517460e-001 1.26192912e-001 1.01241358e-001 -8.94719455e-003
      2.86583900e-002 -1.08949445e-001 -4.79069948e-002 6.21717237e-002
      2.46641971e-002 -3.10692061e-002 -8.10796991e-002 2.94202543e-003
      -4.95464075e-003 -1.46832000e-002 -3.65336612e-002
      -4.75321710e-002 5.93008734e-002 5.23106195e-002 -1.25382051e-001
      -2.07715869e-001 3.73806097e-002 -5.53034507e-002 -5.36656678e-002
      -9.70765948e-002 2.32747383e-002 2.38635042e-003 1.19184684e-002
      1.77263469e-001 -2.35358655e-001 -2.19682649e-001 -1.16520509e-001
      1.55260059e-005 6.83282763e-002 6.27073795e-002 2.50342861e-002
      -1.08776063e-001 4.41438556e-002 -1.21614181e-001 -5.16048037e-002
      -9.51078348e-003 -5.01868911e-002 -2.82138646e-001
      -2.70893872e-001 -4.54896353e-002 2.27265861e-002 5.26944548e-002
      -1.83654845e-001 3.59133184e-002 2.09510773e-002 1.48714349e-001
      -2.60807514e-001 -2.54935585e-002 -2.18663942e-002
      -5.72588667e-002 2.80354470e-002 -1.88942835e-001 9.01714191e-002
      1.88901909e-002 -1.55575305e-001 -1.19056731e-001 -1.50765598e-001
      -1.23066962e-001 -1.36125207e-001 1.40778705e-001 -1.45143136e-001
      -6.59385026e-002 -6.43404946e-002 4.34397627e-003 -1.14511080e-001
      1.27068907e-001 6.37510838e-003 -1.86924294e-001 5.26256952e-003
      -2.99870670e-002 1.21539466e-001 -3.15266922e-002 1.03178553e-001
      6.12623766e-002 -4.27206755e-002 -1.18733041e-001 9.28970054e-002
      -1.56058958e-002 -1.52772531e-001 -5.90758584e-002
      -4.75380793e-002 -5.72647676e-002 -1.03788950e-001 1.36302318e-003
      8.07804838e-002 -1.63359419e-001 9.07087773e-002 3.15419734e-002
      5.97357750e-002 -3.54020856e-002 -6.54232651e-002 -2.98648458e-002
      5.51169440e-002 -1.33322835e-001 -2.10438833e-001 -1.60897344e-001
      -1.54599383e-001 -3.47359553e-002 -8.84774029e-002
      -9.77285057e-002 2.49731392e-002 -6.65824786e-002 8.58662650e-002
      -2.15306044e-001 1.49361985e-002 2.81631704e-002 2.19664238e-002
      -8.09904188e-002 -7.07030073e-002 2.60058437e-002 -1.92868128e-001
      1.48954272e-001 -9.45048630e-002 -2.88677484e-001 -1.40454695e-001
      -7.22886473e-002 -1.15289047e-001 9.88872051e-002 3.34569775e-002
      -3.37962657e-002 1.20261526e-002 -1.61570579e-001 -1.22849852e-001
      -1.41678955e-002 7.87820444e-002 2.80903634e-002 -5.75740300e-002
      2.27026325e-002 -2.86671102e-001 -3.21279578e-002 -2.34894708e-001
      1.92252696e-002 -6.05830848e-002 -5.99518679e-002 -9.19504762e-002
      1.01081338e-002 7.40919029e-003 -2.55689267e-002 -8.66950527e-002
      -2.99969047e-001 -8.90539885e-002 -4.38153604e-003
      -4.80166264e-002 -3.15204039e-002 3.45008150e-002 1.86651736e-001
      -2.58247048e-001 -1.67819530e-001 -6.98838457e-002
      -9.61134955e-002 5.81447093e-004 -8.43779519e-002 -1.61898002e-001
      1.10914961e-001 7.71351010e-002 -4.75097522e-002 -1.98047847e-001
      2.10371297e-002 -1.61953066e-002 1.28130373e-002 4.78805490e-002
      -2.60584831e-001 -2.13787839e-001 5.16056679e-002 -2.13595599e-001
      -3.45019639e-001 -1.24972522e-001 -1.01624401e-002
      -3.30524296e-002 -3.20672765e-002 -1.42653629e-001
      -5.65190390e-002 4.75391112e-002 -9.92313325e-002 -9.18756053e-002
      -9.39494818e-002 -1.75221972e-002 1.95325509e-001 2.06165910e-001
      -2.37220496e-001 1.29721984e-001 8.10784400e-002 -2.96277285e-001
      -1.23465359e-002 -1.01551726e-001 -3.67889293e-002
      -6.29293993e-002 -1.69204678e-002 -6.94829971e-002 7.69737810e-002
      4.31532599e-002 -1.28027260e-001 -2.93689761e-002 -1.20302156e-001
      -6.44460469e-002 9.94505733e-002 6.64057136e-002 -2.56526079e-002
      -9.69553888e-002 5.21449372e-002 -1.94938987e-001 -1.61017552e-001
      6.44843727e-002 -3.91569659e-002 -5.39158359e-002 1.84994168e-003
      -1.06285952e-001 1.16052048e-003 1.80266008e-001 -2.43305862e-002
      -3.90469953e-002 1.13331471e-002 2.43968647e-002 3.10270935e-002
      1.29981950e-001 6.16397522e-002 5.25966398e-002 1.63543463e-001
      6.47873208e-002 -6.74880669e-002 -1.10830730e-002 -7.82554299e-002
      -8.65729004e-002 -1.03788711e-002 -2.28022002e-002 7.69690424e-002
      -1.49304003e-001 -1.34450927e-001 -2.13327128e-002
      -1.94302440e-001 3.53801139e-002 6.11837395e-002 -1.35940611e-002
      -1.37159489e-002 -5.91005832e-002 -3.88738490e-003 1.04332455e-001
      6.72288015e-002 4.46645916e-002 1.15113616e-001 -3.18787128e-001
      2.02324204e-002 -4.04700972e-002 5.26383296e-002 -1.25191674e-001
      1.34471161e-002 -1.82972697e-003 -6.03795722e-002 1.15554765e-001
      1.65255412e-001 1.38536030e-002 -1.50169572e-002 1.35535598e-001
      8.83793384e-002 1.26981791e-002 3.11014056e-002 9.92842391e-002
      -2.77285755e-001 -8.74107927e-002 -1.79186150e-001
      -8.64562243e-002 7.46129751e-002 -1.66664883e-001 -1.87287554e-001
      -2.82807518e-002 -1.64473355e-002 8.05655718e-002 3.76820005e-002
      5.09964600e-002 -1.33525312e-001 1.86026260e-001 -3.09443250e-002
      2.16600597e-001 7.85906017e-002 1.92742109e-001 -7.67696872e-002
      -8.84452276e-003 -1.40143797e-001 -7.36708120e-002 9.86977443e-002
      4.22103554e-002 3.38308737e-002 1.90138742e-001 -7.04295933e-002
      1.59264714e-001 4.45508696e-002 -1.73662648e-001 -1.32813916e-001
      4.10668515e-002 -9.41459686e-002 -1.27616063e-001 -1.18204176e-001
      2.25277081e-001 1.23948203e-002 8.01855102e-002 1.33591983e-002
      -6.16032444e-002 -9.38093141e-002 -3.44698280e-002
      -2.00548589e-001 -5.43597825e-002 1.18702717e-001 -1.28021881e-001
      -4.18364862e-003 -8.07108209e-002 -1.38326228e-001 1.90292388e-001
      -1.87543090e-002 -3.75392810e-002 -1.23421483e-001 2.83003375e-002
      -5.84334023e-002 -2.56223567e-002 -7.29753897e-002 1.34356514e-001
      -1.18834600e-002 -5.53491935e-002 3.46285440e-002 8.92022699e-002
      -5.50293066e-002 9.52026770e-002 4.56356592e-002 -2.20021456e-002
      -5.02673350e-002 3.37328985e-002 1.73193753e-001 -2.83038672e-002
      4.42031622e-002 2.15827331e-001 1.84652079e-002 -1.14361905e-001
      -3.44861001e-002 -8.12356770e-002 8.03271234e-002 -4.72970940e-002
      -4.28519435e-002 2.73930561e-002 7.83203356e-003 -1.16182208e-001
      -3.64967063e-002 -6.10532984e-002 -8.82463753e-002
      -1.64647684e-001 2.07263395e-001 2.75327154e-002 -1.58225536e-001
      -4.08182293e-003 -6.53673187e-002 -7.88398162e-002 7.60457199e-003
      -1.42549232e-001 -1.46076739e-001 -1.33264825e-001
      -7.03037009e-002 -1.15870327e-001 -1.37459755e-001
      -2.53467083e-001 -1.98870376e-001 -1.06434904e-001
      -4.86622676e-002 -6.90991506e-002 -2.16273963e-002
      -2.58736797e-002 1.17913203e-003 1.49295166e-001 -1.12274490e-001
      -1.08242869e-001 9.56592411e-002 -6.72368845e-003 -2.34371759e-002
      8.37622955e-002 8.28409642e-002 8.64119679e-002 2.52898455e-001
      -2.19920710e-001 -4.17021327e-002 1.41271064e-002 -3.59009281e-002
      -1.19576849e-001 5.73640838e-002 9.61093754e-002 -2.03540117e-001
      -1.23025486e-002 -9.79947895e-002 -9.58091244e-002
      -1.08312061e-002 -3.37166786e-002 -1.36778623e-001
      -1.31088704e-001 2.03428082e-002 -8.21574852e-002 -1.43916592e-001
      -3.94912213e-002 1.17495671e-001 3.59356776e-002 -1.15643407e-003
      1.00658417e-001 9.53876302e-002 -1.16369151e-001 5.01000173e-002
      1.38251167e-002 -2.19916061e-001 -8.46595988e-002 5.68066686e-002
      1.65453982e-002 3.53718325e-002 -2.97662267e-003 3.81037337e-003
      -1.60824522e-001 1.97250724e-001 -2.52492398e-001 5.15065044e-002
      -5.67414286e-003 3.86831234e-003 2.21290663e-002 -2.72579454e-002
      -5.59656434e-002 -3.93496603e-002 -1.59926027e-001 6.42236182e-003
      -1.73231810e-001 -1.77038625e-001 -3.80763039e-002 1.61209017e-001
      3.09480280e-002 -5.24095632e-002 -1.16794482e-002 1.68165103e-001
      -1.78856358e-001 8.80058408e-002 1.12195358e-001 3.19223404e-002
      1.01099581e-001 -1.06536467e-002 -1.07562423e-001 -2.99302656e-002
      -5.81004806e-002 6.63710013e-002 -1.28150359e-001 -1.38167426e-001
      -8.22617263e-002 6.47967011e-002 1.58274069e-001 -3.32943201e-002
      8.68068114e-002 1.43687148e-002 6.60493448e-002 -1.68169022e-001
      -4.70676348e-002 6.29537925e-002 1.47046253e-001 -5.62718064e-002
      1.36841945e-002 -1.73438899e-002 -9.50640626e-003 4.45337519e-002
      -1.52518516e-002 -1.78076118e-001 -2.42853425e-002 1.16061896e-001
      1.33516774e-001 -4.47457246e-002 1.34056166e-001 3.49299237e-002
      2.44988408e-002 5.15204109e-002 1.31053925e-001 1.17793038e-001
      7.61686191e-002 -9.86549482e-002 -9.95642468e-002 2.43729772e-003
      -1.66909009e-001 -2.57289827e-001 -1.76606402e-001 9.24271531e-003
      -1.01970613e-001 2.08688900e-001 -3.12703438e-002 -6.58542514e-002
      4.47196551e-002 1.86977461e-001 -7.04885572e-002 3.52817886e-002
      2.63131768e-001 3.45366299e-002 1.24168679e-001 -4.81348112e-002
      2.12381911e-002 4.43823487e-002 8.74772593e-002 -1.29557297e-001
      -7.56273270e-002 -1.49445996e-001 -8.90121683e-002 2.43210658e-001
      -2.10732028e-001 3.87789384e-002 -4.55221944e-002 2.07700759e-001
      -1.61768153e-001 1.20827397e-002 1.31441444e-001 -4.33162227e-002
      7.11354241e-002 -1.45168692e-001 -1.06806673e-001 -1.54746860e-001
      -3.42439227e-002 -8.93113241e-002 2.43172944e-002 -1.69547275e-002
      1.72198489e-002 -6.62309453e-002 -2.13994220e-001 -2.87541728e-002
      4.69544567e-002 3.84412124e-003 -2.18103260e-001 -1.09288387e-001
      -9.08919498e-002 -4.90057990e-002 2.28736214e-002 -1.87894553e-001
      -5.99055476e-002 -1.29541308e-001 -9.76348203e-003
      -1.79616302e-001 3.59103531e-002 -6.03140295e-002 -8.65746364e-002
      -8.67833719e-002 -7.03273788e-002 1.03578366e-001 -2.11977027e-002
      -1.77102476e-001 -3.51562500e-001 1.37249291e-001 3.22326124e-002
      -1.46340653e-001 4.70359735e-002 -1.77324638e-001 -7.45647103e-002
      -1.41468957e-001 -4.82530259e-002 -1.12969533e-001
      -3.09840776e-002 -1.43245742e-001 -3.95102575e-002 1.19737193e-001
      4.38499190e-002 6.64388537e-002 -8.22671652e-002 1.05802849e-001
      -8.63838121e-002 -1.03823960e-001 1.08767919e-001 3.84213515e-002
      -3.81933860e-002 -8.87850672e-002 -2.03266203e-001
      -5.67659363e-002 -3.08240026e-001 -3.61397654e-001
      -8.59405249e-002 -1.89774960e-001 -2.49250397e-001 7.12171718e-002
      -9.76259727e-003 6.40912950e-002 1.28395617e-001 -1.53870910e-001
      -6.22628368e-002 -1.22570477e-001 -5.69561571e-002
      -2.12177277e-001 1.14580974e-001 8.40886161e-002 -2.24632293e-001
      -3.37219268e-001 -1.36046931e-001 -2.72211999e-001
      -2.32161924e-001 1.00630902e-001 -6.74865246e-002 1.36484010e-002
      -3.90689149e-002 -1.52200181e-002 -7.62003660e-002
      -2.86387861e-001 -7.88138155e-003 7.66316801e-003 2.42637262e-001
      -8.04440454e-002 3.07462811e-002 6.59783781e-002 -2.34229684e-001
      -5.70098720e-002 -9.40004513e-002 -6.90641180e-002
      -1.69959739e-001 -5.83373941e-002 -6.21591769e-002 1.58221703e-002
      1.18514180e-001 -1.17337875e-001 9.39854532e-002 -1.80491269e-001
      -1.53297931e-001 -1.53063640e-001 -3.97750214e-002
      -2.15759009e-001 -4.05721646e-003 1.17653862e-001 1.00345530e-001
      1.37919366e-001 -1.78472430e-001 -8.12582523e-002 -1.22145750e-001
      9.11917984e-002 -3.91320325e-002 1.50171787e-001 5.96967004e-002
      1.56764507e-001 2.24823691e-002 -2.38365754e-002 2.09700719e-001
      -1.18354820e-001 -5.51821738e-002 7.49390572e-002 -5.68879768e-002
      4.81926315e-002 8.56652949e-003 -3.37254442e-002 -8.30311254e-002
      8.86246189e-002 -6.70779645e-002 5.42605631e-002 -7.90441632e-002
      5.75664863e-002 1.51785668e-002 1.98323764e-002 2.95673817e-001
      3.00695281e-002 -4.46577854e-002 -7.80779216e-003 -1.01733925e-002
      5.33924699e-002 3.03315818e-002 -4.85312268e-002 2.03789808e-002
      -1.17543060e-003 -1.59675181e-001 -1.82483029e-002
      -1.31757423e-001 8.03367794e-002 2.20898129e-002 6.29782304e-002
      -1.23409688e-001 8.50135610e-002 -1.64218411e-001 -7.18706921e-002
      -2.94751972e-002 -5.30290976e-002 -1.01301959e-002
      -2.06987839e-003 -1.91150859e-001 -1.36951610e-001 2.40173284e-002
      -1.26243085e-001 -1.78084858e-002 -1.63248871e-002
      -2.46017743e-002 -4.97601405e-002 2.93132830e-002 1.91634864e-001
      5.46390750e-002 -1.19876608e-001 -1.64516628e-001 1.75295740e-001
      -4.21178062e-003 -1.39429858e-002 9.32201073e-002 -2.37052776e-002
      9.63469222e-002 -1.00900158e-002 -5.65837659e-002 -8.38441402e-002
      1.97300747e-001 -6.76716417e-002 -1.18905231e-002 -1.23114707e-002
      -7.76709914e-002 -2.67225262e-002 -6.22494891e-002 5.02553172e-002
      5.87500520e-002 1.24698944e-001 1.19726539e-001 -2.41588168e-002
      5.89788295e-002 1.57111995e-002 1.25564620e-001 1.85596701e-002
      8.93213674e-002 -8.78672525e-002 2.16447607e-001 1.12635992e-001
      -1.09612703e-001 -2.15951595e-002 -5.65916263e-002 4.55064029e-002
      -2.91828334e-001 1.37688279e-001 1.26068100e-001 4.81926911e-002
      3.00214201e-001 4.85488623e-002 3.44230384e-002 -4.32987139e-002
      1.53599098e-001 1.08551085e-001 2.07241364e-002 -4.40812893e-002
      1.09481849e-001 1.89479753e-001 -7.87095428e-002 2.41891369e-002
      8.82561877e-002 -1.20841227e-001 -7.22400099e-002 -3.42090195e-003
      -1.38850100e-002 1.25689209e-001 7.12209046e-002 -9.30567365e-003
      8.38567689e-002 -7.75049329e-002 -7.24453330e-002 -2.33807281e-001
      1.17023356e-001 1.17225610e-001 -1.01297833e-001 8.63198042e-002
      -1.51627272e-001 2.46614739e-002 1.51276603e-001 -1.61428079e-001
      -7.18586296e-002 1.18120179e-001 7.68665448e-002 -3.86421457e-002
      9.35664400e-002 -7.22753704e-002 4.59479094e-002 -2.29637936e-001
      -1.65540725e-001 2.23467723e-001 -9.56053436e-002 -2.09124878e-001
      9.51380730e-002 -2.83229142e-001 -2.55970687e-001 2.36436874e-001
      -1.18636705e-001 4.79584597e-002 8.50071758e-002 5.54508865e-002
      1.39658630e-001 1.54094115e-001 3.15638408e-002 -1.62790820e-001
      5.24604060e-002 -1.95225496e-002 2.05618013e-002 2.86063105e-001
      -5.58296777e-002 -1.64890245e-001 5.92786446e-002 -1.87851023e-002
      -3.65543999e-002 1.60949737e-001 8.78499970e-002 -5.06787524e-002
      2.65950281e-002 -7.18329921e-002 -7.05486089e-002 9.50887501e-002
      -1.78987235e-002 1.41806854e-002 1.65190306e-002 1.33065535e-002
      6.79477975e-002 2.19871104e-002 1.88431039e-001 -9.47402269e-002
      2.32286766e-001 -5.73656894e-002 -2.79302131e-002 -4.19774055e-002
      -1.97624192e-001 -7.90338032e-003 -1.17807537e-001 2.68372092e-002
      1.37425393e-001 1.07416049e-001 1.49807974e-003 2.23233134e-001
      -9.95436534e-002 1.82114299e-002 -3.46939750e-002 5.83498180e-002
      5.39145768e-002 -1.06833316e-001 7.13464394e-002 -9.68407281e-003
      -1.39462784e-001 -1.02063455e-001 -1.72277182e-001 1.03240330e-002
      -2.33215727e-002 1.43753607e-002 1.00401486e-003 -1.95807248e-001
      -1.17186084e-002 2.42094044e-002 -6.38346225e-002 -7.18553290e-002
      5.21608479e-002 -9.56941247e-002 -6.14199974e-002 2.65743565e-002
      6.88509922e-003 -8.61763507e-002 6.29287155e-004 -1.03029676e-001
      -1.24209404e-001 1.22202620e-001 9.00545344e-002 1.34394184e-001
      -5.95122725e-002 2.42351755e-001 -1.05156012e-001 1.95490673e-001
      1.27030471e-002 1.19627242e-004 -4.00080252e-003 1.48641216e-002
      -1.12096064e-001 3.28771919e-002 -3.18490006e-002 8.51154327e-002
      2.81732753e-002 -5.51038086e-002 -6.84310123e-002 8.32927506e-003
      1.29915550e-001 5.67289144e-002 -5.75954914e-002 1.14661358e-001
      2.15273991e-001 -7.70610496e-002 4.58564125e-002 5.98905534e-002
      3.03989127e-002 3.14110704e-002 -1.73945919e-001 -2.96091028e-002
      -9.28422213e-002 -5.87753765e-002 -8.66372883e-002
      -7.85132349e-002 -8.45257863e-002 -2.55081616e-002 2.23240741e-002
      -1.52261272e-001 -2.24152822e-002 1.66067779e-002 -1.47569150e-001
      -7.97186345e-002 7.01102242e-002 9.94678289e-002 -1.15940310e-001
      -4.19368260e-002 2.80287843e-002 7.87489042e-002 4.53466512e-002
      1.35127395e-001 -3.08481514e-001 -2.66791135e-001 -5.44116236e-002
      -8.47207829e-002 -1.00357398e-001 -3.58656272e-002 1.10424079e-001
      -1.71417054e-002 -7.97963217e-002 -4.75052334e-002 2.16040567e-001
      1.18429199e-001 4.02038470e-002 2.81990971e-002 2.05901768e-002
      -3.53163183e-002 3.19451056e-002 -3.93692292e-002 5.39622530e-002
      -7.41807669e-002 6.66718036e-002 1.65146410e-001 1.09641533e-002
      7.35440478e-002 -2.09518522e-001 2.26152644e-001 2.64406562e-001
      8.54358226e-002 1.98712379e-001 1.17583536e-001 8.51617232e-002
      -1.18440732e-001 6.41722530e-002 -7.98277184e-002 -1.24095775e-001
      4.42107767e-003 3.36339585e-002 -2.30788976e-001 4.20264155e-002
      6.60586134e-002 -1.21707059e-001 4.23176065e-002 -2.23988146e-001
      -6.30680993e-002 -2.72477157e-002 -1.39532298e-001
      -5.71797192e-002 3.90333589e-003 3.48422006e-002 -1.49184793e-001
      -8.88167620e-002 -1.07684143e-001 6.35762438e-002 -2.25063190e-002
      3.96298580e-002 -1.22739486e-002 -3.41651924e-002 6.66753668e-003
      2.86955032e-002 6.83704540e-002 -2.28843197e-001 -1.05411798e-001
      -7.10559189e-002 7.10334405e-002 7.09787309e-002 1.27498254e-001
      4.32278449e-003 -1.51432008e-001 -2.76640385e-001 -4.30853963e-002
      -1.29711553e-001 -6.44718409e-002 4.34237858e-003 -1.77264839e-001
      -1.17294572e-001 -6.92314208e-002 -9.84527543e-002
      -3.62041518e-002 2.01549947e-001 -3.97793293e-001 -4.61869091e-002
      9.55299735e-002 -1.26362592e-002 1.43466651e-001 1.53059199e-001
      -1.05296999e-001 -1.28750533e-001 -1.26965687e-001
      -2.96464622e-001 -1.10662036e-001 6.98960349e-002 -1.03230916e-001
      -2.47267019e-002 -7.28477761e-002 -7.17973635e-002
      -8.65919292e-002 -4.86565121e-002 -1.60642982e-001
      -3.95118333e-002 -1.06395900e-001 -5.86631894e-002
      -7.00407103e-002 -1.50821820e-001 -4.28170711e-002
      -1.06881157e-001 -4.13145088e-002 -9.75162163e-002 9.38295666e-003
      -9.08402801e-002 1.89476535e-002 3.02624442e-002 -1.62387177e-001
      -1.19755611e-001 -1.92021206e-001 1.18219405e-002 4.55359705e-002
      2.64834594e-002 -1.23069011e-001 -4.13213149e-002 -1.40454426e-001
      -1.09161295e-001 1.09829016e-001 -2.18603551e-001 -2.39663929e-001
      -1.86145276e-001 3.45312096e-002 -1.37049332e-001 -5.96254952e-002
      2.68034940e-003 7.89686367e-002 3.13462876e-002 -2.02261940e-001
      -1.57065496e-001 -1.72472835e-001 -8.38903114e-002
      -1.58942029e-001 -1.29930163e-002 8.83688778e-002 -2.27448806e-001
      -2.69951690e-002 -2.42307037e-002 -1.68571442e-001
      -2.17393860e-001 -9.18458551e-002 -1.63289949e-001
      -5.94384484e-002 -2.32652556e-002 2.08857339e-002 1.35813445e-001
      1.86915081e-002 -1.00238927e-001 -1.34340435e-001 -5.88718988e-002
      1.00457137e-002 6.90355301e-002 2.84003038e-002 1.71294421e-001
      2.80354936e-002 -2.01913148e-001 -2.10738510e-001 -1.28594890e-001
      -3.56710167e-003 -1.93662181e-001 -1.06235422e-001 1.55024566e-002
      1.41314045e-001 1.33312687e-001 2.16946498e-001 2.35030130e-001
      -5.36511354e-002 1.39901623e-001 8.44051596e-004 -8.66381973e-002
      8.55765268e-002 -2.69592647e-002 -5.13821803e-002 -1.26269951e-001
      1.72474217e-002 2.13767547e-004 6.05348274e-002 -8.77089277e-002
      8.18847585e-003 -6.70007169e-002 1.45053074e-001 1.04536429e-001
      1.34942621e-001 1.68678582e-001 9.72523540e-002 7.64823332e-002
      -2.23530069e-001 -8.26857686e-002 5.93026839e-002 5.17814569e-002
      6.51176870e-002 1.67912349e-001 -1.41441554e-001 1.24533825e-001
      -1.53534830e-001 -1.36469007e-001 -3.20557840e-002 4.29085940e-002
      1.41649460e-002 -5.33782504e-003 6.04337975e-002 -6.23500869e-002
      -4.82708216e-002 2.01638728e-001 6.85563162e-002 -3.88168776e-003
      -4.71708439e-002 8.62986371e-002 1.40622556e-001 7.18909428e-002
      -4.32096422e-002 1.70985565e-001 -1.09592325e-003 -1.02246135e-001
      1.23975510e-002 4.79159318e-002 4.74984311e-002 7.74740577e-002
      7.69503638e-002 2.40106098e-002 -1.30784541e-001 1.38365507e-001
      3.81190772e-003 -1.15840025e-001 3.44214886e-002 9.87848788e-002
      8.01932588e-002 1.75025582e-001 1.04713226e-002 3.92731130e-001
      2.28561267e-001 1.94529872e-002 -1.06387772e-001 -8.51589516e-002
      5.50432540e-002 2.07484234e-002 -9.58250370e-003 3.08541097e-002
      1.72843754e-001 2.66035516e-002 -7.26793334e-002 -2.13746712e-001
      -4.60887887e-002 1.60048734e-002 -4.63270321e-002 7.65055567e-002
      -2.30272368e-001 -9.39910337e-002 1.77200273e-001 5.90282194e-002
      -3.89679000e-002 1.81712672e-001 -1.43914655e-001 -1.53285012e-001
      8.29099938e-002 -8.38091690e-003 -1.19920030e-001 1.88923422e-002
      -1.78041205e-001 -7.68486857e-002 5.98408282e-003 3.68259922e-002
      -1.04295639e-002 -4.52957973e-002 -3.17164101e-002 1.56642586e-001
      1.95145503e-001 -6.01507351e-002 1.73337668e-001 1.78401425e-001
      -4.74431291e-002 -1.74369365e-001 1.85475677e-001 1.39783636e-001
      -1.00179361e-002 1.68675242e-003 -1.05824716e-001 1.41441673e-001
      1.17683575e-001 8.08033859e-004 -1.53760016e-001 -5.01381829e-002
      -1.59542739e-001 -9.75845233e-002 -1.31292567e-001
      -3.24775092e-002 1.92684397e-001 1.21551603e-001 -1.86643258e-001
      -2.03083873e-001 4.49331775e-002 1.43203273e-001 -2.44984776e-001
      -1.72557771e-001 -7.68993869e-002 2.10177526e-002 -1.51883915e-001
      3.59380953e-002 2.78936237e-001 -6.20087385e-002 -1.80829272e-001
      9.05667841e-002 -2.40964934e-001 -3.85402262e-001 1.18132547e-001
      1.32810418e-003 -1.70277476e-001 -9.48332101e-002 -1.21563986e-001
      1.08742818e-001 -1.49604544e-001 -1.71169028e-001 -1.00953542e-001
      7.42653906e-002 6.31750450e-002 7.57213216e-003 3.45574975e-001
      8.72722417e-002 -6.03568330e-002 2.67462552e-001 2.07647398e-001
      -1.18604921e-001 -7.95111805e-002 -1.14039533e-001 6.98259026e-002
      7.35140890e-002 3.91047671e-002 1.26515403e-001 7.73143431e-004
      -4.44840938e-002 3.39197144e-002 2.59304136e-001 4.87475656e-002
      -1.32097974e-001 3.03614512e-002 -2.50839926e-002 -9.20208544e-002
      3.30658443e-002 5.80483302e-002 -1.76032797e-001 4.50596474e-002
      -1.48878276e-001 -5.50203510e-002 -7.72666633e-002
      -7.60583803e-002 -2.01316066e-002 -5.58666587e-002 1.15802720e-001
      1.42390337e-002 5.92661202e-002 1.71078183e-002 -2.47708373e-002
      -1.47593291e-002 -6.99098334e-002 -1.28162829e-002
      -4.47894298e-002 -7.94204883e-003 -1.71665013e-001
      -7.13663921e-003 -4.39752787e-002 -1.32569835e-001
      -1.22775979e-001 2.68379040e-002 2.11571660e-002 -5.06512932e-002
      6.71150237e-002 5.70983253e-002 3.42153162e-002 1.70381125e-002
      -1.49890855e-002 -8.00340399e-002 -2.31289625e-001
      -2.60389727e-002 -5.06347120e-002 1.02646433e-001 -5.94831184e-002
      6.28558313e-003 -9.36068036e-003 7.62300193e-002 1.29919618e-001
      -4.64145243e-002 -1.46731883e-001 7.87347704e-002 -6.43706992e-002
      -4.62755449e-002 -3.98327596e-002 2.88518667e-001 -9.18011144e-002
      -8.95195752e-002 -4.19372059e-002 -5.52146509e-002
      -1.28022075e-001 1.37290180e-001 1.14870071e-001 -1.01642184e-001
      5.11106960e-002 -2.99479663e-002 1.50470451e-001 -5.04490733e-002
      -1.48931026e-001 4.38535586e-002 1.41811118e-001 1.28782690e-001
      -6.15462027e-002 8.39785784e-002 6.77140383e-003 -1.45690385e-002
      7.25195045e-004 -2.90444434e-001 1.24012984e-001 1.82371289e-002
      -6.90147951e-002 6.76058903e-002 4.99194600e-002 -8.83913040e-003
      1.40933581e-002 -9.92554948e-002 8.77618045e-003 9.02174562e-002
      -9.07974243e-002 -1.44233242e-001 9.94956791e-002 1.57295614e-002
      -6.65258169e-002 -8.34870711e-002 -9.59322080e-002
      -1.70343861e-001 4.29771235e-003 8.26106127e-003 -1.04032546e-001
      -2.31193900e-001 -2.37900745e-002 6.33949414e-002 -4.03163843e-002
      -7.25241974e-002 7.70032629e-002 -3.16311955e-001 -3.10153421e-002
      4.75700460e-002 -2.87185013e-002 -5.96911926e-003 1.90064162e-002
      -5.73962890e-002 -5.35779186e-002 -2.88941652e-001
      -3.91773246e-002 -2.12021880e-002 -4.52129804e-002
      -1.58576041e-001 -7.04425871e-002 -7.94015825e-003 9.11761299e-002
      2.85417229e-001 -1.09187603e-001 2.35012304e-002 4.79106903e-002
      8.89711920e-003 -5.23325130e-002 7.34042050e-003 -1.61082782e-002
      -6.63194433e-002 -9.66588333e-002 -5.02444133e-002
      -3.40644754e-002 1.01553556e-002 -1.56310141e-001 -2.54323095e-001
      -3.64043899e-002 -9.75475460e-002 -5.50053455e-002 1.56323329e-001
      5.08468486e-002 -1.61458254e-001 -5.88636696e-002 6.69313595e-002
      -7.84659833e-002 7.49269966e-003 7.36886337e-002 -1.29000917e-001
      -3.90662998e-002 -1.69328839e-001 1.27723396e-001 -1.16292395e-001
      1.00663923e-001 1.72020867e-002 5.97218908e-002 -4.51908298e-002
      -2.09412724e-001 2.93611344e-002 1.73687711e-001 1.01521797e-001
      6.39813915e-002 2.58045435e-001 -2.31962483e-002 2.42123101e-002
      -6.23936541e-002 -7.52394728e-004 -3.11830323e-002
      -1.76665243e-002 5.40096611e-002 -7.47947842e-002 3.19528952e-002
      -1.65350605e-002 1.12121766e-002 -2.25886434e-001 -1.20836832e-001
      3.26666795e-002 -6.58856854e-002 -4.92457859e-002 6.47589117e-002
      -1.29332706e-001 -1.98800668e-001 -1.86134458e-001 1.41638871e-002
      9.45948511e-002 -5.66961728e-002 -7.35543743e-002 -4.28616405e-002
      -1.87879428e-001 -1.59495324e-002 1.84739511e-002 -7.32732117e-002
      4.00894582e-002 5.39135151e-002 2.75257733e-002 -5.67466579e-002
      -1.20285610e-002 -1.76199272e-001 -1.22298021e-002 2.46247858e-001
      -7.85090476e-002 -1.21267118e-001 -6.81391060e-002
      -2.37770882e-002 4.66818698e-002 -2.02797234e-001 -9.09625664e-002
      -1.10453255e-001 -3.13940346e-002 -9.03633535e-002 7.98409134e-002
      -9.32891741e-002 -4.66749370e-002 -1.66654348e-001
      -3.41134071e-001 -4.10158224e-002 3.34100090e-002 -1.70491841e-002
      -4.98907221e-003 -3.81874503e-004 -7.09208101e-002
      -1.43439308e-001 -6.93977550e-002 -8.54760632e-002 2.82236096e-002
      -8.94327611e-002 6.51141256e-002 -2.23134831e-002 6.48552403e-002
      1.61226705e-001 1.05517395e-001 -4.94460203e-003 -1.28259382e-003
      -1.57936424e-001 -1.35617718e-001 2.32433215e-001 -1.90983042e-002
      1.62962284e-002 8.75840858e-002 -1.34771600e-001 -1.58405662e-001
      -4.18872535e-002 -1.49920151e-001 -2.00140119e-001
      -1.35837421e-001 -1.27699777e-001 1.05647027e-001 4.25063167e-003
      -6.87378421e-002 -1.63114265e-001 -1.63380265e-001
      -1.36372164e-001 -1.16200104e-001 1.44176304e-001 6.91313818e-002
      8.94987956e-002 1.22316383e-001 3.96688432e-002 1.65877029e-001
      1.33323804e-001 -4.77563553e-002 -1.82800114e-001 -2.05196142e-001
      -9.31613371e-002 -8.67426917e-002 5.62171862e-002 5.61412014e-002
      1.95902064e-001 1.00670658e-001 6.87973052e-002 -1.25255674e-001
      5.03835194e-002 -3.66524011e-002 -1.48036361e-001 3.30583937e-002
      4.11094166e-002 -1.38084786e-002 1.69542264e-002 -8.06374401e-002
      -3.30794811e-001 -7.71155059e-002 -7.44559541e-002
