<?xml version="1.0"?>
<opencv_storage>
<my_svm type_id="opencv-ml-svm">
  <svm_type>C_SVC</svm_type>
  <kernel><type>LINEAR</type></kernel>
  <C>1.</C>
  <term_criteria><epsilon>2.2204460492503131e-016</epsilon>
    <iterations>100000</iterations></term_criteria>
  <var_all>432</var_all>
  <var_count>432</var_count>
  <class_count>2</class_count>
  <class_labels type_id="opencv-matrix">
    <rows>1</rows>
    <cols>2</cols>
    <dt>i</dt>
    <data>
      -1 1</data></class_labels>
  <sv_total>1</sv_total>
  <support_vectors>
    <_>
      -9.63823795e-001 -3.78680259e-001 5.80968082e-001 -1.86866567e-001
      -9.22010720e-001 6.58140853e-002 6.88239753e-001 -4.64148760e-001
      1.47941804e+000 -6.43416584e-001 -1.52444348e-001 8.21619928e-001
      -4.15543437e-001 -4.67485934e-001 4.16421652e-001 2.27956817e-001
      -6.55326247e-002 6.44395590e-001 -3.71505588e-001 -1.27555513e+000
      2.60258079e-001 1.52664617e-001 -1.55196026e-001 -6.21866643e-001
      -8.00712287e-001 -2.55527675e-001 -1.39546013e+000
      -1.53640375e-001 1.82427481e-001 8.39408338e-001 3.63077037e-002
      2.28391051e-001 2.75094688e-001 2.56838322e-001 -3.83067340e-001
      -5.71869552e-001 -6.30156994e-001 7.30774760e-001 -4.33339745e-001
      -9.16331410e-002 -3.30810040e-001 -7.67261833e-002 2.76615351e-001
      -4.06544298e-001 -3.91344428e-002 -4.01213229e-001 6.96665883e-001
      7.65141428e-001 -1.46210462e-001 2.67094791e-001 -1.49025852e-002
      4.73335162e-002 3.57085347e-001 1.29544425e+000 5.71414769e-001
      -9.41690624e-001 3.14328909e-001 -7.41584003e-001 2.25255013e-001
      -2.08400682e-001 4.39659894e-001 -3.41917157e-001 -3.29046518e-001
      -3.43939066e-002 -5.69882274e-001 8.88902768e-002 1.16974525e-001
      6.72738314e-001 2.29485586e-001 6.42761169e-003 -5.88551879e-001
      -2.95308083e-001 -9.10490513e-001 -8.46998572e-001
      -2.56936431e-001 2.64224738e-001 -1.42125227e-002 -1.91567898e-001
      2.83962727e-001 -4.26606983e-001 2.48366162e-001 4.31660920e-001
      1.23412180e+000 1.29305530e+000 -1.15746997e-001 -1.34555297e-002
      2.25808874e-001 8.36318493e-001 1.38313010e-001 -2.49401465e-001
      6.28586948e-001 -3.87908489e-001 -3.40944201e-001 -6.16432190e-001
      -5.23141772e-002 4.80944440e-002 -1.74214214e-001 -1.29223526e-001
      -4.31020081e-001 5.29238917e-002 -2.12618977e-001 2.92434961e-001
      -6.35251105e-001 8.27809051e-002 -3.79122823e-001 -3.20357919e-001
      -1.02466428e+000 -2.42939413e-001 -6.62969947e-001 4.08756584e-001
      -1.05546236e+000 2.09181204e-001 6.53315008e-001 2.99282789e-001
      -4.05427426e-001 2.16603547e-001 8.09862018e-001 -2.21202672e-002
      4.15968567e-001 -1.11656666e-001 -7.15688407e-001 -7.05449224e-001
      -7.45257735e-002 -1.62432224e-001 2.36465514e-001 1.95569128e-001
      7.48826623e-001 -1.22852576e+000 -1.26511067e-001 -8.18331659e-001
      2.69951299e-002 -3.82671118e-001 -1.34223878e-001 -2.57028818e-001
      4.47027177e-001 1.70114383e-001 1.97935030e-001 2.08102643e-001
      -2.17037797e-001 6.20474100e-001 4.56993401e-001 1.70173272e-001
      5.58238886e-002 -7.66071498e-001 -1.10630393e+000 -2.04277888e-001
      -4.79507923e-001 7.32329130e-001 -2.77614564e-001 -7.31089175e-001
      -5.05375028e-001 -2.98747808e-001 2.25490674e-001 -7.13760614e-001
      9.80276048e-001 3.24712917e-002 -8.80464196e-001 -2.49094307e-001
      -5.08915544e-001 -4.05006200e-001 6.49432167e-002 2.72490680e-001
      3.98038685e-001 -2.79208899e-001 -4.76092756e-001 -3.75882566e-001
      -4.25666332e-001 9.91526544e-002 7.71402419e-001 1.11274183e-001
      -2.15625063e-001 -7.49416053e-001 -9.69084680e-001 1.35991961e-001
      1.65597931e-001 -6.35556579e-001 -6.08991206e-001 -2.20444754e-001
      -1.66557610e-001 4.03437056e-002 -8.26933265e-001 -1.23150539e+000
      -6.88870102e-002 3.28596652e-001 -7.01996028e-001 -5.96408665e-001
      -1.11493535e-001 -2.41901532e-001 -5.97550236e-002
      -3.71245295e-001 1.86596327e-002 8.22408378e-001 -7.82798707e-001
      -2.91698277e-001 4.45616782e-001 -9.14140284e-001 -7.28365362e-001
      3.53137910e-001 -4.55603719e-001 -3.20960045e-001 -2.68329168e-003
      1.56419739e-001 -3.06023806e-001 7.70429492e-001 1.61355764e-001
      -3.82198900e-001 -4.34383184e-001 -8.86981845e-001
      -8.62460304e-003 3.76461715e-001 -9.75115418e-001 -8.65743995e-001
      -8.59539032e-001 -1.65271059e-001 3.05820972e-001 -6.11713946e-001
      4.38520968e-001 -8.41698468e-001 -6.68107020e-003 2.15945661e-001
      2.56271333e-001 1.19045556e-001 -7.64108121e-001 1.19551562e-001
      8.67507100e-001 -6.71118557e-001 -2.75916964e-001 -4.98126775e-001
      6.82863221e-002 5.36227763e-001 -8.30800712e-001 4.76628900e-001
      4.52827126e-001 -3.64641011e-001 -2.14967012e-001 1.01614766e-001
      1.35094941e+000 -4.38410252e-001 -5.25047183e-001 4.56769228e-001
      -6.57081902e-001 -5.57533741e-001 -3.81652385e-001
      -3.59732896e-001 1.24546006e-001 -2.34291088e-002 -2.11297095e-001
      -8.07458878e-001 -7.09282696e-001 -7.20903277e-001
      -5.72866976e-001 3.17841083e-001 -8.28123271e-001 5.84164202e-001
      1.18171275e+000 -1.32454145e+000 -6.58270597e-001 -6.45807922e-001
      -3.03343624e-001 -5.65096676e-001 3.95970903e-002 -1.11626714e-001
      7.04688206e-002 5.70933819e-001 1.59293991e-002 -6.96688831e-001
      4.64966983e-001 2.10553393e-001 3.47437173e-001 -4.74316180e-001
      9.70582545e-001 -3.98650050e-001 -3.16708803e-001 -3.78277987e-001
      -2.20427483e-001 2.54330993e-001 6.37962297e-002 -6.99687958e-001
      -1.21768010e+000 -4.38864857e-001 4.88256991e-001 5.71944535e-001
      -4.06911820e-001 -1.57952920e-001 3.41193885e-001 -2.39250138e-001
      2.45621249e-001 -4.31016594e-001 -3.92633408e-001 -5.08562386e-001
      -4.50703293e-001 -6.30031407e-001 -9.72623944e-001
      -5.15795350e-001 -4.18106854e-001 -6.01207852e-001
      -2.71234542e-001 -4.38554212e-002 5.92595577e-001 6.12331450e-001
      -5.54918945e-001 -7.31853604e-001 1.34330928e-001 1.70504183e-001
      -2.89491922e-001 -6.38675153e-001 4.36771326e-002 -1.05065608e+000
      -6.63420439e-001 -1.65606067e-002 -5.76180339e-001
      -1.53844938e-001 -1.35154784e-001 -7.17195392e-001
      -1.54955104e-001 -7.53367364e-001 3.68992805e-001 -2.83480346e-001
      -8.49852622e-001 -4.38078195e-001 3.52205965e-003 -3.65909964e-001
      -3.53164256e-001 -1.05108452e+000 -7.47685373e-001 2.14529887e-001
      -4.96871978e-001 -1.23013830e+000 1.72590983e+000 -7.94079065e-001
      6.15900040e-001 -9.83266532e-001 -6.76761270e-001 -1.51399442e-003
      6.49327397e-001 -6.18753612e-001 -6.07263446e-001 2.18324542e-001
      -5.05801857e-001 -5.32859042e-002 2.33936667e-001 -6.75828755e-001
      -2.20149353e-001 -6.31767094e-001 5.37266552e-001 6.98856235e-001
      -2.05538034e+000 -1.83840290e-001 -7.22424448e-001 7.26276040e-002
      -7.41650105e-001 -6.57589495e-001 -4.25217718e-001 9.51684713e-002
      -8.50846842e-002 -1.12146246e+000 1.25651425e-002 2.43950173e-001
      4.83524144e-001 -1.12918131e-001 -6.55929446e-001 -2.18156666e-001
      2.18271390e-001 3.47000778e-001 6.96379483e-001 3.35750759e-001
      6.41624928e-001 -6.77601695e-001 4.18592781e-001 5.76697662e-002
      1.55453598e-002 -9.54096973e-001 -3.13940406e-001 4.83074009e-001
      -6.41201615e-001 3.94441098e-001 2.74605066e-001 -4.48780388e-001
      1.56803787e-001 -1.93392918e-001 5.77381134e-001 4.18761313e-001
      -1.30437449e-001 3.34295213e-001 2.55384415e-001 1.00491844e-001
      3.66563022e-001 -2.16255933e-001 -8.95116746e-001 5.31835854e-001
      1.58541560e-001 -1.04961896e+000 1.07441282e+000 -2.02216640e-001
      2.47395739e-001 1.15128405e-001 -3.97900552e-001 4.12562281e-001
      7.58074522e-002 -3.05740267e-001 5.05014539e-001 -6.81879103e-001
      -3.89328748e-001 -8.15305352e-001 5.97521961e-001 1.24348752e-001
      -5.80010116e-001 -8.10469449e-001 -5.74130893e-001 1.27113307e+000
      -1.01806986e+000 -6.60905018e-002 -2.65173078e-001 5.33277452e-001
      -2.91713059e-001 -5.70693195e-001 -3.47236842e-001 1.04963362e+000
      2.09375396e-001 6.05236031e-002 -2.92320997e-001 -4.47638571e-001
      -4.23109271e-002 -6.82527125e-002 1.70309171e-002 2.81634778e-001
      9.35885429e-001 -8.20734680e-001 2.33724892e-001 1.14589655e+000
      9.56452668e-001 8.62363100e-001</_></support_vectors>
  <decision_functions>
    <_>
      <sv_count>1</sv_count>
      <rho>-1.0334480151879875e+001</rho>
      <alpha>
        1.</alpha>
      <index>
        0</index></_></decision_functions></my_svm>
</opencv_storage>
