<?xml version="1.0"?>
<opencv_storage>
<my_svm type_id="opencv-ml-svm">
  <svm_type>C_SVC</svm_type>
  <kernel><type>LINEAR</type></kernel>
  <C>1.</C>
  <term_criteria><epsilon>2.2204460492503131e-016</epsilon>
    <iterations>100000</iterations></term_criteria>
  <var_all>1008</var_all>
  <var_count>1008</var_count>
  <class_count>2</class_count>
  <class_labels type_id="opencv-matrix">
    <rows>1</rows>
    <cols>2</cols>
    <dt>i</dt>
    <data>
      -1 1</data></class_labels>
  <sv_total>1</sv_total>
  <support_vectors>
    <_>
      -6.77618206e-001 6.73442185e-001 1.87429279e-001 7.94226587e-001
      -4.48455542e-001 7.14719236e-001 3.50323915e-001 3.99683714e-001
      -4.10886109e-002 2.31422350e-001 -2.58410633e-001 -1.48255154e-001
      -7.92679284e-003 -1.09404314e+000 6.36316389e-002 4.97351229e-001
      -6.61626697e-001 6.41114428e-004 1.36968225e-001 5.56271613e-001
      4.64958549e-002 1.00380681e-001 4.99049038e-001 -1.11185141e-001
      4.22095776e-001 -3.49980801e-001 -2.48116910e-001 -3.92454177e-001
      -1.46126240e-001 3.35301787e-001 -1.23907514e-001 5.46423316e-001
      -3.66200179e-001 -5.12023866e-001 -3.10799092e-001 1.02214503e+000
      -3.47539127e-001 -1.15817815e-001 2.02786356e-001 2.35864729e-001
      -4.97688174e-001 4.59333122e-001 1.11778796e-001 2.50844270e-001
      -1.09783374e-001 -1.58046529e-001 -4.94051635e-001 2.70669252e-001
      2.96311498e-001 -9.72370148e-001 -6.09146416e-001 -2.47586459e-001
      -5.99805832e-001 7.92982464e-004 4.21880811e-001 -1.42281190e-001
      -2.51425028e-001 8.76584575e-002 8.87470916e-002 1.80908695e-001
      7.21365213e-001 -9.01102647e-003 -7.42291212e-001 -1.13424240e-002
      -5.50486445e-001 -6.32338047e-001 -3.69212300e-001 7.79423654e-001
      -2.09701136e-001 -5.14099896e-001 -3.19589227e-001
      -4.82254848e-002 -5.96571863e-002 -1.14872001e-001
      -2.06953049e-001 9.74429995e-002 -6.55176193e-002 2.91061252e-001
      -2.35463023e-001 -2.71665245e-001 2.50603855e-001 -2.47804686e-001
      -7.66430974e-001 4.84713435e-001 9.15388316e-002 -8.34451079e-001
      -2.30783179e-001 -7.63635695e-001 6.38435781e-001 -3.82008731e-001
      7.33698579e-003 -5.53390801e-001 -4.39940333e-001 -4.29664075e-001
      -2.61780053e-001 -5.15431523e-001 8.15379098e-002 5.25501668e-002
      -1.52050555e-001 1.00510046e-001 -2.23991182e-002 3.15825678e-002
      -4.27688271e-001 5.25745928e-001 4.86170128e-002 -4.53925692e-003
      -1.40009625e-002 -2.36306638e-002 -8.83308612e-003
      -3.07961255e-001 1.00841485e-002 1.77079484e-001 -5.03678977e-001
      2.71222088e-002 1.13654165e-002 -3.10187310e-001 -7.09692538e-002
      -7.59708583e-001 9.36262086e-002 3.56672078e-001 3.53255421e-001
      -7.65894949e-001 -2.06035808e-001 -6.66960031e-002 3.72504592e-001
      3.26046199e-001 -2.68070519e-001 -4.56292212e-001 -6.22749329e-001
      -6.81589782e-001 -3.71049270e-002 -1.53977346e+000
      -5.63487589e-001 -1.65745124e-001 1.60560757e-001 1.16475493e-001
      -6.49513006e-001 5.56625664e-001 -4.03105766e-001 2.54512697e-001
      1.43736705e-001 -4.30739433e-001 -4.15963978e-002 -7.07302764e-002
      2.87207603e-001 -9.53880668e-001 5.91437928e-002 -2.60077506e-001
      -3.52027863e-001 -2.13988051e-002 3.83446127e-001 -5.37869751e-001
      5.25179148e-001 -3.28177899e-001 3.93842667e-001 4.64396298e-001
      3.50464970e-001 3.48869860e-002 7.83131361e-001 5.53884625e-001
      1.90611079e-001 1.58337101e-001 -1.72726542e-001 -3.16548973e-001
      -1.29820898e-001 1.33744314e-001 3.07387233e-001 7.27940723e-002
      -1.14445880e-001 -2.27180302e-001 -4.33847755e-001 3.36087532e-002
      4.44915533e-001 1.30010557e+000 -2.40278274e-001 -2.88927436e-001
      -1.59184694e-001 2.39649534e-001 -2.65488535e-001 -7.76466653e-002
      -3.90868098e-001 7.05368593e-002 3.47942829e-001 -7.12087154e-002
      -5.34616172e-001 3.57259870e-001 8.30339491e-002 -1.33128822e-001
      2.00621352e-001 -1.70126557e-001 3.97129893e-001 6.08123779e-001
      -2.19737798e-001 3.00846368e-001 2.24553078e-001 -1.83716342e-001
      1.11328816e+000 1.86997101e-001 2.97977626e-001 -6.93992376e-001
      -4.65950757e-001 -3.86029869e-001 7.71320164e-001 8.21271911e-002
      5.79977453e-001 -4.77589041e-001 -3.90715152e-001 4.26638037e-001
      -1.59890756e-001 3.72909844e-001 1.46033600e-001 6.89177573e-001
      2.57274866e-001 -3.75072509e-002 -4.28097285e-002 -1.97722599e-001
      -1.01387985e-001 -6.65708780e-001 -2.50255346e-001
      -8.04371983e-002 -5.05288780e-001 4.02974814e-001 2.01203018e-001
      -9.51403618e-001 1.89616099e-001 -2.88864017e-001 5.82388461e-001
      6.03952289e-001 4.48682576e-001 -8.55832934e-001 5.37109137e-001
      5.55896342e-001 2.68918544e-001 -4.06264067e-001 -1.74826980e-001
      -4.38439757e-001 2.53315419e-001 -1.38192117e-001 -1.05726220e-001
      -4.63850021e-001 -2.20611040e-002 -4.83229876e-001
      -3.00808281e-001 7.77992904e-001 -6.89516440e-002 -1.30264103e-001
      -7.26666987e-001 7.90601373e-001 -8.24475586e-001 -3.68353277e-001
      -6.77555978e-001 -6.00723065e-002 -3.63505185e-001
      -5.56096673e-001 -1.51128918e-001 -5.66670001e-001 4.55875069e-001
      -2.34402642e-001 2.21345618e-001 4.35624897e-001 -6.19917452e-001
      6.88780993e-002 4.82665151e-001 6.52583092e-002 -1.56266361e-001
      -7.69164264e-001 7.75824428e-001 5.61517894e-001 -4.03010875e-001
      -4.63632524e-001 2.93113261e-001 -1.35950884e-002 -1.05381417e+000
      -3.16298485e-001 -3.24242890e-001 -5.32726169e-001 3.81156683e-001
      -4.18852270e-001 -5.77300370e-001 -1.68295354e-001 1.88584194e-001
      -1.31672710e-001 3.00087817e-002 3.27029079e-001 -7.11589038e-001
      -4.83518362e-001 2.00325325e-001 7.90306646e-003 -7.36093223e-002
      -3.27741712e-001 4.65900190e-002 -4.25202578e-001 4.06746864e-001
      -7.74025023e-001 -1.49877355e-001 -2.20169514e-001
      -2.46069916e-002 -3.25899608e-002 -3.05375457e-001 4.96754646e-001
      -3.15545142e-001 -4.80659872e-001 4.46967572e-001 -4.14987877e-002
      1.67924002e-001 4.17982876e-001 4.90853429e-001 -5.13952523e-002
      -5.94859660e-001 -4.50630277e-001 -1.96160257e-001
      -2.92087466e-001 3.38539720e-001 -1.12020624e+000 -9.65684950e-001
      -3.42141837e-002 -3.47414643e-001 4.31230962e-001 -2.44593099e-001
      6.06865585e-001 -1.08975396e-001 2.10160479e-001 9.51744080e-001
      5.31155542e-002 -3.71816307e-001 -7.52776504e-001 1.86559800e-002
      9.89506602e-001 -1.49214221e-002 -3.82175058e-001 -2.67368317e-001
      -1.42078921e-001 -3.64786386e-002 -1.22588620e-001
      -5.18531442e-001 -1.70859694e-001 -8.24739933e-002
      -5.15773356e-001 1.75585538e-001 -1.10013321e-001 -6.94457293e-002
      1.41699091e-001 8.15828145e-001 2.60661602e-001 2.30854958e-001
      -7.25061357e-001 -4.12334442e-001 -5.60615301e-001 2.42821366e-001
      -3.59215081e-001 -2.24382401e-001 -1.79949895e-001
      -2.09321216e-001 1.28223039e-002 -4.62698162e-001 3.70104276e-002
      -2.07602918e-001 -5.45377672e-001 6.31866634e-001 1.73458621e-001
      -4.30122793e-001 7.51463115e-001 -1.32488295e-001 4.88259912e-001
      -4.13159549e-004 2.98750728e-001 -1.95739985e-001 1.29189014e-001
      -5.72095513e-001 -2.03877687e-001 -4.15296823e-001
      -2.49457389e-001 -2.84826726e-001 -5.02641022e-001 2.22705871e-001
      1.42817080e-001 -3.69884998e-001 1.07137728e+000 5.10651708e-001
      3.22387099e-001 -1.86050773e-001 -6.25468791e-001 4.31502759e-001
      -4.91264276e-002 2.14758329e-002 1.40171051e-001 5.53524613e-001
      -3.17698509e-001 -5.83731122e-002 6.10101938e-001 -6.22897334e-002
      -1.87582463e-001 -9.29460287e-001 -2.44362518e-001 4.39551234e-001
      -2.33108655e-001 2.49610975e-001 2.82438248e-001 -6.01722561e-002
      1.81918487e-001 1.55604824e-001 -2.98408329e-001 -1.45352155e-001
      1.01252571e-002 -8.13308209e-002 -6.41395211e-001 -3.91063362e-001
      -5.08908570e-001 -5.69225430e-001 1.51625484e-001 -1.09785058e-001
      -1.55391827e-001 8.40754747e-001 1.93262890e-001 -2.27074221e-001
      -8.36427331e-001 -2.43308589e-001 -5.91839194e-001 4.35328722e-001
      7.57711709e-001 -2.51020074e-001 -6.08037651e-001 7.79940188e-002
      2.80618280e-001 -5.29828817e-002 6.90103889e-001 -1.11456141e-001
      2.43982166e-001 -5.88909864e-001 -2.14006364e-001 8.73968124e-001
      -4.13770676e-001 -2.84388542e-001 3.88051979e-002 -1.17864348e-001
      9.04024303e-001 -6.87623799e-001 -5.85596025e-001 -5.35999835e-001
      -4.94014025e-001 3.25144768e-001 -1.23105943e+000 -1.41685516e-001
      -1.33098766e-001 -1.00344133e+000 -5.46379387e-002
      -6.73017085e-001 -2.57618636e-001 8.41094613e-001 2.79133797e-001
      1.81501538e-001 -1.24534532e-001 -4.26470608e-001 -7.66065940e-002
      -1.76489875e-001 1.83078274e-001 1.12555587e+000 -4.95366037e-001
      -1.95182666e-001 -2.33837456e-001 1.05077580e-001 5.19017220e-001
      -1.98207349e-001 -1.99182630e-001 -4.18492019e-001
      -3.71286124e-001 -2.60353893e-001 -3.88383538e-001
      -5.13575435e-001 -3.70454103e-001 3.27187218e-002 4.03794050e-001
      -4.92143989e-001 -2.22399905e-001 -1.93713725e-001
      -7.75485516e-001 1.44222170e-001 -7.98738241e-001 -4.56034631e-001
      2.70909131e-001 -8.14603448e-001 -3.68259311e-001 1.44256294e-001
      -3.29829127e-001 4.05732632e-001 -1.75556004e-001 -1.38582243e-002
      -9.27913189e-001 1.22914622e-002 4.18671928e-002 -6.52960002e-001
      3.51911068e-001 8.92248213e-001 -2.41816729e-001 -1.75133079e-001
      -4.54592198e-001 4.28483278e-001 3.76205176e-001 6.03923425e-002
      -6.55094087e-001 -9.13964987e-001 -2.50844926e-001
      -2.89458901e-001 -2.21357763e-001 -6.70462847e-001
      -5.06774724e-001 6.51205797e-003 -9.37761843e-001 1.50513053e-001
      -8.06009233e-001 -7.24074900e-001 9.59763303e-002 -2.48036519e-001
      -2.79842969e-002 -3.46069545e-001 2.19813436e-002 -2.27395311e-001
      -3.04538816e-001 8.91099453e-001 -3.52107376e-001 -3.66289049e-001
      3.90834399e-002 -4.82807420e-002 -3.16386044e-001 4.11793143e-002
      8.33238065e-002 -4.64466810e-001 -6.31700695e-001 7.55972788e-003
      -8.70937467e-001 -4.25781876e-001 2.17591733e-001 -2.85465181e-001
      9.63137075e-002 -5.77093542e-001 -7.28170216e-001 -5.61433375e-001
      9.07442927e-001 2.53238767e-001 -4.24936414e-001 -7.00877130e-001
      -1.50501072e-001 7.86215603e-001 -4.48117442e-002 -2.62845695e-001
      -7.30346441e-001 1.57248112e-003 1.80184767e-002 4.91616696e-001
      1.77534260e-002 1.70784652e-001 -1.33028746e-001 2.28347510e-001
      5.14746346e-002 5.08261144e-001 -4.97911751e-001 -6.48708522e-001
      5.69241762e-001 1.78260997e-001 -5.70394337e-001 -7.44616240e-002
      -3.03959697e-001 -8.05537403e-002 -1.82591766e-001
      -9.08312201e-001 -5.68795204e-001 -4.74932998e-001 2.22464949e-001
      -4.16897207e-001 6.85117766e-002 -1.79827005e-001 -5.06293714e-001
      -2.78393835e-001 2.68839061e-001 -7.48804212e-002 -2.34146882e-002
      -9.60570872e-001 -2.78992504e-001 3.38455796e-001 -9.55161870e-001
      -6.46440359e-003 -4.89604063e-002 9.94994715e-002 -8.83830369e-001
      4.71685648e-001 1.07323252e-001 2.10925579e-001 -4.99680936e-002
      1.19455844e-001 4.73371416e-001 3.36892228e-003 9.54092816e-002
      -2.33369902e-001 1.07926890e-001 4.17123467e-001 5.84907889e-001
      -2.71558225e-001 -1.21196240e-001 -2.65782088e-001 1.96816429e-001
      2.33864099e-001 -3.13530773e-001 -1.02938138e-001 1.75909907e-001
      -9.25988257e-001 4.29924726e-002 -5.75958192e-001 -2.08520070e-001
      -4.34166461e-001 -7.78739750e-002 2.30036169e-001 -2.84780979e-001
      -5.46140373e-001 -3.38502198e-001 -5.61377406e-001 2.80843258e-001
      1.09027125e-001 -8.99010338e-003 -1.23604298e-001 -3.19194764e-001
      1.87906995e-001 5.25139332e-001 -5.93432128e-001 -1.01740442e-001
      -4.74189728e-001 -2.26761103e-002 -6.24515951e-001 5.22833407e-001
      -3.46483141e-001 1.23729616e-001 2.01487169e-003 2.89623350e-001
      3.61771792e-001 -1.44948224e-002 -6.95167124e-001 1.17046647e-001
      -3.31654757e-001 3.73315603e-001 2.82827020e-002 -5.19224942e-001
      -1.26767367e-001 -1.07680067e-001 -5.58324635e-001
      -1.30295336e-001 -3.84827673e-001 -1.23829491e-001
      -8.90989125e-001 -2.21148983e-001 5.33334434e-001 -1.17302209e-001
      -4.11302626e-001 7.77269900e-002 9.31702256e-001 -3.14106107e-001
      -4.59698468e-001 2.84129512e-002 7.09841490e-001 3.35293710e-001
      -1.25635087e-001 -4.04740393e-001 2.15059355e-001 -1.97910249e-001
      -5.69712460e-001 4.38501745e-001 -2.90467411e-001 -1.48600057e-001
      -2.02454761e-001 1.86463580e-001 4.11375910e-001 2.33664617e-001
      -7.22581863e-001 8.93007934e-001 1.50826514e-001 7.40382299e-002
      -1.95713975e-002 -7.71938443e-001 5.93838334e-001 -1.46875814e-001
      2.26519510e-001 -8.00512552e-001 -9.84753370e-001 9.95790213e-003
      -1.04714692e-001 5.20884544e-002 -8.34082901e-001 3.62993091e-001
      3.61979008e-001 -9.65215743e-001 4.55720335e-001 -3.90323490e-001
      -3.84821624e-001 -5.04195869e-001 -1.76692735e-002 2.90481538e-001
      -7.82155246e-002 -1.97709620e-001 -3.77239436e-002 1.14789438e-002
      -1.95785299e-001 6.45404637e-001 4.20345366e-001 -1.14054985e-001
      4.56820279e-001 -7.08511353e-001 4.18156564e-001 -3.41018826e-001
      -3.64315182e-001 7.21657813e-001 4.89911795e-001 -3.39138627e-001
      -3.17716658e-001 -1.37180403e-001 2.73099035e-001 2.37637699e-001
      2.04679757e-001 -4.97911096e-001 1.34508222e-001 -2.12522209e-001
      3.68113309e-001 -6.94775581e-001 -5.89554071e-001 -2.24175647e-001
      -2.40915582e-001 -7.14681149e-001 4.85936366e-002 -3.13588411e-001
      -4.33855683e-001 -7.83026636e-001 2.14543462e-001 -1.69132546e-001
      2.13530093e-001 8.44735503e-002 -9.87315893e-001 1.58263087e-001
      2.31448352e-001 2.21798807e-001 2.83786692e-002 -4.24432665e-001
      4.84212041e-001 -3.67323160e-001 -1.68063283e-001 8.78979452e-003
      -3.80640268e-001 5.71042672e-002 -4.93632630e-002 -4.52536851e-001
      -6.30374104e-002 -8.58378649e-001 3.76918018e-001 3.52431804e-001
      -5.30144930e-001 -5.89713931e-001 -2.53018469e-001 9.85393450e-002
      -6.12719417e-001 -1.11583769e+000 -5.87063015e-001
      -2.34404236e-001 4.07922417e-001 -9.28744450e-002 6.54376268e-001
      -4.60441321e-001 -2.79610693e-001 3.54729652e-001 1.06196776e-001
      -1.50899068e-001 -1.96545467e-001 -4.28702593e-001 4.69501317e-002
      6.40892148e-001 -9.55470875e-002 -1.38373762e-001 -4.89753336e-001
      5.58479607e-001 -6.39317930e-001 1.00742078e+000 5.92095912e-001
      1.12705660e+000 -1.22872150e+000 7.86807775e-001 5.93769789e-001
      4.66904789e-001 3.76856983e-001 6.02882385e-001 -1.21798523e-001
      -3.28423798e-001 -3.85524929e-001 -4.36869889e-001 4.45160598e-001
      9.75166932e-002 -6.38353527e-002 -1.13409184e-001 -4.72804636e-001
      -4.06831682e-001 6.05596423e-001 1.51557559e-002 1.65746838e-001
      -6.35286212e-001 -3.43580425e-001 3.43812764e-001 2.71583378e-001
      -6.84702694e-001 -4.44840461e-001 -1.70366734e-001
      -3.20759714e-001 1.04094791e+000 -3.43857378e-001 -3.75932783e-001
      -1.18588753e-001 6.07056141e-001 -3.36931825e-001 2.38376632e-001
      1.26542762e-001 4.24449384e-001 -5.27162850e-001 3.91306639e-001
      -2.64693618e-001 -6.03295386e-001 3.45893949e-001 -6.02083921e-001
      1.25022277e-001 -2.61236608e-001 -6.96410909e-002 -1.53464031e+000
      1.90149173e-001 -4.02514964e-001 -1.82792023e-001 -2.02145502e-001
      2.07417503e-001 -1.63133480e-002 -1.93112120e-002 -3.90151411e-001
      7.65040696e-001 3.60460907e-001 -5.66156149e-001 -8.96324098e-001
      -2.37987101e-001 6.03747480e-002 4.06786829e-001 -3.40986282e-001
      1.70439422e-001 8.06698382e-001 -2.91006386e-001 -2.15720370e-001
      1.29188165e-001 2.43522018e-001 7.82157660e-001 3.06983858e-001
      -3.10768098e-001 8.03431403e-003 -9.69591439e-001 7.86019921e-001
      -2.55794287e-001 -4.03685749e-001 -6.34861290e-002
      -4.46309566e-001 -7.83705711e-001 5.59080280e-002 1.58171788e-001
      -1.11157775e+000 4.81550664e-001 -2.40746997e-002 -1.88659653e-001
      -2.53809899e-001 -6.83927834e-002 -3.36384624e-001
      -4.60433334e-001 -1.09049928e+000 7.51885951e-001 3.65372449e-002
      -7.15748191e-001 -1.39577293e+000 -5.17269313e-001
      -3.14956084e-002 6.24523759e-001 2.54300505e-001 -5.02783477e-001
      5.80663800e-001 -7.85184383e-001 8.06385636e-001 2.63145864e-001
      8.91456231e-002 7.82093406e-001 -1.82322755e-001 6.69890791e-002
      3.69602084e-001 -1.02716041e+000 -3.10043469e-002 -3.50459993e-001
      1.92865822e-002 -4.12445366e-001 -5.74281216e-001 -2.75027961e-001
      -3.75195503e-001 -1.66965351e-001 -9.09178793e-001 7.27050304e-001
      -2.64194667e-001 -2.81094760e-001 -5.36928289e-002
      -1.74615920e-001 -3.19027841e-001 3.97997499e-001 -6.44289732e-001
      1.01324487e+000 -5.84572852e-001 -2.53910214e-001 -5.08979678e-001
      -4.84070808e-001 -9.02152136e-002 4.10064816e-001 -3.88222665e-001
      -5.05144477e-001 1.15931118e+000 -1.36188874e-002 5.23337901e-001
      -7.06387013e-002 -3.70272875e-001 4.50502902e-001 -2.08681032e-001
      4.35437858e-001 3.26619357e-001 -1.15849769e+000 1.70028284e-001
      1.05246089e-001 -7.22710490e-002 -1.54027179e-001 -3.30166638e-001
      -1.39001861e-001 7.48817921e-001 1.38798475e-001 -1.04910982e+000
      6.31349862e-001 1.63509190e-001 6.07209980e-001 1.09311268e-001
      4.08188969e-001 -4.68787737e-002 -1.41308486e-001 3.64847571e-001
      1.06737053e+000 -2.00903639e-001 3.41995120e-001 -2.51996607e-001
      3.41233283e-001 8.89362693e-002 -1.44888519e-003 -5.61602473e-001
      -9.70466316e-001 1.17956829e+000 -7.38307416e-001 7.74390757e-001
      -6.27901852e-002 4.83377924e-004 -2.13191211e-001 -1.36164904e-001
      1.97127238e-001 7.57151067e-001 -1.00290513e+000 4.15613264e-001
      8.77455100e-002 -2.33762726e-001 1.25557095e-001 -2.02747256e-001
      -1.02437973e-001 6.03202701e-001 5.32438755e-001 -7.07930744e-001
      1.37647378e+000 8.71532336e-002 6.12183094e-001 -5.36122739e-001
      -8.62865210e-001 -6.79006934e-001 5.30431569e-001 -5.14681578e-001
      3.08912873e-001 -7.25465477e-001 -4.95920420e-001 -6.92559302e-001
      8.98780584e-001 9.51622128e-001 -1.09846987e-001 -7.34323680e-001
      -7.34177113e-001 1.52974725e+000 -8.03884149e-001 3.08681309e-001
      -2.44301315e-002 6.78544879e-001 1.09134473e-001 -4.02737439e-001
      -6.63451850e-001 1.23206770e+000 -1.09690726e-001 -1.00894369e-001
      2.48897336e-002 -4.45105076e-001 5.73611438e-001 -3.08283985e-001
      4.28788103e-002 2.85059303e-001 8.49707127e-001 -1.14706779e+000
      5.77269495e-001 1.22230339e+000 -1.71815157e-001 1.68795407e-001</_></support_vectors>
  <decision_functions>
    <_>
      <sv_count>1</sv_count>
      <rho>-1.3355167376458207e+001</rho>
      <alpha>
        1.</alpha>
      <index>
        0</index></_></decision_functions></my_svm>
</opencv_storage>
