<?xml version="1.0"?>
<opencv_storage>
<my_svm type_id="opencv-ml-svm">
  <svm_type>C_SVC</svm_type>
  <kernel><type>LINEAR</type></kernel>
  <C>1.</C>
  <term_criteria><epsilon>2.2204460492503131e-016</epsilon>
    <iterations>100000</iterations></term_criteria>
  <var_all>8208</var_all>
  <var_count>8208</var_count>
  <class_count>2</class_count>
  <class_labels type_id="opencv-matrix">
    <rows>1</rows>
    <cols>2</cols>
    <dt>i</dt>
    <data>
      -1 1</data></class_labels>
  <sv_total>1</sv_total>
  <support_vectors>
    <_>
      -2.32896805e-001 -8.21429491e-002 -1.55625775e-001
      -2.29446098e-001 -3.86134028e-001 -1.02440782e-001
      -1.63847119e-001 -2.15439707e-001 -3.20988327e-001 7.63404509e-003
      8.32402259e-002 1.08787060e-001 1.77319869e-001 -3.31931680e-001
      4.02571484e-002 -1.15933768e-001 -1.38936177e-001 -1.16088279e-001
      -3.81752551e-001 2.43823975e-002 -3.60653810e-002 -1.82345316e-001
      8.52262899e-002 1.24706149e-001 -1.94338039e-001 4.34666947e-002
      -2.91428208e-001 1.31923128e-002 -3.97551432e-002 -1.84318498e-001
      5.73673025e-002 -1.95771325e-002 -2.29050547e-001 7.51000736e-003
      -2.12772816e-001 2.09282741e-001 -5.26470318e-002 2.22001880e-001
      2.65571964e-003 -1.48332283e-001 -2.96418607e-001 2.07629830e-001
      3.04868575e-002 1.91352442e-001 6.31066784e-002 -2.78770924e-001
      -2.39208732e-002 -3.09858862e-002 1.08026955e-002 -9.82848629e-002
      9.54032838e-002 1.98247805e-001 5.90824597e-002 -3.44840825e-001
      -9.05599222e-002 -2.95310616e-002 -2.68593997e-001
      -3.58805925e-001 -5.33451699e-002 7.86067396e-002 -5.23199961e-002
      -6.58517331e-002 1.64740812e-002 -2.14267984e-001 -1.00563452e-001
      -1.69113368e-001 9.26684812e-002 7.74738789e-002 -2.00641304e-001
      -1.70204282e-001 9.91819352e-002 -1.87040001e-001 -1.30547300e-001
      -5.13083488e-002 9.95189548e-002 1.86588362e-001 -3.49032134e-001
      -3.04199639e-004 4.45235074e-002 -3.67415585e-002 -6.94196820e-002
      -3.11255790e-002 -1.19670972e-001 -9.39425826e-003
      -5.63040674e-002 -1.79919675e-001 -4.53636236e-002
      -7.79461861e-002 -3.73142749e-001 -2.41523176e-001
      -2.04529569e-001 1.05438419e-001 -5.41822948e-002 7.07630143e-002
      1.41054779e-001 -3.00924145e-002 1.48052707e-001 -2.81876512e-002
      -1.20938160e-002 -1.89616218e-001 4.99321707e-002 -2.71970868e-001
      -2.67514586e-001 2.49301061e-001 -3.99045289e-001 -1.91455394e-001
      -1.87442899e-001 -1.73914731e-001 -5.41392192e-002
      -7.51934573e-002 3.34600098e-002 1.77389026e-001 -2.09428683e-001
      1.69076681e-001 2.84127593e-001 3.23045030e-002 -1.86242741e-002
      1.84783444e-001 5.47578037e-002 3.43856551e-002 -1.71455130e-001
      -5.08265197e-002 8.24679583e-002 3.15693438e-001 -1.10323422e-001
      -7.81684741e-002 -1.98519826e-002 7.57120550e-002 7.06725791e-002
      1.22959271e-001 1.80641264e-001 2.05069005e-001 2.94549108e-001
      -1.51507547e-002 1.65199369e-001 -7.18619153e-002 -1.17087051e-001
      1.12521924e-001 -3.31193626e-001 1.03998587e-001 -2.65343040e-001
      2.05292538e-001 -5.30549064e-002 -1.20950295e-002 -5.00772931e-002
      4.48543429e-002 3.60914171e-001 2.52755910e-001 -2.26810575e-001
      3.21952760e-001 3.82744431e-001 1.54424846e-001 -5.97742870e-002
      -5.50752953e-002 1.13540580e-002 -4.53017838e-002 2.44763523e-001
      -1.82083100e-001 -9.76612233e-003 3.51367146e-001 7.32901469e-002
      -1.08558752e-001 2.04658881e-001 1.44124612e-001 1.17573917e-001
      -1.26016080e-001 -2.28909161e-002 4.43351530e-002 1.55280665e-001
      3.91316712e-002 -2.30954792e-002 -1.47731891e-002 -1.90404896e-002
      -9.81711596e-002 -3.20189416e-001 9.22396034e-002 -3.75584513e-001
      1.31516397e-001 -6.85815066e-002 -1.22020997e-001 -6.82998151e-002
      -4.79872264e-002 1.60013989e-001 4.95458484e-001 -3.06725502e-001
      1.25052139e-001 2.70581007e-001 -8.69304165e-002 -6.25382066e-002
      -1.69259027e-001 -1.64077416e-001 5.24106175e-002 -5.45663061e-003
      -2.76379347e-001 1.51497405e-002 -5.83728729e-003 -1.46123305e-001
      -7.01894388e-002 2.75606252e-002 1.14775583e-001 2.06947967e-001
      1.72717407e-001 2.12964326e-001 3.04324061e-001 2.62404531e-001
      -1.53697670e-001 -3.40846069e-002 -1.95529222e-001 3.17077130e-001
      -1.03617616e-001 -2.47829840e-001 5.35172224e-002 -1.90631524e-001
      1.65380463e-001 -4.22214828e-002 5.99165633e-003 -1.34462833e-001
      5.87067679e-002 1.76659562e-002 2.52087384e-001 -4.01441574e-001
      1.96991384e-001 2.91193724e-001 2.35646874e-001 -2.95219310e-002
      -4.77420464e-002 2.78975219e-001 1.15373313e-001 5.14885224e-002
      -3.28705311e-001 -2.58800209e-001 1.74085721e-001 -7.12254792e-002
      -1.09204710e-001 -1.19856410e-001 1.55608296e-001 -1.38275027e-001
      -9.80325341e-002 -1.41984701e-001 1.37489527e-001 1.13770925e-001
      8.91826972e-002 7.79974684e-002 -1.18498772e-001 -1.58467650e-001
      -3.29357050e-002 9.70082916e-003 1.43871769e-001 -1.94962993e-001
      9.51211751e-002 -2.40150467e-001 -1.07888915e-001 3.14890355e-001
      1.34032428e-001 -7.73113817e-002 6.54956028e-002 -2.92969525e-001
      3.67309690e-001 2.20095843e-001 2.17405871e-001 2.35341743e-001
      -4.53070067e-002 2.19082937e-001 -1.92095369e-001 -9.75614414e-002
      -1.27633177e-002 2.58941595e-002 1.35344997e-001 3.97085726e-001
      1.54665802e-002 2.00965807e-001 4.36536893e-002 2.69882858e-001
      2.35380724e-001 1.22584306e-001 3.58439326e-001 1.18730940e-001
      6.46530762e-002 6.64624944e-002 2.78519467e-002 3.14393759e-001
      8.49846005e-002 -2.86237784e-002 1.95372075e-001 8.79378617e-003
      1.07135147e-001 9.83197913e-002 -1.25034317e-001 4.62978184e-002
      1.78406179e-001 9.77193415e-002 1.59309566e-001 -6.15222901e-002
      2.95463234e-001 3.07993889e-002 6.86606914e-002 1.07159644e-001
      5.44760227e-002 1.22798167e-001 1.03478935e-002 2.85153478e-001
      -1.01710655e-001 -9.52245072e-002 8.64306092e-002 -1.61048040e-001
      1.76075563e-001 -1.40093893e-001 2.31856763e-001 2.14869548e-002
      -2.33753622e-001 3.29345435e-001 2.19428539e-001 2.51622111e-001
      1.17603548e-001 1.09284028e-001 -5.02599478e-002 1.53615817e-001
      -3.19474675e-002 -4.17597927e-002 1.05394647e-001 -2.22875521e-001
      7.33879879e-002 1.80964638e-002 1.19389921e-001 -2.41389766e-001
      8.33743066e-002 -1.86857894e-001 9.96518228e-003 -3.55968297e-001
      -8.03404604e-004 -9.98559371e-002 -2.76739895e-001 1.55201536e-002
      1.03928439e-001 1.48125201e-001 1.19400524e-001 2.38035575e-001
      6.42938241e-002 2.16010049e-001 7.28320852e-002 -4.10098247e-002
      1.51242375e-001 -1.90616697e-001 1.20747663e-001 -1.42874531e-002
      -9.17899609e-002 3.05855781e-001 1.60577714e-001 1.71887483e-002
      6.81607798e-002 5.10727987e-002 -1.25423640e-001 3.46389651e-001
      5.50963059e-002 4.77343649e-002 2.21981496e-001 -7.68405870e-002
      4.10915446e-003 -9.16393194e-003 1.15894534e-001 1.64044946e-002
      3.07495389e-002 2.90307015e-001 6.26863018e-002 -2.86618978e-001
      1.68116987e-001 7.01957121e-002 -5.89549057e-002 4.45268005e-002
      1.28050700e-001 -1.49453757e-002 2.36742750e-001 4.19255383e-002
      -2.75832117e-001 1.68555960e-001 -3.61523218e-002 -1.23012252e-001
      1.52773783e-001 6.14805780e-002 1.36516362e-001 -5.03533445e-002
      7.25034103e-002 3.18928778e-001 1.60002857e-001 2.12380767e-001
      1.24778546e-001 1.05805345e-001 1.15859851e-001 1.63899496e-001
      3.03630412e-001 1.22936837e-001 1.60169318e-001 -6.98001832e-002
      4.30267910e-003 -2.81653125e-002 1.72217101e-001 3.64601791e-001
      1.05385222e-001 -8.44240710e-002 -7.10467845e-002 9.10258889e-002
      -2.44771779e-001 2.38064766e-001 -1.28013626e-001 1.46896854e-001
      1.17593862e-001 1.74327284e-001 1.74342856e-001 1.16350695e-001
      -4.55255985e-001 2.43427716e-002 8.86756703e-002 -2.49011517e-001
      -3.48645955e-001 4.06996161e-001 -7.37302253e-005 5.37678562e-002
      -5.96660078e-002 3.60783845e-001 -3.60013843e-002 3.37978661e-001
      1.33509994e-001 4.99893665e-001 -3.91526967e-002 2.85431534e-001
      1.31151527e-001 -6.10318519e-002 1.52465120e-001 -4.98585366e-002
      1.71103239e-001 2.15683114e-002 -1.49579018e-001 5.55335991e-002
      2.32084736e-001 -5.01623787e-002 1.08602438e-002 1.05573960e-001
      -1.03126451e-001 -1.86570197e-001 -7.99480155e-002
      -2.79282570e-001 -1.29090454e-002 1.15757361e-001 9.35562477e-002
      2.33522326e-001 -9.97857153e-002 -2.03191236e-001 8.13551471e-002
      -1.31638691e-001 1.51496097e-001 -1.87336326e-001 -9.48020592e-002
      -1.88397482e-001 -9.28773433e-002 7.23145902e-002 1.74882382e-001
      5.30381240e-002 8.84154364e-002 -3.80295783e-001 1.91708747e-002
      -7.50250816e-002 -1.76503763e-001 -1.60978362e-001 5.53857710e-004
      -2.29110181e-001 3.12008517e-004 2.14287087e-001 4.73960489e-002
      1.60355523e-001 2.75303334e-001 -7.08342940e-002 8.90422612e-002
      -8.91693756e-002 1.41571373e-001 -8.49709138e-002 6.52636960e-002
      1.85213745e-001 4.26488966e-002 1.22771002e-001 5.34501597e-002
      1.50622487e-001 1.10172361e-001 2.11585425e-002 1.44255474e-001
      1.44006222e-001 -2.24298865e-001 1.05200507e-001 -1.80577472e-001
      -1.61529824e-001 4.40355800e-002 1.17667258e-001 2.93012947e-001
      5.88557534e-002 1.64611578e-001 2.01063743e-003 7.19582438e-002
      -6.33549765e-002 -2.03601480e-001 7.21337646e-002 7.85033405e-002
      -1.37025103e-001 1.88970268e-002 1.60999708e-002 -1.22180782e-001
      2.27855980e-001 5.52566424e-002 8.72953907e-002 -9.54025760e-002
      -1.98719949e-002 -1.73872381e-001 8.23493823e-002 -1.06102008e-004
      8.34894702e-002 4.05782796e-002 1.81677099e-002 3.64776775e-002
      -2.85930485e-001 2.31565222e-001 -4.00263630e-002 4.34116274e-002
      -5.69772944e-002 -1.10408440e-001 -2.68767346e-002 2.12468609e-001
      2.36239821e-001 -1.41893879e-001 3.89358431e-001 2.39773199e-001
      3.95404786e-001 6.01939820e-002 -2.85017416e-002 1.48486108e-001
      8.80520716e-002 1.80620223e-001 -2.31091306e-001 1.35973364e-001
      -3.00405938e-002 -1.53898478e-001 -1.74909830e-001
      -1.18717037e-001 -8.08427334e-002 -7.04646856e-002 2.06164673e-001
      -1.12063587e-001 -1.15594760e-001 4.37511988e-002 2.57538766e-001
      2.18384936e-001 -6.38171956e-002 -8.06337595e-002 7.48127401e-002
      2.93795884e-001 -8.57859030e-002 1.79913387e-001 1.10343285e-002
      9.42919850e-002 4.46398184e-002 6.34161532e-002 1.50662763e-002
      -4.89899740e-002 8.31480920e-002 6.84532424e-005 7.71859512e-002
      2.08689630e-001 9.82180834e-002 -4.90875654e-002 -1.74185529e-001
      1.83783069e-001 -1.41739413e-001 1.37514517e-001 3.77543364e-003
      1.77607194e-001 -1.44983575e-001 5.05155921e-002 -2.03345776e-001
      2.37579904e-002 1.30213425e-001 -9.30503234e-002 6.70161247e-002
      -6.23518303e-002 9.74471271e-002 1.00019276e-001 4.52190414e-002
      9.37236659e-003 -6.51143119e-002 -1.47919198e-002 -2.16984361e-001
      -1.30270690e-001 -1.74816310e-001 3.72213386e-002 -1.74839929e-001
      2.67412931e-001 -5.72904199e-002 -2.29188859e-001 2.20551074e-001
      -2.04739332e-001 2.70954937e-001 3.23603988e-001 2.54725575e-001
      1.53886646e-001 3.65070194e-001 3.25160623e-002 -8.20982531e-002
      -1.04477160e-001 -6.96211085e-002 -6.83218613e-003
      -1.05844773e-001 2.34551460e-001 1.30852479e-002 6.50598854e-002
      1.90129317e-002 1.13411613e-001 7.90205374e-002 1.31654277e-001
      -4.53489758e-002 -3.75411175e-002 -1.42113984e-001 7.52202049e-003
      1.29743829e-001 6.36314750e-002 4.81602848e-002 1.32858753e-001
      1.32447630e-001 -1.92667022e-001 -2.00999811e-001 7.51078781e-003
      -2.93535143e-001 -2.43773144e-002 -1.45717993e-001
      -6.22810163e-002 -2.94262558e-001 -1.51412174e-001 1.51163042e-001
      1.34273872e-001 5.00393147e-003 7.55855963e-002 3.16088274e-002
      2.56012101e-002 5.80728725e-002 -2.22648513e-002 -5.73399775e-002
      -1.06262743e-001 -7.21725374e-002 4.38573249e-002 -7.58002922e-002
      -1.23702593e-001 1.81069935e-003 -5.40006422e-002 1.46178929e-002
      1.03729241e-001 2.22153887e-002 1.50564969e-001 -2.25550041e-001
      5.79756089e-002 9.41746682e-002 6.78396225e-002 4.46477942e-002
      1.87036037e-001 2.27894820e-002 -1.46949500e-001 1.12004511e-001
      -3.13990951e-001 -2.04928488e-001 1.05712466e-001 -1.06689874e-002
      2.07353950e-001 1.10221088e-001 -6.06887117e-002 1.60658345e-001
      6.45803958e-002 -2.31082011e-002 1.10104091e-001 -1.71093032e-001
      -1.27985656e-001 2.10316449e-001 2.56551965e-003 -5.82087263e-002
      -5.75648062e-002 7.90865719e-003 5.88788316e-002 2.85053346e-002
      2.88667679e-001 2.70178258e-001 8.39015022e-002 1.38991505e-001
      -2.25646690e-001 1.01539800e-002 3.48263413e-001 -2.19801385e-002
      1.60971537e-001 -1.27563477e-001 5.40720336e-002 3.14091742e-001
      -1.11021385e-001 1.25383083e-002 -5.51914349e-002 -1.08824022e-001
      1.97258055e-001 3.51983942e-002 -6.73731565e-002 -9.72361565e-002
      -4.00983617e-002 3.77801955e-002 1.96046054e-001 1.43019920e-002
      1.24519812e-002 4.82278168e-002 2.61123776e-001 1.23660468e-001
      -3.87609899e-002 -1.58775181e-001 1.91927124e-002 3.07007045e-001
      1.72511801e-001 3.05682607e-002 6.70715496e-002 -7.30418041e-002
      1.60915717e-001 3.41139175e-002 -3.47139500e-002 -2.15244517e-002
      -4.26697126e-003 1.28095105e-001 -5.58532849e-002 6.45108297e-002
      5.09114042e-002 -5.03887720e-002 -8.50468129e-002 1.37900218e-001
      1.44590437e-001 9.89648253e-002 -5.09891324e-002 1.26202613e-001
      2.24576756e-001 1.31190538e-001 -1.00128174e-001 2.59433929e-002
      2.62762666e-001 5.83203044e-003 -1.21420309e-001 5.58190458e-002
      1.43555462e-001 1.93019599e-001 2.70861208e-001 1.98946938e-001
      2.81533390e-001 2.91362613e-001 -2.62650788e-001 -1.25021338e-001
      -2.65776105e-002 1.46392643e-001 1.30450055e-001 -3.61805409e-002
      -6.55054208e-003 8.96226913e-002 -2.24111937e-002 9.10634249e-002
      1.08776838e-002 -6.28075525e-002 -1.75911352e-001 1.53854907e-001
      2.21500918e-001 -5.29662520e-002 -1.51637197e-001 9.46861058e-002
      7.69983977e-002 4.46159244e-002 -1.93258107e-001 -6.16514124e-002
      -2.20074728e-001 9.78968590e-002 -1.83154762e-001 -1.62818700e-001
      5.27582727e-002 1.14623956e-001 1.06603816e-001 -8.46197903e-002
      -1.85965106e-001 2.95446157e-001 1.43736228e-001 1.17166437e-001
      -3.70089449e-002 2.34105485e-003 -8.77654329e-002 7.00070783e-002
      3.28475386e-001 7.23167732e-002 -1.45549878e-001 -8.50172862e-002
      -3.61477509e-002 4.75875698e-002 -1.93714257e-002 -3.19675952e-002
      8.86233822e-002 -6.08033985e-002 -2.27802116e-002 -1.47747770e-001
      -9.02710184e-002 -9.23037454e-002 -3.53974342e-001
      -1.39288470e-001 2.53934339e-002 -3.26230824e-002 -8.91400278e-002
      -1.32745683e-001 2.58416459e-002 1.90605789e-001 -2.94490457e-002
      -1.99945256e-001 3.37975658e-002 -1.11498259e-001 -1.00998752e-001
      2.65682131e-001 -1.23440675e-001 2.22849324e-002 -1.04741260e-001
      2.57176965e-001 6.37880787e-002 3.11323330e-002 -7.34722242e-002
      -3.01042885e-001 2.69283056e-001 -1.23620540e-001 1.40565589e-001
      -1.02623682e-002 2.34111056e-001 6.46443143e-002 1.77427996e-002
      2.54210889e-001 9.77037027e-002 -6.11105040e-002 -6.26647472e-002
      3.90697010e-002 -6.58701509e-002 -7.03535676e-002 -3.32938492e-001
      1.54402554e-001 -1.66470885e-001 2.20982566e-001 -1.65066823e-001
      -5.56327961e-002 6.58137575e-002 1.34560838e-001 1.71281308e-001
      1.30797505e-001 -2.68258125e-001 8.24665576e-002 -3.05212647e-001
      -5.12542613e-002 -1.11698836e-001 1.56697527e-001 -3.73902097e-002
      3.46019752e-002 -2.42235526e-001 2.16380641e-001 -5.31056263e-002
      -3.51720862e-002 -1.14369340e-001 -2.98653722e-001 1.44919381e-001
      -7.44094998e-002 7.22161382e-002 1.58666983e-001 -3.18688840e-001
      3.78897646e-003 1.21525943e-001 1.20996863e-001 -7.76279941e-002
      -3.21963489e-001 -1.14346400e-001 4.22019288e-002 -1.31881133e-001
      -1.31756514e-001 -2.51556281e-002 -9.78839956e-003
      -6.42427243e-003 1.12362131e-001 -9.59964395e-002 -5.92596456e-002
      3.58852632e-002 7.13105276e-002 -5.51510975e-002 1.27312213e-001
      2.64214724e-003 -3.16663772e-001 -1.10956267e-001 1.02132812e-001
      8.86265934e-002 1.15845203e-001 -1.50168464e-001 -3.19226325e-001
      -4.55996767e-002 -6.47519603e-002 1.00459576e-001 -1.49052851e-002
      -7.69503042e-002 -5.14603741e-002 1.05422959e-001 -9.82162915e-003
      -2.22788170e-001 1.76817670e-001 9.76692699e-003 1.82038933e-001
      -1.52523711e-001 -1.35272853e-002 -6.24285452e-002
      -2.26140097e-002 3.30865920e-001 9.17796493e-002 2.54814923e-001
      -7.30347410e-002 5.33128120e-002 1.24099165e-001 1.38418060e-002
      -6.45127296e-002 2.86980748e-001 1.08411334e-001 -2.23708466e-001
      2.05582231e-001 2.51175016e-001 2.39699021e-001 -1.61549330e-001
      2.36892894e-001 2.45931134e-001 -2.87361983e-002 -6.83152303e-003
      8.06551948e-002 -3.48467603e-002 2.17596646e-002 -7.86555335e-002
      -9.62474942e-002 -1.78730804e-002 -7.21933097e-002 1.42389119e-001
      -3.29454988e-002 -1.31973729e-001 2.23330453e-001 1.06863566e-001
      1.68869227e-001 -2.46959165e-001 5.33379912e-002 1.15161464e-001
      2.38125324e-001 2.51570433e-001 3.52321900e-002 -2.56954879e-002
      7.26914927e-002 1.56267405e-001 1.21985629e-001 2.40067057e-002
      2.08910003e-001 1.27759904e-001 -5.24616539e-002 -2.20429093e-001
      -4.30710241e-003 2.22190395e-001 1.19892560e-001 -2.44808346e-001
      1.43427119e-001 8.16546753e-002 2.61560440e-001 4.73138206e-002
      2.65003294e-001 -1.62026986e-001 -6.84652850e-002 -1.53832585e-001
      8.10294971e-002 -5.52647794e-003 -9.80741903e-002 -2.75201410e-001
      -1.88359976e-001 -1.79533169e-001 2.10638776e-001 -3.24495230e-003
      9.21790227e-002 -2.07294486e-002 -1.82311665e-002 -5.13451584e-002
      7.78173059e-002 1.89473450e-001 1.46402838e-002 8.46487433e-002
      -2.07308769e-001 5.52212074e-002 -4.70160432e-002 1.59484595e-001
      4.89290729e-002 1.18964195e-001 8.65763426e-003 1.77427195e-002
      -1.09237008e-001 9.47718248e-002 -6.75292388e-002 2.01172829e-001
      -6.36217510e-003 -9.34655592e-002 6.93068607e-003 2.52670139e-001
      1.18215092e-001 -7.36889020e-002 -1.69447258e-001 -4.05912921e-002
      8.98819193e-002 8.53935406e-002 -1.80748791e-001 8.43564048e-002
      -1.49609998e-001 -3.50881629e-002 3.71884495e-001 6.60604909e-002
      8.55479985e-002 -1.22167297e-001 9.93346199e-002 -4.99263890e-002
      2.53765613e-001 1.48667619e-001 -1.14764445e-001 2.07809761e-001
      2.54972721e-004 2.67076325e-002 -3.14566553e-001 5.03391735e-002
      -1.18879229e-002 2.37672508e-001 1.34887025e-001 -2.27255374e-002
      -2.60644890e-002 -3.09684537e-002 1.31491080e-001 -3.29442285e-002
      2.57707745e-001 -8.94728899e-002 3.28928322e-001 -5.03767729e-002
      9.58139971e-002 7.81864896e-002 -1.19822405e-001 1.45622075e-001
      -4.91168126e-002 2.37281043e-002 1.75546244e-001 1.29477367e-001
      -3.94430906e-002 4.46765460e-002 6.97773099e-002 -3.58672887e-002
      9.83027294e-002 8.71642604e-002 4.33308482e-002 -3.44720669e-002
      -1.29041463e-001 -3.39640602e-002 -1.26115596e-002 6.54676259e-002
      -3.84874269e-002 1.02748655e-001 5.71983680e-002 4.65141535e-002
      -8.83187577e-002 -8.06260705e-002 -5.72896339e-002
      -1.80974230e-001 1.77458122e-001 5.08758463e-002 6.35290220e-002
      3.58825624e-001 -7.39489645e-002 1.26093775e-002 2.60321740e-002
      6.75891712e-003 4.34671342e-002 -1.26870111e-001 -1.84477448e-001
      -3.31308246e-002 -2.09496871e-001 1.60743907e-001 -9.09047872e-002
      -1.87558923e-002 -1.82061166e-001 -6.80255443e-002
      -2.05234177e-002 -2.81405330e-001 4.00909632e-002 -1.37538180e-001
      -2.05244213e-001 2.28974238e-001 1.35881621e-002 -1.66779459e-001
      1.15603976e-001 1.51881045e-002 -1.85539201e-002 1.50741520e-003
      4.50515095e-003 -1.54819861e-001 -5.64436466e-002 1.19997866e-001
      3.39291990e-002 -6.34316579e-002 1.35884807e-001 -1.03543691e-001
      1.37140721e-001 -1.15809493e-001 5.35055324e-002 1.26096785e-001
      2.79377431e-001 -9.65528786e-002 1.09027088e-001 -4.45830543e-003
      -1.78010054e-002 4.37821681e-003 7.24181533e-002 -4.38687839e-002
      -5.88098280e-002 -1.94408838e-002 -8.49828199e-002 1.72045473e-002
      -9.71629024e-002 1.16955958e-001 1.14882059e-001 -1.55441416e-002
      -4.70031351e-002 4.35292758e-002 -2.16112345e-001 -1.78159386e-001
      -1.04570992e-001 -2.28947569e-002 -3.87731157e-002 1.57589875e-002
      3.53573747e-002 1.51197791e-001 -1.56879872e-002 -1.50930479e-001
      -6.46751300e-002 1.69669792e-001 -5.72920498e-003 1.06487505e-001
      1.41240448e-001 1.58745348e-001 6.26206845e-002 8.48063305e-002
      -1.57596663e-001 1.71270549e-001 1.10565782e-001 -1.33785486e-001
      -3.41291167e-002 -5.72682470e-002 6.45783171e-003 1.00343384e-001
      -7.94185176e-002 3.87773551e-002 1.94476634e-001 1.94309697e-001
      8.99474621e-002 -6.85942471e-002 1.52372271e-001 1.54138923e-001
      5.95420934e-002 1.37907654e-001 -1.63738310e-001 -1.17794203e-003
      2.43872523e-001 -5.24044968e-002 1.60830572e-001 1.16350077e-001
      -1.34089157e-001 6.00955784e-002 3.26031186e-002 -4.65250984e-002
      -7.02506676e-002 -2.95277708e-003 4.55528870e-002 1.51267365e-001
      4.27432135e-002 2.77614504e-001 -1.65142208e-001 9.88681838e-002
      2.26344183e-001 3.40555102e-001 1.54845640e-001 -1.30948976e-001
      1.58707483e-003 1.70884028e-001 -3.02723199e-002 1.54996753e-001
      -5.89011200e-002 2.70051897e-001 2.56314248e-001 1.85465038e-001
      9.95478332e-002 -3.32992785e-002 -2.51713306e-001 -2.31335148e-001
      3.59822549e-002 1.77252755e-001 -1.93086401e-001 -2.10431173e-001
      -5.24309687e-002 5.56796342e-002 -2.98505072e-002 -2.10325755e-002
      -3.55356708e-002 1.59568995e-001 -1.59023568e-001 -1.04028471e-001
      1.59274295e-001 2.06386968e-001 -1.49940848e-001 7.92756826e-002
      -1.13050342e-001 -2.13245023e-002 9.94730741e-002 -8.98981988e-002
      -1.06523328e-001 -6.46807775e-002 -1.18427919e-002
      -1.92040931e-002 -2.05323100e-002 -1.86811641e-001 1.11512490e-001
      -3.26321125e-002 -9.91694704e-002 4.57957000e-001 2.40998596e-001
      -2.20097825e-002 -1.36327147e-001 -7.04031885e-002
      -1.59752399e-001 -7.38936290e-002 -8.28675032e-002
      -1.04840435e-001 -5.70044816e-002 5.20814024e-002 2.95942187e-001
      -1.89794526e-001 -1.11287318e-001 -8.30427259e-002
      -1.00495733e-001 1.07582942e-001 2.49419757e-003 -5.04660085e-002
      -5.91550581e-002 2.74097890e-001 -1.54172555e-001 7.84333274e-002
      4.07417603e-002 5.12430929e-002 3.24662238e-001 4.10559103e-002
      1.67407230e-001 4.81988713e-002 2.67240614e-001 -1.75018042e-001
      -2.83479452e-001 -2.36822404e-002 -1.04688063e-001 1.30413566e-002
      -4.39502895e-002 -2.08315745e-001 -1.88102469e-001 8.59699920e-002
      1.06098376e-001 1.52957499e-001 5.64289056e-002 6.63575679e-002
      -1.66654468e-001 1.75479919e-001 7.29509592e-002 -2.06864968e-001
      1.81840435e-001 -1.47201056e-002 1.22715317e-001 5.46383932e-002
      6.16798922e-002 -6.13565929e-002 -5.01309521e-002 -8.57179984e-002
      6.61308169e-002 -1.02674238e-001 1.86768040e-001 -9.45822056e-003
      -1.78952813e-001 2.80254949e-002 -1.01021819e-001 -4.59614955e-002
      2.64535606e-001 -3.19084048e-001 2.31300667e-001 1.39460206e-001
      -7.18474165e-002 -4.91690226e-002 -1.32167384e-001 2.95011431e-001
      -1.47429943e-001 1.20163955e-001 1.20795317e-001 -1.14015609e-001
      -1.10671468e-001 2.47311130e-001 2.86412728e-003 -1.14423297e-002
      -1.65619388e-001 -3.05442046e-002 1.89529091e-001 1.22482672e-001
      -4.22993265e-002 6.24836795e-002 1.52903259e-001 2.81645376e-002
      8.29418451e-002 2.50282973e-001 -1.34751899e-002 8.26289281e-002
      5.17093576e-002 4.30636071e-002 -2.79228557e-002 -5.95020689e-002
      -1.17753064e-002 -9.47094336e-002 1.95396366e-003 6.14839280e-003
      1.85075536e-001 -5.14346957e-002 -1.79272946e-002 3.69192772e-002
      -1.17231943e-001 -1.74923673e-001 1.44598231e-001 -6.22433312e-002
      -2.00154260e-001 -7.22670034e-002 3.19359191e-002 -1.03332706e-001
      3.26127261e-001 6.87210336e-002 4.64270711e-002 -6.43342454e-003
      4.97540087e-002 2.05802739e-001 -7.62776518e-003 3.16240303e-002
      7.65995607e-002 5.53727597e-002 -1.09692439e-002 1.71403795e-001
      3.39221835e-001 1.53300792e-001 9.71871838e-002 -8.62368718e-002
      3.22588533e-002 -1.90455228e-001 6.85588494e-002 1.26115009e-001
      3.59664336e-002 -1.17305510e-001 1.18807964e-001 5.96978143e-002
      1.60515502e-001 1.20429292e-001 -1.96114123e-001 2.74766274e-002
      9.51088499e-003 -1.00632265e-001 1.48340613e-001 7.13260397e-002
      1.10565193e-001 1.01441495e-001 -1.03121206e-001 -1.20376728e-001
      3.99683118e-002 1.06735647e-001 7.75507092e-002 -2.61570156e-001
      6.81320252e-003 -4.96841893e-002 7.76300058e-002 2.53166884e-001
      1.59622461e-001 7.12363049e-002 -7.94048980e-002 -1.01550288e-001
      4.26155999e-002 9.39211324e-002 -2.74578333e-002 -5.16218282e-002
      -8.52703676e-002 -1.78861201e-001 -7.45341480e-002 1.86718643e-001
      4.71972954e-003 -1.20830856e-001 -2.23727003e-001 -4.07277979e-002
      -3.62103246e-002 -3.32654938e-002 -7.51584470e-002
      -1.62676543e-001 -1.40173420e-001 -1.45607084e-001
      -1.45986289e-001 -2.98224483e-002 5.65519445e-002 2.78738537e-003
      5.10776117e-002 2.36644402e-001 1.02006070e-001 1.69919640e-001
      1.01866081e-001 1.81002095e-001 -1.12335794e-001 3.18491720e-002
      1.13716781e-001 9.64654833e-002 -1.29528493e-001 1.76688537e-001
      4.60458063e-002 1.17410738e-002 2.45976094e-002 6.80448189e-002
      8.78373533e-002 -8.07625577e-002 -3.28530997e-001 -1.88737899e-001
      -1.23836242e-001 -6.10095523e-002 4.24524546e-002 -9.50249359e-002
      1.52360305e-001 -1.21504746e-001 3.80795062e-001 6.44555092e-002
      1.15629822e-001 2.20245168e-001 -3.65620069e-002 -1.79561123e-001
      -2.65196681e-001 1.99695870e-001 -3.73723768e-002 -1.85917079e-001
      3.94460484e-002 2.04399042e-002 3.12440157e-001 -3.22430879e-002
      9.81248319e-002 -2.71599498e-002 -1.72792166e-001 -7.27102011e-002
      -1.96287315e-002 4.83488217e-002 4.21809740e-002 9.31916237e-002
      6.77571259e-003 4.34510522e-002 -5.14895981e-003 5.75038558e-003
      -1.18492261e-001 -2.89011654e-003 -3.85095552e-002
      -1.67201757e-001 1.61138758e-001 3.51627208e-002 1.59634739e-001
      -1.69913424e-003 1.13768518e-001 -1.46296561e-001 -4.11826074e-002
      -1.45915613e-001 6.30002096e-003 -1.02498204e-001 3.92603502e-002
      1.50127053e-001 -5.53544536e-002 7.22577572e-002 -1.19233012e-001
      9.56147015e-002 1.05440021e-001 -1.13459311e-001 1.36436582e-001
      2.58688927e-001 4.67676036e-002 1.22588687e-001 -8.02283883e-002
      -2.88004875e-001 4.24116291e-002 1.65654406e-001 2.82657519e-002
      1.52614620e-002 -6.08130684e-003 1.13624245e-001 -8.76390338e-002
      5.05976751e-002 -1.00282751e-001 -7.78014585e-002 3.17104888e-004
      -3.93674411e-002 -2.78563976e-001 3.14557403e-002 2.96107143e-001
      2.49810711e-001 5.08291349e-002 -1.34212263e-002 2.21273944e-001
      3.14859040e-002 -1.85592949e-001 9.82486382e-002 4.30390015e-002
      7.42466524e-002 -2.43381605e-001 1.08069025e-001 -1.38920650e-001
      5.50692715e-002 -2.20681921e-001 7.27066472e-002 -3.93693484e-002
      -2.57477611e-001 7.76656494e-002 6.89168647e-003 -6.20784946e-002
      -2.54362877e-002 1.09441265e-001 -1.39862731e-001 1.08846508e-001
      -6.34147376e-002 -2.54660398e-001 -1.89178184e-001 2.39285231e-002
      -1.67221263e-001 -1.15612753e-001 3.44232582e-002 5.11614308e-002
      1.42378226e-001 1.53437546e-002 5.87215200e-002 2.14123577e-001
      1.60149112e-001 7.95173869e-002 -4.70695980e-002 1.48392931e-001
      -1.82845846e-001 1.29825875e-001 -4.06800322e-002 1.45717427e-001
      -1.73326954e-002 -2.23856382e-002 7.31763011e-003 -3.62683058e-001
      -1.06094055e-001 2.59789359e-002 7.52344504e-002 4.82035466e-002
      -1.12044506e-001 2.63780747e-002 5.68457246e-002 -1.00515625e-002
      2.38143474e-001 -1.53815910e-001 -4.51707095e-002 9.01228376e-003
      -9.61640924e-002 -3.70831112e-004 5.24684554e-003 1.00187518e-001
      -2.87992246e-002 -1.51046887e-001 -5.43897338e-002 4.73473594e-003
      -1.85496490e-002 5.96638843e-002 1.34181812e-001 7.50689730e-002
      6.03163205e-002 4.89169508e-002 1.34360075e-001 2.24918455e-001
      9.32210609e-002 1.77985683e-001 -1.76649198e-001 -1.73482358e-001
      2.72683371e-002 -4.72000390e-002 9.91836414e-002 6.54206127e-002
      3.71090658e-002 6.26297593e-002 3.73984016e-002 -6.41814843e-002
      -4.53374721e-002 -2.01222941e-001 -1.39711738e-001
      -2.75478125e-001 -3.21789533e-001 -1.08901165e-001
      -1.72110707e-001 -1.17563501e-001 -5.66209555e-002
      -1.67332798e-001 -5.21588735e-002 1.04717553e-001 -5.20100258e-002
      -4.04033363e-002 4.91171554e-002 3.24273072e-002 -1.13517337e-001
      8.30869973e-002 1.27004892e-001 9.21450406e-002 2.64026135e-001
      2.47919381e-001 -5.44245653e-002 6.95372224e-002 -2.93840766e-002
      1.55584008e-001 -1.54971704e-001 3.03286947e-002 -3.79633978e-002
      -8.67803693e-002 7.92186186e-002 -4.45644669e-002 2.00209320e-001
      2.34055638e-001 1.50151640e-001 1.48215473e-001 -6.73535839e-002
      -4.38793041e-002 1.74046651e-001 8.12693462e-002 8.40505511e-002
      -5.04371703e-001 -3.10134798e-001 6.31213337e-002 -5.42594455e-002
      1.45984754e-001 -1.80582434e-001 -1.46897525e-001 -3.62696290e-001
      -2.05415055e-001 -1.16696142e-001 -6.90757558e-002
      -4.82448079e-002 -1.15229920e-001 -7.63906389e-002 1.63317889e-001
      -9.09012854e-002 7.30424747e-002 1.53483585e-001 -1.02857113e-001
      1.18527204e-001 -2.19316725e-002 1.22520141e-001 3.03973984e-002
      1.71597257e-001 -1.30966708e-001 4.23513586e-003 -1.71279564e-001
      1.71104535e-001 8.09502155e-002 -2.16857895e-001 -1.90393344e-001
      -2.03713756e-002 -7.92937353e-002 6.99389726e-002 6.84373379e-002
      -4.08937037e-002 -1.28032640e-001 -3.24669659e-001 4.85825166e-002
      -1.87820345e-001 7.93693587e-003 1.16634563e-001 -1.72751993e-001
      -1.64304227e-002 -3.46453339e-002 -3.99226509e-002
      -1.10665984e-001 2.68054187e-001 -1.29429132e-001 -1.92335211e-002
      1.68075010e-001 -5.80111444e-002 -4.18353193e-002 -1.01808585e-001
      7.49395490e-002 -1.60156965e-001 -2.89859921e-002 -1.24609746e-001
      -9.82568488e-002 1.53713286e-001 -9.94555503e-002 6.83562690e-003
      -6.22031279e-002 8.35415646e-002 6.50407448e-002 1.66856468e-001
      -1.45203292e-001 -9.20583084e-002 -6.24432787e-002
      -1.41261555e-002 1.27327576e-001 7.14197308e-002 -3.11725903e-002
      -3.65345746e-001 -1.24795385e-001 -4.28345278e-002
      -1.59715101e-001 3.75344157e-002 -6.77297860e-002 1.42457679e-001
      -1.36030585e-001 5.66365980e-002 -6.28102720e-002 -1.34285837e-001
      3.43913913e-001 -1.67596623e-001 5.74487709e-002 1.48583114e-001
      4.04222719e-002 -9.44153890e-002 1.43756032e-001 -2.03586295e-001
      8.33876356e-002 -1.57646194e-001 -1.41169637e-001 -9.99558158e-003
      4.40329313e-002 8.25182125e-002 -1.52435109e-001 -1.04743101e-001
      1.50832534e-001 -2.46376514e-001 2.34495271e-002 1.12405173e-001
      2.44623333e-001 -1.16694085e-001 -1.58003867e-001 4.51920852e-002
      5.92428930e-002 -1.31625935e-001 -2.73526728e-001 9.66209397e-002
      -4.61891331e-002 4.45939554e-003 1.92547172e-001 -2.33848542e-002
      -1.70444712e-001 -1.88597620e-001 -1.47983685e-001
      -1.07257508e-001 -1.50815636e-001 -4.03658301e-002 8.41739550e-002
      -1.05717324e-001 -4.55735885e-002 1.09350316e-001 7.96230361e-002
      -1.34217646e-002 -2.03872949e-001 7.05051050e-002 1.61540713e-002
      2.78165881e-002 -1.59933753e-002 -1.69809252e-001 -8.53345096e-002
      -2.13323712e-001 -4.42207642e-002 -5.62639087e-002 2.67336573e-002
      2.11639613e-001 2.15097405e-002 4.89577577e-002 -2.47465104e-001
      -1.89206600e-001 5.50363958e-002 1.66445464e-001 -2.89795585e-002
      1.21632606e-001 3.20814773e-002 -2.34979168e-001 3.96504365e-002
      3.40434313e-002 2.21134484e-001 3.17716122e-001 -7.24547207e-002
      -8.09819400e-002 4.13876250e-002 -8.03971142e-002 -3.30302082e-002
      -4.20337357e-002 1.68007165e-001 1.19818278e-001 1.14074491e-001
      1.74898133e-001 -3.04312557e-002 1.77362323e-001 -2.05082551e-001
      -2.20318481e-001 2.50544667e-001 3.31081413e-002 9.88007337e-002
      -4.61014584e-002 -2.02776417e-002 1.75530948e-002 1.28682047e-001
      3.16142082e-001 1.24610685e-001 -7.29504600e-002 3.32377143e-002
      -2.17564806e-001 1.57233194e-001 5.73054440e-002 4.89673316e-002
      -3.15275975e-002 2.37180982e-002 1.43799171e-001 -1.06928587e-001
      1.85340084e-002 -1.45026356e-001 -1.69095490e-003 -2.52823293e-001
      -2.74215154e-002 2.73033828e-001 -3.99511531e-002 -6.81171417e-002
      -1.39304250e-001 5.73144332e-002 -2.21426427e-001 2.79178470e-001
      -7.17200935e-002 3.98370028e-002 5.67786470e-002 -5.63655160e-002
      -1.67372748e-001 -2.19648138e-001 1.41598627e-001 6.08911812e-002
      1.09415337e-001 -3.91575485e-001 -1.18951619e-001 -1.61902323e-001
      3.19025069e-002 7.63679892e-002 2.76389904e-003 -9.34659988e-002
      4.22259197e-002 1.68858215e-001 2.47697085e-001 1.75612435e-001
      -9.39495414e-002 1.16584897e-001 -7.06031695e-002 9.70727354e-002
      1.33537814e-001 -5.18267378e-002 -9.69094560e-002 -2.33696476e-001
      -5.25961034e-002 1.49822518e-001 1.69247106e-001 1.17265746e-001
      1.16763361e-001 1.86405033e-001 6.40418679e-002 1.58423662e-001
      4.50302335e-003 -7.36049656e-003 1.56503201e-001 -8.81627500e-002
      1.27476379e-001 -1.26201222e-002 3.08757070e-002 -4.90899011e-002
      9.21494365e-002 -1.33654356e-001 -1.68185979e-001 1.97200581e-001
      -1.20935202e-001 -8.80317762e-002 -1.79813523e-002 6.61367476e-002
      2.22673908e-001 1.27541021e-001 -7.80615434e-002 1.45090476e-001
      2.93670781e-002 2.36132462e-002 -2.29571052e-002 -2.27971729e-002
      1.26851857e-001 -1.90118328e-001 1.47072911e-001 5.94525300e-002
      -1.10206805e-001 1.50139853e-001 -2.27388710e-001 1.90340221e-001
      5.00163287e-002 1.23990737e-001 1.29871488e-001 5.77217676e-002
      -1.34217829e-001 -7.25908577e-002 2.92527616e-001 -1.31647080e-001
      -1.04678757e-001 -1.78100124e-001 5.92096597e-002 -2.45480582e-001
      1.47363737e-001 -5.34340441e-002 1.67244658e-001 -4.40136753e-002
      -1.94168776e-001 2.77235601e-002 -1.03964424e-003 -1.55158481e-002
      8.94588828e-002 1.01940744e-001 -1.27449706e-001 -1.69989020e-001
      -2.66036056e-002 3.17662545e-002 -1.22836292e-001 -1.21781074e-001
      -9.73251686e-002 -9.34541970e-002 1.46102652e-001 1.10000551e-001
      -5.70712909e-002 1.91189542e-001 1.44374492e-002 1.63753271e-001
      1.77002147e-001 -8.81722867e-002 -1.73009053e-001 1.40279248e-001
      -3.07042718e-001 1.13361858e-001 4.24186885e-002 4.86534350e-002
      1.42055871e-002 -8.11446905e-002 7.96698555e-002 -1.11052789e-001
      -1.12515017e-002 -2.76497845e-002 6.42359853e-002 1.02429800e-001
      -5.38620912e-002 5.98762967e-002 -2.80595422e-002 -9.88061279e-002
      -3.65442634e-002 -7.71675855e-002 -7.09160715e-002 1.41201019e-001
      -4.49069925e-002 -4.48063910e-002 -7.89880976e-002 1.40916362e-001
      -9.32684615e-002 -1.72363445e-001 1.15450181e-001 -1.24198161e-001
      8.74257237e-002 -5.33811375e-002 -1.56320967e-002 1.04074128e-001
      3.09056222e-001 3.31786066e-001 1.41024455e-001 -5.63776046e-002
      -3.15782279e-001 -2.68742651e-001 -1.45765841e-001
      -3.15744653e-002 1.07821748e-001 -2.73084939e-001 -1.00956380e-001
      3.35817225e-002 1.26152501e-001 -8.47845748e-002 7.81937540e-002
      -3.53482604e-001 -2.52969891e-001 5.77493459e-002 -1.35890013e-002
      1.98723860e-002 1.86366126e-001 -2.21855640e-002 -2.44170114e-001
      -8.71428028e-002 -4.13398407e-002 -8.62955749e-002 1.51480660e-001
      -1.95292234e-001 -2.99539734e-002 -8.37955028e-002 2.02028289e-001
      2.73149349e-002 -6.96350709e-002 4.68623526e-002 -2.68378854e-002
      1.97853625e-001 6.58167079e-002 7.90123716e-002 1.71310171e-001
      3.03808153e-002 -1.61810800e-001 5.17581254e-002 -1.62549525e-001
      1.45613216e-002 7.68803582e-002 -1.74506515e-001 -8.02314430e-002
      1.29025519e-001 1.00891329e-001 6.72617853e-002 -7.94077143e-002
      -6.16989285e-003 1.24230035e-001 6.29342198e-002 -7.23909512e-002
      1.21955737e-001 -7.75809959e-002 8.68461728e-002 -2.29742274e-001
      -5.61886802e-002 -4.08572555e-001 -4.11446355e-002
      -3.27551663e-001 -5.85185997e-002 7.48481378e-002 7.81545267e-002
      -2.30504379e-001 -1.16966575e-001 -1.65991068e-001 3.15204144e-001
      2.68412739e-001 1.97296843e-001 9.66212451e-002 9.96480361e-002
      1.18056782e-001 2.57258713e-001 5.63660040e-002 -5.19913435e-002
      -1.49669498e-001 -7.78238624e-002 -6.51219636e-002
      -1.47671551e-001 1.91432491e-001 -2.42798757e-002 1.39165282e-001
      1.85794935e-001 6.87406883e-002 -2.33824611e-001 -1.44692525e-001
      -1.22316860e-001 -1.86319023e-001 1.88313097e-001 -2.71677613e-001
      -2.54296660e-001 -2.30752155e-001 5.41404635e-003 -3.05863507e-002
      -2.72623420e-001 -9.47351679e-002 -9.22010187e-003 2.09528953e-002
      -3.92880570e-003 -1.07578598e-001 -1.46165460e-001 1.54861495e-001
      1.13354437e-001 8.12349617e-002 8.03087354e-002 -6.32677078e-002
      1.66102462e-002 -1.87166542e-001 7.51555264e-002 5.08609712e-002
      1.11421108e-001 -2.83794820e-001 5.84637858e-002 -3.94263491e-003
      -2.20990881e-001 -3.98995459e-001 -5.25511131e-002 3.98680300e-001
      -9.11795199e-002 9.51745808e-002 -1.67581320e-001 -2.15773702e-001
      8.72006565e-002 2.60105461e-001 -1.65315364e-002 6.20144159e-002
      -2.16481462e-001 -5.21643400e-001 -1.68589413e-001 4.80101891e-002
      -1.72494352e-001 9.70843956e-002 -7.38003030e-002 -7.97444209e-003
      -1.38742641e-001 1.44876450e-001 -1.69503235e-003 1.62452385e-001
      -1.86526794e-002 -1.03798471e-001 6.66788369e-002 2.30731040e-001
      -3.18886107e-003 1.15431482e-002 -5.08080870e-002 -3.44361335e-001
      1.14078477e-001 -2.65186101e-001 -1.79156542e-001 8.95433426e-002
      -1.29997790e-001 1.61951512e-001 -2.67532557e-001 1.25982597e-001
      1.22884221e-001 -2.66885571e-002 3.02939951e-001 -1.45272747e-001
      -8.31217468e-002 4.91057374e-002 -1.52852088e-001 2.44271122e-002
      2.52231909e-003 -2.06087500e-001 6.68079630e-002 5.50961904e-002
      -2.35915426e-002 -7.78659731e-002 2.76909303e-002 -3.22204158e-002
      -1.37496805e-002 -3.83217670e-002 5.11137582e-002 4.14386615e-002
      8.36580321e-002 -5.53404354e-002 6.18380047e-002 2.16542840e-001
      -1.26467526e-001 -1.84985414e-001 2.20633730e-001 -8.09069797e-002
      -8.94358009e-003 -1.59820840e-001 1.12448856e-002 -8.65409523e-002
      -2.18958572e-001 -3.20185497e-002 -1.05393708e-001 6.14282787e-002
      -2.20883489e-001 -2.31098264e-001 1.59829438e-001 2.45054185e-001
      1.06096298e-001 2.13481169e-002 -6.71745017e-002 1.09930642e-001
      7.06447288e-002 1.03943281e-001 -7.72833079e-002 1.41500011e-001
      -4.09558564e-002 2.11483687e-002 4.31280956e-002 -7.44045246e-003
      7.34950900e-002 -8.78796950e-002 -1.64201260e-001 -2.40023375e-001
      2.86160912e-002 1.82637468e-001 -1.14551678e-001 -1.36804312e-001
      7.55545311e-003 -1.29177675e-001 -1.10575274e-001 4.12687585e-002
      -7.78683946e-002 1.91029176e-001 3.97613011e-002 -3.80683035e-001
      -9.87982303e-002 -9.39868689e-002 1.78455904e-001 2.29945436e-001
      -5.79515239e-003 8.73380974e-002 9.37845409e-002 1.30477939e-002
      7.05947727e-002 -4.02080864e-002 -6.10139593e-002 1.98031664e-002
      1.06981777e-001 9.28701237e-002 -1.40086129e-001 1.07964694e-001
      -4.31474373e-002 2.35603820e-003 1.41673014e-001 3.54925431e-002
      3.30449305e-002 3.25946808e-002 -8.27594772e-002 -1.12140618e-001
      1.77437998e-002 -4.75357287e-002 9.06024128e-002 2.19885446e-002
      6.93950336e-003 -1.16674669e-001 2.10831478e-001 -1.83345973e-002
      -2.04564288e-001 -6.24452606e-002 -6.81362674e-002 1.53429672e-001
      6.54984415e-002 -2.79886276e-001 -1.52436793e-001 -1.25758201e-001
      -1.32253826e-001 2.94575635e-002 1.97567269e-001 1.21459678e-001
      7.40592852e-002 6.27089143e-002 1.05190001e-001 -1.75145283e-001
      5.79768196e-002 -4.62099947e-002 8.19930956e-002 1.87785067e-002
      -2.59758979e-001 4.66811135e-002 1.81398213e-001 -8.48676171e-003
      1.72844067e-001 8.58208463e-002 -2.33949766e-001 -5.94747663e-002
      -5.88578098e-002 -4.06749770e-002 -1.30554155e-001 9.98223647e-002
      -9.57703367e-002 -2.34331936e-001 3.19771618e-002 -6.06929883e-002
      5.57899214e-002 -3.37985530e-002 -2.97504485e-001 -2.53712758e-002
      -1.14132732e-001 -3.97399161e-003 6.38457388e-002 -8.22596550e-002
      -9.31409448e-002 -9.49998945e-002 1.80588439e-001 6.40477166e-002
      -6.79577962e-002 1.73766986e-001 -2.02250168e-001 -9.96119380e-002
      2.14630943e-002 -5.04290238e-002 -4.12685648e-002 -6.88625947e-002
      -3.46376449e-002 -1.19798034e-002 4.01226640e-001 2.04588875e-001
      -1.20046251e-001 8.78790300e-003 -2.51271546e-001 -1.98840499e-001
      1.55385107e-001 3.35482433e-002 6.39074445e-002 -7.59939998e-002
      -1.35569528e-001 -1.67868078e-001 1.73746452e-001 -1.68838233e-001
      3.37360874e-002 -1.17564626e-001 -1.58937693e-001 3.61322574e-002
      2.03904167e-001 5.26283719e-002 -1.66354641e-001 3.12921077e-001
      1.15754291e-001 -5.32773770e-002 -1.07846171e-001 -1.51966259e-001
      5.60399406e-002 2.02757478e-001 -1.08330838e-001 -2.46748716e-001
      -1.58324838e-001 1.72749251e-001 3.15853208e-002 -2.16864981e-003
      -8.89503658e-002 -1.91513911e-001 1.54355764e-001 2.92803824e-001
      1.26729399e-001 2.53106743e-001 -2.42290813e-002 -9.51421484e-002
      -5.46597922e-003 -1.22905746e-001 2.16960460e-001 5.95721640e-002
      -1.01846799e-001 -2.51350462e-001 1.04656108e-001 3.15806866e-002
      1.16267063e-001 4.39614415e-001 -8.93239006e-002 9.34779719e-002
      -4.32364419e-002 -1.52574331e-001 -2.95126196e-002 1.72764629e-001
      -6.65152296e-002 -1.72819465e-001 1.91492230e-001 -1.57740846e-001
      -1.67729601e-001 -5.45774996e-002 1.83145760e-003 -7.04004541e-002
      -5.83157055e-002 -2.23960802e-001 9.84745696e-002 1.01612031e-001
      -2.86958963e-002 1.26617596e-001 -2.34614145e-002 -1.78762287e-001
      -1.66735291e-001 1.17124476e-001 -5.29041067e-002 -8.53120163e-002
      2.78857380e-001 -1.29876092e-001 1.72035009e-001 1.45692090e-002
      4.92978394e-002 -1.01409003e-001 -1.14461565e-002 -4.84185040e-001
      5.91386296e-003 8.36474374e-002 -1.74548835e-001 1.47269562e-001
      5.43805473e-002 3.86428796e-002 -3.62952761e-002 4.36460450e-002
      1.23492636e-001 3.31650265e-002 -1.02897488e-001 -1.74651444e-001
      1.24401525e-001 1.16502896e-001 -1.13375075e-001 -7.72385597e-002
      -1.23408794e-001 -3.03045660e-001 -2.74388701e-001
      -4.62704077e-002 -2.94426441e-001 -1.09537005e-001 6.59792572e-002
      -1.99330106e-001 -2.59182751e-001 -6.60817325e-002 1.21342070e-001
      2.85813689e-001 -3.42292674e-002 -6.03361055e-002 1.26901612e-001
      1.65798083e-001 2.66570389e-001 1.95353791e-001 6.68045953e-002
      -6.05501644e-002 4.29009013e-002 4.84578162e-002 -2.31700972e-001
      -2.08659545e-002 -1.12537123e-001 -2.08716661e-001
      -9.51153338e-002 6.62596256e-004 3.38006854e-001 3.07512522e-001
      -4.66031879e-002 -1.59122571e-001 1.02270126e-001 2.19262317e-002
      9.88654569e-002 3.47368121e-002 -2.21695334e-001 -2.38647431e-001
      1.18877165e-001 8.12031154e-004 -8.10283199e-002 -1.15635648e-001
      -7.61448778e-003 -7.93760717e-002 -1.57124683e-001 1.72262326e-001
      -1.02633491e-001 -5.67312464e-002 8.02624132e-003 2.15894282e-001
      1.44761443e-001 3.32726181e-001 1.92269474e-001 3.93550843e-002
      -2.60733396e-001 -5.00365645e-002 9.93322656e-002 -2.74191558e-001
      -3.43756936e-002 -2.30235994e-001 -1.09155886e-001
      -1.38276368e-001 -8.84220377e-003 1.90555245e-001 2.63534695e-001
      -3.24121453e-002 2.82863855e-001 -2.98411772e-002 2.48564389e-002
      -2.71261223e-002 9.19990634e-005 -1.65338874e-001 -9.85427648e-002
      -3.46575409e-001 -1.30730361e-001 -1.93513200e-001
      -3.04262459e-001 1.65040791e-001 -4.05064747e-002 -8.33496824e-002
      -1.33836977e-002 -1.21425413e-001 6.91727083e-003 2.59846430e-002
      -1.57055575e-002 2.79724021e-002 4.90833186e-002 1.86935663e-002
      1.46951973e-001 5.76505587e-002 6.84097111e-002 -1.49325982e-001
      6.11418709e-002 -1.01790555e-001 -2.52334505e-001 -6.83180019e-002
      -1.05022773e-001 7.27754273e-003 7.61484504e-002 9.55952704e-003
      4.44146469e-002 6.74417391e-002 -2.32639521e-001 -2.10169777e-001
      1.47874560e-002 3.34358066e-002 6.98781013e-002 -9.42724645e-002
      -5.65320663e-002 -3.06287825e-001 -2.42078885e-001 9.93017573e-003
      -6.59254417e-002 -5.49596734e-002 -3.82933646e-001
      -1.68529913e-001 -1.54145554e-001 2.06559628e-001 -3.39173913e-001
      -2.81792730e-002 1.43006995e-001 -5.06635234e-002 -2.01852825e-002
      -2.82794423e-002 9.47675779e-002 -7.66362771e-002 1.55602545e-001
      -1.43568397e-001 1.16416171e-001 -1.62498981e-001 -2.83901095e-001
      -1.02672458e-001 2.72653364e-002 1.08168207e-001 -2.10536554e-001
      2.37576321e-001 3.06240115e-002 5.25153205e-002 1.28244355e-001
      -5.13345562e-002 -2.69838031e-002 -1.24411978e-001
      -3.02061345e-003 1.07137375e-001 -2.73923390e-002 -4.73590612e-001
      1.02474242e-001 7.72288442e-002 6.14217706e-002 1.33942023e-001
      -3.42803687e-001 1.98132664e-001 8.22047964e-002 -2.60201306e-003
      -5.59938848e-002 1.70379922e-001 1.10587381e-001 -3.84038948e-002
      5.04799426e-001 1.12834126e-001 1.76462367e-001 1.30979251e-002
      -4.49151471e-002 4.81828209e-003 9.46338400e-002 7.76516870e-002
      -2.29358692e-002 1.60378754e-001 -2.20048968e-002 9.78766605e-002
      -2.22322643e-001 3.23993191e-002 2.03465037e-002 2.91428834e-001
      1.48537636e-001 -9.96415392e-002 -2.74917454e-001 1.69335434e-003
      8.52410775e-003 -1.83806121e-002 4.17163894e-002 -1.01509407e-001
      1.60223529e-001 -6.10320754e-002 2.41539180e-002 -4.23886329e-002
      -2.55182441e-002 2.78217733e-001 3.04764379e-002 2.19578713e-001
      -1.99073449e-001 -1.39306262e-001 2.92583585e-001 8.07370618e-002
      -6.00273944e-002 3.15367073e-001 -1.70380771e-002 -2.16767699e-001
      -5.46105159e-003 -9.87118855e-002 4.64690268e-001 -4.84330878e-002
      -7.16805160e-002 -1.23264536e-001 1.29233614e-001 2.26119369e-001
      -1.67913601e-001 6.36296719e-002 1.46471471e-001 -5.63631207e-002
      1.44679043e-002 5.90086579e-002 7.71340355e-002 -5.89520596e-002
      -1.34904742e-001 -1.44485295e-001 -9.97302830e-002
      -7.71081671e-002 8.37461948e-002 3.43850963e-002 2.04876103e-002
      -1.04323275e-001 1.49959326e-001 1.48908168e-001 2.16633633e-001
      5.20294793e-002 -2.69760400e-001 -9.02339146e-002 -1.84809163e-001
      -6.34968430e-002 -4.78359759e-002 -6.65187277e-003 1.25971705e-001
      1.01819716e-001 2.48686016e-001 1.01452865e-001 1.60870805e-001
      3.33890840e-002 7.80586824e-002 -5.15230373e-002 1.84758097e-001
      -2.16552675e-001 7.22313002e-002 4.14156280e-002 -1.47946134e-001
      9.12840217e-002 1.87987491e-001 9.02370736e-003 9.62927565e-002
      -2.33324543e-002 -1.03216119e-001 1.87028553e-002 -2.03250069e-002
      -1.52615150e-002 -9.58339870e-002 -9.50176083e-003 9.50350892e-003
      1.07568078e-001 -3.34045989e-003 -3.81292216e-003 8.31087828e-002
      -1.84968710e-001 -2.03989640e-001 -2.68041175e-002 1.25402644e-001
      -5.26066050e-002 -6.33024285e-003 -5.81308641e-002 1.66747808e-001
      -4.84790318e-002 -9.22001526e-002 -1.92103069e-002
      -1.65352523e-001 -2.61314753e-002 -1.60555970e-002
      -9.97613966e-002 -1.43536702e-002 9.30131227e-003 -1.47609457e-001
      -7.53170103e-002 1.19188122e-001 2.04634201e-003 -5.67882918e-002
      -3.55099030e-002 -2.21294716e-001 2.55412549e-001 -1.48614585e-001
      -9.13162231e-002 -1.91773564e-001 -1.99378103e-001
      -4.66865599e-002 -2.79731482e-001 -5.37701808e-002 1.10132270e-001
      4.26812023e-002 -4.05956851e-003 -4.39077727e-002 -2.32059672e-001
      -1.85560346e-001 -3.35472897e-002 2.39953309e-001 1.29371986e-001
      -9.23609734e-002 3.17387998e-001 1.30530134e-001 -1.60392404e-001
      5.20390756e-002 -7.25762248e-002 1.86080951e-002 8.24444667e-002
      -2.45258529e-002 -1.35650605e-001 9.24295634e-002 -1.16086952e-001
      -2.25254342e-001 -2.76131015e-002 -1.38871325e-003
      -6.81673363e-002 1.39366491e-002 1.26135992e-002 -1.05739743e-001
      1.79880392e-002 3.48999612e-002 1.18962303e-001 -9.06687006e-002
      -1.79186746e-001 2.29298130e-001 -2.87937343e-001 -8.63530952e-003
      -1.62207678e-001 3.29696275e-002 1.50156751e-001 -4.66617160e-002
      1.91221714e-001 6.11372478e-002 -2.23262440e-002 1.74054906e-001
      2.57370234e-001 -6.38836846e-002 1.30423576e-001 5.02114557e-003
      -6.51359335e-002 -1.75765157e-001 -2.60294467e-001 2.12774351e-001
      8.88745710e-002 1.56813651e-001 4.01747860e-002 2.09157839e-001
      1.86648995e-001 -1.81735046e-002 8.56919140e-002 -2.00234592e-001
      5.89279085e-002 1.21041283e-001 8.89731720e-002 5.37898280e-002
      7.07294866e-002 2.75812536e-001 -1.28280461e-001 -2.95798004e-001
      -9.92761031e-002 -5.88803887e-002 1.15392320e-001 -4.68630567e-002
      -3.24719585e-002 1.40469581e-001 1.51584163e-001 -2.22258404e-001
      1.89977422e-001 2.20475137e-001 -2.31448188e-001 2.02921718e-001
      1.05491370e-001 -8.32488760e-002 2.60225445e-001 2.86431938e-001
      2.63632610e-002 -6.33911118e-002 -6.48518652e-002 3.78229842e-002
      1.48170024e-001 -4.04443085e-001 -1.85717776e-001 2.46743560e-001
      3.91234457e-001 -1.04956485e-001 1.22002035e-001 1.17720239e-001
      -2.90486757e-002 -5.22251129e-002 -1.51380211e-001
      -1.15221620e-001 -1.08349584e-002 -1.32507667e-001
      -2.85842389e-001 5.55137731e-002 -1.36420742e-001 -1.42681643e-001
      4.46030572e-002 1.44847289e-001 -9.69294235e-002 -1.43719122e-001
      3.47514823e-002 -3.75847518e-001 -1.78730767e-003 6.34834617e-002
      7.35440329e-002 1.33721977e-001 -2.06338912e-001 -6.13769963e-002
      -1.28827523e-002 5.22825606e-002 -6.71497062e-002 1.61209062e-001
      -2.94100463e-001 4.83163260e-002 2.46785715e-001 1.92549154e-001
      1.83540937e-002 -1.20984808e-001 -2.69677229e-002 -3.50555986e-001
      1.58993825e-001 1.04925945e-001 1.54506087e-001 -9.55637991e-002
      -1.67392001e-001 9.31352600e-002 6.39804378e-002 8.52204412e-002
      -2.91987985e-001 -2.98737228e-001 -2.09344119e-001
      -2.98372488e-002 -1.25235751e-001 -2.46007115e-001
      -1.47682875e-001 -1.33033052e-001 -1.18021317e-001
      -1.69979304e-001 1.15807690e-001 2.24481791e-001 1.10505462e-001
      8.57109502e-002 2.11244822e-002 5.35725281e-002 5.50866164e-002
      2.03813672e-001 -2.50965562e-002 -5.52687459e-002 -1.84713334e-001
      -1.67377368e-001 -8.53687227e-002 -1.84144303e-001
      -1.16981059e-001 -1.18576072e-001 2.53148861e-002 -2.24189326e-001
      1.26424089e-001 8.06601048e-002 1.49944156e-001 -9.27333832e-002
      -2.70465553e-001 3.01677119e-002 1.11870758e-001 1.71684206e-001
      8.09063092e-002 -4.07723695e-001 -2.95800358e-001 -1.85683236e-001
      -9.59774405e-002 -1.61470361e-002 -1.20883510e-001
      -4.01619196e-001 -1.88058123e-001 -2.24588811e-002 4.04592007e-002
      -7.55638406e-002 -2.45276630e-001 -4.20138165e-002
      -1.62391886e-001 3.21633071e-002 1.63916498e-001 2.79222161e-001
      -1.38817757e-001 1.91723496e-001 -2.22671777e-002 -1.73981506e-002
      2.16260776e-001 -4.72999737e-002 -8.19866657e-002 -1.02497511e-001
      -1.02161020e-001 -2.43288279e-001 3.02953422e-001 1.77774668e-001
      9.00734914e-004 -1.29768789e-001 -1.99300155e-001 -9.90535468e-002
      1.73119396e-001 1.50122851e-001 6.20046519e-002 -2.40249768e-001
      -2.62327611e-001 -3.10005397e-001 -1.16942845e-001
      -2.13373110e-001 1.25537172e-001 -3.33006442e-001 -1.56390890e-001
      -7.56178126e-002 -1.73498705e-001 -1.01429693e-001
      -1.52873129e-001 1.86253816e-001 -1.02723561e-001 1.39069051e-001
      1.10824540e-001 -2.48335563e-002 1.55964121e-001 -3.56513336e-002
      5.98108210e-002 -2.36397788e-001 -2.19052181e-001 -1.52373314e-001
      4.36904095e-002 -4.36540991e-002 -1.08048813e-002 -2.70672113e-001
      9.94464085e-002 1.25508299e-002 -4.41304028e-001 2.71801084e-001
      -1.63405851e-001 -2.02591300e-001 -2.01660171e-001
      -1.44989714e-001 1.90945148e-001 -2.92194545e-001 -2.93666303e-001
      -8.12994689e-002 -1.20004676e-001 -2.23856419e-001
      -1.05174981e-001 -2.12262407e-001 -3.54907274e-001 1.13259017e-001
      -8.39343071e-002 -1.57404304e-001 -1.42528385e-001 7.06439987e-002
      -1.02960296e-001 8.65858793e-002 -9.07261372e-002 -1.49534652e-002
      1.19876247e-002 -1.99171871e-001 -1.70514986e-001 -1.37623906e-001
      4.18517590e-002 -1.67173401e-001 -5.08603826e-002 -1.56537756e-001
      -7.57788345e-002 -2.16433913e-001 1.69476822e-001 5.47444485e-002
      1.10441834e-001 1.58768386e-001 -1.16060227e-001 1.22643821e-001
      -5.87441213e-002 1.34120852e-001 2.47728750e-001 -1.44679070e-001
      -1.10205866e-001 -9.05942693e-002 3.41099547e-003 -6.31649196e-002
      5.21967234e-003 -2.50336677e-001 5.37136046e-004 8.54002759e-002
      -5.40776961e-002 -6.49378747e-002 7.75434002e-002 1.74398094e-001
      -4.24176037e-001 -1.05915338e-001 7.75193721e-002 -2.76911873e-002
      -3.12741458e-001 6.08668812e-002 -7.98257589e-002 -1.08439423e-001
      2.28965804e-001 -3.86947542e-001 1.97120592e-001 3.23061012e-002
      2.38498956e-001 -1.34772304e-002 1.21102281e-001 -1.01949088e-001
      1.72558561e-001 -4.98054475e-002 -1.84208170e-001 -2.65747249e-001
      -6.82769492e-002 6.79660516e-005 2.61276262e-003 -2.42850766e-001
      -3.12482446e-001 -1.76712405e-003 -2.50523388e-001 1.07460469e-001
      8.21485817e-002 -6.87759295e-002 9.97063443e-002 -2.12174677e-003
      5.88566586e-002 1.00562252e-001 -1.10327907e-001 1.78399995e-001
      -1.96176752e-001 -9.78248864e-002 -1.59045205e-001 1.12344757e-001
      -1.54649749e-001 -1.94147959e-001 -2.14226857e-001 1.28151581e-001
      -1.38283491e-001 -3.47684659e-002 1.04742803e-001 -6.04487173e-002
      -3.13335434e-002 1.51284665e-001 -1.22040965e-001 6.89487755e-002
      -1.11537777e-001 1.35432005e-001 -1.16970457e-001 -1.28608719e-001
      7.99711123e-002 5.60293086e-002 -2.70105869e-001 -6.82477877e-002
      1.60546347e-001 3.02933246e-001 -4.87716161e-002 -1.54293269e-001
      -9.06603783e-002 -3.50407287e-002 -5.11559583e-002
      -2.08596528e-001 -4.96854223e-002 2.24548895e-002 3.36911418e-002
      -4.21175323e-002 8.75793323e-002 -2.15828285e-001 1.46764796e-002
      -4.06245776e-002 1.38941750e-001 -9.13087651e-002 -5.24461977e-002
      -2.10120380e-001 -7.23325610e-002 -1.64038047e-001
      -1.12557851e-001 5.25237918e-002 -4.27847430e-002 -1.45464972e-001
      2.24210262e-001 -4.40561287e-002 1.65892527e-001 -1.67051882e-001
      -1.63551867e-001 -2.01104209e-001 -1.98860809e-001 5.61740808e-002
      -1.31475016e-001 4.27755527e-002 1.65321037e-001 -3.56027007e-001
      -9.43814591e-002 1.91061154e-001 7.94229284e-003 -6.75015226e-002
      3.22873443e-002 -1.73236549e-001 1.13148943e-001 1.50566503e-001
      -3.12686145e-001 3.25980075e-002 3.37458849e-002 -3.27975415e-002
      1.95234030e-001 5.72260469e-002 -2.60068383e-002 1.85274333e-001
      6.53580129e-002 8.49139318e-002 2.94337034e-001 1.65378392e-001
      -9.55419615e-002 8.98402110e-002 -1.78301647e-001 1.34986313e-003
      -2.11936180e-002 6.76733404e-002 -1.33432388e-001 1.34217022e-002
      9.31159332e-002 1.09273314e-001 -7.84866288e-002 3.68539803e-002
      -4.85086292e-002 1.61855564e-001 1.78635985e-001 -1.87045813e-001
      -1.59592524e-001 -3.30279209e-002 -2.33233735e-001 1.41891196e-001
      -1.19208388e-001 -3.07282388e-001 2.16515839e-001 8.98088962e-002
      3.47100105e-003 -1.76692139e-002 -3.60565260e-003 6.41690893e-003
      1.14509366e-001 3.10150325e-001 1.50931980e-002 -5.89328557e-002
      4.64469101e-003 -2.02963680e-001 1.41348261e-002 -1.52491122e-001
      -1.16056390e-001 -1.49709255e-001 -1.11465253e-001
      -2.73777097e-001 7.62836263e-003 -6.00299574e-002 -3.68940271e-002
      -1.59199893e-001 6.28921613e-002 -1.89393044e-001 3.27584952e-001
      -1.92408040e-001 6.20870218e-002 -9.41588432e-002 6.75485805e-002
      1.08965464e-001 -1.11005306e-001 4.79405858e-002 -9.73329619e-002
      8.34032297e-002 -1.53713033e-001 -3.77626866e-001 2.60784030e-002
      -7.56817982e-002 5.70588652e-003 -1.86628997e-001 -1.25145495e-001
      7.47959018e-002 2.41461515e-001 -1.05384633e-001 -1.80956304e-001
      1.59714743e-001 -1.53258309e-001 -1.75005540e-001 5.29943407e-002
      -3.14783230e-002 1.25510082e-001 1.36912927e-001 1.43816303e-002
      -3.19101587e-002 1.96366757e-001 5.96156195e-002 -3.13689150e-002
      4.52199904e-003 2.94039220e-001 -1.06659375e-001 5.71230762e-002
      -1.72901794e-001 -5.10094576e-002 6.71970472e-002 2.14654610e-001
      6.36368692e-002 -1.50342986e-001 -5.69930635e-002 1.29406035e-001
      8.44430774e-002 1.55270696e-001 -2.30554104e-001 1.85362205e-001
      -4.79740873e-002 -2.02061102e-001 1.78009525e-001 -1.46693429e-002
      1.18728660e-001 1.43144503e-001 -4.42723511e-003 6.96053281e-002
      -1.50153503e-001 -3.62100422e-001 1.39179543e-001 1.59450963e-001
      9.97004434e-002 -4.79214042e-002 4.75522131e-002 1.41037151e-001
      1.17865331e-001 -1.44209325e-001 1.70931395e-003 7.51803219e-002
      -1.07016198e-001 -2.21814945e-001 -2.72665098e-002 6.10627830e-002
      1.52197480e-001 -1.74105003e-001 -4.83754389e-002 -3.19542944e-001
      -1.41889483e-001 4.95262332e-002 -1.25858765e-002 -9.75681543e-002
      1.33255392e-001 8.39423686e-002 -2.92550057e-001 3.69209379e-001
      2.13188052e-001 1.10555038e-001 6.56044930e-002 -2.30630990e-002
      1.61390752e-001 8.99628252e-002 1.90482572e-001 -2.78585315e-001
      -8.05412754e-002 -1.95169255e-001 -1.11547992e-001
      -4.23883162e-002 2.14604125e-003 2.31687329e-003 2.97165755e-002
      1.00995369e-001 -2.66920686e-001 9.73134860e-002 1.50665894e-001
      -6.69368133e-002 1.01700887e-001 -1.49458885e-001 -1.83058716e-002
      1.83810648e-002 -2.42009535e-001 3.73881944e-002 1.17288657e-001
      -1.21567838e-001 -1.63372114e-001 4.51049134e-002 -2.25530133e-001
      -6.45300150e-002 1.01604477e-001 -6.24991618e-002 -1.35177329e-001
      2.12726846e-001 1.11643977e-001 -1.02391534e-001 -6.81506768e-002
      -2.85630792e-001 -8.16599652e-002 -1.09006986e-001 6.17328100e-003
      -2.70800218e-002 -2.21821830e-001 -1.21141188e-001
      -6.40959591e-002 6.19728006e-002 -5.84174879e-002 1.00508459e-001
      -9.65466797e-002 -6.44287094e-002 -1.00391597e-001
      -2.14941800e-002 1.95013247e-002 1.97597027e-001 2.28887692e-001
      -2.08804429e-001 3.08301337e-002 -3.80323105e-003 -4.39165272e-002
      -1.37685016e-001 -7.03123733e-002 -1.40228838e-001
      -8.18280727e-002 1.54119328e-001 -9.94252115e-002 1.56751379e-001
      -1.68394640e-001 -1.09880961e-001 -1.54669553e-001 1.52925432e-001
      9.96725634e-002 8.08163285e-002 -5.07591851e-002 -2.44237438e-001
      -5.14940871e-003 -3.06351483e-002 1.19388238e-001 7.47347847e-002
      -1.34204030e-001 -1.56588688e-001 -1.45684034e-001 1.12180345e-001
      3.62409353e-002 2.15272188e-001 -3.04855257e-001 1.56467602e-001
      -5.06520877e-003 -1.29724488e-001 8.20024405e-003 3.40054445e-002
      2.78630555e-001 -1.93115413e-001 -9.37945619e-002 -8.33942518e-002
      -4.96439487e-002 4.51700501e-002 -9.98240560e-002 -6.03418611e-002
      -1.57768697e-001 2.91460212e-002 3.59886698e-002 6.12459593e-002
      -2.37177029e-001 -2.28728279e-001 -2.94068247e-001
      -1.35432720e-001 -1.62987038e-001 -1.13815457e-001 1.49652541e-001
      -1.70213431e-001 2.25874647e-001 9.49658379e-002 3.31296295e-001
      1.47477522e-001 6.62632659e-002 3.46153192e-002 -5.20436019e-002
      -1.45178199e-001 -1.20792277e-001 -2.11261794e-001
      -1.87746689e-001 -1.44976616e-001 -1.61714628e-001
      -5.15313335e-002 2.42727995e-001 5.03546000e-002 4.24261615e-002
      -5.14050499e-002 1.90828852e-002 -6.33287430e-002 9.15466100e-002
      -8.13694745e-002 -5.67011461e-002 -1.18449584e-001
      -1.60836339e-001 -1.83985636e-001 -1.34191230e-001 1.40666932e-001
      -2.36457437e-001 8.55963752e-002 -5.64546026e-002 -1.15073562e-001
      1.03603564e-001 -6.82424530e-002 3.33562568e-002 -6.62321299e-002
      -2.26515383e-001 -3.15172300e-002 -3.90177704e-002
      -2.51634419e-001 -8.54032487e-002 -2.72031337e-001
      -3.02375685e-002 1.42859951e-001 3.23218666e-002 -1.03010692e-001
      -5.10901064e-002 -1.60374075e-001 3.51652480e-003 -2.09499476e-003
      -1.00421004e-001 1.40098885e-001 4.44429368e-002 -7.86422715e-002
      -2.82122135e-001 -3.85152400e-002 4.38342728e-002 -1.70484439e-001
      -4.78788912e-002 -5.44054359e-002 8.21411535e-002 4.98028891e-003
      -2.78117031e-001 1.71615750e-001 1.31079420e-001 -1.01343848e-001
      1.84077859e-001 1.69849470e-001 -6.38538674e-002 1.05087183e-001
      4.72768247e-002 9.26863551e-002 9.69294757e-002 1.16513126e-001
      -3.58879119e-002 8.81675482e-002 -5.42891175e-002 6.41835257e-002
      1.70077253e-002 -2.27337182e-001 3.32185961e-002 1.82434559e-001
      -1.93600252e-001 -5.80076985e-002 4.54658121e-002 1.88524663e-001
      -3.91166285e-002 4.23545279e-002 3.17034125e-001 -3.49400014e-001
      -2.25477993e-001 -1.43702254e-001 -1.33654997e-001
      -4.81487103e-002 -2.29834914e-001 -3.33828360e-001 3.10161531e-001
      -6.95814565e-002 -1.00818694e-001 1.47701517e-001 -1.48102000e-001
      -4.74926569e-002 2.45134905e-003 -1.71242923e-001 9.60737020e-002
      -1.91453211e-002 -1.98887810e-002 2.84887459e-002 -7.61040077e-002
      -3.65890414e-002 -1.49874970e-001 -1.51703283e-001
      -3.95924581e-005 -2.32873589e-001 -2.25018188e-002
      -6.77980855e-002 5.78148440e-002 1.67058975e-001 -2.27053359e-001
      4.79815193e-002 -4.57130857e-002 -1.67141631e-001 1.17427163e-001
      -5.97331859e-002 -6.48998246e-002 2.12487787e-001 1.47092985e-002
      -5.85545935e-002 3.87125984e-002 -7.04042614e-002 2.53204182e-002
      -6.02923892e-003 -2.67888457e-001 -1.69455796e-001
      -1.89198516e-002 4.63727377e-002 2.06826106e-001 3.89691219e-002
      -9.72003415e-002 8.34680796e-002 -8.39492455e-002 7.86946490e-002
      1.24171786e-002 -2.20139641e-002 -1.08707592e-001 -1.20873861e-001
      9.76172388e-002 -1.60896003e-001 8.13956410e-002 -1.43287867e-001
      -1.36762157e-001 -9.78485793e-002 6.93346187e-002 -1.29089421e-002
      -1.07466221e-001 3.27430852e-002 -2.66134590e-001 9.51228838e-004
      7.17945257e-003 9.82028916e-002 1.54828187e-002 4.04668972e-002
      -1.69699296e-001 2.37196404e-002 -1.69812590e-002 1.06077552e-001
      9.41262469e-002 5.46021461e-002 1.98285021e-002 8.41863528e-002
      1.53250039e-001 -1.27268597e-001 7.36014098e-002 7.07634026e-003
      3.08489911e-002 5.36456145e-002 -4.65547554e-002 -7.58526921e-002
      -1.77515104e-001 3.05450231e-001 4.70662974e-002 1.41509920e-001
      -1.28786936e-002 -4.44557443e-002 2.32873455e-001 2.08671957e-001
      -7.34035075e-002 -1.92113072e-002 1.46248266e-001 -1.40403807e-001
      3.76193702e-001 2.06642356e-002 -1.67998850e-001 6.76547810e-002
      1.72450855e-001 5.71460184e-003 2.50397548e-002 2.73877215e-002
      -2.02460542e-001 -1.78604186e-001 1.16492383e-001 -3.00840642e-002
      -1.08513497e-001 -1.64256737e-001 -2.46220633e-001 1.10853858e-001
      -1.01359174e-001 -1.27153918e-002 -2.21186787e-001 4.41513248e-002
      -1.92731857e-001 8.89148861e-002 3.70485447e-002 -4.85150553e-002
      -7.71796182e-002 1.88057572e-001 8.81797150e-002 1.03542092e-003
      2.50152498e-001 -8.84293858e-003 -1.44072697e-001 6.35307282e-002
      -1.54971760e-002 -4.23501506e-002 -7.28839487e-002
      -2.34350309e-001 2.83401340e-001 -1.25235483e-001 -3.18088084e-001
      2.05648258e-001 1.65098026e-001 7.70135149e-002 -4.90052700e-002
      -2.22104769e-002 -6.87195584e-002 -1.24898724e-001 7.47286826e-002
      -8.24932009e-003 -6.03034310e-002 -4.63271886e-002
      -1.20708980e-001 9.97962356e-002 -7.87251368e-002 1.10163443e-001
      -1.07347384e-001 2.22279038e-002 -1.84803277e-001 -1.00534335e-001
      -1.98054165e-001 -4.72460203e-002 2.55237594e-002 -2.67257631e-001
      -2.34170840e-003 1.84329480e-001 3.07986420e-002 -3.27657498e-002
      1.13970852e-002 -1.17208876e-001 1.17872939e-001 1.44624561e-001
      6.47535026e-002 1.19958058e-001 1.45162325e-002 3.58848900e-001
      -7.32928654e-003 -1.72038645e-001 -1.89471152e-002 2.17808440e-001
      -1.13111526e-001 -6.55948073e-002 -2.01504543e-001
      -2.46172860e-001 2.09529907e-003 5.80470357e-003 -7.35290069e-003
      -3.40133071e-001 -1.36695027e-001 1.53718323e-001 2.51072496e-001
      1.11510403e-001 -5.25110066e-002 2.14439437e-001 -2.13932812e-001
      1.91935405e-001 9.09649879e-002 9.52076316e-002 1.74968600e-001
      1.92351297e-001 1.02199472e-001 2.83226948e-002 1.28753036e-001
      -1.01423241e-001 6.66370913e-002 5.62891178e-002 8.91609769e-003
      7.97685310e-002 -8.74506533e-002 8.01724121e-002 -1.88381001e-001
      5.83107583e-002 -2.25855514e-001 2.21089739e-002 2.25652739e-001
      -3.61065567e-002 1.04986705e-001 -1.41335741e-001 8.35442729e-003
      -1.45664692e-001 -9.02387965e-003 -2.57879794e-002 1.49854928e-001
      1.81218028e-001 -6.01463132e-002 -1.42691150e-001 -4.91319522e-002
      1.46378903e-002 -6.83615804e-002 -2.20121462e-002 -2.27665186e-001
      3.28930430e-002 1.60425097e-001 -1.77943826e-001 1.06575228e-001
      -1.03024945e-001 6.38727844e-002 1.79578215e-001 7.66830966e-002
      3.22765298e-002 -2.74303555e-001 -1.47586353e-002 -4.58702333e-002
      1.78370297e-001 7.01562241e-002 3.50160860e-002 2.23778747e-002
      -1.75575465e-001 -8.57343003e-002 -1.98165625e-001
      -3.59694064e-002 -8.17721263e-002 -7.48687387e-002
      -7.40248412e-002 5.29379360e-002 -6.50502965e-002 6.96948767e-002
      5.32100035e-004 -2.85227504e-002 -1.68012217e-001 -4.55531627e-002
      -5.96699230e-002 -1.24896392e-001 1.65436029e-001 -1.49956107e-001
      7.51322806e-002 -2.09883094e-001 -8.12943652e-002 3.94551046e-002
      2.50939041e-001 5.52949756e-002 -8.45054165e-002 -1.52804717e-001
      -1.49542347e-001 1.74553931e-001 -9.75786895e-002 -6.35565817e-002
      -2.83851594e-001 -1.10418573e-001 1.88174650e-001 -2.90165156e-001
      -1.64593682e-001 -1.12076074e-001 -1.61099434e-001
      -1.74260557e-001 -1.31961823e-001 2.61317283e-001 2.79625654e-001
      -3.01289409e-002 -1.47099033e-001 1.10627107e-001 -1.00084450e-002
      2.23389253e-001 -1.68555379e-001 -4.04232815e-002 1.15587570e-001
      1.67939618e-001 -6.91662282e-002 -1.28022388e-001 2.98820175e-002
      -2.72265822e-001 1.12123691e-001 2.47217286e-002 2.08727159e-002
      -3.34318355e-002 -2.28310507e-002 1.65362164e-001 3.57413515e-002
      1.65273368e-001 -1.26850814e-001 3.03142164e-002 -9.50704664e-002
      -2.60655761e-001 -5.55575006e-002 -5.15010394e-002
      -1.19182870e-001 -8.58678371e-002 -7.71497190e-002
      -1.36990752e-002 9.56499800e-002 -1.26339808e-001 6.76112771e-002
      3.41822386e-001 -1.53040349e-001 1.06010608e-001 -4.84390333e-002
      2.54011098e-002 1.01597317e-001 4.65985648e-002 -8.40216503e-002
      -1.20581299e-001 -1.34046584e-001 -1.88120753e-001 1.23304665e-001
      -1.14736430e-001 2.69982852e-002 -5.91204837e-002 -1.40479252e-001
      -1.24695115e-002 -1.34812286e-002 3.50075103e-002 -6.10822253e-002
      1.40133128e-001 6.06540591e-002 2.16715038e-003 5.92826828e-002
      2.62082722e-002 -2.07585901e-001 -1.12971649e-001 -2.35879824e-001
      -9.39780623e-002 -2.52192989e-002 -6.63593225e-003
      -1.60697535e-001 -1.72966316e-001 -3.04865129e-002
      -1.05495982e-001 -7.42128715e-002 1.59550533e-002 -1.42484894e-002
      7.52188824e-003 -2.71808002e-002 8.78412351e-002 -1.77403361e-001
      -2.43322719e-002 -1.14507571e-001 7.33520836e-002 -1.56259343e-001
      1.70405675e-002 -1.65542006e-001 -1.63700730e-001 -6.28684983e-002
      -3.21360826e-001 -7.05118179e-002 -4.74147014e-002
      -1.95938155e-001 5.70333283e-003 6.57834634e-002 -1.93583831e-001
      -1.47668019e-001 -9.21861306e-002 7.81433880e-002 3.46408576e-001
      5.00397524e-004 1.02164380e-001 -2.81059984e-002 -1.54323250e-001
      -2.56823242e-001 -4.62961048e-002 -3.85280371e-001
      -4.09927189e-001 -2.27641240e-001 -1.24735750e-001
      -1.27856940e-001 1.41514122e-001 5.45783862e-002 -1.91450357e-001
      -9.92196426e-002 -1.69037238e-001 2.29694881e-002 -1.29072592e-001
      -9.50240865e-002 -2.26185083e-001 -6.35461584e-002 1.38864100e-001
      -5.62277921e-002 -1.27926394e-001 -8.36545005e-002
      -1.38590619e-001 -3.64378206e-002 7.14314803e-002 1.20482417e-002
      1.23669557e-001 1.98381290e-001 1.16502441e-001 4.52319384e-002
      -7.93295279e-002 3.03874433e-001 2.76993990e-001 6.89557865e-002
      4.95995879e-002 1.84748605e-001 2.30096206e-001 -1.83011919e-001
      -5.87620735e-002 -6.03009090e-002 -1.51486248e-001
      -5.03391996e-002 -2.70137619e-002 -9.81556997e-002
      -1.74456403e-001 2.34869599e-001 3.66394162e-001 1.73466038e-002
      -2.23416194e-001 -1.28818741e-002 1.63327798e-001 3.74374874e-002
      -1.80605069e-001 -2.22305521e-001 1.73868850e-001 -3.32320146e-002
      -7.93975890e-002 -2.55321264e-001 -1.98584452e-001 8.31379965e-002
      1.85059026e-001 2.60767080e-002 1.46729276e-001 2.05828566e-002
      5.56757934e-002 7.76796192e-002 -3.14633757e-001 7.53681287e-002
      -9.16006342e-002 1.32229164e-001 -3.57381374e-001 -4.09554750e-001
      5.91328600e-003 7.01892525e-002 1.16037801e-001 2.97375247e-002
      2.43112504e-001 -2.08345696e-001 1.83637872e-001 -2.33024016e-001
      1.13249421e-001 -4.41343307e-001 -1.57591358e-001 -6.59815222e-002
      -1.65614963e-001 -5.78758344e-002 7.58815184e-003 1.41897187e-001
      8.53929892e-002 -5.02365455e-002 9.23611503e-003 1.25401318e-001
      -7.26426691e-002 3.28382216e-002 1.19900942e-001 -1.82286665e-001
      -4.95053269e-002 -1.37897292e-002 7.89019540e-002 1.37221172e-001
      -3.26268263e-002 1.32406965e-001 2.30371971e-002 8.86971131e-002
      2.67365128e-001 2.94331033e-002 5.10675907e-002 1.83143690e-001
      -2.80318763e-002 1.28734499e-001 -1.85783625e-001 -1.66115895e-001
      -1.85708374e-001 -2.80607969e-001 -7.99654797e-002 6.34899735e-002
      -9.19732451e-002 -3.33721265e-002 -1.27277955e-001 2.62679881e-003
      2.00757496e-002 -1.44210011e-001 1.33556947e-001 1.57074071e-002
      7.63581991e-002 1.00097619e-001 2.69149840e-002 -6.28780872e-002
      3.51617625e-003 -2.28073355e-002 1.57574490e-001 8.56335908e-002
      -1.74854219e-001 -2.02087499e-003 -3.37869450e-002 2.11435072e-002
      1.08074151e-001 1.38971418e-001 -6.52358606e-002 -1.75395235e-001
      1.10581145e-001 5.64569309e-002 1.50121674e-001 -1.69928461e-001
      -6.29096478e-002 -1.44603355e-002 -1.19403347e-001 3.71250743e-003
      -7.34862313e-002 -1.31831735e-001 4.97894362e-002 1.52982771e-001
      7.36639723e-002 2.86086768e-001 2.48811278e-003 2.95204192e-001
      1.30309299e-001 -9.21039060e-002 -5.64273223e-002 -9.61509645e-002
      -1.48558512e-001 -1.41506819e-002 -4.16488163e-002
      -2.08965912e-001 1.03558674e-001 2.43860539e-002 -1.10800834e-002
      3.10723744e-002 -2.30866671e-001 5.49226068e-002 1.41874149e-001
      -2.01604322e-001 9.73302126e-002 -5.47101535e-003 1.06321737e-001
      4.28762659e-002 6.20304756e-002 -8.04216564e-002 1.07504234e-001
      6.31009191e-002 -1.06141865e-002 2.23386332e-001 4.37337756e-002
      1.07739620e-001 1.04010981e-002 5.69555461e-002 -1.22628428e-001
      -1.38717607e-001 1.03121854e-001 -4.80432250e-002 1.56140342e-001
      9.90158394e-002 -1.99080467e-001 -1.52855799e-001 -3.51925194e-002
      -1.52994677e-001 -2.91395299e-002 4.75288741e-002 -1.71397589e-002
      1.09564969e-002 9.18440893e-002 -1.73659325e-001 2.01590229e-002
      2.92740315e-001 9.44680050e-002 -2.51104355e-001 -7.52986968e-002
      -7.77304918e-002 1.51772186e-001 8.01258162e-003 3.85761335e-002
      6.21716753e-002 3.40940692e-002 5.06976321e-002 2.40630195e-001
      8.88446346e-002 6.43394217e-002 -6.49338365e-002 3.52884270e-002
      -2.21744180e-001 -2.44279265e-001 1.07892498e-001 -1.18434310e-001
      2.19379559e-001 -1.48396254e-001 6.12510741e-002 -1.43761247e-001
      -3.56352814e-002 -2.52054691e-001 -1.04214437e-001 2.10675359e-001
      1.38140678e-001 -4.13089991e-002 6.77769557e-002 1.88841686e-001
      5.67994863e-002 8.32451582e-002 9.44071077e-003 -3.20007578e-002
      3.63738388e-001 -5.22551313e-002 4.25261050e-001 1.63455203e-001
      2.34684441e-002 -3.52912247e-002 2.51619935e-001 1.37813866e-001
      1.53259814e-001 4.38548513e-002 -7.15655535e-002 8.76022205e-002
      -2.15039700e-001 -2.46942658e-002 2.53396138e-004 1.93881601e-001
      3.23804617e-001 1.71174347e-001 2.88363427e-001 -5.87418973e-002
      3.48043591e-002 7.49130845e-002 1.90535933e-001 9.97127593e-002
      -7.51149803e-002 -2.21005082e-002 -1.02623053e-001 6.07009195e-002
      6.78186864e-002 4.77881469e-002 -1.76391024e-002 1.14570223e-002
      1.73569862e-002 -1.37072995e-001 3.85212526e-002 1.10304467e-001
      1.24434438e-002 -3.59996445e-002 -2.23515466e-001 2.69019008e-001
      -1.12556741e-001 -6.19056560e-002 1.43499851e-001 1.43004507e-001
      -1.94104742e-002 2.99689341e-002 1.01002462e-001 -2.26171225e-001
      -2.33329490e-001 -3.28605920e-001 1.64856046e-001 -1.26722991e-001
      4.25770618e-002 -8.58421326e-002 -2.11391374e-002 -1.06244601e-001
      -6.77057728e-002 4.54535969e-002 -9.89296436e-002 -9.88307968e-002
      -1.10049210e-001 -2.18017977e-002 5.60616096e-003 7.47570023e-002
      -5.49700148e-002 -1.35728419e-001 -1.44200012e-001
      -1.99935973e-001 6.36495352e-002 -2.03625292e-001 -9.98640805e-002
      1.17910467e-002 6.67367727e-002 -1.13707691e-001 -1.42744064e-001
      -4.16874662e-002 7.54557997e-002 -1.23187482e-001 -1.71432048e-001
      1.84125528e-001 1.64847180e-001 -6.38285577e-002 -2.63777733e-001
      -2.88857687e-002 -2.50418037e-001 -2.37641260e-001
      -2.17613772e-001 -3.95855904e-001 7.18670012e-003 9.71599370e-002
      -1.00397006e-001 -2.43786685e-002 -1.35618269e-001
      -1.00394651e-001 5.90844126e-003 6.05365075e-002 -1.33903548e-001
      4.61106226e-002 1.08417071e-001 3.51919383e-001 -1.43632397e-001
      -5.76360896e-002 -1.93526193e-001 2.41688807e-002 1.57178938e-001
      -6.54607639e-002 -7.45696723e-002 -1.56301096e-001 2.11517081e-001
      8.58815983e-002 -1.22237295e-001 1.73185274e-001 5.30261360e-002
      1.05234951e-001 -6.26528040e-002 5.98503500e-002 1.03144191e-001
      5.64809479e-002 1.15875062e-002 -1.82550445e-001 1.16673764e-002
      -1.75643906e-001 2.10828885e-001 1.05895057e-001 3.70119251e-002
      -7.55483210e-002 -3.20846409e-001 -1.45792365e-001
      -2.19217092e-001 1.36530519e-001 -1.37959383e-002 1.80878341e-001
      1.56975776e-001 -9.04227421e-002 -8.52037501e-003 1.63449153e-001
      -1.04634970e-001 -1.05224743e-001 -1.19439580e-001
      -1.00438438e-001 4.61390540e-002 1.21036723e-001 -2.13627681e-001
      7.65649369e-003 -1.33685395e-001 8.33711773e-002 2.16230601e-002
      9.12412703e-002 -9.79222879e-002 -1.83228523e-001 1.10229015e-001
      -2.39850625e-001 3.24244648e-002 -9.48151201e-002 -1.74750328e-001
      -3.01571816e-001 -1.00425981e-001 -2.09795460e-001
      -6.44645840e-002 2.68763769e-002 -2.08303720e-001 -6.95421100e-002
      -3.33159536e-001 1.00340515e-001 -1.73337758e-001 6.32999837e-002
      -1.85560957e-001 4.78861332e-002 1.13464884e-001 3.22399735e-002
      9.67128202e-002 7.19856936e-004 -2.51765877e-001 -1.80806488e-001
      1.26827951e-003 -1.73136890e-002 -1.50274754e-001 7.19404072e-002
      1.72215123e-002 3.40790376e-002 2.59824656e-002 -3.15894186e-001
      -3.54561061e-001 2.42397353e-001 1.66959569e-001 1.38261709e-002
      1.93157524e-001 -2.14401707e-002 3.92702445e-002 8.13304335e-002
      -1.93097159e-001 -1.00832485e-001 2.75119357e-002 -3.02105118e-002
      -1.09036937e-001 -1.83303263e-002 8.02487805e-002 6.75952211e-002
      -2.17344835e-001 -2.75472980e-002 -8.95516798e-002 2.70219594e-001
      -9.68997926e-002 1.41194567e-001 -6.46125823e-002 -1.08082712e-001
      -6.24989904e-002 -6.97784424e-002 -4.77183843e-003
      -2.99862444e-001 9.55227762e-004 6.17416538e-002 1.02636039e-001
      -7.92156458e-002 -1.32480830e-001 -7.21106827e-002
      -2.82734670e-002 9.04895142e-002 -2.32364386e-002 5.06009087e-002
      3.57581854e-001 -1.94515456e-002 8.47070590e-002 1.56992689e-001
      1.38284164e-002 -1.62218049e-001 -2.14570500e-002 -4.06848267e-002
      -2.04451576e-001 -1.22963011e-001 1.82722762e-001 1.05202809e-001
      -2.04670966e-001 1.22330198e-002 -3.26586999e-002 1.17952771e-001
      6.42214492e-002 -1.16589718e-001 3.38015020e-001 9.65503007e-002
      -1.43179717e-002 -2.15194061e-001 -6.28405437e-002
      -3.34880571e-003 -1.87817186e-001 -3.49608243e-001 7.56329671e-002
      1.89980641e-002 -1.21565774e-001 4.22861725e-001 -1.56495884e-001
      -9.93381217e-002 -1.41605258e-001 4.53618467e-002 -1.20433770e-001
      3.69066358e-001 -8.11169818e-002 1.92135032e-002 -1.35465145e-001
      -6.11812882e-002 6.84950352e-002 -1.15935067e-002 -3.01059112e-002
      6.81929812e-002 5.67633398e-002 6.63222186e-003 -1.08758919e-001
      3.54159504e-001 1.14530116e-001 -1.61339119e-001 -2.64076814e-002
      4.16973643e-002 2.99514588e-002 3.71075660e-001 -3.55434597e-001
      5.25568947e-002 2.08780661e-001 6.04343228e-002 -3.44718806e-002
      4.09385979e-001 9.95582789e-002 1.18226327e-001 1.78947210e-001
      -9.88538712e-002 5.97036704e-002 -4.22408395e-002 -1.70739256e-002
      8.40980187e-003 7.16369227e-002 -4.96161170e-002 9.06597525e-002
      -2.64763355e-001 -4.02210504e-002 -3.25076655e-002
      -4.76006698e-003 -4.28066067e-002 -1.74112201e-001 6.20485656e-003
      -1.32557347e-001 1.66739464e-001 1.02567840e-002 7.14676306e-002
      -1.71360061e-001 1.09977074e-001 -1.06229298e-001 1.68282241e-001
      -7.87784383e-002 -1.65797204e-001 6.12665676e-002 -1.49178773e-001
      -2.89097726e-001 1.08484644e-002 2.58658767e-001 -4.42605019e-002
      1.70645371e-001 2.80205011e-001 -2.19754279e-002 8.42935219e-002
      6.44101948e-002 -7.52730593e-002 -1.90432250e-001 -1.10677222e-003
      1.03257559e-001 1.23579830e-001 1.02649361e-001 -2.02674970e-001
      2.79888958e-002 2.54375525e-002 -3.03142011e-001 2.01651663e-001
      4.83518690e-002 -4.18143608e-002 2.07136292e-002 1.59927696e-001
      7.95090199e-002 8.67146552e-002 -2.83585191e-001 2.12466627e-001
      2.18016535e-001 -1.92114875e-001 -6.75071031e-002 -1.66007936e-001
      -2.49019250e-001 1.77573353e-001 3.51638235e-002 -4.90138531e-002
      1.94797158e-001 -7.56850243e-002 6.80958778e-002 -1.98037783e-003
      -9.74301547e-002 1.27615824e-001 -1.50484413e-001 4.16146182e-002
      1.54992798e-002 -1.19003564e-001 5.18778339e-003 1.40619770e-001
      -5.35675026e-002 7.31838867e-002 1.00048542e-001 -1.89208776e-001
      -1.39941812e-001 5.21738231e-002 -1.05432466e-001 -9.30276960e-002
      7.31912330e-002 1.37553036e-001 -1.90206736e-001 -6.08667210e-002
      -1.34775504e-001 -1.39638782e-001 2.44848505e-001 -8.70166197e-002
      -2.05336645e-001 1.80965941e-002 -2.04676092e-002 -2.07336634e-001
      6.60588667e-002 6.17926307e-002 1.66711271e-001 2.44214326e-001
      -1.31609198e-002 1.35713235e-001 1.07354544e-001 -1.51116103e-002
      -6.72370270e-002 1.23420274e-002 -1.12451063e-002 -1.62809253e-001
      -6.23620190e-002 -8.98921713e-002 -3.47461328e-002 2.27901876e-001
      1.12366848e-001 2.48195976e-001 -3.03369593e-002 -9.00319517e-002
      2.02442288e-001 1.25895143e-001 4.11364585e-002 3.09609529e-002
      -1.84895899e-002 2.89315283e-001 -8.64690244e-002 -3.90438735e-002
      -1.13605820e-002 -8.54833499e-002 -1.28551885e-001
      -1.29811212e-001 2.25015953e-001 -2.32849136e-001 -2.37026773e-002
      6.64773360e-002 3.40093765e-003 7.81966597e-002 7.06569478e-002
      -1.08192451e-001 1.09065764e-001 1.82086721e-001 8.89661461e-002
      -1.29616141e-001 -8.14365596e-003 -1.28960431e-001 9.61922929e-002
      -7.48768747e-002 1.25241935e-001 1.21362522e-001 -2.78638303e-002
      1.78369042e-002 3.08228545e-002 -1.42721847e-001 4.69907045e-001
      3.57641205e-002 -1.37466788e-002 -6.20307680e-003 -4.61600125e-002
      -2.26822477e-002 -1.05535813e-001 -1.47916570e-001
      -7.99225792e-002 1.56507254e-001 4.68090586e-002 4.81051616e-002
      -1.00697875e-001 -1.58460721e-001 1.98662102e-001 -2.60868808e-003
      7.87030905e-002 -1.00437835e-001 -6.67770728e-002 -3.92194502e-002
      -1.50499269e-001 -1.76749304e-001 7.33982176e-002 1.05350092e-001
      1.98076945e-002 -2.35583499e-001 -2.38509271e-002 1.41601516e-002
      5.01270592e-002 -4.80155572e-002 1.97166592e-001 -1.10595569e-001
      1.27111331e-001 -6.40817061e-002 -2.66462684e-001 -4.81002703e-002
      4.78530638e-002 -1.47410398e-002 3.04037184e-001 -3.45804431e-002
      9.96904746e-002 -5.03495745e-002 1.14345066e-001 1.06563397e-001
      8.26706290e-002 6.20645694e-002 -5.37942685e-002 7.42585259e-003
      1.22838795e-001 4.86514829e-002 1.26535237e-001 -5.35223074e-002
      6.34450242e-002 -3.08751743e-002 -2.69244909e-001 1.31124914e-001
      2.86420077e-001 1.73363000e-001 1.52123151e-002 1.38102770e-001
      1.08206891e-001 -5.63712865e-002 9.60407928e-002 1.21281721e-001
      -8.03763866e-002 -2.32136860e-001 -3.29709679e-001
      -3.21064889e-002 -4.85274494e-002 -2.14540258e-001
      -3.16546001e-002 -2.47774407e-001 8.62299278e-003 8.87725130e-002
      -8.44115391e-002 9.63088423e-002 -3.33031802e-003 9.49360058e-002
      -6.94949850e-002 -9.91423577e-002 -7.00872764e-002
      -4.88233902e-002 -2.11413670e-002 8.85798316e-003 -1.67543530e-001
      -2.19889164e-001 6.03479259e-002 2.51913592e-002 2.34662648e-002
      -2.28820788e-003 -3.29906009e-002 -1.51722595e-001
      -8.63178521e-002 -2.06443369e-002 1.08409375e-001 6.83138520e-002
      -2.19853833e-001 -2.80222800e-002 3.59447077e-002 2.96739250e-001
      5.56033179e-002 -2.62922589e-002 1.14184218e-002 -4.25776504e-002
      2.75484286e-002 -4.99516502e-002 1.47615820e-001 -2.40641125e-002
      3.91652286e-002 -1.88345402e-001 -9.93532166e-002 2.31911540e-001
      5.43378182e-002 -5.75538948e-002 -3.77030790e-001 -1.31190106e-001
      -9.30014774e-002 9.97604877e-002 -2.00789273e-001 -8.39161947e-002
      -5.41132689e-002 -1.93300948e-001 2.38613293e-001 -2.45883614e-001
      -7.17388093e-002 1.74373388e-001 -1.01757571e-001 -3.12959147e-003
      3.12693194e-002 -4.68805879e-002 1.87096179e-001 1.34320194e-002
      -1.01329274e-002 -1.52065605e-001 8.21416825e-002 1.23697639e-001
      -2.32293382e-001 -1.17035836e-001 -4.18784767e-002
      -1.09081291e-001 -2.61733264e-001 -1.11331031e-001
      -1.78715631e-001 -1.76394433e-001 -1.89495742e-001
      -9.19508412e-002 -1.29374564e-001 5.05804084e-002 -4.05370414e-001
      1.10494956e-001 3.06779295e-002 -2.92390510e-002 6.86262548e-002
      8.77159536e-002 -5.67900762e-002 1.27571970e-001 1.11683704e-001
      -5.09795323e-002 7.07101673e-002 5.79287186e-002 -1.29618779e-001
      -6.67341053e-002 -1.82803899e-001 -2.52502441e-001
      -1.52614906e-001 2.73854807e-002 -3.20896596e-001 -1.53041743e-002
      1.59490347e-001 -1.51505932e-001 -9.48110074e-002 -6.48021474e-002
      -2.45644614e-001 -2.36887306e-001 -5.49423322e-002
      -8.01603645e-002 -1.58223942e-001 -2.83245355e-001
      -3.61264229e-001 -2.16749668e-001 -8.53737965e-002 2.30526894e-001
      -1.56083018e-001 3.47416580e-001 2.25811657e-002 -8.90693516e-002
      -6.20312393e-002 -3.40325922e-001 7.60766445e-003 -1.95428550e-001
      -1.14379443e-001 -1.62373558e-001 1.83336250e-002 -1.87620685e-001
      2.28920188e-002 -2.26653274e-002 -2.95304388e-001 8.50763991e-002
      -1.47252783e-001 1.22853816e-002 -7.94229209e-002 -4.07997109e-002
      -3.87884900e-002 -1.17441878e-001 -2.90226284e-002 1.50642037e-001
      1.03347324e-001 8.98289531e-002 -5.70786186e-002 -9.68659744e-002
      -1.10413946e-001 8.41020718e-002 2.99135353e-002 2.62381136e-001
      -1.08008094e-001 -2.30142921e-002 4.59528342e-002 2.07784772e-001
      -1.58721507e-001 8.35799985e-003 3.10646236e-001 -2.10420564e-001
      6.51395991e-002 7.68103302e-002 4.60426599e-001 -3.26650888e-001
      -1.82063982e-001 -1.80302918e-001 -2.08109528e-001
      -7.41196200e-002 1.84390787e-002 2.44853646e-001 -6.70394301e-002
      7.20092729e-002 -1.57833397e-001 2.70277169e-002 1.96087174e-002
      -9.75361541e-002 7.41985366e-002 1.08444598e-002 -9.72496625e-003
      -1.41598687e-001 -1.20330282e-001 -1.54906780e-001
      -8.00044611e-002 -3.03384840e-001 -2.14395244e-002 1.59579366e-001
      -2.80593216e-001 4.42429744e-002 -4.98770103e-002 -1.91561043e-001
      -1.60168111e-001 -7.18545588e-003 -2.41543248e-001 2.95268029e-001
      -1.36055842e-001 4.06077281e-002 1.15712866e-001 7.96273053e-002
      -5.49691543e-003 4.90118936e-002 1.03660755e-001 1.14548132e-001
      -1.60620362e-001 1.01112701e-001 -9.76194218e-002 3.52654666e-001
      -7.75177628e-002 7.87661970e-002 -1.83453098e-001 1.28956482e-001
      8.18243846e-002 2.43468389e-001 -5.28377295e-002 -1.21946670e-001
      4.28756922e-002 -1.76319212e-001 -1.02860078e-001 1.49857372e-001
      -2.06479251e-001 -9.60533321e-002 -4.98518795e-002
      -6.10635579e-002 7.11374208e-002 -7.46024549e-002 8.95261317e-002
      9.77906659e-002 9.09833387e-002 -1.02820106e-001 1.02824301e-001
      -1.19150653e-001 1.36900425e-001 -3.91882956e-002 1.05038434e-001
      -9.76159796e-002 -3.25453520e-001 1.50912479e-001 3.86338905e-002
      -5.30946963e-002 9.43617970e-002 -1.53694004e-001 2.42360860e-001
      6.31238297e-002 -1.45256594e-001 1.06362756e-002 -1.35723293e-001
      2.68240631e-001 -3.62926126e-002 1.80923164e-001 2.93972284e-001
      4.98904549e-002 -1.45393163e-001 1.30102262e-001 -6.88089281e-002
      -4.26338278e-002 -7.86105637e-003 -1.54200703e-001
      -1.25776052e-001 -3.46503854e-002 1.74291402e-001 -1.16727360e-001
      1.42470151e-001 2.20006421e-001 3.23822320e-001 1.57699883e-001
      6.07923828e-002 -3.17069024e-001 -1.10248588e-001 -1.82466403e-001
      4.30614352e-002 -1.20258622e-001 -6.21177442e-002 5.97100612e-003
      4.46325578e-002 9.75658745e-003 1.39890462e-001 -8.69082287e-002
      -1.23331524e-001 -9.70438868e-003 1.46288738e-001 4.78300266e-002
      3.14663678e-001 1.51839137e-001 8.15809220e-002 -7.81376511e-002
      -8.13731477e-002 6.29202202e-002 1.73049986e-001 1.04653440e-001
      -2.11134747e-001 -3.41650397e-002 4.79196291e-003 -8.43114927e-002
      1.14636116e-001 -2.90898740e-001 -2.86197811e-001 -2.96559352e-002
      1.03387468e-001 1.66463479e-001 2.37672105e-001 -5.15737198e-002
      8.34855586e-002 2.14143973e-002 -1.52201504e-001 1.40799908e-002
      1.11624524e-001 6.49454296e-002 -3.63418132e-001 2.07978666e-001
      -9.84551460e-002 -2.16232780e-002 -5.57254441e-002
      -1.97535306e-001 2.23298725e-002 7.91183338e-002 1.02914041e-002
      -1.15869395e-001 -1.11164637e-001 6.16136603e-002 -3.24462727e-002
      -1.34194661e-002 7.18046948e-002 -6.90271631e-002 8.14658105e-002
      -1.62673220e-002 -7.88185000e-002 2.86218584e-001 -2.91296989e-002
      -7.51221627e-002 2.16392893e-002 -7.51391947e-002 1.16516389e-001
      2.13979915e-001 -1.34331942e-001 -1.47326797e-001 1.62716091e-001
      -7.98674151e-002 2.24943846e-001 -1.73253909e-001 9.42179784e-002
      -1.00329712e-001 1.84457839e-001 -4.44100313e-002 -2.18027666e-001
      2.14211643e-001 3.30724344e-002 -1.70472667e-001 -2.67006382e-002
      1.84600428e-001 4.71532205e-003 -1.45147935e-001 2.14773938e-001
      -7.60104060e-002 1.32221550e-001 2.22100496e-001 1.76103994e-001
      2.20397383e-001 -1.43367350e-001 7.12309778e-002 -1.09110738e-003
      -1.34367689e-001 -7.98503757e-002 2.47825831e-001 5.34592057e-003
      -1.30409775e-002 -6.48006704e-003 4.36232239e-002 2.44337901e-001
      8.27870071e-002 1.84315696e-001 -1.79408804e-001 1.31909415e-001
      -1.02704596e-002 1.43225910e-003 -9.57097337e-002 1.72755271e-001
      7.99310282e-002 8.72940291e-004 -1.23431748e-002 -3.46134827e-002
      1.27339989e-001 8.35077539e-002 -1.88851491e-001 -9.82697159e-002
      -4.07323353e-002 4.74474728e-002 -1.69546574e-001 1.66785643e-001
      -1.78770944e-001 1.95001617e-001 3.27838719e-001 -3.90520468e-002
      9.28463414e-002 2.14295492e-001 -5.52515797e-002 -1.03330642e-001
      -1.39330730e-001 7.31150284e-002 1.13756787e-002 -4.05208319e-002
      -1.92172080e-001 1.71093792e-001 -5.72646819e-002 -8.72053877e-002
      -6.15218841e-002 -1.38190597e-001 -1.19881377e-001 6.71903491e-002
      6.01731539e-002 -6.42822832e-002 -4.77103181e-002 9.33840647e-002
      -1.08942956e-001 1.89210847e-002 2.25856066e-001 1.63345173e-001
      -3.27052511e-002 -1.92696508e-002 -2.94663280e-001
      -6.03483394e-002 -2.12051645e-001 5.37341163e-002 1.17283724e-002
      1.69104189e-001 -4.60752286e-002 1.25454083e-001 8.53640586e-003
      -2.35771477e-001 7.55153596e-002 2.08997112e-002 6.12559207e-002
      -8.25375468e-002 -4.41603214e-002 -2.79274642e-001
      -5.60474172e-002 2.71441303e-002 -1.67791620e-001 4.05981168e-002
      8.11024234e-002 1.44754499e-001 1.94908097e-001 3.54894698e-002
      -1.29373157e-002 1.38399243e-001 6.95915073e-002 8.73186737e-002
      8.12474489e-002 1.42430559e-001 6.08720034e-002 -2.39699662e-001
      5.48421517e-002 -1.75307795e-001 -1.51615933e-001 4.63269502e-002
      -1.00954086e-001 1.00458294e-001 -9.37825069e-002 1.74237683e-001
      -2.96720341e-002 1.86363950e-001 5.98313194e-003 -1.68918952e-001
      -1.54863112e-002 7.00244382e-002 -3.23539153e-002 -5.81311062e-002
      -1.49900243e-001 1.10799894e-001 7.07011521e-002 1.14285693e-001
      2.50959426e-001 3.63774478e-001 -1.49160204e-003 -8.81990418e-002
      1.62379801e-001 6.75154626e-002 -2.62529075e-001 -1.20469136e-002
      2.71809977e-002 1.55988544e-001 1.07549638e-001 5.72560057e-002
      4.98619601e-002 2.38278896e-001 -1.41893357e-001 3.77990790e-002
      6.70193462e-003 -5.15566282e-002 5.85335679e-002 -7.06263706e-002
      3.90550634e-003 -1.36648476e-001 -1.71377301e-001 2.16832787e-001
      -1.61900297e-002 2.67192572e-002 -5.26615325e-003 -2.18959138e-001
      -7.41258189e-002 3.93264294e-002 9.08152610e-002 2.54248083e-002
      2.70211883e-002 6.34808913e-002 3.81941609e-002 -1.16169013e-001
      7.67409876e-002 2.77995709e-002 -1.48314086e-003 -1.15022294e-001
      -4.21275981e-002 2.10708864e-002 4.52885926e-002 -2.18128756e-001
      -1.96001932e-001 -1.80501834e-001 -2.00388774e-001 1.09080985e-001
      4.46168296e-002 5.97730502e-002 2.27228582e-001 9.22174156e-002
      -2.61165738e-001 2.37595271e-002 1.02675579e-001 1.07381180e-001
      1.53027609e-001 -1.09279752e-001 -2.76862204e-001 3.56858850e-001
      -1.36269644e-001 2.66010966e-002 4.31234390e-002 -2.48928636e-001
      -1.49700850e-001 1.23974554e-001 1.17711045e-001 -2.93782242e-002
      -1.51634822e-002 -1.52543008e-001 -8.52940679e-002 5.49131669e-002
      -7.75668584e-003 -2.33959183e-001 -1.46493405e-001
      -5.13860807e-002 3.56115699e-002 -4.32576127e-002 5.49115762e-002
      -2.18304455e-001 -2.80017674e-001 -3.14974301e-002
      -9.49826315e-002 -1.01876885e-001 1.23558097e-001 -8.82827193e-002
      1.55110404e-001 -1.74371466e-001 -9.61934328e-002 7.16540068e-002
      -1.66773409e-001 1.54275611e-001 -4.66790469e-003 -7.68759549e-002
      -3.65195284e-003 1.29238725e-001 1.27319202e-001 -1.72424302e-001
      -1.66151464e-001 -4.59480852e-001 -1.13463096e-001
      -1.46565259e-001 3.37572359e-002 -1.81736797e-002 -1.72389410e-002
      -1.25227422e-002 -2.31368497e-001 -8.36869851e-002 5.15733548e-002
      -1.90325543e-001 -1.81698516e-001 -7.12695494e-002 3.25127319e-002
      -1.70924634e-001 1.19791627e-002 -1.37773082e-001 -1.17470168e-001
      1.36530057e-001 2.16322124e-001 -1.88180298e-001 1.59163237e-001
      4.54293489e-002 2.00150851e-002 6.83941320e-002 -2.40438983e-001
      6.33929893e-002 6.74554631e-002 1.37728468e-001 4.49906997e-002
      -2.03082159e-001 -1.78069428e-001 -7.00683892e-002
      -1.77276969e-001 -2.20263168e-001 6.83521703e-002 -7.50347152e-002
      1.93108633e-001 -8.29416439e-002 1.10694081e-001 1.41234482e-002
      1.43952608e-001 -6.12379871e-002 -3.64353120e-001 -1.76033601e-001
      1.07576258e-001 -1.88509166e-001 -2.50360042e-001 -4.06536572e-002
      7.06609040e-002 -3.05454701e-001 -5.52162081e-002 -1.35512367e-001
      -1.42218232e-001 -8.47436786e-002 2.63013504e-002 -2.73808897e-001
      9.21276212e-002 3.62549797e-002 -4.52429242e-002 6.39135391e-002
      -1.77107006e-001 -1.97303724e-002 -1.17743149e-001 2.93812007e-001
      1.11954503e-001 -1.79272592e-001 1.73060656e-001 -3.02463155e-002
      2.94414133e-001 3.05441916e-001 1.21472530e-001 9.29229334e-002
      1.41710028e-001 -1.50490403e-001 8.31008554e-002 4.77951840e-002
      3.38106193e-002 2.36349061e-001 -4.55247909e-002 -3.11731189e-001
      -1.61989927e-001 -6.38292059e-002 -3.51635575e-001 1.69224754e-001
      -8.01280066e-002 3.52399331e-003 1.40003134e-002 8.43107477e-002
      1.16740391e-001 -1.44807259e-002 -8.21256712e-002 -1.18820883e-001
      5.64686470e-002 2.31067128e-002 -4.95909601e-002 3.15029830e-001
      -1.72531325e-002 -9.50122699e-002 4.42235887e-001 1.51945129e-001
      -2.46030197e-001 8.94543231e-002 4.24338854e-004 1.21296905e-002
      -7.18885884e-002 -6.84874039e-003 2.59117242e-002 5.23107834e-002
      2.60789752e-001 -2.06746906e-001 1.61241665e-001 -1.65960819e-001
      -2.42890030e-001 5.81526477e-003 -1.24646723e-001 -1.82068199e-001
      5.90924472e-002 -3.95943150e-002 -2.84205943e-001 -4.30730311e-003
      -4.99245301e-002 8.74502286e-002 -9.32901427e-002 -3.34008820e-002
      -8.60607773e-002 1.19064532e-001 -1.93134636e-001 8.47434625e-003
      1.94620281e-001 -2.98530180e-002 1.11502498e-001 1.85156167e-001
      2.11221308e-001 -2.26180226e-001 -1.55134574e-002 1.29028574e-001
      -1.16769351e-001 8.94055888e-002 -5.09882495e-002 7.58944973e-002
      1.30165860e-001 1.86608002e-001 -1.82682853e-002 9.00286064e-002
      1.58600703e-001 1.20906927e-001 7.31545091e-002 1.34091720e-001
      -6.09206595e-002 2.14661229e-002 9.87292230e-002 -2.62420118e-001
      -4.92739491e-002 9.95508656e-002 -1.21815391e-001 1.21910013e-002
      -3.34278166e-001 -3.37274149e-002 -2.86408782e-001 6.51190281e-002
      5.52385598e-002 1.20335398e-002 4.71256338e-002 8.35262910e-002
      4.21075597e-002 7.35679790e-002 -9.98337865e-002 -1.65347487e-001
      1.15434587e-001 -2.72192866e-001 1.29890725e-001 9.09949541e-002
      -3.17028999e-001 5.19629233e-002 -4.24095150e-003 1.86309367e-002
      -7.93646947e-002 3.42888653e-001 2.79477658e-003 -1.42764553e-001
      1.21996455e-001 -1.00178622e-001 1.19763903e-001 7.30533004e-002
      -5.22191338e-002 -1.12201825e-001 -1.91173300e-001 3.01965065e-002
      3.88667621e-002 5.00050001e-002 -1.76947609e-001 -3.11091151e-002
      1.41561940e-001 1.01663470e-002 -1.93795823e-002 -1.24193370e-001
      -5.82459942e-002 3.53967488e-001 1.77881807e-001 -9.01888162e-002
      8.18994269e-002 1.73542291e-001 -1.69607535e-001 1.79655198e-002
      5.45221157e-002 -1.54306024e-001 -1.81098104e-001 1.98402539e-001
      -2.63030142e-001 -7.31650218e-002 -1.96262926e-001
      -1.69939578e-001 -9.17984843e-002 1.54436707e-001 -1.50394529e-001
      4.05525677e-002 3.06356758e-001 3.54384661e-001 2.76458502e-001
      1.35470971e-001 1.26317605e-001 1.83561176e-001 9.77726355e-002
      2.55301744e-001 1.64734676e-001 1.39388606e-001 -6.12149946e-002
      -7.52044693e-002 -1.33546060e-002 2.27441952e-001 4.26762961e-002
      7.80982971e-002 8.09628442e-002 3.86882499e-002 7.69898370e-002
      2.27705762e-002 -1.51770607e-001 2.92022735e-001 2.87953019e-002
      8.94647911e-002 1.25439227e-001 -9.56112817e-002 1.86497033e-001
      1.71952516e-001 2.14391500e-002 7.97827020e-002 7.76883736e-002
      7.98175633e-002 -9.20142457e-002 -1.87964980e-002 -2.58470178e-001
      1.18937090e-001 2.58042842e-001 3.02725106e-001 2.56953165e-002
      7.28988051e-002 1.21283501e-001 4.01089378e-002 -1.49598509e-001
      -1.20461397e-001 -1.50230706e-001 -4.04183194e-002
      -1.54543877e-001 4.22616070e-003 1.56622112e-001 -5.35193942e-002
      -1.79405272e-001 -1.99930333e-002 -7.81446248e-002
      -5.49945831e-002 -4.31082509e-002 -3.60308029e-002 1.87278941e-001
      -1.77521214e-001 -3.55675779e-002 -4.37399819e-002 2.80948970e-002
      -1.13658324e-001 -2.12668866e-001 -6.39052689e-002 1.88515961e-001
      7.75274634e-002 3.39415739e-003 4.34707897e-003 -1.63114205e-001
      2.30492905e-001 -5.33721559e-002 -2.49202222e-001 -1.13734528e-001
      -3.12246233e-002 -1.37148961e-001 -2.26880491e-001 1.03981324e-001
      -2.57571012e-001 -2.14944277e-002 -2.98234858e-002 1.31874487e-001
      1.19477861e-001 -1.73947483e-001 7.88032264e-002 2.18432114e-001
      1.51105687e-001 -2.36568525e-001 -8.91475379e-002 -3.88012156e-002
      -6.34387881e-003 2.19290573e-002 -9.94648039e-002 -8.81585032e-002
      1.84172004e-001 -1.04086623e-001 -1.26371428e-001 -7.03795552e-002
      5.03154546e-002 -1.50766864e-001 1.68265983e-001 -2.09386840e-001
      2.60430686e-002 -1.04455240e-001 1.32461756e-001 -7.18938559e-002
      -1.82499215e-002 8.51403028e-002 1.58008963e-001 6.35786355e-002
      -3.00263911e-002 -2.48892486e-001 7.57022426e-002 -5.89906015e-002
      -2.63621628e-001 9.47460830e-002 -5.26147857e-002 -1.58185452e-001
      2.46045161e-002 1.51099965e-001 -2.09019378e-001 -1.12337939e-001
      2.30400443e-001 9.57780629e-002 -1.43568218e-002 -1.02147676e-001
      -6.54209107e-002 -1.38470024e-001 2.28251964e-001 2.00958073e-001
      1.71151206e-001 -2.07491547e-001 -2.04253554e-001 4.96135503e-002
      3.28681916e-002 -3.90349962e-002 9.85959638e-003 -1.62691232e-002
      -1.91231370e-002 -1.29065350e-001 2.61642318e-003 -1.00945532e-001
      3.72548491e-001 -1.88315019e-001 -2.07557932e-001 -5.85359521e-002
      5.66293858e-002 -6.66076317e-002 -8.37373137e-002 -7.18110008e-003
      9.36665200e-003 -3.10156226e-001 7.47043192e-002 1.76300220e-002
      6.67451471e-002 7.36708269e-002 -1.61602423e-001 -1.00841679e-001
      -5.78151792e-002 -2.33649760e-001 2.22082157e-002 -8.23731592e-004
      1.23937048e-001 2.89581344e-002 -2.79706847e-002 1.84246942e-001
      -2.24528387e-002 1.17619693e-001 -7.71039426e-002 3.66356336e-002
      -1.49328679e-001 -2.72202101e-002 -8.44090525e-003 1.00570664e-001
      -6.30057901e-002 -2.79648870e-001 -1.32601999e-003
      -5.86887449e-002 3.76935937e-002 -1.49684185e-002 -1.27090231e-001
      -1.91331327e-001 -2.68814433e-002 -2.62983978e-001
      -2.26342335e-001 1.46930277e-001 -1.17303789e-001 -4.13143598e-002
