<?xml version="1.0"?>
<opencv_storage>
<my_svm type_id="opencv-ml-svm">
  <svm_type>C_SVC</svm_type>
  <kernel><type>LINEAR</type></kernel>
  <C>1.</C>
  <term_criteria><epsilon>2.2204460492503131e-016</epsilon>
    <iterations>100000</iterations></term_criteria>
  <var_all>4284</var_all>
  <var_count>4284</var_count>
  <class_count>2</class_count>
  <class_labels type_id="opencv-matrix">
    <rows>1</rows>
    <cols>2</cols>
    <dt>i</dt>
    <data>
      -1 1</data></class_labels>
  <sv_total>1</sv_total>
  <support_vectors>
    <_>
      1.81250013e-002 1.42995536e-001 4.14429069e-001 2.99140900e-001
      -3.78636569e-001 3.23314250e-001 1.28599882e-001 -7.26912841e-002
      1.26814013e-002 -1.68003827e-001 -1.08619533e-001 3.11049551e-001
      -3.29188071e-002 -4.52768147e-001 1.24508530e-001 8.70198198e-003
      -1.44376010e-001 -3.59155238e-001 1.88768938e-001 -4.06457037e-002
      -1.75133422e-002 6.55051544e-002 -1.67393148e-001 1.01904817e-001
      2.31119730e-002 -1.23417504e-001 1.96227431e-001 -3.17273363e-002
      -1.51033431e-001 2.50943482e-001 9.98729542e-002 7.19094425e-002
      3.99364494e-002 1.26162765e-003 -2.72852957e-001 -1.64859399e-001
      -3.70373614e-002 -1.01593003e-001 1.53624266e-001 5.18230461e-002
      -3.59147489e-001 1.35491595e-001 -8.21030065e-002 -1.15697891e-001
      -1.52541488e-001 8.28525051e-002 -2.06536148e-002 2.73335695e-001
      2.50669211e-001 -3.19262743e-001 -2.60558538e-002 2.25967411e-002
      -7.54750669e-002 -1.48264438e-001 6.88923821e-002 -7.18042329e-002
      5.41404763e-004 -8.49768594e-002 9.69931707e-002 -1.63332686e-001
      4.18958068e-002 3.66475284e-002 1.79071844e-001 -3.15448008e-002
      -1.41357735e-001 -1.02447895e-002 1.36520863e-001 -6.58745170e-002
      -2.24456545e-002 1.25077009e-001 -1.79193243e-002 1.44538451e-002
      2.19881773e-001 6.53655902e-002 -1.61708534e-001 -5.84767945e-003
      -4.64560121e-001 8.65519494e-002 1.88441366e-001 7.84019828e-002
      -6.66707009e-002 1.46441430e-001 -3.04551097e-003 -2.05312118e-001
      6.62709773e-002 -3.79845977e-001 -1.76840276e-001 2.12923020e-001
      -2.74490714e-002 -3.30470689e-002 2.25355878e-001 -1.44405633e-001
      -2.52595961e-001 -8.48887637e-002 -1.87934428e-001 1.17806885e-002
      7.54922256e-002 6.08053152e-003 4.02320139e-002 9.14440751e-002
      -1.33518696e-001 -5.96181676e-002 8.51324499e-002 3.99223380e-002
      1.69364646e-001 3.49921882e-001 -4.99004722e-002 -1.38698995e-001
      -9.93983671e-002 -2.14249656e-001 -1.47980958e-001 1.20679490e-001
      -4.99662310e-001 -1.38261154e-001 5.65195456e-002 8.58666897e-002
      6.90743700e-002 -1.78438067e-001 -1.67782992e-001 1.94823414e-001
      2.94116139e-001 -9.56822485e-002 -3.17276359e-001 2.79090166e-001
      4.95860651e-002 -5.83058111e-002 -8.30699652e-002 -2.02349752e-001
      -5.97344376e-002 1.90402597e-001 -1.80822730e-001 7.84266293e-002
      1.91153422e-001 9.71848741e-002 -3.00397053e-002 -2.57154331e-002
      -3.52731645e-001 2.75163829e-001 1.21827140e-001 -5.16710766e-002
      2.02291504e-001 2.51445770e-001 6.89499602e-002 1.84326479e-003
      -3.04193586e-001 -1.97670564e-001 -2.18972862e-002 2.02663645e-001
      -3.68165404e-001 -5.18639624e-001 1.82675019e-001 -5.17420582e-002
      -1.47707447e-001 -1.67642519e-001 -2.28621736e-001 5.51332384e-002
      8.67537931e-002 -3.92682016e-001 -2.49635562e-001 1.59589231e-001
      -8.89690965e-003 -2.80155540e-002 -1.24727935e-001
      -2.25613222e-001 7.23511353e-002 8.74162018e-002 6.60835132e-002
      4.80431020e-002 1.70900896e-002 -2.89748199e-002 -7.59616420e-002
      9.64308307e-002 -1.16950996e-001 9.71480310e-002 -1.19036026e-002
      -6.81599602e-002 1.18063122e-001 1.36796907e-001 -6.43953830e-002
      -8.35581720e-002 -1.27138615e-001 -2.34016791e-001
      -6.81206658e-002 6.60739914e-002 -4.82984960e-001 -2.83672690e-001
      1.24344945e-001 -1.05820270e-002 -1.11923493e-001 -1.12451524e-001
      -1.27377987e-001 1.36598289e-001 1.01459727e-001 -2.04831362e-001
      -8.69708136e-002 1.13188334e-001 -1.54447868e-001 -9.96694043e-002
      2.21495524e-001 -9.26486924e-002 -4.46233004e-002 -6.38934523e-002
      -7.76805058e-002 -2.77416240e-002 2.18946010e-001 2.80420054e-002
      -1.27329633e-001 9.32634845e-002 -3.30998003e-002 2.84535497e-001
      6.80210888e-002 1.45706639e-001 1.85104266e-001 2.25106180e-001
      -1.65844813e-001 -1.24024063e-001 -3.57196890e-002
      -2.53361285e-001 3.97675723e-001 -1.87254772e-002 -3.36209357e-001
      -2.35153094e-001 -8.34349170e-002 -1.41814221e-002 4.21835296e-003
      -4.08141375e-001 -3.71739805e-001 2.91846484e-001 3.35495174e-001
      -1.07602492e-001 6.11310005e-002 8.64726305e-002 -2.89084353e-002
      -1.02349184e-001 1.07767293e-002 -2.34558329e-001 1.48155168e-001
      -8.90234634e-002 -1.02989972e-001 -1.31612062e-001
      -8.62476230e-003 -4.97296415e-002 -9.10332724e-002
      -1.18684052e-002 -1.64293841e-001 1.44245699e-001 7.96280205e-002
      5.67076728e-002 -1.53850079e-001 2.57194549e-001 2.43881777e-001
      1.87772244e-001 -3.11632037e-001 -1.08474314e-001 5.95034435e-002
      -1.56863302e-001 -1.72872707e-001 -2.22006485e-001 4.03549559e-002
      -9.27180424e-002 1.22892959e-002 1.00082256e-001 1.36126010e-002
      3.38615596e-001 -1.37887001e-001 -2.34408379e-001 -1.65285334e-001
      5.93898492e-003 -1.34576455e-001 1.79930590e-002 -7.80092273e-003
      -1.87562793e-001 -8.84073973e-002 -2.16344431e-001 2.12846309e-001
      -5.14422730e-002 1.22111455e-001 -6.04608506e-002 -7.78433233e-002
      -5.61818387e-003 -1.32088801e-002 1.58598334e-001 -9.40347388e-002
      1.35011464e-001 -7.46169686e-002 6.48236710e-006 -2.17468947e-001
      6.17090017e-002 1.03732884e-001 7.02539384e-002 1.93223342e-001
      -1.16830848e-001 -1.85516939e-001 -2.51093417e-001 2.02738374e-001
      -1.73232019e-001 -2.39938438e-001 -1.46201933e-002
      -1.54617026e-001 1.14229299e-001 -1.20641395e-001 -9.47200730e-002
      5.23839928e-002 2.22617343e-001 -1.83542445e-002 -1.11169204e-001
      -1.66446671e-001 4.67032976e-002 -2.84375641e-002 -1.32585406e-001
      6.51620775e-002 -2.54643381e-001 6.15548901e-002 -1.22706674e-001
      -4.60382879e-001 -5.63423038e-002 -3.63196991e-002 2.53831949e-002
      -1.16651058e-001 1.22944213e-001 6.47930205e-002 3.38005453e-001
      4.14630547e-002 -1.49012804e-001 -9.81603339e-002 -3.93646695e-002
      7.70109594e-002 -3.15146178e-001 1.14743132e-002 -1.21059664e-001
      7.39051402e-002 -7.98143968e-002 -1.89110711e-001 8.52148533e-002
      -4.40317057e-002 5.10202870e-002 8.18341300e-002 -3.60413522e-001
      1.28994510e-001 2.17978373e-001 -6.61034510e-002 -8.51454772e-003
      -1.47000432e-001 -1.60451084e-001 -1.73572049e-001
      -5.88973880e-001 5.92694171e-002 -3.01593542e-001 -3.53768878e-002
      -2.39882439e-001 -4.93845604e-002 4.15582620e-002 1.43824130e-001
      2.36420296e-002 -5.32300770e-002 3.09945568e-002 -8.77317935e-002
      9.83335823e-002 -2.92113155e-001 7.58527825e-003 -1.61847472e-001
      -5.09785898e-002 5.30834403e-003 2.66981777e-002 -5.81483953e-002
      2.37756018e-002 6.10530339e-002 -2.94633931e-003 1.07208721e-001
      5.65120503e-002 -2.04447284e-002 6.05520532e-002 -6.21167431e-003
      -1.07915945e-001 4.42528129e-002 1.33201480e-001 3.42606962e-001
      6.30640537e-002 -1.07619993e-001 1.33942321e-001 2.34864783e-002
      -2.68969834e-001 7.69885257e-002 -3.10313970e-001 -1.55684903e-001
      -2.58954410e-002 -7.16819316e-002 2.77090743e-002 1.32780254e-001
      2.74623539e-002 -2.91499682e-002 1.45785585e-001 -1.89157166e-002
      5.59713356e-002 7.28276148e-002 -4.92582545e-002 1.40208181e-003
      9.03724730e-002 1.57274067e-001 -1.75002635e-001 -2.12961465e-001
      -6.08994849e-002 1.88096002e-001 1.47147626e-001 1.33209497e-001
      1.12773413e-002 1.09500594e-001 3.14974785e-002 1.08662009e-001
      6.47090748e-002 -1.25556588e-002 2.28535756e-001 9.89829674e-002
      1.37313962e-001 -4.08175588e-002 1.27338156e-001 -5.69360703e-002
      -1.55265942e-001 1.05165191e-001 -9.87908095e-002 2.18434557e-001
      -5.26716486e-002 1.97714474e-002 1.81100853e-002 4.31676097e-002
      8.07519183e-002 -3.88448298e-001 2.16908053e-001 -2.54257321e-001
      9.81382206e-002 -1.28497541e-001 -6.98731106e-004 -5.56858033e-002
      1.36123031e-001 -2.11690739e-001 7.98100326e-003 -2.12600172e-001
      1.39372781e-001 1.67831004e-001 1.66830704e-001 9.00376663e-002
      2.24498898e-001 2.30526235e-002 -3.39831412e-001 -9.62538123e-002
      1.54747516e-002 -1.96950629e-001 1.05686948e-001 1.06879354e-001
      1.46237940e-001 -1.29765466e-001 -1.19818181e-001 2.32032165e-002
      -2.38997474e-001 -2.15838961e-002 -1.42029732e-001
      -1.26880795e-001 -1.01608880e-001 9.78078693e-002 -2.82336265e-001
      -2.09460020e-001 -1.32557228e-001 -1.33397087e-001 9.79368240e-002
      -1.07800961e-001 4.34190668e-002 2.95421779e-001 9.16665327e-003
      1.55245274e-001 1.41638920e-001 -3.23860943e-002 -8.20504948e-002
      -1.19927801e-001 -6.33085519e-002 4.34775092e-002 -6.18910305e-002
      2.00629070e-001 8.42465386e-002 5.16525842e-003 -1.37431085e-001
      1.74817130e-001 2.50564665e-001 1.94215149e-001 6.50473032e-003
      -7.81246722e-002 5.90012632e-002 -1.65479600e-001 -2.69580185e-001
      3.60748395e-002 -1.13366865e-001 -1.58268344e-002 -1.25776112e-001
      -1.68197498e-001 -5.81432953e-002 8.02369937e-002 -1.22557797e-001
      -7.67809004e-002 2.08453219e-002 6.92351069e-003 1.00547105e-001
      2.68615149e-002 -2.38485113e-001 -1.08007029e-001 -1.12935901e-003
      -1.33827299e-001 2.94526778e-002 -1.56638086e-001 -2.91256923e-002
      -4.91558723e-002 8.72539803e-002 -4.97099757e-002 -2.00739615e-002
      5.03622964e-002 -3.05166598e-002 1.05304062e-001 9.56238732e-002
      3.34402949e-001 9.17463899e-002 2.51925625e-002 -1.06259249e-001
      1.69287503e-001 1.20155156e-001 -1.17362849e-001 1.80209607e-001
      -4.87118997e-002 -2.17933103e-001 -7.26124942e-002
      -1.72674954e-001 -8.35723281e-002 -8.36402625e-002 7.71411881e-002
      -9.89532918e-002 -1.99263841e-002 -2.31543824e-001
      -3.17028821e-001 -4.36442718e-002 -1.61848620e-001
      -2.60751575e-001 -2.08435599e-002 -4.91823331e-002 7.08599314e-002
      2.23160699e-001 -8.06310214e-003 2.17431501e-001 -1.00193350e-002
      -9.95351188e-003 -9.77328196e-002 1.89668730e-001 1.06007617e-003
      -1.22377574e-001 -1.02926545e-001 -9.88900512e-002 2.36426890e-001
      -1.14464298e-001 2.36029580e-001 -6.44385666e-002 4.00723666e-002
      6.92879409e-002 -1.28808230e-001 -1.17858820e-001 -2.66932219e-001
      -2.75172442e-001 -2.29503103e-002 -1.22551903e-001
      -4.39985633e-001 -2.11824462e-001 -5.01670316e-002
      -6.97281957e-002 -9.32157934e-002 -2.36540228e-001
      -2.08809152e-001 2.47376878e-002 -2.52608418e-001 -1.00277044e-001
      -1.90944582e-001 -1.19898289e-001 6.34477520e-003 -1.04051888e-001
      -1.42245129e-001 1.05944194e-001 -1.81104332e-001 1.62655666e-001
      -3.31186384e-001 1.51243970e-001 8.14589262e-002 -1.07708484e-001
      1.11894291e-002 1.22334227e-001 4.27965939e-001 -1.04768850e-001
      2.72501111e-001 -8.56325254e-002 4.81821686e-001 8.32703561e-002
      -1.12555407e-001 -2.54558831e-001 -2.29863152e-001
      -3.99917513e-001 -3.72576378e-002 2.26657409e-002 -3.16973597e-001
      -2.09955692e-001 -2.72114664e-001 -2.17801675e-001 1.89700052e-002
      -9.87507701e-002 -2.54961133e-001 -1.83945268e-001
      -9.14302617e-002 -1.98148265e-001 -3.70928533e-002
      -4.16520774e-001 3.22541669e-002 3.43430713e-002 5.74190170e-002
      8.02985579e-002 -1.73688810e-002 1.09011121e-001 1.64349720e-001
      -3.61326672e-002 1.15657607e-002 -4.28536952e-001 -1.53951719e-001
      -6.90009072e-002 1.55375618e-002 -1.13722362e-001 -3.86348784e-001
      -1.06536016e-001 -6.07376220e-003 -1.22430019e-001
      -1.34770453e-001 -2.27780625e-001 1.57108679e-001 -7.62668848e-002
      -1.01368055e-001 -1.96469218e-001 8.71860832e-002 2.97382977e-002
      2.85559781e-002 -3.58047307e-001 -3.24505985e-001 3.36863473e-002
      -1.17340751e-001 -2.55150825e-001 -1.83960006e-001 3.60234767e-001
      -7.28319436e-002 -1.42039761e-001 -1.36983290e-001
      -1.75145268e-001 -1.83271185e-001 -2.44512055e-002
      -2.33186707e-001 -1.50434867e-001 -7.80567452e-002 1.43790111e-001
      6.81277141e-002 -1.22302435e-001 -2.11276859e-001 -1.29744127e-001
      -4.65749763e-003 -1.20873027e-001 -7.14975372e-002 2.89045386e-002
      -9.12641510e-002 1.76210627e-002 -4.16456014e-002 -9.46793184e-002
      -5.39955720e-002 6.58356696e-002 -1.53070137e-001 -9.31374133e-002
      1.92942694e-001 -3.39734256e-002 -4.31887098e-002 -6.84961751e-002
      -1.31346300e-001 -2.04492938e-002 -1.08329736e-001
      -1.02052547e-001 1.11689949e-002 3.64271514e-002 -1.47757947e-001
      4.81746458e-002 8.10418203e-002 -1.27126873e-001 -3.92265648e-001
      -1.18099697e-001 -2.32892260e-001 8.39258581e-002 -1.51765212e-001
      -1.90861225e-001 9.21161398e-002 7.03279898e-002 -1.68103307e-001
      -1.30167440e-001 1.60354093e-001 3.51309888e-002 1.80543765e-001
      2.46711262e-002 -1.64935932e-001 -2.61094123e-002 1.71796381e-001
      3.80126014e-002 -1.90309569e-001 -5.33212386e-002 -3.35610844e-002
      -1.41084209e-001 -1.00024469e-001 -1.44721800e-002 2.14579374e-001
      1.42204966e-002 -1.52166456e-001 1.45091489e-003 1.15291514e-001
      1.88336167e-002 6.64777234e-002 2.67722100e-001 1.07442610e-001
      1.87274396e-001 1.51938364e-001 -4.37202379e-002 -6.05744906e-002
      1.15213655e-001 -3.70258689e-002 -5.85035309e-002 1.89530142e-002
      -7.19253793e-002 1.73072159e-001 3.49187344e-001 5.36451526e-002
      7.79105201e-002 3.99383344e-002 -1.38969898e-001 -4.26867045e-002
      -1.28577515e-001 -7.27770850e-002 8.91293362e-002 -2.99215857e-002
      -2.71359712e-001 -2.95856707e-002 1.15035642e-002 -6.57814294e-002
      -1.66565284e-001 1.18398145e-001 -7.27400603e-003 2.96103895e-001
      1.07198514e-001 -3.40300977e-001 -5.70580326e-002 7.03795440e-003
      2.11243588e-003 -7.96514601e-002 1.65076151e-001 -1.43595964e-001
      1.29480824e-001 -8.26365650e-002 -1.00701869e-001 -9.06638354e-002
      -7.70198852e-002 -6.35321289e-002 6.36022314e-002 -8.03761259e-002
      -1.71185657e-001 -2.21924335e-001 8.31110477e-002 4.91038570e-003
      -2.16140240e-001 -3.52841392e-002 -3.44540030e-002 1.75745234e-001
      -1.00997398e-002 5.82516426e-004 -1.80655226e-001 6.31874008e-003
      -7.58651569e-002 -1.69514611e-001 -8.98642093e-002
      -1.18512094e-001 -2.16234341e-001 2.65667945e-001 -1.03198268e-001
      -1.05143614e-001 5.92557602e-002 1.79267496e-001 -1.67642571e-002
      -3.16657685e-002 9.89760235e-002 1.41880244e-001 1.50961265e-001
      1.18191838e-001 1.21305855e-002 5.65093085e-002 -2.43725926e-001
      -2.95457810e-001 -4.45546731e-002 1.63210064e-001 -1.87094003e-001
      5.17131649e-002 4.45681922e-002 5.18719899e-003 -4.20943469e-001
      -2.03249916e-001 5.41722309e-003 1.62043288e-001 1.08249284e-001
      -7.44943274e-003 1.04814574e-001 -9.78825018e-002 1.90752670e-002
      -9.88539830e-002 -1.12143926e-001 -7.74012040e-003
      -4.65035699e-002 2.78745681e-001 7.34072626e-002 6.92941323e-002
      5.99816674e-003 -1.38662726e-001 5.94874956e-002 -9.14025232e-002
      3.02589238e-002 2.13087201e-001 2.17352346e-001 -9.96071994e-002
      1.84832469e-001 1.96471289e-001 1.51844114e-001 -1.11068994e-001
      -2.34452158e-001 -1.31042525e-001 -1.34752616e-001
      -1.45998552e-001 -2.62944341e-001 -1.57938257e-001 2.50950325e-002
      2.32288558e-002 9.42681208e-002 -2.71841615e-001 1.07976548e-001
      -1.60156600e-002 1.20834541e-002 -3.28159273e-001 -1.43053964e-001
      3.92491184e-002 2.64478009e-002 -4.75240275e-002 -7.97163919e-002
      -2.39608157e-002 -6.49002567e-002 5.53555265e-002 -1.11937016e-001
      -1.45836622e-001 2.08944783e-001 9.15097147e-002 -1.21520599e-002
      -4.45291102e-002 1.99478325e-002 -1.01996832e-001 1.16764575e-001
      3.38241421e-002 1.12941794e-001 1.78581312e-001 -1.56215001e-002
      2.53744066e-001 -5.55018149e-002 -4.53559309e-002 -1.03270844e-001
      -1.23589918e-001 -1.32651940e-001 -1.71847671e-001
      -3.04223180e-001 -1.67291149e-001 8.68696198e-002 5.54902293e-002
      1.43547237e-001 7.32057691e-002 7.41727129e-002 -1.37259826e-001
      -6.93870634e-002 -6.57986179e-002 -1.14044808e-001 2.37470903e-002
      -6.20127795e-003 -4.50986139e-002 -6.01254292e-002
      -6.59258440e-002 -2.50467896e-001 -2.27699220e-001
      -1.62958011e-001 -1.83191866e-001 -4.64416891e-002 1.00833967e-001
      1.49913430e-001 5.44873290e-002 9.02234926e-004 8.21006671e-003
      -2.75748111e-002 1.10517055e-001 -1.23404413e-001 1.57886017e-002
      1.18079549e-002 -1.45276412e-001 2.95328237e-002 -2.83092428e-002
      -2.19886363e-001 -1.49442494e-001 -7.34220445e-002
      -2.46500999e-001 1.00316286e-001 6.58147829e-003 -7.17696995e-002
      1.68567941e-001 -5.08031137e-002 -1.55837312e-001 -1.10134505e-001
      4.31890897e-002 -9.20701101e-002 -1.04641035e-001 -8.07789788e-002
      -7.04817250e-002 -1.67725861e-001 8.23152289e-002 -2.57968962e-001
      -2.91111141e-001 -1.28896967e-001 -1.06040731e-001 1.99525848e-001
      1.36731699e-001 6.20017163e-002 -9.82188284e-002 9.86527354e-002
      9.12286490e-002 -3.27071846e-002 1.10135451e-001 -3.36233154e-002
      2.64574569e-002 -1.23174012e-001 -7.53743798e-002 -2.29510739e-001
      5.85721768e-002 -3.89271319e-001 9.36976671e-002 -1.43789500e-002
      -1.34330884e-001 1.96158886e-002 3.43210697e-002 -9.11303386e-002
      -1.91632453e-002 1.19442962e-001 1.22188903e-001 1.52520180e-001
      -1.59992859e-001 -1.33503959e-001 1.35873053e-002 1.14127979e-001
      -1.64829612e-001 -3.91746551e-001 1.34336371e-002 -2.41848901e-001
      -6.25457019e-002 -1.49190590e-001 -2.61795282e-001 8.68655518e-002
      2.53575474e-001 5.98199433e-003 -1.40697584e-001 9.19199288e-002
      -8.91724303e-002 8.91716331e-002 -5.42356074e-002 -7.28408843e-002
      -7.18635172e-002 1.93847343e-001 -1.26887755e-002 3.48402336e-002
      1.21550180e-001 3.50740403e-002 2.39179134e-001 2.03414515e-001
      -5.85170649e-002 -1.66156411e-001 -9.66069549e-002 7.43570328e-002
      2.74584800e-001 1.04405053e-001 2.57399440e-001 1.74652219e-001
      2.18621030e-001 -1.13899045e-001 6.16682135e-002 1.20123550e-001
      -4.88287397e-002 -1.00312017e-001 -1.41861424e-001
      -2.00307399e-001 5.34273759e-002 2.06030726e-001 2.45458201e-001
      -2.00787671e-002 -1.15425214e-002 7.12894881e-003 6.40221611e-002
      -1.69774070e-001 4.53186929e-002 1.26491323e-001 3.22808586e-002
      7.67591074e-002 7.18086809e-002 -3.53456885e-002 -4.91358759e-003
      1.19861007e-001 2.71676350e-002 9.22425091e-002 2.52277732e-001
      1.85677856e-001 7.92885274e-002 1.51082240e-002 2.52510309e-002
      1.17088988e-001 -3.73445265e-002 2.27435514e-001 1.29484043e-001
      9.84997675e-002 -9.41456482e-002 -1.07923411e-001 2.83432007e-002
      1.94668099e-001 -1.71975419e-002 -1.25671893e-001 -1.96478918e-001
      -9.96754169e-002 4.98172641e-002 -5.73286191e-002 7.65704289e-002
      -1.55765470e-002 1.42941847e-001 1.40953153e-001 -1.51058763e-001
      5.62294610e-002 6.06401227e-002 7.93147981e-002 -1.43935591e-001
      -1.10150062e-001 -1.38316639e-002 6.91195577e-002 1.51994765e-001
      1.94449618e-001 -5.92063405e-002 1.97349489e-001 2.66157299e-001
      -1.34442495e-002 -5.33121750e-002 -1.31902564e-002
      -1.23232845e-002 7.34758005e-002 1.85712412e-001 1.57239705e-001
      1.83010668e-001 1.53675511e-001 1.54938221e-001 1.73171446e-001
      7.94483274e-002 3.72857600e-002 6.09677238e-003 1.37453084e-003
      -1.82531968e-001 -1.28886983e-001 -4.05714326e-002
      -2.25227810e-002 -1.03478432e-001 -9.60341692e-002 3.18896654e-003
      1.69895217e-001 3.28492373e-003 9.30149015e-003 -2.93953111e-003
      1.56946570e-001 2.07354337e-001 7.91380554e-002 -1.77713670e-002
      -5.79134896e-002 1.62500307e-001 2.41000921e-001 -9.67396945e-002
      7.35184923e-002 4.64959592e-002 8.30480233e-002 1.28518999e-001
      -3.05047873e-002 -1.60164848e-001 2.45691147e-002 5.91268539e-002
      8.93469527e-002 2.41212055e-001 -5.16327135e-002 3.60534526e-002
      2.37180114e-001 -9.65913162e-002 1.07452027e-001 6.41886517e-002
      1.81520097e-002 -1.94934160e-001 -1.99976817e-001 -1.02176368e-002
      2.52769858e-001 -9.17773880e-003 -7.16641033e-003 1.24000043e-001
      4.71389294e-002 1.19023360e-001 -4.79645729e-002 2.74411231e-001
      -2.05543861e-002 1.70446057e-002 1.21537568e-002 -1.07580994e-003
      -6.61555603e-002 -9.78707746e-002 -4.18404080e-002
      -1.74528044e-002 1.13007769e-001 1.20601520e-001 1.89305335e-001
      1.70029357e-001 6.71866387e-002 -5.31614348e-002 -1.51840955e-001
      6.62247166e-002 1.96126148e-001 6.17817715e-002 1.02721244e-001
      1.73287809e-001 5.11130765e-002 -7.76310265e-002 3.03866025e-002
      1.26244947e-001 -1.60351485e-001 -2.13022381e-001 -7.49400780e-002
      -9.74086598e-002 9.82598308e-003 1.35726377e-001 2.70620733e-002
      1.12684302e-001 -1.55590013e-001 1.19808644e-001 -1.48359001e-001
      -3.21694650e-002 1.07754476e-001 2.44414583e-001 -6.36201054e-002
      7.58881401e-003 2.75823586e-002 -6.87933248e-003 1.30369380e-001
      -4.38248701e-002 2.26843536e-001 -1.39383003e-001 -1.14451461e-001
      -8.87793452e-002 4.07713614e-002 -2.71234661e-002 1.73341051e-001
      1.57148108e-001 5.25767393e-002 1.45809531e-001 -1.08726129e-001
      -1.09097473e-002 6.70019537e-002 6.39157668e-002 1.25743359e-001
      -1.41781464e-001 -2.03256607e-002 -8.81306529e-002
      -3.11764656e-003 -2.51321495e-003 1.57961901e-002 -2.09591180e-001
      -1.02538839e-001 3.27073823e-004 -9.32266787e-002 -1.29094318e-001
      -1.14204800e-002 9.42504108e-002 1.35206431e-001 -8.46071020e-002
      -1.26430780e-001 2.37473682e-001 3.26333642e-002 9.20956731e-002
      2.40393225e-002 -5.15161641e-002 9.33828130e-002 -1.44600525e-001
      -6.88588917e-002 1.28636420e-001 5.91555126e-002 2.32664853e-001
      1.14093879e-002 1.98805034e-001 -1.86205238e-001 3.27563703e-001
      -1.95159629e-001 6.99962378e-002 -2.97184717e-002 1.27544999e-001
      -6.80281073e-002 -6.07162118e-002 -8.53432268e-002
      -1.46061733e-001 4.46982458e-002 -2.78636485e-001 -9.85038653e-002
      1.03514619e-001 -5.90766519e-002 2.67470807e-001 -1.32933091e-002
      8.33685622e-002 -1.87535286e-001 1.89727813e-001 -1.84713036e-001
      7.52278715e-002 -1.69089716e-002 -7.49300793e-002 -2.51697935e-003
      -1.81012914e-001 -1.84023172e-001 -8.53552949e-003
      -7.10894093e-002 -1.85404986e-001 8.10141116e-002 2.40533184e-002
      2.83860061e-002 -1.75097436e-001 -2.44716574e-002 6.28186986e-002
      1.11730089e-002 -3.11977506e-001 -2.57026553e-002 -2.35860854e-001
      -4.13670354e-002 -4.35944125e-002 -7.18045756e-002
      -1.56932384e-001 4.02490124e-002 8.41243714e-002 -9.44044441e-002
      -9.08482820e-002 2.78742164e-002 -3.02440356e-002 5.65440170e-002
      9.81786102e-003 -6.98822215e-002 -1.30815446e-001 1.08381949e-001
      3.94384675e-002 9.45856273e-002 -2.52408803e-001 -5.85187413e-002
      1.12384126e-001 -1.22068229e-003 -3.89216915e-002 -7.20773917e-003
      -1.85120981e-002 -1.22639850e-001 -1.90779328e-001
      -3.90025288e-001 9.36983339e-003 9.75526199e-002 -1.77619308e-001
      -1.35082051e-001 5.69184907e-002 -1.60082608e-001 -1.24861144e-001
      -1.03861183e-001 -1.71630830e-001 -3.72599717e-003
      -3.38090099e-002 1.87827852e-002 -1.16757177e-001 -8.26266557e-002
      -2.54745126e-001 -1.73400000e-001 -2.49381021e-001
      -2.10774586e-001 -5.04196854e-003 7.86191225e-002 6.14463463e-002
      -1.17767103e-001 1.17515452e-001 -1.27619937e-001 -2.24865586e-001
      -1.40758902e-001 -2.22477794e-001 -1.43543938e-002
      -7.54433349e-002 -1.11237243e-001 -1.30942225e-001 1.76233388e-002
      -2.03177799e-002 -3.96563224e-002 -3.06745440e-001
      -5.24481386e-002 1.24143362e-002 -1.60095453e-001 -1.88112363e-001
      7.87528977e-002 2.00151652e-001 1.02079762e-002 2.83395238e-002
      -5.04419487e-003 -1.20207988e-001 1.16130598e-002 -2.60283351e-002
      -1.19867072e-001 -1.15552500e-001 -2.34419424e-002 5.07252216e-002
      -2.04660624e-001 -1.88925043e-001 -1.55839056e-001
      -1.17148235e-002 1.97710156e-001 -2.26545572e-001 -3.27485241e-002
      -1.16980210e-001 -2.26080447e-001 -1.45296201e-001 6.00578263e-002
      -1.11097731e-001 1.44172594e-001 -6.37585819e-002 -4.58895624e-001
      -1.96758628e-001 1.06505118e-002 6.61987886e-002 -6.34833053e-002
      -1.40300170e-001 -4.29853916e-001 6.98265284e-002 -2.05802098e-002
      -3.45433652e-001 -1.36702269e-001 -2.16711640e-001 2.46795062e-002
      -1.96707193e-002 2.01452106e-001 -1.10537492e-001 2.16776356e-002
      2.18012050e-001 -3.08219731e-001 -2.05613226e-001 -2.40668267e-001
      -5.42111993e-002 -3.08055460e-001 -2.17448398e-001
      -2.21908838e-001 1.57766774e-001 2.56035924e-001 4.96007949e-002
      -5.77723957e-004 -3.14748913e-001 -1.05245098e-001
      -1.10837832e-001 -9.95329171e-002 -8.29531103e-002 2.52331555e-001
      1.68989524e-002 -2.62649715e-001 -2.02126175e-001 -2.90118814e-001
      2.79278873e-004 5.44352233e-002 -4.32367325e-002 -3.21698815e-001
      -8.95244330e-002 -2.81291152e-003 6.31688461e-002 -3.90709713e-002
      -9.80697572e-002 1.51479691e-001 -9.59240124e-002 -4.15712260e-002
      -1.26407295e-001 -1.34041324e-001 -1.53138757e-001
      -1.39754221e-001 -4.78156917e-002 -1.89749449e-001
      -1.17952324e-001 -1.02435192e-002 -1.02001704e-001
      -3.12969834e-001 -2.06845820e-001 -2.77211163e-002
      -9.68257412e-002 -4.64392640e-002 -1.34113163e-001 5.47513887e-002
      -1.85606051e-002 -1.44939080e-001 -2.19956338e-001
      -2.55044475e-002 -1.44018590e-001 -9.52159762e-002 1.05608413e-002
      -3.31000626e-001 1.67476118e-001 -1.15190506e-001 1.62979718e-002
      -1.09696142e-001 -1.23212688e-001 4.23655622e-002 1.15786691e-003
      -6.55657705e-003 1.32104522e-002 1.99703142e-001 -1.33250326e-001
      -1.57744199e-001 5.33072315e-002 -7.06431270e-003 -1.72365770e-001
      -7.76232556e-002 4.03240323e-002 -2.52236873e-001 2.29436662e-002
      -2.22059682e-001 1.46075621e-001 6.37184829e-002 4.62760255e-002
      -1.08882047e-001 1.32152081e-001 2.14616910e-001 -1.34908959e-001
      2.01036468e-001 3.83547484e-003 1.07297651e-001 1.83510073e-002
      2.21721898e-003 -6.54984936e-002 -1.95033606e-002 -6.01829439e-002
      -1.27005547e-001 2.48836465e-002 -2.85881851e-002 -1.44449309e-001
      1.62451968e-001 -6.11578375e-002 -2.19005913e-001 -2.16478795e-001
      -1.31446034e-001 -3.93350795e-002 -1.95975248e-002 2.73515005e-002
      1.07023902e-001 3.78438197e-002 -1.34690478e-001 -6.94676191e-002
      1.30512819e-001 1.44810960e-001 -1.12049811e-001 1.63180679e-001
      -2.57995841e-003 -8.47233608e-002 -1.38084307e-001 7.46420398e-002
      -3.13353240e-001 7.95272440e-002 1.88694909e-001 -8.74858573e-002
      -5.39619010e-003 -1.48954606e-002 3.82480584e-003 2.49525178e-002
      -1.33283451e-001 -1.20573528e-001 -9.35457647e-003 3.24769504e-003
      -1.12654567e-001 4.61874902e-002 -3.59188691e-002 -1.40170893e-003
      -9.65972096e-002 -1.67589098e-001 2.48834174e-002 6.46992475e-002
      8.84681791e-002 7.01391175e-002 1.02646537e-001 -6.17573084e-003
      -2.73721442e-002 2.23657973e-002 -1.77972764e-001 -2.06666738e-001
      1.08098127e-002 7.56591335e-002 -9.17660445e-002 -2.36421004e-002
      -1.46062180e-001 -1.06525294e-001 3.72185595e-002 -2.12753683e-001
      -1.40880197e-002 1.26220852e-001 4.17960398e-002 -2.54271608e-002
      -9.71186534e-002 2.51218416e-002 -6.80699795e-002 -5.48656881e-002
      -8.70715082e-002 -7.84935355e-002 -1.53004602e-001
      -4.08057943e-002 1.99193377e-002 8.58501494e-002 -2.41062224e-001
      -2.14140549e-001 1.04812205e-001 -1.73167199e-001 3.01984578e-001
      4.18047532e-002 1.48320779e-001 -1.16690539e-001 9.99277905e-002
      -2.58769430e-002 4.31000851e-002 5.22112809e-002 -2.41323709e-002
      -3.18746775e-001 1.33576728e-002 9.20263156e-002 5.31592332e-002
      -4.89454195e-002 -1.23143032e-001 -1.43449619e-001 4.67772968e-002
      -1.42843410e-001 -8.29288289e-002 1.15712188e-001 1.97091755e-002
      -9.11831111e-002 8.15981105e-002 -4.77284007e-002 2.12879609e-002
      6.97965994e-002 2.61276037e-001 2.16864780e-001 8.51095542e-002
      1.67296618e-001 -1.42848775e-001 -2.99388580e-002 -9.50397924e-002
      -9.06579643e-002 -1.96450427e-002 -6.52238578e-002
      -7.50716403e-002 -2.57437136e-002 1.40211970e-001 1.18441209e-001
      1.52208686e-001 4.33495790e-002 -7.12010041e-002 -1.05184399e-001
      -8.62508491e-002 -2.06090845e-002 -4.73709553e-002 1.54759005e-001
      -5.86917400e-002 -1.61690921e-001 -4.18802410e-001
      -7.14478865e-002 -2.08289221e-001 1.62596971e-001 8.05133060e-002
      -2.86549665e-002 2.07151219e-001 -9.12933648e-002 -6.03852561e-003
      -1.44233495e-001 4.27345894e-002 -7.32593834e-002 4.37568352e-002
      -1.15988869e-003 -1.02540180e-001 1.43264949e-001 7.36878067e-003
      1.63174987e-001 2.75508985e-002 1.52509645e-001 4.19258652e-003
      9.59418491e-002 -1.02603836e-002 -1.02754429e-001 1.50168180e-001
      2.81359494e-001 2.61292726e-001 1.01097248e-001 9.70431603e-003
      -2.33956963e-001 -1.41457930e-001 -1.35719299e-001
      -3.13380994e-002 1.91088110e-001 -1.09434098e-001 7.91527331e-003
      -6.35491610e-002 -5.31247060e-004 -5.72763756e-002
      -1.63966656e-001 7.66898915e-002 2.52225362e-002 3.05698425e-001
      2.11423755e-001 4.50208224e-002 5.84541447e-002 8.45778808e-002
      -2.24255860e-001 1.32234469e-001 2.70740241e-002 1.22329080e-002
      5.18728234e-003 -4.51159775e-002 1.96775272e-001 1.65299401e-001
      1.12031750e-001 -4.35056398e-003 8.72425511e-002 -3.15014213e-001
      4.11682315e-002 -1.00122906e-001 -5.34807146e-003 2.64074087e-001
      1.70962866e-002 5.40610999e-002 -1.30664706e-001 -1.26857549e-001
      5.81641272e-002 1.23431496e-001 -7.95852467e-002 -1.72367692e-001
      8.93415660e-002 -4.15271223e-002 1.80506676e-001 -1.28240228e-001
      2.73994990e-002 -3.45255248e-002 2.61879284e-002 -1.15249725e-002
      7.36883748e-003 8.06371346e-002 1.93292629e-002 1.79474026e-001
      -6.33762553e-002 -1.61639839e-001 -1.01884529e-002
      -1.49553552e-001 2.99797282e-002 1.53941633e-002 2.88734045e-002
      -2.61811346e-001 -1.65936500e-001 -2.76518434e-001 4.93924394e-002
      8.27385336e-002 1.61150433e-002 1.56378090e-001 1.92749262e-001
      1.38408989e-001 1.09912731e-001 1.33433700e-001 -3.61870490e-002
      1.16120815e-001 9.07314792e-002 2.33508050e-001 -8.62045866e-003
      4.33152094e-002 -3.49192545e-002 -1.45537719e-001 3.05595994e-002
      -2.49002799e-001 4.62735109e-002 -6.29372299e-002 1.29004374e-001
      1.03697568e-001 1.61271885e-001 2.08597958e-001 1.54261038e-001
      1.91511333e-001 1.86040133e-001 -7.20791817e-002 -3.03998105e-002
      7.36921728e-002 -3.10029518e-002 1.11463191e-002 8.65567196e-003
      -6.95946664e-002 -1.36427199e-002 -1.67525634e-002 6.83990791e-002
      -4.26853299e-002 3.16422880e-002 -1.36335105e-001 2.88774222e-001
      1.77620202e-001 1.89528331e-001 2.59378869e-002 1.17682191e-002
      1.65485784e-001 -1.78438321e-001 -3.76244709e-002 -7.90379867e-002
      -1.54696539e-001 -5.22048562e-004 4.85167727e-002 -8.43163133e-002
      1.93921000e-001 -1.81254685e-001 1.97535560e-001 1.57237753e-001
      2.16621868e-002 8.30202177e-002 2.41577066e-003 2.20489815e-001
      4.04647142e-002 -1.50762960e-001 1.02123968e-001 -1.59411088e-001
      -1.18448213e-001 -9.33799073e-002 1.55670166e-001 -2.28491835e-002
      -1.85243949e-001 -1.32171124e-001 -1.99378897e-002
      -9.03005227e-002 -3.96434441e-002 5.97175164e-003 -7.61823058e-002
      3.71233732e-001 1.85927898e-001 2.07307577e-001 -9.16167274e-002
      -3.56420353e-002 1.27167702e-001 -3.48874331e-002 3.80951958e-003
      5.02524897e-003 -2.63959557e-001 -6.86308444e-002 -5.20359389e-002
      -5.08977361e-002 1.24851450e-001 -7.31429905e-002 -1.14801139e-001
      1.06573790e-001 1.14454590e-001 -2.45892517e-002 -2.02684198e-002
      -9.42953974e-002 1.57344982e-001 2.03898642e-002 4.01883386e-002
      1.07889883e-001 1.36675820e-001 -1.10814936e-001 1.59102559e-001
      1.06127881e-001 1.37023747e-001 3.28384377e-002 5.77801280e-003
      4.97855246e-002 -7.36966683e-003 -7.73841143e-003 -1.94767907e-001
      1.04627479e-002 1.44299999e-001 4.24851924e-001 1.64965570e-001
      5.25373779e-002 1.00979000e-001 3.04861236e-002 -1.34896738e-002
      -1.65015191e-001 -8.54759663e-002 -5.75769367e-003
      -8.34617466e-002 -2.15647817e-002 -2.65187085e-001 1.14798836e-001
      2.26964846e-001 2.10008875e-001 5.35594299e-002 -1.36667296e-001
      2.42492072e-002 1.12286873e-001 1.25425756e-001 4.02544579e-003
      -5.20704947e-002 -9.54219699e-003 -8.02824423e-002
      -1.65547848e-001 -2.09603049e-002 -3.52965705e-002
      -1.12281255e-002 -1.73105970e-001 -2.35310167e-001
      -1.69149220e-001 -7.88767934e-002 4.10575308e-002 -1.24125155e-002
      2.08516583e-001 1.71686694e-001 2.51354098e-001 9.53254849e-003
      1.04987770e-001 1.08172596e-001 9.19311270e-002 -1.04137272e-001
      -1.10751510e-001 -2.12618321e-001 3.13007683e-002 -2.44890347e-001
      -1.24319717e-001 1.11954883e-002 1.56967379e-002 -1.71335861e-001
      1.37010559e-001 -9.18257833e-002 -8.15848857e-002 -2.24554196e-001
      -2.05347911e-002 -1.39910728e-001 3.20731670e-001 -6.42912313e-002
      -1.68514356e-001 -1.39804080e-001 7.90824275e-003 -1.37017921e-001
      1.69294365e-002 -1.92961335e-001 -1.38521135e-001 3.89061756e-002
      -5.08158915e-002 2.75456402e-002 -1.47873610e-001 -9.75672156e-002
      -4.59355041e-002 -1.13770133e-002 -1.54524580e-001
      -1.47603884e-001 -2.02099502e-001 -2.27779210e-001 6.37062043e-002
      -1.45237431e-001 6.51324913e-002 -1.56731755e-001 -1.42346084e-001
      -2.07222909e-001 -4.73994203e-002 6.04735240e-002 -1.36965066e-001
      -1.27568036e-001 -1.14900135e-001 -1.49999782e-002 7.45240483e-004
      -1.14827149e-001 -1.37573883e-001 2.76554818e-003 -6.45938367e-002
      -3.63881327e-002 -3.43941711e-003 -7.36464337e-002
      -6.75856918e-002 -2.19509140e-001 -1.53282657e-001 6.62992103e-003
      -1.31317049e-001 1.27928304e-002 -1.41209722e-001 1.01656802e-001
      -8.83034021e-002 -3.00498635e-001 -1.37238696e-001
      -3.51338647e-002 -2.05949232e-001 8.53407457e-002 8.28913692e-003
      -9.79917273e-002 -1.63776189e-001 -7.16155097e-002
      -2.25630417e-001 -2.21516162e-001 -2.06747904e-001
      -2.14651763e-001 -7.44485334e-002 -2.82052159e-001
      -1.14242330e-001 7.03798607e-002 5.73872775e-003 -1.58032224e-001
      -1.05228491e-001 -2.38796577e-001 -4.63267595e-001 1.19006939e-001
      -2.22107857e-001 -9.99343246e-002 -9.12251100e-002
      -9.11437720e-002 -3.36074620e-001 -1.21396907e-001 5.61972745e-002
      3.09616793e-002 -8.84741023e-002 -1.75934345e-001 -1.45901501e-001
      -5.17663099e-002 -2.56576478e-001 -3.37229937e-001
      -1.71726495e-001 -7.18351826e-002 -1.23617470e-001
      -8.92245099e-002 -9.13160741e-002 3.42656747e-002 1.14324629e-001
      2.52772905e-002 -8.87660533e-002 2.52856649e-002 1.48462849e-002
      -2.76026934e-001 -1.55723408e-001 -3.03897381e-001
      -1.90917119e-001 3.05903722e-002 -1.64939523e-001 -1.86088681e-003
      7.43816271e-002 -1.08842030e-001 -1.72837108e-001 -1.43056884e-001
      -1.54947132e-001 5.61223514e-002 -4.33927625e-002 -3.23254675e-001
      -4.67930913e-001 -1.34750202e-001 4.73139286e-002 1.00818716e-001
      -1.12730660e-001 -1.74889416e-001 1.57082677e-001 4.86772954e-002
      9.02959239e-003 -1.22180089e-001 3.96184176e-002 1.03628248e-001
      9.71401408e-002 2.88881846e-002 -9.13374964e-003 1.40538588e-001
      6.75512552e-002 -1.26683801e-001 -5.23111559e-002 -9.34538469e-002
      -3.95532474e-002 1.02676705e-001 -9.61688310e-002 -3.20282012e-001
      3.16083170e-002 1.18156709e-002 1.92632377e-001 -6.87113032e-002
      2.31799304e-001 1.95992649e-001 -2.37836642e-003 -1.31347612e-001
      -1.10489562e-001 -3.45772468e-002 -5.54825142e-002
      -1.81766942e-001 5.80374636e-002 -6.04251660e-002 5.32312207e-002
      -1.51290789e-001 1.05867060e-002 -6.42957687e-002 -2.01830372e-001
      1.64116666e-001 1.30397305e-001 1.36473998e-001 5.90340309e-002
      7.75706246e-002 -4.14522514e-002 6.19964115e-002 6.95251152e-002
      -9.17672962e-002 7.90093467e-002 -1.91053465e-001 -6.26216605e-002
      -1.12033591e-001 -8.61111060e-002 -4.00415540e-001 1.09470161e-002
      -8.82861465e-002 -1.48841605e-001 9.83864591e-002 2.06546813e-001
      1.70525730e-001 -4.38803574e-003 7.70826042e-002 -1.50008155e-002
      8.04036781e-002 9.34538990e-002 1.51318341e-001 -1.12045437e-001
      -6.70644715e-002 1.10900521e-001 -8.73882547e-002 2.01983526e-001
      -3.19684118e-001 1.51780933e-001 -1.08131610e-001 -2.67172098e-001
      3.04612555e-002 7.30490312e-002 2.21838832e-001 5.10506034e-002
      2.13955685e-001 1.74999088e-002 2.21926376e-001 -6.55055419e-002
      -3.49106616e-003 -1.22186542e-001 -1.04136970e-002
      -1.84901506e-002 -2.00909134e-002 -4.12915796e-002
      -4.72243130e-001 -2.27169320e-003 -6.54027835e-002
      -1.60457447e-001 1.97781458e-001 3.48164258e-003 -4.95580509e-002
      -7.64805302e-002 2.20758334e-001 -1.15499415e-001 -5.83244264e-002
      2.03706071e-001 -1.27780557e-001 -3.87714095e-002 3.42029594e-002
      -6.64869249e-002 -2.87655860e-001 -2.98633184e-002
      -2.37899721e-002 4.30364124e-002 -2.53451645e-001 -2.40239456e-001
      -6.20392822e-002 -3.11244782e-002 1.03932336e-001 -5.08599542e-002
      3.45830955e-002 -4.03931253e-002 -2.17755456e-002 -5.94224548e-003
      -5.61489500e-002 1.02660984e-001 4.31799293e-002 -1.09768696e-001
      -3.50986809e-001 -1.18814804e-001 -2.98845887e-001 3.64301214e-003
      -1.72834799e-001 -4.04385388e-001 8.07427689e-002 -7.81897828e-002
      1.80117867e-003 -8.18913057e-002 -4.41047437e-002 -2.94361655e-002
      8.50425139e-002 -2.18538746e-001 -2.42932633e-001 4.86479923e-002
      -1.80135474e-001 4.94059129e-003 -1.80085078e-001 -1.22048520e-002
      1.40483417e-002 -1.00530714e-001 -1.36611521e-001 -1.15924880e-001
      -5.93827628e-002 -1.37403071e-001 -8.87362361e-002
      -2.42271513e-001 -2.14757979e-001 1.26885489e-001 -4.02027629e-002
      -1.81791648e-001 -1.62859336e-001 -1.15606189e-001
      -6.19062048e-004 5.72158135e-002 -1.74264416e-001 4.67453431e-003
      -1.21155873e-001 2.12455895e-002 -9.19729397e-002 -1.65505961e-001
      -2.99815700e-004 -2.14427859e-001 4.61735390e-002 -1.55798554e-001
      -8.41667950e-002 -1.42924875e-001 -3.31743807e-001
      -1.61811598e-002 -1.11104120e-002 -1.21599130e-001
      -7.98515603e-002 1.19171441e-002 -1.57756060e-001 -5.21954671e-002
      -5.63460812e-002 -2.26529017e-001 -8.56779574e-004
      -8.24826881e-002 1.02499582e-001 4.88624647e-002 -3.46156806e-002
      -8.11222196e-002 9.83915403e-002 -5.54515198e-002 -1.43312007e-001
      -1.16065992e-002 -8.00066292e-002 -8.14518407e-002 2.37782225e-002
      1.11665264e-001 -9.74330902e-002 -1.75176840e-002 -1.72568545e-001
      -2.54949331e-001 -9.18501709e-003 4.95476089e-002 -2.04670697e-001
      -2.97711268e-002 -7.92534184e-003 1.72493979e-002 2.76098419e-002
      -1.16808794e-001 -1.18676297e-001 4.65217829e-002 6.00808859e-002
      5.18241562e-002 -2.44382977e-001 -1.01256490e-001 -1.53017700e-001
      -9.28670447e-003 -3.31748247e-001 -5.61243854e-003 5.00455610e-002
      -1.17971241e-001 6.28587082e-002 -1.70220453e-002 -1.22197773e-002
      -1.90935954e-001 -1.06275164e-001 -1.40870169e-001 6.84839189e-002
      -1.16075482e-002 -1.44907877e-001 -1.40567705e-001 1.15106003e-002
      1.29258242e-002 3.77970152e-002 -6.45239977e-003 -4.38664593e-002
      7.42560551e-002 1.05770439e-001 8.22555795e-002 -1.69882938e-001
      1.18855283e-001 -1.16150066e-001 -5.59569411e-002 5.85026406e-002
      -1.10327601e-001 1.36990279e-001 -4.25703861e-002 7.79604763e-002
      -1.30895495e-001 -3.27885225e-002 3.73155475e-002 -1.51218593e-001
      -5.36824949e-002 2.81791035e-002 2.03169391e-001 -1.93162113e-002
      -1.60079971e-001 -1.59408450e-001 1.96401384e-002 1.22305289e-001
      1.56482644e-002 1.62259042e-001 -1.10009732e-002 1.95445642e-001
      6.59621060e-002 -1.61650360e-001 5.23186252e-002 1.93611577e-001
      5.38785644e-002 1.69851594e-002 7.00376779e-002 -2.71399207e-002
      2.20263898e-001 -8.14542100e-002 -5.01880702e-003 -1.89313889e-001
      2.31982209e-002 1.88511666e-002 3.66585143e-002 1.28366679e-001
      1.13615930e-001 4.65059131e-002 -1.35746658e-001 6.87971115e-002
      1.03131652e-001 3.01335808e-002 -2.98673902e-002 2.43069492e-002
      6.93924204e-002 -1.79018855e-001 6.34152591e-002 1.15540095e-001
      -1.03291728e-001 -1.80956006e-001 -1.79798588e-001
      -1.55467257e-001 2.33818993e-001 2.62542516e-001 -6.42146496e-003
      1.09151840e-001 -1.13079809e-001 -2.98276246e-001 -6.26493897e-003
      3.10803503e-001 1.31503344e-001 -2.69830655e-002 1.49390668e-001
      -2.03608442e-002 -4.47360538e-002 1.78966433e-001 -1.26145398e-002
      -5.56064257e-003 -1.67108215e-002 9.68137980e-002 2.45900318e-001
      1.19214505e-001 -6.76837564e-002 1.07659139e-001 -7.78050348e-002
      -2.14581475e-001 -9.77925137e-002 9.52523127e-002 -1.38628557e-001
      1.62917718e-001 4.05773148e-003 -7.54815340e-002 1.75886407e-001
      -6.81301504e-002 -1.42270878e-001 -6.92589134e-002
      -1.14639267e-001 -3.10514495e-003 1.16805896e-001 2.29391858e-001
      1.29391417e-001 2.08241254e-001 3.07577431e-001 5.48836440e-002
      2.20602468e-001 1.45526409e-001 4.34978530e-002 8.15596655e-002
      9.27557498e-002 3.37025225e-002 -1.80726144e-002 1.90163106e-002
      4.19807481e-003 2.04301607e-002 -3.16492841e-002 7.48308375e-002
      2.87056625e-001 1.22098558e-001 2.44889557e-002 9.66891721e-002
      -4.09219377e-002 2.06853394e-004 -9.53616947e-002 1.26786411e-001
      1.10470550e-002 -8.66505876e-002 2.32619405e-001 -6.65696338e-002
      -8.26110095e-002 4.40316275e-002 -8.26205462e-002 1.03161208e-001
      -2.93288007e-002 1.11260206e-001 1.44048065e-001 1.27543956e-001
      2.94909328e-001 1.36168823e-001 -1.90364316e-001 1.13636546e-001
      7.30755553e-002 -1.90951690e-001 -5.75603247e-002 7.53432512e-002
      8.62421095e-002 -7.03614429e-002 1.92884862e-001 -2.31716577e-002
      -1.43092170e-001 3.59836638e-001 4.29510213e-002 2.59548333e-002
      1.31104708e-001 -2.04445291e-002 9.31354016e-002 2.12544531e-001
      1.04958601e-002 -6.82740808e-002 -1.20665189e-002 1.74671218e-001
      -3.73318754e-002 1.18582211e-001 4.24170792e-002 -1.98088642e-002
      -9.73587036e-002 3.55539285e-002 -1.64598167e-001 -7.90305957e-002
      -1.25917807e-001 -2.49054711e-002 5.32027557e-002 -2.17166971e-002
      1.19886715e-002 -1.39908701e-001 -1.37696460e-001 2.24287771e-002
      -4.56310296e-003 1.22245237e-001 -1.91929519e-001 3.15649025e-002
      8.06446373e-002 -8.42306577e-003 -1.19966887e-001 1.58076286e-001
      -1.99975729e-001 -6.54480457e-002 8.98197144e-002 -2.87098177e-002
      2.60894716e-001 1.00002572e-001 -1.09526105e-002 -1.08909287e-001
      4.11188230e-002 -7.59144872e-002 1.00194111e-001 -5.64287640e-002
      -6.98474376e-003 -6.72113374e-002 -2.32150238e-002
      -5.73227592e-002 -5.63461706e-002 4.41177264e-002 1.77131280e-001
      -1.36951864e-001 -4.54134122e-002 2.42569521e-001 6.60806000e-002
      2.49456633e-002 8.27755500e-003 -1.20716713e-001 3.49799357e-002
      -1.30929738e-001 -1.65996514e-002 -8.13085288e-002 2.26865150e-003
      6.94982782e-002 1.23248152e-001 -1.91727847e-001 -2.69632488e-001
      1.75731808e-001 9.76782814e-002 8.57010335e-002 5.56810051e-002
      2.51695186e-001 8.72488543e-002 2.90391110e-002 -6.37544617e-002
      -9.60777178e-002 5.35324700e-002 -9.65425074e-002 3.43028009e-002
      1.08368747e-001 -1.53604820e-002 1.05853550e-001 -4.12865821e-003
      -1.29372165e-001 -1.20786298e-002 1.57370463e-001 -1.32953888e-002
      -3.79531175e-001 8.55225548e-002 -7.47862682e-002 -9.79426056e-002
      -1.70563385e-001 8.47668350e-002 -3.05710047e-001 -1.60729978e-002
      1.02070056e-001 -5.57146594e-003 -4.35185321e-002 1.09320814e-002
      -1.20438524e-001 -2.58508753e-002 -5.24151549e-002
      -1.77702531e-001 9.15473327e-003 -6.77311718e-002 -4.93309312e-002
      -6.51321784e-002 8.77707154e-002 -2.25343881e-003 -2.53714323e-001
      1.69370025e-001 -2.88354456e-001 1.03697754e-001 -7.33387843e-002
      1.57235861e-001 -2.67037973e-002 -5.35141379e-002 -2.69988149e-001
      1.03132445e-002 -4.94703278e-002 -8.11043084e-002 3.59236561e-002
      1.02502719e-001 -4.03490737e-002 -3.49060702e-003 1.45312563e-001
      2.11331263e-001 9.48576778e-002 -3.43793966e-002 -2.34796062e-001
      -1.47632629e-001 4.83547477e-003 6.94945529e-002 9.72069055e-002
      -1.30730897e-001 -1.49669558e-001 -4.35280055e-002
      -9.21955332e-003 -6.29809424e-002 -1.14950001e-001 9.76459682e-003
      -1.93585321e-001 -2.60764450e-001 -1.02732055e-001 1.22452326e-001
      -6.82603568e-002 -2.11240992e-001 -5.95629923e-002 2.91868411e-002
      1.96547583e-002 -2.85547435e-001 -1.58900753e-001 1.53010990e-002
      3.28107998e-002 -6.89169988e-002 6.49876222e-002 -1.92001522e-001
      -1.49915487e-001 -8.72170627e-002 -7.66389817e-002
      -1.16766922e-001 -1.01552702e-001 -8.91931802e-002
      -2.11763561e-001 -4.43944149e-002 1.34204598e-002 -1.63618043e-001
      -1.88918114e-001 -1.56434610e-001 -3.68801773e-001 6.62038161e-004
      -1.29705980e-001 -2.00715184e-001 -2.32876509e-001 9.59445070e-003
      1.08278759e-001 1.39283791e-001 -1.48725703e-001 -3.05520147e-001
      8.41545090e-002 -1.49314895e-001 -2.83688873e-001 -1.84559882e-001
      -1.28616005e-001 -3.51231188e-001 -1.55955344e-001
      -8.27967897e-002 -2.04830363e-001 -2.43076935e-001 3.37698609e-002
      -2.49929681e-001 1.76560402e-001 -1.45028144e-001 -1.02420934e-001
      2.04720199e-002 9.38832909e-002 -1.84553310e-001 5.73262684e-002
      -1.97625235e-002 -2.12341830e-001 2.41432544e-002 -1.01551659e-001
      -1.52455032e-001 1.24958999e-001 -1.61569402e-001 -9.41052362e-002
      -6.72587082e-002 7.91290849e-002 -9.56302509e-002 7.02088699e-002
      -1.76115602e-001 -7.48657733e-002 5.08598723e-002 6.85342476e-002
      -9.50274169e-002 -2.06034139e-001 2.60907620e-001 -2.47199580e-001
      -1.44818082e-001 7.81592540e-003 -1.75365478e-001 -1.34696364e-002
      2.18974769e-001 -7.03713074e-002 -8.86007324e-002 1.41344443e-001
      -5.68113625e-002 1.39908925e-001 -9.49645638e-002 -3.10165048e-001
      -2.13909503e-002 3.85638982e-001 6.43326864e-002 -7.12118000e-002
      1.42847106e-001 -2.53808368e-002 7.99023807e-002 1.11005917e-001
      -9.77025032e-002 -5.15423380e-002 1.53808713e-001 -1.01054996e-001
      -1.91819876e-001 1.22616090e-001 -2.71752030e-001 6.56501949e-002
      2.77001876e-002 -1.65246040e-001 -4.27290425e-002 -5.06823771e-002
      -3.89147177e-002 -1.21891566e-001 1.35349751e-001 -1.38429508e-001
      1.47345856e-001 1.79159045e-001 -1.65755838e-001 -3.70694064e-002
      2.28005558e-001 -1.74504369e-001 -2.32092753e-001 -2.31226683e-001
      1.92157269e-001 9.81181711e-002 -8.98702145e-002 9.83646605e-003
      -7.08973929e-002 2.41444871e-001 3.45807672e-002 9.12563689e-003
      2.75325365e-002 1.39477886e-002 3.33769411e-001 5.45888096e-002
      -2.62877196e-002 2.29580954e-001 -1.76561296e-001 -3.47917825e-001
      -1.34768397e-001 -1.27255991e-001 -1.50233924e-001
      -1.26712739e-001 -1.03300467e-001 -2.02408999e-001
      -1.65509224e-001 8.29985738e-002 -5.00157068e-004 1.57131314e-001
      -7.31322169e-002 5.12167849e-002 9.52101499e-002 -1.09778000e-002
      -2.05584139e-001 1.12204663e-001 2.24293657e-002 -5.83357066e-002
      -4.37925868e-002 -2.49408826e-001 -3.14209685e-002
      -2.16157541e-001 -5.11194952e-002 -2.72390693e-002 1.56178763e-002
      -8.33069086e-002 -4.82071079e-002 -5.35517782e-002
      -9.04055387e-002 1.89167693e-001 8.94702524e-002 -1.31766438e-001
      2.31753234e-002 -2.94443846e-001 -9.62594897e-002 1.61122233e-001
      1.74567044e-001 -2.06668735e-001 1.80319905e-001 -2.04655260e-001
      1.97625943e-002 -1.41811997e-001 -1.99345469e-001 -1.32221773e-001
      -6.08219020e-002 -5.04989289e-002 -9.19346288e-002 2.70241290e-001
      9.47740674e-002 -3.04153077e-002 -5.63108502e-003 -1.72946841e-001
      4.24532853e-002 1.17634602e-001 -2.45683957e-002 -1.45527378e-001
      3.76196280e-002 -8.20706934e-002 -3.13427709e-002 8.51153880e-002
      -1.75315872e-001 -7.88802058e-002 -7.36620352e-002 1.29596755e-001
      4.81015630e-002 -5.99874742e-002 -9.16191116e-002 -1.07917979e-001
      -1.89888049e-002 -1.49288356e-001 -1.16869332e-002 7.72358775e-002
      -8.67180303e-002 -2.81135887e-001 2.35197201e-001 7.79221673e-003
      -1.33581698e-001 -9.80130062e-002 -2.21603766e-001 1.11952424e-001
      9.19291973e-002 1.33635730e-001 -7.04137310e-002 1.58494040e-001
      1.47616133e-001 -1.18560225e-001 -1.29635692e-001 1.04665868e-001
      -2.82185555e-001 -1.13432057e-001 1.23570658e-001 -2.51527667e-001
      -5.58946952e-002 -1.87774852e-001 4.95806783e-002 2.58874688e-002
      -3.93357277e-002 1.35265559e-001 8.54627863e-002 1.44356444e-001
      -4.91036326e-002 -1.63442239e-001 -9.46251908e-004
      -6.64555058e-002 1.66962981e-001 1.36514679e-001 -2.07419153e-002
      -1.46133274e-001 9.87236500e-002 -1.33338749e-001 1.63232654e-001
      -1.84615642e-001 -1.13825105e-001 -4.12001044e-001 1.12884916e-001
      1.03360504e-001 1.21167218e-002 -3.07565071e-002 6.46355972e-002
      1.73398331e-001 -2.33578980e-002 9.14185047e-002 -2.04676270e-001
      5.01827374e-002 -1.33518055e-001 -5.16399043e-003 1.99958757e-002
      -1.84658363e-001 -7.46535836e-003 -1.46886840e-001
      -1.22566568e-002 1.02158889e-001 1.55532584e-001 -4.99240123e-002
      4.58187573e-002 2.03000724e-001 2.39804219e-002 -5.90990018e-003
      3.78210880e-002 -9.24057502e-004 2.22850263e-001 -1.46748489e-002
      5.70939817e-002 -1.93792582e-001 -1.55041099e-001 -1.04092017e-001
      1.66461736e-001 -1.46557465e-001 -7.98414052e-002 -2.19663288e-002
      3.63108031e-002 -1.78509831e-001 -3.50050867e-001 1.38397291e-001
      -9.03755054e-002 -2.18048617e-001 -1.16121858e-001
      -4.42913361e-002 1.38523221e-001 2.23370474e-002 -6.36121184e-002
      -9.31787491e-002 5.75333238e-002 -8.31327140e-002 4.42556553e-002
      -7.62920678e-002 -1.37212574e-001 1.85705841e-001 -2.88832597e-002
      9.87097546e-002 9.27208923e-003 -3.52584571e-002 -1.32299975e-001
      -5.46684191e-002 -6.67877570e-002 -1.02779455e-001
      -1.57795777e-003 -3.31123695e-002 -1.82514518e-001
      -1.20700106e-001 2.58564483e-002 -7.37022087e-002 -8.50788504e-002
      -1.05640944e-002 -2.58368701e-001 1.34405671e-002 7.71234557e-002
      6.24136180e-002 -2.22187728e-001 3.56939211e-002 -3.42992023e-002
      6.40050322e-002 1.24753386e-001 -1.89006291e-002 7.94665590e-002
      3.47904563e-002 2.55878687e-001 1.18234288e-002 9.55010206e-002
      1.31717801e-001 1.38789102e-001 -8.84051919e-002 2.54145950e-001
      -2.54972912e-002 -1.68287441e-001 -1.61630675e-001 2.69070864e-002
      3.88755687e-002 1.54510826e-001 2.08002225e-001 -1.22333959e-001
      2.24588066e-001 2.95899753e-002 -1.18913174e-001 -1.01211071e-002
      -6.78903684e-002 1.58332631e-001 6.44144788e-002 1.55214712e-001
      6.61146939e-002 1.44910082e-001 3.71506587e-002 1.07003078e-001
      1.10996626e-002 -3.40685365e-003 1.02997743e-001 7.73845017e-002
      6.03110157e-002 2.29525678e-002 3.46342236e-001 -1.58058740e-002
      3.38369161e-002 -1.76346123e-001 -5.06091528e-002 -1.37757629e-001
      -8.72245803e-002 1.23442478e-001 -6.83221668e-002 -8.43351856e-002
      2.41956431e-002 -2.33898968e-001 -1.58457771e-001 -1.33579344e-001
      -1.32260367e-001 1.20085284e-001 -1.86264031e-002 2.15383857e-001
      -1.24470666e-001 5.62246591e-002 -3.85415331e-002 1.47178307e-001
      1.58199538e-002 -2.20343992e-002 3.11069526e-002 2.22530261e-001
      1.16409890e-001 1.08272865e-001 -1.17832378e-001 1.16816098e-002
      4.79762033e-002 3.08200628e-001 -8.18957016e-002 1.53169632e-001
      2.01275945e-001 2.58211672e-001 -7.54011236e-003 1.58096224e-001
      2.55735725e-001 -1.19421721e-001 -2.00999584e-002 -9.93171781e-002
      -1.53267339e-001 -4.69109900e-002 2.47242510e-001 -2.65389651e-001
      2.41223327e-003 4.99981083e-003 5.50115146e-002 -2.51894027e-001
      -6.24580272e-002 8.96899775e-003 8.01162273e-002 1.23346008e-001
      1.41113997e-002 -1.17560305e-001 6.25448003e-002 2.73204092e-002
      2.24862576e-001 -1.53008118e-001 -1.11233257e-001 1.17914647e-001
      2.36556262e-001 -1.60877779e-001 1.12074405e-001 3.19987796e-002
      4.85918149e-002 8.76756459e-002 1.81263581e-001 2.60466248e-001
      2.56615907e-001 3.62693489e-001 4.21129689e-002 2.99471412e-002
      -8.47171992e-003 1.83325842e-001 -1.65610701e-001 -4.11920324e-002
      -6.03981093e-002 -3.69093046e-002 -5.04243150e-002 1.81628346e-001
      -6.58285320e-002 4.30459622e-003 1.61272109e-001 1.08313866e-001
      -1.45434543e-001 -2.59021297e-002 3.33880819e-002 1.53721794e-001
      2.51758605e-001 9.30080861e-002 1.29163871e-003 1.16091311e-001
      1.42553104e-002 1.82655409e-001 1.11352518e-001 1.11304149e-001
      1.10530823e-001 -1.12869956e-001 -1.24330819e-002 -1.38920218e-001
      -5.47097847e-002 -4.09181938e-002 1.87603366e-002 1.13675669e-001
      1.17963843e-001 2.08956212e-001 1.03683501e-001 5.43271704e-003
      -1.68404147e-001 7.75823556e-003 -6.79953396e-002 -3.11267465e-001
      -7.38787726e-002 7.83369318e-002 -1.98710412e-001 2.16779802e-002
      1.60645023e-001 7.12312534e-002 -3.87790278e-002 3.47649530e-002
      3.43454676e-003 6.79307878e-002 6.69829175e-003 1.36462197e-001
      -1.12565100e-001 -1.95480540e-001 5.43446206e-002 -2.03083485e-001
      -2.85775423e-001 -2.45708954e-002 2.65747122e-003 1.69633806e-003
      3.13382223e-002 -2.60933302e-003 -1.50926635e-002 -1.57458380e-001
      -2.79101133e-002 6.69345353e-003 1.83872640e-001 1.42618105e-001
      1.75586149e-001 3.44859004e-001 2.87346780e-001 -1.85301974e-001
      -6.52407259e-002 1.14302613e-001 -1.42894104e-001 -1.40366569e-001
      1.12767266e-002 -9.31908116e-002 -8.54601786e-002 -1.08396702e-001
      -9.34916586e-002 9.35877860e-002 5.62396385e-002 -1.10849187e-001
      -7.09075294e-003 3.58326919e-002 1.45499571e-003 1.30467668e-001
      7.38045573e-002 -2.69890651e-002 -5.69438515e-003 1.03340238e-001
      8.82632751e-003 -1.38127236e-002 -7.12984577e-002 -1.24133773e-001
      9.16168913e-002 1.42763451e-001 -6.19827695e-002 5.99311441e-002
      -1.09858416e-001 -1.06417090e-001 -7.20411241e-002 2.37841874e-001
      2.78579313e-002 1.87773138e-001 2.53705293e-001 9.50226337e-002
      -3.14209402e-001 -1.21596940e-001 -8.69399533e-002
      -3.07987686e-002 -8.84167477e-002 -7.30620027e-002
      -7.41012916e-002 -4.77555133e-002 9.02470127e-002 1.68854538e-002
      -1.62292458e-002 -1.21422388e-001 8.55444521e-002 -3.44098479e-001
      -1.31985888e-001 -1.18865920e-002 -2.31617570e-001 1.34538800e-001
      7.01991841e-002 -1.34256765e-001 -7.77212530e-002 2.13703290e-002
      -1.75772852e-003 -4.35516723e-002 1.38817634e-002 -3.58936973e-002
      -4.59486023e-002 -2.35556826e-001 -9.18991566e-002 8.66858438e-002
      1.95911795e-001 -1.19006209e-001 -9.57002118e-002 1.58831730e-001
      -1.27612770e-001 1.33814007e-001 5.56213856e-002 8.41159746e-002
      1.82806149e-001 3.25309336e-001 -1.22230545e-001 -2.11489096e-001
      -6.83169439e-002 2.95154024e-002 -1.78462282e-001 -9.80654918e-003
      -8.67049843e-002 -1.59538999e-001 7.54897967e-002 1.55904844e-001
      -1.16756922e-002 -8.80377889e-002 -1.25142768e-001
      -2.82660097e-001 -2.57318057e-002 2.88874768e-002 1.08246408e-001
      4.31508183e-001 1.31106257e-001 -1.68064386e-001 -3.12306657e-002
      1.06608704e-001 -5.37594780e-002 -5.18396497e-002 -8.83307233e-002
      2.51592752e-002 9.54543054e-002 -1.26204491e-001 -9.58096236e-002
      4.21421751e-002 2.84687001e-002 -1.27951279e-001 -6.06319718e-002
      -6.02557436e-002 -1.90214112e-001 2.20862497e-002 -1.41644225e-001
      -2.14026958e-001 5.10228835e-002 -8.26709941e-002 -7.63856322e-002
      -7.90899321e-002 4.18580435e-002 -5.11841439e-002 3.38446110e-001
      1.43261865e-001 -4.06407028e-001 -4.58099581e-002 -1.49503171e-001
      -2.78978378e-001 -1.88597888e-001 -4.40022461e-002 7.06309080e-002
      1.23770118e-001 -1.10908687e-001 -1.47458166e-001 -1.86420623e-002
      -1.87434547e-003 -1.84536010e-001 -7.44801685e-002 1.11069512e-002
      6.13964163e-002 -1.49415312e-002 -1.57941550e-001 -1.01705939e-001
      1.46199716e-002 -6.74784184e-003 -1.92463428e-001 -2.87022609e-002
      5.03656827e-003 -5.83812036e-002 -5.84250018e-002 2.71433424e-002
      -5.67516834e-002 -7.14642107e-002 -2.99249172e-001
      -2.00678825e-001 -1.92938168e-002 8.95839185e-002 -8.35133940e-002
      -3.70129161e-002 6.86513186e-002 -5.98122180e-002 4.25378978e-002
      -6.64645955e-002 7.45461695e-003 6.19810075e-002 8.61817971e-002
      2.97297575e-002 -1.50147835e-002 -1.34740761e-002 1.65544860e-002
      3.25627178e-002 -1.04610492e-002 -1.35626301e-001 -1.05631351e-001
      -1.80373386e-001 6.46952838e-002 5.91883361e-002 -1.05585523e-001
      -1.61599353e-001 -1.43920973e-001 5.55607453e-002 7.71494806e-002
      1.30269453e-001 9.29058865e-002 -2.30709352e-002 -1.22187205e-001
      9.94926598e-003 -3.56553458e-002 7.39939883e-002 -1.28466591e-001
      -9.68683138e-002 -8.96661580e-002 -1.57534301e-001
      -1.83135308e-002 -1.19686313e-002 -6.06810227e-002
      -1.31754741e-001 1.71761706e-001 3.78127173e-002 4.66276472e-003
      1.40492208e-002 7.68771619e-002 2.52304137e-001 -6.23403490e-002
      6.29387945e-002 -1.31529346e-001 -8.87065980e-005 1.89023077e-001
      5.23276292e-002 -1.03393994e-001 -3.27862464e-002 -3.63162922e-004
      -9.37961489e-002 2.68636737e-002 -3.81288119e-002 -1.06271505e-001
      2.06651047e-001 -2.23580701e-003 9.75884125e-002 -1.00257330e-001
      -7.29220882e-002 1.24268401e-002 5.74878464e-003 -1.08311586e-001
      7.58510157e-002 -8.39250535e-002 1.84416249e-002 -1.93688516e-002
      1.27388179e-001 2.44389400e-001 1.21616267e-001 2.08140448e-001
      -1.24140725e-001 3.55848745e-002 -2.29806527e-001 -6.28496194e-003
      9.06184316e-002 -1.54026523e-001 1.59090552e-002 -3.40555422e-002
      6.36523366e-002 -1.94314525e-001 -8.92779455e-002 1.91003174e-001
      -2.74380799e-002 1.28446087e-001 1.01383075e-001 6.91523179e-002
      -1.13950931e-001 1.54775545e-001 2.41743773e-002 6.63132071e-002
      2.25429647e-002 1.33323073e-001 1.50720909e-001 -3.38001773e-002
      2.12349236e-001 1.00268736e-001 8.92846063e-002 -1.15903094e-002
      -6.40609814e-003 -1.61991287e-002 5.15852198e-002 -1.53186515e-001
      3.69674116e-002 2.06019692e-002 1.00922845e-001 -1.66344106e-001
      -2.22490225e-002 -4.30464335e-002 1.89927295e-001 1.63786113e-001
      -1.08406037e-001 -9.02882591e-002 -1.48033679e-001
      -7.91227818e-002 -1.25796795e-001 6.46266490e-002 -2.89728343e-001
      -2.56548729e-002 -3.55787985e-002 -4.37587127e-002
      -2.00406954e-001 -1.27851412e-001 -6.60659047e-003
      -1.92383125e-001 -1.70651287e-001 -6.09642752e-002 4.17325720e-002
      -1.03510574e-001 8.42184946e-002 2.27694556e-001 -1.47685617e-001
      1.20010354e-001 -3.58465910e-001 -2.75603887e-002 6.02894835e-002
      6.55966252e-002 8.78144279e-002 -2.19332486e-001 1.96718216e-001
      1.15559965e-001 1.64362416e-001 -2.45469585e-001 5.78963049e-002
      1.17543293e-002 2.17342541e-001 8.42917264e-002 7.03544319e-002
      4.33660783e-002 -2.21362978e-001 1.60601124e-001 -1.11125395e-001
      1.87497251e-002 -6.93023652e-002 1.60353202e-002 -2.94362694e-001
      -9.03597623e-002 -1.15559392e-001 -1.93832606e-001 1.21403635e-001
      -1.59463733e-001 1.20324604e-001 -4.86526154e-002 1.08490832e-001
      -1.42652422e-001 -2.25159200e-003 -3.53927203e-002
      -1.24042541e-001 -4.73372787e-002 -3.44186634e-001 5.94351217e-002
      -2.20631465e-001 2.02994019e-001 -5.37137575e-002 1.23774782e-001
      1.29106805e-001 3.15775275e-002 3.05505726e-003 4.48495187e-002
      2.64871716e-001 -8.26235935e-002 1.26022324e-001 2.53591053e-002
      2.31985986e-001 -2.76992708e-001 -2.17811123e-001 1.92124352e-001
      -2.97708899e-001 5.03391214e-002 -2.79386699e-001 1.85727533e-002
      -2.47226223e-001 -1.40644044e-001 -1.13727219e-001 1.04169892e-002
      2.77542502e-001 -1.01943724e-001 2.85484698e-002 6.40208349e-002
      -8.70355889e-002 -1.18439525e-001 -8.15546960e-002 1.80925667e-001
      -1.74521878e-001 -1.21617377e-001 -3.52143973e-001 1.27029642e-001
      -4.35851097e-001 -1.27617836e-001 2.33450219e-001 1.24387652e-001
      6.35837093e-002 -9.93415639e-002 8.27465802e-002 -1.37820184e-001
      1.13233039e-002 -6.43795580e-002 -2.63752341e-002 5.58539331e-002
      -1.17134243e-001 -6.00701123e-002 -2.46856868e-001 9.09254849e-002
      -2.25106016e-001 1.27411395e-001 -2.33356267e-001 -2.81228982e-002
      -2.80621499e-001 -2.64391787e-002 -3.18401679e-002
      -1.70799851e-001 3.15712579e-002 6.94846064e-002 -1.77854180e-001
      -1.72966003e-001 -6.12377450e-002 -1.87668204e-001
      -7.18449568e-003 -9.21358243e-002 -2.50626653e-002 6.89282548e-003
      -3.26772541e-001 -1.13317966e-001 -7.28255734e-002
      -8.27395543e-002 -9.36979204e-002 1.17385730e-001 1.34539515e-001
      -1.50664166e-001 8.32077265e-002 -4.76388484e-002 1.47794172e-001
      3.94595526e-002 9.51057021e-003 -1.06890276e-002 3.25788148e-002
      -1.91811129e-001 -1.52788967e-001 -3.86848897e-002
      -1.43767059e-001 -1.76219106e-001 4.50991606e-003 1.92465950e-002
      -2.11723987e-002 -1.45005584e-001 -4.76851761e-002
      -2.51670629e-001 -4.52226587e-003 5.78676127e-002 -6.97714984e-002
      -1.52877986e-001 -4.55912575e-003 1.42453417e-001 -1.43427163e-001
      1.31547078e-001 -1.00969777e-001 4.75420654e-002 8.84785727e-002
      8.05387646e-003 9.79591087e-002 -2.90341694e-002 -6.05965406e-002
      -8.67763981e-002 6.28916314e-003 1.91290587e-001 1.25790313e-001
      6.62340224e-002 -2.88287755e-002 9.95153263e-002 1.98212221e-001
      9.57229435e-002 9.83870681e-003 2.45221496e-001 -4.76654992e-002
      -2.12445199e-001 4.39473763e-002 1.10101737e-001 8.48472193e-002
      3.70855331e-002 9.27044973e-002 -1.64228335e-001 3.12430203e-001
      1.89059004e-001 3.60932834e-002 1.52197599e-001 5.64299412e-002
      9.94420126e-002 1.66991781e-002 5.08880727e-002 1.20056920e-001
      -3.28235119e-003 1.31854489e-001 7.34848902e-002 -5.64776361e-002
      -3.83299626e-002 -6.47894368e-002 1.88541654e-002 -4.70329858e-002
      -7.10242614e-002 -1.22390851e-001 2.22158924e-001 -6.93032220e-002
      2.07213610e-001 8.58847275e-002 -4.00061794e-002 -6.86555430e-002
      -4.29339968e-002 9.77693722e-002 -2.49681771e-002 -1.97840080e-001
      4.22163457e-002 -5.35613485e-002 -9.58809722e-003 5.46654500e-002
      1.70032457e-002 3.28923166e-002 2.25657105e-001 2.90229693e-002
      -1.16711073e-001 1.15519784e-001 1.33450791e-001 1.24104366e-001
      2.71825101e-002 2.97946390e-002 5.43827424e-003 1.28283098e-001
      -2.25179672e-001 5.63389696e-002 -1.68371633e-001 -7.30720535e-002
      4.54016402e-003 -8.43257681e-002 -6.56889975e-002 -3.06971651e-002
      -2.36183833e-002 -2.02340772e-003 -1.73305362e-001 4.52149333e-003
      -9.20698941e-002 2.21476424e-002 1.67375207e-001 -6.09977543e-002
      3.08193825e-002 1.19426392e-001 2.50364337e-002 -2.71360613e-002
      2.22826689e-001 5.62584102e-002 3.07846189e-001 3.39737758e-002
      -2.98816655e-002 2.44541303e-003 -4.78632655e-003 1.66074753e-001
      -5.49514778e-002 2.91584760e-001 -1.28934933e-002 -8.25733617e-002
      -4.51138169e-002 -1.61832899e-001 4.12826352e-002 1.14824466e-001
      1.98907848e-003 -1.91474184e-001 5.70207275e-002 -8.72157216e-002
      3.39992456e-002 -6.86808452e-002 -7.55472481e-002 1.76034048e-001
      1.24300301e-001 -2.81270389e-002 -3.49107593e-001 -1.46671580e-002
      -7.63557926e-002 1.24638706e-001 7.96142220e-002 -1.41025364e-001
      -1.45354360e-001 -2.73871906e-002 1.10784858e-001 2.54985671e-002
      5.28349318e-002 -2.51809396e-002 -3.33919302e-002 -1.36492461e-001
      -4.67194766e-002 2.61945397e-001 -5.07299304e-002 5.44785410e-002
      -2.82507371e-002 -2.66675148e-002 8.09420049e-002 2.85186976e-001
      8.28277245e-002 1.33076921e-001 8.93124267e-002 -1.76204797e-002
      4.45527434e-002 -1.75275162e-001 7.38765001e-002 -3.54984790e-001
      -2.42287710e-001 -8.83397385e-002 -3.97679433e-002
      -6.13766722e-002 -2.02655718e-002 5.90310171e-002 6.59343377e-002
      1.76830247e-001 -9.31749567e-002 -9.45941061e-002 1.29410103e-001
      7.46341646e-002 -1.37663990e-001 2.76573328e-003 -3.17412242e-002
      1.53161716e-002 1.00368433e-001 -6.38147369e-002 5.98072708e-002
      1.02288732e-002 1.76870465e-001 -8.90883282e-002 3.03788006e-001
      2.99980920e-002 4.51146439e-002 1.37231067e-001 -5.82098998e-002
      5.47567196e-002 2.66838044e-001 1.93664461e-001 -1.25410542e-001
      -7.55817629e-003 2.27766391e-003 -1.00066990e-001 1.86643358e-002
      -1.73895478e-001 -1.33839287e-002 -1.58977062e-001
      -1.24528877e-001 -8.87154117e-002 1.95060018e-002 -3.11474223e-002
      2.00347289e-001 6.29714727e-002 -2.32463554e-001 6.26140237e-002
      5.30859903e-002 -1.23177662e-001 -7.85675459e-003 5.33834472e-002
      8.13660845e-002 -7.16966903e-003 2.42461301e-002 -8.72008055e-002
      -9.10952762e-002 1.82122976e-001 -4.45213215e-003 -3.55733842e-001
      -1.34406984e-001 -1.06374502e-001 5.33242561e-002 4.04584929e-002
      -5.60919233e-002 3.06211561e-001 1.52706563e-001 1.75397962e-001
      -2.61976808e-001 -1.46342382e-001 -5.82085326e-002
      -3.33486497e-002 -1.36337265e-001 -1.27482831e-001
      -8.66554007e-002 -7.39602000e-002 -3.21621537e-001 6.55221343e-002
      1.46646425e-001 -1.52869135e-001 -8.52796249e-003 -1.27190337e-001
      -2.66197503e-001 -2.99374074e-001 -1.16005719e-001
      -2.51607627e-001 -5.70481345e-002 -2.92630997e-002
      -1.33748516e-001 -8.46742913e-002 -1.72489867e-001
      -5.02258167e-002 3.88425845e-003 7.51835257e-002 -8.37507471e-002
      -2.53387004e-001 -3.07312850e-002 4.35200520e-002 3.12880799e-002
      2.86188605e-003 2.59141214e-002 -5.49856126e-002 4.48429696e-002
      1.62588075e-001 2.04725519e-001 -1.47566665e-002 -1.19423188e-001
      4.48755175e-002 2.46564835e-001 4.01150249e-002 -2.20511466e-001
      1.33673355e-001 2.04177529e-001 8.58091116e-002 -9.47273746e-002
      7.83697292e-002 -1.25082105e-001 2.10152958e-002 -5.87446503e-002
      -1.34358779e-001 -9.73730981e-002 -3.91732790e-002
      -7.61036500e-002 1.64694637e-001 -1.98487014e-001 -2.94949077e-002
      3.45732681e-002 1.50332913e-001 -6.23872221e-001 5.72579242e-002
      4.00960505e-001 1.76968172e-001 -6.80060908e-002 -8.54751617e-002
      -7.86613822e-002 2.12475315e-001 2.42571354e-001 -2.07701102e-001
      -6.24304414e-002 5.25845513e-002 -8.92165229e-002 1.65547445e-001
      3.48829478e-003 3.58428694e-002 1.47746161e-001 5.54826856e-002
      -2.84791380e-001 -2.45563942e-003 -1.03140593e-001
      -1.05417661e-001 1.34947747e-001 -1.88355055e-003 -3.12378688e-004
      1.84468646e-002 7.33346213e-003 -1.78554907e-001 -2.24397898e-001
      1.79061368e-001 -2.03015789e-001 1.16514757e-001 -6.94755912e-002
      -4.12759371e-002 2.57363379e-001 3.99591923e-001 -3.94522965e-001
      -2.99808122e-002 1.00266844e-001 -7.35739619e-002 -8.08608010e-002
      -1.16794720e-001 -2.51140237e-001 2.81440049e-001 3.19970429e-001
      -4.45788503e-001 -1.82725117e-001 4.03859526e-001 -2.70154662e-002
      -1.33455276e-001 -3.13653871e-002 -1.09762803e-001 1.72360301e-001
      4.12482433e-002 -5.90538234e-002 2.08997980e-001 4.48965244e-002
      -1.00127839e-001 1.78309307e-001 -5.23553193e-002 5.66928312e-002
      1.87587246e-001 -8.03546682e-002 -1.57264933e-001 -1.48498103e-001
      2.66198725e-001 -1.10241689e-001 1.27717137e-001 -4.26134557e-001
      -1.14417180e-001 4.56040293e-001 4.05472934e-001 -4.18302685e-001
      1.16480105e-001 2.84461260e-001 -1.77708715e-001 -2.42670730e-001
      -2.05415353e-001 -1.42370999e-001 2.84624279e-001 2.75459826e-001
      -4.73465949e-001 6.10840991e-002 1.59280300e-001 -1.84953883e-001
      -2.76297599e-001 -7.16991574e-002 7.69869760e-002 -1.78823005e-002
      -1.68001980e-001 5.99997975e-002 6.84901848e-002 1.38552701e-002
      -1.58919781e-001 -5.10772653e-002 -2.49748304e-002 1.24434225e-001
      1.05478197e-001 1.25424698e-001 2.86500603e-001 -1.23296745e-001
      -9.31655914e-002 -4.68970954e-001 -1.40228152e-001 1.47034183e-001
      -5.31517752e-002 2.92033199e-002 1.87216803e-001 -4.50069189e-001
      -4.14030999e-002 1.27937958e-001 -1.03662319e-001 5.42847114e-003
      2.13096216e-001 -9.09142345e-002 3.36104892e-002 2.23436773e-001
      -3.70115578e-001 -1.62026182e-001 1.53820544e-001 -1.18016005e-001
      8.46116096e-002 8.74809846e-002 1.53087482e-001 1.72482640e-001
      1.87956348e-001 -4.22437675e-002 -1.07403487e-001 -6.42291680e-002
      -1.43277034e-001 1.35278543e-002 -1.49521813e-001 -1.25925746e-002
      8.67522582e-002 4.33204398e-002 7.74827302e-002 -6.07498139e-002
      4.32581827e-002 -8.71084481e-002 -3.36944371e-001 8.88214782e-002
      1.09798759e-001 1.32492349e-001 1.40209600e-001 -4.21087801e-001
      6.81902915e-002 3.24225962e-001 1.93805359e-002 -1.03192732e-001
      -3.07531416e-001 -7.47800544e-002 1.59863159e-001 1.04825921e-001
      -2.54019916e-001 9.24726874e-002 2.78745711e-001 -1.17844693e-001
      4.52220030e-002 8.09540227e-002 -1.53165078e-003 1.43376425e-001
      -1.04208723e-001 1.53938383e-001 5.09007387e-002 -1.80465654e-001
      -4.26940061e-002 -1.15879573e-001 1.59282908e-001 6.44237101e-002
      1.71302676e-001 -4.55422699e-002 2.08305702e-001 1.51668489e-001
      1.26351744e-001 1.77547634e-002 -1.92924649e-001 -5.18934280e-002
      3.22649740e-002 8.74663703e-003 -1.16621278e-001 -3.62905294e-001
      -1.17230549e-001 -1.36271209e-001 -1.04534499e-001 6.88685030e-002
      -1.11813873e-001 -1.48102582e-001 9.86195654e-002 -1.75108150e-001
      -3.16667616e-001 2.45736334e-002 -1.34998923e-002 -2.06671238e-001
      -8.49251077e-002 1.06340069e-002 6.00556321e-002 9.61266086e-002
      -1.18359454e-001 -2.17629634e-002 -3.91311683e-002 2.56651253e-001
      -5.56890294e-002 -3.36753845e-001 -1.04579866e-001 5.83434142e-002
      2.04831034e-001 -1.92235187e-002 2.16014370e-001 -1.55039400e-001
      9.14360732e-002 -6.02122918e-002 7.06182122e-002 2.29242481e-002
      2.24614181e-002 1.66508362e-001 -1.31907865e-001 -3.36244553e-001
      -1.38270762e-003 1.92854509e-001 -1.54515699e-001 -3.93416733e-002
      6.08163467e-003 2.85771694e-002 1.19906187e-001 -1.13248892e-001
      -3.29223946e-002 9.91190523e-002 2.06252411e-001 -4.91573475e-002
      7.27463812e-002 -1.00092925e-001 7.93317705e-002 6.68658912e-002
      -3.22887272e-001 2.06918210e-001 -1.42600328e-001 1.79845214e-001
      8.05951506e-002 -2.01373305e-002 3.93722393e-002 -7.14844139e-003
      7.62503594e-002 1.73071679e-002 2.39636898e-001 1.11648135e-001
      1.04842015e-001 4.36494872e-002 -5.66249117e-002 9.72037017e-003
      6.32773861e-002 1.63344339e-001 -1.99660078e-001 -1.66935250e-002
      -2.69368380e-001 3.72752547e-002 5.19527569e-002 -2.56921276e-002
      -1.20097809e-001 -7.94157237e-002 1.31632060e-001 -2.03868061e-001
      -6.72995970e-002 2.27751121e-001 1.22230552e-001 -5.67145925e-003
      1.17265560e-001 -1.31985143e-001 -1.92903057e-001 -6.60636649e-002
      -2.31586903e-001 1.35620199e-002 -2.93214232e-001 -1.20352373e-001
      -1.54052570e-001 -1.26903653e-001 -9.98341441e-002
      -3.73498723e-002 3.77092548e-002 2.97819942e-001 8.70428085e-002
      -1.93237945e-001 2.06668705e-001 -2.12423895e-002 -9.75817628e-003
      -1.08909436e-001 -7.42036756e-003 5.73936068e-002 -3.71755481e-001
      -2.14003384e-001 -3.46396863e-001 7.24118873e-002 -5.76635487e-002
      4.74663191e-002 4.22806963e-002 9.91927460e-002 5.23214862e-002
      -5.99628575e-002 -3.13877195e-001 7.00911358e-002 2.78722793e-001
      7.94519857e-002 2.43913576e-001 -2.30613112e-001 -8.85843411e-002
      5.49523756e-002 -1.27922287e-002 -1.37351036e-001 -2.03355834e-001
      -5.46785165e-003 -4.67273267e-003 -1.18397132e-001
      -1.01014860e-001 -1.55942619e-001 2.77843364e-002 1.02971941e-001
      -9.02468190e-002 -1.04300193e-001 -9.79879405e-003 6.01634290e-003
      -1.90025978e-002 -1.12140402e-002 3.01123746e-002 -6.02074787e-002
      -1.83696628e-001 -3.49863946e-001 -2.62379888e-002
      -7.20314607e-002 6.92465976e-002 1.39331728e-001 -1.18702695e-001
      1.59917527e-003 -1.41753271e-001 -1.76061809e-001 -2.23610714e-001
      1.27539471e-001 5.69755770e-002 -1.33858532e-001 -1.27773553e-001
      2.50580311e-001 -2.38475695e-001 -9.59707126e-002 -5.87826446e-002
      -1.98528364e-001 -3.35703433e-001 -9.90134552e-002
      -4.40770052e-002 -1.77989528e-001 1.70255378e-001 -1.69247150e-001
      -6.59610182e-002 -1.09339967e-001 -1.96280354e-003
      -3.35360706e-001 -6.88754469e-002 -4.47625220e-002 1.18306383e-001
      4.03131396e-002 2.23764449e-001 6.58093318e-002 1.21985942e-001
      -1.79233074e-001 2.03105867e-001 -6.57097399e-002 -1.61818743e-001
      4.09865193e-002 1.63009316e-001 -4.98898178e-002 1.75671548e-001
      2.23651111e-001 -6.67180344e-002 9.42336172e-002 -1.70106217e-001
      -3.14430334e-002 2.50599176e-001 -2.51005054e-001 -3.65052164e-001
      2.46814825e-002 -1.58854142e-001 1.16805382e-001 5.64141087e-002
      2.00273711e-002 -1.07002564e-001 6.82262927e-002 -5.04401140e-002
      -1.27893433e-001 1.16442867e-001 -2.11782634e-001 2.06039429e-001
      -4.58307192e-002 -2.16642147e-005 4.24954891e-002 -2.12432034e-002
      -8.35572332e-002 5.39851822e-002 1.23510845e-001 -1.20706812e-001
      -3.09740514e-001 3.23527455e-002 -1.45290688e-001 1.28706098e-002
      6.38941154e-002 1.26622722e-001 5.89364730e-002 3.53924418e-003
      -1.05496980e-001 -1.61100253e-001 -1.31175607e-001 2.07147762e-001
      1.68331772e-001 6.16831183e-002 -7.40983337e-002 -8.42490047e-003
      1.29657939e-001 -1.56912997e-001 -4.74667437e-002 -1.33275911e-001
      2.51961057e-003 8.38929564e-002 8.72005597e-002 -7.52376914e-002
      -1.34084567e-001 1.95200276e-002 -6.23783618e-002 6.08931668e-002
      -2.35546410e-001 2.28706319e-002 -6.26464039e-002 -1.45736411e-001
      5.01564108e-002 -2.85807997e-002 1.52902827e-001 9.47538987e-002
      -5.36567450e-001 -7.01188371e-002 4.25541662e-002 1.68660879e-001
      1.10356687e-002 1.49509624e-001 -1.92572072e-001 -8.41270201e-003
      3.68260920e-001 -2.02526197e-001 -5.98466024e-002 -9.34968889e-002
      -2.47489493e-002 -4.15766425e-002 -1.16593294e-001
      -1.67541668e-001 -4.14192826e-002 -9.74293053e-002 7.78156146e-002
      -2.51819164e-001 8.64302069e-002 -1.36948615e-001 -1.58519328e-001
      -1.02706693e-001 -9.16095823e-002 -1.21164165e-001
      -1.80337220e-001 -4.93214279e-003 -1.56118542e-001 2.20412120e-001
      -1.82595700e-001 -8.91513154e-002 2.36290485e-001 2.25544609e-002
      -4.60209139e-002 1.27438754e-001 -2.54629284e-001 9.38351899e-002
      -6.86314180e-002 1.05975317e-002 1.15615323e-001 4.28882986e-002
      4.33306657e-002 -1.00480989e-001 -6.16256781e-002 -1.41673610e-001
      1.83582798e-001 -2.06923008e-001 1.73676342e-001 4.34653088e-002
      -8.28761309e-002 -3.66707183e-002 -2.57159434e-002
      -1.55358583e-001 -5.38756372e-003 -2.10110605e-001 1.07440660e-002
      -9.21943113e-002 -1.87345833e-001 -7.88665488e-002
      -1.15215957e-001 -3.56971174e-002 -3.03105623e-001
      -1.41873136e-001 -1.21990472e-001 -7.76309893e-002
      -2.76280250e-002 -3.01001668e-001 1.36881456e-001 9.49085206e-002
      1.58106148e-001 -8.29884857e-002 -1.09326765e-001 1.55993164e-001
      -2.00137869e-001 9.56249833e-002 -6.09167777e-002 -1.39880488e-002
      7.39369467e-002 1.44696549e-001 -5.50516210e-002 -6.43015653e-002
      1.11790277e-001 -1.83604077e-001 3.29758716e-003 -1.43654868e-001
      -4.57485467e-002 -9.37728509e-002 -1.73497926e-002
      -1.53216586e-001 -1.93042859e-001 7.24879429e-002 -6.95016012e-002
      -5.84365875e-002 -2.41181403e-001 -3.44764411e-001
      -6.24019094e-002 -6.81885555e-002 -1.97454900e-001
      -1.51993841e-001 -4.09222469e-002 -3.13878134e-002
      -2.10173503e-001 -1.92120269e-001 -3.90271917e-002 4.27433364e-002
      1.30862370e-001 1.50612637e-001 -3.83569747e-001 2.71930564e-002
      -1.53406799e-001 1.17837884e-001 -7.34225810e-002 -1.17193490e-001
      2.40691025e-002 1.24783181e-002 1.24007344e-001 -2.33520135e-001
      -2.22524539e-001 -1.06618866e-001 5.18754795e-002 8.98887292e-002
      -1.12456970e-001 -7.97545612e-002 -1.18218161e-001
      -1.91194668e-001 -1.77259222e-001 -3.12842190e-001
      -1.33652478e-001 -5.20088896e-002 -7.74225369e-002
      -1.63089544e-001 -1.30171016e-001 -2.66757198e-002
      -2.34910890e-001 -5.42983338e-002 -1.00395612e-001 1.74406711e-002
      1.04250729e-001 -9.71721038e-002 -3.24564502e-002 5.84129154e-008
      -2.48918086e-002 1.23836577e-001 -7.44089335e-002 -5.20603545e-002
      -1.53258666e-001 -1.51516140e-001 -1.48912504e-001
      -2.93013901e-001 -6.59706891e-002 -8.10651388e-003 2.09087253e-001
      -2.54606992e-001 1.17500618e-001 -2.15577111e-001 -7.80287981e-002
      -2.30260700e-001</_></support_vectors>
  <decision_functions>
    <_>
      <sv_count>1</sv_count>
      <rho>-1.5755613885829097e+001</rho>
      <alpha>
        1.</alpha>
      <index>
        0</index></_></decision_functions></my_svm>
</opencv_storage>
