<?xml version="1.0"?>
<opencv_storage>
<my_svm type_id="opencv-ml-svm">
  <svm_type>C_SVC</svm_type>
  <kernel><type>LINEAR</type></kernel>
  <C>1.</C>
  <term_criteria><epsilon>2.2204460492503131e-016</epsilon>
    <iterations>100000</iterations></term_criteria>
  <var_all>4284</var_all>
  <var_count>4284</var_count>
  <class_count>2</class_count>
  <class_labels type_id="opencv-matrix">
    <rows>1</rows>
    <cols>2</cols>
    <dt>i</dt>
    <data>
      -1 1</data></class_labels>
  <sv_total>1</sv_total>
  <support_vectors>
    <_>
      1.08094141e-002 9.67442803e-003 1.04828998e-001 1.62616894e-001
      -6.50879741e-002 2.82567054e-001 1.93782941e-001 1.78465798e-001
      1.27625912e-001 4.34925221e-002 1.88982368e-001 2.20108733e-001
      1.33338705e-001 -2.29756102e-001 -1.23236835e-001 3.63519967e-001
      3.63572538e-002 -7.84910768e-002 -4.77977172e-002 -1.04197115e-001
      -2.36905962e-001 9.49962717e-003 -5.27783744e-002 -3.38480994e-002
      -6.37098448e-003 4.74780127e-002 -1.83215007e-001 -9.44115222e-002
      1.70021772e-001 -2.92396396e-002 2.49282643e-001 9.96773243e-002
      -4.08520430e-001 2.56812125e-001 -1.28198192e-001 -2.68676877e-001
      1.12696134e-001 3.47600162e-001 1.68303490e-001 7.61275217e-002
      -1.47398159e-001 -1.65304095e-001 3.99509430e-001 7.47556016e-002
      3.39714549e-002 -2.69258171e-002 1.78985447e-001 -4.32977229e-002
      -8.34669825e-003 -2.56141067e-001 -2.96133697e-001 3.00808847e-001
      -1.70100983e-002 8.32874551e-002 1.20487586e-001 2.09563375e-001
      1.24177776e-001 -1.82658471e-002 1.22942124e-002 -4.06324267e-002
      2.82189310e-001 -1.20589092e-001 -2.86518186e-002 -4.13879305e-002
      1.74084663e-001 -2.78579872e-002 6.46305904e-002 -1.51044056e-001
      -7.20878094e-002 1.67570096e-002 -1.53990211e-002 -1.91744138e-002
      1.35716647e-001 1.45672522e-002 -2.35201165e-001 1.20408222e-001
      -1.75330609e-001 -4.89708595e-002 -3.61157060e-002
      -1.50347929e-002 8.26171599e-003 3.13240252e-002 -2.50096798e-001
      -8.03385675e-002 1.04879394e-001 -3.48874539e-001 -6.66200742e-002
      1.05040409e-001 1.07403807e-002 1.36105912e-002 6.01879731e-002
      -1.94539875e-002 -9.95282978e-002 1.23162366e-001 -1.22289360e-001
      9.61072464e-003 -6.63678944e-002 -1.92839146e-001 -4.19813162e-003
      -3.21426168e-002 6.59528971e-002 -1.96385607e-001 -4.29210020e-003
      -1.29014835e-001 -1.82191655e-001 1.39926448e-001 -1.13485148e-002
      5.56152919e-003 -2.36020744e-001 -3.76800954e-001 -1.59008637e-001
      2.08114654e-001 -3.50023896e-001 7.84359593e-003 3.44035894e-001
      5.27627058e-002 -3.92611064e-002 1.16317958e-001 -2.59537011e-001
      -2.09095970e-001 1.76330701e-001 -4.38515902e-001 -1.76861957e-001
      3.30953747e-001 -1.60177017e-003 -5.91158830e-002 1.21223308e-001
      5.70943281e-002 3.01338993e-002 -4.15877737e-002 -1.99139342e-001
      3.70128043e-002 2.46986806e-001 3.28597218e-001 1.38012841e-001
      -3.12287100e-002 -1.80269554e-001 1.22907363e-001 2.60147508e-002
      -2.66456734e-002 -1.10863298e-001 3.05664629e-001 7.96455145e-002
      -1.50645912e-001 -8.32170770e-002 -7.73459524e-002
      -3.01413029e-001 1.34077191e-001 -2.93291003e-001 6.49734540e-003
      2.64444113e-001 -2.05285147e-001 -3.99416506e-001 -1.15165338e-001
      -2.24226285e-002 1.21183306e-001 2.22675532e-001 -2.00032964e-001
      -2.76227236e-001 2.63508230e-001 4.27885912e-002 -2.11884618e-001
      7.18208998e-002 -2.56785721e-001 -6.49442002e-002 -6.97239302e-003
      -1.04829237e-001 -1.01721682e-001 4.25563902e-001 -1.26951024e-001
      -2.20479146e-001 -5.20818755e-002 -2.33575433e-001 1.59552936e-002
      -1.23822115e-001 3.61740619e-001 -8.93081799e-002 4.36578214e-001
      1.41233101e-001 -1.88919544e-001 -1.21181853e-001 -9.74166095e-002
      1.21567294e-001 1.50769964e-001 -2.27767810e-001 -2.87721157e-001
      4.58654426e-002 -6.50970787e-002 -9.66162309e-002 -1.34505421e-001
      -9.85357985e-002 3.21414739e-001 4.88795117e-002 -2.39003062e-001
      -2.90450364e-001 3.81239243e-002 -1.78017601e-001 9.20073316e-002
      -3.62549722e-001 -2.26289302e-001 -1.47552211e-002
      -2.17217673e-003 1.57084130e-002 -4.73321080e-001 2.29861885e-001
      1.15563139e-001 -1.08168289e-001 -9.07907933e-002 -3.73597723e-003
      3.42293739e-001 -1.82716846e-001 5.26692830e-002 -4.13435280e-001
      3.17624122e-001 8.90892148e-002 -2.91028529e-001 -1.15042791e-001
      -1.54239163e-001 -4.74136993e-002 -6.02714950e-003
      -3.53393883e-001 -1.62247226e-001 -5.54509163e-002
      -1.57782793e-001 -1.32079348e-001 -1.19072542e-001
      -2.29265109e-001 3.38015929e-002 3.78049277e-002 -2.28711903e-001
      -2.27944270e-001 -4.81581353e-002 -8.70609954e-002
      -3.22805159e-002 -7.74626061e-002 -1.13683313e-001 1.32916048e-001
      4.82027680e-002 -1.50259390e-001 -1.22652911e-001 -3.86834959e-003
      -9.34565514e-002 -2.01858908e-001 -2.75263134e-002 3.57583091e-002
      -1.98609307e-002 4.31765132e-002 9.59451050e-002 -2.21669510e-001
      2.45706663e-001 1.61938518e-001 -7.81053007e-002 -1.59561619e-001
      -2.11359262e-001 -6.45759795e-003 -1.11355089e-001
      -7.70105049e-002 -2.03508381e-002 3.12231928e-001 5.67560680e-002
      -6.45583645e-002 -1.67482644e-001 2.34184116e-001 1.59004912e-001
      -1.36778399e-001 -2.38232374e-001 4.98001464e-002 1.51754081e-001
      -1.27618504e-003 -1.03727028e-001 1.22648112e-001 1.28137887e-001
      -1.67859629e-001 -2.31638372e-001 -1.12506943e-002
      -3.18068154e-002 1.30673975e-001 2.33128875e-001 -1.26093611e-001
      9.33235660e-002 1.15136020e-001 1.10409651e-002 -1.33429244e-001
      1.76211055e-002 -2.57738352e-001 -1.01450220e-001 9.71710831e-002
      2.81204693e-002 -3.36297065e-001 1.58172876e-001 2.06726640e-001
      4.29709256e-002 6.34759218e-002 -1.52990863e-001 4.19443548e-002
      -2.50056714e-001 -3.75839263e-001 4.18877751e-002 9.49025974e-002
      -5.45875952e-002 -6.11793883e-002 4.82547693e-002 -2.45527532e-002
      1.58121631e-001 1.38023794e-001 2.01649472e-001 7.93713406e-002
      1.41411692e-001 1.03665508e-001 -2.21951976e-002 1.58427447e-001
      -2.45536402e-001 -1.59556568e-001 -1.74537241e-001
      -3.08765590e-001 -3.40791210e-003 -1.11503102e-001
      -4.42056321e-002 2.45526042e-002 3.25983554e-001 -3.06277759e-002
      2.84537971e-001 2.12493166e-001 -1.45170853e-001 8.79974291e-003
      -4.66843247e-002 -8.30168203e-002 1.22560374e-001 -5.76827452e-002
      -7.69372657e-003 -1.49111999e-002 5.62693924e-002 1.53314006e-002
      9.30345654e-002 -7.77864158e-002 3.05606239e-003 9.13988426e-002
      -1.67802989e-001 6.98776394e-002 -2.93137044e-001 -2.24311605e-001
      2.05111876e-001 -1.21169031e-001 -1.03237005e-002 -1.40448548e-002
      -2.02993855e-001 2.10255280e-001 -3.23314518e-001 -1.02169231e-001
      2.05173343e-002 3.88415493e-002 5.28006032e-002 1.35756001e-001
      6.99954629e-002 -1.71426728e-001 1.29504696e-001 2.21653748e-002
      -7.55982399e-002 -2.03399375e-001 2.98480332e-001 6.87864646e-002
      8.08442160e-002 8.54644179e-002 -2.81831443e-001 -6.97574094e-002
      -5.90445288e-002 -6.40184954e-002 3.80604789e-002 8.82109813e-003
      -1.70707688e-001 1.79358125e-001 4.00197059e-002 -1.94577336e-001
      -2.05472171e-001 2.11305365e-001 1.33126512e-001 2.09259205e-002
      -1.55782960e-002 -1.91722274e-001 4.73634601e-002 -1.32757738e-001
      -2.92250037e-001 5.84437788e-001 -3.50132845e-002 6.57455549e-002
      -1.05098978e-001 2.78795045e-002 -6.26019090e-002 2.99198329e-001
      -7.97008798e-002 6.73293173e-002 1.13883302e-001 1.11057684e-001
      6.48402423e-002 -1.03765400e-002 -5.15132435e-002 -8.73661339e-002
      8.64146873e-002 -5.02459146e-002 -3.20977360e-001 -1.86443254e-001
      1.60916328e-001 -8.78875796e-003 -4.17088252e-003 4.45555635e-002
      5.10338619e-002 2.51144618e-001 4.19446118e-002 -1.49990782e-001
      -9.80143696e-002 1.46751285e-001 1.10617809e-001 -5.82507811e-002
      -1.73862234e-001 -1.48507962e-002 -4.73919464e-003
      -2.42911071e-001 -9.71370116e-002 2.13518918e-001 6.48486838e-002
      5.45720272e-002 4.77347225e-002 1.34527966e-001 1.42840803e-001
      1.44510671e-001 -1.17655702e-001 1.20271631e-001 6.56035766e-002
      2.64024317e-001 -1.57528333e-002 -4.89696041e-002 3.11421067e-001
      2.32374519e-002 2.79224247e-001 -2.56449310e-003 1.22241721e-001
      -2.98781425e-001 2.54954576e-001 2.75171310e-001 4.28984836e-002
      -3.52688581e-002 3.41839017e-003 -3.82538512e-002 -2.10763767e-001
      2.25279793e-001 8.53252038e-002 1.90088779e-001 2.38263309e-001
      1.07346311e-001 4.60890271e-002 -1.40268460e-001 1.67324916e-001
      -2.03026250e-001 -3.87491286e-002 -2.23501757e-001 1.72660165e-002
      -4.85801399e-002 6.44233972e-002 4.13367860e-002 7.18064904e-002
      -1.11131720e-001 -2.81252414e-001 2.12890789e-001 1.34049743e-001
      -9.91040841e-002 -1.36656091e-002 -4.45789425e-003 2.16089308e-001
      -2.44081225e-002 8.39988813e-002 -5.50105497e-002 9.92688388e-002
      7.35059455e-002 1.16078839e-001 1.36829078e-001 1.67504340e-001
      1.09874286e-001 4.65782583e-002 -5.87270074e-002 -1.18323326e-001
      2.16108575e-001 -2.30352320e-002 1.56813025e-001 2.47208960e-002
      3.73431593e-001 9.49464440e-002 -8.80515426e-002 3.16018733e-004
      -1.07739091e-001 1.47366494e-001 -1.00650854e-001 -7.62571618e-002
      8.08292106e-002 -1.08257182e-001 -8.35914239e-002 -2.83442475e-002
      -9.37859416e-002 -6.30352572e-002 6.43823221e-002 2.03608423e-002
      3.97502817e-002 -3.43609974e-002 1.27558514e-001 1.54486313e-001
      1.18333727e-001 -1.24581516e-001 2.79308837e-002 3.05885673e-001
      -6.63392320e-002 1.60952002e-001 -2.03462373e-002 1.41310349e-001
      2.61041317e-002 2.24432752e-001 -1.13658808e-001 -1.77434995e-003
      4.24043322e-003 -2.18786165e-001 -9.29710940e-002 2.33059619e-002
      7.46048391e-002 3.39749634e-001 -8.83488506e-002 -2.01602817e-001
      -4.13133614e-002 4.24530841e-002 1.26431152e-001 1.78213567e-001
      -4.07146141e-002 6.32485226e-002 1.18462510e-001 -7.45600909e-002
      -8.65340605e-002 -1.06165275e-001 -1.61575392e-001 9.28648412e-002
      5.51200705e-003 -8.27714577e-002 -1.17057949e-001 9.19382870e-002
      1.98376775e-001 -4.27917484e-003 -2.88725123e-002 3.48139405e-002
      -1.88737929e-001 7.55538642e-002 -3.83199230e-002 -6.87002614e-002
      6.23818710e-002 3.22846085e-001 4.87637408e-002 -2.10578650e-001
      1.58538185e-002 -3.52962732e-001 4.20274675e-001 -1.89673573e-001
      5.84272332e-002 1.76978543e-001 4.97324802e-002 -3.07769347e-002
      3.33769359e-002 8.41234401e-002 -1.22410551e-001 -7.92328641e-002
      -1.07146896e-001 -2.90952891e-001 -2.99038552e-003 2.05915183e-001
      -1.42462254e-001 -1.50307193e-001 2.14703642e-002 -2.78722763e-001
      2.99185840e-003 3.99509296e-002 6.15832917e-002 3.89186852e-002
      1.07431762e-001 -1.97872892e-002 -7.56174922e-002 1.32190973e-001
      -1.83052763e-001 9.55740288e-002 -1.29788235e-001 5.82988113e-002
      1.27756491e-001 1.36214480e-001 1.73199505e-001 -1.24307439e-001
      3.75638545e-001 1.56502600e-003 1.88558459e-001 1.51368594e-002
      1.29826553e-002 1.36873871e-001 2.85281777e-001 -1.82023033e-001
      -3.02072436e-001 1.39037296e-001 -4.48515952e-001 -1.83753893e-001
      -2.43847102e-001 6.25375956e-002 -2.37006955e-002 -4.37645800e-002
      8.00662581e-003 -2.62716025e-001 2.75702089e-001 -3.21395397e-002
      -7.61208162e-002 -2.96644151e-001 1.44785240e-001 -1.63707808e-001
      -1.42528668e-001 -8.34078938e-002 -4.88199651e-001
      -3.08876902e-001 -8.69103894e-002 -1.32994011e-001 1.40771702e-001
      2.54892796e-001 1.54180937e-002 -1.39714023e-002 1.22242561e-003
      -1.89680994e-001 -5.98788820e-002 2.13530466e-001 1.44090250e-001
      1.42362669e-001 -3.25117223e-002 -1.61528885e-002 -2.17045292e-001
      -2.21783057e-001 -1.39840230e-001 -1.79591656e-001
      -1.59533605e-001 9.57832113e-002 2.80936271e-001 2.62677461e-001
      1.89715371e-001 -1.81367800e-001 -5.98923827e-004 -1.24309584e-001
      1.27129838e-001 -5.32801356e-003 2.04341352e-001 1.80064917e-001
      -1.55918881e-001 1.20535545e-001 6.91123754e-002 1.85715809e-001
      6.43571466e-002 7.73105845e-002 1.41831078e-002 5.70999347e-002
      -5.86221665e-002 -1.63865030e-001 -1.22233607e-001 2.54806876e-002
      8.22117999e-002 -5.87478019e-002 1.04413263e-001 -8.75673890e-002
      5.58948442e-002 4.67642061e-002 -7.16578662e-002 1.05015554e-001
      -5.20256758e-002 1.64056540e-001 -1.88554674e-002 1.44991100e-001
      -2.26293921e-001 1.85594797e-001 -8.35775658e-002 -2.34282553e-001
      -5.78732230e-002 -2.77699411e-001 1.18786842e-001 -1.55296326e-001
      -1.01315826e-001 -1.53744563e-001 1.67703420e-001 4.57696654e-002
      -2.73078263e-001 -1.45534351e-001 -7.42216930e-002 2.26466227e-002
      -3.28845158e-002 -3.50553803e-002 -4.63434123e-002
      -6.05672784e-002 -2.78881460e-001 -7.53187165e-002 1.06764004e-001
      -3.10030967e-001 4.44931397e-003 -6.69258237e-002 5.59435748e-002
      -4.10876349e-002 -3.98005731e-003 5.76170348e-002 -7.27380514e-002
      -4.19414192e-002 1.87390462e-001 5.51302433e-002 -2.90235579e-001
      -1.75241664e-001 -2.49496460e-001 -6.76813163e-003
      -1.21903412e-001 -1.49520144e-001 3.11248124e-001 -9.49373022e-002
      5.07446043e-002 -3.40095252e-001 -2.27712970e-002 -1.85962260e-001
      -3.92085433e-001 -8.93478841e-003 -2.57931441e-001 1.15531936e-001
      -9.12207589e-002 -3.04066837e-001 -1.79325834e-001
      -1.52930602e-001 -9.51684788e-002 1.56707555e-001 -1.79290418e-002
      1.70209825e-001 1.29654512e-001 -1.66005772e-002 -2.09623098e-001
      -9.81347412e-002 9.26901549e-002 1.58373371e-001 2.12187290e-001
      1.07763425e-001 2.22024426e-001 7.82788545e-002 3.73123959e-002
      -1.24031946e-001 -8.00948888e-002 -2.30866581e-001
      -4.86705154e-002 -1.52124971e-001 -9.20657963e-002
      -8.58036131e-002 3.15833956e-001 2.25405134e-002 9.24180262e-003
      -2.72526503e-001 -1.87717393e-001 -8.71179327e-002
      -2.65991949e-002 5.94218448e-002 2.70629585e-001 2.87502021e-001
      5.11623174e-002 -2.68981725e-001 -3.01688850e-001 4.33957390e-003
      1.56688467e-002 8.39762911e-002 1.04184136e-001 -9.13952366e-002
      -8.63106642e-003 3.30445379e-001 2.48704284e-001 1.37901813e-001
      -5.43816537e-002 -6.63021132e-002 -3.23527008e-002 3.12060922e-001
      7.25317448e-002 1.37928903e-001 -1.06321916e-001 6.33544028e-002
      1.99808609e-002 2.38232240e-001 1.80280656e-001 -3.26130956e-001
      -1.26153558e-001 -2.53217310e-001 3.15856710e-002 -1.79804459e-001
      5.64085804e-002 -7.88650960e-002 2.55710594e-002 2.04141811e-001
      -1.69766337e-001 -2.05627874e-001 -2.15901077e-001 5.18496111e-002
      -6.62378594e-002 -1.83636725e-001 -2.25294754e-001 3.44727337e-002
      5.12384623e-002 -6.25778660e-002 1.57287344e-001 -2.78134178e-002
      1.91851128e-002 1.75910518e-001 -1.37520134e-001 1.34221062e-001
      5.94983660e-002 9.95091125e-002 -1.10508673e-001 1.19402241e-002
      -7.66672045e-002 -1.30701944e-001 2.78725114e-004 8.34887847e-002
      7.72525789e-003 -1.58782750e-002 5.82809299e-002 -9.76378247e-002
      2.32982300e-002 1.48405582e-001 8.72444436e-002 -5.39323762e-002
      1.32006988e-001 -8.73158872e-002 -3.33469659e-002 -3.50420326e-002
      7.48813599e-002 1.68086335e-001 -2.43509039e-002 -1.00938208e-001
      -3.40316117e-001 -2.01698795e-001 -7.10703805e-002
      -8.45243931e-002 -2.46590719e-001 1.24421030e-001 -2.37746108e-002
      -9.69422683e-002 -3.19348246e-001 -2.06661180e-001
      -9.96299312e-002 -1.00897230e-001 -7.94632211e-002 1.54881865e-001
      2.52340399e-002 -1.64898157e-001 1.29357010e-001 -1.52058043e-002
      1.04016535e-001 2.29008421e-001 -3.49977501e-002 -1.12108588e-001
      6.12972258e-003 3.01410500e-002 4.36445139e-002 1.01169966e-001
      -1.99726507e-001 2.60639995e-001 1.06483750e-001 -2.01786578e-001
      -4.28694822e-002 1.27947375e-001 1.58538893e-002 1.19067378e-001
      1.46053836e-001 6.77765757e-002 -5.81762157e-002 -1.01330809e-001
      -1.37947291e-001 -8.37676078e-002 -2.82605290e-001 8.83911829e-003
      6.58753291e-002 -3.20161171e-002 -2.01384276e-001 -9.97873172e-002
      7.48273060e-002 -1.82859436e-001 -1.09214656e-001 -3.80008928e-002
      1.01691946e-001 -1.27249165e-002 5.50757162e-002 -3.34265269e-002
      -2.05878764e-002 -1.82204247e-001 -9.86270756e-002 8.78336430e-002
      -1.46936551e-001 -1.93498787e-002 -4.27969955e-002 1.35622889e-001
      -6.72722533e-002 -1.53893486e-001 4.66892794e-002 -2.22049832e-001
      -1.28239498e-001 5.13774827e-002 1.00166455e-001 1.03206113e-001
      2.10795581e-001 1.06733583e-001 -1.91835269e-001 1.15613803e-001
      -2.35059947e-001 1.45561084e-001 -1.74419746e-001 -1.02721043e-001
      -1.88389421e-001 -2.71563381e-001 -3.26121271e-001
      -1.17472135e-001 -1.00641973e-001 -1.46272212e-001 1.67493299e-001
      -7.11427927e-002 1.15204819e-001 2.18398646e-001 -8.58560801e-002
      -2.79716462e-001 1.47950100e-002 1.78819105e-001 7.63749108e-002
      -1.42521456e-001 -2.31268659e-001 -1.67299002e-001
      -6.35657832e-002 1.21796504e-001 -6.89825043e-002 1.34819314e-001
      2.39137203e-001 8.88040215e-002 1.58381518e-002 -9.80510861e-002
      -1.07692843e-002 1.25571951e-001 -1.06751755e-001 -1.24117188e-001
      -2.04203092e-002 1.90259814e-001 1.54907048e-001 -7.61070997e-002
      -2.83060402e-001 -1.68364421e-001 -1.00551490e-002
      -1.46015912e-001 -7.56940618e-002 -2.28314638e-001
      -6.27870783e-002 1.48844987e-001 -1.48848936e-001 -8.34196955e-002
      -1.66094303e-002 -9.23411027e-002 -2.06529826e-001 1.59416571e-001
      -1.59727007e-001 3.04511022e-002 -1.53923616e-001 -2.57931441e-001
      -2.86019385e-001 -1.64514929e-001 3.81955914e-002 -1.87142104e-001
      -9.79940668e-002 -1.58082142e-001 -8.43794942e-002
      -2.42040098e-001 -2.79159218e-001 -8.94908682e-002
      -1.84603989e-001 1.87629890e-002 -3.51978749e-001 -1.54450968e-001
      -2.32432988e-002 -1.11047208e-001 -1.18798994e-001
      -9.89961922e-002 1.19031087e-001 -1.29346386e-001 -2.01432541e-001
      -1.20168179e-001 1.01609208e-001 -1.49432905e-002 -3.71938571e-002
      -4.94587086e-002 2.18750045e-001 -8.57724175e-002 -5.62359281e-002
      -1.38990998e-001 8.51751566e-002 -1.15894541e-001 -2.88451582e-001
      -1.26743056e-002 -2.31287718e-001 -4.43042308e-001 3.86127196e-002
      -2.87558436e-001 6.98291287e-002 -7.56819323e-002 -1.84482381e-001
      -1.47982478e-001 7.88319409e-002 4.64970097e-002 -1.24765955e-001
      3.68320234e-002 -1.52874559e-001 2.47965902e-001 1.69693083e-001
      -1.10250168e-001 -5.58838919e-002 -3.17198694e-001 8.90718400e-002
      -4.07369400e-004 -4.12936769e-002 -3.18591297e-002 3.86044802e-003
      7.75212422e-002 -2.29523376e-001 -3.47947776e-001 -3.83010417e-001
      -1.03465036e-001 -5.16986772e-002 6.49957061e-002 -9.88513082e-002
      -2.39159800e-002 -1.50453746e-001 -2.86512911e-001 1.05433628e-001
      -3.52724381e-002 2.03076527e-002 -8.03572237e-002 -5.32014780e-002
      -2.26588234e-001 1.41758159e-001 -1.93819806e-001 -5.09598069e-002
      -6.92793429e-002 -1.81094840e-001 -4.39121835e-002
      -1.13346726e-001 1.01838596e-001 -2.17649817e-001 2.46633869e-002
      -1.80718437e-001 1.95294648e-001 -5.00898212e-002 1.15438513e-001
      1.19753607e-001 2.11991489e-001 7.97448978e-002 6.11151382e-002
      1.30115971e-001 1.53296605e-001 -2.63302922e-001 -1.16753846e-001
      -1.75011769e-001 2.23261014e-001 1.86527506e-001 1.62725262e-002
      -2.62342673e-002 -4.96271551e-002 -1.87069744e-001
      -2.11769596e-001 -7.25759491e-002 1.92380980e-001 5.22282459e-002
      -2.26208702e-001 -5.73609285e-002 -2.61965811e-001
      -1.61041729e-002 -9.17512178e-003 1.34011164e-001 -9.69044939e-002
      9.44599211e-002 3.36685836e-001 -7.09948391e-002 8.02872032e-002
      9.29319672e-003 1.81999564e-001 -1.90211996e-001 -1.46856112e-002
      3.29542994e-001 3.15882154e-002 1.68487132e-001 2.48809367e-001
      1.15535213e-002 -1.41046286e-001 -3.61557640e-002 3.23608480e-002
      2.02662617e-001 7.09831656e-004 -1.91703975e-001 1.70904234e-001
      7.43914619e-002 2.26017199e-002 -3.28596123e-002 -1.37170002e-001
      2.29496155e-002 1.96918949e-001 2.74260640e-002 1.42818674e-001
      2.20586106e-001 9.67136119e-003 1.96202666e-001 7.77547583e-002
      2.06191212e-001 -9.50643793e-003 3.00273169e-002 -3.27143222e-001
      -2.40125448e-001 8.58219638e-002 -1.06790937e-001 8.37126933e-003
      1.09071791e-001 1.10378660e-001 -1.58348680e-001 6.18822798e-002
      -1.28180787e-001 -9.36938599e-002 1.06399275e-001 4.37673852e-002
      1.66888177e-001 1.45374373e-001 -1.72892064e-002 -4.94038798e-002
      -6.37889206e-002 -1.54523894e-001 -2.03394219e-001 2.42338590e-002
      5.43508790e-002 1.38931453e-001 6.96253926e-002 1.95141807e-001
      -7.09254527e-003 -7.29965046e-002 -1.05025828e-001 5.26513383e-002
      -7.47004524e-002 -3.63538802e-001 -1.92102969e-001 4.96444944e-003
      -5.59929609e-002 -2.95529831e-002 1.39108812e-002 1.97323710e-001
      -1.58449173e-001 -1.21548586e-002 -1.31353438e-001 6.75015524e-002
      -6.75013512e-002 3.55848342e-001 2.15998664e-002 -7.21601844e-002
      -7.07061514e-002 -1.26593873e-001 -2.93330988e-003
      -1.11064278e-001 -3.01222146e-001 1.20670117e-001 5.77954538e-002
      -3.25561851e-001 -8.09072256e-002 -1.78197585e-002
      -2.33425312e-002 7.19406456e-002 -1.42775532e-002 5.50132208e-002
      8.33974332e-002 -3.61524336e-002 -3.11460853e-001 -2.71304995e-001
      3.13434988e-001 -5.88392466e-002 -5.92150725e-002 -2.68764962e-002
      -1.57831341e-001 -8.03664401e-002 9.43979248e-002 -2.90613532e-001
      -3.75526287e-002 5.40150627e-002 2.27313885e-003 -2.71845102e-001
      -5.09866420e-003 -1.88510299e-001 1.71913356e-001 -1.20491246e-002
      -2.50264406e-001 -2.14784622e-001 1.30947068e-001 -5.07975034e-002
      -9.18267593e-002 1.67394444e-001 1.09939411e-001 -5.04731350e-002
      -8.91355202e-002 -1.07183225e-001 -1.79630160e-001
      -5.81809804e-002 -2.98817664e-001 -5.24112731e-002
      -5.03995549e-003 -2.68349107e-002 1.87526673e-001 -1.38663828e-001
      5.13009056e-002 -2.44667083e-001 1.51167184e-001 1.93889916e-001
      -1.72094226e-001 -1.12987123e-001 -1.44062787e-001 9.18595195e-002
      -3.03764820e-001 -1.76700234e-001 7.05662146e-002 -8.02110881e-002
      -1.05509264e-002 5.20016216e-002 -2.64792413e-001 -2.15513200e-001
      -1.98409021e-001 -1.33858800e-001 1.26360655e-001 1.17273554e-001
      5.02982102e-002 -5.70143238e-002 -1.57842234e-001 -4.22664918e-003
      2.16633648e-001 1.64839670e-001 8.62692818e-002 9.41314846e-002
      6.58325404e-002 -1.47861078e-001 -1.78936407e-001 2.30227143e-001
      1.78780541e-001 -5.90553991e-002 -1.44654483e-001 -7.32918307e-002
      5.99267781e-002 -1.47452140e-002 2.88625836e-001 3.70206241e-003
      -2.39963561e-001 1.96492695e-003 -6.19283020e-002 3.89792398e-002
      -3.44239362e-003 3.42636257e-001 4.54037011e-001 -8.38468745e-002
      -4.10525769e-001 -2.43001208e-001 -4.20671701e-002
      -1.49063040e-002 4.00021933e-002 -2.19493508e-001 -1.05679452e-001
      -1.80287793e-001 -3.30952585e-001 -1.40542939e-001 1.35346577e-001
      5.08313440e-002 -6.65195882e-002 -6.35098293e-002 -1.71925388e-002
      -1.35161310e-001 -1.88900501e-001 -2.60771573e-001 9.79500785e-002
      -1.30221575e-001 -7.50535727e-002 -1.25026807e-001 5.59056662e-002
      2.55490452e-001 -4.77749147e-002 -1.32862866e-001 1.47749428e-002
      -1.38829157e-001 2.13814542e-001 1.35535091e-001 -1.97653815e-001
      1.54115871e-001 3.97512829e-003 -1.00745685e-001 1.12784602e-001
      -9.80508178e-002 -2.47836597e-002 -1.46331668e-001
      -1.01050906e-001 -6.98592216e-002 3.57148349e-002 8.17678496e-002
      -2.60365546e-001 -1.53287694e-001 -7.04781935e-002
      -2.30529858e-003 -2.50324428e-001 -2.96429753e-001 1.07407428e-001
      2.24135984e-002 1.08823981e-002 -9.13581476e-002 -6.05367050e-002
      -7.70561919e-002 5.37786447e-002 -1.15456097e-002 9.39857811e-002
      8.99886191e-002 1.94215804e-001 9.45565775e-002 -4.43474278e-002
      2.00453699e-002 -1.35419164e-002 1.03192061e-001 1.65598661e-001
      -1.67551622e-001 -2.28940487e-001 -4.00576415e-003
      -2.20745534e-001 -1.32952958e-001 -1.32297529e-002 2.32496355e-002
      -8.86609927e-002 -2.80903429e-001 -2.22634628e-001
      -7.19854683e-002 5.50524630e-002 -1.08122431e-001 -2.33815446e-001
      -2.32507527e-001 1.15307070e-001 6.70944229e-002 -4.24344480e-001
      7.02176541e-002 1.95147589e-001 1.70862116e-002 -3.13281238e-001
      -1.93182871e-001 4.56088036e-002 -3.31492908e-002 1.23279862e-001
      -1.29688410e-002 1.38112932e-001 4.05891567e-001 1.27969891e-001
      -5.96793480e-002 -1.07379742e-001 1.97783858e-001 9.22940597e-002
      5.53179882e-004 -4.13856748e-003 1.66237466e-002 -1.35584176e-001
      1.56082153e-001 -1.15696348e-001 -1.00666478e-001 7.01139048e-002
      6.01168387e-002 -1.08955644e-001 -1.24542810e-001 2.53671497e-001
      1.58641443e-001 2.06599187e-004 1.27008095e-001 -8.32670107e-002
      1.00445427e-001 1.15108259e-001 1.02536276e-003 -2.22878516e-001
      -1.51030287e-001 3.02928030e-001 -1.90966967e-002 -1.45137012e-001
      -9.33154747e-002 3.43621671e-001 1.28910765e-001 2.07107216e-001
      1.48072705e-001 2.44170040e-001 4.96594876e-001 -9.15547982e-002
      -1.30187482e-001 -4.19155583e-002 1.70374095e-001 5.07725775e-002
      -4.52019684e-002 6.95570197e-004 -6.62883185e-003 1.22888356e-001
      9.28119272e-002 2.83131353e-003 -1.10504374e-001 8.40531662e-002
      -1.62494540e-001 2.00126663e-001 1.19294755e-001 4.19284217e-003
      1.66921914e-001 -1.41551331e-001 -1.84292749e-001 -2.54579000e-002
      8.78343359e-003 -9.07099340e-003 -1.07896723e-001 6.83717281e-002
      1.56558499e-001 1.31280228e-001 1.13431700e-001 -1.41359091e-001
      1.69364482e-001 9.71787646e-002 1.53150577e-002 1.90253541e-001
      7.95034990e-002 -2.00453058e-001 2.13859722e-001 1.54624417e-001
      2.94599496e-002 -7.04056993e-002 2.41751336e-002 6.34550527e-002
      3.92116494e-002 -6.83453828e-002 -1.64563522e-001 -7.26039633e-002
      -7.02778026e-002 -7.49353915e-002 2.35056728e-001 1.66892603e-001
      -1.61696747e-002 1.03777565e-001 1.67020589e-001 -8.20529535e-002
      1.97512835e-001 1.83158413e-001 4.43896204e-002 8.52612257e-002
      1.87594280e-001 -1.24347499e-002 -2.20396340e-001 -6.40766174e-002
      -3.55890721e-001 1.16732363e-002 4.20284830e-002 1.03779137e-001
      -8.35660286e-003 -2.50328511e-001 5.41155338e-002 5.51763177e-002
      -2.22261637e-001 -3.12092632e-001 -2.02918891e-002
      -1.57361850e-001 -3.33268009e-002 -2.30557602e-002
      -2.37904917e-002 1.12130679e-001 1.28958151e-001 -5.34368753e-002
      -9.69567150e-002 2.27560848e-001 1.28258541e-001 6.21772036e-002
      8.25673565e-002 -6.16652519e-002 1.41575113e-001 2.97037840e-001
      -2.22689211e-001 1.74377263e-001 2.26199135e-001 5.88085912e-002
      1.48613781e-001 1.98766127e-001 1.60163417e-001 9.84713361e-002
      -2.37053439e-001 -2.21379444e-001 -3.67763638e-002
      -1.33742506e-004 -5.44256978e-002 7.56929517e-002 -1.38622731e-001
      -2.29304265e-002 -7.15623051e-002 -1.36864468e-001
      -1.65114403e-001 -1.50717725e-003 -8.15152824e-002
      -2.53700605e-003 2.07196981e-001 -1.16947010e-001 -2.54610777e-001
      1.11211963e-001 1.23925671e-001 -6.95326924e-002 1.28431231e-001
      1.41905755e-001 -1.40173197e-001 1.89649574e-002 7.49876276e-002
      1.03115425e-001 6.37701079e-002 2.43694842e-001 1.24913618e-001
      2.61104524e-001 1.57592431e-001 1.06674999e-001 -2.56862883e-002
      -8.13496783e-002 1.47126198e-001 -2.30152886e-002 -8.44587572e-003
      -3.43099833e-002 -5.79155050e-002 6.00166135e-002 -7.20259771e-002
      1.22444913e-001 1.17383085e-001 -3.09190214e-001 4.10926081e-002
      -3.94546725e-002 2.19625346e-002 1.57277614e-001 9.76510122e-002
      7.85998181e-002 -1.06763570e-002 1.75704081e-002 -9.01044346e-003
      3.98035757e-002 2.02361882e-001 8.57046694e-002 8.53629932e-002
      1.24122381e-001 3.46680842e-002 -9.64561105e-002 1.01612702e-001
      -5.61362989e-002 3.45840961e-001 1.63483068e-001 -9.96389985e-002
      2.07467556e-001 9.01980102e-002 -9.97123569e-002 8.03334489e-002
      1.65814415e-001 1.75145298e-001 -1.38407156e-001 -5.38870730e-002
      -2.10704029e-001 1.36430919e-001 1.11085273e-001 -1.69561699e-001
      9.55101922e-002 9.38234031e-002 6.99512661e-002 -3.35423887e-004
      1.97798759e-002 -1.22741215e-001 1.94451064e-001 1.46071725e-002
      -8.09671730e-002 9.01585892e-002 -9.31660309e-002 -1.31835729e-001
      1.92444220e-001 1.03890086e-002 -1.79465875e-001 -6.70099854e-002
      7.03692213e-002 -1.60859808e-001 6.90033585e-002 -1.43937007e-001
      -6.94449618e-002 9.96275395e-002 -4.43310887e-002 -9.03064832e-002
      -3.96617688e-002 -6.33212328e-002 8.71661529e-002 9.78068858e-002
      -1.64894741e-002 -3.12738419e-002 -3.85036506e-002 2.37320244e-001
      2.55495459e-001 1.89486891e-001 2.20240235e-001 -1.54605627e-001
      3.63968611e-002 2.94826068e-002 3.07937693e-002 -2.71367729e-001
      2.35695299e-002 4.13827449e-002 -9.89674702e-002 -9.90947857e-002
      -1.59430623e-001 3.76583356e-003 -2.90223379e-002 -1.86249122e-001
      -2.57871091e-001 -5.25010563e-002 2.18982212e-002 3.86520140e-002
      1.36864930e-001 -1.88453496e-001 -2.18528256e-001 -3.05193961e-001
      -1.91050097e-001 -2.14517966e-001 -2.70225674e-001 9.23022181e-002
      8.43324512e-002 -1.37890756e-001 -1.63676403e-002 -5.58239371e-002
      -3.24872404e-001 -1.51039697e-002 9.23930183e-002 9.23937336e-002
      -1.31678939e-001 1.22212909e-001 -1.14972241e-001 1.02864705e-001
      2.53295839e-001 -1.61695271e-003 -5.62310144e-002 -8.48323330e-002
      -2.28337958e-001 -5.58045991e-002 1.28682390e-001 2.79851228e-001
      1.76531360e-001 -7.81944916e-002 -1.98598921e-001 -1.97471261e-001
      1.13281213e-001 -8.20494443e-002 -1.12726435e-001 -1.07988268e-001
      -1.51968077e-001 -1.25449868e-002 -1.48090441e-002
      -2.66260952e-001 1.35421783e-001 -3.27809677e-002 -2.05930844e-002
      2.45264117e-002 -9.20358747e-002 6.20292947e-002 -7.05904961e-002
      6.22186735e-002 2.75572278e-002 -2.29605451e-001 1.47258267e-001
      -8.16967711e-002 -1.96458578e-001 -1.98046550e-001
      -1.16682529e-001 -8.86774063e-002 -1.23537164e-002
      -1.74156181e-003 1.29994899e-002 -7.55845606e-002 1.33995309e-001
      2.60144360e-002 1.83449015e-002 1.00124761e-001 8.19320157e-002
      1.08379060e-002 -1.05533697e-001 -1.23901159e-001 1.81789249e-001
      -1.01910569e-001 1.28535945e-002 -1.02041565e-001 3.19614679e-001
      -1.62037551e-001 9.32801457e-004 -3.33512723e-002 -1.98383164e-002
      -7.52960369e-002 7.50662759e-002 1.06900968e-001 1.22029878e-001
      -4.87722550e-003 3.35362437e-003 -6.28633425e-002 -9.69359875e-002
      1.23684909e-002 4.84300256e-002 3.16095889e-001 1.39081910e-001
      -3.30994539e-002 2.23892003e-001 2.10066065e-001 1.34042308e-001
      3.87123153e-002 2.13542655e-001 -1.52752489e-001 9.89776477e-002
      1.15573198e-001 -1.05475672e-001 2.60155827e-001 -3.19801986e-001
      -1.38712883e-001 -1.94112286e-001 1.41657546e-001 7.85701424e-002
      2.16857493e-002 -2.33832642e-001 -2.55712837e-001 1.00085214e-001
      6.82824925e-002 2.29831278e-001 8.80997162e-003 5.04034571e-003
      6.54316023e-002 1.62352607e-001 1.73502974e-002 7.01811910e-002
      8.47769380e-002 -5.91629222e-002 2.74952129e-002 7.51409400e-003
      7.65685812e-002 -2.32733600e-002 1.44719616e-001 -1.78629104e-002
      -1.50067315e-001 1.67508274e-001 -1.90250352e-001 -1.72843382e-001
      2.51121726e-002 2.83458382e-001 6.11252785e-002 -1.03765167e-001
      -1.07605219e-001 -9.95170772e-002 1.59058422e-001 1.01766311e-001
      3.06558430e-001 -3.97770070e-002 -3.09053380e-002 2.60828972e-001
      2.38296941e-001 -1.49865746e-001 -2.34428737e-002 2.63262242e-001
      -1.43797383e-001 2.34925359e-001 6.47720927e-003 2.23238274e-001
      -1.28680998e-002 -2.73512423e-001 -1.84097677e-001
      -1.12226367e-001 4.55224007e-001 1.06647275e-001 1.78247616e-001
      -1.77663043e-001 -6.13867529e-002 -1.80790082e-001
      -1.33149862e-001 -9.16683003e-002 -7.37667968e-003
      -1.17514960e-001 6.79430040e-003 3.72325629e-001 -8.76296088e-002
      -2.76900172e-001 -1.05746333e-002 2.76934006e-003 -1.82640761e-001
      9.58530977e-002 7.85082579e-002 1.76942959e-001 2.44936809e-001
      -3.96925285e-002 -4.52247635e-002 -5.37038362e-003
      -1.09210767e-001 -2.38522179e-002 1.63497794e-002 9.66272876e-002
      4.76648435e-002 1.11525968e-001 -1.17372781e-001 -1.15064643e-001
      -1.10930845e-001 -1.37210891e-001 -2.52852868e-002 6.52415827e-002
      6.83381408e-003 1.09707024e-002 1.64762810e-001 -7.27274194e-002
      -4.54271808e-002 1.56171503e-004 -3.39693539e-002 -2.30216324e-001
      -2.36513510e-001 6.45697415e-002 -6.29789159e-002 -1.99321732e-001
      -1.39907345e-001 2.14623243e-001 -1.10859327e-001 1.12975203e-001
      -5.17926775e-002 -3.84887308e-001 1.58229861e-002 -1.21396348e-001
      9.43659693e-002 -1.37139298e-002 -1.24851450e-001 -1.09235719e-002
      -1.66660249e-001 -5.17295562e-002 -1.95466146e-001
      -8.27293992e-002 -1.59206361e-001 -2.66776443e-001
      -2.13543370e-001 9.67903435e-002 -9.50088724e-002 -6.17296956e-002
      5.39707653e-002 -2.94981420e-001 -8.71752575e-002 -6.29883036e-002
      -6.10570190e-003 2.96899319e-001 8.91391560e-002 3.52472156e-001
      6.36054054e-002 -2.68774629e-001 -1.28007933e-001 3.02485794e-001
      -3.18777040e-002 3.43994470e-003 2.18824327e-001 3.24052721e-001
      -1.21214781e-002 -1.99907094e-001 -1.01115592e-001
      -5.85145466e-002 2.76775688e-001 -1.27834201e-001 -3.06821782e-002
      -2.27010712e-001 -2.49277234e-001 3.30444992e-001 2.90029943e-001
      1.02761082e-001 -2.77591676e-001 -5.77726550e-002 -8.30451772e-002
      2.55968034e-001 -2.70811208e-002 1.94917656e-002 7.20853135e-002
      -2.45878417e-002 2.02593654e-001 -5.97529374e-002 1.76436409e-001
      1.50942922e-001 2.46967092e-001 -1.99451998e-001 -5.33730127e-002
      9.38735828e-002 5.00827059e-002 -1.16050869e-001 -2.83353716e-001
      -1.43005311e-001 -1.45504046e-002 -1.37041761e-002
      -3.39014888e-001 -1.63103312e-001 -7.18680769e-002
      -1.43219069e-001 -1.72944337e-001 -9.94823277e-002
      -1.14799619e-001 3.00741512e-002 -2.15414613e-001 -4.01581317e-001
      -3.59894112e-002 -4.81747538e-002 -1.73555538e-001
      -6.35198057e-002 -4.85741585e-001 -2.25515455e-001
      -1.74898341e-001 -2.23994508e-001 -2.96494365e-001
      -3.43837321e-001 -1.10564627e-001 -1.55024335e-001
      -8.22534114e-002 -1.97889537e-001 -1.49738818e-001
      -9.15248618e-002 -2.20633745e-001 -1.19155318e-001
      -1.65307000e-001 1.54162841e-002 1.55162901e-001 -4.63768616e-002
      -5.48682883e-002 -1.98167786e-001 -1.41385114e-002
      -2.65321970e-001 -1.33809179e-001 1.56107306e-001 -9.16455537e-002
      -1.33102968e-001 -3.37079018e-002 -3.80840711e-002
      -2.27418002e-002 1.42458916e-001 -1.20825127e-001 -4.09958214e-002
      -1.84439912e-001 1.31422305e-003 -3.40009443e-002 -1.60140797e-001
      5.49469003e-003 5.14152634e-004 -1.68987036e-001 -2.12480336e-001
      -1.11639403e-001 1.82981640e-001 9.61948745e-003 4.73838747e-002
      -8.95628855e-002 -1.08431064e-001 1.32881746e-001 5.67878149e-002
      -9.82202739e-002 8.66788998e-002 3.11391037e-002 -8.86250734e-002
      -1.79917932e-001 -8.34232494e-002 -2.36119181e-001
      -7.83380121e-002 2.52638698e-001 -2.74180323e-001 8.43801573e-002
      3.37508582e-002 -1.98194444e-001 -2.14511901e-002 -4.41692397e-002
      2.57374525e-001 1.24938344e-003 -1.68467313e-002 4.34773117e-002
      -9.42458734e-002 1.19945362e-001 1.05848044e-001 1.33464430e-002
      -7.13986978e-002 -1.44173190e-001 -1.04593985e-001 1.26057446e-001
      -1.59559011e-001 1.37355953e-001 1.49797916e-001 2.78170947e-002
      7.52390102e-002 -8.11163634e-002 2.19003037e-001 1.57158837e-001
      1.34886101e-001 -2.07951088e-002 5.43419607e-002 6.13298081e-002
      -5.40431542e-003 7.09455237e-002 -5.03411964e-002 -5.17242290e-002
      -6.80463621e-003 -3.49870473e-002 -1.41238600e-001
      -1.27800643e-001 1.92057326e-001 5.71388230e-002 2.80262500e-001
      2.49867719e-002 1.13176472e-001 1.17242150e-001 4.30463254e-002
      1.93155948e-002 8.30418542e-002 1.90380409e-001 1.60678013e-004
      8.90056789e-002 -3.54198456e-001 -1.57198701e-002 -1.59607515e-001
      -5.88586205e-004 -1.09517135e-001 -5.48476167e-002 1.31995827e-001
      1.01308905e-001 3.20261121e-002 -3.55982818e-002 -9.81163085e-002
      8.65918100e-002 2.16394857e-001 -1.33768767e-001 -9.80613828e-002
      1.81083813e-001 1.35695765e-004 -1.07413627e-001 -9.70353708e-002
      1.40509540e-002 2.69529969e-001 -7.69823743e-003 -2.11656809e-001
      1.02282166e-001 1.68115348e-002 -1.81252390e-001 4.52633686e-002
      1.82129100e-001 7.68911019e-002 3.88374291e-002 2.85173267e-001
      2.11083200e-002 1.60402298e-001 1.64460480e-001 -2.00162515e-001
      1.17030125e-002 -1.26439437e-001 -1.36832014e-001 1.30617931e-001
      1.19062588e-001 -1.94044828e-001 -3.46269488e-001 -9.77018699e-002
      -1.34316843e-003 9.29248109e-002 2.00461984e-001 -1.86045930e-001
      -1.01650789e-001 1.00840904e-001 -4.71397415e-002 -1.50387019e-001
      -1.69486627e-002 -1.66862290e-002 -4.51143682e-002
      -1.35436058e-001 -8.01535472e-002 1.95779204e-001 1.92805603e-001
      -1.83452219e-001 -1.43776417e-001 -2.39631440e-002
      -1.81413189e-001 3.93986609e-003 -3.19730490e-001 1.55557796e-001
      8.61893967e-002 9.96553898e-002 -1.84018224e-001 4.08853665e-002
      -7.94160888e-002 -1.62653029e-001 8.68020430e-002 6.96666613e-002
      -1.43195614e-001 -1.56637222e-001 7.49553367e-002 9.55297053e-003
      -1.89880520e-001 -1.02821283e-001 4.48847674e-002 8.57672319e-002
      -5.05715273e-002 1.50298357e-001 -1.10377178e-001 2.12605029e-001
      9.91419330e-002 -3.26535031e-002 -4.67004292e-002 -1.28654763e-001
      3.58639546e-002 -2.71079004e-001 9.10891369e-002 1.05923295e-001
      -3.57095003e-002 -1.25620872e-001 -7.05278246e-003
      -1.64372668e-001 -4.48785499e-002 6.60201013e-002 -2.42500547e-002
      -8.65559578e-002 8.50130469e-002 -2.79563457e-001 -9.68932882e-002
      4.66303937e-002 6.20538816e-002 3.17913340e-003 1.23710446e-001
      7.05399364e-002 3.54560092e-002 1.81315131e-002 2.15200678e-001
      9.18526798e-002 7.23964954e-003 -9.23330262e-002 -3.49052735e-002
      -6.80295471e-003 1.08680546e-001 2.93056499e-002 -1.64994076e-002
      -5.01636602e-002 2.78654605e-001 1.82291314e-001 -2.03753058e-002
      -1.82114299e-002 4.13040146e-002 -1.04312047e-001 2.24589512e-001
      1.15754595e-002 -5.07899635e-002 -1.07074484e-001 1.53328642e-001
      2.40818530e-001 2.93714106e-001 5.52023090e-002 -1.46601468e-001
      2.38870606e-001 -1.26754329e-001 -1.06856421e-001 -1.83799453e-002
      2.88218707e-002 2.90009946e-001 -2.02134103e-001 -1.36726573e-001
      1.48816496e-001 3.47260088e-001 -2.18786299e-001 -1.57463133e-001
      -1.17287800e-001 -7.73114562e-002 -3.77876833e-002 2.37601832e-001
      -1.75606146e-001 2.57430095e-002 9.36038196e-002 1.28500827e-003
      -6.31241873e-002 1.28391553e-002 -1.44970104e-001 8.52332860e-002
      -1.26335993e-002 -4.30624373e-002 -2.76861966e-001
      -9.49872565e-003 -2.32690051e-001 -3.34135932e-003 3.33908647e-002
      2.86635578e-001 -1.09388128e-001 2.83777028e-001 -1.63743153e-001
      -9.88368616e-002 -1.94817577e-002 -5.00083975e-002
      -1.03519142e-001 3.33000302e-001 3.83200318e-001 4.35469672e-002
      1.80596024e-001 2.40511373e-001 -1.49658052e-002 1.60219967e-001
      -5.13930954e-002 -1.36923864e-001 -8.29038844e-002 1.51111409e-001
      5.31183966e-002 -6.50216788e-002 7.86818415e-002 -1.30658954e-001
      3.09010409e-002 -2.98357848e-002 -1.66539356e-001 3.77207100e-002
      -8.54154378e-002 8.12128931e-002 -9.38637555e-002 -2.95515228e-002
      -1.55672245e-003 1.46304220e-002 -1.34420767e-001 -2.70171054e-002
      2.20477507e-001 2.44373664e-001 9.39223096e-002 -2.03979015e-002
      -2.28231736e-002 -1.00564636e-001 -9.01249573e-002 1.38078518e-002
      8.01185891e-002 7.66803685e-004 -4.77564856e-002 3.86519358e-002
      -2.21162643e-002 7.36663211e-003 -7.25573897e-002 1.76032167e-002
      -5.87842911e-002 -8.20575729e-002 -2.68233418e-002
      -3.24483842e-001 9.33914632e-002 1.02107823e-001 -3.29218106e-003
      1.48181021e-001 -2.66341567e-002 8.81954357e-002 1.06812663e-001
      -9.63363275e-002 -1.20260129e-002 -4.19384874e-002
      -1.05927158e-002 3.17540690e-002 -4.58625965e-002 -1.75031334e-001
      -6.84785247e-002 1.58794180e-001 -1.17245384e-001 4.66893166e-002
      4.29971963e-002 4.31435071e-002 -2.04917472e-002 -2.18995750e-001
      1.21261028e-003 1.36977201e-002 2.30966687e-001 -1.19072748e-002
      4.92032394e-002 -6.61203340e-002 -2.33374611e-002 9.24145058e-002
      5.26556857e-002 2.28605922e-002 -2.72450354e-002 9.86869037e-002
      -1.65437505e-001 -1.25850216e-001 -1.42203748e-001
      -7.24500939e-002 2.20353296e-003 -5.40016629e-002 2.23936196e-002
      7.82860592e-002 2.24251345e-001 -2.24863321e-001 -1.13274315e-002
      -1.95647210e-001 1.90901428e-001 -4.69409190e-002 -1.98607951e-001
      1.12871215e-001 1.43443704e-001 1.36870528e-002 -3.26852165e-002
      -5.44375293e-002 4.82836179e-002 -1.45529792e-001 -1.49787903e-001
      5.95817640e-002 1.02896184e-001 -2.30141774e-001 1.56309158e-001
      -2.83172369e-001 -5.82066141e-002 7.14155287e-002 8.25778618e-002
      5.56386933e-002 -7.53042847e-002 -2.16392443e-001 1.30733639e-001
      -1.51703417e-001 -1.29001793e-002 -1.27826557e-001 1.09240748e-001
      1.14439532e-001 4.04574312e-002 1.18610688e-001 6.43246248e-002
      -1.80146366e-001 -2.04323009e-001 -4.31669056e-002 5.45221241e-003
      -3.17290798e-002 -5.50820269e-002 -3.10441502e-003 1.05106473e-001
      -1.15180977e-001 -5.83064393e-005 3.00223660e-002 -6.91875443e-002
      8.17736015e-002 5.27606308e-002 4.36537288e-004 9.38353390e-002
      5.06084822e-002 1.31801618e-002 6.96574822e-002 -8.40947926e-002
      1.04886189e-001 -2.25897469e-002 -3.00347544e-002 1.29162848e-001
      2.13107511e-001 1.85219437e-001 1.65919736e-001 5.66246510e-002
      -1.17943898e-001 -1.23832121e-001 -9.61889103e-002
      -1.00887358e-001 -6.20784126e-002 1.40485661e-002 1.18339904e-001
      1.32631943e-001 1.58869967e-001 6.00732863e-002 -1.61514327e-001
      -5.79076149e-002 -6.69812188e-002 2.30268184e-002 -1.29866358e-002
      -1.15056047e-002 -7.30912983e-002 1.46964453e-002 -2.69040260e-002
      3.20004560e-002 1.07692197e-001 1.25928283e-001 -1.43024474e-001
      -1.82192266e-001 -3.27310711e-002 -1.50391017e-003 1.77881002e-001
      1.05397724e-001 3.16554047e-002 -1.05216511e-001 -4.14868928e-002
      9.20689479e-002 -5.35123050e-002 -4.79169711e-002 -1.11256763e-001
      5.24374954e-002 -1.02434397e-001 -6.70651346e-002 -8.50233734e-002
      1.63762406e-001 -1.70392230e-001 -3.53678800e-002 2.40866262e-002
      5.22985961e-003 -1.48086101e-001 -5.73332328e-003 9.98236388e-002
      -1.67234138e-001 -4.00317311e-002 -8.65818933e-002 1.17934875e-001
      2.54684269e-001 1.32216036e-001 1.46503709e-002 -2.41718604e-003
      -1.25228748e-001 1.82650208e-001 3.35397497e-002 -4.73278798e-002
      -1.15903519e-001 2.53859788e-001 1.95535854e-001 2.52378844e-002
      -1.64662629e-001 1.13008440e-001 -4.67857942e-002 -9.88974273e-002
      -1.34666324e-001 2.38571078e-001 2.55828723e-002 -2.36820355e-001
      -1.66334167e-001 8.19530860e-002 -1.43969342e-001 -1.25155523e-002
      1.77940160e-001 -1.53405622e-001 4.39336002e-002 -3.52075584e-002
      -2.42414768e-003 -1.99937262e-002 1.75923318e-001 -3.74476351e-002
      1.92577876e-002 -5.68164475e-002 6.35224730e-002 -1.01783484e-001
      5.06898947e-002 3.37273628e-002 3.45381089e-002 -2.55481124e-001
      -1.18579775e-001 -1.55494601e-001 -1.41754718e-002
      -1.64451465e-001 -5.31992503e-002 8.87727365e-002 4.85088192e-002
      -6.58390671e-003 -3.24910372e-001 -1.73234567e-001 2.38261059e-001
      5.73716238e-002 -2.41952669e-002 5.36912958e-005 -1.47362396e-001
      -2.93642044e-001 -2.42969841e-001 -1.56423151e-001 2.36132294e-002
      4.92820740e-002 9.77711007e-002 -1.33320823e-001 1.08182468e-001
      1.53171062e-001 1.01848170e-002 -4.44435105e-002 1.49797484e-001
      3.53457220e-002 2.23368943e-001 -7.39779100e-002 2.42097303e-001
      2.76691586e-001 -4.37338836e-002 -2.14375421e-001 -2.30639488e-001
      5.59010953e-002 1.52426422e-001 -1.60271093e-001 -1.80407371e-002
      5.64135276e-002 -1.68910474e-001 4.96879935e-001 1.28259107e-001
      2.59962887e-001 -1.17609732e-001 8.78474712e-002 -3.28531295e-001
      -1.09706856e-002 2.91111499e-001 3.22322816e-001 -1.31646097e-002
      2.35325322e-001 1.75614636e-002 -2.75027186e-001 -1.81438595e-001
      3.44144888e-002 1.02931164e-001 1.57946691e-001 -2.85001606e-001
      -1.45605383e-002 6.85216710e-002 2.12379172e-001 -5.88215925e-002
      1.59451827e-001 -2.24410504e-001 8.92901123e-002 -1.96175843e-001
      -1.98670641e-001 6.96540028e-002 -3.04118395e-001 -1.69544071e-001
      -1.46787539e-001 -2.01025163e-003 -3.86933573e-002
      -1.92034066e-001 -1.73015490e-001 -1.35259584e-001 1.36316687e-001
      -1.21936090e-001 6.32504374e-002 -2.31699124e-001 -7.97250941e-002
      7.54892677e-002 -9.72611606e-002 1.65272169e-002 -3.26892376e-001
      -1.97439954e-001 -1.65561244e-001 1.18621163e-001 -2.45559290e-002
      -5.57074770e-002 -8.55322853e-002 6.15475066e-002 4.60776426e-002
      -2.25836337e-001 2.97874175e-002 -1.57291457e-001 2.66196318e-002
      -3.25382411e-001 -2.13693470e-001 3.13101746e-002 2.41347700e-002
      -1.90722033e-001 -3.41767311e-001 -1.67518422e-001
      -1.02076186e-002 -7.59722218e-002 -1.64354891e-001
      -1.25382766e-001 -1.60077885e-002 1.20295107e-001 -6.30956069e-002
      -2.50558257e-001 -1.50705636e-001 6.32969290e-002 1.11550272e-001
      -5.06124571e-002 -2.33286530e-001 -1.38792962e-001
      -2.38094181e-002 -3.04201385e-003 -1.33065879e-001
      -1.55873045e-001 -7.64193526e-003 1.23883970e-001 1.10975746e-002
      -6.46460652e-002 6.93497136e-002 1.47342056e-001 -6.84967637e-002
      -1.59595355e-001 -1.54045269e-001 1.88220218e-001 -1.65926948e-001
      -1.10175699e-001 -1.65664285e-001 2.47477796e-002 3.45963240e-002
      1.02720633e-001 7.48864338e-002 3.78177352e-002 -1.04680546e-001
      2.28502542e-001 -3.87812629e-002 -1.02855071e-001 3.76690142e-002
      1.14068218e-001 -5.30875288e-002 4.41152975e-002 2.16057822e-001
      -2.37191562e-002 -1.68955594e-001 -9.26035643e-002 9.14903805e-002
      1.39582127e-001 1.21462405e-001 -3.73197161e-002 1.33647351e-002
      1.00517057e-001 -5.06988950e-002 1.73551559e-001 -6.51176348e-002
      -1.75899357e-001 -2.67315149e-001 6.03972469e-003 6.31764904e-002
      -3.46870124e-002 1.17287561e-001 -4.98138778e-002 2.53306399e-003
      -2.33448699e-001 -2.62724489e-001 -2.88620263e-001
      -6.61153123e-002 -4.63117287e-002 -4.37821038e-002
      -8.61223191e-002 4.29977737e-002 9.66761490e-006 -1.11031145e-001
      3.69021147e-002 1.43118426e-001 6.66777939e-002 -3.67091298e-002
      -9.84747661e-004 4.61410210e-002 6.12932332e-002 1.29053975e-002
      7.12106228e-002 -8.70732442e-002 1.36992916e-001 4.79017720e-002
      1.13014672e-002 -1.05073944e-001 7.90273547e-002 2.50474542e-001
      9.90054980e-002 1.42546639e-001 -1.16670512e-001 7.30195865e-002
      -1.20282009e-001 -3.34296227e-002 4.95635383e-002 3.96656990e-002
      3.14518183e-001 3.39983962e-002 1.52214199e-001 5.01486398e-002
      1.10956267e-001 3.99302095e-002 8.52542371e-003 -2.11483076e-001
      -2.75245845e-001 -2.43025586e-001 2.59254482e-002 6.01401143e-002
      5.84958196e-002 -6.77963570e-002 -1.69042140e-001 -1.61974877e-001
      5.76965883e-002 1.85688958e-001 -1.87125608e-001 2.09447324e-001
      1.49186656e-001 7.92845115e-002 7.76254162e-002 -5.86589538e-002
      -1.89339563e-001 1.34385936e-002 -1.03114225e-001 -1.87620625e-001
      -2.81489752e-002 3.63810657e-004 -1.67311803e-001 -1.26839191e-001
      -2.29101434e-001 -5.08811958e-002 1.81339025e-001 -9.69329104e-003
      -3.81264724e-002 -6.81941211e-003 2.56009310e-001 6.99012280e-002
      -6.94483593e-002 1.20746724e-001 -2.66395472e-002 -3.47580276e-002
      -1.83546990e-001 -1.74100623e-002 -3.53684445e-004 1.28888860e-001
      5.22191115e-002 -5.76490909e-002 8.05237591e-002 -5.11024669e-002
      1.08817846e-001 1.84885412e-002 -7.82867745e-002 -4.82024765e-003
      -1.38470411e-001 1.00694187e-002 1.39205307e-001 7.25597516e-002
      -1.82418093e-001 -1.06215149e-001 -2.02343632e-002
      -2.12927386e-002 2.03710906e-002 1.21819839e-001 -1.03886515e-001
      -2.13614404e-001 3.96817662e-002 8.96544158e-002 -1.05471082e-001
      -1.84344471e-001 -3.15974295e-001 8.52336362e-003 1.29932255e-001
      1.07165188e-001 -7.09508732e-002 9.31485731e-004 -2.77603548e-002
      9.86786708e-002 -1.44021856e-002 5.40944701e-003 1.72390118e-001
      3.40077616e-002 -2.01435432e-001 1.98580772e-002 7.20349550e-002
      -1.09027416e-001 1.78445652e-001 -1.70246214e-001 -2.28917688e-001
      6.48259819e-002 9.36568379e-002 1.17252648e-001 3.49295348e-001
      5.49986549e-002 -1.37472644e-001 2.67723233e-001 2.09826753e-002
      2.74932124e-002 -9.00074840e-002 1.90700248e-001 -1.83650091e-001
      -1.04888573e-001 -9.06958878e-002 -4.56598736e-002 1.71275377e-001
      8.31525624e-002 4.20297086e-002 -6.93182573e-002 1.72063023e-001
      -1.65446833e-001 -1.57243118e-001 -1.51279211e-001 8.78631324e-002
      -1.36502966e-001 8.11361447e-002 -4.03714739e-002 1.27069866e-002
      1.50153413e-001 4.53041904e-002 1.00766391e-001 7.28676841e-002
      3.21116716e-001 -2.37399608e-001 -1.16001209e-002 3.77484746e-002
      2.26768833e-002 3.12949866e-002 2.36471936e-001 1.34050325e-001
      1.53101981e-001 -7.40743577e-002 4.08717655e-002 1.50043577e-001
      1.40874565e-001 -3.06881398e-001 2.78257966e-001 -1.81497857e-001
      -4.19090837e-001 -2.30479524e-001 -3.60112600e-002 4.08285111e-002
      4.96402867e-002 1.70836616e-002 -2.17783630e-001 2.40722269e-001
      4.26138490e-002 1.25685120e-002 1.58527344e-001 -2.30974723e-002
      -7.29982778e-002 -5.26162572e-002 7.62210414e-002 -8.62012058e-002
      -1.91129670e-001 -9.28885117e-002 1.14144869e-001 -6.80960119e-002
      1.05104454e-001 6.51769787e-002 4.73852009e-002 3.31666134e-002
      -7.79476762e-002 -1.06406599e-001 -5.25712729e-001
      -3.67096509e-003 4.96743992e-002 -1.47096977e-001 7.94850141e-002
      -1.56329885e-001 4.18024957e-002 -3.28412503e-001 1.18649220e-002
      -1.88683495e-001 1.13273105e-002 9.91131645e-003 -1.17904037e-001
      2.02363744e-001 9.66543630e-002 4.82154265e-002 -1.30533203e-001
      -2.49417778e-002 -6.13466837e-002 8.93680081e-002 -1.33100018e-001
      3.35021466e-002 -1.00670241e-001 -6.04732521e-002 -4.42244411e-002
      1.98610589e-001 9.95171070e-002 -5.99217527e-002 -2.64620066e-001
      -9.96290892e-002 -7.83716813e-002 -3.08138043e-001
      -1.90189350e-002 3.96812335e-002 2.88060844e-001 -2.26956774e-002
      -5.42026274e-002 -1.49413049e-001 -1.37395427e-001
      -2.23171771e-001 1.64192617e-002 1.72433630e-001 -1.54323429e-001
      -8.69175866e-002 8.22934285e-002 1.55821308e-001 5.57218771e-003
      -2.72286564e-001 -2.36292928e-001 -2.71545704e-002 6.17584288e-002
      -9.03357118e-002 3.59459743e-002 -4.03393283e-002 5.41307330e-002
      -9.14058462e-002 -3.84062141e-001 -1.51451916e-001
      -1.66696504e-001 -7.88740627e-003 9.10949782e-002 1.35273576e-001
      -1.02564134e-001 -6.37142062e-002 -4.93309759e-002
      -3.75327468e-001 -1.63687214e-001 -6.37724847e-002
      -1.06055790e-003 -1.84141323e-002 1.67415604e-001 1.65181100e-001
      1.91562865e-002 -2.27790728e-001 8.59245192e-003 -8.87170881e-002
      -1.08590893e-001 2.79541616e-003 1.52492076e-002 -9.45522413e-002
      -1.60158157e-001 -1.55156523e-001 -3.45663764e-002 1.33973891e-002
      3.93231101e-002 -2.62817919e-001 -1.42512009e-001 -7.31867552e-002
      1.59128815e-001 1.87006950e-001 -8.64986479e-002 -7.72198960e-002
      2.55262889e-002 1.61083192e-001 -2.10383609e-001 1.64988101e-001
      -1.31580114e-001 3.22762251e-001 3.54257552e-003 1.30105868e-001
      -5.61607331e-002 2.67743934e-002 2.44240865e-001 -1.53330430e-001
      -6.15930185e-002 -1.23932593e-001 1.33173421e-001 -1.11021698e-001
      3.62293124e-001 2.50054151e-001 1.10005349e-001 1.16561651e-001
      7.93338865e-002 -3.17148454e-002 -2.23156333e-001 1.63687915e-001
      -1.47671238e-001 1.28672773e-003 -2.42110610e-001 8.85690004e-002
      -8.15653130e-002 -7.10911974e-002 2.14991905e-002 -7.75574520e-002
      -6.63943309e-003 -1.11635908e-001 -1.42970636e-001
      -4.60723639e-002 -1.04438372e-001 2.66470015e-002 -1.37475342e-001
      -2.69372106e-001 -4.45192307e-002 3.92318338e-001 -1.24628823e-002
      -1.09685637e-001 -9.94375423e-002 1.20358028e-001 -2.23412067e-002
      -1.04384333e-001 -2.53129989e-001 6.11239560e-002 3.44446063e-001
      1.86501116e-001 -6.32853881e-002 -1.88961312e-001 1.29084855e-001
      1.97934620e-002 1.67753741e-001 -9.51796919e-002 -7.62161016e-002
      2.59093970e-001 9.27028432e-002 -1.38056785e-001 -7.79150203e-002
      3.16732167e-003 -2.53705502e-001 -3.04034743e-002 -3.82070065e-001
      -1.76076874e-001 2.92457938e-002 -2.60387757e-003 2.07635928e-002
      -2.44175401e-002 2.08651528e-001 -1.14235289e-001 -3.15883696e-001
      -6.58577606e-002 -1.33469049e-002 4.17441390e-002 -4.49135788e-002
      -9.18616541e-003 -2.32914254e-001 -1.84902579e-001
      -1.47885367e-001 -8.89370590e-002 1.88784704e-001 -8.32356289e-002
      1.43248901e-001 5.73417172e-002 -5.25016822e-002 -3.48226517e-001
      -8.64100009e-002 -8.38257298e-002 -2.28206843e-001 7.81923085e-002
      -6.07880726e-002 1.55427471e-001 -1.00107126e-001 -1.68904766e-001
      -2.19055906e-001 1.27451807e-001 -4.30063941e-002 -1.63796753e-001
      1.74858004e-001 7.00819120e-002 -1.36748746e-001 -1.16398185e-001
      -1.73261017e-001 -1.96046427e-001 -1.55928552e-001
      -1.60503864e-001 6.26885816e-002 -4.38624993e-003 -2.14552194e-001
      1.88298851e-001 -8.31993073e-002 5.90858457e-004 -1.89177185e-001
      2.01156060e-003 -1.38038456e-001 6.14772290e-002 -2.41065361e-002
      -2.76201904e-001 3.41870546e-001 1.02732308e-001 -1.31244093e-001
      5.59665859e-002 -1.01559602e-001 -2.90176757e-002 -1.94745451e-001
      4.20838818e-002 -4.92337570e-002 -1.08671792e-001 -2.93796182e-001
      -3.86612155e-002 -2.00074404e-001 5.44871464e-002 -3.76220867e-002
      -1.72123656e-001 2.30477676e-001 9.44163352e-002 -5.18491752e-002
      -5.27862161e-002 -4.71502431e-002 4.56231199e-002 9.42803826e-003
      -3.41148092e-003 -4.99291196e-002 9.86226723e-002 -2.57857263e-001
      1.76742569e-001 2.09702482e-003 -1.27489805e-001 -1.03180213e-002
      -9.92035493e-002 -4.91619557e-002 1.89562947e-001 7.52697438e-002
      -9.81985107e-002 -1.03648178e-001 2.10033104e-001 4.06678952e-002
      1.59512624e-001 -9.26838815e-002 9.65939686e-002 9.45089832e-002
      2.45608374e-001 -2.45953351e-001 -7.29828477e-002 -2.84462154e-001
      -1.71295807e-001 -1.79007560e-001 4.58206870e-002 -6.04023412e-002
      1.75343245e-001 4.22987938e-002 -7.04915896e-002 -2.02706665e-001
      -3.61970752e-001 -3.89782758e-003 -6.18954562e-002
      -1.74039871e-001 1.45455062e-001 5.56646958e-002 1.58318549e-001
      1.52602658e-001 -1.27423644e-001 -3.43737006e-002 -3.23646963e-001
      -2.07863465e-001 -4.20674495e-002 7.40603209e-002 -2.82181203e-001
      -5.00646699e-003 -1.66616619e-001 1.05038881e-002 -2.25648284e-002
      3.13557722e-002 -1.36027262e-001 -4.04802524e-002 2.46160462e-001
      1.68788329e-001 3.27743739e-001 1.39785215e-001 1.68041270e-002
      -1.95526898e-001 -7.13426471e-002 -3.55570717e-003 1.40712172e-001
      3.21270786e-002 -3.80618572e-002 2.08032597e-002 -2.07482308e-001
      1.27503455e-001 -4.84297723e-002 9.59690064e-002 -6.79109106e-003
      1.08727194e-001 -7.91537985e-002 -3.89780998e-001 -5.08482307e-002
      7.59792253e-002 -7.17267022e-002 4.50901315e-002 -2.47871913e-002
      6.67292178e-002 -8.48105624e-002 -9.73948538e-002 -2.32629135e-001
      -1.45130893e-002 5.64938448e-002 1.00704938e-001 -1.75519586e-001
      -6.72815833e-003 1.41758889e-001 -2.85607483e-002 -3.65102640e-003
      -1.79183319e-001 -1.08453736e-003 1.67913437e-001 -7.82485902e-002
      -1.35203004e-001 1.21619575e-001 1.02069110e-001 8.62287078e-003
      -1.71116192e-003 1.93262279e-001 2.18752652e-001 -3.03843450e-002
      -6.22370541e-002 -3.56856018e-001 -5.25941420e-003 7.34222233e-002
      4.84394319e-002 -5.77155836e-002 -1.47863463e-001 -1.60477102e-001
      -1.25395149e-001 -4.58001383e-002 -7.90983662e-002
      -3.67173292e-002 9.26513523e-002 5.10133281e-002 2.28352904e-001
      1.65198743e-002 -7.85940439e-002 2.48395741e-001 1.75923705e-002
      -1.61303371e-001 -7.23122107e-003 -3.69013995e-002 8.97400379e-002
      1.09147970e-002 1.65147245e-001 6.25971183e-002 1.19182870e-001
      6.76856339e-002 -4.39159095e-001 -1.64236441e-001 6.67764992e-002
      3.07685155e-002 2.47220576e-001 3.14649314e-001 -1.20652638e-001
      7.38343149e-002 -1.18783340e-001 -5.63718341e-002 1.35725662e-001
      1.30783111e-001 8.25280920e-002 -7.92303085e-002 -1.76964313e-001
      -1.30215630e-001 3.01141459e-002 -6.46649152e-002 -1.52719766e-001
      3.01636364e-002 -1.98855013e-001 -6.90225363e-002 7.63298720e-002
      -2.45647598e-003 1.26509055e-001 1.56408802e-001 -1.27526626e-001
      -2.46060506e-001 1.30504116e-001 -8.04538354e-002 6.04228601e-002
      -2.93899886e-002 2.63082031e-002 4.93678600e-002 1.17136449e-001
      2.27404945e-002 -1.08769462e-002 1.58640027e-001 2.26073693e-002
      -5.26766479e-002 1.20834202e-001 -4.94532883e-002 -2.21964031e-001
      -6.65966943e-002 -1.23673361e-002 -1.25365809e-001
      -7.22129717e-002 1.66364267e-001 -9.73224565e-002 5.05600311e-002
      -1.23224109e-001 1.41339190e-002 -7.64151514e-002 -9.45105404e-002
      -1.64883494e-001 1.28422186e-001 -3.93444709e-002 2.43003353e-001
      1.58791021e-002 1.60936400e-001 3.31664272e-003 7.13179708e-002
      2.75465965e-001 5.55890463e-002 3.90703857e-001 1.47693406e-003
      2.04193801e-001 7.12954924e-002 -1.06766351e-001 -1.15146346e-001
      -2.51222670e-001 1.17383920e-001 -1.30476980e-002 -1.14289105e-001
      -4.50722635e-001 -1.77875713e-001 1.17214799e-001 5.00256084e-002
      5.41779660e-002 -3.42328884e-002 4.22779024e-002 -1.70275763e-001
      1.81207195e-001 -1.46847874e-001 1.62220016e-001 -2.99218893e-001
      3.29348929e-002 -1.74465775e-001 -1.26278147e-001 -1.82162260e-003
      5.62752746e-002 1.54260516e-001 -1.30343899e-001 2.39680782e-002
      -2.36549795e-001 1.80592999e-001 1.05569966e-001 -6.57091513e-002
      -5.37652932e-002 -1.45007700e-001 6.99284747e-002 -1.78481489e-001
      -1.37888342e-001 -6.80882111e-002 -2.44738832e-001
      -9.38917696e-002 -7.22529739e-003 1.79337002e-002 -1.71321750e-001
      3.34101915e-002 -3.85651179e-002 -1.77308545e-001 -2.14068174e-001
      -1.07264943e-001 1.53849483e-001 1.76675886e-001 5.95789924e-002
      1.20223779e-002 -1.06769271e-001 1.22684218e-001 -3.64510790e-002
      2.49241322e-001 -5.64088821e-002 2.76634842e-002 3.09768282e-002
      4.70971204e-002 -6.12951443e-003 1.29675806e-001 -2.52540708e-001
      -4.13455255e-002 -6.29963651e-002 -6.56551272e-002
      -3.78455520e-002 1.83727182e-002 3.10327619e-001 6.77831993e-002
      2.28561834e-001 2.04929739e-001 6.81625903e-002 -2.97808065e-003
      8.03808868e-003 -1.45851150e-001 -2.97534838e-002 -7.38077760e-002
      4.92845848e-002 5.28538339e-002 -1.16114140e-001 1.50439041e-002
      -2.63472319e-001 -1.42873069e-002 -4.41724323e-002 1.63382869e-002
      1.69282958e-001 2.12364867e-002 -9.59205776e-002 -1.61347762e-001
      -1.64087430e-001 -1.75923511e-001 -6.68685660e-002
      -1.01994891e-002 -1.91702560e-001 -8.24663639e-002
      -6.26122877e-002 4.77918796e-002 1.56408265e-001 1.90646444e-002
      -3.54896747e-002 2.30049249e-002 -1.30313605e-001 -2.38529742e-001
      -9.12304670e-002 -3.00919235e-001 -1.31598502e-001
      -5.61112277e-002 4.97359410e-003 -2.02260002e-001 -2.69158870e-001
      -4.17732038e-002 -1.56057552e-001 -1.74006354e-002
      -2.69640714e-001 -3.08107197e-001 -2.82330155e-001
      -8.59130993e-002 -1.18254781e-001 -1.20307319e-001 1.12952599e-002
      4.21358161e-002 -1.26983732e-001 -2.85848882e-003 -1.68855533e-001
      -1.98800325e-001 2.88473424e-002 -2.64313847e-001 -9.38627645e-002
      -7.32281953e-002 -1.92511424e-001 1.17541328e-002 -1.79248840e-001
      -1.81017593e-002 -5.44604994e-002 -9.58326384e-002 3.89509201e-002
      7.87411183e-002 -1.64658338e-001 -1.27870604e-001 3.37562352e-001
      4.24465090e-002 1.08922258e-001 5.40787913e-002 8.73472542e-002
      -4.37816262e-001 -7.52768153e-003 1.57426387e-001 -1.74530715e-001
      5.32175601e-002 -3.55946496e-002 -7.23068267e-002 -2.08361357e-001
      -1.46341711e-001 -3.55628468e-002 -3.14774886e-002 2.42195919e-001
      -1.70920521e-001 1.13426372e-001 -4.08500507e-002 -1.16897739e-001
      -3.62679362e-001 4.63144630e-002 6.00220822e-002 8.97696894e-003
      -2.43112698e-001 -6.15813062e-002 2.61993170e-001 -2.07753062e-001
      3.28070857e-002 1.21469803e-001 1.75172850e-001 9.31900218e-002
      6.92064688e-002 5.19208051e-002 -1.71304882e-001 1.97028399e-001
      -1.31609321e-001 6.40831888e-002 2.64198542e-001 1.21904295e-002
      -4.72097322e-002 2.28872523e-001 2.83661089e-003 -6.36437237e-002
      3.72737311e-002 -1.66304737e-001 -6.47265762e-002 -1.33447930e-001
      -8.28963071e-002 -2.28305906e-002 2.17810974e-001 -7.69546926e-002
      -2.76273042e-001 -3.48069854e-002 3.63117494e-002 -3.87493595e-002
      1.53029203e-001 -1.10443443e-001 -6.15352355e-002 -1.15808356e-003
      -3.10297664e-002 -2.06466645e-001 1.25474274e-001 1.41970381e-001
      -6.54502809e-002 -4.18886803e-002 -9.00829285e-002 2.37896845e-001
      2.97578037e-001 -1.13454543e-001 -1.28007770e-001 2.19727129e-001
      2.73794830e-001 3.11108306e-002 9.49767157e-002 -6.59020841e-002
      -9.00388286e-002 -7.24042803e-002 -8.31321776e-002
      -9.12874937e-003 -1.08763508e-001 2.39152640e-001 -1.34997413e-001
      5.56101017e-002 -9.73823518e-002 1.24921113e-001 2.36007735e-001
      -1.26425892e-001 -1.38310418e-001 8.58893916e-002 2.92535108e-002
      -2.27235228e-001 1.80129051e-001 -7.24900365e-002 3.13635282e-002
      7.45207295e-002 -4.11424525e-002 5.01563959e-003 9.97558534e-002
      5.61671108e-002 1.11095779e-001 1.26799002e-001 -5.10408729e-002
      2.63640642e-001 -1.76696092e-001 1.02430522e-001 3.32385786e-002
      -4.91457945e-003 2.15638041e-001 -3.40573825e-002 -1.30826067e-002
      1.63515687e-001 -4.18921150e-002 9.41010714e-002 9.65383723e-002
      -1.88185409e-001 -3.80251199e-001 -1.23063110e-001
      -3.43005002e-001 1.26553342e-001 -3.53169560e-001 1.97236195e-001
      1.73245035e-002 9.02902558e-002 2.78927502e-003 -2.03404248e-001
      6.55770898e-002 -3.67152989e-001 3.20149027e-002 -1.46868050e-001
      8.98149610e-002 -1.14258148e-001 1.44300058e-001 6.89217374e-002
      -1.36259422e-001 3.06629743e-002 5.93691505e-002 2.28378773e-002
      9.20901000e-002 6.09909883e-003 -8.04138631e-002 -7.47577325e-002
      -6.02497831e-002 2.54338328e-002 2.55925599e-002 -9.42947790e-002
      -1.60885438e-001 7.71572590e-002 4.43878360e-002 -1.53558090e-001
      -5.64749725e-002 9.38134640e-002 -1.49242908e-001 1.67228393e-002
      -1.42878458e-001 -3.47449281e-003 -4.39852290e-002 1.20145828e-001
      -5.62029816e-002 -4.33044508e-003 1.12297863e-001 -2.09159195e-001
      -6.16305843e-002 -7.93926939e-002 -5.60258050e-003
      -8.08310062e-002 -7.43892491e-002 4.91065159e-002 7.68852010e-002
      -5.16280085e-002 1.21116042e-001 6.44003823e-002 1.70524836e-001
      2.15464327e-002 -4.63898815e-002 -2.08493203e-001 4.23209891e-002
      1.24759734e-001 -6.82865176e-003 1.29386738e-001 -1.60578579e-001
      1.51396334e-001 -1.75105214e-001 5.71044199e-002 -8.93792063e-002
      -2.63700429e-002 1.68003917e-001 -6.16898537e-002 9.83781070e-002
      -1.25981838e-001 1.98055983e-001 6.32382184e-002 -1.88108146e-001
      1.24257319e-001 -9.62588564e-002 -1.80411281e-003 -2.26352029e-002
      -5.09282947e-002 -5.75030223e-002 2.04322904e-001 9.73093957e-002
      9.72084925e-002 1.10141218e-001 -7.97471553e-002 -2.64888462e-002
      2.29792204e-003 9.08431485e-002 -5.83519461e-004 -7.59370178e-002
      -2.48539627e-001 7.69495070e-002 1.01025932e-001 -1.32488385e-001
      2.19893932e-001 -9.38127749e-003 6.04891628e-002 1.81743149e-002
      -6.78820089e-002 -1.24224052e-001 -6.44702241e-002 7.22820088e-002
      -1.23549655e-001 -1.77688003e-002 -2.00414985e-001
      -7.07404613e-002 -2.66487654e-002 -1.45280436e-001
      -1.84887856e-001 -4.38491665e-002 2.30821803e-001 -3.77456248e-002
      -6.01082966e-002 4.67315922e-003 -5.40371351e-002 3.27939689e-001
      -7.66107673e-003 -2.18266845e-001 -1.76518336e-001 1.55650914e-001
      -1.75594181e-001 -2.82756835e-001 -1.87875569e-001
      -1.14794835e-001 -2.58245021e-001 4.30251136e-002 7.43202791e-002
      2.05307975e-001 7.04557002e-002 -1.64415359e-001 7.39227086e-002
      2.39547595e-001 9.73061100e-002 1.86184555e-001 -1.59313962e-001
      -2.56348789e-001 9.33699235e-002 -3.58011462e-002 1.29123315e-001
      -1.74304768e-001 -4.12998199e-002 -1.21525660e-001
      -1.30403675e-002 3.15590441e-001 7.01072291e-002 1.55775338e-001
      -7.30079859e-002 -2.74231881e-002 1.02493301e-001 -2.62796953e-002
      1.16923094e-001 -4.58136797e-002 1.57956824e-001 -1.16419390e-001
      -9.75263044e-002 -5.19999750e-002 -5.01140580e-002 2.48007290e-002
      -2.06592411e-001 -1.27839252e-001 -1.26724139e-001
      -8.77621472e-002 -1.76038191e-001 3.90791073e-002 -1.27559558e-001
      -8.24918002e-002 -5.03593534e-002 -1.12286359e-002
      -8.32687020e-002 -3.32628727e-001 -2.31976956e-001
      -5.20936660e-002 2.10016854e-002 -2.38106102e-001 -1.59803495e-001
      1.80561051e-001 -1.33063897e-001 1.16552189e-001 2.51081556e-001
      7.50128925e-002 -1.21744141e-001 5.30570671e-002 -4.93276119e-002
      -2.65966505e-001 -1.77000403e-001 -2.36400411e-001
      -3.03754747e-001 -5.51040471e-002 5.73419519e-002 -1.18315227e-001
      1.41526416e-001 -2.50799749e-002 2.64295675e-002 8.62236246e-002
      1.66744724e-001 -5.33095971e-002 -1.99039757e-001 -2.42259488e-001
      -1.01414667e-002 -1.77269261e-002 3.85985784e-002 9.83705092e-003
      -2.65130457e-002 -6.50378363e-003 6.19317852e-002 -1.50182188e-001
      -5.97419366e-002 -2.72718575e-002 5.19352928e-002 -1.18415892e-001
      2.60572433e-001 3.83438542e-002 2.79406697e-001 -4.58512396e-001
      -2.90859560e-003 -8.34950879e-002 -1.05060071e-001
      -9.30066705e-002 -3.21162469e-003 1.57192975e-001 -1.12907298e-001
      2.59927034e-001 -6.26968205e-001 3.51840109e-002 1.20249122e-001
      -4.56486680e-002 -4.52199280e-002 -7.33265132e-002
      -2.45174766e-002 -1.21542320e-001 1.32371590e-001 -2.92385295e-002
      -5.15497364e-002 1.43629581e-001 1.02910407e-001 -2.85680033e-002
      -1.59478784e-001 3.05451751e-002 -7.50461295e-002 -9.77877527e-004
      7.61299729e-002 -7.92444795e-002 1.09013379e-001 3.15757215e-001
      -5.83566958e-003 -9.78911072e-002 8.58207494e-002 -1.62822772e-002
      1.95812002e-001 -3.24050218e-001 2.13531315e-001 5.51993012e-001
      1.50464326e-001 2.82925162e-002 1.86416239e-003 2.96785682e-002
      -2.16046259e-001 -7.63260424e-002 -2.48605460e-002
      -2.23948449e-001 1.22445382e-001 5.13688400e-002 -6.04435764e-002
      -1.38279274e-001 -5.10236286e-002 -1.49649680e-001 3.89075428e-001
      1.50113732e-001 9.49155614e-002 1.38700724e-001 1.58469170e-001
      -3.72268856e-002 -8.98051783e-002 1.64913356e-001 -8.45624432e-002
      2.35035941e-001 -1.09959446e-001 -2.69065738e-001 -1.87953457e-001
      1.03375323e-001 1.35905668e-001 1.65463060e-001 4.35719527e-002
      -1.74608417e-002 2.49141976e-001 9.50303078e-002 3.90648454e-001
      1.70991927e-001 -1.03882149e-001 1.05707273e-001 2.25160137e-001
      1.08422279e-001 1.01158611e-001 -2.18090247e-002 -1.89666808e-001
      3.87275815e-002 1.86845809e-001 1.64701879e-001 8.27259272e-002
      -1.51570275e-001 5.45963496e-002 1.02328442e-001 1.36969700e-001
      1.07884400e-001 -1.47935078e-001 4.02073897e-002 -8.19207579e-002
      -1.39462084e-001 3.24669212e-001 -5.88880703e-002 -1.40319139e-001
      4.64406013e-002 2.59829134e-001 1.17159463e-001 3.13423723e-001
      9.42025632e-002 1.28321826e-001 1.82406843e-001 8.61891210e-002
      2.72182614e-001 -1.51545424e-002 -1.57932758e-001 1.86283350e-001
      2.31885761e-001 -2.10943460e-001 -2.07456768e-001 1.57388732e-001
      -5.51306866e-002 5.07568866e-002 -6.40428662e-002 -2.02405617e-001
      -5.49398214e-002 2.15720817e-001 -1.61264613e-001 -1.57095835e-001
      1.20884657e-001 7.95740727e-003 -3.49234231e-002 -1.94808334e-001
      1.92722335e-001 2.15129748e-001 -1.76768787e-002 -4.31295812e-001
      -1.61118314e-001 2.58020341e-001 2.03792870e-001 3.95630479e-001
      -2.71755308e-001 1.58088699e-001 -1.97316706e-001 4.16739797e-003
      -3.40391040e-001 -1.99838042e-001 9.67396349e-002 -8.43844339e-002
      2.65333205e-001 3.92410345e-002 -2.68938363e-001 9.30498093e-002
      2.83478558e-001 -1.32445589e-001 -1.85476672e-002 -2.06513633e-003
      3.02959114e-001 2.12136999e-001 -2.08364755e-001 -1.00013070e-001
      -4.17189859e-002 -6.95459777e-003 -1.90518588e-001
      -2.92931963e-002 5.18075004e-002 -2.93829907e-002 2.46830538e-001
      -2.15975598e-001 2.58338712e-002 -5.52613940e-003 7.80747235e-002
      -6.15525246e-002 -5.33456467e-002 -1.00625828e-001 7.07564652e-002
      1.08578518e-001 -9.53277051e-002 1.19826950e-001 -1.64532885e-001
      -1.27173170e-001 2.52047833e-002 -1.78341880e-001 -8.07128847e-002
      1.24739431e-001 -8.00281540e-002 -1.64112806e-001 -5.42103767e-001
      1.17008291e-001 -4.52290708e-003 -1.24898441e-001 -1.05655558e-001
      5.72235556e-003 6.88551143e-002 3.79895419e-002 -6.33681566e-002
      -2.39172518e-001 5.98639883e-002 -6.49396032e-002 1.30963251e-001
      3.41798693e-001 7.43327886e-002 1.38207838e-001 3.36698294e-002
      7.56914020e-002 1.11110266e-002 -8.94744769e-002 6.13877997e-002
      -2.72369925e-002 1.30405605e-001 -9.43121612e-002 2.90533364e-001
      -8.51382618e-004 1.12538636e-002 3.11450362e-001 -9.22041312e-002
      -1.12733148e-001 -5.47858514e-002 1.27334356e-001 6.77763596e-002
      -2.10880145e-001 1.29399508e-001 1.23542100e-001 -4.34902817e-001
      2.02071562e-001 1.34096190e-001 -1.89543799e-001 8.66663177e-003
      -6.37538359e-002 1.76933840e-001 1.54873475e-001 9.06541646e-002
      -3.45454335e-001 1.28986806e-001 4.47242916e-001 -1.55902937e-001
      1.35152340e-001 -4.04020436e-002 1.18391916e-001 1.83450013e-001
      2.38979459e-001 -1.54949706e-002 -2.90904287e-002 -1.47087157e-001
      -2.16440279e-002 1.23459429e-001 -1.16695307e-001 7.79096857e-002
      5.76510839e-003 1.30413204e-001 4.42414954e-002 -3.25593017e-002
      3.71847823e-002 -9.55041125e-002 7.88732711e-003 -1.86624065e-001
      6.42977953e-002 4.46852073e-002 8.01557302e-002 -6.42014444e-001
      3.96720804e-002 4.01639730e-001 -1.77373532e-002 2.98221167e-002
      -1.62148327e-001 -1.12659456e-002 -2.04329908e-001 3.40115458e-001
      -2.58747309e-001 5.53622469e-002 1.96813241e-001 8.42349455e-002
      1.37634456e-001 -2.76217103e-001 -5.45755960e-002 -2.26422995e-001
      -3.43978822e-001 2.83142954e-001 -1.37176409e-001 1.09571375e-001
      5.24629513e-003 1.75471585e-002 1.05913974e-001 9.20365937e-003
      6.36701798e-003 -2.42951289e-001 2.97654986e-001 -1.10157430e-001
      8.57216641e-002 -4.44979221e-003 -6.07194901e-002 -1.96803898e-001
      7.66250044e-002 2.19099298e-002 -1.28914967e-001 1.06206341e-002
      -1.18877843e-001 1.76621631e-001 -2.66501486e-001 -1.06106766e-001
      -3.90248671e-002 2.55132675e-001 1.41839802e-001 2.48505205e-001
      -3.35073769e-002 1.12854488e-001 1.52175233e-001 1.01065136e-001
      8.25222582e-002 -5.74842654e-002 -1.23325169e-001 -2.78670758e-001
      -3.37133855e-001 2.25229412e-001 -2.87717968e-001 -2.45252594e-001
      -6.19109496e-002 -1.21304564e-001 2.87820607e-001 3.32580134e-002
      -8.08038786e-002 -2.71327257e-001 2.27147132e-001 -1.39947012e-001
      4.70675819e-004 1.19322371e-002 1.42076418e-001 -5.16111031e-002
      3.32648270e-002 4.40762863e-002 2.95218620e-002 -3.39154750e-001
      -2.05904245e-001 -2.65526921e-001 1.05623640e-002 -8.65323991e-002
      1.08855693e-002 3.53576615e-002 1.17268696e-001 2.34504640e-001
      -1.81292444e-001 -3.12772803e-002 -8.95258933e-002 3.28253694e-002
      4.30597663e-002 -2.73463572e-003 -6.28442615e-002 -1.05525129e-001
      -2.63254404e-001 -2.01782092e-001 -5.05292490e-002
      -4.46433872e-001 -1.33635029e-001 1.16764672e-001 1.81866869e-001
      1.63718924e-001 5.52686863e-002 -2.35398665e-001 3.27374451e-002
      -1.45469710e-001 -1.64305151e-001 7.77369142e-002 1.33114815e-001
      -1.58878788e-002 1.12602264e-001 2.29000330e-001 2.00147241e-001
      -3.45753789e-001 3.14092904e-001 5.57928309e-002 -9.83207598e-002
      2.90396273e-001 -8.80817920e-002 -1.59857720e-001 2.79250175e-001
      -5.04270121e-002 -7.03710690e-002 1.54151455e-001 1.85566217e-001
      -4.02246378e-002 9.41236690e-002 -2.00174272e-001 6.03671893e-002
      4.42516282e-002 -2.02723414e-001 -5.44335842e-002 2.44595379e-001
      -1.48702085e-001 1.50092050e-001 -1.41144082e-001 -3.15514468e-002
      -1.08525641e-001 6.51322827e-002 -7.72291720e-002 1.37667552e-001
      1.84793383e-001 -2.94490755e-001 -1.47341013e-001 -2.67034590e-001
      5.92879066e-003 1.01459064e-002 1.13595903e-001 5.81874698e-002
      -5.29654324e-001 2.67223418e-001 1.90058306e-001 2.34847754e-001
      -1.07988708e-001 1.47106931e-001 4.74196188e-002 -3.15181166e-002
      3.37857939e-002 -1.72151253e-001 1.47776708e-001 -6.61458001e-002
      2.73400307e-001 7.55165443e-002 -1.17210731e-001 -1.91765279e-001
      3.73788439e-002 7.62061849e-002 -1.15720659e-001 8.93088281e-002
      -1.17789291e-001 -9.15710405e-002 -3.58139910e-002 1.88188311e-002
      -9.71865430e-002 -3.48490141e-002 9.52129215e-002 3.52862298e-001
      2.96324521e-001 -7.02075213e-002 -4.81119566e-002 -7.29918480e-002
      -3.88849154e-002 1.00378700e-001 1.01434872e-001 3.81961875e-002
      -3.67971271e-001 1.33763745e-001 -2.66018599e-001 2.52744019e-001
      8.47712085e-002 -5.53651899e-002 1.46532774e-001 1.87077254e-001
      3.91681015e-001 -2.14458674e-001 4.32254523e-001 -6.51972815e-002
      2.74060935e-001 -2.17214189e-002 -1.54581526e-002 8.06945097e-003
      1.19963601e-001 -1.20500170e-001 3.70375142e-002 -8.29844698e-002
      8.81811231e-002 5.42813949e-002 -1.67856663e-001 4.87761460e-002
      1.61062643e-001 -6.37065023e-002 -9.32027847e-002 4.01501991e-002
      -6.98502064e-002 -1.12503223e-001 7.01908767e-002 5.02270646e-002
      -1.58126727e-001 1.20871730e-001 2.67017394e-001 2.04770267e-001
      6.19663261e-002 3.92038882e-001 2.29991704e-001 1.84728205e-001
      -3.11541352e-002 -3.17823626e-002 1.49795800e-001 2.77773221e-003
      3.40804458e-001 -9.21566933e-002 3.85745287e-001 2.06994534e-001
      1.78286225e-001 3.07673275e-001 8.70988593e-002 1.29882976e-001
      -1.23221031e-003 -9.11299139e-002 -1.74544409e-001
      -8.10479149e-002 -3.85555439e-002 1.06383570e-001 1.38276853e-002
      -9.60144401e-002 -1.32269636e-001 -6.79067895e-002 2.59132143e-002
      2.97799230e-001 -2.04532873e-002 -2.32006222e-001 -2.40923539e-001
      -7.45271444e-002 -1.43949930e-002 8.69308934e-002 -5.24704568e-002
      2.27686092e-001 -4.16692555e-001 3.11627239e-001 -9.62268934e-003
      9.94592756e-002 3.27864662e-002 -1.68754190e-001 5.12368828e-002
      -5.08787446e-002 6.85028583e-002 -1.27709910e-001 2.29084119e-001
      1.65381923e-001 -4.58474793e-002 5.94902523e-002 -3.79205472e-003
      1.76417872e-001 -2.02384323e-001 -6.15108758e-002 -7.94539526e-002
      -1.34811789e-001 -6.71818554e-002 -2.08822876e-001 8.60345736e-002
      1.75868332e-001 8.96204412e-002 3.76356281e-002 -1.74714282e-001
      -9.97667089e-002 -2.57389527e-002 -1.70089975e-001
      -1.57468319e-001 4.95948009e-002 5.24598267e-003 1.84754469e-002
      2.91718617e-002 1.67970642e-001 -2.15980843e-001 2.91187853e-001
      4.86986786e-002 6.30818382e-002 8.38126987e-002 2.86333561e-001
      1.41306117e-001 8.94000456e-002 2.09902644e-001 -2.89135903e-001
      3.09430063e-001 1.88244358e-002 -1.48416430e-001 -5.04041538e-002
      2.82924436e-002 -1.82383694e-002 -1.14576913e-001 -3.96808952e-001
      -5.05079627e-002 -2.70268053e-001 -2.26541553e-002
      -1.20894268e-001 -6.66185319e-002 -1.95441514e-001
      -8.35682824e-002 -2.64421463e-001 -1.68192372e-001
      -2.68566340e-001 -1.29513606e-001 -3.55114639e-002
      -2.31113620e-002 -6.56357482e-002 -1.38820723e-001 4.16173264e-002
      -1.60794273e-001 2.80166954e-001 -2.14777663e-001 1.13509566e-001
      -3.81130795e-003 -1.08454809e-001 9.20626223e-002 -1.14587910e-001
      2.30314076e-001 1.75273091e-001 4.12564337e-001 -1.61469802e-001
      2.02953085e-001 2.81247515e-002 9.78689566e-002 8.78736936e-003</_></support_vectors>
  <decision_functions>
    <_>
      <sv_count>1</sv_count>
      <rho>-1.0037036016571092e+001</rho>
      <alpha>
        1.</alpha>
      <index>
        0</index></_></decision_functions></my_svm>
</opencv_storage>
