<?xml version="1.0"?>
<opencv_storage>
<my_svm type_id="opencv-ml-svm">
  <svm_type>C_SVC</svm_type>
  <kernel><type>LINEAR</type></kernel>
  <C>1.</C>
  <term_criteria><epsilon>2.2204460492503131e-016</epsilon>
    <iterations>100000</iterations></term_criteria>
  <var_all>2880</var_all>
  <var_count>2880</var_count>
  <class_count>2</class_count>
  <class_labels type_id="opencv-matrix">
    <rows>1</rows>
    <cols>2</cols>
    <dt>i</dt>
    <data>
      -1 1</data></class_labels>
  <sv_total>1</sv_total>
  <support_vectors>
    <_>
      1.10875154e-002 1.43729132e-002 3.47725861e-002 1.31040243e-002
      1.28804240e-002 -1.99656002e-002 4.55200374e-002 2.46132202e-002
      8.55244137e-003 1.12059498e-002 1.34087773e-002 1.94813944e-002
      4.18951269e-003 1.50999585e-002 1.43412454e-002 4.53354567e-002
      2.26582903e-002 7.12565333e-003 1.25922740e-003 1.99492928e-003
      2.84190141e-002 -1.92454527e-003 2.08615861e-003 -3.11969481e-002
      3.79850008e-002 2.49205083e-002 4.26763622e-003 2.71134102e-003
      3.32896016e-003 1.28894225e-002 -1.44982280e-003 4.11065249e-003
      4.13165707e-003 3.55128385e-002 1.97606739e-002 3.40263854e-004
      6.95919851e-003 2.12624278e-002 2.87894458e-002 1.11419559e-002
      4.06082645e-002 2.43578423e-002 3.52802798e-002 2.41723564e-002
      3.72914132e-003 -3.91425379e-003 8.09843559e-003 1.84110682e-002
      -5.03329560e-003 -2.90161232e-003 -5.46774734e-003 1.04737105e-002
      9.14591132e-004 -1.14046549e-002 -2.48179567e-004 1.75995436e-002
      2.65402682e-002 1.00029856e-002 4.30941954e-002 2.07776856e-002
      2.91828457e-002 1.86504032e-002 -4.18577297e-003 -1.94077920e-002
      -1.17775897e-004 2.75459234e-003 -1.49669517e-002 6.03288319e-003
      3.07218591e-003 1.46774137e-002 -1.06391720e-002 -2.43400186e-002
      2.01688409e-002 1.44531103e-002 2.29824055e-002 -4.86089569e-003
      2.61017326e-002 4.53124335e-003 2.28550080e-002 7.88955018e-003
      6.76059164e-003 2.26115179e-003 2.84583028e-003 -4.67886124e-003
      -3.22524756e-002 3.76232225e-003 -1.19082611e-002 1.03656668e-002
      -7.80483522e-003 -7.33986543e-003 1.24507695e-002 1.66085269e-002
      1.45940697e-002 -8.33348744e-003 4.01142091e-002 1.10736983e-002
      3.04006245e-002 1.12479483e-003 1.60648220e-003 4.39832918e-003
      -8.37311987e-003 -2.07261951e-003 -3.02357338e-002 6.94612507e-003
      -8.10351036e-003 6.91285776e-003 -8.18264205e-003 -4.42597410e-003
      -2.55038333e-003 -3.21064540e-003 -2.52636475e-003
      -2.72977892e-002 1.77047530e-003 8.16251524e-003 1.16252182e-002
      -3.01779108e-003 -1.85113517e-003 8.85627139e-003 1.26857050e-002
      1.62745249e-002 -2.86945645e-002 -2.66680098e-003 -5.09394286e-003
      2.18737200e-002 1.04976967e-002 1.17267119e-002 7.54187535e-003
      -7.08879204e-003 -7.70554924e-003 -3.26334313e-002
      -6.26121124e-004 -1.95176399e-003 4.83590132e-003 -7.29603320e-003
      -1.74153305e-004 1.23984022e-002 7.74069363e-003 5.21481270e-003
      -3.28941159e-002 3.70737258e-003 -7.65450438e-003 1.99285112e-002
      5.20708226e-003 8.08920711e-003 1.38918473e-003 1.00930659e-002
      1.74325649e-002 -3.61003727e-002 -2.75048669e-002 -1.96735710e-002
      2.04842221e-002 5.46168908e-003 1.04754500e-003 1.39789032e-002
      9.38167609e-003 3.62159684e-002 -1.66655537e-002 -7.47393398e-003
      -9.81462840e-003 2.21831445e-002 3.38728132e-004 6.94707828e-003
      1.78514072e-003 7.58219790e-003 1.65678244e-002 -4.42934558e-002
      -1.59259439e-002 -2.78899465e-002 1.01995999e-002 -4.75882436e-004
      -4.91850590e-003 7.37173390e-003 9.49703995e-003 2.99286079e-002
      -2.04147194e-002 7.39072682e-004 -9.55063384e-003 1.84583049e-002
      -2.33931607e-003 -1.19518163e-003 1.38444519e-002 6.78169960e-003
      3.02567948e-002 -1.52032729e-002 4.43673879e-003 -1.09540662e-002
      1.87603068e-002 -3.62796383e-003 5.82245924e-003 2.40379609e-002
      1.07658375e-002 2.76858211e-002 1.83122139e-003 2.60990243e-002
      6.63403841e-003 2.90451683e-002 -3.66357109e-003 1.92719847e-002
      2.76237796e-003 -6.64291298e-003 2.85195839e-003 -3.25384401e-002
      1.60163315e-003 -2.32901275e-002 9.89017542e-003 -7.60121271e-003
      -4.99102799e-003 1.51739186e-002 -1.23320753e-002 -3.49133654e-004
      -1.89777259e-002 2.61620060e-002 -2.49696476e-003 1.81286260e-002
      -1.31236212e-002 8.32984969e-003 1.34910485e-002 -7.63515336e-003
      4.55360906e-003 2.71527935e-003 2.83189286e-002 4.42584651e-003
      2.51233671e-002 -5.16543223e-005 1.16568012e-002 1.77844018e-002
      -1.74401700e-002 -8.27898737e-003 7.87733868e-003 4.68261391e-002
      2.38189287e-002 4.47001159e-002 2.37389803e-002 9.79375001e-003
      1.53086195e-002 -2.71337982e-002 -2.12830678e-002 -1.50163863e-002
      2.94403043e-002 -1.44610824e-002 3.95499635e-003 -1.48584135e-002
      7.89527409e-003 1.20064653e-002 -3.02689429e-002 -1.96079556e-002
      -1.80737320e-002 2.82170866e-002 7.70015921e-003 1.75459851e-002
      -3.48852831e-003 8.28431640e-003 -5.79575123e-003 -3.73869315e-002
      -2.77891010e-002 -9.67913587e-003 3.25390100e-002 2.02172231e-002
      2.29164790e-002 7.33683445e-003 -4.41188086e-003 -1.21778352e-002
      -1.67450588e-002 -4.34444193e-003 3.88805917e-003 5.17512150e-002
      4.35935296e-002 2.43274383e-002 1.72071587e-002 -6.42918923e-004
      -4.03305702e-003 -3.84395458e-002 -3.92714851e-002
      -2.48631667e-002 1.43065043e-002 -7.19161518e-003 -9.59489495e-004
      -1.50224334e-002 -9.42558981e-003 2.62325699e-003 -2.24216469e-002
      -2.96027120e-002 -1.57694686e-002 3.30525786e-002 2.12105643e-002
      8.56591202e-003 -2.55655032e-003 -5.02052391e-003 -1.72531940e-002
      -1.77357085e-002 -6.31861156e-003 7.05370214e-003 3.96261550e-002
      2.91884206e-002 1.31857721e-002 1.05834939e-002 -9.55360942e-003
      -3.24743427e-003 6.36175741e-003 1.68610923e-002 1.25637958e-002
      3.43634374e-002 2.89902762e-002 1.39969494e-002 -1.83640104e-002
      -1.69803128e-002 -2.25891843e-002 -3.22527736e-002
      -2.15048417e-002 -7.74584850e-003 2.65417118e-002 2.76933634e-003
      -1.04016187e-002 -1.25032933e-002 -2.64325310e-002
      -1.76706873e-002 -1.80998649e-002 -3.17900511e-003 3.51143349e-003
      3.26233469e-002 1.17511153e-002 -4.29395167e-003 -2.28069015e-002
      -2.32170783e-002 1.35278609e-002 2.19041407e-002 2.22095884e-002
      7.74131017e-003 2.39996370e-002 2.90609077e-002 -3.14264675e-003
      -3.97260375e-002 -1.73941497e-002 3.62505540e-002 3.30364369e-002
      3.33046168e-002 9.22908913e-003 1.13283203e-003 5.76679362e-003
      -4.46590071e-004 -3.08467392e-002 1.97312646e-002 -7.55031453e-003
      -1.68308301e-003 1.13622863e-002 -8.24225135e-005 1.87993031e-002
      1.08880717e-002 -8.02203454e-003 -4.09272462e-002 -1.89499147e-002
      1.06468545e-002 4.82784025e-003 2.02547088e-002 -7.42889149e-003
      -1.07039576e-002 -1.03818048e-002 -9.20798071e-003
      -3.68842706e-002 3.78107652e-003 1.06905997e-002 1.02409525e-002
      2.05206238e-002 -2.66925851e-003 1.58039257e-002 -3.22346725e-002
      3.28316242e-002 2.07508150e-002 1.45698357e-002 1.40156578e-002
      1.15698390e-002 2.55991258e-002 4.05355450e-003 4.62570414e-002
      8.19833775e-004 3.95149216e-002 2.16052458e-002 1.28951045e-002
      -1.85161307e-002 5.32039383e-004 1.91141870e-002 1.74414425e-003
      1.81133486e-002 -3.48278135e-002 1.94236264e-002 1.97618059e-003
      -1.83533039e-002 -1.20043857e-002 9.73402709e-003 2.70377211e-002
      8.88670143e-003 2.70576272e-002 3.99228156e-004 2.81649306e-002
      -8.83903634e-003 -1.33460574e-002 1.12854075e-002 1.84483323e-002
      2.32534464e-002 8.06345046e-003 4.71211188e-002 1.34400409e-002
      3.89350690e-002 2.80532781e-002 9.69159696e-003 3.94414784e-003
      9.70100705e-003 5.10069029e-003 -2.17333958e-002 2.65465081e-002
      1.71033165e-003 3.48966941e-002 1.22097405e-002 2.80169677e-003
      -2.96761841e-003 1.59207005e-002 1.87573861e-002 -4.77298629e-003
      3.34839784e-002 1.83402672e-002 3.12340781e-002 6.39637187e-003
      -5.15234703e-003 1.07725966e-003 -1.46817286e-002 -1.83372367e-002
      -3.46399024e-002 1.51391299e-002 1.61127676e-003 3.76284495e-002
      5.64468140e-003 -1.87058572e-003 1.26088373e-002 1.82145387e-002
      1.36085171e-002 -1.55842360e-002 3.65677774e-002 9.15279705e-003
      3.59229185e-002 8.48142430e-003 4.45283158e-003 6.96388725e-003
      1.50951080e-003 2.56818742e-003 -3.79418768e-002 3.75758135e-003
      -7.76274595e-003 2.47845594e-002 9.40633006e-004 7.19615316e-004
      8.67025834e-003 9.13441647e-003 3.39757884e-004 -2.51953080e-002
      2.67393310e-002 1.06420564e-002 4.03450839e-002 1.87286474e-002
      1.38657410e-002 -1.05805099e-002 -4.19781078e-003 7.97566865e-003
      -3.14441510e-002 -7.14405905e-004 -8.59749503e-003 4.17337157e-002
      -6.34075608e-004 -1.45025551e-002 5.48095256e-003 -2.38208566e-003
      -2.80699320e-003 -2.95223780e-002 -4.50085412e-004 3.75767821e-003
      1.59971192e-002 7.62075186e-004 -2.19324441e-003 8.34202394e-003
      5.46604767e-003 3.94376973e-003 -2.57404130e-002 1.12743769e-002
      4.70470916e-003 2.53353920e-002 2.99682212e-003 3.28259426e-003
      -9.57399979e-003 -9.23528057e-003 5.14968950e-003 -1.82672348e-002
      5.19380020e-003 2.76724901e-003 2.29672771e-002 -1.69135770e-003
      -1.04607809e-002 -1.45601807e-002 -1.21421060e-002 1.03805037e-002
      -1.31113222e-002 1.42510897e-002 -9.01746564e-003 1.94473788e-002
      -1.18454807e-002 -1.22518996e-002 -2.87861866e-003 1.79173017e-003
      1.01865493e-002 -2.62976233e-002 7.21494714e-003 -5.68492105e-003
      1.94177628e-002 -2.98927468e-003 -7.42399739e-003 1.02493912e-002
      9.72601958e-003 1.74324289e-002 -1.41501352e-002 8.97944998e-003
      -2.06653262e-003 1.66011509e-002 2.33391672e-003 5.66507271e-003
      -9.59110912e-003 -2.21136981e-003 7.01826299e-003 -2.38713119e-002
      9.83933173e-003 -1.64589435e-002 7.25560496e-003 -1.12118386e-002
      -1.96709447e-002 2.90362560e-003 -2.28053401e-003 4.58732434e-003
      -2.12721489e-002 8.38451926e-003 -3.26365698e-004 1.70381125e-002
      -2.38138670e-003 1.30968424e-003 1.25528956e-002 -8.47220141e-003
      2.23258743e-003 -1.38784740e-002 2.29863413e-002 -1.45695009e-003
      1.09946188e-002 -2.34352192e-003 1.14809955e-002 2.27872003e-002
      -8.55273940e-003 9.78571270e-003 -2.66208919e-003 5.11480831e-002
      5.06561995e-003 5.16328821e-003 -9.19871032e-003 1.12213893e-002
      3.70380562e-003 -1.83768440e-002 -7.03281770e-003 -1.29165016e-002
      3.00105996e-002 -3.55248898e-003 5.23068104e-003 -1.36756813e-002
      1.12129340e-003 1.13078440e-002 -1.73795654e-003 1.09143388e-002
      -5.95461519e-004 5.06668165e-002 7.79278995e-003 1.39295298e-003
      -2.11268496e-002 3.73207126e-003 1.35000320e-002 -2.69699339e-002
      -6.35229191e-003 5.58355078e-003 4.96001281e-002 9.04548168e-003
      -2.45363475e-003 -1.68552659e-002 6.08021580e-003 1.29500609e-002
      -2.31520329e-002 -8.88211280e-003 7.83008523e-003 5.16208448e-002
      1.81048401e-002 8.59165192e-003 -1.14631662e-002 6.34962227e-003
      1.05418740e-002 -2.17852648e-002 -4.08473657e-003 8.96340515e-003
      5.26012480e-002 -4.42989031e-003 -9.23488010e-003 -2.49884240e-002
      -2.80827982e-003 9.87773947e-003 -3.63254384e-003 1.13157509e-002
      1.58881899e-002 5.19144982e-002 6.47544023e-003 -1.68746023e-003
      -1.44339222e-002 3.22512607e-003 -1.03130518e-002 -3.18373591e-002
      -2.66526975e-002 -1.41619937e-002 3.10780648e-002 1.03882076e-002
      2.37660087e-003 -1.23311793e-002 -4.39952128e-003 -3.53287440e-003
      -6.74811285e-003 -7.25291995e-003 2.92962720e-003 5.49074374e-002
      2.84060780e-002 7.21613597e-003 2.54472555e-003 4.17267811e-003
      -1.14629054e-002 -8.21787398e-003 -3.32153868e-003
      -5.05024474e-003 3.76599804e-002 -7.97214266e-003 -8.81213415e-003
      -1.43130291e-002 -2.25790800e-003 -1.03399940e-002
      -1.10321529e-002 5.96228475e-003 2.51586840e-004 5.33321425e-002
      6.43324852e-003 -1.34952115e-002 -8.06974247e-003 2.64823693e-003
      -5.77236479e-003 -1.86888874e-003 1.01234382e-002 8.70681554e-003
      4.55642827e-002 1.57148410e-002 -4.45599901e-003 -3.18099116e-003
      -1.01487036e-003 -1.78418681e-002 -1.31872911e-002 1.77711882e-002
      1.96278300e-002 4.62003238e-002 1.99536569e-002 5.27689839e-003
      -3.84947238e-003 -5.31174615e-003 -1.69472639e-002
      -2.57987063e-002 -7.05231330e-004 -4.37095482e-003 3.46903279e-002
      4.90068691e-003 -2.26056930e-002 -1.53159536e-002 -1.02405353e-002
      -2.88391635e-002 -4.04660292e-002 1.22168497e-003 1.45268468e-002
      3.77149507e-002 7.50205619e-003 -5.71980234e-003 -1.60895586e-002
      -2.01626830e-002 -8.41416791e-003 -2.50037126e-002 6.25875080e-003
      6.29467703e-003 2.76255831e-002 3.16498615e-002 1.21274479e-002
      -8.60117655e-003 3.34789208e-003 1.39596155e-002 -7.44578522e-003
      1.92593541e-002 3.08682700e-003 1.01749960e-003 1.78416725e-002
      2.01052241e-002 -2.46590609e-003 2.21250318e-002 -2.46979855e-002
      -4.42696288e-002 3.22722434e-003 -1.08902215e-003 1.17142536e-002
      1.83146307e-003 -1.26309099e-003 -1.44192269e-002 -2.01918744e-002
      -1.12477969e-003 -2.55521219e-002 9.53048468e-003 -1.60122514e-002
      -1.64639149e-002 1.28942204e-003 2.42656600e-002 -8.92792828e-003
      1.17749581e-002 -2.49430491e-003 1.28563936e-003 1.99615788e-002
      6.28412375e-003 3.72249857e-002 -1.78877208e-002 3.01742293e-002
      7.61610130e-003 1.00459007e-003 -6.36443787e-004 1.26720676e-002
      3.38015147e-002 1.05206789e-002 5.23311757e-002 8.84869543e-004
      3.85622643e-002 -3.43869353e-004 -2.06612074e-003 -1.79882105e-002
      -2.29777154e-002 -7.03110313e-003 -2.31695129e-003 1.88022554e-002
      -2.69985721e-002 2.12995932e-002 5.86965261e-003 -9.30404849e-003
      -2.01372076e-002 -1.35662388e-002 4.56450414e-003 4.63205064e-003
      1.96159519e-002 -1.70532167e-002 2.57042143e-002 -8.97589605e-003
      -2.40081027e-002 4.08449629e-003 1.50428517e-002 2.08897106e-002
      3.54696903e-003 5.00691459e-002 2.04989482e-002 2.82222331e-002
      2.10058852e-003 -5.18152583e-003 1.91814601e-002 1.21309934e-003
      -1.50152622e-002 -1.87359452e-002 4.65869047e-002 7.88547564e-003
      3.88506353e-002 5.91371814e-003 1.03421500e-002 -2.60690413e-002
      3.32220667e-003 3.02544632e-003 4.36721090e-003 3.93453725e-002
      4.85079829e-003 1.18434997e-002 -1.45966792e-002 -3.16463038e-002
      -8.92503653e-003 -2.32023858e-002 -1.28426794e-002
      -5.53145166e-003 3.06016896e-002 3.63731803e-003 2.55415365e-002
      -8.66964087e-003 -1.79799702e-002 3.21597676e-003 -3.42912506e-003
      -1.34810740e-002 -1.68243628e-002 3.37716080e-002 8.13741796e-003
      3.73463742e-002 1.20069636e-002 7.52872741e-003 -2.06896495e-002
      -5.48049994e-003 -5.89519320e-003 -3.10019180e-002 1.24067040e-002
      6.02313410e-003 4.30676453e-002 1.20583372e-002 -2.00281828e-003
      3.15032521e-004 -1.30430963e-002 -7.70638231e-003 -1.19741596e-002
      3.62590775e-002 3.66913318e-003 3.14148553e-002 6.32466935e-003
      9.53492522e-003 -1.58042237e-002 -1.15736313e-002 -2.36554071e-004
      -1.97631232e-002 2.11499259e-002 -1.65217323e-003 2.50048432e-002
      9.06976964e-003 3.10344039e-003 -2.48683263e-002 -1.61133762e-002
      -8.25846847e-003 -1.69443563e-002 1.63898710e-002 6.41499273e-003
      2.19444986e-002 -1.22046808e-003 -1.47011979e-002 -2.07408741e-002
      -1.45749180e-002 3.13739385e-003 2.24905685e-004 2.79888492e-002
      -3.23122693e-003 1.28539633e-002 -9.15984251e-003 -1.36211729e-002
      -1.93341542e-002 -9.80873033e-003 3.83704877e-003 -1.66167074e-003
      2.75088232e-002 3.09920567e-003 1.64763036e-003 -9.69093665e-003
      -1.22143440e-002 -1.89649202e-002 -9.04430449e-003 1.15954615e-002
      9.63441189e-003 3.48392799e-002 1.26870507e-002 5.81766199e-003
      -1.54347057e-002 -9.46687907e-003 -1.15748988e-002
      -9.49176773e-003 -1.89854938e-003 -1.35708079e-002 2.01790705e-002
      -1.46411899e-002 4.55451151e-003 3.17161111e-003 -1.08615514e-002
      6.29488053e-003 -7.65180215e-003 -4.02875291e-003 -8.68120324e-003
      2.89506186e-002 -8.02363735e-003 1.26341898e-002 1.31254690e-002
      7.75743974e-003 -1.67286415e-002 -1.68635845e-002 -2.91776680e-003
      -1.10078948e-002 3.40268947e-002 -5.41107589e-003 -4.94254986e-004
      -2.26889062e-003 -6.92947488e-003 -3.15098405e-005
      -1.11724213e-002 3.07802856e-003 -5.12577780e-003 3.99552397e-002
      1.12981978e-003 5.51683456e-003 8.94046971e-004 -3.22518195e-003
      -4.46527312e-003 -3.08360774e-002 -2.72348691e-002
      -9.40808374e-003 4.00266536e-002 1.61765993e-003 4.76581044e-003
      -2.08101375e-003 5.16454643e-003 1.10209007e-002 -5.63422963e-003
      -4.89471015e-003 1.22923758e-002 4.86895703e-002 -2.05875520e-004
      -2.28340924e-003 -2.36337911e-002 1.24275880e-002 1.09518808e-003
      -1.31731695e-002 9.72935013e-005 -6.74016832e-004 4.70793806e-002
      -4.12023452e-004 2.71275220e-003 -1.59878600e-002 -1.42881256e-002
      1.61015522e-002 1.33307194e-002 2.41063908e-002 1.87581684e-002
      6.13991953e-002 4.12200671e-003 6.25400012e-003 -2.03895327e-002
      -7.78423063e-003 2.92912568e-003 -1.26662664e-002 1.48871401e-003
      1.32486923e-002 4.25955392e-002 -1.13272304e-002 -1.56873576e-002
      -2.76177805e-002 3.65785928e-003 -1.14506751e-003 -4.35412163e-003
      1.51847955e-002 8.79101548e-003 4.71889786e-002 -9.40889679e-003
      -1.21216290e-002 -1.30468896e-002 8.11837148e-003 5.84565429e-003
      3.43742105e-003 2.29841508e-002 1.76744778e-002 4.93055806e-002
      -7.99643062e-003 -1.50412573e-002 -3.12776193e-002
      -1.54618621e-002 -7.71753956e-003 -9.26280953e-003 9.00375191e-003
      4.30335011e-003 4.72124591e-002 -4.31572925e-003 -8.63581337e-003
      -2.09623072e-002 -9.09166597e-003 -1.06804939e-002
      -9.00069904e-003 6.07299851e-003 -1.78700592e-003 3.75849493e-002
      -5.99052990e-003 -1.40337311e-002 -1.79337338e-002
      -2.68625165e-003 -7.44054606e-003 -1.41804805e-002 3.20972688e-003
      -9.39561694e-004 4.73616831e-002 2.60006357e-003 -2.25988925e-002
      -2.45217234e-002 1.38041645e-003 -1.78169869e-002 -2.10331306e-002
      -1.00726550e-002 -2.97686341e-003 4.91011515e-002 7.43525475e-003
      -4.16930736e-004 -1.71639416e-002 -5.45128528e-003
      -6.87649893e-003 -1.94040798e-002 -5.82621573e-003 2.14902195e-003
      5.04399315e-002 1.17674824e-002 -2.10735737e-003 -8.21340084e-003
      6.86434703e-003 -1.00452304e-002 -1.37772067e-002 -2.48520914e-003
      -5.32519072e-003 2.87186019e-002 4.16621519e-003 -2.27614399e-002
      -1.60330292e-002 8.92769953e-004 -2.22521406e-002 -2.14312300e-002
      3.54215573e-003 -4.86818608e-003 2.57273875e-002 6.60269568e-003
      -7.06706429e-003 -1.16791744e-002 -1.19588627e-002
      -2.65140133e-003 -1.97874960e-002 -2.89747166e-003
      -1.12689435e-002 2.84197312e-002 1.02591645e-002 2.18445458e-003
      1.95394014e-003 1.20493639e-002 -5.94762713e-003 -1.21169370e-002
      7.10718799e-003 -1.57980546e-002 3.42015587e-002 2.12985557e-002
      1.98137779e-002 9.38299391e-003 1.16999689e-002 -1.47882868e-002
      -1.60034280e-002 1.26691349e-002 -4.88309469e-003 1.53262354e-003
      7.38859409e-003 8.24928656e-003 -2.48103589e-003 -7.84704182e-003
      1.36498529e-002 -8.12007580e-003 1.51959024e-002 -1.73817556e-002
      -2.70226598e-002 3.57053475e-003 2.90675573e-002 1.02785649e-002
      1.97227653e-002 -2.26690969e-003 -4.37337533e-003 1.47187430e-002
      -2.65651569e-002 -4.84652026e-003 6.91446569e-003 2.25940794e-002
      1.16786547e-002 1.54070454e-002 2.02948134e-002 8.21550656e-003
      2.14149766e-002 -3.10842693e-002 -2.92490348e-002 -4.08632820e-003
      3.30295451e-002 2.19341610e-002 3.50754149e-002 -1.74219124e-002
      -1.32135740e-002 -8.89554503e-004 -4.31910623e-003 2.84921583e-002
      -2.73213126e-002 3.10770911e-003 -3.25100939e-003 -1.73684619e-002
      -2.48256754e-002 -1.22701982e-002 7.11863628e-003 8.53600679e-004
      5.09239919e-002 -1.24534834e-002 2.45906804e-002 -3.03463382e-003
      -2.50412021e-002 -1.23626750e-003 -5.36922645e-003 6.38830615e-003
      -8.59811157e-003 2.42538080e-002 -2.37203669e-002 -4.91128536e-004
      -5.46535617e-003 -7.70080136e-003 -1.89127121e-002 4.94065834e-003
      9.99513268e-003 -8.26900639e-003 3.81649733e-002 -4.00780048e-003
      2.52856314e-002 -4.73584922e-004 -1.57528780e-002 -3.03420778e-002
      -1.04211345e-002 -4.94479341e-003 4.85346769e-004 4.87986319e-002
      7.32210651e-003 1.52976764e-002 -6.39739353e-003 -2.99635977e-002
      -9.41459090e-003 -1.70752350e-002 -3.81292333e-003
      -5.36348019e-003 5.64422533e-002 3.09475232e-003 1.76671594e-002
      -2.46324041e-003 -6.09175535e-003 -2.21640524e-002 9.30382928e-004
      -3.78586189e-003 -9.20900516e-003 3.81713547e-002 9.07051656e-003
      1.91724021e-002 -5.09856315e-003 -1.78383216e-002 -8.35603941e-003
      -6.80240709e-003 -2.01732689e-003 -6.02265587e-003 3.31233740e-002
      1.47892861e-002 1.72104202e-002 -7.82405306e-003 -7.52747571e-003
      -3.27385170e-003 -1.64878778e-002 -3.20535502e-004
      -9.93277971e-003 4.08064350e-002 8.30732845e-003 1.24865053e-002
      1.36609375e-003 2.76293186e-003 -1.54559482e-002 -1.03729581e-002
      6.68653008e-003 -1.63173638e-002 3.09939589e-002 8.35703406e-003
      1.44623583e-002 5.94891980e-003 -5.16357878e-003 -1.64203215e-002
      -8.77953134e-003 3.18322028e-003 -1.34619642e-002 4.53758985e-002
      1.26389582e-002 1.73140150e-002 -4.55496600e-003 -4.84740082e-003
      -2.55540796e-002 -1.28335226e-002 -1.34920166e-003
      -1.29612545e-002 2.74470169e-002 2.51471298e-003 1.96481775e-002
      -5.70547488e-003 -1.03196772e-002 -2.29074769e-002
      -1.92734860e-002 -1.50551903e-003 -1.22796278e-003 2.31365673e-002
      3.84852686e-003 -2.91794841e-003 -4.90062544e-003 -1.66795477e-002
      -2.09065657e-002 -1.17278798e-002 9.17889643e-003 6.01121550e-003
      2.87028421e-002 7.61552900e-003 3.46049853e-003 -5.65894460e-003
      -7.95603544e-003 -2.28417441e-002 -1.40654603e-002
      -3.35724704e-004 -7.73249473e-003 2.69975755e-002 -2.38218135e-003
      3.58499237e-003 -7.96354562e-003 -6.21581124e-003 -5.73301781e-003
      -4.14058240e-003 1.70682911e-002 1.01967882e-002 3.51474136e-002
      3.38679506e-003 9.22366790e-003 -1.93535141e-003 -7.25385325e-004
      -2.17339005e-002 -2.37268191e-002 -3.17725213e-003
      -1.10588577e-002 3.44082899e-002 -7.43382843e-003 -5.18620527e-006
      -8.60825181e-003 -1.36221889e-002 -3.88894556e-003
      -1.12903332e-002 5.25355665e-003 -5.74022392e-003 4.45670672e-002
      6.34179497e-003 8.18057172e-003 -4.18018736e-003 -5.55577129e-003
      -1.76997142e-004 -5.96844405e-003 9.42209642e-003 1.44145475e-003
      3.10236104e-002 -1.61328930e-002 -9.88651160e-003 -1.16674909e-002
      -8.17120634e-003 1.01607004e-002 4.05934313e-003 1.81701798e-002
      3.38539947e-003 2.68154070e-002 -1.22278081e-002 2.63115112e-003
      -1.11051183e-002 -9.39319609e-004 -3.84569925e-004 2.16612103e-003
      1.12693617e-002 8.09661811e-004 5.00848256e-002 1.75430570e-002
      2.90314551e-003 -2.01684777e-002 -1.30174626e-002 8.25881306e-003
      1.46752279e-002 1.70238558e-002 6.36589108e-003 5.55182062e-002
      8.15078616e-003 1.01141715e-002 -2.67602075e-002 -7.05890078e-003
      1.04123875e-002 -3.99839319e-003 -4.93955612e-003 -1.29634133e-002
      2.88559627e-002 -4.09873342e-003 4.44439286e-003 -1.80739295e-002
      -1.13414153e-002 -2.42262450e-003 -6.17458532e-003 4.58559627e-003
      -4.81924415e-003 4.63812090e-002 7.53191765e-003 7.37899123e-003
      -2.69580111e-002 -9.63452458e-003 -1.49450579e-003 9.50666424e-003
      2.01642159e-002 1.48054631e-002 5.41114099e-002 8.15973710e-003
      -8.86995159e-003 -3.64075862e-002 -2.01271493e-002
      -2.97772372e-003 3.43249296e-004 1.67524032e-002 1.40098678e-002
      6.20135032e-002 1.43844262e-002 -3.63702420e-003 -2.93300934e-002
      -1.00355670e-002 -1.31195644e-002 -6.06005359e-003 1.57531295e-002
      7.59926019e-003 5.61396778e-002 1.50956977e-002 -6.18888112e-003
      -3.75321992e-002 -2.20757313e-002 -1.02031771e-002
      -5.32975374e-003 1.10887568e-002 1.52894026e-002 7.13556930e-002
      2.55684312e-002 1.04783080e-003 -2.18135845e-002 -2.12181043e-002
      -1.04654534e-002 -1.86784696e-002 -2.09529884e-003 2.31542345e-003
      4.82050702e-002 1.43414279e-002 -6.25814172e-003 -2.21668165e-002
      -9.41051811e-004 2.53410893e-003 -1.44750811e-002 -3.33994831e-004
      3.91192222e-003 4.26556915e-002 2.13997811e-002 7.42681045e-003
      -1.55506227e-002 1.13190711e-002 -1.65531635e-002 -6.97099278e-003
      -4.62580239e-003 -6.99564023e-003 4.65549305e-002 1.96516793e-002
      -3.55831627e-003 -2.30765771e-002 -2.30820403e-002
      -3.83132300e-003 -6.54040463e-003 -1.16703184e-002
      -6.49305340e-003 3.18531990e-002 1.60299111e-002 4.54541529e-003
      -1.28905326e-002 -3.32688820e-003 -3.95163288e-003
      -1.47450659e-002 -6.92708325e-003 -1.92614086e-002 2.14655288e-002
      2.15974413e-002 5.24866208e-003 -9.23461281e-003 5.81033481e-003
      -1.08228810e-002 -9.33462381e-003 -2.27713608e-003
      -1.76203344e-002 1.82741247e-002 1.88823305e-002 1.63489915e-002
      4.10229294e-003 6.54621143e-003 -5.41377021e-003 -2.73400359e-003
      -1.41449859e-002 -1.87742151e-002 4.40203585e-003 1.17548555e-002
      5.00481203e-003 -8.96786898e-003 6.21227687e-003 5.05749555e-003
      1.11002859e-003 3.35275871e-003 -1.19958650e-002 8.87334254e-003
      1.32831314e-003 2.05846149e-002 5.45787392e-003 1.59458276e-002
      -8.37462896e-004 -3.69547098e-003 7.36700371e-003 -2.49945521e-002
      -2.07988862e-002 9.94717050e-003 2.93600336e-002 1.15734497e-002
      1.49399322e-002 2.73634586e-002 1.93998404e-002 2.10203510e-002
      -3.65172699e-002 -4.97223884e-002 -7.95763172e-003 4.25425768e-002
      3.55825499e-002 4.25724089e-002 1.13752894e-002 5.34701673e-003
      1.25033045e-002 -2.65075881e-002 -2.64075045e-002 2.61863740e-003
      3.77634913e-002 2.29648966e-002 2.43237503e-002 3.62047702e-002
      2.82950364e-002 2.91862097e-002 -3.50719020e-002 -4.19428833e-002
      3.60614108e-003 5.35551347e-002 4.00521420e-002 4.73525263e-002
      -6.26654271e-003 1.00648822e-002 2.12811287e-002 5.68696344e-003
      1.13127371e-002 -2.88258456e-002 -1.47755761e-002 -1.69413593e-002
      -1.80898122e-002 -2.05217525e-002 -2.98080035e-003 1.77703965e-002
      4.85255802e-003 2.72490848e-002 -3.88572953e-004 3.03371511e-002
      3.61386361e-003 -2.73274053e-002 1.60546564e-002 3.03177927e-002
      4.50692028e-002 2.59834416e-002 1.78881809e-002 -2.20006108e-002
      1.56168733e-002 7.44523131e-004 6.26500929e-004 -8.02965648e-003
      1.48418536e-002 3.15328464e-002 1.54630663e-002 2.43860632e-002
      -1.16910366e-002 2.36680862e-002 9.22430027e-003 -1.81260835e-002
      -3.18435840e-002 -1.52871273e-002 -5.40776085e-003
      -7.18748150e-003 3.20237316e-002 1.60287004e-002 2.48269066e-002
      7.56310299e-003 -2.56610513e-002 -1.98957119e-002 -1.31188296e-002
      -3.16174631e-003 -1.59065949e-003 3.51822823e-002 8.17727949e-003
      7.95834605e-003 -1.50504233e-002 -9.32718441e-003 -2.79425271e-003
      -6.70851441e-003 8.13224725e-003 6.44007325e-003 4.63852137e-002
      1.32226422e-002 3.10693737e-002 1.74689423e-002 3.33973789e-003
      -1.00136716e-002 -2.75813565e-002 -1.52756553e-002
      -6.69766683e-003 3.42564955e-002 1.39903100e-002 1.72596965e-002
      9.85959265e-003 7.94482417e-003 -1.01761343e-002 -4.88895876e-003
      1.04640452e-002 -5.10238763e-003 4.23876792e-002 1.09041510e-002
      3.17801628e-003 -1.35233346e-002 -4.33452893e-003 -4.25513089e-003
      2.80325394e-003 9.46102571e-003 -8.60849116e-003 3.38048525e-002
      -5.00832591e-003 1.91285298e-003 -1.11695956e-002 -4.45504207e-004
      -2.08449606e-002 -1.54051883e-002 -9.90414643e-004
      -5.05716365e-004 3.94304916e-002 9.66506358e-003 1.23985317e-002
      -1.83630991e-003 -3.68823856e-003 -1.10062566e-002
      -8.43491685e-003 9.67465993e-003 -7.84901902e-003 2.26923246e-002
      -1.56681463e-002 7.87873403e-004 -9.51108895e-003 -8.76670331e-003
      -4.49362630e-003 4.18413751e-004 5.38382726e-003 -8.48149695e-003
      2.95097996e-002 -8.94711760e-004 2.74057966e-003 -4.39747982e-003
      1.98243908e-003 1.08059188e-002 7.42442394e-003 2.06527058e-002
      1.14354759e-003 3.55856381e-002 -3.96235753e-003 9.29953251e-003
      6.26635097e-004 2.60627852e-003 -6.75756996e-003 -7.02201342e-003
      -2.53134989e-004 -1.31849339e-002 2.21127979e-002 -1.56874899e-002
      -7.82096665e-003 -1.27911353e-002 -1.02296211e-002
      -1.32331587e-002 -3.00802360e-003 6.17943751e-003 -7.88540952e-003
      2.03575902e-002 -8.04503635e-003 3.60754260e-004 -1.33111533e-002
      -5.55304112e-003 1.18923010e-002 8.29132833e-003 1.55281788e-002
      -5.98610099e-003 2.59820912e-002 -1.89472642e-002 -3.07590794e-003
      -4.02778061e-003 2.27804133e-003 2.78255958e-002 2.24113278e-002
      1.94703918e-002 2.07072636e-003 1.54712638e-002 -1.61049161e-002
      -3.92306130e-003 2.45143869e-003 1.39075387e-002 -5.86180203e-003
      5.46181283e-004 2.42486596e-003 -3.00260093e-002 1.53359408e-002
      -2.17737667e-002 -1.09204827e-002 -1.75506826e-002
      -8.32814071e-003 1.64554790e-002 6.84597809e-003 3.62750096e-003
      -2.73045283e-002 8.36891495e-003 -1.85220726e-002 2.27185170e-004
      -3.62154492e-003 1.37067121e-002 2.21700706e-002 2.98930588e-003
      -3.63122346e-003 -1.71551108e-002 1.09739229e-002 -8.38524941e-003
      7.62943691e-003 -1.20416319e-003 5.83313080e-003 5.50252339e-003
      -9.66705754e-003 1.11739954e-003 -7.98899680e-003 4.74451669e-002
      7.34762708e-003 1.10847959e-002 -9.56269633e-003 -4.57138009e-003
      1.54298460e-002 -1.88518863e-003 -1.69505924e-002 -3.98394987e-002
      8.20090063e-003 -8.13559908e-003 1.31189292e-002 9.64167714e-003
      1.81083698e-002 1.73842218e-002 -7.00499164e-003 -1.39391217e-002
      -2.87666246e-002 3.89926843e-002 8.29078350e-003 2.14463435e-002
      3.81581322e-003 8.33158381e-003 -1.40250176e-002 -1.54324984e-002
      3.95700103e-003 1.15259057e-002 6.38793185e-002 2.28135698e-002
      8.05152673e-003 -2.72695906e-002 -2.59947106e-002 -1.29738245e-002
      -1.43989976e-002 8.70151259e-003 2.15254351e-002 8.12741742e-002
      4.02722731e-002 2.49933265e-002 -1.31151229e-002 -1.96003299e-002
      2.40805349e-003 -1.90603603e-002 -2.24130061e-002 -1.83600672e-002
      4.57616225e-002 1.34864151e-002 4.64082835e-003 -1.53234275e-002
      -4.08146158e-003 -4.76477668e-003 -2.36261357e-002
      -1.21090552e-002 -5.65321976e-003 5.97451180e-002 3.75175066e-002
      2.66748313e-002 -8.64076987e-003 -7.56040821e-003 -2.86413841e-002
      -1.66252386e-002 -8.04143120e-003 -1.30797166e-003 5.71356080e-002
      3.70208062e-002 1.56145589e-002 -1.66487638e-002 -2.59740371e-002
      -1.96551885e-002 -1.33695351e-002 -1.60114300e-002
      -1.77348222e-004 4.78886478e-002 2.88931802e-002 1.73337888e-002
      -6.50726724e-003 -4.10640612e-003 -2.45359596e-002
      -2.89382134e-002 -1.48530426e-002 -2.10394943e-003 5.72673716e-002
      2.86963787e-002 1.13147870e-002 -1.21685658e-002 -2.18030754e-002
      -1.38453413e-002 -1.82362981e-002 -1.08937761e-002 1.06523763e-002
      5.28440550e-002 2.04188172e-002 2.43757702e-002 -5.52206533e-003
      -7.11754849e-003 -1.46039417e-002 -6.01426279e-003
      -2.66623758e-002 -2.00065747e-002 1.26020294e-002 7.88896531e-003
      5.21926396e-003 -1.06031457e-002 -1.44168676e-003 4.48362064e-003
      5.90019627e-003 -3.07706359e-004 -1.94291733e-002 6.95128040e-003
      1.09429229e-002 2.85985079e-002 1.12752486e-002 2.11143140e-002
      -1.84622463e-002 -8.73088278e-003 -1.90891065e-002
      -1.61227304e-002 1.67175811e-002 -2.32785661e-003 1.29102673e-002
      -1.31370239e-002 2.22868519e-003 1.14510609e-002 7.04794563e-003
      4.79599554e-003 -1.23063773e-002 1.43093755e-002 3.80718522e-003
      3.47992890e-002 6.13394985e-003 1.75669231e-002 1.23240063e-002
      9.13000386e-003 9.18785110e-003 -2.93769017e-002 -3.01560350e-002
      1.03448201e-002 3.94758955e-002 1.97518803e-002 1.96665917e-002
      3.08692902e-002 2.85772700e-002 3.04573905e-002 -3.10404953e-002
      -4.63248603e-002 1.15330727e-003 4.55646962e-002 2.78970040e-002
      3.52940410e-002 1.78148653e-002 3.96211538e-003 7.57671567e-003
      -2.26734597e-002 -2.03718878e-002 8.18271656e-003 3.45160663e-002
      8.56841169e-003 1.42034991e-002 3.35803181e-002 2.68232562e-002
      3.44377048e-002 -3.30362692e-002 -3.48018780e-002 2.83118361e-003
      3.65825444e-002 1.49162346e-002 2.98074074e-002 5.53970737e-003
      2.71062776e-002 3.62405106e-002 1.93382725e-002 8.74870270e-003
      -2.03384440e-002 2.12312527e-002 1.68643822e-003 6.18523278e-004
      1.92143256e-003 1.16021736e-002 2.24199314e-002 1.86415780e-002
      5.96653018e-003 -1.89496595e-002 3.46346684e-002 8.80370103e-003
      -2.13231798e-003 2.38500386e-002 2.49093249e-002 4.83553186e-002
      2.33652275e-002 1.88886339e-003 -1.22221122e-002 3.67593206e-002
      1.37018794e-002 2.09484268e-002 -5.14253555e-003 7.49585917e-004
      1.82463285e-002 1.25188613e-002 -4.33803489e-003 -1.42235775e-002
      2.94714924e-002 1.92123074e-002 1.38591835e-002 1.16442973e-002
      3.72109306e-003 1.20848333e-002 7.92139396e-003 3.78202088e-002
      7.94449635e-003 2.10635643e-002 1.19755277e-002 8.14261194e-003
      -6.78928616e-003 -2.55165976e-002 -1.02974894e-002
      -1.29817212e-002 3.15741189e-002 -9.84319579e-003 1.97597127e-003
      -4.66220547e-003 -1.77162280e-003 1.87366493e-002 7.50624156e-003
      2.09770147e-002 3.75384348e-003 3.36130112e-002 1.87860280e-002
      2.47093011e-002 1.43499644e-002 2.22457759e-002 -1.48128346e-003
      -1.03060836e-002 -6.75116107e-003 -1.53765390e-002 3.58266681e-002
      -5.54031041e-003 1.13618234e-002 -1.30330501e-002 -1.79856829e-002
      -9.83579829e-003 -1.41545776e-002 6.67094765e-003 6.49057270e-004
      4.12157774e-002 9.75406356e-003 1.33277904e-002 -2.77249934e-003
      -1.16271200e-002 -3.67824570e-003 -9.68957879e-003 9.66020580e-003
      -1.82349514e-002 1.52720585e-002 -2.16426011e-002 2.70937220e-003
      -3.98137141e-003 -1.24886511e-002 -9.18059517e-003
      -1.49795436e-004 1.79919135e-002 -1.01753417e-003 4.04504165e-002
      3.14441882e-003 1.84770934e-002 -1.46396030e-002 -2.18764953e-002
      -4.82970383e-003 -5.75192599e-003 1.49723357e-002 -1.43654980e-002
      1.33212600e-002 -1.78388655e-002 7.14879576e-003 -6.01096218e-003
      -1.59951225e-002 -1.75359310e-003 -8.99447408e-003
      -1.32948067e-003 -2.26528011e-002 1.51283070e-002 -1.44529855e-002
      1.39204180e-003 2.63351575e-003 -6.71100570e-003 -1.03741037e-002
      -9.95802693e-003 -1.14951259e-003 -9.39875375e-003 2.62572225e-002
      -3.43773863e-003 2.45500967e-004 -3.19660222e-003 -6.00015419e-003
      -4.70785564e-003 -5.84511459e-003 4.17778641e-003 -1.89146567e-002
      1.45061370e-002 -7.51695270e-003 1.79508014e-003 -2.19460344e-003
      -9.60939098e-003 -1.64189432e-002 -1.28855510e-002
      -4.27752675e-004 -1.36706633e-002 2.75254119e-002 7.59852724e-003
      1.12440838e-002 -1.92907813e-003 -9.87503026e-003 -6.63521374e-003
      -4.44745133e-003 6.34660805e-003 -2.22568009e-002 2.49249879e-002
      -5.84129943e-003 1.51859107e-003 -1.08657340e-002 -2.56952574e-003
      1.68398637e-002 8.40025302e-003 1.12069808e-002 -1.36547266e-002
      2.46964972e-002 -4.62321006e-003 -1.38301577e-003 -1.09502096e-002
      1.29504250e-002 -1.76453423e-002 -1.43058104e-002 8.40993039e-003
      -1.81815214e-002 2.28505805e-002 -1.80703797e-003 3.92710278e-003
      -1.33843785e-002 -1.00697679e-002 -5.20892674e-003
      -1.53020322e-002 7.57703790e-003 -8.04003421e-003 2.60586459e-002
      -1.98161742e-003 -6.27702661e-003 -2.58343760e-002 5.39673958e-003
      1.26513243e-002 -3.95719515e-004 -3.79256462e-003 -2.55474560e-002
      2.02333219e-002 3.95203661e-003 1.74747519e-002 -5.37443580e-003
      1.31950360e-002 1.55659905e-002 -6.31676428e-003 -6.60538627e-003
      -1.91956945e-002 5.11935391e-002 1.17209144e-002 3.05896141e-002
      2.46845768e-003 1.10267922e-002 1.87682558e-003 -2.21051797e-002
      -1.09923212e-002 -1.18212029e-002 3.54480110e-002 -5.92254102e-004
      -6.36010058e-003 -2.96045467e-002 4.38099355e-003 2.36618780e-002
      -1.57881156e-002 -1.30018592e-002 -1.06111141e-002 6.25111163e-002
      1.73696689e-002 2.54158080e-002 -1.11683737e-002 1.37405600e-002
      5.13836229e-003 -1.47354873e-002 -1.76178738e-002 -2.57902648e-002
      3.85321900e-002 1.37477489e-002 1.28145339e-002 -1.26727996e-002
      3.25982645e-003 4.13820334e-003 -1.43212480e-002 -1.22575099e-002
      -1.41597884e-002 5.84375225e-002 2.64149867e-002 2.71779764e-002
      2.29576998e-003 9.05180257e-003 1.80174261e-002 -1.44759016e-002
      -2.15373952e-002 -2.08109431e-002 4.99295294e-002 5.09428326e-003
      1.50819495e-002 -1.71793010e-002 8.53139441e-003 1.13364588e-002
      -1.51442923e-002 -1.85897127e-002 -3.14864144e-003 5.98220266e-002
      1.32824164e-002 2.66119819e-002 -1.26185303e-003 -8.15526073e-005
      -8.00676458e-003 -2.39741839e-002 -2.05333587e-002
      -8.66721012e-003 5.61910160e-002 1.38351852e-002 1.21213533e-002
      -6.38846168e-003 -5.30200033e-003 -1.97186531e-003
      -2.61502191e-002 -9.25831776e-003 -1.22728897e-003 5.05583882e-002
      2.09096707e-002 2.68172622e-002 4.66719829e-003 2.37943884e-003
      -1.19097168e-002 -2.76909228e-002 -2.65376810e-002
      -1.01766987e-002 5.19847684e-002 2.05501611e-003 7.55128032e-003
      -6.53568842e-003 -1.31198457e-002 -8.15968588e-003
      -2.98761334e-002 -1.51240081e-002 -9.76576353e-004 4.19269800e-002
      8.06538388e-003 2.50856690e-002 3.00334272e-004 -2.09953665e-004
      -8.16526543e-003 -1.77164283e-002 -1.97581537e-002
      -1.72453504e-002 1.69546921e-002 4.35530487e-003 2.24215426e-002
      -1.00545690e-003 2.75653874e-004 8.87257047e-003 2.41410942e-003
      -1.31036073e-003 -1.77291166e-002 1.36914607e-002 7.71673769e-003
      3.90574001e-002 1.29072303e-002 9.16519016e-003 -1.44037250e-002
      -2.44481098e-002 -1.82750598e-002 -1.61958039e-002 1.64289549e-002
      -6.98634749e-003 1.56971905e-002 -5.90825081e-003 -5.55029092e-003
      -6.27425208e-004 -5.65903634e-003 -7.85620417e-003
      -2.16316283e-002 1.37509685e-002 4.09567170e-003 1.65657885e-002
      -1.12719480e-002 -1.83835707e-003 1.63034163e-002 5.79012046e-003
      2.06392011e-004 -2.34268978e-002 -1.99605245e-002 1.15209920e-002
      3.34600769e-002 2.32212152e-003 1.83948397e-003 3.17936614e-002
      2.64469590e-002 2.99495440e-002 -3.08597889e-002 -3.11322939e-002
      1.78125817e-002 3.94068360e-002 1.99030470e-002 2.53806226e-002
      7.93342851e-003 6.97618234e-004 -5.53028937e-003 -3.43608335e-002
      -2.04443876e-002 1.31170265e-002 2.25162506e-002 -1.20169846e-002
      -2.75067263e-003 3.65809239e-002 2.46385299e-002 1.83043517e-002
      -4.31884415e-002 -2.27766838e-002 3.10520418e-002 4.49128933e-002
      2.08825953e-002 3.28124091e-002 7.20262574e-003 1.64111275e-002
      3.38592492e-002 2.57338062e-002 -1.03069644e-003 -4.79292544e-003
      3.76878381e-002 1.05372053e-002 5.07005630e-003 -2.86251120e-003
      -1.24527756e-002 7.89410248e-003 1.02118058e-002 -9.50836204e-003
      -1.56233339e-002 4.53671999e-002 1.71710476e-002 4.06568730e-003
      2.76951194e-002 2.69113965e-002 3.85179780e-002 3.23579572e-002
      1.67821050e-002 -2.38336925e-003 4.96031456e-002 3.30823474e-002
      2.92338803e-002 1.63751896e-002 1.36432936e-002 1.95064861e-002
      1.07896328e-002 -1.31756905e-002 -2.04021521e-002 3.82459238e-002
      2.00630184e-002 1.21466052e-002 7.38498615e-003 -1.26616878e-003
      1.29017476e-002 -3.31013254e-003 2.71864068e-002 2.10262872e-002
      3.17906588e-002 3.68507649e-003 8.62892717e-003 -5.75792044e-003
      -5.66112204e-003 -6.82179932e-004 -9.58529487e-003 3.19201536e-002
      1.18265823e-002 1.36445649e-002 -3.39813530e-003 -1.86019260e-002
      1.52321793e-002 1.50615508e-002 1.44317718e-002 -6.62111118e-003
      2.72685196e-002 5.37458109e-004 3.74119245e-002 1.51419248e-002
      1.20688835e-002 -5.93904685e-003 -1.63633768e-002 -1.40055073e-002
      -1.85956899e-002 1.92183983e-002 1.50522757e-002 3.64808291e-002
      1.52648427e-002 -1.01948651e-002 -4.01273742e-003 -3.90875852e-003
      9.17399116e-003 5.11039142e-003 3.79075818e-002 6.30358607e-003
      2.44865846e-002 -7.11317826e-003 -1.34702753e-002 -6.56755874e-003
      -6.34825462e-003 7.62705971e-003 -1.82216410e-002 1.71347521e-002
      -1.37188192e-002 1.18510528e-002 -6.09182380e-003 -1.13576641e-002
      -4.41210577e-003 -1.38626117e-002 -5.98517805e-003
      -1.67746190e-002 2.83590239e-002 1.04229925e-002 3.15499157e-002
      1.02839116e-002 -3.92108923e-003 9.55792377e-004 -1.04401251e-002
      2.39706622e-003 -3.17398384e-002 7.57222809e-003 -8.07087682e-003
      2.17619780e-002 8.23628716e-003 -6.10547978e-003 -1.22671193e-002
      -9.68161877e-003 2.40575476e-003 -1.85749009e-002 1.30286114e-002
      -7.88843632e-003 8.03519320e-003 -6.91837957e-003 -1.88497063e-002
      -1.85740441e-002 -1.20938513e-002 1.50574138e-003 -1.35459127e-002
      1.98632143e-002 -6.61397027e-003 1.00709088e-002 -8.99783615e-003
      -1.43264318e-002 -6.11408497e-004 -1.42162462e-004 1.31219178e-002
      -1.49391852e-002 1.03475451e-002 -1.17484834e-002 1.51453782e-002
      3.35077266e-003 -2.27577193e-003 -3.71265411e-003 -8.49562418e-003
      1.18108401e-002 -1.57806892e-002 9.69519466e-003 -1.19001698e-002
      2.76632123e-002 1.18400750e-003 7.39594921e-003 -2.33929604e-002
      -1.32371122e-002 3.52573767e-003 -2.61109732e-002 9.31929052e-003
      1.48689176e-003 1.24133155e-002 -4.76411404e-003 -1.35566527e-002
      -8.44419375e-003 -1.68706365e-002 2.18032068e-003 -1.25259673e-002
      1.58183724e-002 2.30851420e-003 5.49783092e-003 -9.24038142e-003
      3.99364624e-003 -2.36140518e-003 -5.60051342e-003 7.09045772e-003
      -2.90686563e-002 8.86957813e-003 -3.07158800e-003 3.26378345e-002
      3.47769819e-003 5.04666846e-003 1.87225994e-002 -3.56211234e-003
      -1.74448709e-003 -2.37815194e-002 8.45346693e-003 1.15909120e-002
      3.76240090e-002 1.17458701e-002 2.26517580e-002 -5.71063580e-003
      -2.13400945e-002 -1.25780348e-002 -1.14231426e-002 3.91330458e-002
      1.02190431e-002 -2.32614134e-003 -1.94141939e-002 5.06224995e-003
      1.80971678e-002 -1.60179511e-002 -1.56212524e-002 -1.17928414e-002
      6.63422868e-002 1.55356294e-002 8.15596711e-003 -1.65774804e-002
      1.87775902e-002 2.51719113e-002 -9.32349265e-003 -3.85613111e-003
      -1.72988679e-002 2.04325151e-002 3.45465750e-003 2.04956252e-002
      -1.85222051e-003 2.53668670e-002 2.99315900e-002 -8.28454271e-003
      -3.38447979e-003 -1.92574617e-002 5.30537404e-002 5.34750114e-004
      1.20474845e-002 -9.47537459e-003 2.50276290e-002 1.96157582e-002
      -1.96585413e-002 -2.70218514e-002 -1.83290411e-002 4.74086329e-002
      6.85656490e-003 2.70104758e-003 -1.95460338e-002 1.17415255e-002
      1.02720745e-002 -1.94250233e-002 -3.20474170e-002 -1.04322787e-002
      6.22655824e-002 1.13037620e-002 2.18384676e-002 -4.29676240e-003
      3.98127269e-003 1.84095744e-002 -1.90827753e-002 -1.47078745e-002
      -2.18292549e-002 4.88235690e-002 -5.75821055e-003 -1.86427508e-003
      -1.95437074e-002 2.15734951e-002 2.16840450e-002 -1.73172206e-002
      -1.58774760e-002 -2.73454818e-003 6.47327006e-002 2.00289600e-002
      1.28184594e-002 -9.01892502e-003 1.83274709e-002 -1.82587397e-003
      -2.49202419e-002 -3.48917507e-002 -1.33690219e-002 4.73806709e-002
      4.43042768e-003 2.63344473e-003 -1.25993779e-002 -1.37870498e-002
      -1.40633830e-003 -1.43204033e-002 -9.28050652e-003
      -6.99187221e-004 4.00721766e-002 1.02748089e-002 1.82585064e-002
      -7.96226878e-003 -2.64661852e-003 1.24638602e-002 -2.02228855e-002
      -1.48423789e-002 -1.24965962e-002 4.21140566e-002 5.77167654e-003
      -3.93258175e-003 -2.88465954e-002 -4.87752445e-003
      -1.64937321e-003 -5.14437910e-003 6.18804758e-003 1.36196613e-003
      4.13781926e-002 1.79706924e-002 2.48679565e-003 -2.83380318e-002
      -1.14352861e-002 -8.14200565e-003 -1.08717559e-002
      -7.53187248e-003 -6.32966915e-003 2.97518633e-002 6.66428590e-003
      1.40355714e-002 -9.02041420e-003 -4.66361269e-003 2.43759248e-003
      5.30080986e-004 2.51683523e-003 3.64204257e-004 2.62745358e-002
      1.00210840e-002 2.70727021e-003 -2.10185889e-002 -6.60119066e-003
      -1.64607614e-002 -7.42749125e-003 1.12636702e-003 -5.43549750e-003
      3.75810154e-002 1.71911959e-002 -2.55082012e-003 -2.60352679e-002
      -1.76323876e-002 -4.43329429e-003 -1.90080272e-003 1.79459397e-002
      1.37916561e-002 3.78316753e-002 1.93524603e-002 -6.84981188e-003
      -2.04438437e-002 -1.48704927e-002 -1.68981054e-003
      -1.46155851e-003 -3.29983630e-003 -1.16782617e-002 9.64092440e-004
      2.08104942e-002 1.02803123e-003 -3.78036015e-002 -1.59635134e-002
      2.43653897e-002 2.24150140e-002 1.74012911e-002 -2.20453106e-002
      -9.39659961e-003 2.48997454e-002 2.75591929e-002 -4.30148002e-003
      1.67896729e-002 -3.50503856e-003 -8.37453757e-004 1.34136211e-002
      5.91178332e-003 1.58347450e-002 1.93435792e-002 2.96929828e-003
      -2.43108999e-002 -1.33846253e-002 2.61592884e-002 1.65779870e-002
      2.75276843e-002 -1.59232914e-002 6.40495587e-003 2.75930595e-002
      3.49936783e-002 8.67375266e-003 1.86001845e-002 1.94433965e-002
      2.40542814e-002 2.74210423e-002 2.70666312e-002 1.43322255e-002
      7.98144098e-003 4.06124890e-002 3.60377766e-002 2.28421260e-002
      8.93196047e-005 1.58583857e-002 1.42434137e-002 4.97476151e-003
      1.87475001e-003 -1.91324838e-002 3.58231701e-002 1.60710867e-002
      1.04353239e-003 2.44273841e-002 1.67264044e-002 3.03971190e-002
      3.18032876e-002 1.48865608e-002 1.56181690e-003 4.52741235e-002
      3.45687531e-002 3.23741361e-002 1.24479132e-002 5.71929617e-003
      8.61188956e-003 -6.82494557e-003 -2.47785286e-003 -2.61930842e-002
      3.21451426e-002 2.67866980e-002 1.75594352e-002 1.24765327e-002
      1.38475746e-002 9.65132844e-003 -9.56679508e-003 3.03518828e-002
      9.89102945e-003 4.19878811e-002 1.77713688e-002 1.33999465e-002
      -7.96641596e-003 -5.88164199e-003 -1.09507004e-002
      -2.85874512e-002 1.87159237e-002 1.35803986e-002 3.51801366e-002
      1.37465112e-002 -2.37540365e-003 1.81152672e-002 8.21402669e-003
      7.73425447e-003 -8.46495759e-003 3.02761495e-002 3.40873841e-003
      4.30756435e-002 2.36877464e-002 1.87318400e-002 3.72209400e-003
      -1.37276165e-002 -1.97934601e-002 -3.01629584e-002 9.75300651e-003
      1.66602284e-002 4.08443622e-002 1.82836037e-002 1.37391556e-002
      6.90268294e-004 -5.26172062e-003 5.17577026e-003 -2.20251139e-002
      2.78867260e-002 1.30077302e-002 3.09939291e-002 1.36456992e-002
      1.01940623e-002 -3.34296888e-003 -1.28080323e-002 4.70924284e-003
      -4.01372351e-002 1.07634393e-002 -1.08573725e-002 2.32957155e-002
      1.34179294e-002 1.29607860e-002 8.86688940e-003 -7.67371291e-003
      8.00102018e-003 -2.96141561e-002 2.27805190e-002 9.56207234e-003
      3.39393839e-002 1.36289457e-002 1.86776500e-002 -6.96915085e-004
      -1.56774595e-002 3.20873712e-003 -4.79317568e-002 5.83179668e-003
      -1.45464055e-002 2.51275431e-002 6.34087995e-003 1.41499322e-002
      -3.45230382e-003 -4.38860571e-003 8.44556279e-003 -2.86211092e-002
      -2.48260167e-003 -9.91263893e-003 2.25222129e-002 1.33695491e-002
      1.14789661e-002 1.11002736e-002 -3.38374591e-003 1.23781133e-002
      -1.63038429e-002 6.96792733e-003 -3.07948794e-003 3.17649618e-002
      1.29167559e-002 2.21419707e-002 -1.81696040e-003 -9.01152566e-003
      -5.21321269e-003 -4.99417745e-002 -8.19841679e-003
      -4.84746927e-003 1.98254976e-002 3.35825398e-003 1.53366039e-002
      1.11355297e-002 3.08767194e-004 3.12696747e-003 -3.91990207e-002
      -5.25643630e-003 -4.52070439e-004 3.09309568e-002 1.15474146e-002
      1.60844028e-002 6.38086069e-003 -7.89137278e-003 -2.71272846e-003
      -3.20991203e-002 -7.90161360e-003 -1.54238893e-003 3.42212133e-002
      3.16697289e-003 5.62219415e-003 2.48488337e-002 6.51087845e-003
      4.40711901e-003 -2.30722688e-002 -6.27886271e-003 3.62748490e-003
      4.32013087e-002 1.37104308e-002 2.83631459e-002 7.53407879e-003
      -8.88010080e-004 1.05819739e-002 -3.60560939e-002 -1.05440821e-002
      -1.29912151e-002 2.69830152e-002 9.79837682e-003 1.46130705e-003
      2.56893709e-002 -5.97718637e-004 7.29448535e-003 -1.12365885e-002
      -7.37735862e-003 -9.41924658e-003 4.01474163e-002 1.15668941e-002
      2.21789796e-002 2.07639132e-002 -4.61603595e-005 -3.55229201e-003
      -3.68132256e-002 -3.93613894e-003 -1.15404129e-002 2.05706302e-002
      4.71911859e-003 2.98827440e-002 2.24609673e-002 -5.22421580e-003
      4.83232114e-004 -2.48072222e-002 1.34591330e-002 -1.77709237e-002
      1.21919410e-002 -8.36795382e-003 2.58616358e-002 2.50320435e-002
      -4.19397000e-003 8.37133918e-003 -3.40417102e-002 -2.60420190e-003
      -1.32095339e-002 3.68125550e-002 1.87162403e-002 2.93458514e-002
      3.66444737e-002 1.80030835e-003 2.15151943e-002 -2.42614932e-002
      2.59328610e-003 -1.22814579e-002 2.57294606e-002 1.22014852e-002
      4.13985737e-002 9.43927746e-003 -2.51846556e-002 -7.66764954e-003
      -2.03778278e-002 2.71159317e-002 -1.27727436e-002 -1.00302761e-002
      -2.29581594e-002 1.96783505e-002 1.92728695e-002 -1.56907588e-002
      -5.47870249e-003 2.19367794e-003 4.98883575e-002 1.22392206e-002
      1.85135566e-003 -1.76905673e-002 1.42598310e-002 2.68272478e-002
      -4.66140220e-003 1.92018524e-002 -1.70214679e-002 1.23164728e-002
      -2.59846840e-002 -6.27301540e-003 -1.03391549e-002 3.10055055e-002
      3.12409811e-002 1.04673104e-002 2.26649251e-002 7.99115933e-003
      4.03172746e-002 2.78109405e-003 -8.30068719e-003 -1.32838013e-002
      1.96920130e-002 7.92403892e-003 -1.11852260e-002 -9.86855384e-003
      -1.01309717e-002 3.27661932e-002 2.30007363e-003 -9.20629874e-003
      -4.38553095e-002 -1.60424281e-002 -6.03807392e-003 1.84127421e-003
      1.80931929e-002 4.32680099e-004 4.40761670e-002 1.04190484e-002
      -7.91033637e-003 -3.65156606e-002 -2.23732367e-002 1.02419937e-002
      6.30022818e-003 1.24870017e-002 -5.07258484e-003 3.29781882e-002
      -2.36037443e-003 -1.05581423e-002 -3.45124379e-002
      -1.58069748e-002 -1.74429588e-004 1.80805270e-002 4.29268032e-002
      2.14484502e-002 5.46543635e-002 8.98769032e-003 -9.26165842e-003
      -3.15549448e-002 -1.40076634e-002 -2.71861386e-002
      -1.02366162e-002 3.80516564e-003 -9.51248128e-003 4.33875583e-002
      2.99404422e-003 -1.13756973e-002 -5.40734753e-002 -4.00470719e-002
      -2.14403681e-002 -2.22036876e-002 6.66596042e-003 5.09775477e-003
      3.93423215e-002 1.57388039e-002 -1.57922375e-004 -3.40952948e-002
      -3.65584902e-002 -2.27205958e-002 7.97155034e-003 3.88364606e-002
      2.07311530e-002 5.12625836e-002 4.16063610e-003 -3.79463471e-003
      -3.36551927e-002 -3.02820317e-002 -2.24178899e-002
      -4.45889309e-003 3.63853462e-002 3.32268700e-002 6.22469299e-002
      4.35702801e-002 3.76365371e-002 -5.27445413e-003 -2.11497936e-002
      -2.12499592e-002 -3.38099487e-002 -5.74205676e-003
      -1.05816498e-002 7.32184341e-003 5.63825481e-003 1.66639704e-002
      -2.76838280e-002 -2.50806734e-002 5.39147621e-003 -1.51880840e-002
      5.41465683e-003 -2.99920477e-002 -1.03308838e-002 1.74213126e-002
      4.30584364e-002 2.69652288e-002 7.08189467e-003 -3.57957445e-002
      -3.50362286e-002 1.12969875e-002 2.31113173e-002 3.49576063e-002
      3.35411094e-002 4.40082364e-002 1.50610460e-002 -1.78099144e-002
      -2.27089552e-003 -1.92920975e-002 1.04619330e-002 -1.76014882e-002
      5.83699904e-003 3.63463946e-002 6.32440969e-002 4.10550795e-002
      2.01782249e-002</_></support_vectors>
  <decision_functions>
    <_>
      <sv_count>1</sv_count>
      <rho>1.3241527016512165e+000</rho>
      <alpha>
        1.</alpha>
      <index>
        0</index></_></decision_functions></my_svm>
</opencv_storage>
