<?xml version="1.0"?>
<opencv_storage>
<my_svm type_id="opencv-ml-svm">
  <svm_type>C_SVC</svm_type>
  <kernel><type>LINEAR</type></kernel>
  <C>1.</C>
  <term_criteria><epsilon>2.2204460492503131e-016</epsilon>
    <iterations>100000</iterations></term_criteria>
  <var_all>2880</var_all>
  <var_count>2880</var_count>
  <class_count>2</class_count>
  <class_labels type_id="opencv-matrix">
    <rows>1</rows>
    <cols>2</cols>
    <dt>i</dt>
    <data>
      -1 1</data></class_labels>
  <sv_total>1</sv_total>
  <support_vectors>
    <_>
      -1.52346240e-002 5.73111102e-002 8.79349336e-002 1.14659719e-001
      1.01318825e-002 -2.33056135e-002 8.21261853e-002 6.46221712e-002
      -3.33065651e-002 -9.44398437e-003 4.64122519e-002 8.05163290e-003
      5.58750369e-002 -1.19612375e-002 1.77395660e-002 8.04883707e-003
      -7.71773630e-004 -3.05009596e-002 -9.72994044e-003 4.20967303e-002
      4.27548103e-002 6.48642257e-002 -3.11882962e-002 -4.78124097e-002
      6.75179213e-002 9.89656076e-002 -2.18296479e-002 -4.36065085e-002
      1.39367944e-002 -5.74459396e-002 3.37136164e-002 -4.87231798e-002
      1.13978768e-002 1.20392861e-002 3.36647034e-002 -6.47209212e-002
      3.36219035e-002 7.86627680e-002 3.12428363e-002 6.88733608e-002
      6.17461391e-002 6.01944961e-002 -1.67381484e-002 3.71669047e-002
      -1.18003823e-002 -3.55751999e-002 7.61587359e-003 -4.85431813e-002
      4.74556275e-002 -1.24604320e-002 2.65611522e-002 -5.81271239e-002
      -1.66580118e-002 -7.80982152e-002 2.69254856e-002 7.14578629e-002
      3.93525437e-002 7.19873160e-002 3.89937051e-002 8.02119672e-002
      2.08717268e-002 6.77301139e-002 -9.27338470e-003 -9.55201015e-002
      -3.56800742e-002 -7.30041340e-002 4.95715179e-002 6.07341938e-002
      2.58189514e-002 -4.37871963e-002 -1.97898038e-002 -8.26256946e-002
      1.45823536e-002 3.12426686e-002 -1.57329217e-002 -9.40414518e-003
      7.58657157e-002 1.70716308e-002 5.17833466e-003 -2.78299022e-002
      -4.73737940e-002 -3.19563202e-003 1.51978442e-002 -8.65579695e-002
      -1.17981203e-001 9.68927238e-003 9.69228684e-004 -2.83635762e-002
      -4.47947048e-002 -4.92255911e-002 -2.74809990e-002 1.71122663e-002
      -1.99937634e-002 1.55016864e-002 1.05406739e-001 5.95880561e-002
      3.36828865e-002 -1.67647190e-002 -4.98309918e-002 -3.27351280e-002
      -3.76999602e-002 -4.71570231e-002 -3.49144191e-002 4.51457277e-002
      9.01383348e-003 -4.46624570e-002 -2.79940013e-002 -8.20636824e-002
      -2.46096663e-002 -3.33318003e-002 -5.17683476e-002
      -1.09875813e-001 -5.54755107e-002 3.90680768e-002 -9.22158640e-003
      -1.08897118e-002 -2.24182545e-003 -2.27179416e-002 5.14994049e-003
      -2.66995449e-002 -1.09791905e-001 -6.04490004e-002
      -1.63022038e-002 -9.38306004e-003 -1.25802765e-002
      -2.12973189e-002 -2.18224078e-002 -3.90644856e-002
      -5.53026907e-002 -6.64448291e-002 -2.70599388e-002
      -5.71854506e-003 -5.08057028e-002 -2.81924438e-002
      -5.04348166e-002 -1.20128207e-002 2.77841091e-003 -8.36570375e-003
      -9.83978584e-002 -3.26853804e-002 -9.02626142e-002
      -5.00822328e-002 -4.14303578e-002 -6.11516647e-002
      -2.90117264e-002 3.28622982e-002 2.13576090e-002 -1.06774509e-001
      -1.20062917e-001 -3.99213471e-002 -1.10223088e-002 2.80544367e-002
      -2.95260902e-002 -1.42335603e-002 -5.69423940e-003 6.68501332e-002
      -9.16926656e-003 -1.36012271e-001 -4.83756550e-002
      -5.46781067e-003 2.09439429e-003 -5.16172945e-002 -1.59699153e-002
      1.44256493e-002 4.22403850e-002 -9.80434045e-002 -7.14030266e-002
      -7.45596141e-002 -5.02134115e-002 4.48690960e-003 -2.91622952e-002
      7.24148331e-003 -5.25099151e-002 1.81086361e-002 6.55308738e-003
      -3.32258232e-002 -1.60883106e-002 -3.32282931e-002
      -6.19042292e-003 -2.81811915e-002 4.33276556e-002 2.74764784e-002
      5.06453402e-002 -2.71447208e-002 -7.67885819e-002 -2.42613889e-002
      1.26175601e-002 -9.01629217e-004 -6.65770099e-003 9.89315659e-002
      1.93243101e-002 3.44692320e-002 4.10726145e-002 -6.26531243e-003
      2.34921761e-002 4.25496474e-002 2.92576700e-002 9.67308432e-002
      7.89061841e-003 -7.59619772e-002 -7.35922530e-002 -4.50042933e-002
      -1.37864449e-003 -2.89233550e-002 -5.12760074e-004 2.45084404e-003
      -2.06841882e-002 -3.37759848e-003 -2.86142211e-002
      -3.16953734e-002 -7.87341967e-003 1.11637060e-002 -3.01768724e-002
      3.02791316e-002 1.83863204e-003 3.34001444e-002 4.78865542e-002
      -9.49275680e-003 6.18076185e-003 5.83460480e-002 -1.99035462e-002
      -1.62926167e-002 2.58714240e-002 1.64323319e-002 2.03046221e-002
      7.27199465e-002 -7.65878186e-002 -6.12994470e-002 5.99339306e-002
      4.21607718e-002 4.30415869e-002 8.77516940e-002 5.63218743e-002
      3.09281070e-002 2.76839398e-002 -6.37159944e-002 -8.30628350e-002
      -7.06642540e-003 1.50202215e-002 -7.14682639e-002 1.30753542e-004
      -1.51945194e-002 2.45804042e-002 5.13272770e-002 -9.53206569e-002
      -7.52288923e-002 -2.57484317e-002 -3.14562842e-002
      -2.62417365e-002 2.55864281e-002 9.04458761e-003 5.11995181e-002
      1.52458604e-002 -9.82219949e-002 -7.64580891e-002 -4.01135720e-002
      8.96462612e-003 2.44085938e-002 3.81801426e-002 1.67253357e-003
      1.01736281e-002 1.12772505e-004 -1.25442697e-002 7.04100402e-003
      1.45860016e-003 3.10429502e-002 9.45986137e-002 3.64291258e-002
      2.31566057e-002 2.07262002e-002 1.16272289e-002 -8.90785828e-002
      -8.77127275e-002 -6.01036474e-002 -5.72318994e-002
      -5.24942838e-002 -4.66848090e-002 -3.63955274e-002 2.01628562e-002
      5.85190095e-002 -4.42396961e-002 -1.01756662e-001 -8.13494474e-002
      -9.98532586e-003 -4.05432144e-003 -5.22357449e-002 1.97872357e-003
      1.70795452e-002 -4.23724949e-002 -5.13055585e-002 -3.55743468e-002
      1.17405830e-002 7.04183206e-002 3.96457464e-002 3.37616131e-002
      4.67294157e-002 -2.38500182e-002 -4.64007296e-002 -1.81453768e-002
      2.60848757e-002 6.07123002e-002 5.90342656e-002 7.36754984e-002
      -2.12423434e-003 -5.04978895e-002 -8.28794688e-002
      -1.72198750e-002 -9.11638960e-002 -8.67081508e-002
      -5.66186905e-002 -3.37308808e-003 -7.57356510e-002
      -7.06860051e-002 -1.79042108e-002 -4.78801019e-002
      -4.79517989e-002 -5.06092198e-002 -2.53351852e-002 1.90117881e-002
      1.32206865e-002 -2.17884053e-002 -5.10925949e-002 -3.88924740e-002
      -8.39711428e-002 -7.83658028e-003 4.78364863e-002 4.25593629e-002
      5.39793409e-002 7.16434419e-002 8.23885202e-002 -8.19336101e-002
      -1.48684442e-001 -8.40535164e-002 1.20969124e-001 1.12972982e-001
      6.28764182e-002 1.17315434e-001 2.51757186e-002 -3.90729718e-002
      -1.18423477e-001 -1.22442216e-001 4.98798937e-002 -4.33940776e-002
      -1.04345381e-002 -9.55741201e-003 6.07051421e-003 1.96808521e-002
      -1.19754644e-002 -7.94852078e-002 -1.46804228e-001
      -6.00375272e-002 5.11216596e-002 2.46504489e-002 1.27516882e-002
      3.78170125e-002 -8.62624124e-002 -1.39381453e-001 -9.44366828e-002
      -1.01315878e-001 4.74545136e-002 6.32799491e-002 9.23901424e-002
      3.60436030e-002 4.45597619e-002 -3.33423726e-002 -5.09342104e-002
      9.67456698e-002 9.66051593e-002 6.67344853e-002 4.83299978e-002
      5.10780700e-002 -3.05856057e-002 4.43632640e-002 1.07974596e-002
      1.46273701e-002 6.39159903e-002 4.26895507e-002 2.03117321e-004
      -7.85635933e-002 4.66379970e-002 1.53021412e-002 2.39690468e-002
      -3.14647704e-002 -7.75599554e-002 6.12426251e-002 7.32131153e-002
      -2.55592521e-002 -3.69451158e-002 4.74947095e-002 2.72399653e-002
      6.29369318e-002 3.88264731e-002 -7.14011199e-004 5.29500358e-002
      -1.56037370e-002 -2.57916134e-002 5.68973348e-002 7.73336813e-002
      2.22363342e-002 4.21561450e-002 1.12900119e-002 2.72619165e-002
      6.33287281e-002 6.55728653e-002 1.27178552e-002 -1.55069958e-002
      4.59695794e-002 1.33018056e-002 1.00613339e-002 7.31612891e-002
      3.03788334e-002 2.24859198e-003 6.86275633e-003 -1.43992780e-002
      3.65326814e-002 5.17860651e-002 1.45958848e-002 1.70724969e-002
      -1.46651696e-002 5.30328713e-002 6.25772998e-002 2.93903649e-002
      -3.39635229e-003 1.54921133e-002 -1.58365332e-002 -6.21330887e-002
      -4.19877209e-002 1.81067940e-002 4.48324494e-002 3.98676284e-002
      3.67651903e-003 1.61841884e-003 1.02032376e-002 2.09827702e-002
      -2.91475803e-002 -2.17801705e-002 7.50894994e-002 4.30344231e-002
      3.87524478e-002 1.31570399e-002 -4.81734984e-003 -1.26135349e-002
      -2.17085555e-002 -4.61113192e-002 -4.55585793e-002
      -8.42769910e-003 -5.70184290e-002 -4.80293762e-003
      -1.19528929e-002 -2.14584451e-002 1.36708859e-002 2.28915922e-002
      -2.43374072e-002 -2.46954840e-002 -1.92251839e-002 2.84145419e-002
      4.19297293e-002 2.18505389e-003 4.15025689e-002 -4.29105312e-002
      -2.50944356e-003 -3.31212347e-003 -6.36429042e-002
      -6.95620030e-002 -8.28837156e-002 2.27520298e-002 -2.04719752e-002
      -5.90602458e-002 2.17952952e-002 -4.84512933e-003 -1.52033549e-002
      -4.30834070e-002 -2.31393259e-002 -3.40625993e-003
      -3.47859003e-002 9.85541614e-004 -1.69782676e-002 -1.62289373e-003
      1.55478502e-002 3.42096500e-002 -8.90800655e-002 -5.57452999e-002
      -4.67823148e-002 -3.36661376e-002 -1.54936304e-002
      -2.31943894e-002 -4.11756113e-002 -4.58371304e-002
      -2.07247287e-002 -6.67123720e-002 -5.68796061e-002
      -1.16238836e-002 -3.09021194e-002 -2.95547070e-003
      -3.89812216e-002 -9.14895013e-002 -7.82746077e-002
      -1.72659904e-002 -7.67448246e-002 -6.69315606e-002
      -5.14103770e-002 -6.14148639e-002 -5.80744408e-002
      -7.38423690e-002 -1.23523036e-002 2.22149696e-002 4.95668203e-002
      -5.44269755e-002 -6.59938008e-002 -3.78664583e-002
      -2.84495708e-002 -3.00225429e-003 -1.72724258e-002 3.96841392e-002
      -1.56675559e-002 -9.61285201e-004 1.90241504e-002 -6.67649657e-002
      -8.84699542e-003 -2.45616511e-002 -4.39292472e-003 6.37033780e-004
      -6.81134015e-002 -4.86990102e-002 3.95373441e-003 -4.98603582e-002
      -6.15264922e-002 -8.10861439e-002 -6.43986985e-002
      -5.52710965e-002 -6.32358938e-002 1.73714105e-002 -3.16194966e-002
      -3.25047262e-002 -3.89520414e-002 -8.63932222e-002
      -9.03945975e-003 -1.92831028e-002 7.37775190e-005 3.69978063e-002
      4.55611832e-002 -7.12906569e-002 -7.36131445e-002 5.54613257e-003
      5.96963521e-003 8.80999211e-003 -2.67925393e-002 3.09237745e-003
      1.98110808e-002 5.22278026e-002 -2.75191981e-002 -2.18763892e-002
      2.01299880e-002 6.83538392e-002 -2.57670395e-002 -5.54059222e-002
      6.23534620e-003 2.94598918e-002 5.83788641e-002 -5.64082600e-002
      -7.13032261e-002 3.04782251e-003 4.48813289e-002 -2.43616272e-002
      -2.80955024e-002 -8.59554019e-003 5.85535243e-002 4.44260314e-002
      -5.20540169e-004 -9.83361062e-003 2.11278908e-002 9.83624086e-002
      3.28943541e-004 -2.79879682e-002 -5.07779755e-002 5.54122925e-002
      5.24491780e-002 -5.11329658e-002 -4.67587635e-002 -4.85288119e-003
      5.44124581e-002 -3.00113987e-002 -4.75378484e-002 -1.09949643e-002
      2.24628728e-002 6.58592954e-002 -6.01145104e-002 -2.84595713e-002
      -5.95980696e-003 1.73831657e-002 -1.86159033e-002 -4.97747511e-002
      -5.68374200e-003 5.61577454e-002 2.97205187e-002 -6.27115592e-002
      -4.71397676e-002 1.58968661e-002 6.53383136e-002 -2.00189129e-002
      -2.06977148e-002 -3.14852456e-003 3.32438163e-002 5.52374870e-002
      -1.57723296e-002 3.34227607e-002 6.21757656e-002 4.84843254e-002
      -1.87771916e-002 -2.59094313e-002 -1.55029874e-002 3.79576944e-002
      2.09472775e-002 -1.14519924e-001 -9.84366909e-002 -8.75913203e-002
      -5.58652217e-003 4.78842237e-004 -5.23540638e-002 1.06592691e-002
      3.15639637e-002 3.95347401e-002 -1.45523464e-002 -8.62252340e-002
      -5.75081557e-002 7.65975192e-002 3.28643955e-002 -3.82136293e-002
      4.38016616e-002 4.92884777e-002 4.91416641e-003 -3.77300964e-003
      -6.84703514e-003 -1.52361691e-002 2.35579517e-002 -4.25832942e-002
      -5.89219965e-002 -4.08315361e-002 2.08479092e-002 3.06020640e-002
      -5.47707360e-003 -1.21743362e-002 -1.46321943e-002 8.24685693e-002
      -2.01298743e-002 -5.65528795e-002 -7.41064223e-003 5.91876619e-002
      3.17453779e-002 -6.95304107e-003 3.54786366e-002 3.35496850e-003
      6.71487823e-002 -1.32137658e-002 -6.58649430e-002 2.04536803e-002
      3.44459489e-002 -5.84165789e-002 -8.87950584e-002 5.10879196e-002
      6.14029765e-002 9.53034088e-002 -7.70601956e-003 -4.94632274e-002
      1.56204728e-003 -2.80693918e-002 1.83578543e-002 -6.84404597e-002
      7.31498934e-003 -5.95649425e-003 6.35126829e-002 -3.08090728e-002
      -1.11397155e-001 -3.14526632e-002 2.06785165e-002 -5.64845279e-002
      -1.10773541e-001 1.55513221e-002 1.02402054e-001 7.52585977e-002
      -4.58693765e-002 -1.11492567e-001 -3.60178426e-002
      -5.95399663e-002 -2.91349050e-002 -1.41525179e-001
      -2.70398296e-002 3.40320244e-002 5.57142869e-002 2.37781741e-002
      -2.50565484e-002 -1.96126718e-002 -6.17369870e-003 6.06717616e-002
      -5.41978218e-002 3.90034057e-002 8.12654868e-002 -1.51014198e-002
      -2.25549694e-002 -4.21479857e-003 -2.43091136e-002 6.22161888e-002
      -3.40164863e-002 -1.83444619e-001 -3.25744450e-002 7.91183189e-002
      4.92555760e-002 -5.15668243e-002 -7.93811381e-002 -4.43659909e-002
      -6.32597134e-002 2.10462939e-002 -5.61744235e-002 2.32792888e-002
      4.95677739e-002 -7.33166784e-002 -3.84969003e-002 -1.82299092e-002
      -5.80805466e-002 3.08593940e-002 1.54893275e-003 9.50989425e-002
      4.17276397e-002 3.52912843e-002 -2.18342105e-003 -5.07651046e-002
      8.57743397e-002 8.78697261e-002 8.15739017e-003 -2.13673320e-002
      8.68480355e-002 5.43494187e-002 6.69045150e-002 3.39390188e-002
      1.11341309e-002 6.80359080e-002 1.19369733e-003 -6.44253641e-002
      -7.47705102e-002 -1.69058926e-002 -7.85681382e-002 1.90907046e-002
      -3.97493728e-002 -6.11135364e-002 4.08362858e-002 8.59936476e-002
      -5.77650638e-003 -5.25522046e-002 1.17887761e-002 5.83103579e-003
      4.72756438e-002 -4.36923653e-003 -1.56708919e-002 5.23329377e-002
      -2.61374656e-002 -7.62417018e-002 2.58513764e-002 6.47611544e-002
      3.95524949e-002 3.53813581e-002 9.01521835e-003 7.82069340e-002
      6.50719181e-002 9.74944141e-003 -4.36926708e-002 5.46583766e-003
      2.91571002e-002 -4.66172993e-002 -4.85831164e-002 6.77888617e-002
      3.13071683e-002 5.46119399e-002 9.48857423e-003 -5.59146563e-003
      -5.00001237e-002 5.32971323e-002 1.63835604e-002 4.09367383e-002
      -6.08348250e-002 2.26722341e-002 -2.86348257e-002 -4.42579724e-002
      -9.50221270e-002 1.33980522e-002 -5.99900633e-002 -9.09626558e-002
      -1.82475410e-002 -1.43776126e-002 2.68830955e-002 2.48653758e-002
      -1.71421859e-002 -2.01244671e-002 8.23579449e-003 1.12687163e-002
      -4.67134640e-002 -1.34845423e-002 2.55441777e-002 2.52150837e-002
      5.73441163e-002 2.39841361e-002 2.10514683e-002 -6.39911518e-002
      6.06748927e-003 -4.43407670e-002 -6.71558231e-002 -5.22598587e-002
      -1.43767344e-002 7.06843138e-002 4.00550067e-002 -2.72892173e-002
      -1.85229164e-002 -5.90329319e-002 -7.48357475e-002
      -2.76347268e-002 -1.56300291e-002 1.65366959e-002 5.37747592e-002
      2.50730384e-002 3.08441631e-002 -6.43868819e-002 -4.09232713e-002
      -4.60827984e-002 -7.15306327e-002 -2.47909520e-002
      -3.34599093e-002 -1.04486067e-002 2.15073209e-002 -1.31921982e-002
      -8.07549804e-002 -4.49327193e-002 -6.26909062e-002
      -6.14612103e-002 -3.03902309e-002 -9.94885340e-003
      -6.53665513e-003 -1.90008096e-002 -4.19539884e-002
      -8.74817148e-002 -4.90804203e-002 -4.40831371e-002
      -5.30225113e-002 -1.40951993e-002 -6.65576309e-002
      -4.21923138e-002 -4.74855900e-002 -3.69243175e-002
      -4.57221195e-002 -2.40044240e-002 -2.19217986e-002
      -5.27306348e-002 -2.62616016e-002 2.42237002e-003 -5.28421663e-002
      -3.81697305e-002 -2.30971277e-002 -2.41199601e-002 1.37829278e-002
      -4.46318425e-002 -4.65441793e-002 -2.70597320e-002
      -1.12027507e-002 -4.77259979e-002 -4.26531099e-002
      -2.61279047e-002 -4.73539196e-002 -3.89918536e-002
      -3.94686684e-002 -5.89614175e-002 -1.16415350e-002
      -1.22703373e-001 -6.95173740e-002 1.24393683e-002 -1.51028130e-002
      5.17360680e-003 -3.48298736e-002 -5.20086139e-002 -4.02960069e-002
      -4.75172848e-002 -6.64610267e-002 -1.98504440e-002 3.80636565e-002
      4.32436243e-002 2.12206898e-004 -3.81729640e-002 -6.73106015e-002
      -7.04007298e-002 1.48610282e-003 -7.90142715e-002 -6.37273639e-002
      2.13036276e-002 1.59904326e-003 1.92953162e-002 -3.68842222e-002
      -5.44298105e-002 -3.71416286e-002 -5.08081960e-003
      -5.32767549e-002 -3.09920907e-002 1.49862748e-002 -1.44970194e-002
      3.36838253e-002 -9.28245112e-002 -9.87014771e-002 6.51779911e-003
      4.51963693e-002 -5.75850643e-002 -5.79399951e-002 1.53288804e-002
      5.85124120e-002 2.37526018e-002 -2.70370021e-002 -6.26865476e-002
      4.40189429e-002 5.24929650e-002 -5.33180796e-002 -5.44955656e-002
      -7.13041797e-002 6.36519790e-002 2.54470650e-002 -1.66890025e-002
      -3.02430596e-002 3.85701805e-002 7.12182671e-002 -4.01662737e-002
      -5.07972278e-002 -8.68902262e-003 -2.30059288e-002 5.20691387e-002
      3.61539237e-002 -1.05243344e-002 4.00686488e-002 7.81785622e-002
      -2.36594677e-002 -8.42710491e-003 4.94321482e-003 1.10960770e-002
      -1.78208854e-002 -4.07202616e-002 -4.24481705e-002 3.43064778e-002
      3.97941582e-002 -4.31900024e-002 -3.47440019e-002 -2.96572018e-002
      3.17148417e-002 7.31261168e-003 1.30752558e-002 4.94856946e-002
      3.36313881e-002 4.50351946e-002 -4.60731685e-002 -4.89440970e-002
      -3.53049487e-002 3.92429270e-002 8.54656566e-003 1.78572573e-002
      3.99643220e-002 4.32356782e-002 4.50289100e-002 -2.29876861e-002
      -2.85312198e-002 -1.88762899e-002 -1.88387278e-002
      -4.04950418e-002 -1.69020891e-002 3.11336983e-002 6.74573891e-003
      5.64799495e-002 -2.38751452e-002 -4.43663523e-002 -3.98830064e-002
      -3.33820172e-002 3.20994295e-002 2.53950246e-004 4.60323021e-002
      1.26299979e-002 2.44736858e-002 -5.70497066e-002 -6.19717613e-002
      -2.52191983e-002 2.11664345e-002 2.78586578e-002 -4.29508463e-002
      -1.03572784e-002 -1.27793141e-002 8.47318619e-002 -2.33287606e-002
      -8.68872404e-002 -4.35012244e-002 2.05549765e-002 -4.45956290e-002
      -3.06357071e-002 -1.22689186e-002 -7.10625714e-003 8.23685527e-002
      -9.28269885e-003 -3.16692330e-002 -2.46559735e-002
      -2.07821466e-002 -4.49857302e-003 -4.86766770e-002
      -4.66754362e-002 1.35288695e-002 1.09158702e-001 -9.63890739e-003
      -5.37183955e-002 -1.96963530e-002 -1.74390394e-002 1.04029318e-002
      -5.98305985e-002 -2.17330698e-002 -4.89605516e-002 2.71677449e-002
      -5.32525815e-002 -1.52192563e-001 -7.59987086e-002 4.84691421e-003
      -2.18524206e-002 -9.30233300e-002 4.59654536e-003 -1.73493903e-002
      2.97378656e-003 -7.87872002e-002 -1.31990209e-001 -2.50803344e-002
      1.45023223e-003 2.04610340e-002 -4.33761850e-002 2.07773270e-003
      -4.62997966e-002 1.24421949e-002 -2.59349439e-002 -5.89022934e-002
      -2.32510716e-002 6.75549591e-003 5.18901506e-003 1.68852936e-002
      6.16187714e-002 -8.94784555e-003 5.47282696e-002 6.84566982e-003
      1.97595414e-002 5.49525581e-002 4.00233828e-002 -7.45824724e-002
      -1.25349805e-001 -3.55520705e-003 1.06514376e-002 -4.44663428e-002
      -6.74261749e-002 -7.06656203e-002 -2.89653544e-003
      -2.56141331e-002 2.43929904e-002 -4.16100025e-002 4.15538140e-002
      1.92807277e-003 -1.32475063e-001 -4.40354757e-002 1.68326963e-002
      3.14771272e-002 5.43208085e-002 -3.51403803e-002 -1.96113507e-003
      2.78692450e-002 -5.00341021e-002 -6.64499402e-002 -3.87158878e-002
      3.58393975e-002 5.25981896e-002 1.58866830e-002 6.35875156e-003
      1.19291199e-002 7.63467550e-002 -9.57991183e-003 -9.92061421e-002
      -6.77824719e-003 1.08339220e-001 9.88113135e-002 5.21509461e-002
      -1.70814209e-002 9.21561103e-003 -4.54669259e-002 -1.23768933e-002
      -2.41570044e-002 -5.91235720e-002 -2.09314208e-002 1.50061483e-002
      -4.89181243e-002 -6.14650324e-002 9.21361428e-003 7.19492044e-003
      -2.62864423e-003 1.08630825e-002 8.65614600e-003 2.61091348e-002
      -2.75347047e-002 -8.85588452e-002 -3.29403840e-002
      -7.28773931e-003 -2.57504825e-002 -5.77817671e-002
      -2.07785163e-002 -1.95697527e-002 -3.79516892e-002 2.52494891e-003
      -3.40665840e-002 -7.27649480e-002 3.05598862e-002 -5.86409355e-003
      -4.06289659e-002 8.38461053e-003 2.36631650e-002 2.52480358e-002
      1.71565579e-003 -6.76864758e-002 -4.29746769e-002 3.89791057e-002
      -2.48433314e-002 -1.28924241e-002 2.53338702e-002 2.14649476e-002
      -2.56411210e-002 -6.66211471e-002 -8.48992392e-002 5.44803031e-002
      -1.55281750e-002 -1.54581228e-002 4.20888606e-003 3.88473868e-002
      1.88939944e-002 -2.52095461e-002 -3.45777869e-002 3.32597755e-002
      -4.87368032e-002 2.96747908e-002 -5.53365387e-002 -5.59250861e-002
      -3.79800797e-002 1.14903105e-002 -3.11548766e-002 -4.37064208e-002
      -4.90478761e-002 -1.71085112e-002 -3.80265787e-002
      -6.07587323e-002 -3.66747044e-002 1.67635072e-003 2.34049037e-002
      -2.35900823e-002 -8.25030282e-002 -3.07729729e-002 2.84750685e-002
      -3.61640155e-002 -3.88628021e-002 -4.38406728e-002 2.04992741e-002
      3.80436778e-002 1.36872930e-002 2.00510938e-002 4.20043953e-002
      -3.07721179e-002 -6.09027268e-003 -2.15082075e-002
      -8.05387720e-002 -4.50317822e-002 3.44142430e-002 -4.23356667e-002
      3.72454301e-002 -1.05309878e-002 -2.50106137e-002 1.53819583e-002
      -3.25560607e-002 -1.86512694e-002 2.41565611e-002 4.10589762e-002
      9.55165597e-004 -3.54547389e-002 -1.08234547e-002 -3.98888625e-002
      -1.55061728e-003 -6.17471300e-002 -3.19761746e-002
      -1.07575469e-002 6.19397266e-003 2.27741711e-002 9.54333134e-003
      3.33339442e-003 -1.29568437e-002 -4.67576012e-002 -4.06619385e-002
      -5.84351197e-002 -7.94534758e-002 4.22329037e-003 -6.96478337e-002
      -4.05702274e-003 -2.22812518e-002 -2.82862838e-002
      -6.41204882e-003 -6.29787520e-003 -4.45256270e-002
      -4.38214131e-002 3.57826939e-003 -4.32668403e-002 -7.58289965e-003
      -1.55612165e-002 -4.93114032e-002 -3.87248583e-002
      -1.51476143e-002 -2.81531103e-002 -4.84494753e-002
      -3.89390700e-002 -1.91468804e-003 4.40504588e-003 -1.40052568e-002
      -1.30749205e-002 -1.83280353e-002 1.18049383e-002 3.81228290e-002
      2.53603817e-003 -5.44323761e-004 -9.13951639e-003 1.15829213e-002
      -6.02923054e-003 -5.64699993e-002 -8.69652778e-002
      -8.83742869e-002 -6.74405247e-002 8.58163112e-004 -4.47498113e-002
      -6.34383336e-002 -1.75511986e-002 -5.87012395e-002
      -2.95096934e-002 -3.33207138e-002 -1.35134859e-002
      -5.19935787e-003 1.37543026e-002 -3.03987786e-002 -5.83395101e-002
      -3.63261551e-002 -6.74930140e-002 -1.74933095e-002
      -3.41520943e-002 -8.75574537e-003 5.62531641e-003 2.87139160e-003
      -5.93862236e-002 -7.35280812e-002 -1.86371487e-002
      -2.07055435e-002 -7.03776022e-003 4.89813834e-003 3.54101062e-002
      5.14912009e-002 -2.61695534e-002 -6.24526516e-002 -5.03757596e-002
      1.00220637e-002 5.01986453e-003 1.77336000e-002 2.06703767e-002
      -1.14401253e-002 2.29111314e-002 8.42387751e-002 2.31213197e-002
      -3.54703441e-002 -1.20578855e-002 -3.26250866e-002 2.59765983e-002
      2.89707240e-002 -5.49120605e-002 1.83326972e-003 4.23356071e-002
      1.44616906e-002 1.13184573e-002 -5.39967418e-002 1.26433354e-002
      1.80967040e-002 -1.00170197e-002 -8.05786625e-002 4.59518237e-003
      8.44635256e-003 -2.88484804e-002 -2.58873366e-002 1.57301873e-002
      1.83876529e-002 3.19552608e-003 -2.01168619e-002 -3.20082083e-002
      -2.07362138e-002 5.21744899e-002 2.13238653e-002 8.79742298e-003
      -2.70653926e-002 2.85574067e-002 1.80267394e-002 3.27328034e-002
      -2.51518073e-003 4.34370749e-002 6.93289414e-002 2.87932646e-003
      -9.41439904e-003 -2.07675342e-002 -3.12894806e-002
      -8.53444729e-003 2.25666519e-002 4.57021259e-002 2.53959056e-002
      7.33050704e-002 -8.34544469e-003 -5.53460754e-002 -4.19790410e-002
      -2.13860180e-002 8.54237657e-003 1.59168635e-002 2.63980329e-002
      3.18561234e-002 9.46418941e-002 3.22181582e-002 -3.42087857e-002
      -3.08727492e-002 5.06749302e-002 -3.31511945e-002 2.27668206e-003
      2.97595784e-002 1.98328979e-002 8.48834515e-002 -4.91006533e-004
      -4.48089577e-002 -3.68322129e-003 -2.26574466e-002
      -4.73046191e-002 -4.38859314e-002 2.93136444e-002 1.56399626e-002
      6.14266098e-002 1.09463395e-003 -6.23947158e-002 -3.35297436e-002
      -2.05373764e-002 1.48615409e-002 9.18959919e-003 2.88894605e-002
      1.69203132e-002 4.81291525e-002 2.19844803e-002 -2.55523957e-002
      -4.25778180e-002 -3.00527364e-003 -4.34323326e-002
      -1.33015094e-002 2.21125726e-002 -2.34168973e-002 3.35141383e-002
      2.16558692e-003 -5.19681834e-002 -5.37979268e-002 -6.91435635e-002
      -2.25891471e-002 3.66882794e-002 1.82835441e-002 -1.82187930e-002
      -1.77955173e-003 1.57342106e-002 -2.45609805e-002 -4.33398746e-002
      -3.38619277e-002 -5.24619967e-003 -2.17045601e-002
      -3.78331356e-002 -7.23335072e-002 -3.25983181e-003 3.12259924e-002
      -6.89499266e-003 -4.33360711e-002 8.88492726e-003 -5.16710132e-002
      -1.43493954e-002 -3.08382344e-002 -2.07506567e-002 4.72698137e-002
      1.41506176e-002 3.14611942e-002 1.39666619e-002 8.35200399e-003
      -2.40039267e-002 2.23319009e-002 -5.19894063e-002 -5.80880903e-002
      -5.81725687e-002 4.46551992e-003 -1.95797179e-002 -4.55123223e-002
      -3.69914505e-003 1.39734838e-002 -9.16064531e-003 -5.57474084e-002
      2.74270610e-003 3.44879404e-002 -3.73736098e-002 -7.91901839e-005
      -1.51248723e-002 -3.53150559e-003 -4.71386164e-002
      -1.35862287e-002 9.45123087e-004 -3.99156921e-002 -7.46698380e-002
      -2.40695421e-002 3.36962119e-002 2.00840533e-002 2.97180796e-003
      3.55455317e-002 4.62940000e-002 8.14931467e-002 -7.59579465e-002
      -1.39791682e-001 -2.40645241e-002 1.11829773e-001 9.78553295e-002
      7.24249482e-002 4.97511076e-003 4.31725010e-003 1.74392406e-002
      -6.26149625e-002 -8.71890932e-002 -1.88762341e-002 2.42835935e-002
      2.52506472e-002 9.52042267e-003 7.86628053e-002 1.03941590e-001
      9.41090211e-002 -4.40231897e-002 -1.05475962e-001 -2.33160350e-002
      7.82412291e-002 1.12239659e-001 8.69519934e-002 -4.81330603e-002
      2.91689076e-002 3.64774279e-002 3.86282988e-002 -2.57632528e-002
      -9.41981003e-002 -1.05159640e-001 -6.98718205e-002
      -6.66576996e-002 -5.61956987e-002 -5.01895100e-002 9.94041096e-003
      2.24260632e-002 1.71504896e-002 1.76771730e-002 2.25267839e-002
      7.93557614e-003 -1.01340316e-001 2.38218606e-002 9.07771662e-002
      9.16292444e-002 8.35276544e-002 2.31922381e-002 -3.66850682e-002
      1.33446371e-002 1.75530538e-002 -2.59226803e-002 -3.63678038e-002
      1.02361208e-002 4.72710207e-002 5.49414866e-002 5.69308586e-002
      2.33942773e-002 3.56945507e-002 -1.91585124e-002 -9.66929048e-002
      -5.78368306e-002 -6.45189732e-002 -6.30124658e-002
      -3.68503779e-002 -9.36419424e-003 4.14740965e-002 2.48052925e-002
      5.69207966e-002 -2.31680349e-002 6.05139462e-003 -3.10191177e-002
      -3.90923694e-002 -4.60368535e-003 2.48879921e-002 3.45382579e-002
      -3.78516018e-002 -5.72143756e-002 1.73679180e-002 3.53877596e-003
      -8.31787810e-002 -5.47208153e-002 3.70239210e-003 5.48496246e-002
      3.48031260e-002 2.38716626e-003 3.07089388e-002 1.16138849e-002
      2.45092474e-002 -1.09065212e-001 -9.14670080e-002 7.94675574e-003
      5.06612435e-002 8.05570260e-002 7.54677504e-003 2.90906839e-002
      5.32521121e-002 8.90653301e-003 1.38975736e-002 1.33771431e-002
      -2.53412649e-002 1.08828377e-002 -1.71179976e-002 -9.76359844e-002
      -1.13443784e-001 -2.49281861e-002 1.25363935e-002 2.37889565e-003
      -6.64020283e-003 -3.29319434e-003 2.15795897e-002 -4.17589396e-002
      -6.28831908e-002 -2.37125754e-002 1.46671347e-002 -1.63643826e-002
      -3.22939157e-002 -3.30195650e-002 -1.68800503e-002 2.43745800e-002
      3.34574888e-003 -7.86153525e-002 -2.24785227e-002 6.05537416e-003
      -1.60543621e-002 -5.76338149e-004 1.39359171e-002 -5.15077543e-003
      2.67979819e-002 -3.74774188e-002 -3.76002416e-002 -4.82080970e-003
      -2.19060318e-003 -2.79793218e-002 -1.21696945e-002
      -1.38539057e-002 -2.91233268e-002 -1.21157058e-002
      -2.06938805e-003 -1.19280983e-002 1.21058328e-002 -1.09909754e-002
      1.89715195e-002 -6.94906991e-003 2.24567149e-002 2.04756716e-003
      1.59415547e-002 -4.38919105e-003 -2.29818374e-002 1.33589664e-002
      9.91925132e-003 -3.62286195e-002 -4.10650373e-002 -1.64856371e-002
      -2.09313910e-002 -1.53740821e-002 -3.37112844e-002
      -3.95237617e-002 1.28926598e-002 -3.87022905e-002 -5.09937480e-002
      -1.95253454e-002 1.60449259e-002 -1.43750571e-002 -6.80164259e-004
      -1.28054256e-002 -2.25776844e-002 -7.18842912e-003
      -2.54273023e-002 1.06204031e-002 2.08528293e-003 -1.54571179e-002
      -3.90811749e-002 1.31894334e-003 -6.76681623e-002 -4.63256538e-002
      1.12932362e-002 2.87656710e-002 2.81014238e-002 3.38955857e-002
      -8.42236541e-003 1.10188061e-002 -3.43468897e-002 -5.34378216e-002
      -5.87189794e-002 2.44015511e-002 3.25280391e-002 -1.20126279e-002
      2.81876186e-003 -4.16279547e-002 -8.22166130e-002 -6.33422285e-003
      -4.28710915e-002 -6.28888458e-002 -6.96586743e-002
      -1.66486315e-002 4.46617417e-002 3.14149959e-003 -6.55795112e-002
      -7.66994059e-002 -1.98737979e-002 -3.64071317e-002
      -5.03363125e-002 -4.08237949e-002 5.24756648e-002 3.86221670e-002
      4.25647922e-005 -9.98752564e-002 2.29894929e-002 -3.39613371e-002
      -3.90831195e-002 -3.22146639e-002 1.97282527e-002 4.24970537e-002
      1.09083718e-002 -2.17942465e-002 -4.15013582e-002 -1.04041360e-002
      3.41611654e-002 2.98915561e-002 -5.14059886e-002 -2.23066490e-002
      -2.30500544e-003 5.14879450e-002 4.70617823e-002 -1.15028873e-001
      -8.20622742e-002 -1.22982981e-002 -7.91484781e-004
      -2.97842566e-002 -6.20884355e-003 4.16589752e-002 2.78737564e-002
      6.88576773e-002 -1.42611638e-002 -5.75004099e-003 2.23690793e-002
      5.18147573e-002 -2.88394671e-002 -1.47989672e-002 -1.74194872e-002
      -1.30992625e-002 -1.69246048e-002 -9.07928590e-003 4.99593206e-002
      1.14184469e-001 5.73911443e-002 -4.14959714e-002 -4.86545637e-002
      -5.50713800e-002 -4.76885848e-002 -3.76519896e-002 4.43162536e-003
      5.26526906e-002 1.27865285e-001 7.30058700e-002 9.49675683e-003
      -4.14268486e-002 -4.85869236e-002 2.30603628e-002 8.39447696e-003
      -2.99001690e-002 -1.34110423e-002 9.22821015e-002 9.75227654e-002
      -5.75321633e-003 -4.60831355e-003 -4.23073247e-002
      -2.86098886e-002 -4.64366339e-002 -2.25502606e-002
      -1.03570083e-002 9.71253514e-002 1.22320034e-001 1.20777907e-002
      -2.92050857e-002 -2.88876705e-002 -9.53043997e-002
      -8.18762109e-002 -7.52048707e-003 6.91316847e-004 6.51691258e-002
      5.73578961e-002 1.57504268e-002 -3.15549225e-002 -6.89263567e-002
      -9.38606262e-002 -2.42736787e-002 -2.19086315e-002 2.18148530e-002
      5.76823466e-002 3.65482792e-002 6.84700022e-003 -4.40533496e-002
      -4.51527759e-002 -6.88970014e-002 -9.20500308e-002
      -2.51088887e-002 -8.29710974e-004 5.11569194e-002 4.86218333e-002
      -3.03183030e-002 -6.51629595e-003 -3.11974790e-002
      -4.91520390e-002 -5.70318773e-002 -1.56712800e-003 6.30926862e-002
      6.24255165e-002 4.42937538e-002 1.82680339e-002 1.65429842e-002
      -5.86590962e-003 -1.56387687e-002 1.34634115e-002 -8.90360102e-002
      -2.76179370e-002 -6.99158772e-005 -2.60212533e-002
      -3.96482423e-002 -5.46762347e-002 1.20519567e-002 2.03143451e-002
      -1.44054806e-002 -6.24479204e-002 -3.88970338e-002 2.62115914e-002
      1.83714032e-002 2.23472919e-002 4.92140464e-003 7.22810403e-002
      -5.40166609e-002 -5.24087157e-003 -3.36702578e-002
      -2.90392786e-002 -3.04273665e-002 -4.94935624e-002
      -2.39842236e-002 -3.52669209e-002 1.67057700e-002 3.58974859e-002
      4.04611751e-002 -2.60091294e-002 -2.13580150e-002 1.04107838e-002
      -4.70963083e-002 6.22011814e-003 9.59859602e-003 2.15166714e-002
      2.19928827e-002 1.23675838e-002 8.79324414e-003 -8.97133127e-002
      -9.64254662e-002 2.57851668e-002 5.30803278e-002 4.73334715e-002
      3.80560160e-002 6.65095001e-002 8.46394822e-002 8.74423236e-002
      -4.27444465e-002 -1.11158781e-001 -3.84251289e-002 4.55827266e-002
      9.67075899e-002 7.03617409e-002 9.54002421e-003 7.77818123e-003
      1.01718409e-002 -4.72750738e-002 -7.16974214e-002 2.70317483e-004
      1.05233761e-002 -2.46967915e-002 -4.19650003e-002 5.87332845e-002
      6.77694306e-002 8.02419111e-002 -4.85501997e-002 -1.13106944e-001
      -2.71608308e-002 2.31147557e-002 -5.52677363e-003 1.72219817e-002
      -3.46729532e-002 7.98087195e-002 6.41300157e-002 5.62503524e-002
      1.02744624e-003 -1.76265948e-002 4.51946333e-002 3.66959795e-002
      -1.05355131e-002 -5.44144958e-002 -4.39067967e-002
      -2.14402322e-002 4.53849658e-002 -6.52980655e-002 -2.59327497e-002
      1.88691623e-003 8.48767348e-003 -5.63383289e-002 8.24211985e-002
      1.14017949e-001 1.16485089e-001 8.52638185e-002 1.54305715e-002
      2.43148878e-002 1.33028433e-001 8.62766802e-002 7.16842040e-002
      -3.01632751e-002 -3.27420272e-002 3.00923036e-003 4.39577959e-002
      -7.55659714e-002 2.68089306e-002 1.97312795e-002 7.70505741e-002
      7.11939717e-003 4.58519980e-002 -3.24557498e-002 -1.25755975e-002
      -1.84068438e-002 2.78775580e-003 2.13855109e-003 -4.42154519e-002
      2.20109727e-002 3.79307307e-002 1.50685040e-002 -9.08636302e-002
      -3.67892869e-002 -6.91813678e-002 1.79758500e-002 -1.91448182e-002
      -8.55058581e-002 -4.91001345e-002 -8.78450274e-003 8.65288302e-002
      8.97760689e-003 5.70157543e-002 -1.02132978e-002 2.54769661e-002
      9.59082544e-002 1.44723551e-002 4.85169217e-002 1.02066383e-001
      3.18552144e-002 -2.18353439e-002 -1.83752719e-002 -7.33334497e-002
      5.38613535e-002 3.88003811e-002 -5.25967963e-003 -3.14210355e-002
      -1.68790594e-002 9.69592202e-003 -4.46662232e-002 -2.66442983e-003
      -2.39246972e-002 2.44418215e-002 9.89424903e-003 -4.50285450e-002
      -3.97504680e-002 -5.42383119e-002 -3.21469493e-002
      -3.14259455e-002 -5.58794010e-003 -3.73545624e-002
      -2.84438748e-002 -6.86143264e-002 -5.44831119e-002
      -1.72264539e-002 -4.60537523e-002 1.86221004e-002 2.13913675e-002
      2.36176029e-002 -3.36424224e-002 1.00811319e-002 -6.50208909e-003
      -2.87825917e-003 -7.49261975e-002 -5.82833178e-002 7.76850758e-003
      2.31832340e-002 2.60228366e-002 -5.39303990e-003 5.44951647e-004
      -7.16520399e-002 -4.75955568e-002 -5.27880229e-002 6.27438677e-003
      -2.07858123e-002 -3.54545228e-002 -2.57460773e-002
      -4.22684178e-002 -3.93144302e-002 -6.23428375e-002
      -1.76624376e-002 5.23158014e-002 -2.30980869e-002 -3.16397771e-002
      -5.84782250e-002 -2.91729067e-002 -3.62255648e-002
      -1.87026162e-003 2.75253900e-003 -3.28813866e-002 1.78673510e-002
      -2.88944542e-002 -2.11340785e-002 -3.13164759e-003 4.07077977e-003
      -7.15768058e-003 -1.60006713e-002 -4.90193367e-002
      -6.15587197e-002 1.12726260e-002 -1.69646658e-003 -7.13597834e-002
      -7.76675418e-002 -4.22771499e-002 -3.75342630e-002 8.20916146e-003
      3.04023717e-002 -8.68458766e-003 2.80133430e-002 -6.32886142e-002
      -2.91044656e-002 -4.76957262e-002 -2.58527789e-002
      -6.31980374e-002 1.13160135e-002 -3.56931402e-003 -7.74328113e-002
      -4.31779139e-002 -2.71719173e-002 5.37712201e-002 3.15265730e-002
      -4.53969687e-002 -2.93547977e-002 2.19495129e-002 -3.44437198e-003
      -8.37339908e-002 -7.14716688e-002 3.40301208e-002 -1.00782208e-001
      -9.04243365e-002 -4.16819230e-002 -4.90813479e-002
      -1.34388525e-002 -5.32902870e-003 -4.83788997e-002
      -4.49805856e-002 -1.16004020e-001 -6.27723783e-002
      -3.80959213e-002 -3.16376537e-002 -1.58259291e-002
      -1.58977625e-003 -2.97093429e-002 -7.00785816e-002
      -8.27925950e-002 -3.99694853e-002 3.60002667e-002 5.23856245e-002
      -9.92221907e-002 -4.49586213e-002 3.68405357e-002 1.99125037e-002
      -1.89051889e-002 -6.48228750e-002 1.33959679e-002 2.00241078e-002
      4.47190367e-002 -1.57555640e-002 -2.09775362e-002 2.80792285e-002
      2.85373908e-002 -3.20807323e-002 -5.30496500e-002 -3.45824175e-002
      -1.02802729e-002 -1.34128984e-002 -6.21748157e-002
      -9.89348814e-003 3.29669416e-002 -6.76918589e-003 -6.46935627e-002
      -7.76865780e-002 5.65004349e-003 6.90228269e-002 1.31927188e-002
      -3.07233725e-002 -2.08525397e-002 5.36857508e-002 3.86518352e-002
      1.05206957e-002 -1.64876040e-002 2.87126526e-002 1.34138688e-002
      1.75992735e-002 -1.80193987e-002 -5.01670986e-002 1.73934326e-002
      6.59697726e-002 -1.78675703e-003 -4.21411470e-002 -3.30378003e-002
      -1.11952396e-002 9.86434612e-003 1.25099043e-003 -2.14387421e-002
      6.83665127e-002 5.80718406e-002 -2.12089606e-002 -1.31389061e-002
      -3.11456658e-002 8.10484365e-002 5.28518967e-002 -1.77658331e-002
      -5.80647551e-002 1.32062298e-003 3.89125496e-002 3.23910415e-002
      1.02100903e-002 1.79369058e-002 -4.12881514e-003 2.06829477e-002
      -3.15315239e-002 -1.20293470e-002 3.03547475e-002 -8.90029501e-003
      2.51107123e-002 1.13852639e-002 -3.20495106e-002 -2.40794197e-002
      -2.17650719e-002 -2.69420780e-002 -9.46531445e-003 4.76750992e-002
      -2.55933367e-002 -6.75371587e-002 -2.46020462e-002
      -4.49189031e-003 -3.59502668e-003 -3.55527885e-002 2.89680213e-002
      8.60796869e-003 4.04284149e-002 3.28857526e-002 3.32652964e-002
      2.40374003e-002 1.33918785e-002 -2.49066614e-002 -2.51801908e-002
      -5.56855351e-002 -3.76066454e-002 4.11387645e-002 -8.64505619e-002
      -5.97425923e-002 -1.47882914e-002 -4.03652191e-002
      -1.32276081e-002 -1.80809181e-002 6.71132095e-003 -1.61545649e-002
      4.47219573e-002 -1.58657581e-002 1.78762525e-002 5.18658683e-002
      2.83104423e-002 -2.85869818e-002 -2.98196524e-002 -3.04404907e-002
      -2.36829780e-002 -7.12567419e-002 -3.54810916e-002
      -1.22863927e-003 -1.48099866e-002 -4.33800323e-003
      -6.83962693e-003 5.14705712e-003 -1.26158893e-002 -4.17640470e-002
      -2.30895933e-002 -3.41608375e-002 1.39274709e-002 1.52030895e-002
      -2.29488965e-002 -2.23481655e-002 -3.08554284e-002
      -4.36144397e-002 -3.21316272e-002 -7.00605735e-002
      -3.40389125e-002 -2.89595891e-002 5.10953832e-003 1.66127384e-002
      -1.42553803e-002 -3.18797641e-002 -5.45319095e-002
      -5.93013391e-002 1.03800818e-002 -2.02133544e-002 -6.24672063e-002
      -3.17216702e-002 -5.62725170e-003 4.13459726e-003 -1.87684521e-002
      -1.30407568e-002 -4.91739661e-002 -8.62161443e-002 1.44365209e-003
      -6.62028976e-003 -4.77973446e-002 -5.50351553e-002 6.66974932e-002
      5.94846755e-002 5.67919053e-002 -5.84304072e-002 -9.42050740e-002
      1.16567444e-002 3.23204696e-002 7.73361977e-003 6.55654632e-003
      -3.32991173e-003 -1.82119403e-002 -4.89748009e-002
      -8.52981433e-002 -9.30164605e-002 3.33683826e-002 -2.92197596e-002
      -6.87609166e-002 -8.78762268e-003 7.58278593e-002 6.11809753e-002
      3.69571298e-002 -6.46420643e-002 -4.85717058e-002 7.08780438e-002
      6.62939698e-002 7.41585046e-002 9.09904540e-002 -1.00263255e-002
      7.02094883e-002 6.91127479e-002 1.08103290e-001 2.98215766e-002
      2.05987934e-002 8.72406289e-002 1.82889141e-002 -3.82742770e-002
      -6.81851357e-002 -6.48073182e-002 -4.61012535e-002 1.58668011e-002
      -1.21412817e-002 1.60257947e-002 5.50494045e-002 5.45806549e-002
      -5.07360362e-002 5.79088330e-002 1.21496461e-001 1.11083329e-001
      1.20776109e-001 6.24417886e-002 -1.00260563e-002 8.96047503e-002
      8.33865777e-002 4.41027731e-002 5.49670891e-004 4.11855653e-002
      -4.10051979e-002 1.73156790e-003 -4.99860719e-002 -1.13229407e-002
      4.54726294e-002 1.05934842e-002 -1.88192986e-002 9.39013530e-003
      -6.18984215e-002 1.19599467e-002 -2.75815483e-002 2.55562570e-002
      1.11881465e-001 3.00908498e-002 -2.97356509e-002 2.49196645e-002
      -9.22164321e-003 -2.95109563e-002 1.12094795e-002 -9.80011094e-003
      3.33901085e-002 7.84041882e-002 -4.33978811e-002 -4.27538827e-002
      -7.42549747e-002 6.94873109e-002 5.19219004e-002 1.44504374e-002
      2.71953270e-003 6.03999337e-003 3.81287672e-002 4.33592275e-002
      2.07388289e-002 4.95834574e-002 -1.65466182e-002 -2.66262367e-002
      -7.42687192e-003 1.30114174e-002 5.93778864e-003 7.04096481e-002
      1.75433680e-002 -4.54299245e-003 -6.75612763e-002 3.62361744e-002
      9.26254503e-003 1.32056151e-003 -7.35601410e-003 9.83063783e-003
      3.13049257e-002 4.19440083e-002 -3.54445353e-002 -3.03365961e-002
      1.72272138e-002 9.41665657e-003 -9.77591239e-003 2.48005288e-003
      -1.91046000e-002 -7.28169680e-002 -3.00232209e-002
      -7.44837448e-002 -4.70083300e-003 1.30753787e-002 -3.53782182e-003
      -1.17852185e-002 -4.90559079e-002 -2.95829456e-002 1.16498899e-002
      2.93760262e-002 1.21086612e-002 -3.19540091e-002 3.13470252e-002
      9.79023334e-003 -1.78572442e-002 -3.99927758e-002 -4.81696017e-002
      -5.85770942e-002 -2.48700995e-002 -4.74117845e-002
      -5.51514737e-002 -3.58089022e-002 -3.20112742e-002
      -1.64411776e-002 -5.51595259e-003 -3.05756386e-002
      -7.07235038e-002 -3.74656171e-002 -1.70648824e-002
      -2.26553567e-002 -6.45961985e-002 -4.29784656e-002
      -2.40057968e-002 -9.19048209e-003 -4.15464900e-002
      -1.39519516e-002 4.47060494e-003 2.07316186e-002 -7.96461031e-002
      7.91799556e-003 -4.32795525e-004 3.96448513e-003 -3.26797627e-002
      -2.21734568e-002 -5.82308769e-002 -1.72533793e-003
      -6.09199423e-003 1.02537414e-002 -7.05857500e-002 -4.98383753e-002
      -1.68678735e-003 -8.09195191e-002 -6.84096068e-002
      -2.41736099e-002 3.00495308e-002 9.66289453e-003 2.63506547e-003
      -9.74560827e-002 -3.40045765e-002 -1.08119827e-002
      -3.65940854e-002 -3.81685272e-002 2.54253671e-003 -3.43658146e-004
      -4.58486797e-003 -1.04568258e-001 -4.42652553e-002
      -1.58886928e-002 1.92338647e-003 -1.91794410e-002 -5.77890463e-002
      -4.15551988e-003 -2.31462121e-002 -1.29775312e-002
      -4.09687907e-002 -8.05599019e-002 -4.69606258e-002
      -4.28925008e-002 -8.56539533e-002 -6.41651377e-002 1.30068511e-002
      3.65194827e-002 -5.22572454e-003 -6.03000000e-002 1.32215628e-003
      2.37515336e-003 -6.41582310e-002 -7.79477432e-002 -7.77125061e-002
      2.52856663e-003 4.32533473e-002 1.13997739e-002 1.31394938e-002
      -1.15124751e-002 -3.99327651e-002 -4.73743491e-002
      -6.30903617e-003 4.48176749e-002 -5.43337408e-003 -3.82779092e-002
      -5.51830456e-002 2.07019746e-002 2.93507073e-002 -3.01096309e-002
      -5.76597564e-002 -9.37439874e-003 1.23388037e-001 6.58634007e-002
      -3.87781160e-003 -2.02296954e-003 7.71393627e-002 5.01112677e-002
      -2.57444289e-002 -5.16761281e-002 -4.20420803e-002
      -1.78108774e-002 -1.18553275e-002 4.27910546e-003 -9.05628875e-003
      6.77935481e-002 6.11860082e-002 -5.86815551e-002 -3.02890595e-002
      2.92144390e-003 8.13285634e-002 3.77098918e-002 -2.30291020e-002
      -2.43570544e-002 1.06640264e-001 4.74606678e-002 -1.15145389e-002
      -3.53188813e-002 -2.14805212e-002 8.10625926e-002 5.61073944e-002
      7.99979456e-003 8.23942758e-003 5.13344407e-002 1.84533373e-002
      1.52435955e-002 -7.80675933e-002 -5.17541431e-002 5.06586395e-002
      -2.04515029e-002 -2.72893421e-002 -3.52336392e-002
      -2.47067362e-002 5.68455532e-002 -2.76010372e-002 -7.26933684e-003
      -2.07845960e-002 9.20107290e-002 5.16059399e-002 -8.91572610e-003
      -4.10859771e-002 8.33333358e-002 8.26750770e-002 -4.95945057e-003
      -4.68399972e-002 -2.63289586e-002 6.57621399e-002 1.23949945e-002
      -1.99974943e-002 -4.20364924e-002 3.83925475e-002 1.26843294e-003
      2.03623157e-002 -7.42914975e-002 -1.77578926e-002 2.20528468e-002
      -3.46947871e-002 -5.60777746e-002 -4.30674441e-002
      -6.58892021e-002 -1.47628682e-002 -2.39544399e-002
      -3.23445201e-002 -1.68730377e-003 4.65232842e-002 9.48327594e-003
      1.45516172e-003 -1.42964665e-002 -1.31041147e-002 6.05042577e-002
      -1.40257096e-002 -4.05303910e-002 -3.91834900e-002
      -1.07982196e-002 -4.31950763e-003 -7.67207295e-002
      -6.11935034e-002 -3.28987539e-002 2.43167952e-002 -1.39275228e-003
      -5.30720316e-003 -7.37611903e-003 3.96508761e-002 9.55789583e-004
      -1.34247569e-002 -1.00340955e-002 9.22940951e-003 -4.36954293e-003
      -3.88604328e-002 -2.37272810e-002 -2.68011577e-002
      -2.72107832e-002 4.40733600e-003 -8.59637000e-003 -7.73456180e-003
      1.48361968e-002 -1.14460178e-002 -6.54590726e-002 -2.86577940e-002
      1.97191257e-002 2.70267166e-002 1.82768051e-002 -5.96017279e-002
      -6.72331303e-002 -2.96856705e-002 -1.93806812e-002
      -4.56615211e-003 -1.80627350e-002 -4.83842269e-002
      -5.05989324e-003 1.86404325e-002 -8.66133347e-002 -6.36322498e-002
      -1.10272868e-002 -1.48170942e-003 -1.21711567e-002 3.69693115e-002
      4.91454490e-002 4.88618799e-002 2.39598490e-002 -7.78964981e-002
      -4.43011746e-002 -2.29979996e-002 -3.05670816e-002
      -4.67607304e-002 -5.44897802e-002 4.78061987e-003 -3.21567990e-002
      3.56159620e-002 -1.07328288e-001 -1.32715493e-001 -6.80306032e-002
      5.19836396e-002 3.20300013e-002 5.04512154e-003 -3.14843319e-002
      -6.16337992e-002 1.12172365e-002 -6.55092532e-003 -2.42571179e-002
      3.17584909e-002 -1.53813455e-002 -3.77134457e-002 -8.69199168e-003
      1.80159118e-002 -6.02542562e-003 3.34886163e-002 -9.43535864e-002
      -7.57992864e-002 -3.89811546e-002 9.60219800e-002 2.04763319e-002
      3.54998522e-002 -5.14542982e-002 -3.48190852e-002 3.13307308e-002
      1.03163542e-002 5.96804218e-003 6.46684244e-002 4.39819805e-002
      9.74355489e-002 4.65043895e-002 1.03126526e-001 -9.36108828e-003
      4.46819188e-003 6.65356740e-002 9.11602974e-002 1.14395295e-003
      -4.22023237e-002 5.65482192e-002 -1.93200465e-002 1.58477109e-002
      1.51032824e-002 -1.55129880e-002 2.37954389e-002 9.63241421e-003
      -5.28660454e-002 4.59355973e-002 5.80973625e-002 5.23535013e-002
      1.28539965e-001 1.39305349e-002 1.09456843e-002 6.03766851e-002
      6.03053756e-002 3.39633413e-002 -1.07572004e-002 1.77924111e-002
      -4.35231291e-002 -1.00092031e-002 5.03097028e-002 -3.58954519e-002
      -1.43998943e-003 1.13627696e-002 -5.10133989e-003 5.82491904e-002
      5.87381236e-002 -1.57301351e-002 -2.37646047e-002 4.11591604e-002
      5.78971170e-002 4.51799296e-002 2.57326178e-002 6.85534701e-002
      -6.44353703e-002 2.39973590e-002 -1.51409311e-002 -2.40409486e-002
      -1.33777549e-002 4.72342819e-002 -1.94639321e-002 -5.23649529e-002
      -7.56246969e-002 6.17611557e-002 3.63762751e-002 -2.14843862e-002
      -3.03402264e-002 8.73615686e-003 1.83194317e-002 5.00771627e-002
      3.25639695e-002 3.46294418e-002 -2.62039378e-002 -2.80043837e-002
      -6.35427013e-002 -2.50458177e-002 -3.92263196e-002 5.78728467e-002
      4.80340123e-002 1.82468258e-002 -6.08823635e-003 1.34851667e-003
      2.33290736e-002 2.09420230e-002 -1.92237440e-002 -5.30796265e-003
      7.22912233e-003 2.33296398e-002 2.49285717e-004 9.82629135e-003
      -2.97678001e-002 -3.67424102e-003 -7.87445996e-003
      -5.16860262e-002 -7.30699254e-003 -6.84872866e-002 8.88853974e-004
      -3.17565259e-003 -1.07235350e-002 2.40189210e-003 -6.63785264e-003
      3.53068262e-002 1.87694505e-002 -3.68679725e-002 9.10442416e-003
      2.08227597e-002 2.43098140e-002 1.14491377e-002 -4.28741835e-002
      -1.80746708e-002 1.26841720e-002 -7.08269849e-002 -3.63841951e-002
      -5.29518388e-002 -3.31951939e-002 -3.83723900e-002
      -5.06575219e-002 -5.07177971e-003 -9.73706972e-003 9.06022964e-004
      -7.56628737e-002 -5.31935617e-002 -4.86218296e-002 9.86966398e-003
      -1.43390279e-002 1.12042436e-002 -1.03170313e-002 -1.87356528e-002
      2.28657457e-003 -6.16793036e-002 -4.91964296e-002 1.34513061e-002
      2.78544873e-002 -1.61856704e-003 2.16516964e-002 1.55244404e-002
      -6.59894384e-003 -3.06817051e-002 -1.15125634e-001
      -9.48487818e-002 -3.69665511e-002 -1.33437465e-003
      -1.49569185e-002 3.34231444e-002 1.03787491e-002 2.29484458e-002
      -1.41564049e-002 -1.12474546e-001 -5.83964363e-002 2.34903861e-002
      4.18788142e-004 -1.92730594e-002 1.23748798e-002 -2.80033480e-002
      -4.26422209e-002 -5.86318821e-002 -5.90855293e-002
      -7.63037130e-002 4.41650581e-003 5.12040146e-002 -3.78360786e-003
      -5.55802062e-002 9.30467993e-003 -6.82774140e-003 -5.72539829e-002
      -5.89654371e-002 -4.97117527e-002 -4.83034849e-002 5.28280325e-002
      3.31543270e-003 1.40595557e-002 -4.11386192e-002 -3.42129427e-003
      1.37275336e-002 -5.38155101e-002 -6.59702346e-002 -5.07348999e-002
      -1.96166150e-002 -1.75742824e-002 -5.94967045e-002
      -1.18357129e-002 -2.48540938e-002 -2.08276566e-002
      -7.74464523e-003 -5.13355285e-002 -1.00810938e-001
      -4.26839618e-003 -1.82491317e-002 -2.34249849e-002
      -3.52555304e-003 -3.11658792e-002 -4.73976433e-002
      -9.30748731e-002 -3.60655002e-002 -8.00139755e-002
      -3.75027135e-002 -1.63458791e-002 4.71954830e-002 3.05150375e-002
      -3.17386054e-002 1.04793403e-002 -3.94299738e-002 -7.32443482e-003
      -5.28076142e-002 -4.59056757e-002 -4.54765335e-002 8.12255442e-002
      -2.13455292e-003 -4.19497602e-002 -1.47318309e-002
      -8.53311047e-002 -4.68652882e-002 -5.88345341e-002 2.01107804e-002
      3.04054897e-002 3.41557711e-002 7.66915753e-002 2.02046055e-002
      8.86828229e-002 -7.30065629e-002 -7.61527941e-002 6.88009523e-003
      5.82731701e-002 4.42175083e-002 1.13203824e-001 -1.53018080e-003
      -6.86378628e-002 -1.37805780e-002 -9.15441960e-002
      -3.41812102e-003 -3.29390145e-003 -5.33112437e-002
      -7.13848174e-002 5.58889098e-002 5.93133457e-002 -3.90106961e-002
      -3.89722474e-002 -2.90189814e-002 5.44278435e-002 2.76205409e-002
      -5.09409718e-002 -4.90094833e-002 8.21979623e-003 6.64199442e-002
      5.19999303e-002 1.10351957e-001 -6.64943829e-002 -8.44676644e-002
      -8.43955725e-002 -3.16100456e-002 -4.43930067e-002 8.09972435e-002
      7.83062428e-002 9.61171985e-002 6.72332644e-002 1.08469808e-002
      -4.68559610e-003 7.40902964e-003 -6.61200881e-002 -4.27588150e-002
      3.79420759e-004 4.95979935e-002 -9.94873233e-003 -4.32784781e-002
      -1.33612184e-002 1.32233296e-002 -6.58882363e-003 -6.70194104e-002
      -1.27674341e-001 -6.65573925e-002 8.41942802e-003 1.78147610e-002
      1.78665202e-002 -7.72988237e-003 4.69691446e-003 -1.20728649e-002
      -4.76975217e-002 -8.47341791e-002 -1.97922997e-002 3.02739684e-002
      5.14223129e-002 2.85001248e-002 1.96293984e-002 5.70181804e-003
      -1.29901348e-002 -9.26630273e-002 -1.27114952e-001
      -9.51323733e-002 -7.89667759e-003 5.56315482e-002 9.34082121e-002
      7.12755322e-002 3.07291783e-002 -5.35420477e-002 -4.06161733e-002
      -6.22661114e-002 -5.94512261e-002 -3.86474133e-002
      -8.60759616e-003 -4.24853712e-003 -6.24972321e-002 3.15392134e-003
      -6.54201359e-002 -9.57112983e-002 -1.43374741e-001
      -7.54749551e-002 -5.18364199e-002 -6.11468740e-002 2.90801339e-002
      8.84009618e-003 4.86648083e-002 -3.06670163e-002 -7.20834881e-002
      -8.19849744e-002 -8.99025649e-002 -4.63065803e-002 2.23257765e-002
      8.66230950e-002 3.85978818e-002 4.66675982e-002 -3.43316384e-002
      -3.57580967e-002 -7.34871328e-002 -1.01402730e-001
      -8.60674977e-002 -1.13283722e-002 9.82291102e-002 1.48391902e-001
      1.53760016e-001 9.89673138e-002 9.60416496e-002 3.28249186e-002
      -4.28088978e-002 -8.24963674e-002 -1.83628559e-001
      -7.52780437e-002 -6.61543682e-002 -3.17814164e-002
      -4.24800366e-002 -3.35434228e-002 -6.79766387e-002
      -5.62205985e-002 2.31129508e-002 -1.33861288e-001 -6.29709959e-002
      -1.67863712e-001 -5.50311767e-002 1.87315010e-002 4.06007394e-002
      6.70017824e-002 5.11017032e-002 -1.36042222e-001 -1.75534904e-001
      -4.68353508e-003 7.22235143e-002 9.38670412e-002 7.96534270e-002
      1.07065022e-001 6.44615889e-002 -2.19628960e-002 -5.32882027e-002
      -1.26848757e-001 -3.87265757e-002 -1.23373114e-001 2.67406143e-002
      1.36757389e-001 1.34951621e-001 1.25321046e-001 9.68642607e-002</_></support_vectors>
  <decision_functions>
    <_>
      <sv_count>1</sv_count>
      <rho>-5.4183475921192956e+000</rho>
      <alpha>
        1.</alpha>
      <index>
        0</index></_></decision_functions></my_svm>
</opencv_storage>
