<?xml version="1.0"?>
<opencv_storage>
<my_svm type_id="opencv-ml-svm">
  <svm_type>C_SVC</svm_type>
  <kernel><type>LINEAR</type></kernel>
  <C>1.</C>
  <term_criteria><epsilon>2.2204460492503131e-016</epsilon>
    <iterations>100000</iterations></term_criteria>
  <var_all>9576</var_all>
  <var_count>9576</var_count>
  <class_count>2</class_count>
  <class_labels type_id="opencv-matrix">
    <rows>1</rows>
    <cols>2</cols>
    <dt>i</dt>
    <data>
      -1 1</data></class_labels>
  <sv_total>1</sv_total>
  <support_vectors>
    <_>
      -4.21765409e-002 -2.64826138e-002 8.22679773e-002 -3.73467281e-002
      -1.87322095e-001 8.88211802e-002 2.71377534e-001 1.06739238e-001
      6.02745451e-002 8.51372909e-003 -7.69903185e-003 3.03593408e-002
      9.62044224e-002 -2.55514294e-001 -1.88318677e-002 1.91871658e-001
      1.14276059e-001 2.40378361e-002 -1.02770049e-002 -1.29910618e-001
      1.46916062e-001 4.08702828e-002 1.18460376e-002 -2.72632558e-002
      9.26017091e-002 6.98557645e-002 7.16797709e-002 -8.52334201e-002
      -6.45075738e-002 -2.90214904e-002 4.32629138e-003 1.50963217e-002
      -1.41746998e-001 2.00212374e-002 6.43714145e-002 -4.41153953e-003
      -6.66774856e-003 -1.40147045e-001 -1.72962919e-001
      -1.31415371e-002 -8.76783654e-002 1.82855740e-001 1.53552130e-001
      4.73352410e-002 1.02073014e-001 2.58081742e-002 -7.17340410e-002
      -1.64192952e-002 -1.31534070e-001 6.89130928e-003 1.96511410e-002
      2.11500935e-002 9.24739838e-002 1.21166959e-001 -4.36241925e-002
      2.25394946e-002 1.51405111e-001 7.13082254e-002 2.54154116e-001
      -6.56630099e-002 1.48636743e-001 -1.38154635e-002 2.84909811e-002
      6.47073239e-002 1.32884011e-001 5.09430543e-002 -4.72276323e-002
      1.51843175e-001 -1.58784986e-002 1.18652917e-001 8.20510089e-003
      1.54284045e-001 -3.87764201e-002 -1.95832819e-001 -9.48051549e-003
      2.80386537e-001 -1.36104658e-001 2.82606214e-001 -7.17773288e-002
      -4.30785045e-002 -3.75235602e-002 -7.35305995e-002
      -1.17992327e-001 -1.13701954e-001 8.58703181e-002 -1.14912450e-001
      5.94444126e-002 -1.60628065e-001 -8.02736031e-004 6.74745366e-002
      -7.78646991e-002 -2.43557170e-002 -2.20128261e-002 1.89024210e-001
      -1.73854847e-002 7.25334212e-002 -3.93864512e-002 -9.37274173e-002
      -7.94153586e-002 -8.21484700e-002 -2.93933097e-002 1.69754624e-001
      2.55993791e-002 7.70343617e-002 9.41772480e-003 -1.43850669e-001
      -6.66170642e-002 9.55680758e-002 -1.74972806e-002 -1.57981187e-001
      -1.30964220e-001 1.66221470e-001 1.49408239e-003 1.79143280e-001
      2.30665598e-003 -4.59796377e-002 7.64885917e-002 1.11480981e-001
      5.83542930e-003 -7.35989586e-002 -1.29412534e-002 -3.93299609e-002
      8.82827640e-002 -2.91427001e-002 1.32486038e-002 -5.62711880e-002
      -1.47936508e-001 -1.87289163e-001 -5.19301891e-002 7.63767660e-002
      1.09080166e-001 5.65133616e-002 -9.06959623e-002 -4.75801975e-002
      8.93062726e-002 2.11834908e-001 1.63714343e-003 2.34244317e-002
      -1.16691161e-002 1.66882187e-001 -1.42441690e-001 -1.08236067e-001
      -1.45781450e-002 8.93845484e-002 4.95820083e-002 -1.01208039e-001
      -1.85527220e-001 1.06797688e-001 -2.01577172e-001 2.31481250e-002
      -6.66154400e-002 -1.05784394e-001 1.29905064e-002 -5.68869896e-003
      -1.05270026e-002 8.00039396e-002 3.09538782e-001 -6.74680322e-002
      1.94444031e-001 3.25122476e-002 1.03014439e-001 6.67104200e-002
      8.62841308e-002 -5.18818721e-002 -9.33763534e-002 9.13921297e-002
      -4.12809290e-002 6.19331449e-002 -7.43994936e-002 -1.15743481e-001
      -2.27144267e-002 3.08026075e-002 -2.23626290e-002 -2.10770350e-002
      -3.68368179e-002 -2.03350075e-002 -2.96214409e-002
      -9.21038911e-002 -4.34471183e-002 -6.62827119e-003
      -8.17259774e-002 -7.27684004e-003 -5.92030734e-002 1.08310236e-002
      -1.69959441e-001 4.52533439e-002 -2.44027749e-001 -3.86353992e-002
      -3.76451351e-002 7.18958005e-002 2.57574599e-002 6.06795016e-004
      1.04056045e-001 -8.57081115e-002 7.12318942e-002 6.03233390e-002
      8.84294808e-002 1.24942496e-001 9.96405631e-002 -3.20475474e-002
      8.20021704e-002 -6.94293976e-002 -4.36973199e-003 7.00256824e-002
      -1.13882273e-001 -6.60679415e-002 4.80136536e-002 -4.09563025e-003
      4.62484509e-002 1.72997653e-001 7.99705386e-002 5.43247983e-002
      -1.53369699e-002 -1.93192158e-002 -1.12944759e-001 6.86952770e-002
      -1.18564228e-002 3.07704266e-002 5.35390750e-002 7.81044215e-002
      -1.48940580e-002 1.64173599e-002 -1.35082796e-001 8.63612220e-002
      3.24777588e-002 -1.69689685e-001 -4.84786257e-002 9.18002799e-002
      2.91371137e-001 -1.36901271e-002 1.03461355e-001 -3.38278301e-002
      1.39389168e-002 2.31140479e-002 4.50777784e-002 3.30108330e-002
      8.57337937e-002 -4.31231707e-002 5.46102040e-002 -3.96732166e-002
      -1.16432756e-001 7.86459595e-002 1.63056105e-001 1.17614463e-001
      5.45022562e-002 1.03024304e-001 1.93596017e-002 -6.89382926e-002
      -1.05293579e-001 -1.15907758e-001 5.34358956e-002 8.25361013e-002
      -8.37627947e-002 -2.47877929e-002 7.20562637e-002 1.55724287e-001
      -6.17207251e-002 5.59462458e-002 1.48203373e-001 -2.67118532e-002
      -4.04283404e-002 8.73792619e-002 -4.87823635e-002 4.59846370e-002
      7.65987858e-002 -2.57452833e-003 2.25641400e-001 3.60352211e-002
      -1.82962622e-002 7.77896419e-002 -3.49775590e-002 1.77444071e-002
      1.15938997e-002 3.26227732e-002 -1.38921503e-004 -1.16249613e-001
      -9.34268907e-002 -1.65026933e-002 -2.76499260e-002 4.69897985e-002
      -3.33002396e-002 -5.38387299e-002 1.20833069e-002 1.07266670e-002
      -6.95687085e-002 1.01329394e-001 -6.77394345e-002 2.42128745e-002
      -3.08862384e-002 -1.08251452e-001 -4.26367521e-002
      -9.90156233e-002 -1.30277863e-002 1.11982554e-001 8.70928317e-002
      -5.86632006e-002 -7.01589808e-002 -3.60345468e-002
      -4.55199666e-002 5.42309619e-002 2.84187403e-002 -4.98138890e-002
      2.14686856e-001 -7.18684420e-002 -2.38155752e-001 -3.96488197e-002
      -1.06658205e-001 -8.24566744e-003 7.72231147e-002 -1.45274386e-001
      1.41020328e-001 -1.99343562e-002 2.94696033e-001 6.99538216e-002
      3.14507866e-003 2.08220584e-003 -7.52357915e-002 2.95025595e-002
      -5.97574897e-002 8.99563432e-002 1.01914844e-002 -7.46011082e-003
      4.84945104e-002 -4.45088856e-002 6.35044351e-002 -1.88964400e-002
      2.23223045e-002 -2.26300880e-002 -2.19149571e-002 8.76625255e-002
      4.05149348e-002 -1.66114181e-001 4.12244844e-004 5.14304033e-003
      1.51842751e-003 8.16971138e-002 -9.70465317e-002 -1.52378380e-002
      5.13224080e-002 8.64420235e-002 -3.37230116e-002 -7.26616383e-002
      2.84458362e-002 -7.17809573e-002 1.56316273e-002 -7.55586997e-002
      5.43402042e-003 1.02986721e-002 5.22265621e-002 8.05047974e-002
      -5.31984977e-002 1.59904677e-002 1.66019835e-002 8.23822021e-002
      -8.55453461e-002 -7.27835391e-003 -1.81916535e-001 3.74076627e-002
      9.05100405e-002 2.66025122e-002 4.16650176e-002 5.43875098e-002
      5.19921556e-002 2.04602610e-002 -5.16546108e-002 6.51753917e-002
      4.51400653e-002 -6.72618747e-002 -7.99109042e-002 1.90298036e-002
      1.17810398e-001 4.65106517e-002 2.35159788e-002 -3.36729810e-002
      -2.05497984e-002 -6.25606328e-002 -3.29263806e-002
      -9.45777074e-002 3.96646671e-002 -1.61293764e-002 8.37070569e-002
      -4.73144129e-002 -1.06336232e-002 1.73321962e-001 -7.91322887e-002
      1.15725964e-001 4.97680809e-003 1.10946171e-001 4.93236966e-002
      1.31241158e-001 5.77561930e-002 1.54469997e-001 2.00042054e-002
      1.02638647e-001 9.04748291e-002 -2.92032082e-002 -3.63692306e-002
      2.06154678e-002 8.35171808e-003 1.79384366e-001 2.91993823e-002
      4.39581946e-002 7.84574728e-003 -5.81571609e-002 -8.33679512e-002
      4.00098860e-002 6.50947988e-002 -2.24416047e-001 -1.35444552e-001
      3.87606844e-002 1.22954510e-001 -2.59301625e-002 8.18146989e-002
      1.47436678e-001 3.40215117e-002 2.63664015e-002 4.72057089e-002
      6.05281182e-002 -3.24955583e-002 1.68695569e-001 -5.23990616e-002
      9.35569480e-002 -3.13002169e-002 1.73607454e-001 4.54250798e-002
      -1.37420774e-001 3.69141735e-002 8.32647160e-002 6.16408288e-002
      -2.53901407e-002 9.34354365e-002 1.67839319e-001 5.83827449e-003
      -4.92670201e-002 -1.76969200e-001 -6.30955994e-002 2.99840961e-002
      9.04822275e-002 -8.80087540e-002 -7.50836581e-002 -7.44258165e-002
      -1.85520500e-002 9.79484469e-002 3.27829272e-002 3.85013409e-002
      4.54842001e-002 1.27269477e-001 -1.93704460e-002 -1.21626295e-002
      -6.53555244e-002 2.30660886e-001 3.92981917e-002 7.14743568e-004
      -3.19075747e-003 2.32174143e-001 1.49559200e-001 -1.07168034e-001
      9.04759765e-003 1.52475163e-001 6.57982975e-002 1.18767701e-001
      1.45665482e-001 2.76472624e-002 1.09675258e-001 1.19432732e-001
      3.80869694e-002 4.09212038e-002 3.28798257e-002 -2.49352655e-003
      -1.40720889e-001 -3.25345397e-002 1.27755910e-001 5.14672557e-003
      -1.56352326e-001 -1.10833663e-002 -3.91218364e-002
      -1.02440991e-001 -8.99311155e-002 7.89594650e-002 1.42371997e-001
      1.79147318e-001 4.94374372e-002 1.32244289e-001 7.32159317e-002
      2.50662887e-003 -7.75787653e-003 8.39044973e-002 -6.33205324e-002
      1.14598803e-001 -1.06390491e-002 1.78239450e-001 -7.53635168e-002
      -9.85523537e-002 -6.63572550e-002 -2.79630926e-002 1.86228126e-001
      1.22781403e-001 2.76749641e-001 -3.16073187e-002 1.10711353e-002
      4.94550681e-003 -5.64353615e-002 -7.92605057e-002 1.51087031e-001
      -7.87804276e-002 -5.07434644e-002 7.41979256e-002 -4.66458201e-002
      -3.59955523e-003 6.63701296e-002 1.72113508e-001 1.62947401e-001
      7.60855600e-002 -1.75444577e-002 3.89944278e-002 6.60861135e-002
      5.77712469e-002 -9.25994827e-004 -4.66085821e-002 2.08437890e-001
      1.41985536e-001 2.65812092e-002 -1.19551018e-001 -6.04671948e-002
      8.92484561e-003 6.42636418e-002 9.11986269e-003 -2.75495462e-002
      8.22050497e-002 9.72050577e-002 5.18954359e-002 -4.87065688e-002
      1.12471236e-002 -2.62454003e-002 -5.62039241e-002 1.15529075e-001
      -4.17805277e-002 1.35976806e-001 3.51051651e-002 -3.92655022e-002
      -4.56492556e-003 5.47671467e-002 6.20611981e-002 -2.65755542e-002
      6.01018853e-002 7.47255608e-002 1.15242913e-001 2.15423610e-002
      -1.90805737e-002 8.87566879e-002 9.12560448e-002 5.14919013e-002
      -6.71220198e-002 -3.51923965e-002 -3.16858627e-002 3.44969658e-003
      -5.96469566e-002 1.10384136e-001 6.10941090e-002 -1.36044929e-002
      9.60420892e-002 -9.95852239e-003 2.04666406e-001 1.97160184e-001
      6.89503178e-002 -9.73764956e-002 1.20282546e-001 6.84895292e-002
      4.78801988e-002 5.79723343e-002 -1.44006787e-002 4.43647318e-002
      4.20249514e-002 7.09487870e-002 1.00626297e-001 1.80362295e-002
      -1.22883050e-002 -4.73796874e-002 -2.57983431e-002 1.30636498e-001
      -7.07616890e-003 7.56757259e-002 2.47386266e-002 -9.24559161e-002
      -7.51547888e-002 -8.08458962e-003 -1.31427189e-002 1.26292498e-003
      1.43191004e-002 -1.50288269e-001 1.06038719e-001 -1.31954988e-002
      -8.67260695e-002 7.95116201e-002 2.42381692e-002 8.01303312e-002
      -1.43766333e-003 1.36998907e-001 6.67394102e-002 -8.52213800e-002
      -9.54986438e-002 -6.79685399e-002 -9.08848420e-002 5.92057556e-002
      1.65159777e-002 -1.93046238e-002 -3.31877805e-002 -5.05321398e-002
      3.71536836e-002 -9.92700234e-002 2.22678613e-002 -1.82720218e-002
      2.59566493e-003 -1.10654518e-001 -1.07052200e-001 1.30904019e-001
      9.31277573e-002 5.96158244e-002 -3.55597436e-002 -3.60344239e-002
      3.20669264e-002 6.20875098e-002 2.22861785e-002 2.60066129e-002
      3.36401388e-002 -1.04310587e-002 5.42044872e-003 -7.25290924e-002
      5.00522852e-002 6.43338729e-003 -1.20579347e-001 -1.51657179e-001
      4.98046866e-003 1.03541516e-001 -2.59583408e-004 -3.14486586e-002
      -1.78955466e-001 -5.35661653e-002 -7.07538985e-003 1.02970824e-001
      -1.66762173e-002 4.76595163e-002 -5.57288192e-002 -8.80658105e-002
      2.78331582e-002 -5.69897369e-002 -4.28383388e-002 7.72322342e-002
      1.08094163e-001 -1.12392589e-001 -3.47916484e-002 2.22461969e-001
      -1.48286879e-001 1.01754256e-001 2.74273064e-002 1.45909982e-002
      -6.76918626e-002 7.05183148e-002 -1.34620592e-001 -5.09781949e-002
      1.68346222e-002 1.18259408e-001 -4.38317284e-002 2.01287903e-002
      7.78697580e-002 1.34853944e-001 1.22821249e-001 -6.84016559e-004
      6.43727854e-002 1.16537146e-001 -9.04946681e-003 1.87683001e-001
      -4.47888821e-002 2.19911733e-003 7.09801093e-002 6.38359189e-002
      -1.00741148e-001 4.80039045e-002 1.59021392e-001 2.21802503e-001
      5.98751642e-002 -5.34199364e-002 5.79485632e-002 1.35592818e-001
      6.14410266e-002 -1.36191249e-001 1.34615181e-002 -5.68816159e-003
      -1.01040132e-001 -1.79596674e-002 -9.76379886e-002
      -4.58388515e-002 1.01378746e-001 5.73911443e-002 -6.81752190e-002
      2.75005996e-002 3.38087641e-002 7.91592076e-002 5.80060761e-003
      4.28813882e-002 -5.93312010e-002 1.16921969e-001 2.79672220e-002
      -7.73862675e-002 1.37593031e-001 5.62410764e-002 -6.13141106e-003
      2.98419017e-002 -1.99696794e-001 -1.10190392e-001 -1.15138674e-002
      8.51331130e-002 -8.29701126e-002 -1.36348242e-002 8.63485187e-002
      4.95544448e-002 -1.02536887e-001 -1.02453627e-001 9.29720234e-003
      2.49825548e-002 3.30899358e-002 3.20637561e-002 -4.57784673e-003
      5.09774163e-002 3.96234775e-003 -8.03643167e-002 -1.53801993e-001
      -9.96183977e-002 9.61528867e-002 1.43389300e-001 1.50489047e-001
      2.26325989e-002 -3.36356238e-002 -2.80872080e-002 3.85731552e-003
      -3.96782346e-002 1.50558114e-001 1.97826266e-001 2.62043569e-002
      -6.46959096e-002 2.22654063e-002 4.24932614e-002 9.85275581e-002
      8.33919570e-002 2.53269635e-002 9.84239951e-002 6.13480620e-002
      -5.01734316e-002 5.53764142e-002 8.42029345e-004 -5.94946146e-002
      -4.60640155e-002 1.02261975e-001 1.50989676e-002 1.74128845e-001
      6.02367595e-002 -5.88616282e-002 3.60547230e-002 -7.91269094e-002
      3.30390073e-002 9.06259492e-002 7.33293518e-002 -6.84232870e-003
      2.38584988e-002 5.06179109e-002 -1.61608830e-002 4.76122722e-002
      -7.68088028e-002 -8.98516029e-002 3.59650590e-002 1.41072925e-002
      -1.51913916e-003 3.72015163e-002 5.28561100e-002 -1.14510924e-001
      -1.01514719e-002 -1.02796130e-001 -2.97758449e-002 8.80927294e-002
      -2.29556002e-002 -5.67543991e-002 3.01392376e-002 -5.60319833e-002
      4.46363837e-002 8.46843496e-002 3.99654452e-003 2.59239431e-002
      -1.25173945e-002 1.24336639e-003 -6.14655912e-002 4.33657467e-002
      8.67328122e-002 -7.82229453e-002 1.37500107e-001 1.13340370e-001
      -5.33242971e-002 -5.50363325e-002 -6.28255904e-002 6.19035540e-003
      1.20026125e-002 -6.85469732e-002 -4.62858453e-002 6.40145550e-003
      3.97627354e-002 -9.44496468e-002 1.76737815e-001 3.07914373e-002
      -2.25595146e-001 -1.16770379e-001 -1.40901655e-001 3.03826164e-002
      1.40230045e-001 4.74021435e-002 2.00835597e-002 -8.80910456e-002
      -8.28244016e-002 -3.03086024e-002 6.88774511e-003 2.05314974e-003
      -8.82711560e-002 5.38816601e-002 -1.73475981e-001 -3.09278257e-002
      -8.90682042e-002 -1.60057962e-001 -1.36403844e-001
      -3.03053367e-003 -1.24667279e-001 -5.44256382e-002
      -9.52192843e-002 7.30485991e-002 -7.88393840e-002 6.14803284e-002
      -2.77731605e-002 6.97034746e-002 -1.56420261e-001 -8.10546335e-003
      1.18527452e-004 -1.35106836e-002 6.31209910e-002 -9.74212885e-002
      1.19684033e-001 -1.50509626e-001 5.78652918e-002 3.86350788e-002
      1.04234293e-001 -2.11614687e-002 -3.25055532e-002 -1.18210912e-001
      4.01760004e-002 -4.58607748e-002 -1.13586485e-001 1.61910467e-002
      -5.03936149e-002 -6.24061525e-002 9.35491249e-002 1.22324638e-001
      1.32854227e-002 -2.32963692e-002 -5.70838265e-002 -8.22326392e-002
      7.53924344e-003 -7.32426792e-002 -2.98930313e-002 -3.08704022e-002
      -1.42526805e-001 7.18343724e-003 1.32808954e-001 8.89217481e-002
      -5.95222749e-002 -4.02571186e-002 -1.21143006e-001
      -6.72414973e-002 6.79769889e-002 2.01040674e-002 5.72677627e-002
      6.48798496e-002 1.71280995e-001 -1.00667132e-002 3.80308852e-002
      -2.89265048e-002 3.86005850e-003 -1.91737302e-002 -4.47799079e-002
      -3.31687108e-002 1.13662407e-001 -4.77315113e-002 1.21415533e-001
      -9.61755663e-002 -9.08262581e-002 3.03018186e-002 4.35758308e-002
      1.35730222e-001 5.41379564e-002 -1.10951124e-003 -1.31913424e-001
      -3.14227417e-002 -5.05783744e-002 5.53094409e-002 -2.07838267e-002
      -4.24008304e-003 4.08991985e-002 6.07178435e-002 -7.03244656e-002
      5.28937057e-002 -8.43513310e-002 -6.84943944e-002 -6.19691722e-002
      -5.50384857e-002 1.45314217e-001 -2.35828366e-002 -2.02822424e-002
      -1.22555181e-001 1.10410012e-001 -5.71249947e-002 -3.92419659e-002
      -8.75815302e-002 -4.80855023e-003 -3.37467082e-002 1.02384806e-001
      6.04407415e-002 1.00540884e-001 8.64043832e-002 9.82447490e-002
      -1.27747327e-001 1.06158711e-001 -5.36851026e-002 4.32062261e-002
      1.38230398e-001 1.48127060e-002 -2.03995481e-002 1.75486177e-001
      3.82251292e-002 -7.22750649e-002 1.18692800e-001 -7.28897303e-002
      6.23482503e-002 -9.98080894e-002 -2.83499528e-003 -1.03390083e-001
      1.49163291e-001 -8.44708979e-002 -7.76949301e-002 -2.04017311e-001
      -4.68269810e-002 -6.77076280e-002 -6.44654557e-002 7.01532066e-002
      -8.26246291e-002 1.19372532e-001 -6.34068623e-002 -7.05462247e-002
      -2.51723398e-002 4.10729162e-002 -4.41114837e-003 1.27193909e-002
      1.55995026e-001 1.93980113e-002 1.41642794e-001 1.32446706e-001
      -7.07976073e-002 4.25897352e-003 -7.77746290e-002 -1.56197086e-001
      4.75877784e-002 3.06468494e-002 -1.05814934e-001 -9.31674168e-002
      5.10416739e-002 -9.06911716e-002 7.51912147e-002 6.83930218e-002
      -8.39255005e-002 -1.78183302e-001 8.43899325e-003 -3.73723134e-002
      2.14872643e-001 -2.21942052e-001 -4.74692844e-002 -1.27478242e-001
      -2.16250513e-002 -9.52083841e-002 -1.24179371e-001 7.63123557e-002
      -1.97321653e-001 1.41097218e-001 4.69699353e-002 2.33733337e-002
      2.33552866e-002 5.06863371e-002 3.82099785e-002 1.04865069e-002
      -3.24500687e-002 1.00866616e-001 5.69292046e-002 -3.72123569e-002
      -1.26173990e-002 8.92788917e-002 2.26545632e-001 -3.10497787e-002
      1.18251145e-001 4.06501479e-002 3.25200520e-002 -6.51653036e-002
      9.07825530e-002 1.01157360e-001 2.39056736e-001 1.08188182e-001
      -5.44415824e-002 -4.86767031e-002 -4.24872935e-002 2.38774959e-002
      -1.23468965e-001 6.02057166e-002 -1.00297593e-002 1.09799884e-001
      8.06936324e-002 -3.31385098e-002 -6.86974153e-002 1.67272482e-002
      4.09713127e-002 -1.02354378e-001 -1.70337066e-001 3.10990289e-002
      -4.60227728e-002 2.57714409e-002 1.22830726e-003 -5.77733945e-003
      6.55068010e-002 -7.58535564e-002 -9.35034230e-002 -1.22609183e-001
      -5.38894907e-002 1.37057289e-001 1.74684450e-001 -3.87078673e-002
      -3.64890546e-002 1.53079972e-001 -3.77376601e-002 -8.28667805e-002
      -5.92408478e-002 -9.99714807e-002 2.64391080e-002 5.07744886e-002
      -1.45575330e-002 -2.73595005e-001 9.15508941e-002 -4.06285301e-002
      -1.17570147e-001 1.13510557e-001 -4.56065545e-003 -8.30076709e-002
      1.19662046e-001 4.81936522e-002 -1.29794031e-001 7.90910795e-002
      9.40839797e-002 -4.86093014e-002 -5.31739146e-002 -7.82577321e-002
      6.89560398e-002 1.38222262e-001 -1.30561933e-001 -8.97438377e-002
      1.52063742e-001 4.03200127e-002 -7.47513175e-002 9.72228274e-002
      1.00149602e-001 -1.00074452e-003 8.03753659e-002 -6.03886961e-004
      -1.06305696e-001 1.59060389e-001 5.99458106e-002 5.54997139e-002
      -8.35742131e-002 1.14716617e-002 8.07566643e-002 1.03270940e-001
      6.90526515e-003 1.70106383e-003 -4.07630093e-002 8.94024298e-002
      -3.92033309e-002 -9.13431942e-002 -1.07753024e-001
      -1.95733979e-002 -1.29272472e-002 4.88081351e-002 1.30683467e-001
      4.99604493e-002 -7.06053451e-002 2.47614980e-002 1.26958653e-001
      -6.42589778e-002 1.64758563e-002 -2.62932461e-002 5.92524484e-002
      -4.83791009e-002 7.94229284e-002 1.94599241e-001 5.10511547e-002
      -5.60076721e-003 3.34959179e-002 -7.94798285e-002 1.73087478e-001
      6.09450452e-002 3.10737565e-002 9.27992836e-002 1.48857385e-001
      5.55774830e-002 3.66242528e-002 -2.17602700e-002 2.26273462e-002
      8.19899514e-002 -4.92433608e-002 -6.67340830e-002 -3.75423320e-002
      1.72827840e-002 4.33726981e-002 4.19928059e-002 -8.14964250e-002
      -6.95419163e-002 4.48972695e-002 6.21291213e-002 -7.74745345e-002
      -7.48679712e-002 -8.39627460e-002 -7.70257264e-002 2.14559026e-002
      8.37909654e-002 1.77937280e-002 1.55733883e-001 -5.89928292e-002
      -2.78547243e-003 -8.54438171e-002 1.98148459e-001 -1.42003270e-002
      5.73217273e-002 -1.12865083e-002 -1.12349994e-001 2.11353903e-003
      -4.13738973e-002 -5.67765832e-002 -1.30217955e-001 6.28176006e-003
      2.84119099e-002 5.07537043e-003 -1.32191358e-002 1.25020280e-001
      2.41895225e-002 -1.26310941e-002 -1.15452208e-001 3.18189561e-002
      5.74129857e-002 2.49445625e-003 2.53330749e-002 -5.78707978e-002
      9.19915363e-002 6.62982166e-002 -8.54419637e-003 -4.03890051e-002
      5.74482195e-002 -8.15163329e-002 8.03202838e-002 6.77161217e-002
      -3.26681286e-002 1.33784682e-001 1.34477064e-001 6.99597411e-003
      -5.05485982e-002 2.83453916e-003 5.81067279e-002 -1.21822737e-001
      2.08202824e-002 -1.62005529e-003 6.86096901e-004 9.30720717e-002
      1.06808573e-001 1.31887972e-001 1.56869516e-001 1.80439949e-002
      1.55547202e-001 -1.22621737e-001 -8.13040659e-002 1.18309129e-002
      1.65277019e-001 -1.49357067e-002 9.39489808e-003 6.85500428e-002
      -8.80151093e-002 3.77753116e-002 -7.07221180e-002 -7.21928254e-002
      4.94819097e-002 5.88182081e-003 4.43053097e-002 4.44121733e-002
      9.26576033e-002 -4.32965308e-002 1.80386201e-001 -2.33712289e-002
      8.41793194e-002 4.35818397e-002 7.24785402e-002 -2.78640594e-002
      -6.10147417e-002 -3.82888578e-002 -5.50197959e-002 1.02574825e-001
      -1.42915435e-002 -6.63891286e-002 -8.66489857e-002
      -5.25505319e-002 2.13013869e-002 1.25674799e-001 -1.68927461e-002
      -1.89807147e-001 1.72578618e-001 3.66970524e-002 3.48321325e-003
      4.72018309e-002 -6.75121993e-002 5.31792007e-002 4.91172113e-002
      9.30161625e-002 -1.04816342e-002 7.64116719e-002 -4.39518355e-002
      3.36548202e-002 -9.77102667e-002 -3.98448855e-002 -3.52445878e-002
      1.09407037e-001 7.49094561e-002 6.07541203e-002 -7.04196021e-002
      1.02867536e-001 6.51146099e-003 9.64149926e-003 4.58206944e-002
      -2.39021163e-002 1.55270159e-001 -3.37317102e-002 -1.57280609e-001
      1.03711590e-001 7.73515627e-002 -6.28134757e-002 -5.13962582e-002
      -1.86436087e-001 -2.60907672e-002 8.51784497e-002 -8.13057274e-003
      -1.00852691e-001 -1.14405848e-001 1.24738075e-001 -2.83485837e-002
      -1.71294846e-002 -8.34076665e-003 -1.21083692e-001 1.48471236e-001
      5.79309613e-002 1.33618385e-001 -3.36239934e-002 4.15802449e-002
      -3.22351828e-002 -8.54944345e-003 -1.88014284e-002
      -9.10587087e-002 2.00808078e-001 1.57993570e-001 6.98118806e-002
      -4.36196849e-003 8.11434910e-002 -4.94195968e-002 3.39550301e-002
      -2.34992709e-002 -1.50492415e-001 5.87823354e-002 1.26480505e-001
      2.22061593e-002 9.41024125e-002 2.68861484e-002 -1.42562702e-001
      5.90455942e-002 -7.28044361e-002 -2.00273886e-001 1.59996096e-002
      7.62673989e-002 9.23639312e-002 -1.99328601e-001 -8.92464370e-002
      -1.83003649e-001 1.24897184e-002 -1.83168516e-001 -1.15698904e-001
      2.07964689e-001 1.73393726e-001 5.85434809e-002 -1.04658067e-001
      8.25379044e-002 3.11958641e-002 5.93756139e-002 -9.42521729e-003
      -6.80416599e-002 1.09196074e-001 7.53114074e-002 -2.21441090e-002
      -1.24902502e-002 2.25981362e-002 -6.07112469e-003 3.18008773e-002
      -1.43211305e-001 -3.43497060e-002 7.70113170e-002 9.82272625e-002
      7.81852454e-002 -1.12467527e-001 7.45335892e-002 7.67994747e-002
      6.28800914e-002 -4.80756722e-002 -7.19797658e-003 4.98985760e-002
      6.34300932e-002 -5.19122034e-002 3.88446786e-002 -1.01579696e-001
      6.82263672e-002 -8.97079036e-002 -9.44196954e-002 -1.30819142e-001
      9.73270163e-002 6.56247362e-002 2.86734086e-002 -3.79347950e-002
      -1.89549804e-001 -1.20824166e-002 -1.64196357e-001
      -1.92422643e-001 4.75047575e-003 3.23496312e-002 2.55245697e-002
      -1.17394822e-002 3.07297409e-002 -5.11071533e-002 4.75167744e-002
      -9.36277676e-003 3.06809135e-002 -9.54551026e-002 8.79412442e-002
      1.16995320e-001 1.12996414e-001 1.19928189e-001 -1.27051398e-001
      5.13555929e-002 -2.91575715e-002 -9.52851176e-002 2.71728039e-002
      6.74401522e-002 9.53821838e-002 -7.55516738e-002 6.13896288e-002
      -8.13604072e-002 -7.81355724e-002 1.40333235e-001 -1.53321924e-003
      -5.19077629e-002 -8.48182067e-002 8.39339867e-002 3.58129814e-002
      1.22146606e-001 -1.27399981e-001 -5.56260608e-002 -2.27817863e-001
      -1.15256958e-001 -5.41208908e-002 6.20244145e-002 -3.61127630e-002
      -1.37120873e-001 7.68157020e-002 -4.16261218e-002 -8.29885900e-002
      -3.24050989e-003 -4.94589433e-002 -3.63232754e-002
      -3.04841679e-002 1.63380772e-001 -2.15917695e-002 -1.27035752e-001
      -7.18528852e-002 -2.37687547e-002 6.02531955e-002 -2.14687753e-002
      4.64454405e-002 2.21717935e-002 8.54325742e-002 -3.12061980e-002
      5.71569242e-002 -3.96965370e-002 1.91087555e-002 1.59234125e-002
      6.65790811e-002 -1.35578215e-001 -5.63694388e-002 -9.77936015e-002
      -1.03991531e-001 1.54192552e-001 -1.76168397e-001 8.51894729e-003
      3.70547883e-002 -1.44299567e-002 -3.53092439e-002 -4.25076708e-002
      -1.33077591e-003 -8.59397799e-002 7.65338093e-002 -7.58895203e-002
      -2.07584366e-001 1.19933235e-002 -1.18485279e-002 -4.11524996e-002
      4.60256748e-002 4.20577824e-002 2.55781636e-002 7.97429904e-002
      -1.00501657e-001 7.20680654e-002 1.02645613e-001 8.83023441e-002
      -1.97561141e-002 2.55054682e-002 4.22722511e-002 9.20196325e-002
      1.78258605e-002 -2.70068962e-002 -6.51928037e-002 -1.05383182e-002
      1.44352704e-001 4.53797122e-003 -4.57475372e-002 3.87334973e-002
      -9.58745033e-002 6.26339763e-002 -9.19457749e-002 -1.79076552e-001
      8.76463111e-003 -5.98852569e-003 -3.71632464e-002 5.16704582e-002
      9.18698534e-002 -4.71559167e-002 9.05978456e-002 -6.90062493e-002
      -1.91511184e-001 -2.49541830e-002 4.22438346e-002 6.35900646e-002
      6.22573569e-002 5.82354888e-002 7.99684152e-002 -5.25654573e-003
      1.59540594e-001 -1.42751019e-002 7.95851275e-002 1.49845853e-001
      -6.80033714e-002 7.52788335e-002 1.13808662e-001 1.00812517e-001
      -3.90742198e-002 1.52443096e-001 -2.05332279e-001 1.69924214e-001
      1.08105309e-001 -3.56175117e-002 -1.57799162e-002 -1.03738889e-001
      -9.37147364e-002 -4.05977853e-002 -1.97053939e-001
      -1.39664069e-001 -8.22218955e-002 3.31878252e-002 -5.23555018e-002
      7.72102401e-002 -2.35771555e-002 1.28811030e-002 5.07163294e-002
      5.19459806e-002 -6.75850064e-002 5.62837496e-002 -3.16074453e-002
      -8.82783234e-002 -1.18916117e-001 3.36693078e-002 -8.14998895e-002
      -2.08334565e-001 9.50144231e-002 -1.21701337e-001 7.26860687e-002
      4.77048345e-002 -4.97068465e-002 1.08285435e-001 1.12568468e-001
      6.44117072e-002 -9.30649042e-002 5.18842861e-002 9.25076082e-002
      1.23995543e-001 5.47238179e-002 1.05415480e-002 -8.59169140e-002
      -1.48041561e-001 -5.90203702e-002 -1.39861077e-001
      -1.81831971e-001 -1.33313447e-001 1.36217833e-001 1.13230780e-001
      -8.41760710e-002 -1.19773440e-001 -1.55495822e-001 5.29662147e-002
      -1.69761136e-001 -1.69070616e-001 -1.08741382e-002 9.90581065e-002
      6.31633401e-002 6.58082739e-002 8.57493058e-002 -1.84088424e-001
      4.43153121e-002 3.60298753e-002 -5.50418235e-002 2.31887084e-002
      6.62036911e-002 8.86996537e-002 4.90440950e-002 2.22887425e-003
      -1.15707614e-001 1.50363952e-001 -1.91805169e-001 -1.54515401e-001
      -1.89550519e-002 1.02890491e-001 2.07287684e-001 -1.16703764e-001
      -9.69374478e-002 -3.57287899e-002 -3.05111557e-002
      -4.58218753e-002 1.04559578e-001 7.59393573e-002 3.82456928e-002
      8.67963880e-002 2.05598716e-002 -7.11529190e-003 -3.37666199e-002
      -7.31220320e-002 3.57371941e-002 -9.47547927e-002 6.90723211e-002
      3.63404453e-002 1.20490849e-001 -1.10556468e-001 5.21142073e-002
      -1.04756892e-001 3.20784748e-002 -7.95107931e-002 7.16906562e-002
      8.53194818e-002 -1.80783309e-002 8.60993415e-002 -1.56476974e-001
      7.35274330e-002 7.13491961e-002 -1.21263303e-001 -1.46861281e-002
      -1.34924203e-001 -4.06291746e-002 -2.89564133e-002
      -1.26779199e-001 1.21013775e-001 -5.73469400e-002 7.51453191e-002
      1.48590982e-001 -1.96665991e-002 1.93109691e-001 -8.67035612e-002
      -2.68652514e-002 1.33257762e-001 1.17687490e-002 1.63955963e-003
      -8.17888379e-002 5.27359620e-002 2.00469997e-002 -2.71434635e-002
      -3.98276560e-002 4.11058217e-002 1.26987711e-001 -6.31614104e-002
      8.40585008e-002 1.94904227e-002 9.87846553e-002 -2.50425767e-002
      3.53668183e-002 7.28604523e-003 2.33862549e-003 -3.90323699e-002
      -1.26563504e-001 1.07649952e-001 -3.28877643e-002 -5.82392188e-003
      -1.79859046e-002 -1.50915207e-002 -2.78158989e-002 2.06352305e-002
      -5.39338589e-002 4.87633124e-002 3.81052494e-002 -1.03261881e-001
      1.63362339e-001 3.26253474e-002 4.92492169e-002 -3.93843558e-003
      6.12768754e-002 9.91216451e-002 2.89888564e-003 4.80927527e-002
      -2.70345211e-001 -5.51206758e-003 9.42214355e-002 -2.01167762e-002
      -1.87237021e-002 4.50024419e-002 1.01044506e-001 -1.28647551e-001
      4.73504551e-002 -6.37839213e-002 -7.07132742e-003 3.40185538e-002
      4.41634022e-002 9.34886932e-002 1.08912304e-001 1.25246244e-002
      8.26858878e-002 9.84887257e-002 2.70409845e-002 -6.01370493e-003
      1.32434845e-001 3.75133827e-002 8.89134333e-002 6.33003861e-002
      8.63570273e-002 -4.67497967e-002 -2.98855770e-002 -6.66364804e-002
      1.27001047e-001 1.20712202e-002 1.70422971e-001 -8.67026001e-002
      -4.32793573e-002 -1.92187093e-002 8.32130760e-002 9.33497548e-002
      9.86575428e-003 3.38632390e-002 6.27377182e-002 -4.48432229e-002
      -2.68208347e-002 1.42074097e-002 6.59760162e-002 -3.40805203e-002
      2.53140591e-002 7.04699755e-002 1.41605034e-001 5.15114050e-003
      1.23023264e-001 -7.02987760e-002 -4.64556292e-002 3.20288539e-002
      8.31769705e-002 2.65017655e-002 3.89901772e-002 -8.38403925e-002
      -1.20547503e-001 -7.05483044e-003 -1.64607525e-001 2.06710100e-002
      8.88904631e-002 5.32916337e-002 -3.23684746e-003 -9.40938666e-002
      1.06326900e-001 3.64003907e-004 -5.96460002e-003 3.48513667e-003
      -2.89122574e-002 2.02006358e-003 1.32425055e-001 1.87959492e-001
      -9.66017395e-002 -8.27811956e-002 4.47381288e-002 2.32237149e-002
      3.79416253e-003 1.24592751e-001 1.66395735e-002 7.10018724e-002
      -7.59131461e-002 -1.47537023e-001 6.73609152e-002 1.24099515e-002
      1.17116245e-002 -1.11513227e-001 -4.11723107e-002 1.11419208e-001
      -7.84779526e-003 1.21605843e-001 1.00706622e-001 -1.23490028e-001
      3.44069526e-002 -1.73891500e-001 -1.29746690e-001 5.51216565e-002
      5.56039065e-002 8.12750589e-003 1.38023883e-001 6.91926153e-003
      8.84734001e-003 1.31490752e-001 3.30966637e-002 -1.21756658e-001
      -7.66911060e-002 -1.20481074e-001 1.26815662e-001 2.01299861e-001
      -5.70277125e-002 -2.58817859e-002 -2.71078628e-002
      -8.16462934e-002 -5.54114543e-002 -2.18400601e-002
      -2.61314921e-002 -1.78735480e-002 9.33341756e-002 -5.88801764e-002
      6.12769090e-002 7.34057054e-002 3.82598466e-003 -1.95288837e-001
      -3.37660022e-004 -1.16941243e-001 4.72487025e-002 8.19465891e-002
      8.27346556e-003 -1.73991635e-001 -1.83962137e-001 -1.19858727e-001
      -1.26031265e-001 4.71471511e-002 -7.02570155e-002 -3.64300311e-002
      2.09861398e-002 1.07992887e-001 8.10120627e-002 1.84597149e-001
      3.65374535e-002 7.67496787e-003 5.24149947e-002 4.55284044e-002
      -4.66514230e-002 7.93675408e-002 2.71447580e-002 5.57962768e-002
      6.55194595e-002 -3.29024196e-002 1.10374177e-002 1.41182482e-001
      -4.63291742e-002 5.49168140e-002 5.32613248e-002 -3.21285948e-002
      -7.05371723e-002 4.57263291e-002 1.72954146e-002 4.48522642e-002
      7.53010437e-002 -1.04085617e-002 -1.23537563e-001 1.28314063e-001
      4.28869165e-002 -1.79486066e-001 -1.27084017e-001 5.31696528e-002
      9.70833302e-002 1.43812805e-001 -1.87279716e-001 7.91055802e-003
      1.20826125e-001 1.19663738e-001 2.07740627e-002 1.99896004e-002
      -5.40900305e-002 -3.25541594e-004 -3.52983875e-003
      -1.18411250e-001 -2.69903075e-002 7.76030272e-002 1.18926931e-002
      3.08372919e-002 4.49509062e-002 -9.74697471e-002 2.29885150e-002
      2.88489629e-002 -6.53980374e-002 -1.54632833e-002 1.84639007e-001
      -8.70499983e-002 -7.34342486e-002 2.45927162e-002 1.11580845e-002
      -2.57734451e-002 1.49193108e-001 3.70865203e-002 -5.37448488e-002
      1.26816019e-001 1.62819913e-003 -6.68700486e-002 -1.22334644e-001
      1.28559217e-001 -1.23327293e-001 6.56974092e-002 -8.59512389e-002
      -9.79647115e-002 -4.95843366e-002 -4.68795300e-002
      -1.80015713e-003 -2.27202550e-002 -2.59629488e-001 1.07322231e-001
      -1.18385591e-001 -9.56983045e-002 6.35018945e-002 -6.09303340e-002
      -4.54456545e-002 -1.17176726e-001 6.02256460e-003 -1.30186498e-001
      -7.11155403e-003 7.02310950e-002 2.45203283e-002 -3.12748030e-002
      1.15048513e-002 -1.36583494e-002 6.93831816e-002 -9.98656452e-002
      4.78979386e-002 1.33180678e-001 -5.84219657e-002 1.57524459e-002
      6.53040707e-002 8.61422420e-002 4.63239513e-002 -6.20897524e-002
      -4.32078131e-002 7.74927437e-003 6.82703853e-002 5.83711565e-002
      1.43199805e-002 2.05301847e-002 -2.31782789e-003 1.14895567e-001
      -1.19727058e-002 -1.05598181e-001 -5.12611941e-002 6.97157532e-002
      -8.40153024e-002 -7.70525262e-002 -4.17165458e-002 3.65373529e-002
      6.26035854e-002 1.23407589e-002 2.58432865e-001 -8.16081092e-002
      -3.58624607e-002 -1.34498551e-001 -6.32016510e-002
      -1.52209979e-002 5.05899861e-002 -8.18903223e-002 1.05121881e-001
      -1.19573705e-001 1.25245273e-001 6.75834492e-002 3.33879776e-002
      6.21682666e-002 -4.37320881e-002 4.90918644e-002 -2.09921263e-002
      1.92588300e-001 7.00744763e-002 9.35091525e-002 -1.21387087e-001
      5.98975345e-002 -6.04429562e-003 -5.80752380e-002 4.92149740e-002
      6.69387402e-003 1.34459108e-001 2.75139898e-001 -9.63571966e-002
      -1.87283978e-002 -7.67735019e-002 -2.47435849e-002 9.26290751e-002
      2.67578475e-002 9.06522647e-002 1.97533846e-001 7.30672432e-003
      5.45846373e-002 -1.21705681e-001 -1.00128494e-001 8.67989436e-002
      3.05229221e-002 5.28118126e-002 3.75818796e-002 1.63243756e-001
      7.26627372e-003 2.69353569e-001 8.73683617e-002 1.10005364e-001
      3.71400677e-002 4.13909033e-002 3.91201973e-002 -5.17201982e-002
      2.79689822e-002 -5.03822155e-002 1.84512049e-001 -5.49051762e-002
      -7.64317289e-002 5.75833023e-003 1.35009915e-001 -2.12967070e-003
      -8.94533098e-002 -3.49725671e-002 -1.29408166e-002
      -1.82681382e-001 1.18277028e-001 2.51426292e-003 5.41200340e-002
      2.46025715e-002 -1.20417895e-002 1.58464443e-002 -1.40669331e-001
      1.01347715e-001 1.98065806e-002 -2.51334012e-001 -2.77499016e-002
      1.43529312e-003 9.14982036e-002 -5.00728376e-003 -3.84881198e-002
      7.67358616e-002 -9.05197263e-002 1.21326767e-001 1.66094720e-001
      5.11413105e-002 -2.15781052e-002 1.46761000e-001 1.66339040e-001
      4.29419354e-002 -7.08028972e-002 2.66475379e-002 1.68502554e-001
      3.94540951e-002 1.00356795e-001 -1.63222402e-002 5.28945625e-002
      -9.50855389e-002 1.17855631e-002 -1.58383250e-001 -1.00755237e-001
      -1.83800366e-002 -8.72854069e-002 -5.37131019e-002 1.34021789e-002
      -1.08947761e-001 5.57187125e-002 1.12935171e-001 -6.79191574e-002
      1.15401587e-002 -2.89619397e-002 -4.46373224e-002 -8.29636212e-003
      2.93363184e-002 1.11402653e-001 1.88924506e-001 8.07135031e-002
      -6.88322261e-002 -1.32738590e-001 2.47485787e-001 -4.52813171e-002
      1.12705931e-001 3.53767127e-002 -1.35123864e-001 3.17806363e-001
      2.20128447e-001 -4.33742441e-002 7.04142079e-002 -6.90923035e-002
      -3.89786139e-002 1.32238388e-001 -1.24550007e-001 3.35219502e-002
      1.53748309e-002 -8.58495086e-002 -6.67955726e-002 -1.49083272e-001
      -5.97376004e-002 7.71578997e-002 4.14451770e-002 1.90941747e-002
      7.61790872e-002 -1.18024535e-002 -9.42937359e-002 -1.24306763e-002
      -1.85605720e-001 -3.12303621e-002 -2.52680797e-002 3.52939069e-002
      1.48640305e-001 -1.69429615e-001 -2.58621603e-001 -4.07382660e-002
      3.28134894e-002 2.37039309e-002 -7.98721388e-002 1.16080143e-001
      3.30789536e-002 -1.08578771e-001 -5.55770062e-002 -1.80995330e-001
      -1.41740128e-001 -4.15711887e-002 -1.10774748e-001 4.13423106e-002
      5.40526677e-003 -5.68612255e-002 1.53106125e-002 4.72565219e-002
      5.06507419e-002 -1.13150114e-002 2.34410875e-002 6.33634850e-002
      -6.60931040e-003 1.61591992e-002 1.88839901e-002 1.84510887e-001
      6.55871525e-004 1.04611330e-001 -1.31751951e-002 1.36827305e-003
      3.97011712e-002 -2.97867768e-002 -6.06667958e-002 8.22719187e-002
      2.92017963e-002 9.53392964e-003 -5.65246493e-002 2.56290119e-002
      6.06848672e-002 2.03599691e-001 7.50321522e-002 1.80454366e-002
      -7.05143288e-002 1.02652997e-001 -3.61369178e-002 4.00113240e-002
      3.04494565e-003 -7.69772679e-002 1.08440734e-001 -1.05657250e-001
      -4.05541100e-002 -1.62532125e-002 6.49584606e-002 5.98400012e-002
      6.96679503e-002 -3.68961357e-002 2.02506259e-001 1.67386781e-003
      1.05856620e-001 8.90327469e-002 2.31773749e-001 1.27412975e-001
      8.97044688e-003 1.56523049e-001 -2.52779666e-002 -2.66430918e-002
      6.57083243e-002 -2.67131045e-003 -6.91579143e-003 1.16953015e-001
      1.91193726e-002 -4.09626216e-002 -1.54923843e-002 -3.86227779e-002
      1.51606739e-001 9.49997753e-002 6.48545027e-002 6.09398913e-003
      8.48678201e-002 6.41551465e-002 -4.90486398e-002 1.35594428e-001
      1.09292962e-001 -1.93805397e-001 3.41182686e-002 -1.17875129e-001
      -8.61486122e-002 -1.13923118e-001 -1.67984158e-001
      -1.45802096e-001 7.45443907e-003 6.42776340e-002 6.78774714e-002
      1.22004338e-001 6.85340613e-002 1.73894335e-002 6.48390129e-002
      2.61894409e-002 3.43933851e-002 8.60879421e-002 4.42127809e-002
      2.64981985e-002 1.20854393e-001 2.85703149e-002 -3.56931873e-002
      9.37658176e-002 1.18097596e-001 -6.55622594e-003 1.71538845e-001
      3.04900315e-002 6.08976148e-002 8.79205465e-002 1.71339422e-001
      9.06389803e-002 1.65127486e-003 -5.90619482e-002 5.22778258e-002
      3.41870636e-002 -4.21514995e-002 -9.64058563e-002 1.75709262e-001
      -1.45048313e-002 5.08991070e-002 9.77514833e-002 3.07048485e-002
      -7.22650588e-002 1.46968544e-001 9.07699466e-002 1.53714210e-001
      -1.08986825e-001 2.05203563e-001 -6.30331114e-002 2.49330718e-002
      3.16172279e-002 7.55748078e-002 1.76120833e-001 -6.39697313e-002
      2.39749085e-002 8.52092579e-002 8.09432566e-002 -1.14152133e-001
      4.25034389e-003 2.54262656e-001 2.04244051e-002 3.92405279e-002
      -1.16384113e-002 1.14040896e-001 1.56778038e-001 1.73190907e-001
      -8.94301862e-004 1.90635715e-002 7.96438381e-002 9.44369286e-002
      -2.46523321e-002 -1.65736172e-002 -7.23136216e-002 3.83536555e-002
      5.36403470e-002 -1.78088974e-002 -5.16215228e-002 1.64442524e-001
      2.30075289e-002 2.34545860e-003 -2.07328312e-002 6.18743412e-002
      1.52052894e-001 -6.67641461e-002 -1.66490942e-001 -8.17785412e-002
      4.98257615e-002 -1.43129334e-001 4.56805006e-002 -7.90884271e-002
      -8.79930779e-002 8.41498077e-002 -3.95852625e-002 -4.75806929e-002
      3.27256247e-002 1.86447315e-002 4.37352546e-002 -2.62266826e-002
      3.52625102e-002 6.27525970e-002 1.73110664e-002 9.10581127e-002
      -1.58148389e-002 7.08930334e-003 -5.57332039e-002 -7.41678998e-002
      4.49174941e-002 -7.94604793e-002 -1.25026584e-001 -1.56674553e-002
      7.62083977e-002 4.82762940e-002 6.88408911e-002 -5.90856299e-002
      -1.13264829e-001 6.52864426e-002 -1.91573888e-001 4.56425026e-002
      -3.40634175e-002 2.15555634e-002 -1.63378567e-002 1.58222169e-002
      -1.22691162e-001 3.98397036e-002 1.66529790e-001 -1.31252319e-001
      -6.83681443e-002 -3.18991430e-002 -6.10491559e-002 6.87876418e-002
      1.47590041e-001 -7.52788857e-002 -6.12003058e-002 8.02579895e-002
      -9.84535664e-002 -3.74051109e-002 -7.66106397e-002 5.97438179e-002
      2.46727057e-002 2.54230089e-002 -6.81151226e-002 -2.00843927e-003
      3.93937007e-002 -8.08826685e-002 -1.34060383e-001 1.07700318e-001
      -1.15477026e-001 7.29322731e-002 7.03986585e-002 -3.68918628e-002
      2.35028379e-002 1.01021394e-001 -1.01520360e-001 -5.63940383e-004
      1.25398897e-002 -1.85783699e-001 -7.73994029e-002 7.68889338e-002
      -2.35758331e-002 -1.37791291e-001 1.24825731e-001 3.28421779e-002
      -5.57971895e-002 -2.12760344e-002 -7.23604858e-003 2.67914739e-002
      -5.86461201e-002 -8.91041011e-002 -1.10889621e-001 1.05795301e-001
      -9.72482376e-004 4.11187522e-002 5.95357083e-002 -2.09232178e-002
      -3.11967954e-002 1.12165384e-001 -7.07216412e-002 -1.33772522e-001
      -1.84200634e-003 -4.51156199e-002 -3.75948846e-002 5.00360727e-002
      -7.11915940e-002 1.13930851e-001 1.22469805e-001 -5.36884926e-002
      -5.92870079e-002 7.55015463e-002 -1.55104995e-001 -1.31111950e-001
      -9.03337598e-002 4.14513610e-003 -2.84695160e-002 -1.98891431e-001
      3.64234089e-003 -7.48094916e-002 6.80121332e-002 -4.46255431e-002
      -1.63721502e-001 -1.21727511e-001 -1.30011171e-001
      -1.18689677e-002 -6.67596236e-002 -5.72656281e-002
      -9.29545425e-003 -1.81898419e-002 -3.20987813e-002
      -8.36212784e-002 -1.36604058e-002 5.61226569e-002 1.40238078e-002
      -1.24076240e-001 -4.89733070e-002 -4.63759378e-002 1.06520742e-001
      1.08793810e-001 -1.11407101e-001 9.99063998e-003 -9.65518579e-002
      -7.62618035e-002 -3.89580652e-002 -6.49485737e-002
      -1.31227955e-001 -6.93001086e-003 -7.92832300e-002
      -6.06930964e-002 -1.67484805e-001 -7.03521296e-002
      -4.24873009e-002 -1.82765067e-001 -7.57670030e-003 9.13993176e-003
      -1.11566717e-002 1.44007774e-002 -1.25951394e-001 -5.22239506e-003
      -9.07953922e-003 8.36958643e-003 -1.85157403e-001 1.66120175e-002
      -1.86528862e-001 3.49021889e-002 1.49277717e-001 -2.98450477e-002
      -1.31804824e-001 1.18370071e-001 -1.19413376e-001 -9.68562663e-002
      -6.41867146e-002 -2.84721125e-002 -3.24774608e-002 7.32714832e-002
      -1.27420872e-001 -3.20535526e-002 9.12661850e-002 3.44870239e-002
      -1.89612247e-002 2.60256603e-002 4.98850234e-002 -2.76436168e-003
      -1.19696870e-001 -9.33730379e-002 1.30678803e-001 -7.25969672e-002
      3.87082100e-002 -1.37079507e-001 -4.38948395e-003 -3.07291583e-003
      5.26042841e-002 -7.05623552e-002 -5.31547777e-002 1.02006182e-001
      -4.82440256e-002 -1.39993429e-001 -2.02241149e-002 2.74780355e-002
      -4.71770838e-002 1.37986941e-003 -9.85995308e-002 -1.87202543e-001
      1.82971314e-001 1.09311659e-002 8.17819387e-002 7.16851801e-002
      -3.76121514e-002 -2.29382869e-002 1.26046026e-002 9.09917708e-003
      -1.94387529e-002 -7.09846467e-002 1.47872698e-003 -3.68329920e-002
      -3.72379385e-002 7.16480911e-002 4.90789525e-002 -9.64993305e-005
      -1.45404777e-002 -7.64734671e-002 -5.13874069e-002
      -7.68382996e-002 5.33755198e-002 -5.45500778e-002 5.89499101e-002
      -7.61616323e-003 5.97009882e-002 4.14601378e-002 -1.03057161e-001
      2.45906711e-002 4.52218875e-002 -1.35635853e-001 -1.02716222e-001
      3.69932167e-002 2.80095302e-002 -2.63851117e-002 -2.70918515e-002
      -6.91009834e-002 -8.64076614e-002 1.77499890e-001 9.14154947e-002
      -7.05023035e-002 1.57914206e-001 2.13142224e-002 1.43676296e-001
      -5.50862402e-002 -8.20530429e-002 1.71068043e-003 2.26735622e-002
      4.11752760e-002 -5.95451556e-002 3.86604890e-002 -8.62519741e-002
      -5.34958988e-002 -1.46245688e-001 7.33745396e-002 -4.78273518e-002
      -1.05073243e-001 -5.63170994e-003 -1.63450427e-002
      -5.72517440e-002 -2.98384354e-002 5.91143966e-002 -9.27405208e-002
      -4.77755703e-002 5.69948889e-002 1.39312828e-002 -1.13869958e-001
      -8.02297741e-002 -1.27193868e-001 -5.29291518e-002 9.07770358e-003
      -9.04101878e-002 4.77352776e-002 7.28274137e-002 3.82101201e-002
      7.66686648e-002 8.83243456e-002 6.30045682e-002 2.21714489e-002
      1.73917651e-001 -2.00950038e-002 7.62254074e-002 5.13829803e-003
      -1.52607441e-001 1.23121692e-002 3.13266041e-003 1.47343138e-002
      6.60222322e-002 7.50313923e-002 5.04863169e-003 -3.74418274e-002
      3.65147740e-002 3.50939035e-002 7.78603628e-002 -8.56401399e-002
      6.46973029e-002 -8.42100605e-002 2.28033200e-001 1.59400657e-001
      -1.94360420e-001 8.37706029e-002 -4.79707867e-002 -4.85404693e-002
      -1.81503464e-002 -1.44384608e-001 5.62906377e-002 1.45717099e-001
      -9.37867388e-002 -1.67588130e-001 -4.83045727e-002 3.16034034e-002
      -3.53750512e-002 7.72764310e-002 6.90758526e-002 -5.73920272e-002
      9.00100693e-002 1.02331474e-001 2.39906292e-002 2.31858976e-002
      2.22946610e-003 4.71016811e-003 1.63443923e-001 -4.82788235e-002
      -8.95445272e-002 -9.12409127e-002 -1.75047033e-002 3.15451510e-002
      -1.56068504e-001 -7.50887170e-002 9.14289206e-002 -6.26109168e-002
      -1.05940878e-001 1.32339299e-002 -1.90631270e-001 -4.32161167e-002
      -1.16298974e-001 -1.39995918e-001 -1.19577400e-001 1.20203920e-001
      -7.38241076e-002 5.58773950e-002 8.01614672e-002 2.83947084e-002
      -4.12058793e-002 -4.78744693e-002 1.61634516e-002 -4.96335365e-002
      1.71660129e-002 -5.38846217e-002 2.58924868e-002 -5.17891720e-003
      -1.16890624e-001 -8.54828060e-002 -5.46229705e-002
      -1.47830486e-001 4.10979753e-003 1.14255629e-001 -6.95403740e-002
      -1.89421792e-002 5.52486666e-002 -1.20072581e-001 3.50710228e-002
      -5.07559255e-002 5.48440777e-002 5.19474931e-002 3.50751504e-002
      3.37037593e-002 1.02970518e-001 -7.64698116e-003 -6.78687543e-002
      -2.71973182e-002 -3.74820526e-003 8.96841362e-002 8.24249350e-004
      1.44673795e-001 8.26972723e-002 1.68304682e-001 2.41989885e-002
      -1.20358560e-002 8.56080502e-002 1.78952757e-002 4.92762513e-002
      2.15722769e-002 -4.04725559e-002 -4.13698666e-002 6.28946126e-002
      -2.18171850e-002 -1.15542278e-001 -2.40295026e-002 6.31374354e-003
      -9.72228963e-003 -4.73627895e-002 2.83199959e-002 -3.26637435e-003
      3.19216587e-002 1.04854643e-001 1.71466544e-002 -1.70075763e-002
      2.35015601e-001 2.33242959e-002 9.75207388e-002 8.29043314e-002
      1.50635958e-001 1.27074897e-001 7.44023360e-003 1.18417375e-001
      4.06017266e-002 -1.15573801e-001 -1.04834899e-001 2.87916046e-003
      7.64468685e-002 -1.01369312e-002 1.70090199e-002 1.29553135e-002
      3.73565080e-003 3.40427421e-002 1.95077881e-001 -8.63541886e-002
      1.34469783e-002 1.06508166e-001 1.82343014e-002 8.27843398e-002
      9.27328132e-003 6.84570670e-002 1.36890978e-001 -2.56149080e-002
      -8.50682482e-002 -1.24787979e-001 6.88540004e-003 -1.12042256e-001
      -1.80004656e-001 6.68212771e-002 1.28591612e-001 1.64624490e-002
      1.41680157e-002 4.69179302e-002 2.74676550e-002 8.19512159e-002
      1.08096935e-001 -1.34795159e-002 6.82016462e-002 1.26152232e-001
      -1.23596326e-001 3.79419327e-002 1.39361426e-001 -7.05894828e-002
      -6.84459647e-003 7.41928890e-002 6.03027754e-002 3.89654189e-002
      4.96204011e-002 -5.51232807e-002 1.58089519e-001 8.41427520e-002
      3.35399881e-002 3.15633826e-002 -8.22425559e-002 -4.89169285e-002
      1.02851316e-001 8.90789740e-003 3.88905784e-004 2.90404614e-002
      1.02354854e-001 -3.48642888e-003 -8.54266360e-002 8.22528079e-002
      8.16623792e-002 1.71586294e-002 5.58284149e-002 3.55755500e-002
      6.71040937e-002 1.22093305e-001 -1.15674706e-002 -6.69216588e-002
      -2.82210596e-002 6.52614236e-002 6.72030402e-003 1.27977848e-001
      7.52855241e-002 1.08576529e-001 -3.28823999e-002 -4.68436144e-002
      -2.10237671e-002 1.06548525e-001 -1.68011282e-002 6.89036325e-002
      1.07283711e-001 4.68542352e-002 8.16782638e-002 -6.99319551e-003
      -1.02396838e-001 -6.58175796e-002 7.16870874e-002 -4.65409346e-002
      4.76224013e-002 -6.44986853e-002 1.01438120e-001 8.29011872e-002
      5.86490729e-004 6.10546656e-002 2.52021905e-002 5.96036576e-002
      -1.33746862e-001 -3.86285558e-002 -1.77734680e-002 9.77824628e-002
      1.22409098e-001 -9.46186036e-002 -3.38741094e-002 2.55490225e-002
      -7.14927120e-003 -7.14636520e-002 -8.11241120e-002
      -3.00241564e-003 3.90798151e-002 -1.87467467e-002 -1.24039492e-002
      3.81275788e-002 -4.28939518e-003 3.59156430e-002 1.72056146e-002
      1.58653073e-002 -1.17590681e-001 -1.37454877e-002 1.62658632e-001
      -8.43669623e-002 1.27373740e-001 -6.28565028e-002 4.96932939e-002
      4.99516092e-002 1.14301620e-002 2.63254903e-002 -1.02342226e-001
      -3.51542123e-002 1.44618321e-002 -1.15410388e-001 -2.57456638e-002
      3.40970792e-002 1.30148053e-001 -4.39601056e-002 -1.71734709e-002
      3.37681733e-002 2.44268980e-002 7.35212788e-002 -2.11239487e-001
      -6.54730480e-003 2.37612594e-002 2.45496035e-002 2.68147327e-002
      1.07943408e-001 4.22367230e-002 -1.82915071e-003 5.52623272e-002
      -2.01851234e-001 1.84262749e-002 -8.50262791e-002 4.09025028e-002
      -1.32848412e-001 -5.78638837e-002 1.49991587e-002 9.05658454e-002
      -1.84888579e-002 4.27376479e-002 -1.89982519e-001 -7.37475380e-002
      2.63147522e-002 9.54737235e-003 1.30207837e-002 6.51955009e-002
      -1.14510678e-001 -2.90099951e-003 1.03256501e-001 1.39109239e-001
      -5.40778525e-002 1.93981640e-002 -6.47141561e-002 -4.04245593e-002
      -3.95733379e-002 -1.09315790e-001 1.57842189e-002 -2.04317003e-001
      1.67734604e-002 -2.89540645e-002 -7.15044234e-003 -4.69506271e-002
      1.22045830e-001 1.80384684e-002 1.42688435e-002 -1.21672474e-001
      -2.01123059e-001 -4.34031449e-002 1.81522116e-003 -1.38882190e-001
      1.16684893e-003 -4.45951931e-002 -1.89489007e-001 -1.27568364e-001
      -3.37554291e-002 6.19587582e-003 1.65869504e-001 -6.83148429e-002
      -4.22537662e-002 6.05460964e-002 1.19458012e-001 4.92185578e-002
      -1.56833399e-002 -5.36857657e-002 9.65844691e-002 7.07986951e-002
      7.04600587e-002 1.21812299e-002 -3.41133703e-003 9.99886170e-002
      1.13898247e-001 6.48154095e-002 4.23574969e-002 -1.35724470e-001
      1.44786611e-001 -5.21896407e-002 -7.18370527e-002 -5.89625631e-003
      -1.07462266e-002 -7.04623312e-002 -2.81022936e-002
      -1.04094133e-001 -1.46619886e-001 4.55330312e-002 1.87787339e-001
      -2.02597007e-002 6.27451576e-003 5.16576469e-002 -1.23917554e-002
      7.98562728e-003 1.11530975e-001 8.64637420e-002 1.33534551e-001
      1.69966534e-001 -1.69927590e-002 -2.24429592e-002 4.85078245e-002
      -2.16759816e-002 -2.53995918e-002 2.29627937e-002 2.40547601e-002
      -2.19468065e-002 3.59930843e-002 -1.33876771e-001 -1.41034305e-001
      1.32748857e-003 3.28614749e-002 1.86366756e-002 -7.48259500e-002
      -1.10899463e-001 -3.38986330e-002 -9.67753157e-002
      -5.00728041e-002 2.10660193e-002 -2.31936686e-002 -5.86269759e-002
      -3.05204149e-002 3.74396481e-002 -9.15767811e-003 5.39688319e-002
      -9.25514624e-002 4.03877944e-002 -1.13543525e-001 8.14576522e-002
      4.03647125e-002 1.51390359e-002 -1.46564826e-001 -5.16769886e-002
      -7.42888600e-002 3.83279659e-002 -1.32147133e-001 5.69485761e-002
      1.70323193e-001 -3.57538164e-002 7.46782720e-002 -5.49699217e-002
      8.61396939e-002 6.11388497e-002 3.49037722e-002 -8.15858990e-002
      3.53368260e-002 2.66367737e-002 8.77636373e-002 -2.42064130e-002
      8.91090110e-002 -1.50138915e-001 1.92209721e-001 -5.84312379e-002
      8.55509490e-002 2.08937544e-002 1.08634666e-001 1.10646866e-001
      -3.26205930e-003 -1.03055559e-001 -7.02303350e-002
      -1.58302560e-002 -4.23745364e-002 7.00099692e-002 -5.04133701e-002
      -2.60670092e-002 1.26957268e-001 3.49780805e-002 3.87310609e-002
      2.62270205e-005 4.54463810e-002 4.43672836e-002 -5.33664487e-002
      2.71198549e-003 -3.08418814e-002 5.11468714e-003 -1.57528013e-001
      1.28909260e-001 -5.15344366e-002 -1.84651539e-002 8.09953958e-002
      1.61801130e-002 1.38619617e-001 1.32948026e-001 1.46048162e-002
      1.31142303e-001 -6.16995543e-002 -1.17464527e-001 5.33126555e-002
      -9.00571942e-002 7.51417130e-002 9.77030694e-002 2.20579773e-001
      5.30080348e-002 2.06561118e-001 1.92587897e-001 4.65244725e-002
      -1.51540011e-001 -7.53493160e-002 -1.16249267e-002 1.61424980e-001
      -4.27088840e-003 4.76284847e-002 -1.05197445e-001 -7.67705739e-002
      -6.62236288e-002 3.51429731e-002 2.61926446e-002 7.29150176e-002
      1.02736942e-001 8.10818076e-002 4.88232262e-002 -3.78232077e-002
      6.80031404e-002 1.64254948e-001 1.62405614e-003 -9.27502587e-002
      -1.41674010e-002 4.29111496e-002 1.24840006e-001 3.06264758e-002
      2.05395743e-001 1.17508791e-001 -1.13693997e-001 4.84603569e-002
      -3.96932438e-002 2.44998951e-002 2.66641397e-002 1.51424885e-001
      -3.89748369e-003 1.25784755e-001 -2.54703034e-002 2.95642372e-002
      -8.95571895e-003 -1.45900482e-002 -3.99254560e-002 2.30032615e-002
      1.95335224e-002 2.45600677e-004 -3.49132232e-002 1.23888828e-001
      2.41957586e-002 1.20477760e-002 4.70018536e-002 3.26543450e-002
      -3.43707800e-002 1.16833404e-001 9.06297490e-002 1.03046454e-001
      1.01946205e-001 1.21307142e-001 -5.82005717e-002 -4.64066565e-002
      -1.63004428e-001 -1.05663136e-001 -3.77076492e-002
      -1.27288818e-001 -7.90005848e-002 4.15386111e-002 -2.31477052e-001
      -1.85876787e-002 -3.28560881e-002 -7.06819147e-002
      -1.52774379e-001 4.61566960e-003 8.54717791e-002 -5.92372194e-002
      9.01394784e-002 -3.20691355e-002 5.35326637e-002 6.98320568e-002
      -9.69944671e-002 -2.39958041e-004 4.18722704e-002 3.40239778e-002
      -9.97474715e-002 3.32133584e-002 3.95873040e-002 -5.17403409e-002
      6.00821301e-002 -1.14147700e-001 -5.01485430e-002 1.34357795e-001
      5.59961200e-002 -3.45142074e-002 4.52302545e-002 -8.57848823e-002
      7.31207281e-002 1.16762906e-001 -8.69846717e-002 1.92537252e-002
      1.61871482e-002 -7.83770606e-002 -1.42061040e-001 -7.31838197e-002
      2.33805496e-002 6.40792400e-002 -4.79746498e-002 7.60920942e-002
      -1.33747719e-002 -8.50807205e-002 -9.06061828e-002
      -9.23674554e-002 -1.86695576e-001 -6.92883283e-002
      -1.99707653e-002 6.69070333e-003 5.77647015e-002 4.95496057e-002
      -5.49605004e-002 -5.24082081e-003 -5.40216342e-002 5.04855923e-002
      -2.18427360e-001 3.76332202e-003 -1.02419570e-001 1.90922022e-002
      -4.21341620e-002 -1.85701877e-001 -1.74384981e-001
      -2.07843646e-001 -1.84278652e-001 -9.26750451e-002 7.71673843e-002
      2.00449442e-003 4.41590138e-002 -2.36083614e-003 -1.01200119e-001
      -6.97390065e-002 -5.53424917e-002 -1.41167995e-002 8.82935748e-002
      -1.91134550e-002 5.85081764e-002 4.75589521e-002 -1.02061234e-001
      -1.17159195e-001 -3.98609973e-002 3.73423658e-002 -7.73761123e-002
      6.33726045e-002 -5.77311553e-002 1.12362586e-001 2.51742061e-002
      7.69927446e-003 -3.63590233e-002 -8.12092498e-002 5.74874133e-002
      3.21585201e-002 7.41504058e-002 -6.33084849e-002 -7.16453120e-002
      4.14067656e-002 -1.37466699e-001 -6.22685291e-002 2.48837173e-002
      -4.77615520e-002 -4.20437232e-002 -7.84592852e-002
      -3.50126959e-002 -3.21238376e-002 -8.19612071e-002
      -8.16159025e-002 -1.26753449e-001 -2.37040408e-002 5.98451570e-002
      -1.28786653e-001 3.28899664e-003 -4.95804958e-002 6.15667589e-002
      2.68445536e-002 7.14368299e-002 -1.31047135e-002 -1.24636084e-001
      -7.55668581e-002 -1.59867719e-001 3.26231159e-002 -7.83448592e-002
      -1.59968674e-001 -1.08449645e-001 -5.38865142e-002
      -2.04489380e-002 4.26320359e-002 1.86707884e-001 5.03546633e-002
      -6.08519726e-002 2.15786262e-004 -6.74032718e-002 7.43771568e-002
      3.63421850e-002 -5.29149957e-002 -9.64167193e-002 -1.65176809e-001
      -7.55059272e-002 -5.86809218e-002 4.44742735e-004 -2.11891606e-002
      -6.44990653e-002 8.71915594e-002 -9.00111813e-003 -2.26257257e-002
      -9.07064751e-002 -1.10581487e-001 2.42186338e-001 -2.05138236e-001
      -9.02208760e-002 -2.21358873e-002 1.19020551e-001 5.76383322e-002
      -1.21393139e-002 -2.51338128e-002 -6.10390641e-002
      -1.18155874e-001 -1.41736031e-001 1.03235304e-001 -1.57677196e-002
      1.00557238e-001 4.41412814e-003 1.31077077e-002 1.10525556e-001
      5.26960194e-002 6.02113605e-002 5.14750592e-002 2.38230135e-002
      -3.30735147e-002 4.98197936e-002 1.44486525e-003 8.65633562e-002
      1.09948488e-002 2.22147718e-001 -4.85059507e-002 7.55349770e-002
      1.58100262e-001 7.48296082e-002 -4.95196618e-002 -4.19434160e-002
      -8.44589472e-002 5.83149903e-002 -6.63339421e-002 -4.69919443e-002
      -3.43805701e-002 1.26238605e-002 -1.29521370e-001 1.07821271e-001
      -2.68122251e-003 -1.84866227e-002 8.43504518e-002 1.32786006e-001
      -4.18457501e-002 -7.49802515e-002 -2.41417754e-002
      -6.65950924e-002 -1.08937606e-001 2.42435299e-002 -2.21079271e-002
      1.06215164e-001 8.44213068e-002 8.17787349e-002 2.45941095e-002
      4.80419397e-002 -2.99235748e-004 -1.44247646e-002 2.77894251e-002
      1.75759956e-001 -5.00233509e-002 2.41259336e-001 4.78646457e-002
      2.93444954e-002 -2.40422110e-003 -2.97064334e-002 3.49941775e-002
      -8.88591930e-002 -1.17604621e-001 -3.16503309e-002 7.68105310e-005
      -3.61539088e-002 -1.18282430e-001 -5.97381871e-003
      -1.88560821e-002 9.50668752e-002 4.98134308e-002 -1.82377219e-001
      -7.96285737e-003 7.90798198e-003 -9.25991014e-002 -1.68330520e-001
      2.71781199e-002 9.56925228e-002 8.19035340e-003 -5.41311912e-002
      -5.94200976e-002 -4.31781262e-003 3.61610316e-002 1.09482385e-001
      -1.31345034e-001 -8.03676099e-002 3.62172313e-002 -5.79172522e-002
      -2.15198416e-002 -6.26430213e-002 -7.96427950e-002 1.42590925e-001
      4.22263406e-002 -7.09099472e-002 -4.91769910e-002 -2.35114549e-003
      -9.23794284e-002 -7.51108229e-002 -1.02319002e-001
      -8.82893577e-002 -9.39033553e-002 -6.11478835e-002
      -1.57511145e-001 7.76402801e-002 5.04281884e-003 1.02261253e-001
      1.47285778e-002 1.76794524e-003 -7.52355531e-003 2.40663663e-002
      8.01255256e-002 1.17087469e-001 -5.09955510e-002 1.69514455e-002
      -6.46647215e-002 -8.05208981e-002 -8.71712491e-002
      -4.49810141e-005 -2.24406254e-002 2.66725384e-002 -1.85880587e-001
      3.92869040e-002 -5.34141101e-002 7.81673342e-002 1.24439731e-001
      1.64586082e-001 -3.19852307e-002 -2.75141541e-002 -1.43151879e-001
      2.42248904e-002 -5.79454899e-002 -7.59037659e-002 1.52000725e-001
      1.09592177e-001 -1.60755426e-001 -1.02289557e-001 3.56949568e-002
      -1.52418181e-001 1.27616018e-001 -1.16266329e-002 -8.87889788e-002
      6.63797930e-002 1.34672701e-001 -2.18275264e-002 -4.64543216e-002
      -8.03457126e-002 -7.28750154e-002 1.90192647e-002 1.57879889e-002
      -3.92691344e-002 5.21300212e-002 5.74499443e-002 -1.12266712e-001
      -4.35472429e-002 5.14736474e-002 1.26392737e-001 -1.37513867e-002
      3.99040282e-002 -8.37605149e-002 4.52578301e-003 1.49976134e-001
      -3.97213623e-002 -5.16686067e-002 9.25177932e-002 2.96307784e-002
      3.66159119e-002 1.24543002e-002 -3.93611565e-002 1.74384918e-002
      2.71081701e-002 -9.63268578e-002 -1.52462944e-001 -2.03582868e-001
      -3.84772122e-002 -4.36937734e-002 -2.26844326e-002
      -7.14423656e-002 -3.27412691e-003 1.44541368e-001 -1.95918217e-001
      -8.63773227e-002 -7.63980821e-002 8.30702558e-002 -6.06858544e-002
      -9.75308642e-002 -7.82427341e-002 6.02010153e-002 6.77213445e-002
      -5.01652546e-002 -1.32351771e-001 -5.51274000e-003 4.64854091e-002
      -1.26106381e-001 -4.72522154e-002 8.94843717e-004 7.32357800e-002
      1.24930695e-001 -7.81218782e-002 -1.63791910e-001 1.63379639e-001
      7.33022615e-002 5.24018444e-002 1.09952465e-002 1.09311394e-001
      -5.62267601e-002 1.07615918e-001 7.84372687e-002 -1.88388973e-002
      -1.84894279e-001 -8.62863585e-002 -9.53503400e-002
      -5.25572263e-002 -1.56612173e-001 -6.40856028e-002 5.52649051e-002
      2.69939890e-004 -1.51359662e-001 -3.24707814e-002 -2.83196028e-002
      -3.53803039e-002 -7.95198381e-002 -1.43909857e-001 3.68839949e-002
      4.75851819e-002 1.31549081e-002 -1.21746131e-003 7.45208412e-002
      4.21015806e-002 2.69636475e-002 3.24943513e-002 -2.99616307e-002
      -9.07367393e-002 -5.54293878e-002 -3.15896384e-002
      -3.11135557e-002 5.41215688e-002 -6.91220909e-002 3.24410945e-002
      -2.40332866e-003 -1.67747855e-001 7.26172980e-003 -1.96383037e-002
      6.90358207e-002 -4.38703410e-002 1.54817263e-002 -1.74811468e-001
      -2.72401534e-002 -9.79321450e-002 -1.09331105e-002 9.44431499e-002
      -7.94613734e-002 -9.30424184e-002 -1.69812873e-001 4.42357026e-002
      2.65831929e-002 -1.31197438e-001 8.09335336e-003 7.56297335e-002
      4.20664623e-002 -7.00375587e-002 3.04075927e-002 3.85797024e-002
      7.43826404e-002 8.09201300e-002 4.59693465e-003 -4.14065309e-002
      5.68812131e-004 1.46053478e-001 -2.99692433e-002 -9.30104032e-002
      4.53815684e-002 1.91300303e-001 3.98599021e-002 -5.33541180e-002
      1.69405881e-002 2.10486621e-001 7.57703111e-002 -1.12209022e-001
      1.07072309e-001 6.18978068e-002 6.60909899e-003 1.26124192e-002
      -1.07473597e-001 -1.69320285e-001 -2.01899726e-002 3.46226506e-002
      8.03865027e-003 1.29071400e-001 -6.47897422e-002 9.79440212e-002
      4.42315033e-003 -6.04689829e-002 -2.21938491e-001 -8.33120272e-002
      8.64964947e-002 -4.13839296e-002 2.09781583e-002 7.50201121e-002
      1.02357581e-001 5.26749156e-002 -3.05673927e-002 6.35058880e-002
      1.05352111e-001 -2.35376321e-002 9.88300219e-002 4.23364118e-002
      4.88003865e-002 5.23682572e-002 1.10351063e-001 8.94726217e-002
      -1.97468437e-002 -4.06996049e-002 5.10750860e-002 2.92119458e-002
      3.13981175e-002 -7.04689398e-002 2.16210056e-002 -2.21117213e-001
      1.62130639e-001 -1.55160937e-003 4.45496105e-002 7.94064254e-002
      1.36996493e-001 -5.86493351e-002 -5.63861243e-002 -4.54554940e-003
      6.16893433e-002 -5.48976250e-002 -1.13443501e-001 -1.32258132e-001
      -2.82070991e-002 1.07646331e-001 -2.37949826e-002 -7.10894689e-002
      7.94193372e-002 5.71085699e-002 6.28838986e-002 1.17090933e-001
      5.69529785e-003 -2.10724529e-002 8.73154178e-002 -2.32679863e-002
      1.28142357e-001 -4.99727055e-002 1.56461462e-001 -6.91363364e-002
      4.28100154e-002 -1.58853475e-002 4.23582084e-002 1.18222035e-001
      -4.88936640e-002 -8.31940472e-002 -2.51304023e-002
      -2.15143919e-001 1.90079808e-002 -1.64379269e-001 -6.06063046e-002
      -9.84199122e-002 1.55959159e-001 1.15352143e-002 2.14945488e-002
      4.30350415e-002 -1.82790324e-001 -5.75818978e-002 2.77382024e-002
      -7.48091564e-002 9.05029196e-003 1.07500143e-001 -8.65729749e-002
      -2.88378987e-002 -1.08736202e-001 -1.58077821e-001 3.85450795e-002
      3.64306271e-002 -4.71906327e-002 -1.13267638e-002 1.66881785e-001
      5.95950894e-002 8.24009329e-002 -1.92447193e-002 2.32872050e-002
      -3.33634615e-002 1.79431722e-001 2.37709703e-003 -4.16651629e-002
      2.00900505e-003 1.89669821e-002 3.01926918e-002 7.02978745e-002
      -4.55470048e-002 -4.92498418e-003 5.42414337e-002 -3.00303232e-002
      -1.38872331e-002 -8.80109612e-003 -5.08869924e-002
      -7.45388940e-002 -7.72906169e-002 7.03141391e-002 1.24953493e-001
      1.65184923e-002 1.55463871e-002 -1.65740564e-001 -9.89345014e-002
      -6.91917688e-002 -1.79229602e-002 1.66253924e-001 -6.33415133e-002
      -2.07344353e-001 -4.59289998e-002 -1.20440170e-001 5.91309518e-002
      1.15021374e-002 4.50817384e-002 -1.35290086e-001 -1.42785972e-002
      1.33297415e-002 -4.99452166e-002 1.58117134e-002 -1.76158100e-002
      2.32282877e-002 4.68962640e-002 -1.66219220e-001 6.29367009e-002
      -5.55872060e-002 -5.06966747e-003 3.45586948e-002 -4.37503494e-002
      -5.21908142e-002 7.99385179e-003 2.00556796e-002 -1.02915317e-001
      -2.72244960e-003 -2.51337979e-002 8.42036959e-003 1.14079751e-001
      -6.83082715e-002 -4.18082662e-002 6.71295226e-002 4.22803387e-002
      1.08649842e-001 6.52485862e-002 -6.68709725e-003 -6.50043935e-002
      -1.02545964e-002 -2.67473385e-002 -1.47769193e-003
      -8.79238024e-002 3.10896020e-002 4.70774360e-002 -3.65500003e-002
      -1.25858977e-001 -1.26505926e-001 -1.08453697e-002
      -1.06471442e-001 -1.37748510e-001 3.92140970e-002 2.65169032e-002
      -8.38922262e-002 3.06510795e-002 4.78193201e-002 -7.78671354e-002
      -5.53456694e-002 1.09378779e-002 9.33291614e-002 5.96579276e-002
      -8.65941122e-002 -1.82996869e-001 -2.58584190e-002 3.78904194e-002
      -4.04583709e-003 -5.39325401e-002 -2.55771093e-002 6.18069246e-002
      1.10412128e-001 4.65802476e-002 6.38370076e-003 1.91471010e-001
      1.04398489e-001 -8.10665190e-002 1.65844485e-001 -1.46071827e-002
      1.18671685e-001 1.68415159e-002 1.23198457e-001 -3.71856652e-002
      -9.11132693e-002 1.01648189e-001 -2.59047039e-002 -4.02497947e-002
      3.01946569e-002 -1.09138740e-002 4.98548476e-003 -1.30146787e-001
      -1.51499823e-001 1.13357224e-001 7.31877685e-002 8.49446356e-002
      4.83613648e-002 1.16486572e-001 1.67217515e-002 6.35501146e-002
      -1.33679463e-002 5.13190702e-002 8.00535735e-003 -1.88667290e-002
      -1.03815541e-001 8.06499198e-002 1.40637860e-001 1.00578144e-001
      -4.16586660e-002 -6.01134785e-002 -1.14737965e-001 4.15637270e-002
      1.01190738e-001 9.60947014e-004 2.55726222e-002 -1.68736000e-002
      -1.80291925e-002 1.02836825e-001 2.14314647e-002 1.71448976e-001
      -1.16001852e-002 9.78945568e-002 1.37868179e-002 1.33745614e-002
      6.97554797e-002 -3.30911689e-002 9.64660104e-003 -5.36001613e-003
      6.50986508e-002 -2.54657064e-002 2.75059622e-002 -3.17171477e-002
      -6.13907725e-002 3.97422127e-002 -1.90016404e-002 7.84276891e-003
      6.85637370e-002 -4.89302911e-002 -7.40273520e-002 -1.69479530e-002
      -4.51449268e-002 -1.74650736e-002 -6.43191393e-003
      -4.10052389e-002 8.10511690e-003 -4.96614687e-002 6.40218146e-003
      6.65904954e-002 1.85139924e-002 2.40714811e-002 -1.63287163e-001
      4.55354117e-002 -4.79123043e-003 -4.23463844e-002 -4.27613780e-002
      -7.51285702e-002 -5.69979195e-003 2.35954504e-002 -1.33278044e-002
      -2.54822582e-001 -8.22122321e-002 -5.54423630e-002 4.33009155e-002
      -2.45884825e-002 -1.51005387e-001 -9.00348201e-002
      -8.05232748e-002 9.83570814e-002 5.76502793e-002 1.38151636e-002
      9.94041115e-002 1.85291141e-001 2.15332247e-002 -8.60700235e-002
      -6.89368024e-002 -9.50636491e-002 3.59809138e-002 -4.38442314e-003
      -9.27175730e-002 2.04690546e-001 -4.23232503e-002 -8.78786221e-002
      -2.38279607e-002 2.76928414e-002 -7.04419985e-002 4.13635522e-002
      1.32020991e-002 -4.31712456e-002 4.29389253e-002 5.58885001e-002
      -7.75130168e-002 -6.24229386e-002 -2.03507096e-002
      -2.35054251e-002 -6.45533428e-002 -4.05759700e-002
      -1.03033043e-001 9.11386758e-002 -2.55426932e-002 -8.81292000e-002
      2.13063322e-002 2.65083439e-003 -8.69668946e-002 -4.51388024e-002
      -1.41915843e-001 -7.71159232e-002 8.45213160e-002 4.98450696e-002
      9.74344239e-002 9.32230875e-002 2.65191868e-002 -6.93205521e-002
      -2.22164363e-001 -5.70814945e-002 -1.99434608e-002 1.45490617e-002
      7.58348107e-002 -1.39659941e-001 6.17418624e-002 6.42029494e-002
      -9.29438770e-002 1.31239519e-001 -3.20301294e-001 -5.80268428e-002
      7.83589333e-002 -1.50011368e-002 1.73233375e-002 -3.65777574e-002
      4.83739302e-002 1.94985107e-001 -9.79655683e-002 7.08607659e-002
      7.22835585e-002 2.40536910e-002 5.19667938e-002 -8.29927158e-003
      9.43568069e-003 3.38540040e-002 2.35668607e-002 -8.48304555e-002
      3.89003917e-003 -3.20027731e-002 1.25435460e-002 1.42048951e-002
      -2.38427921e-004 -1.29498526e-001 5.59417009e-002 -1.11006416e-001
      -5.72330654e-002 -1.42128104e-002 1.90080609e-002 4.48873751e-002
      -6.21161424e-002 -9.03458223e-002 -1.76053122e-001
      -2.51910575e-002 -1.70481563e-001 3.20888981e-002 4.96456511e-002
      1.19627565e-001 5.51874191e-002 2.05844566e-002 3.43303718e-002
      -5.38138375e-002 1.01391591e-001 -1.00079939e-001 -8.75625387e-002
      1.37695402e-001 1.85118429e-002 -2.87493356e-002 3.94482240e-002
      -4.95314002e-002 -5.47907725e-002 1.42628103e-002 -4.41133336e-004
      6.78342069e-003 -1.17371030e-001 -6.66533485e-002 8.68504494e-002
      9.49564129e-002 8.18063989e-002 3.52319814e-002 4.56000455e-002
      4.63914722e-002 -3.28670852e-002 -2.94575598e-002 -1.23000024e-002
      5.76715656e-002 2.59983018e-002 -6.96051791e-002 -9.53301787e-002
      3.93557400e-002 -1.01948969e-001 1.03388801e-002 -1.82025004e-002
      5.54036014e-002 1.44908950e-002 9.43919569e-002 -1.15919542e-002
      -3.10057960e-002 -5.17992452e-002 1.62925646e-001 -5.93597908e-003
      1.44754365e-001 1.54135730e-002 6.32614344e-002 2.47666463e-002
      3.85604985e-002 3.56287286e-002 6.86253309e-002 -1.38933033e-001
      -1.31968722e-001 2.67744251e-002 1.94643680e-002 -2.35069003e-002
      -8.50576758e-002 7.56604820e-002 -1.43886218e-002 -5.53569496e-002
      -3.23180971e-003 -3.66250537e-002 -5.89885972e-002
      -2.40820739e-002 -1.30402073e-001 -8.35440084e-002
      -1.03809953e-001 2.79061031e-002 -1.01623796e-001 3.06820273e-002
      -7.97464699e-002 4.91937846e-002 -1.32086024e-001 -1.93965271e-001
      -1.56483293e-001 -2.14901511e-002 -2.43681576e-003
      -1.33328632e-001 1.90332577e-001 -3.87499332e-002 7.32300803e-002
      -1.28525142e-002 -1.27568126e-001 -6.32174360e-003
      -4.45938706e-002 -8.01602229e-002 3.48466262e-002 3.73768620e-002
      -1.21051289e-001 -4.08940613e-002 -1.56011814e-002 6.42919168e-002
      1.83176160e-001 -1.74270701e-002 -2.99348589e-002 -5.00588976e-002
      -1.10331282e-001 -1.38729155e-001 -5.06137796e-002 5.59769711e-003
      2.78659910e-001 -7.31167868e-002 -2.11269379e-001 -6.89881817e-002
      2.28736401e-002 -3.79267037e-002 -2.84921695e-002 1.42822608e-001
      7.92796463e-002 -4.14540768e-002 2.05246010e-003 -1.42185643e-001
      1.52053446e-001 -2.12108511e-002 -2.23315600e-002 8.45262706e-002
      4.22288626e-002 5.56298299e-003 7.77289793e-002 7.00791925e-002
      7.06927897e-003 2.65146997e-002 9.71193314e-002 7.94898644e-002
      -1.07786208e-001 7.25858137e-002 -3.35994512e-002 1.35733500e-001
      -6.21667095e-002 3.88356820e-002 -4.74730097e-002 1.54407294e-002
      -3.09066828e-002 4.47266251e-002 9.23745036e-002 -9.87816229e-003
      -9.05650482e-002 3.82784009e-002 -8.95046219e-002 5.11216968e-002
      -6.75921217e-002 -4.04143482e-002 9.56476331e-002 -2.13232674e-002
      -8.87395665e-002 4.66432795e-002 3.83276306e-002 1.50624691e-002
      3.18655558e-002 -5.62102348e-002 4.51570936e-002 2.10656986e-001
      -8.92506391e-002 -3.45708057e-002 -9.00759473e-002 6.51679635e-002
      1.19357333e-001 -2.57817470e-002 2.26170886e-002 -5.83467633e-002
      -1.70052573e-001 7.70041868e-002 1.95083916e-002 1.33705596e-002
      -8.11896995e-002 -2.08905414e-002 9.85508859e-002 1.08188666e-001
      5.99323660e-002 1.46757647e-001 1.66745968e-002 -2.90448274e-002
      -5.12553193e-002 1.78020239e-001 8.36578533e-002 -3.83103490e-002
      -1.62336230e-001 -1.39227256e-001 1.06310928e-002 2.86838766e-002
      1.32092163e-001 -7.97466934e-002 4.22780449e-003 -1.12922326e-001
      1.21321119e-001 8.54361430e-002 -1.24406172e-002 1.12086624e-001
      -2.57611454e-001 -1.73437029e-001 -1.94161788e-001 7.79443756e-002
      8.34178776e-002 -6.36879355e-002 -8.02228376e-002 -5.48090301e-002
      -2.41526648e-001 5.71831241e-002 6.97822124e-002 -4.80813487e-003
      7.71245286e-002 1.10180698e-001 2.86666844e-002 1.18372083e-001
      1.51228577e-001 2.27114037e-002 5.94442431e-003 2.39805952e-001
      1.71758700e-002 1.07815988e-001 -1.01490952e-001 -1.24922559e-001
      -1.60755962e-001 -7.20676035e-002 6.06312370e-003 5.96135529e-003
      7.89821148e-002 -9.32020172e-002 2.03973576e-002 8.42935443e-002
      4.31093685e-002 7.47057796e-002 -2.23104041e-002 8.31701607e-002
      -7.11103342e-003 2.36121982e-001 -1.32873310e-002 9.72169638e-002
      -4.93680052e-002 7.00772703e-002 -1.03312731e-002 1.04906909e-001
      8.71037692e-002 -1.86766237e-001 -4.48713228e-002 -5.67707494e-002
      1.03641637e-001 -3.59203741e-002 6.17475174e-002 -8.85762051e-002
      -7.78659806e-002 2.27106605e-002 -5.14216162e-003 1.05289288e-001
      4.62074205e-002 6.91471621e-002 1.21846542e-001 1.31853223e-001
      -9.45894048e-003 4.94260378e-002 -6.84867650e-002 -1.34395242e-001
      -1.17013372e-001 5.80319716e-003 8.63238126e-002 7.52620175e-002
      1.85725596e-002 -4.28644866e-002 -7.22334310e-002 -1.10534176e-001
      -8.39752704e-002 -3.00654005e-002 4.82891500e-003 8.31161141e-002
      9.12645385e-002 7.64151616e-003 -6.80705439e-003 8.10578689e-002
      -1.36876721e-002 9.60671436e-003 9.74087566e-002 5.21937758e-002
      -5.88377416e-002 -2.60747690e-002 -1.03874698e-001 7.09688067e-002
      -2.90575344e-002 -1.47396037e-002 9.19016451e-002 8.84734280e-003
      -5.31635694e-002 1.04185119e-001 1.00387007e-001 -3.85401957e-002
      6.67851418e-002 1.01462208e-001 -3.22878323e-002 -6.01615049e-002
      -1.01800792e-001 -7.73831690e-003 3.59896794e-002 2.03990727e-003
      -8.43893886e-002 -1.40193701e-001 -6.73145577e-002
      -3.03369574e-002 -1.66113265e-002 -2.80781984e-002 3.22173089e-002
      6.19490594e-002 -5.84114492e-002 -1.45325214e-002 1.48334950e-001
      1.10912785e-001 -5.09736724e-002 1.02976516e-001 4.18851636e-002
      7.05758184e-002 1.46220818e-001 1.22304402e-001 7.50543699e-002
      -1.40770595e-003 3.88060994e-002 -3.18606272e-002 -1.84072349e-002
      -4.04406227e-002 3.59784514e-002 8.51603225e-002 -4.94358279e-002
      1.30355619e-002 6.45077452e-002 1.29535899e-001 -1.64389446e-001
      3.49613838e-002 -1.01447642e-001 1.85654480e-002 1.11465655e-001
      -1.15724178e-002 5.71053624e-002 -1.44634679e-001 1.38663799e-002
      -5.49887717e-002 -2.04851441e-002 -1.35123834e-001
      -4.44157124e-002 7.89649487e-002 -5.89149185e-002 8.05374309e-002
      6.88728392e-002 1.23324648e-001 1.19015858e-001 8.55708197e-002
      -4.55777533e-002 1.56083272e-003 8.21213946e-002 5.27994707e-002
      2.32006744e-001 1.49646908e-001 -4.22249772e-002 -3.99276242e-002
      -3.83832008e-002 -5.07825129e-002 1.43812820e-002 1.30699217e-001
      -1.24729916e-001 2.28425954e-002 -8.20607762e-004 1.09551974e-001
      8.84692222e-002 1.18139677e-001 -1.43396169e-001 -7.00798705e-002
      1.03590541e-001 -9.31624025e-002 2.22827241e-001 -1.50653236e-002
      -1.07288640e-003 -7.27254078e-002 -2.23369803e-002
      -1.58724606e-001 2.65671760e-002 4.80555557e-002 -4.81267720e-002
      3.53327878e-002 2.66883783e-002 1.95941571e-002 1.65845975e-001
      -3.10709514e-002 1.20525301e-001 5.11776134e-002 9.96962488e-002
      4.87704538e-002 3.86550725e-002 -1.60353724e-002 1.43095255e-001
      -4.18054052e-002 -7.73351789e-002 -3.38547379e-002 5.01502901e-002
      5.65679483e-002 -9.29314494e-002 4.51036310e-003 -6.83339089e-002
      8.66566896e-002 -1.79901216e-002 6.75670356e-002 -2.85682268e-002
      3.97817492e-002 1.03070177e-001 -1.37547672e-001 1.21081106e-001
      -6.97857440e-002 1.28874481e-001 2.18661726e-002 -1.57361142e-002
      4.57434077e-003 9.42297801e-002 4.93834205e-002 -7.00915009e-002
      1.56158023e-003 6.89020082e-002 2.99253091e-002 1.21867336e-001
      1.46071345e-001 -8.96155760e-002 9.47546586e-003 1.58488214e-001
      -2.56046727e-002 -8.60176701e-003 2.26343479e-002 3.50104645e-002
      4.16520648e-002 7.86719769e-002 -7.10505247e-002 1.19350761e-001
      5.64919598e-002 -1.74564883e-001 2.21303012e-002 1.26377583e-001
      2.55631260e-003 1.44981658e-002 -5.08654527e-002 -1.35607004e-001
      -2.17423365e-002 1.70657381e-001 -2.95972056e-003 1.50437132e-001
      -4.26388681e-002 1.64336115e-001 -4.48175035e-002 1.35127753e-001
      -1.26798764e-001 4.85057980e-002 1.22364879e-001 -5.60581796e-002
      -5.47511689e-003 -1.15333632e-001 -1.95385944e-002 1.09319329e-001
      -1.06252342e-001 -5.06534912e-002 3.47480588e-002 7.41107613e-002
      4.81280684e-002 -2.80325972e-002 1.68509945e-001 2.86681615e-002
      6.16348581e-003 -9.69974417e-003 -2.69370023e-002 1.05663277e-002
      -7.23441020e-002 -5.69158159e-002 -3.29448693e-002
      -2.52344888e-002 1.18507534e-001 1.30635753e-001 1.04469076e-001
      -1.11502275e-001 -1.02763670e-002 9.65689197e-002 6.30013868e-002
      6.60900678e-003 4.52503376e-002 8.72486457e-002 -1.32595431e-002
      1.60931461e-002 -6.98342323e-002 -1.50472343e-001 5.81880426e-003
      -9.05198380e-002 -1.19285569e-001 1.63018763e-001 -1.05754808e-001
      -4.53565903e-002 3.69969271e-002 6.27026558e-002 -1.91357806e-002
      -8.47937167e-002 -6.29861979e-003 6.23922832e-002 1.52675971e-001
      -1.00704677e-001 -6.34862781e-002 1.00539781e-001 1.00296112e-002
      -8.44160244e-002 1.76349431e-002 -1.45431727e-001 -1.78669356e-002
      5.64023964e-002 1.21491449e-003 -2.22172262e-003 1.31303491e-003
      -7.44361803e-002 -8.34195390e-002 6.54268041e-002 -3.53633389e-002
      7.24641308e-002 -1.00769565e-001 2.61491183e-002 1.71577737e-001
      1.89664200e-001 -4.32275655e-003 -3.48616578e-002 -9.64053944e-002
      -5.67281358e-002 -7.15411380e-002 2.55814679e-002 -6.01865910e-002
      -1.00688711e-001 7.59013295e-002 4.37199920e-002 -4.77221645e-002
      3.23950429e-003 -4.07557748e-002 -9.80781298e-003 -8.19149241e-002
      -2.31381599e-002 -4.15748544e-002 -2.25680396e-002
      -1.26250699e-001 5.72726354e-002 1.02737635e-001 9.61304232e-002
      -5.35005145e-002 -5.43385223e-002 -2.61536315e-002
      -8.24648291e-002 2.12740898e-001 -8.42961483e-003 -7.81244785e-002
      8.72117579e-002 1.11792497e-001 7.45522901e-002 -9.11057368e-002
      7.59179667e-002 -3.37459380e-003 -3.17282118e-002 -5.32558747e-003
      5.21896444e-002 5.01627363e-002 -4.08660173e-002 3.11885811e-002
      6.40305057e-002 -6.89158440e-002 -2.72684276e-001 -3.03037800e-002
      -1.47163630e-001 -6.24825992e-002 -4.78229523e-002
      -3.49995075e-003 1.20444275e-001 9.71861109e-002 2.46033277e-002
      -7.87823200e-002 2.90061459e-002 -1.40832085e-002 -6.88546002e-002
      1.43909410e-001 1.04466788e-002 -4.32725176e-002 -2.70224549e-002
      9.46564302e-002 -5.30626290e-002 -2.24055033e-002 4.21077907e-002
      7.24950582e-002 -2.36502127e-003 -3.59139442e-002 1.50504773e-002
      6.99592903e-002 1.04219496e-001 -7.49242753e-002 1.18280551e-003
      -6.70339772e-003 -5.37336012e-003 9.11021512e-003 9.85789765e-003
      4.68729064e-002 1.54554024e-001 -1.42488137e-001 -2.27412388e-001
      1.10846065e-001 -3.28029990e-002 -2.57932823e-002 7.54050836e-002
      -9.52844247e-002 8.69310126e-002 -1.20745972e-001 -1.20227011e-002
      -9.76544991e-002 2.61884984e-002 -3.32711264e-002 -4.31013964e-002
      4.60518710e-002 -6.92541152e-002 -3.87586234e-003 9.40112695e-002
      -9.05877575e-002 1.64422952e-002 8.90626237e-002 -1.51143642e-002
      -2.55514774e-002 2.71474365e-002 -4.31943908e-002 7.22705275e-002
      4.29455563e-002 2.14833599e-002 -3.48439477e-002 9.57283676e-002
      2.84925774e-002 -2.13453663e-003 1.36545360e-001 -4.24117297e-002
      1.47895336e-001 -5.73068075e-002 6.67922795e-002 -1.41212232e-002
      9.71346200e-002 -1.16576567e-001 4.47931625e-002 1.62842810e-001
      -5.64208254e-002 2.36901611e-001 -5.08683501e-003 6.48408607e-002
      1.69151157e-001 -6.49793148e-002 5.61867002e-003 1.49703100e-002
      1.53223991e-001 -6.32206798e-002 8.86662379e-002 -1.76842541e-001
      1.26405181e-002 3.74010541e-002 6.00116588e-002 -3.63615006e-002
      -1.01475164e-001 1.79672554e-001 -1.72236450e-002 1.31110787e-001
      1.30966261e-001 3.68476589e-003 4.42714617e-002 -5.05723059e-002
      -3.10081281e-002 1.75312776e-002 1.56727999e-001 4.17990126e-002
      1.16906732e-001 6.40608445e-002 -7.94222131e-002 -1.93745539e-001
      9.78091285e-002 4.48422786e-003 3.75689082e-002 -1.82463638e-002
      7.98443630e-002 2.10993081e-001 4.06176113e-002 -6.49492890e-002
      1.18551524e-002 -3.92705435e-003 -1.12660684e-001 -1.55380562e-001
      9.57624763e-002 -8.91936645e-002 8.76481086e-002 -6.02274835e-002
      -4.85867485e-002 2.50383443e-003 -5.88349514e-002 -2.92037614e-002
      -8.05795342e-002 9.18106511e-002 5.08645400e-002 9.81343016e-002
      2.81422567e-002 -1.60894748e-002 1.96105629e-001 3.06655187e-002
      -9.61417481e-002 -1.65591732e-001 2.00881995e-002 -4.02066745e-002
      1.90575719e-002 -4.19685505e-002 -8.78444090e-002 -2.09465966e-001
      2.05150396e-001 3.01875472e-002 -4.79428135e-002 8.17581639e-002
      1.20860986e-001 8.47159699e-002 -1.15087107e-001 -6.46608174e-002
      3.44389677e-002 1.77542921e-002 6.87233359e-002 -3.05406824e-002
      2.06878409e-001 1.02780141e-001 -1.44293075e-002 -9.02246386e-002
      3.47212851e-002 1.15082234e-001 1.30461842e-001 -9.95066017e-003
      -1.06574960e-001 1.91205382e-001 2.49992162e-001 2.19321132e-001
      -4.14794311e-002 3.48092988e-002 9.08638984e-002 -5.89846261e-002
      -1.65770888e-001 -1.09617352e-001 1.33733705e-001 1.61931310e-002
      8.61393139e-002 -4.96114492e-002 1.30936354e-001 8.68441388e-002
      -8.07225984e-003 -2.11126339e-002 5.31996489e-002 1.89892054e-001
      1.54079986e-003 1.07488006e-001 1.85759533e-002 -1.50921509e-001
      6.62820414e-002 -7.13792592e-002 -4.40481193e-002 9.52108875e-002
      -7.49934604e-003 -2.49607906e-001 8.18397328e-002 -5.33337565e-003
      1.41078070e-001 4.14412394e-002 6.24022111e-002 -1.45280600e-001
      3.06320060e-002 1.00458443e-001 -1.28539771e-001 2.18884215e-001
      2.07711644e-002 -6.99273795e-002 -8.21735784e-002 -4.91747744e-002
      -1.91995144e-001 -5.63259684e-002 1.87572733e-001 3.69978152e-005
      -4.75027822e-002 -1.16175994e-001 -9.29422677e-002 1.05889417e-001
      -7.24053085e-002 -1.45730406e-001 9.61609334e-002 1.30711868e-001
      1.51969612e-001 1.79868087e-001 7.21970864e-004 -2.17702627e-001
      6.61428273e-002 7.65463561e-002 4.12948057e-002 1.52094942e-002
      9.58003029e-002 -1.64382651e-001 -1.69748776e-002 -7.13241287e-004
      2.01728716e-002 1.93897858e-001 3.86709049e-002 -1.41876146e-001
      -7.57438987e-002 -1.92419514e-002 -1.23644821e-001 6.89410195e-002
      -1.10816089e-002 3.87489125e-002 -6.16754815e-002 2.11449400e-001
      4.35671732e-002 -3.66273560e-002 1.13760084e-001 -6.25410005e-002
      6.35027736e-002 1.12698570e-001 -1.41750321e-001 -7.65022039e-002
      4.32307981e-002 1.56693021e-003 -2.91230250e-003 1.47101998e-001
      5.59616312e-002 1.54584631e-001 -1.64845586e-002 -8.64658207e-002
      6.40829727e-002 1.14809811e-001 -1.67684317e-001 -3.59776430e-002
      2.27403101e-002 -1.58896118e-001 8.15082192e-002 6.96327239e-002
      -1.17356777e-002 -8.71252716e-002 2.01260641e-001 -8.40670839e-002
      3.59797813e-002 5.63884154e-002 2.44280528e-002 1.60999238e-001
      -7.94113129e-002 -2.33129952e-002 -3.29343090e-003
      -3.05669289e-002 -1.98212489e-001 -1.18565634e-001 1.30048349e-001
      -3.73382345e-002 -7.28148874e-003 1.22172169e-001 -3.51848342e-002
      1.99531361e-001 1.42675832e-001 -1.04115658e-001 5.62209170e-003
      1.62944451e-001 2.14877594e-002 1.75581515e-001 3.00178993e-002
      2.34607141e-002 6.40210733e-002 4.97673713e-002 -8.33213106e-002
      3.30655277e-002 7.51053691e-002 -7.68247917e-002 -8.05339441e-002
      2.55007058e-001 4.76940796e-002 1.26224551e-002 3.55365947e-002
      -1.29865557e-001 -2.40460690e-002 2.18377747e-002 -7.58641437e-002
      2.10319102e-001 -3.54111940e-002 -1.20605536e-001 -4.16343026e-002
      5.30097149e-002 -1.32089071e-002 2.59806477e-002 1.16542540e-001
      -6.82110637e-002 -4.87801470e-002 -1.53744563e-001
      -1.76852271e-002 1.04457058e-001 6.41615242e-002 4.11071181e-002
      1.69337224e-002 1.91582993e-001 4.13277037e-002 7.87634626e-002
      3.93282175e-002 -4.53761406e-002 1.65286377e-001 6.06976226e-002
      1.23774789e-001 -1.45658804e-003 -3.19882929e-002 -1.77166611e-001
      -2.50424668e-002 6.76542670e-002 5.26506035e-003 -4.06988859e-002
      -1.08361557e-001 -1.76869705e-001 -6.82002679e-002 8.56351554e-002
      -8.49297456e-003 1.41260669e-001 -3.65476534e-002 -4.52511497e-002
      4.78287265e-002 -2.11545490e-002 -8.21076781e-002 5.95360883e-002
      1.12617329e-001 -6.16971068e-002 1.01942040e-001 6.80032447e-002
      4.52580955e-003 1.52606890e-002 -1.17264286e-001 3.81912589e-002
      4.83545475e-002 7.08632395e-002 6.49065673e-002 5.31110764e-002
      -1.31491169e-001 1.10013373e-002 -7.09934831e-002 -5.76385520e-002
      -6.68483526e-002 4.64154705e-002 8.27379227e-002 -8.18684250e-002
      5.83384298e-002 2.86300611e-002 -1.80821791e-002 -6.14461908e-003
      -3.45369577e-002 -8.64931867e-002 4.63977791e-002 1.86988115e-001
      4.74938378e-002 1.35417551e-001 -7.23158047e-002 2.39855334e-001
      -1.44033596e-001 -3.07213720e-002 -1.00564554e-001 7.68691450e-002
      -6.08917922e-002 7.90068731e-002 1.39926942e-002 3.74770127e-002
      -1.32587599e-002 1.67544216e-001 -2.67553199e-002 -6.67179748e-002
      -7.00412467e-002 9.88918766e-002 1.79593667e-001 1.11210600e-001
      9.52273160e-002 8.62932578e-002 5.67130037e-002 -3.72624360e-002
      -9.94269848e-002 -6.70263320e-002 7.83185735e-002 8.43108892e-002
      2.52981484e-002 -5.67622967e-002 1.48940114e-002 1.67656004e-001
      -1.96901280e-002 -8.47036988e-002 1.04470678e-001 1.22599073e-001
      8.94701928e-002 1.16994001e-001 -5.51439971e-002 1.11483082e-001
      -3.38724479e-002 -1.04194254e-001 -8.42222199e-002 1.51888803e-002
      6.16933703e-002 -2.18249043e-003 -4.54972200e-002 5.89712663e-003
      -1.15853205e-001 1.20316064e-002 1.45648827e-003 -2.57085841e-002
      -2.16408111e-002 3.15551013e-002 1.46200702e-001 1.46103740e-001
      -5.23034371e-002 6.61954582e-002 1.20140128e-001 1.72898024e-001
      -2.77052969e-002 -4.66419607e-002 -7.74917826e-002
      -2.16679145e-002 -1.01191230e-001 4.66773473e-002 -1.41780913e-001
      -1.15061574e-001 -1.81382019e-002 2.15422530e-002 2.02193353e-002
      3.21384631e-002 1.15905911e-001 2.55384535e-001 -1.18479887e-002
      1.49011746e-001 3.40796374e-002 9.06112343e-002 1.16041917e-002
      1.07072726e-001 6.24100268e-002 1.31379455e-001 9.15682167e-002
      -5.32164350e-002 -2.92436639e-003 -4.12310287e-002 5.48569299e-002
      -1.55240178e-001 -1.03304073e-001 7.87166730e-002 2.08318666e-001
      9.33883563e-002 -1.38170153e-001 -1.29801957e-002 8.95453468e-002
      -2.89879423e-002 -1.56765226e-002 8.91628955e-003 1.69706210e-001
      1.20455429e-001 5.44452555e-002 -8.16169288e-003 1.34699672e-001
      1.63805822e-003 -2.45471857e-002 7.85187557e-002 4.78114597e-002
      1.26026392e-001 1.93087868e-002 8.08128715e-002 1.10042281e-002
      8.89316276e-002 9.10582393e-002 1.94069773e-001 2.40133077e-001
      1.30182296e-001 5.74760996e-002 1.19583040e-001 1.46080270e-001
      6.69664592e-002 1.44657504e-003 -1.29977867e-001 -1.25857845e-001
      5.07591441e-002 3.91299650e-002 -2.70938836e-002 5.16729169e-002
      5.40687107e-002 2.25987434e-002 1.24989212e-001 -6.49194717e-002
      -4.10496742e-002 -2.97705624e-002 -7.45263696e-002 3.67560349e-002
      -2.97975969e-002 3.35167982e-002 6.56847209e-002 -6.90604970e-002
      -6.98857382e-002 4.96183001e-002 1.58654720e-001 9.07119885e-002
      2.18386203e-003 -3.64417303e-003 6.21365346e-002 -1.03025837e-002
      1.23497024e-001 -1.43966123e-001 5.62621579e-002 5.00021763e-002
      -3.78550254e-002 4.85496856e-002 -8.89484212e-002 1.32435849e-002
      7.56991059e-002 -5.56804277e-002 -2.15835676e-001 -4.09354605e-002
      -1.06635265e-001 -1.03669234e-001 1.14789866e-001 -7.50738615e-003
      4.02167514e-002 -3.65516245e-002 5.14311828e-002 -9.78328362e-002
      5.45376986e-002 -6.12422228e-002 -7.79097378e-002 4.40310948e-002
      1.13922749e-002 1.34420753e-001 -8.38529021e-002 1.14016980e-001
      -5.75133115e-002 8.48788396e-002 1.77286416e-002 7.07468465e-002
      1.36235237e-001 -1.18963746e-002 1.02900520e-001 7.15969354e-002
      1.14705209e-002 4.42743599e-002 -7.32479093e-004 5.98971471e-002
      1.67383164e-001 6.47657216e-002 -2.49183644e-002 -9.58429277e-002
      6.63285702e-003 1.46590576e-001 -6.21371195e-002 1.37990527e-002
      -8.56033340e-002 -1.14300936e-001 1.37670249e-001 -6.60712048e-002
      -3.48713435e-002 -3.19440961e-002 -6.83441013e-002
      -5.08391783e-002 -1.23212539e-001 -1.29109740e-001 2.53310371e-002
      2.50972323e-002 -1.30009130e-001 2.16996819e-002 -6.03331774e-002
      8.10338929e-002 2.23667212e-002 -8.64726200e-004 2.27912497e-002
      2.92898584e-002 1.70862958e-001 -8.06015059e-002 2.21013963e-001
      9.21766162e-002 1.07401550e-001 1.68299109e-001 1.99012533e-002
      -1.04394853e-002 8.60460028e-002 1.16224065e-001 -3.76574509e-002
      -1.75044313e-003 -7.02699460e-003 -5.07929251e-002
      -1.36477038e-001 -1.11913718e-001 -9.49722975e-002
      -2.00655870e-002 1.77806839e-001 8.15535560e-002 5.30896820e-002
      5.52156493e-002 1.15148239e-002 8.36545154e-002 -9.12437513e-002
      -2.23336115e-001 -5.99774420e-002 1.76956177e-001 -1.24328718e-001
      -2.24559195e-002 -6.79753050e-002 1.22555383e-001 5.21582514e-002
      -4.69566509e-002 4.58018072e-002 4.95501421e-002 1.84624150e-001
      6.85947686e-002 1.75629914e-001 1.35404035e-001 1.53790843e-002
      9.35949758e-002 -1.04969494e-001 -1.43764764e-001 9.19958428e-002
      1.94838613e-001 -2.83438358e-002 -1.04992226e-001 9.43300501e-003
      7.69348517e-002 -2.17539862e-001 3.32109518e-002 -3.39647621e-001
      -5.41176423e-002 1.43273488e-001 1.66932672e-001 -6.71343282e-002
      -1.83015034e-001 7.69082233e-002 1.76966283e-002 1.31306034e-002
      -1.63724363e-001 1.06188119e-003 2.07797676e-001 -1.02768160e-001
      -9.22168568e-002 -2.47181356e-002 1.29825532e-001 -1.39270453e-002
      -1.11188538e-001 9.56008211e-003 9.76586491e-002 1.22453377e-001
      9.99638531e-003 1.32430512e-002 -8.97876993e-002 2.73906905e-002
      1.38054088e-001 -1.37440423e-002 3.82389240e-002 4.17005457e-002
      -6.15266263e-002 -2.18535677e-001 7.63575360e-002 3.71441990e-003
      8.39615539e-002 3.78269553e-002 1.56012177e-002 -6.93600997e-002
      4.94291745e-002 -4.56414931e-002 -1.11456998e-001 8.32653493e-002
      7.23571032e-002 -8.63199215e-003 -1.14602648e-001 5.44957928e-002
      -7.54377469e-002 4.64606807e-002 -1.16854146e-001 -8.40081125e-002
      -6.06928766e-002 -4.42146771e-002 -1.91236101e-002
      -5.37907593e-002 -3.89206111e-002 -1.28273800e-001
      -1.23173967e-002 4.47770208e-002 -9.12308693e-002 1.46159515e-001
      -8.43920037e-002 4.17916067e-002 1.99765433e-002 5.83260655e-002
      -5.96024320e-002 1.22826785e-001 8.70099366e-002 -2.16111705e-001
      -5.08561842e-002 -2.44745007e-003 -9.37220901e-002 6.04854263e-002
      6.87778443e-002 -1.50765078e-002 -3.49601934e-004 -4.60716560e-002
      -1.76675066e-001 -1.93358716e-002 1.18283957e-001 -4.16549966e-002
      -1.36352003e-001 1.21449023e-001 3.06971222e-002 -3.25438157e-002
      3.32136564e-002 -1.88164696e-001 1.92124397e-002 4.01433371e-002
      1.40280183e-002 -4.96964203e-005 1.60992578e-001 -9.52958912e-002
      1.67928323e-001 -3.30813751e-002 -2.47224532e-002 1.11532956e-001
      2.83252895e-002 4.62932065e-002 -2.18709204e-002 8.15829933e-002
      -1.34677708e-001 -8.93272981e-002 3.65531109e-002 -1.53986514e-001
      -7.62427179e-003 -2.44429186e-002 7.31853722e-003 4.56245206e-002
      1.17401339e-001 1.48275848e-002 6.17124476e-002 1.50132077e-002
      -1.06725274e-002 4.00445387e-002 -1.27715021e-001 -9.34200659e-002
      1.77283555e-001 -4.06363979e-002 -1.10276334e-001 -2.54726186e-002
      -4.68641780e-002 -6.43508583e-002 -1.14044599e-001 3.30383256e-002
      4.89177071e-002 -7.55332708e-002 1.26292601e-001 -8.76802281e-002
      8.30431748e-003 7.90665275e-004 6.86390232e-003 1.41215727e-001
      -1.55456081e-001 6.63006604e-002 -5.32384850e-002 1.51345991e-002
      -8.79943967e-002 7.58362785e-002 1.08722284e-001 -2.53816471e-002
      -3.42092253e-002 1.52621306e-002 -9.43389237e-002 1.06138237e-001
      -3.17057292e-003 4.22795229e-002 5.53563051e-002 1.27534065e-002
      -4.83804680e-002 4.60979976e-002 4.53135148e-002 -1.14083268e-001
      7.23179653e-002 1.08512446e-001 1.00181691e-001 1.03973687e-001
      1.09762922e-001 -7.54166916e-002 -6.69691339e-002 1.17215529e-001
      -1.05209593e-002 1.06591411e-001 3.71919498e-002 -1.17213540e-001
      1.96359262e-001 7.62993246e-002 -5.76455817e-002 7.96888694e-002
      4.10345010e-002 -8.34097434e-003 5.98713681e-002 7.48633072e-002
      -6.37688190e-002 5.43967001e-002 -2.34135576e-002 -1.56597257e-001
      1.51423402e-002 6.88362643e-002 -5.40650561e-002 1.13337569e-001
      5.06924726e-002 1.05537437e-002 -1.48676084e-002 7.73383901e-002
      -8.19307007e-003 -5.67109585e-002 -5.74520007e-002
      -1.44396443e-002 -2.86171716e-002 -8.41943547e-002
      -7.99353793e-002 4.97030579e-002 1.39465109e-002 3.63940117e-003
      4.66581993e-003 1.33172154e-001 -2.90935417e-003 6.37967438e-002
      -2.30262373e-002 -6.80330396e-002 -3.51011604e-002 1.19793400e-001
      1.61168966e-002 7.34796375e-002 -1.22510813e-001 6.74350932e-002
      -1.42381236e-001 2.19364539e-002 -5.47282919e-002 5.32741658e-002
      9.35596675e-002 -1.29057303e-001 -6.37268871e-002 3.09446827e-002
      -1.88793391e-002 9.74628851e-002 -2.82365978e-002 -1.47890121e-001
      1.10021882e-001 1.80827275e-001 6.76873922e-002 3.80192325e-002
      -1.23886131e-001 5.52735999e-002 -4.21874784e-002 1.74310692e-002
      -3.77747230e-002 1.65768936e-001 1.10127009e-001 -1.62210707e-002
      -1.67319432e-001 1.67723283e-001 1.42791674e-001 -8.56024176e-002
      2.67615588e-003 -2.24192832e-002 1.11426637e-001 1.63553879e-001
      -2.46449723e-003 -1.03164181e-001 -1.35199413e-001 1.61139503e-001
      -2.41893977e-001 1.54270425e-001 4.64845560e-002 7.01662302e-002
      5.27038947e-002 3.00788227e-002 -7.59956166e-002 1.26717016e-001
      -7.93258175e-002 7.51855224e-002 -1.74067348e-001 -2.94231176e-002
      4.40998301e-002 1.71424016e-001 7.59764165e-002 1.51631171e-002
      -2.63751298e-002 -8.47460255e-002 -2.21132860e-002
      -1.33134555e-002 3.40546630e-002 2.88518071e-002 3.43233012e-002
      -2.19234899e-002 -5.58306873e-002 1.29349351e-001 -4.30675875e-003
      4.29770052e-002 4.99173775e-002 9.34019238e-002 -8.78798962e-002
      7.73201734e-002 5.61710969e-002 1.10191084e-001 -3.21450047e-002
      1.92997351e-001 -6.03827164e-002 -8.38496834e-002 1.47714034e-001
      5.90732098e-002 4.91646342e-002 -1.08192086e-001 -1.51583135e-001
      3.88220549e-002 -3.05937622e-002 -5.00293709e-002 4.99576144e-002
      8.62517804e-002 1.30397081e-002 3.43333855e-002 -8.84654839e-003
      1.05407514e-001 -1.98454205e-002 -1.04227953e-001 3.84835750e-002
      -1.58045758e-002 -4.55363467e-003 8.82369280e-002 4.65171635e-002
      -1.27687111e-001 -1.09167013e-003 -1.06211407e-002 8.59569609e-002
      1.47910386e-001 8.25451687e-002 1.50547355e-001 4.49655280e-002
      -7.84339905e-002 -3.99017818e-002 4.08912078e-002 -5.09083346e-002
      2.10818406e-002 9.27724838e-002 2.18412969e-002 3.85778435e-002
      4.39712256e-002 8.40767846e-002 3.16350046e-003 7.30566727e-003
      -4.96715307e-002 3.52833346e-002 -1.31628457e-002 -7.31578376e-003
      6.56358227e-002 2.09333468e-002 4.95428555e-002 4.89812344e-002
      -1.22409992e-001 -1.67500488e-002 7.78149292e-002 4.11773100e-002
      1.07614659e-001 1.34560898e-001 4.60472293e-002 -5.35862707e-002
      -2.47445963e-002 -8.03297088e-002 7.38148540e-002 1.64625999e-002
      1.13466673e-001 2.88758315e-002 5.19004911e-002 -3.20610926e-002
      -4.40470316e-002 -5.95107675e-002 -8.73372424e-003 6.02331050e-002
      9.60187614e-002 -1.31049687e-002 6.99859904e-003 4.57301252e-002
      -1.08780742e-001 4.53148000e-002 -6.25957027e-002 -8.47207904e-002
      -2.54336912e-002 2.14683693e-002 -1.20329320e-001 7.41118863e-002
      1.07012525e-001 3.83062735e-002 -1.48993647e-002 -2.96697412e-002
      -1.22165762e-001 -4.60026748e-002 4.21564654e-002 -2.88476534e-002
      -6.31673494e-003 8.95594805e-002 2.44382098e-002 -4.18171734e-002
      -9.22084227e-002 2.11355630e-002 3.78435887e-002 8.20534304e-002
      1.03885442e-001 -6.33176491e-002 4.79149520e-002 -9.90670323e-002
      -4.79223281e-002 9.81996395e-003 -1.25921741e-001 1.98791511e-002
      1.48794964e-001 -1.25542104e-001 1.34355330e-003 6.35736510e-002
      5.27221262e-002 -2.13168748e-002 -2.65625771e-002 -5.17727854e-003
      1.54379206e-002 2.44229045e-002 -8.82769655e-003 -1.29315227e-001
      -4.06953320e-002 2.54130866e-002 5.53214625e-002 -8.65782276e-002
      1.00477740e-001 -1.26765734e-002 -9.01323278e-003 -6.58122730e-003
      -1.36989519e-001 -3.77229489e-002 1.22381844e-001 -6.84514716e-002
      -1.13054581e-001 6.54607266e-002 -2.22254936e-002 6.35481672e-003
      2.45944168e-002 3.29363234e-002 7.25960061e-002 -3.44151035e-002
      6.16420731e-002 -1.08628698e-001 3.37424651e-002 1.15315337e-002
      7.20668063e-002 4.13194895e-002 2.40527391e-002 1.87301800e-001
      1.60725623e-001 3.78043130e-002 -6.70277849e-002 1.07596241e-001
      -9.32300184e-003 1.42132491e-001 -8.95214155e-002 -1.03366680e-001
      -8.55685547e-002 2.71589607e-002 4.16392684e-002 -1.39416233e-001
      5.61208464e-002 6.00343943e-003 3.72531340e-002 1.88014358e-002
      -6.89625144e-002 -1.81700345e-002 5.17094433e-002 -6.92000538e-002
      -1.93546206e-001 -4.43586940e-003 -1.83655813e-001
      -4.44725389e-003 1.20514892e-001 1.02196507e-001 3.57758068e-002
      7.80550167e-002 4.08495925e-002 1.03287748e-003 1.55161247e-001
      5.01384996e-002 -1.02806695e-001 1.53226987e-001 6.09952770e-002
      9.80926082e-002 1.68157637e-001 -3.01422365e-003 -1.36378452e-001
      6.86020553e-002 -9.44920555e-002 5.34924529e-002 -1.72816694e-001
      -6.16340227e-002 1.15974871e-002 4.43833098e-002 1.34001315e-001
      -4.22955975e-002 1.02421507e-001 -6.49975017e-002 -4.28238623e-002
      4.76537459e-002 -1.23532057e-001 -2.98759025e-002 1.27897248e-001
      -8.69821161e-002 -1.48483992e-001 1.32534280e-001 -1.26150861e-001
      8.28755572e-002 -6.13865107e-002 -1.17537610e-001 1.32051185e-001
      1.01134710e-001 9.54634622e-002 -1.42897263e-001 1.17331982e-001
      1.22316986e-001 1.15383074e-001 -6.06814027e-002 3.27070337e-003
      4.51558009e-002 1.93968982e-001 1.42522663e-001 1.04484335e-002
      -4.18821685e-002 -1.42045347e-002 -3.56797352e-002
      -2.13216856e-001 -9.24644098e-002 -6.86410964e-002 4.94618975e-002
      8.85498747e-002 5.69052026e-002 6.35070354e-002 2.89649069e-002
      -5.89926466e-002 -1.14115387e-001 -6.47474676e-002
