<?xml version="1.0"?>
<opencv_storage>
<my_svm type_id="opencv-ml-svm">
  <svm_type>C_SVC</svm_type>
  <kernel><type>LINEAR</type></kernel>
  <C>1.</C>
  <term_criteria><epsilon>2.2204460492503131e-016</epsilon>
    <iterations>100000</iterations></term_criteria>
  <var_all>1260</var_all>
  <var_count>1260</var_count>
  <class_count>2</class_count>
  <class_labels type_id="opencv-matrix">
    <rows>1</rows>
    <cols>2</cols>
    <dt>i</dt>
    <data>
      -1 1</data></class_labels>
  <sv_total>1</sv_total>
  <support_vectors>
    <_>
      -6.81180298e-001 -3.72945964e-001 -5.04101813e-001
      -1.51931807e-001 -8.18146646e-001 -6.90270066e-002 5.42607903e-001
      -1.36743048e-002 -4.42925632e-001 -2.98001319e-001
      -1.24815333e+000 -2.20349088e-001 -6.25832438e-001
      -3.47751856e-001 -3.75189066e-001 -5.55809259e-001 2.62497906e-002
      3.18022281e-001 -6.47479221e-002 -4.43864733e-001 -3.69256705e-001
      -1.92653000e-001 3.67655277e-001 -3.48495275e-001 2.20899910e-001
      3.16353649e-001 -1.10063821e-001 -1.04544079e-002 -4.52049747e-002
      3.36965799e-001 -2.17092827e-001 4.28119972e-002 -1.72159836e-001
      -5.80548108e-001 -1.13004461e-001 -4.71052349e-001
      -2.48427108e-001 -1.19157091e-001 -1.92254130e-002 4.97721761e-001
      -3.47279370e-001 5.35353661e-001 6.96575344e-002 -3.69695574e-001
      -3.23984236e-001 7.99448788e-002 -1.09932828e+000 2.15260386e-002
      1.35331377e-001 -4.31617230e-001 3.40637892e-001 -1.14289485e-001
      3.96884419e-002 8.88658464e-001 -6.84707165e-002 -9.86591876e-001
      -1.23529553e-001 3.42415631e-001 3.47756624e-001 -7.68693238e-002
      -4.66124043e-002 -2.86333263e-001 3.04976981e-002 -2.34765150e-002
      5.30821860e-001 2.35005379e-001 -6.32146478e-001 -8.17452818e-002
      1.47057131e-001 -3.90225858e-003 -3.23335409e-001 1.19234644e-001
      -3.30096781e-001 -5.26210666e-001 -1.08895317e-001
      -3.42039555e-001 -7.47812092e-001 1.31776463e-002 -3.70290428e-001
      -2.97434032e-001 -2.43354172e-001 -3.45398277e-001 5.45211732e-001
      -1.75908431e-001 5.84795475e-001 -3.51550967e-001 -5.60367763e-001
      -2.49175020e-002 6.86188579e-001 -4.83225226e-001 6.41243458e-002
      -5.26298642e-001 -4.60524350e-001 9.38460231e-003 1.54887661e-001
      -4.82149899e-001 3.72284174e-001 -8.67871866e-002 -2.17167616e-001
      -1.00835271e-001 1.34516492e-001 9.13835689e-002 -3.45486879e-001
      -2.58209020e-001 -4.48789418e-001 -1.70687214e-001
      -5.94904184e-001 2.88702160e-001 -2.05059096e-001 1.94057763e-001
      -4.68649209e-001 -1.61043227e-001 1.85025096e-001 -9.83334929e-002
      -1.26062408e-001 4.83807981e-001 -3.21670920e-001 -7.75526047e-001
      2.92953461e-001 1.69555366e-001 1.77662686e-001 -3.35002720e-001
      1.94454476e-001 -4.03158486e-001 1.97544396e-001 -3.69753018e-002
      -6.20437525e-002 -1.30242467e-001 -2.84273833e-001
      -5.45627534e-001 -6.17117211e-002 -4.27310735e-001
      -3.82915765e-001 -2.44221345e-001 -2.26012096e-001 2.02775553e-001
      -2.41351590e-001 2.94335365e-001 -2.78689223e-003 5.53633034e-001
      -5.41782379e-001 -5.80007136e-002 -2.32862815e-001 8.58800635e-002
      -6.44019902e-001 -3.10084373e-001 -9.81621668e-002
      -9.40196887e-002 -1.44296408e-001 -5.18894456e-002
      -5.11022031e-001 -1.58658803e-001 -5.01984179e-001 1.23472527e-001
      6.89831197e-001 1.83573201e-001 8.57537240e-002 4.72088009e-001
      -5.88806570e-001 1.42031303e-002 1.66622162e-001 -7.36797631e-001
      -2.13862881e-001 -2.97529966e-001 3.39669511e-002 -4.20664102e-001
      2.39741921e-001 -7.83067763e-001 -5.97970605e-001 -1.31974638e-001
      -1.32600844e-001 -4.08815563e-001 -5.41404605e-001 4.26585913e-001
      -4.68470871e-001 1.88550428e-001 -4.88020867e-001 -2.48939931e-001
      -6.32483419e-003 -1.64758250e-001 -2.34526113e-001
      -5.43120563e-001 -2.01874487e-002 -5.51293373e-001 1.23114012e-001
      8.54977518e-002 2.87940213e-003 -2.45492324e-001 1.99146271e-001
      1.47854686e-001 -3.41069877e-001 1.09368943e-001 -2.05794647e-001
      1.81969479e-001 -2.47217745e-001 2.15867851e-002 -6.99038580e-002
      7.21635744e-002 3.86342376e-001 1.34369150e-001 1.49153009e-001
      -2.51454804e-002 9.84904543e-002 4.08335716e-001 7.82512605e-001
      -1.09739333e-001 2.60537535e-001 2.64144450e-001 -5.97070992e-001
      1.46738589e-001 -3.55709434e-001 -3.81282307e-002 -6.93458021e-002
      3.00021563e-002 -4.05705750e-001 4.71313357e-001 -2.80272514e-001
      -5.33415318e-001 -4.97488193e-002 -3.02146212e-003 2.85994858e-002
      2.76473612e-001 5.97949624e-001 1.82655696e-002 3.04517269e-001
      -1.83778957e-001 2.84049362e-001 2.11273775e-001 1.52176246e-002
      7.87659347e-001 -1.00074863e+000 -2.45738029e-001 -1.35080263e-001
      4.39726561e-001 1.03097118e-001 -2.42647752e-002 6.22607529e-001
      6.38118744e-001 2.34082881e-002 3.01083833e-001 1.50488704e-001
      -4.89752591e-001 5.23230910e-001 1.79043472e-001 -5.58757663e-001
      3.99826229e-001 -2.97943026e-001 4.62295681e-001 9.89762545e-001
      2.30565175e-001 3.44479054e-001 3.67517173e-001 -3.65403324e-001
      -1.80556595e-001 1.20442785e-001 6.25272930e-001 5.53217120e-002
      6.04111329e-002 3.02224219e-001 -1.49513438e-001 -6.78517893e-002
      -3.63039762e-001 1.55626670e-001 1.44051820e-001 5.41307151e-001
      1.66493401e-001 -3.21344547e-002 -3.29370499e-001 1.32078633e-001
      -6.05222404e-001 5.65140843e-001 4.89735335e-001 -4.92388785e-001
      2.52143562e-001 -1.68007895e-001 -7.80294001e-001 2.57927775e-001
      5.78282177e-002 -9.90915522e-002 -5.08789159e-002 -5.02546392e-002
      1.96254656e-001 -4.68848795e-001 -2.34187245e-001 -3.69775862e-001
      -4.57221031e-001 2.57292032e-001 -3.25718135e-001 -1.17818139e-001
      -1.37998581e-001 -2.04690956e-002 -2.40935251e-001 9.32846591e-002
      3.66783768e-001 1.68004349e-001 1.91640988e-001 3.77250373e-001
      7.01091215e-002 2.11583734e-001 -3.37291002e-001 -1.36881739e-001
      -5.35395026e-001 -2.31301561e-001 1.34786218e-001 -1.71040565e-001
      2.95918435e-001 6.02205731e-002 -1.75442114e-001 -1.51492327e-001
      -4.90703732e-002 1.96902407e-003 -4.47089791e-001 -1.51219130e-001
      -5.10196805e-001 -9.13935304e-002 2.79582404e-002 5.67109466e-001
      -2.48062730e-001 -9.87872109e-002 -1.84470728e-001
      -5.16868591e-001 1.16915241e-001 -5.77442527e-001 -5.12970388e-001
      -3.00636142e-001 5.19043803e-001 -1.51202604e-001 3.05412441e-001
      3.13345134e-001 1.01017699e-001 1.78629562e-001 -1.76189635e-002
      -3.96384090e-001 -5.89174151e-001 2.91055262e-001 1.02251597e-001
      2.80517846e-001 -2.86607165e-002 -7.97578812e-001 3.80141407e-001
      2.44321749e-001 5.40108323e-001 1.34432808e-001 -4.59097385e-001
      -8.52013826e-001 -6.35348737e-001 -4.32811558e-001 6.89991638e-002
      -1.04512513e-001 -5.71720898e-001 -2.92778432e-001
      -4.51288015e-001 6.15798712e-001 -1.72015965e-001 2.74389982e-001
      -6.17541134e-001 -8.07196349e-002 4.40343879e-002 -6.43970668e-002
      -3.38402897e-001 4.07172181e-002 -1.46083683e-001 2.15675697e-001
      -8.45815182e-001 -9.59220827e-001 9.86327082e-002 2.02639952e-001
      -5.54241300e-001 -3.51820618e-001 4.50372398e-001 -7.49068439e-001
      -9.77884680e-002 2.22112164e-001 -1.77681558e-002 -2.86532849e-001
      1.06010377e-001 -2.36354187e-001 -1.47890985e-001 -1.81040943e-001
      1.13055281e-001 1.02790368e+000 -6.31451458e-002 3.89661416e-002
      -2.68551528e-001 6.74251989e-002 -1.12180881e-001 -8.83622885e-001
      5.82698226e-001 1.85615256e-001 2.80451924e-001 -5.19846141e-001
      -4.40949291e-001 3.29073727e-001 -1.29075602e-001 -3.65054160e-001
      4.64151829e-001 -3.20227772e-001 -4.63480860e-001 -5.07997632e-001
      8.65110680e-002 -8.27635005e-002 3.38511080e-001 4.92823362e-001
      -3.47095698e-001 -1.21441424e-001 5.78801744e-002 -3.34089339e-001
      7.87711561e-001 8.89528245e-002 3.59069765e-001 -6.91304803e-001
      -1.89789221e-001 -3.36038947e-001 -7.77332902e-001 3.07074130e-001
      3.17198724e-001 2.80300230e-001 1.65465176e-002 -5.04304349e-001
      1.06249601e-001 -7.20481575e-001 -2.97609895e-001 3.04178968e-002
      3.34620178e-001 1.64884105e-001 -6.82119802e-002 -6.45677090e-001
      -2.93508530e-001 -5.37037730e-001 -3.18355680e-001
      -8.57814103e-002 -4.30560783e-002 9.02468991e-003 -1.25974312e-001
      -6.75306201e-001 -6.15237057e-002 -1.05101049e+000
      -2.26334464e-002 -1.44288644e-001 -4.24377620e-002
      -3.97425503e-001 2.00021416e-001 1.25515595e-001 9.96289924e-002
      -1.07982852e-001 -3.49286854e-001 3.68836761e-001 2.18527168e-001
      -2.97356993e-001 1.33073732e-001 -2.32062787e-001 4.84198183e-002
      -1.03284657e-001 -8.23684394e-001 -6.13201857e-001 7.47938976e-002
      9.98629723e-004 -3.51702064e-001 -3.02181005e-001 -1.68551013e-001
      2.27076933e-001 2.06580684e-001 -8.15976620e-001 2.97641568e-002
      -1.46523267e-001 1.18657432e-001 -6.66299403e-001 -2.88168430e-001
      -6.85268342e-001 5.75883746e-001 -5.32058299e-001 6.03696965e-002
      -6.51000500e-001 -2.99201220e-001 -2.84352332e-001 6.64149374e-002
      -2.45566756e-001 2.30015397e-001 1.78355768e-001 -2.51901805e-001
      2.29809880e-001 -5.14428973e-001 -3.02302003e-001 2.26776764e-001
      4.00147974e-001 2.11871378e-002 -1.08881041e-001 -1.63492814e-001
      -2.42365941e-001 -3.59474897e-001 -5.18839121e-001
      -1.38073444e-001 -3.76430899e-001 -4.34476376e-001
      -5.87674916e-001 5.46929874e-002 3.95784199e-001 4.22422867e-003
      -5.49563408e-001 -4.25198585e-001 2.13116974e-001 -1.69773062e-003
      -3.35492134e-001 -8.22005768e-006 5.41765131e-002 -9.36141834e-002
      -4.90024127e-002 9.92467627e-002 -4.82884705e-001 4.48850123e-003
      -3.09180051e-001 -8.81814212e-002 -3.62036496e-001 2.20813379e-001
      1.53621942e-001 1.71803281e-001 -3.56773406e-001 -2.06516474e-001
      -4.19205189e-001 6.15660310e-001 6.56151623e-002 2.12907180e-001
      -1.84724137e-001 5.49920090e-002 3.53737593e-001 -4.25626077e-002
      -2.65239626e-001 8.02946165e-002 -5.41135371e-001 -4.13066268e-001
      -3.05631515e-002 -5.02495110e-001 -2.30446875e-001
      -1.93265583e-002 3.20032358e-001 -1.48299187e-001 4.19342145e-002
      3.00127327e-001 9.43978056e-002 1.76791579e-001 -3.41159910e-001
      2.84992112e-003 1.24806829e-001 -2.56242424e-001 -3.38864475e-001
      1.21419109e-001 6.12557590e-001 1.67002916e-001 -3.63330930e-001
      -1.98527873e-001 -2.64041603e-001 2.88075536e-001 -2.69613743e-001
      -6.76638484e-001 1.66409165e-001 3.16904485e-001 -2.31637910e-001
      2.86445469e-001 -6.43106937e-001 1.90749213e-001 8.29847753e-001
      2.25366279e-001 5.56064129e-001 -9.49144959e-001 9.85597372e-001
      3.97600502e-001 3.88003364e-002 3.12431425e-001 3.26503813e-001
      1.08280525e-001 -2.67526563e-002 -3.99758726e-001 -3.23090017e-001
      8.85891095e-002 -6.78054571e-001 -1.36556506e-001 -7.39008859e-002
      1.79257393e-001 -1.33099467e-001 -3.12208802e-001 -1.08901024e-001
      -2.44496427e-002 3.64788979e-001 -3.59797627e-001 1.81520924e-001
      -1.34195477e-001 -5.14454283e-002 -4.28932905e-001 7.18484581e-001
      -3.33893836e-001 -7.57577941e-002 1.91243902e-001 -1.36387482e-001
      6.36301100e-001 5.75038314e-001 2.16157302e-001 -1.50911734e-001
      -1.21906959e-001 -8.80576149e-002 2.17754152e-002 1.51785970e-001
      -5.31329036e-001 -4.13484313e-002 -7.13036135e-002 2.93057077e-002
      5.12741506e-001 -3.19095701e-001 -9.99584943e-002 -9.19865966e-002
      6.08431280e-001 -2.60865595e-003 -4.19267863e-001 -5.26965022e-001
      -1.81056812e-001 1.08054923e-002 2.65566260e-001 -7.97095060e-001
      -2.28330851e-001 2.56764412e-001 1.92231908e-001 3.52559239e-002
      1.28382951e-001 -4.88044918e-001 1.18103120e-002 2.82469928e-001
      -7.67054319e-001 1.78877383e-001 -3.27636003e-002 -7.03675151e-001
      -4.32668999e-002 1.06733590e-001 -3.37894559e-001 3.55667621e-001
      -5.25110245e-001 -4.58740652e-001 3.60613912e-001 5.11092067e-001
      2.10376084e-002 -2.42378563e-001 -4.52363156e-002 1.15181692e-001
      -2.13853180e-001 -9.84766185e-002 -1.79997683e-001
      -1.98749721e-001 -2.83728868e-001 -2.27261767e-001 3.04271150e-002
      3.40182595e-002 -6.50676966e-001 2.74868179e-002 -2.15194657e-001
      -5.51135957e-001 -1.12293042e-001 3.49695116e-001 1.38645634e-001
      -4.03469920e-001 1.21818386e-001 -3.98574263e-001 -1.26488313e-001
      8.36536214e-002 -4.34844822e-001 -1.69328034e-001 9.34387594e-002
      -4.40193713e-001 3.06249559e-001 -9.27389622e-001 -1.51880935e-001
      3.64030570e-001 -4.12325382e-001 -2.04814285e-001 2.57530808e-001
      -4.69885886e-001 4.57200669e-002 -5.55712819e-001 -4.31277275e-001
      1.53828591e-001 5.58832705e-001 -1.18337944e-001 -2.29683325e-001
      5.65611362e-001 -2.73097247e-001 8.98754075e-002 -5.83502837e-002
      5.15119918e-002 -4.80994463e-001 -8.08400009e-003 -3.89467403e-002
      -4.03117314e-002 -1.08994909e-001 2.11670876e-001 -1.40824765e-001
      4.79294509e-001 1.00289494e-001 -2.45922655e-001 1.13646261e-001
      2.53055066e-001 -6.74516559e-001 -1.91319302e-001 9.88085270e-001
      -4.79727983e-001 -2.96408743e-001 -4.23001289e-001
      -2.97456205e-001 1.28803462e-001 -2.50375211e-001 -8.38454008e-001
      6.36003315e-002 -1.61780983e-001 -4.38537478e-001 3.51339504e-002
      -3.89025301e-001 3.76240909e-001 7.83902347e-001 -2.52323151e-001
      -1.03142798e+000 3.50121200e-001 9.29798484e-001 -2.24591121e-001
      -6.20355725e-001 -9.19802845e-001 -5.06196618e-001 2.88663536e-001
      -1.09579243e-001 -3.64298642e-001 3.64281274e-002 2.71662116e-001
      1.88758463e-001 -9.34340656e-002 -2.09055632e-001 -2.02264071e-001
      -3.91741060e-002 7.86469802e-002 -1.23320601e-003 -2.94839293e-001
      -1.19111523e-001 2.96148479e-001 5.02856821e-002 -2.41479397e-001
      7.79955834e-002 8.86172578e-002 3.33967172e-002 -2.41606459e-001
      -9.73508477e-001 -1.66917980e-001 1.06419111e-002 2.84848511e-001
      1.06383991e+000 -7.58234859e-001 -7.09609268e-003 5.91497660e-001
      -3.17205340e-001 8.92313838e-001 3.21630538e-001 -4.96723920e-001
      8.71923491e-002 -2.47658871e-004 -1.65203601e-001 4.94995080e-002
      1.59576133e-001 -5.09231746e-001 4.56767499e-001 2.36790463e-001
      -2.74481267e-001 3.52165997e-001 -2.38356188e-001 -5.57563066e-001
      -4.63413417e-001 1.08648084e-001 -2.93429434e-001 4.04935628e-001
      -4.64703217e-002 -6.45895183e-001 1.09131768e-001 -2.18697339e-002
      8.88601914e-002 3.53865236e-001 1.56302229e-001 -4.32812989e-001
      -4.42129314e-001 -1.30285010e-001 -5.72014093e-001
      -5.73035553e-002 3.09528619e-001 5.87393582e-001 1.62446387e-002
      -3.22087884e-001 3.73440206e-001 -1.30849496e-001 2.59011924e-001
      -6.27326012e-001 2.43449792e-001 3.64024825e-002 -4.52753872e-001
      2.21695945e-001 1.60025194e-001 -6.77050501e-002 -6.86452165e-002
      -3.30809176e-001 -3.64096314e-001 6.50747195e-002 7.06246197e-002
      -1.06910586e+000 -3.15851241e-001 -9.44009721e-002
      -7.35130429e-001 -3.30774754e-001 3.72899443e-001 1.16737388e-001
      -1.50652662e-001 -1.64769534e-002 -4.22212064e-001
      -9.18145478e-003 -5.80314934e-001 -1.63420320e-001 5.11542261e-002
      -4.85296637e-001 9.32492968e-003 2.16374964e-001 3.97204384e-002
      -5.42228758e-001 1.34495161e-002 -2.44278774e-001 -4.45084751e-001
      -3.04258347e-001 -3.32728848e-002 -2.34649092e-001
      -1.46460950e-001 -2.45815292e-001 -3.87425005e-001
      -2.34018458e-004 -3.20002228e-001 -3.95023972e-001
      -4.95664299e-001 -2.13726968e-001 -3.34828943e-001
      -4.69131798e-001 -9.91387889e-002 -2.12952003e-001 2.14570425e-002
      -3.75053287e-001 -5.22529781e-001 -2.04797506e-001 1.24446854e-001
      5.70646584e-001 7.70559311e-002 3.60149533e-001 -5.48814952e-001
      2.45027661e-001 2.22521022e-001 -5.08617878e-001 -6.57162294e-002
      1.06398582e-001 -5.58055401e-001 -4.63354766e-001 -4.08656687e-001
      -7.75661971e-003 -1.86227858e-001 -2.16521829e-001
      -1.01937354e+000 4.17406112e-001 2.15453342e-001 -2.58000135e-001
      -7.81866610e-001 -5.04389815e-002 -2.27224752e-001
      -3.01552892e-001 -6.57310426e-001 -5.10853827e-002
      -1.42008841e-001 6.11233860e-002 -3.51837575e-001 -4.70654339e-001
      -1.50704920e-001 3.15616578e-001 5.62740803e-001 -5.30551709e-002
      3.69150937e-002 4.84651364e-002 6.88435137e-001 -1.04801439e-001
      -1.04987435e-002 -8.99524689e-002 -3.18340324e-002
      -1.63874537e-001 2.24350959e-001 -5.06675959e-001 4.20645922e-001
      2.08320349e-001 -3.90316635e-001 1.54930711e-001 3.53697151e-001
      1.81698039e-001 5.43339849e-001 -7.73838282e-001 -4.67164844e-001
      -3.36524546e-002 9.93061140e-002 2.90259004e-001 5.90297282e-002
      -7.39615858e-001 5.23844481e-001 6.88315602e-003 3.56934130e-001
      -1.19420551e-002 -1.82950869e-001 5.22770509e-002 5.10187149e-001
      -2.26552323e-001 1.70739412e-001 -4.11478877e-001 -4.54590499e-001
      1.17712438e-001 -5.96689340e-003 -3.43908146e-002 3.38501967e-002
      -5.13317585e-001 -1.15809776e-001 -5.18054783e-001 3.57158482e-001
      5.72001159e-001 -3.68548483e-001 -2.52614200e-001 -3.50376219e-001
      -1.12899937e-001 -5.06404817e-001 -1.35397509e-001 1.64416507e-002
      -3.79566699e-002 5.83169870e-002 4.50483561e-001 -5.55218875e-001
      2.97212362e-001 4.34112489e-001 -3.86801250e-002 9.04847831e-002
      -3.36586416e-001 -2.67388392e-003 -1.43235922e-001
      -2.07024798e-001 1.40949652e-001 1.20958395e-001 -1.41043767e-001
      -4.79348987e-001 -1.53834438e-002 -5.44368446e-001
      -4.79178786e-001 -6.05343878e-001 1.48294225e-001 -3.73507798e-001
      -1.72432691e-001 4.17020470e-001 -1.70822799e-001 6.75520241e-001
      4.59826082e-001 1.55486345e-001 5.55762529e-001 -1.38200894e-001
      2.19097972e-001 2.52250046e-001 -3.29732537e-001 -4.14264351e-001
      -1.19723529e-002 -7.10900426e-002 1.94704950e-001 -3.05505991e-001
      1.52471095e-001 -8.07000548e-002 3.41777593e-001 -2.24492654e-001
      -3.92501116e-001 8.83308172e-001 -9.91446972e-002 -2.90716171e-001
      6.86668932e-001 1.15141124e-001 -3.83485913e-001 -2.75269657e-001
      -4.59783942e-001 -2.15848625e-001 8.93700346e-002 3.48864853e-001
      -5.89987040e-001 -3.78564566e-001 4.60312515e-001 4.22126874e-002
      4.35937613e-001 3.57462198e-001 3.08828503e-001 -4.20130968e-001
      -6.68158382e-002 5.97856641e-002 1.08644992e-001 -3.16754013e-001
      -1.86838031e-001 -3.14868465e-002 -4.79687154e-001
      -3.21664691e-001 -2.64454156e-001 -8.88794567e-003
      -5.45018494e-001 3.21261585e-001 -4.14290518e-001 -6.05214834e-001
      1.56452864e-001 -1.79936811e-001 -5.39687462e-002 1.03141546e-001
      -2.01354161e-001 -6.09236538e-001 -2.30508506e-001
      -3.62492502e-001 -4.54300374e-001 1.42730996e-001 -1.96750551e-001
      -9.97212306e-002 -3.28116864e-001 -2.77212739e-001
      -3.52672607e-001 -6.45733997e-002 -9.25014853e-001
      -2.34326184e-001 -1.75993487e-001 6.35733381e-002 -1.59671545e-001
      1.41374050e-002 5.25221646e-001 -2.56172240e-001 2.62037665e-001
      -7.27153838e-001 -4.29495990e-001 -5.58831729e-002
      -6.61274910e-001 -5.80086172e-001 3.29562724e-001 -1.92078948e-001
      1.85626104e-001 5.66948056e-001 -4.12976950e-001 -2.94914186e-001
      -5.15911877e-001 1.64902046e-001 -4.16491836e-001 3.61709408e-002
      -5.80711961e-001 7.19991028e-002 3.24763954e-001 5.27326465e-002
      2.53286153e-001 -5.75152636e-001 -1.68346584e-001 -6.15535498e-001
      -1.80115297e-001 -4.44492221e-001 -2.72506505e-001 3.47849101e-001
      -7.06668913e-001 -4.51063037e-001 -2.26203408e-002 4.08531904e-001
      6.23467803e-001 -5.06083727e-001 -1.58084244e-001 -4.29979831e-001
      -2.69391090e-001 2.54927754e-001 -6.14494205e-001 -5.64269386e-002
      -2.23600388e-001 -7.38668919e-001 4.95617092e-001 -3.11393708e-001
      2.67132431e-001 7.04160810e-001 -6.81942523e-001 -3.57694089e-001
      5.14965892e-001 3.98643404e-001 -2.89841831e-001 -8.70150849e-002
      -4.67183709e-001 8.67558539e-001 1.59491017e-001 1.98250990e-002
      9.44066226e-001 -6.27224803e-001 -3.94379884e-001 -1.09393142e-001
      2.98552334e-001 -5.02556443e-001 -6.07581317e-001 -5.12726843e-001
      -7.78376520e-001 5.68241835e-001 -6.66635275e-001 -3.22063714e-001
      -6.56802952e-001 -2.57266432e-001 -6.66941702e-001 3.09157193e-001
      6.41310930e-001 4.37013388e-001 -5.39243817e-001 1.12254083e-001
      2.07738169e-002 -4.14364040e-001 1.25707179e-001 5.04743218e-001
      -7.68126905e-001 7.85159692e-002 -4.23835129e-001 -4.46349442e-001
      1.83912888e-001 -2.81026274e-001 -7.25823939e-001 -2.85984371e-002
      1.04579248e-001 1.47314146e-001 1.18059786e-002 -1.28778780e+000
      -4.99679327e-001 3.98840070e-001 -3.00320923e-001 -8.02766919e-001
      1.97840303e-001 -5.43324172e-001 8.48157406e-002 -2.86321253e-001
      -3.90902251e-001 1.70456558e-001 -3.04500699e-001 -2.64054388e-001
      -1.22369491e-001 -4.01463181e-001 -5.84809363e-001
      -6.48517668e-001 1.35680228e-001 1.64521962e-001 -1.02008939e+000
      -7.53535479e-002 -3.04321915e-001 -9.22701657e-001 3.87593806e-001
      -4.41326261e-001 -2.22238824e-001 -1.73355713e-001
      -7.61684418e-001 -3.02696168e-001 -9.55456272e-002 2.97179997e-001
      -8.45196605e-001 -5.96454382e-001 -9.82961282e-002 5.33809960e-001
      -4.13002849e-001 1.80911452e-001 -8.92899707e-002 -2.45495692e-001
      -3.89768183e-001 -6.32735714e-002 -9.82184559e-002 2.70854235e-001
      -5.59462547e-001 -3.56358051e-001 -1.21698558e-001
      -2.62854546e-001 -3.60363066e-001 2.50234336e-001 -1.83732256e-001
      1.99067414e-001 3.34856570e-001 -8.83146301e-002 -7.18244165e-002
      -3.07844102e-001 -5.61367333e-001 1.87652260e-001 -2.13033766e-001
      -3.98240060e-001 3.27174485e-001 -2.45175496e-001 -6.13701999e-001
      -4.18953151e-001 1.16456859e-001 -1.19615026e-001 3.62101346e-001
      2.24106405e-002 -2.86062568e-001 6.90596342e-001 -6.02755733e-002
      -1.39023855e-001 3.48774076e-001 -3.83189261e-001 5.25141954e-001
      1.40416458e-001 1.53634772e-001 -1.61248296e-002 -1.55487627e-001
      -5.14448106e-001 3.91972780e-001 3.82525384e-001 -1.33738682e-001
      4.53416646e-001 -2.39612639e-001 1.72054157e-001 4.16277409e-001
      7.93061331e-002 1.31450132e-001 9.54992026e-002 -2.66139835e-001
      7.71538988e-002 -6.36479795e-001 4.19211596e-001 -3.43721300e-001
      -3.10540825e-001 -4.08380806e-001 -1.67309269e-001
      -4.63370174e-001 2.86253482e-001 -1.07505277e-001 -1.09818824e-001
      3.47034365e-001 1.00811429e-001 7.51145035e-002 -4.34867769e-001
      -3.37336779e-001 -1.63031504e-001 -1.61238715e-001
      -7.57760227e-001 2.85864353e-001 -2.56231517e-001 9.43110213e-002
      1.73391119e-001 -1.13605574e-001 -4.32848752e-001 -2.59602189e-001
      6.54670119e-001 -7.50816047e-001 4.66316938e-001 3.05262417e-001
      -1.12272955e-001 -9.68465060e-002 -2.73774564e-001
      -1.46796077e-001 -3.08427304e-001 -2.02406198e-001
      -2.17160121e-001 -3.44648421e-001 -2.05002233e-001
      -6.39952362e-001 -7.83320427e-001 9.49605554e-002 -9.13608134e-001
      -1.30368859e-001 2.75820374e-001 -5.22426903e-001 -7.02450216e-001
      6.06018186e-001 -1.48040131e-001 2.25235686e-001 -4.60072130e-001</_></support_vectors>
  <decision_functions>
    <_>
      <sv_count>1</sv_count>
      <rho>-2.0800924140156834e+001</rho>
      <alpha>
        1.</alpha>
      <index>
        0</index></_></decision_functions></my_svm>
</opencv_storage>
